{
  "input_size": 35,
  "hidden_sizes": [
    128,
    64,
    32
  ],
  "output_size": 16,
  "layers": [
    {
      "weights": [
        [
          -0.2274256679634108,
          0.17296350687274253,
          0.17421571056249135,
          -0.06141575238619362,
          0.3247778688154828,
          0.32428270377297763,
          -0.0833749374125626,
          0.13245034478946122,
          0.0732925740605724,
          -0.07729483570329769,
          -0.4155564876099337,
          -0.14784722339500933,
          -0.2508629875494636,
          0.08942590296028288,
          0.058301891447487486,
          0.017809306884547613,
          0.38571865370852026,
          -0.12683081305891603,
          -0.12403503801168231,
          -0.24030985047008468,
          -0.022314519053212398,
          -0.05829366242921752,
          0.023258481919412884,
          0.09460725190954947,
          -0.5247632196022762,
          -0.31340242663179274,
          0.06517993948083639,
          -0.18149419327242408,
          0.057361402917403034,
          0.015722116493440602,
          -0.22741812517130083,
          -0.18721559845151617,
          -0.09400672454542847,
          0.0898320937265292,
          0.9876914158656691,
          -0.20032412396440008,
          0.09421422380971888,
          -0.47240028120025884,
          -0.16295124718985826,
          -0.024795188157839987,
          -0.5610466063100339,
          -0.2797147634867422,
          -0.06605622921572404,
          0.07876198878147757,
          -0.1329414303046856,
          0.04745829539450079,
          0.3068720515278017,
          -0.003375896491016564,
          0.5541904944034752,
          0.20349955914918577,
          -0.1618390232557689,
          -0.04799382848234761,
          -0.18239085496982638,
          -0.09478076404358915,
          -0.20267651228617628,
          -0.13405496774274078,
          0.16142623760423389,
          0.050114304243260424,
          0.45432815214553984,
          -0.08079801313549824,
          0.18068480834054318,
          -0.06621932291379246,
          -0.15079789360255952,
          0.03242501731805182,
          -0.25700907663617106,
          0.26291668051532746,
          0.2455771246162074,
          -0.30627039780011756,
          -0.4193773183017654,
          0.05962770164355017,
          -0.26737386178101774,
          0.544385813232745,
          -0.2308368377444599,
          -0.2822735127570529,
          0.18964961654114834,
          -0.05640728585024367,
          0.16997725899537214,
          0.19305074805828581,
          0.3441060694525447,
          -0.040432802521638,
          -0.03440026522638483,
          0.11770390679779688,
          0.0807041417176732,
          -0.4063131546174048,
          0.07659375249017217,
          -0.36630243604146073,
          0.3637656744253394,
          -0.03440125688694719,
          0.007699558818588893,
          0.12422062273780825,
          0.5282122778041777,
          -0.11783333812352621,
          -0.05281282183231088,
          0.1430284250082357,
          -0.17938644746193916,
          -0.43947883926495307,
          0.1558132251744409,
          -0.3872393335940627,
          0.12113349284413004,
          -0.6168357620874012,
          -0.06558996258288566,
          -0.2988472208743573,
          -0.21301262742022842,
          -0.09762367294088237,
          0.032996354747825724,
          -0.07548579276370239,
          0.4148216089588487,
          -0.1814801115200119,
          -0.014072499687800527,
          -0.12787342290641324,
          0.0454905908768116,
          0.06607136319729931,
          -0.009386640185652502,
          0.40687384017632,
          0.24297021459584683,
          -0.2961076255755962,
          -0.06937674230404327,
          0.2551025654659939,
          -0.0036736342339499586,
          0.2252706634149619,
          -0.22204562561346508,
          -0.1234622069658922,
          -0.02251197269337963,
          -0.249500665289184,
          -0.007782285958992469,
          -0.38672478998346466,
          -0.11115165259986344,
          -0.20720902707432381
        ],
        [
          0.18592660281813891,
          -0.2569984936266144,
          -0.3573773821336835,
          -0.1917374549043127,
          -0.20983801362683463,
          -0.7583429411157426,
          -0.15469398197267412,
          -0.007041586704075849,
          -0.05338901231427722,
          0.09323441941039065,
          -0.01506966668397608,
          -0.10120757015290838,
          0.356718247998955,
          -0.8425533048764731,
          0.11017809187423527,
          -0.5031965795801558,
          -0.2752762343402294,
          0.22765144077349292,
          0.11945601495540459,
          0.007360757208621255,
          0.2799385204722153,
          -0.39092755453604366,
          -0.32180693403528693,
          -0.2938170773661589,
          0.029429794744793798,
          -0.14328426190046065,
          0.029452628336669805,
          0.18822742890716615,
          -0.05406424869929568,
          0.23969053001143611,
          -0.12257111890117585,
          0.30919805654434696,
          -0.024848608330659182,
          0.3845733968456978,
          -0.02559376661717913,
          -0.2536600121654829,
          -0.06034882446004154,
          0.23263906486977226,
          0.22364561835346158,
          -0.4888674066816219,
          -0.19171946045621396,
          0.022430599587716565,
          0.02872133489102703,
          0.34370790993105316,
          -0.07303081963705355,
          0.1482704514413127,
          0.2322605444785873,
          0.027904044254549107,
          0.1414299330185137,
          -0.12313580792910656,
          0.10628899815639682,
          0.04620111507597996,
          -0.10213982914900385,
          0.16959286870822135,
          0.4291267825620364,
          -0.11066153246356533,
          -0.02670141016257038,
          0.6209897023018913,
          0.07645757099788739,
          0.01514962079266606,
          -0.016368606650347152,
          0.5156319543237615,
          -0.15442951182327364,
          -0.33471524871451136,
          0.10720977498046577,
          -0.5855616989723874,
          -0.051970759107440215,
          0.04784683559521351,
          -0.0010447852827074958,
          0.12171121537998494,
          0.22177045836987802,
          -0.24919236755307658,
          -0.10284740314952542,
          -0.08144217702616005,
          0.006129947791185003,
          0.3145849781278634,
          0.10615800011273258,
          -0.22176541205636313,
          0.21025244324983053,
          0.11531569051127846,
          -0.259952636994687,
          -0.22949312838970964,
          -0.4825566673368286,
          -0.1966743264608185,
          0.5575064074556272,
          0.00801851849882745,
          0.5968381952400997,
          -0.5962194707044781,
          -0.17167754252342482,
          -0.019957273046653956,
          0.4953911229845322,
          -0.310691838732047,
          -0.22214738444029752,
          0.10128780624998099,
          0.17031200038351027,
          0.036974555354344324,
          0.27446348786345354,
          0.3057023419077422,
          0.13881873600491015,
          -0.26338929044264847,
          0.25674363004008177,
          0.20492260762759015,
          -0.23082869962940605,
          -0.23516723427755107,
          0.35170976668483955,
          -0.01778477269765026,
          -0.0145185394390994,
          -0.1765087735563664,
          0.29118173297813266,
          -0.346645650062157,
          0.3778418469431955,
          0.6669324226557449,
          -0.08480749827726915,
          0.2781059034201598,
          0.08323892438789121,
          0.20592817873649666,
          0.34748352759254597,
          -0.29252225526558673,
          -0.414712892693778,
          0.10201014871697087,
          -0.23773933755142745,
          -0.08231927093321491,
          0.12964961210076598,
          -0.23136203978354092,
          -0.34146786113764105,
          0.1606045995232797,
          0.30468985800142795,
          0.28479171693906363
        ],
        [
          0.3083310683045293,
          -0.2304525500835219,
          0.07943178170563499,
          0.2507059575028665,
          -0.26706755007505034,
          0.09831884029849763,
          0.078555037366055,
          -0.22560062270138076,
          0.08349298646874634,
          -0.1563573211721539,
          -0.1761251587737494,
          -0.13655985649133828,
          -0.24675288085536748,
          -0.09748671831881058,
          -0.12346480902310841,
          -0.11861321845905752,
          0.10227047549379387,
          0.2396563531064008,
          -0.3336634292978114,
          0.3945060073943826,
          -0.45037129787203695,
          0.015851398955462597,
          -0.0940035219110301,
          0.8411672802177365,
          -0.0807803798681799,
          -0.18021123091720306,
          0.1670927422093766,
          0.19858703043239925,
          -0.35979096605661265,
          -0.19557586713056746,
          0.29947934941357085,
          0.04128884920401038,
          -0.27553384061414243,
          0.0019854943604217246,
          -0.09156662512863398,
          -0.06410837793369001,
          -0.40365474804840973,
          0.24789693456061226,
          0.23621497213944806,
          0.18479325391158802,
          0.38438966082495984,
          -0.07966509665707569,
          0.1462005480217951,
          0.028334385765003273,
          -0.2503995738050702,
          -0.0406710154967461,
          -0.4145913799425188,
          -0.04780714376935794,
          0.13333070856716037,
          0.023331581796317898,
          -0.3927220155521991,
          0.018973679403168492,
          -0.039167804116027514,
          0.10191504318367856,
          -0.05750379972457001,
          0.2510637931763917,
          -0.27629062768588364,
          -0.4403956021522476,
          -0.11184760893844653,
          -0.07027097030883558,
          -0.30681778877936283,
          0.06636338391692877,
          0.08311099454468358,
          0.27692375828207205,
          -0.06599183150690674,
          -0.5859070741310258,
          0.1344204621427112,
          0.19639578071962227,
          0.1267151885338599,
          0.27869527409909906,
          -0.10316852218277914,
          0.2167608408688651,
          -0.0028905544050523355,
          0.031126695544491427,
          0.31505956684010605,
          -0.03439222570175461,
          -0.1118501483314828,
          0.4272932440500262,
          0.23037144359899123,
          0.09353424452586351,
          -0.4147270287037345,
          -0.024257814582510116,
          -0.38828300809173966,
          0.2361194543388077,
          0.3778602557250944,
          -0.4387539224686353,
          -0.03390850632777535,
          0.17595378335609035,
          0.34267187013033135,
          -0.3511396528470851,
          0.1530341953352558,
          0.06381545822016307,
          -0.384953849942119,
          0.14656406863910468,
          -0.15294969372664285,
          -0.08289424063045053,
          -0.02102739155497684,
          -0.21930317855962916,
          -0.1569558457811039,
          -0.1762229710983665,
          0.12108065353079803,
          0.12819415666725723,
          0.20229956554207756,
          0.06524570860491308,
          0.004962447876968708,
          0.16230229000658647,
          0.06825962597464824,
          0.2898419976325548,
          0.2069096236419461,
          0.21138822728191475,
          0.01655172537527785,
          -0.37460105426345586,
          -0.25154525453271764,
          0.031295573048570134,
          0.04195543259190494,
          0.010416822837338496,
          -0.3469931895897054,
          -0.16590230072894424,
          -0.4543481971355379,
          0.3146887141818834,
          0.08006023266349727,
          0.11108789747511065,
          0.23724200966015535,
          0.18636206598911836,
          -0.1390001940778674,
          0.09813671841697234,
          0.3711718426450821,
          -0.010384202463641197
        ],
        [
          -0.17430662679562126,
          -0.5086134600409751,
          0.20991111388792744,
          -0.14414216555224124,
          -0.3260166213208229,
          0.5730239138266048,
          0.18106687517503625,
          -0.37612706336471957,
          0.04796582385108528,
          0.2712290074183319,
          0.3079169645634331,
          -0.3652188856683818,
          -0.08336156824388419,
          0.258404293987886,
          -0.13948280576972233,
          0.21584435808627608,
          -0.10798755810023761,
          0.09397440578311145,
          -0.3070268900935679,
          0.20013556525642515,
          0.1439077190518019,
          0.1544425822014787,
          -0.16602143416278206,
          -0.18051636724449327,
          -0.3080122923032145,
          -0.06330628608690907,
          0.2090802865880086,
          0.11303506417052811,
          -0.45728554735550575,
          0.13295344732817807,
          -0.21347740355045158,
          -0.41180825108547486,
          0.18669186923078387,
          -0.19558230628402748,
          -0.2643029804179726,
          -0.024126585942955775,
          -0.1503658724204877,
          -0.07872933337909233,
          -0.11413387126565662,
          -0.32664988665668127,
          -0.2298888212853274,
          -0.2962879572663195,
          0.26490274960066784,
          -0.22697982427872876,
          -0.08631563760078631,
          0.11559371085126197,
          0.2458582560584211,
          0.07929391919745352,
          -0.31161102894141934,
          0.21716240204624357,
          0.35824319133602217,
          -0.03814693239551713,
          0.5468136541885698,
          -0.47616199929046066,
          -0.2536023319521941,
          -0.1463984341842276,
          0.07605845820892088,
          -0.30646210032581506,
          0.03498232758907585,
          0.29359638479466427,
          0.08679105743560431,
          0.24251515715927247,
          -0.0037310622495380225,
          0.10874653529500915,
          -0.17246402333420086,
          -0.5361332098549243,
          0.040870211040352655,
          0.17354862609979627,
          -0.35448987907508617,
          -0.09147869038011744,
          0.04757853961992018,
          -0.35733103461192905,
          0.26287248920545314,
          0.09284312936440713,
          -0.5854802642209386,
          -0.07149172062857886,
          -0.12677240926309355,
          -0.2524483239991993,
          0.19792915039174258,
          0.1910452642373194,
          -0.03897915669187143,
          0.2478867402200608,
          0.017439761157220315,
          0.26452674638506046,
          -0.3821018530064967,
          -0.210623063120709,
          -0.10206927292550431,
          -0.003580998029204717,
          -0.11785591413200792,
          0.30580685364009375,
          -0.5099171269395837,
          0.07330774216140643,
          0.2190539077841951,
          -0.030098717817297574,
          -0.2647870947796545,
          0.10513959745379597,
          0.22576531308538011,
          0.37733400154327995,
          0.49362299367312124,
          -0.1490399633111621,
          0.15455257049427668,
          -0.14682588205340824,
          0.22028275120433347,
          -0.2689307848218796,
          -0.14665066588079903,
          -0.24301205733198802,
          -0.24523256234706067,
          0.16018084791357717,
          0.02064829968499131,
          0.21828629367341068,
          -0.12148035450473184,
          0.24296560566102318,
          -0.09422032468892914,
          0.10190266255920957,
          -0.28422474950861937,
          0.06684891066488477,
          -0.1697818605197957,
          0.15656506591555852,
          0.06405062633001218,
          0.3300502518567935,
          0.16732978611271915,
          0.026822360824910865,
          0.044485970742528635,
          0.11907254984031164,
          0.1322582012258321,
          -0.42967780798783217,
          0.04655260694037982,
          -0.0929826194141481
        ],
        [
          -0.09802577876373073,
          -0.5999985253048116,
          0.17348660146649683,
          -0.1953447997531666,
          0.3601730717836005,
          0.19910961172726202,
          -0.0305855520421211,
          0.18991655426100562,
          0.5574057810546006,
          -0.189038511836005,
          -0.037290844116093555,
          0.20129212990397904,
          -0.20572458311587483,
          0.0013028418350180797,
          -0.078048881860675,
          -0.11800243319112785,
          -0.008965159714180713,
          0.08508830835019343,
          0.08821725090202333,
          -0.03979003787735963,
          0.44728686134419404,
          -0.19554903436235263,
          -0.061627091808781634,
          0.16173490973706095,
          0.07350547795079855,
          0.10137676780793481,
          -0.10457946778131122,
          -0.12856525145140993,
          0.21046835058662836,
          0.0410903431460154,
          -0.16811380731513803,
          0.33933022318768835,
          -0.1521592541934141,
          0.27409844184266235,
          0.20056262067095462,
          -0.05282455309708377,
          -0.28546760624003636,
          -0.5554189596110807,
          -0.2549563222372737,
          0.021607944996743227,
          0.3185258498061604,
          0.395531173994808,
          -0.030863490694384474,
          0.20101935768785262,
          0.1438797677760164,
          0.3029307202690327,
          -0.5421873067576303,
          -0.11769800167371473,
          0.0947483485833037,
          0.296756984303477,
          -0.11655381973150132,
          0.3394723185630552,
          -0.04727234996724942,
          0.10874785082768686,
          -0.08419721910699554,
          0.3004356455751337,
          0.5424918711507218,
          0.07693813182812856,
          0.3627278633582701,
          -0.21821589078491677,
          -0.17138607314978938,
          -0.1817154024795955,
          0.1420769486941158,
          0.11369125798186766,
          -0.530054203958125,
          -0.3299511738824196,
          0.3767584848534355,
          -0.18377654140753322,
          0.13508210728632106,
          -0.0780622309474684,
          0.19107524394208444,
          -0.03351751826238467,
          0.008999877670824039,
          -0.33577084767556,
          0.25136985472453244,
          0.1430573024774039,
          0.06130370228676393,
          -0.13545781689261133,
          0.07906079298067023,
          -0.32187269067264823,
          0.4413505799622117,
          -0.17170897860166195,
          0.28116416057450216,
          -0.31776602229129697,
          -0.13180773040248148,
          -0.047379097053358576,
          0.1308718409938333,
          0.1088050739560926,
          -0.20556805697877598,
          -0.29615771204859886,
          0.04730003541129282,
          0.02254956302358266,
          -0.05056954152040609,
          -0.09304052780276503,
          -0.2898099556739254,
          0.05179977772338985,
          0.020562591764265156,
          0.055588760178261476,
          -0.4137470174846558,
          -0.18986673856465935,
          0.1945660289273031,
          -0.2589376591809049,
          0.4532937516927456,
          -0.1870292696070956,
          -0.2879178375769691,
          0.0027936602129461363,
          0.33399654944216783,
          0.2754103177208248,
          0.3293850081930976,
          0.21911391958563642,
          -0.2417159223089711,
          -0.2438345947730567,
          0.08150685658129272,
          0.07302238841608899,
          0.13323554710906538,
          0.0005642234446953248,
          -0.14537041897474295,
          -0.3264309778996418,
          0.3605997003418446,
          0.012924140257436531,
          0.08013529985574655,
          -0.2951780155261854,
          -0.10741970006551077,
          0.13438665272157527,
          0.36943280280615753,
          0.050431665428545935,
          0.09038602804986218,
          0.4826473464183261
        ],
        [
          0.037628470701319555,
          0.027145138317798984,
          0.007374644585311507,
          0.07274655583213453,
          -0.05429346792738824,
          0.3956235056779673,
          0.023856131204391312,
          0.010969078107491897,
          0.36400453733754407,
          0.28353930827015716,
          0.15301299177417704,
          -0.06931830323632665,
          -0.3252786664076488,
          -0.09837711277116873,
          0.07114673487031553,
          0.005450099123284133,
          -0.0866524236100525,
          0.000537248851658137,
          -0.07142255151096333,
          0.28733089851094096,
          0.38621550356984685,
          0.08547167215718005,
          0.41134064028381007,
          0.3109569279428067,
          -0.15216734784303218,
          -0.013063844272798261,
          -0.08153929088543432,
          0.346546135182639,
          0.3122455712555445,
          -0.11349226114268407,
          0.10865660867381693,
          0.2352236542704707,
          0.146598813180352,
          -0.1151548789738182,
          0.7136374927104238,
          0.09050681884449704,
          -0.3568967485944232,
          -0.26438220376219196,
          0.056083223579501906,
          -0.06381180889556315,
          -0.17291806610163152,
          0.020004853539363376,
          0.20822350468318118,
          -0.40639720256724177,
          0.005730967855743185,
          -0.23248198733596084,
          -0.15386052572704234,
          -0.036982121119254044,
          -0.07549889760816368,
          -0.12413759499962192,
          0.408223674276231,
          -0.36687925026972984,
          -0.04924451540296428,
          -0.4314236211171816,
          -0.042392848809057276,
          0.5397168171991545,
          -0.0802133732546707,
          -0.1848304345530787,
          0.09089546684532052,
          0.1643882875998411,
          0.2871438778409068,
          0.25387525453761417,
          -0.17867805315914836,
          -0.048323945718506574,
          -0.10481062961815016,
          0.006297464477711866,
          -0.21334356074372904,
          0.1939533354968948,
          -0.5315447784942873,
          -0.21653178850642357,
          -0.245565312074342,
          -0.03398418089278842,
          -0.2036081611000534,
          0.09889886381932522,
          -0.15394100322212656,
          -0.2903149889487869,
          0.2606758210754117,
          -0.15177095244802444,
          0.1308450052877746,
          -0.26845967866529463,
          0.038820624940658445,
          -0.02317743751190128,
          -0.13478795825694426,
          0.0038903149774021754,
          0.21049085807653933,
          -0.08733711926669917,
          0.5104288975844743,
          0.1687806954084023,
          -0.42681609328391157,
          -0.1861898990620507,
          -0.6032932839849342,
          -0.23740673477515725,
          -0.1519864114569559,
          0.17778190977434133,
          0.3307408976165861,
          -0.06864756556100074,
          -0.049535296383536084,
          -0.13176381561289713,
          0.18711113651373315,
          0.4505477221898175,
          -0.3834888980105935,
          -0.06164275681006319,
          0.20098279977239258,
          0.22321418901928594,
          0.22835173164541042,
          0.34688455288168085,
          -0.054842755700016274,
          -0.1295508499670367,
          0.3439946426938162,
          0.19221117116474443,
          0.37217182401579774,
          -0.14755080225252676,
          -0.1999028936389402,
          -0.08280700243327443,
          -0.24194583302000355,
          0.2897617061578776,
          -0.19885970037035672,
          -0.203815612876691,
          0.21812659542581506,
          -0.23164782927853306,
          -0.005565655280438064,
          -0.1506872434507523,
          0.0650069070786048,
          0.07284678391898206,
          0.3579410790384428,
          -0.24409746699480284,
          0.21544212820196706,
          -0.1713383782975159
        ],
        [
          0.15455343265655402,
          0.12328460076010841,
          0.03684639301872777,
          -0.33176209361979403,
          -0.004947752821850365,
          -0.565136277753767,
          0.312405294744146,
          0.24385711395581852,
          -0.06646950286422185,
          0.09872264446744258,
          -0.3744500032409734,
          -0.19325133106561412,
          -0.004740832253062537,
          -0.27599087246031173,
          -0.19493707055094078,
          0.20639087041753523,
          0.10932845616098218,
          -0.38170920785527407,
          -0.04282282140456474,
          -0.12067436067063586,
          -0.11139221116902573,
          -0.12541614741483148,
          0.2844656718553214,
          -0.002421081809291681,
          -0.12493643491000823,
          0.10052036270380413,
          0.03677659277149692,
          -0.15171864807245528,
          -0.24745737626298359,
          0.0625952512829909,
          0.31354919927200664,
          0.049253487191022884,
          -0.33143673308301835,
          0.022071283439473878,
          1.0871515811551564,
          -0.1494197113926516,
          0.1839899570668977,
          -0.05832534664348117,
          -0.17250278120584006,
          -0.05172419278361966,
          -0.04498344959908114,
          -0.09378645889829779,
          0.35010616218964974,
          0.045039570518942536,
          -0.02427268897634167,
          -0.03819811658578047,
          -0.06451351119095801,
          -0.1762274290570614,
          -0.05253817029933588,
          0.1940878429279914,
          -0.04352639418415849,
          -0.19720143932342302,
          0.23403853794694035,
          0.07189269220654737,
          -0.26686982762558026,
          0.29157457590971225,
          -0.43690008706513817,
          0.11573808202197829,
          0.13235178861971414,
          -0.2089394381215359,
          0.04014575445587907,
          0.05577848681824649,
          -0.2499490843371967,
          0.2644112979714211,
          -0.373653786572687,
          -0.0517496816546507,
          0.12866174215938286,
          -0.2577665955233243,
          -0.3492393554237435,
          -0.21300971094661825,
          0.04423190472585539,
          0.021002420030300735,
          0.016640801543948744,
          0.4547663910772673,
          -0.13038837391693853,
          0.13924246692590808,
          -0.1731317997583126,
          -0.02682751098951501,
          -0.09366205300436509,
          -0.05884339138830246,
          0.3137721036755048,
          -0.0004231965090092035,
          -0.19548367471082895,
          -0.13487532563638366,
          -0.03527265664006468,
          0.007735018141749317,
          0.14516805857976525,
          0.18140368667349496,
          0.36784140732281445,
          -0.40193548079399155,
          -0.31876403018909194,
          0.3736179938058749,
          -0.44114508079906356,
          -0.021268783165282162,
          0.42269912680922106,
          -0.0027097220948597168,
          0.14328956057466324,
          -0.1424429479037305,
          0.2544811657199836,
          0.030675743338289284,
          0.1755858968616645,
          0.1769863149094982,
          0.046863865906071625,
          -0.326408314993872,
          0.05389852360213301,
          -0.08363264055704017,
          -0.3990563858782167,
          -0.0366957394744578,
          -0.03712731027192373,
          -0.3206462573737321,
          0.035911588414649226,
          0.1761868953452401,
          -0.25743782876148513,
          0.07470643568197399,
          -0.05957957323618154,
          0.09367005477628676,
          0.27193902815794047,
          -0.19968506274066739,
          -0.3634529871602966,
          0.2193161594822553,
          -0.22875468790900982,
          0.2760696710669273,
          0.06186025839731486,
          -0.1365955187508428,
          -0.12304057984891498,
          -0.24178213281440067,
          0.10537817042624596,
          -0.2490178346004494
        ],
        [
          -0.5707613502889677,
          -0.06593068570891844,
          -0.009617889476584596,
          0.04779218113143971,
          -0.15107442808021157,
          0.4693764265814743,
          -0.07460256165885726,
          -0.19822103007158165,
          0.2170734284897724,
          0.26643855128414407,
          -0.03556635166668065,
          -0.31916496001705774,
          -0.27375916034828124,
          -0.024097834718273273,
          -0.32622046544910416,
          -0.032003357804496674,
          -0.2760060278278786,
          -0.22591591717826992,
          0.37134575433291545,
          -0.07011124611789789,
          0.2492804113169284,
          -0.26428150751885005,
          0.44819593532132906,
          -0.24713990129679997,
          -0.4022760388875527,
          -0.1311898079766683,
          -0.24405759783129355,
          -0.0826805384031572,
          -0.11990907498761796,
          0.08155385000937776,
          0.10564491039866039,
          0.17697046341496972,
          0.04518873981860518,
          0.1882907877334242,
          -0.9987998626408265,
          0.2891648809704938,
          -0.3522009988807396,
          -0.15971230224064026,
          0.2298607151142176,
          -0.2164182270209452,
          -0.11528974555763406,
          0.013293876337495042,
          -0.06356071338071934,
          -0.253012544824484,
          0.15994993894332582,
          0.5853831899921558,
          -0.48031784627120694,
          0.23543513677354283,
          -0.1944709055791372,
          -0.02176913931484691,
          -0.4663181664091003,
          0.2662608826158668,
          0.11772658809811462,
          0.322485143192981,
          0.2670275443735809,
          -0.056658015119716076,
          -0.0457661109094956,
          0.17580617881315153,
          0.1128045433368039,
          -0.337408130343344,
          0.3002503541396281,
          0.0071194361210973195,
          -0.3666123345231026,
          0.22104722488927386,
          -0.11017573442204001,
          0.2347419198444183,
          -0.2690534093319499,
          -0.357288765580232,
          0.3385569465809333,
          0.46138378000645686,
          0.5731236970311384,
          0.176836195345313,
          0.17774786169549403,
          0.13873727841368325,
          -0.49272475375209107,
          0.226344316917921,
          -0.556517036399936,
          -0.12374420274331757,
          -0.1397882354006788,
          -0.3827583195701417,
          -0.23549261975191124,
          -0.17354077177180677,
          -0.0008690615628961194,
          0.012644673351321993,
          -0.18737564269697737,
          0.042587655071455975,
          0.2828334743143547,
          -0.059818734013319795,
          -0.006154271183648769,
          0.012335015099527266,
          0.15766235118830702,
          0.6177749807650718,
          -0.16955499453719008,
          0.27723068083356783,
          0.18199707382119862,
          -0.21746311486310943,
          -0.23129399401437273,
          0.03253135034141074,
          0.3249294814150051,
          0.2888489202093029,
          -0.30570568738410125,
          0.05767403404188427,
          -0.4463354037754415,
          -0.22719989256620832,
          -0.09369656406759946,
          0.2415143820734842,
          -0.5063685536937559,
          0.10930647650487516,
          0.1112863419698798,
          0.288958378887376,
          0.19918806013833215,
          0.34165663186856465,
          0.4328133253817806,
          -0.2926724525603479,
          -0.08125802442570972,
          0.34356267538716145,
          -0.46713911737177577,
          -0.22397067744882374,
          0.03492584607680103,
          0.07956992090214401,
          -0.03778955774564359,
          0.418631635532184,
          0.1219283285509493,
          -0.23659378633610814,
          -0.026281886565944622,
          -0.20808355198228332,
          0.1264412408501465,
          -0.14018722033185563
        ],
        [
          -0.06518555769066837,
          -0.11121120194568163,
          0.06580217109903058,
          0.29151270054521755,
          -0.03487112622757524,
          -0.028778388794874876,
          0.07101194393806283,
          0.3763597460592287,
          0.06771049957219522,
          0.03657955440988189,
          0.6043334057058438,
          0.03892965052286959,
          -0.07612413224840327,
          0.17052201883599338,
          0.5810068291398871,
          -0.14617808195328166,
          -0.07152432549034465,
          0.22853652085886558,
          0.06160400226067705,
          0.1431724176917325,
          -0.12099179303322613,
          0.035893402838758505,
          -0.5126198627393685,
          0.2908059011397629,
          0.12343787631991987,
          0.08159840989600695,
          -0.0331320069768268,
          -0.06947019287194672,
          -0.15279243170161116,
          0.22493737141756412,
          0.13837945679360103,
          0.0436855224520259,
          0.030875664786727104,
          0.25542580762308154,
          0.5025612584542323,
          0.39856322539215616,
          -0.20310961628540064,
          0.058350515661170915,
          0.0010952664873256496,
          -0.13007797336715538,
          0.34831962779131187,
          -0.452801417645655,
          -0.31319578174937807,
          0.048030327317918384,
          -0.39027551388242276,
          0.11016544242436765,
          0.35551964536392294,
          -0.06748769728854878,
          -0.10037331679325695,
          0.6523523609473065,
          -0.08032115485814473,
          -0.5375779435786774,
          -0.2746694994581016,
          -0.3146562283592678,
          0.23134636929859648,
          -0.34393151853562276,
          0.5593749992744488,
          0.11678227445281619,
          -0.14541928133643958,
          0.12962769225320686,
          0.3348522042392491,
          -0.30587540954378845,
          0.17207815234056661,
          -0.08684411950995227,
          0.04869125855659522,
          0.23732969957217365,
          0.21034535195337678,
          0.02331887089298936,
          0.1701313009493522,
          -0.3331679201349385,
          0.12044193433085618,
          0.18575339510243766,
          -0.05271789396096831,
          -0.06445383126116055,
          -0.40673943741980473,
          -0.15148165892567114,
          -0.20090326472633319,
          0.1378401484764838,
          0.2257345874246772,
          -0.2572362694631003,
          -0.061868078983408875,
          0.10689248590563746,
          0.16401581437088095,
          -0.12680745377616512,
          0.2724082870603193,
          0.08049331601384611,
          -0.24338956064849432,
          0.32281582199870473,
          0.07292139374880789,
          0.08392668865581002,
          -0.011414774387870912,
          0.42441823712468313,
          0.5394348183867238,
          0.2077997294843414,
          -0.006969335081973595,
          -0.08937845418218987,
          -0.035493038345404945,
          0.17330501951927707,
          0.016887879453113142,
          -0.26219697796933134,
          -0.15137598806179997,
          -0.11731628872235295,
          0.20697042441207802,
          0.1663673856944845,
          -0.3190961764728935,
          -0.10617969840260072,
          0.06411253260166702,
          -0.03192815490706734,
          0.20235537192108577,
          -0.4232619920286822,
          -0.0028370397218639674,
          -0.34392328264778527,
          0.09886606617670496,
          -0.20934457254916766,
          0.06730886312712694,
          -0.27202370502838,
          -0.028986106963494275,
          0.07752301177930138,
          -0.08466114546602667,
          -0.3908117874020868,
          -0.11883878281733237,
          -0.36147916470975583,
          -0.2624021486005279,
          0.06029149590586089,
          0.03969805886029516,
          -0.07433044647092919,
          -0.11998053452658258,
          -0.1762327347109906
        ],
        [
          0.31867641139720726,
          -0.022946403937639907,
          0.004849715156967582,
          0.06643845181456771,
          -0.12262950851713447,
          0.23111998490678956,
          0.08164162171844985,
          0.05436519516380206,
          -0.05990360039373764,
          -0.13487658460127083,
          -0.1895624635016371,
          0.10023123994391342,
          -0.323612078807855,
          -0.5563761581066046,
          -0.16752657318542621,
          -0.016585121197048965,
          0.0323725621226327,
          -0.12640678669152544,
          0.17669088319837795,
          0.19812290373409516,
          0.3360531514665155,
          0.2959441604361989,
          -0.04565899522145328,
          -0.3534647008668771,
          -0.32455457320709147,
          0.0824360200675552,
          -0.2981006763626032,
          0.13409848520786155,
          -0.32480605277813174,
          -0.1490928152812479,
          0.21000792967576254,
          -0.38353994762311616,
          -0.09429693475007452,
          -0.025640745140739565,
          -0.2902342673143868,
          -0.03227055828194184,
          0.17074707988418394,
          -0.025147139679903188,
          0.26274389502704076,
          -0.057190574375752326,
          -0.25616684211338303,
          0.10048329562516467,
          0.1131415397029895,
          -0.0018655416819707074,
          -0.17838324043676612,
          -0.3542742437770102,
          0.49473050613700187,
          0.16548446086904456,
          0.317723106842876,
          -0.12647580901170524,
          -0.047596374774086556,
          0.06495996654932557,
          -0.3505232353586055,
          -0.42103207162398804,
          -0.13142565693279462,
          0.3126372286553195,
          0.15968669625342635,
          0.1739138660926317,
          0.17050251007460127,
          0.20645466083151148,
          0.04366303627547414,
          0.18085280907335288,
          -0.05517088077644393,
          0.08252629004805012,
          -0.07864134698811696,
          0.0035071132980351027,
          0.011470287010132106,
          -0.02687037958079129,
          -0.060231062261720036,
          -0.09092681954013523,
          0.5310565215227848,
          -0.03256265776090801,
          -0.32892021146204303,
          0.014955250705072143,
          0.11517856110030553,
          -0.07747280401957189,
          0.04045720208089254,
          -0.0020826710496595208,
          -0.042874602036249695,
          -0.020673662336505288,
          0.02202627554631279,
          0.15070693628324022,
          0.2564006276771015,
          -0.2599828929907597,
          -0.029797207187376246,
          -0.11301840934965957,
          -0.05387579978086291,
          -0.5510779078031983,
          -0.5441064121233214,
          -0.201816627021991,
          -0.43236471162282664,
          -0.003100087069003582,
          0.135556822085581,
          0.0813321425615768,
          0.24325822927853008,
          -0.42603321334132754,
          -0.3151426463716724,
          -0.1613286071161305,
          0.3820791521631891,
          0.3206302271804571,
          -0.07843864259170426,
          -0.31751831498345956,
          -0.2122545542269777,
          0.15591655755196615,
          0.010085536541779763,
          -0.20397680405133997,
          -0.16604400686237508,
          0.01466334572111818,
          0.12120981503032921,
          0.2483954754478347,
          -0.2344641158149517,
          0.08637089468862273,
          0.3512621688836127,
          0.08472909799520227,
          0.007900872210341373,
          0.015313580512168634,
          -0.06587564707361299,
          -0.05207834376381303,
          -0.23180590119590833,
          0.08971264943581479,
          0.2194531153110219,
          0.416773236764108,
          0.0908833910957796,
          -0.04153274450033136,
          0.09265782651309534,
          -0.07932722413282814,
          0.050388910171875884,
          0.2551954676694374
        ],
        [
          0.05770413801559573,
          -0.31747793777466027,
          -0.15328907817917603,
          -0.5417673772180824,
          0.2592833478172253,
          -0.22011161391383627,
          -0.19483698591689924,
          0.0005605115333726929,
          0.14406666161301893,
          -0.3462360715285524,
          0.11955598075296492,
          0.03137278218937971,
          -0.1716781964237674,
          -0.05886812187104518,
          -0.008182143456851698,
          -0.02125358865618597,
          0.007366171117685845,
          0.0890921387394666,
          -0.13505044378537645,
          0.3030619214850582,
          0.1908480843505431,
          0.14082369755798585,
          0.422199772052601,
          0.25246356996598,
          -0.11893667445348845,
          -0.45870286590465387,
          -0.33775450238741334,
          0.3639441355071222,
          -0.012351090183626234,
          -0.037909978748731726,
          -0.1270974189797449,
          0.362024975502128,
          -0.043087307043903664,
          -0.047925278064008724,
          0.41367173676750024,
          0.11840516878775838,
          0.3265843332411067,
          -0.18983550768666027,
          -0.008109015043541546,
          0.21372965817592948,
          0.1065898608148303,
          0.24915778719494713,
          0.09351231894934148,
          -0.2213946399501645,
          -0.30448061883503097,
          0.1529301067394856,
          0.14660891433066353,
          -0.17574990925256703,
          0.03863127947417193,
          0.34043006802971854,
          -0.06678489494089064,
          0.018652406818629695,
          0.4204985673505499,
          -0.2926772076050357,
          -0.3600173981684571,
          0.27725898058814574,
          -0.17569263750279357,
          0.04592202520595243,
          0.22004251655319607,
          -0.03289511032285905,
          -0.08462129656522414,
          -0.07971551904023272,
          0.4210348783786782,
          0.12923115387139145,
          0.2772288102597562,
          0.24993855430750783,
          0.1565029792869017,
          0.3234670358501167,
          -0.004583503008534717,
          -0.18092678762946302,
          0.027704246803329648,
          0.032850870946601836,
          -0.24996607210032618,
          -0.041188255459842685,
          0.5349036248735919,
          0.12028333518697991,
          0.4657035749575922,
          0.01960469235506512,
          0.33925490767883176,
          -0.3143989079350189,
          0.07003184919209704,
          -0.03559638205038669,
          -0.06600859384000896,
          0.12162615792286617,
          0.10440487445353855,
          0.07016898133071389,
          -0.199691666707095,
          0.1788061899013317,
          -0.2046824494380595,
          0.24729287586659043,
          0.3402801622680306,
          0.06662119672674736,
          0.3279534504245606,
          -0.0499339426442752,
          -0.07524257770897747,
          -0.20394606621382666,
          -0.10421439443990095,
          -0.00985276679959431,
          0.10602525830215356,
          -0.3356614762349241,
          -0.0009247663529390378,
          0.49115496939783426,
          -0.25918236710741893,
          -0.1451581718072027,
          -0.18039501902851962,
          -0.13304367165515835,
          0.4611922331135385,
          0.06205555074167371,
          0.3004793079145617,
          -0.1867814537086161,
          0.4449320991836445,
          -0.09601231425853256,
          -0.40278353060561317,
          0.44057845681353064,
          -0.08812302689851303,
          -0.1910673127497951,
          -0.10457170234816261,
          -0.04860360319686376,
          -0.05241779322994461,
          0.026169656685178677,
          0.3594384450052336,
          -0.24847478545986795,
          0.25911010132748613,
          -0.30787963474845076,
          0.4372984428241439,
          0.15825326939690215,
          -0.25391010562475425,
          -0.04748435763755819
        ],
        [
          0.03609838926838618,
          0.21350713534774393,
          -0.19587864258570825,
          0.015159712434585013,
          0.502782802154716,
          -0.182688057127964,
          0.15626310798413218,
          -0.30457846761671276,
          -0.4069287829118562,
          0.3068718301270066,
          -0.11292067906758582,
          0.17355510020706438,
          -0.2051439951350071,
          0.20884933898635566,
          -0.1563767784163728,
          0.19148161224471258,
          -0.5796473019497801,
          0.09904189026715193,
          -0.16133414481192065,
          -0.6764343712045141,
          0.09025234231981476,
          -0.2567649947465123,
          -0.07661638827583356,
          0.15126896601319384,
          -0.04224843523208865,
          0.32637920691528355,
          0.1581960098981387,
          -0.08134851566351943,
          0.19185310335275896,
          0.12763370043482658,
          -0.3882318557379738,
          0.2777648938178156,
          -0.17382137192953484,
          -0.15746590097836335,
          -0.31064175810442896,
          -0.13278054655707763,
          0.387107092861504,
          -0.4587710706811024,
          0.13390798249461777,
          -0.0522560209586347,
          -0.2415620965121561,
          0.12630837178844645,
          0.19299630859942926,
          -0.14425813237504193,
          -0.22319200735321476,
          0.06285043934675864,
          0.07279506353337067,
          -0.3165659951978179,
          0.4733207457357,
          0.21011358208574016,
          0.08283577692749436,
          0.133315529604091,
          0.17324481301664807,
          0.40684234703246663,
          0.4231452515551115,
          -0.3564497989222267,
          -0.06943620579503162,
          0.2888153513019204,
          0.04819895487613256,
          -0.4043366197667233,
          -0.295589184873129,
          0.1555100643164793,
          -0.17054405667322595,
          0.6376851759683144,
          -0.3122070823065454,
          0.28607886081068873,
          0.26883886206985075,
          0.03734657398801458,
          -0.1825158082049086,
          -0.19962712772311228,
          -0.12007433826314785,
          0.19659848789440473,
          -0.12070930480703577,
          -0.3169507715072306,
          -0.4359200040010718,
          0.4213136845980463,
          -0.20983802368822935,
          0.5455046949637244,
          -0.1714583651327552,
          -0.058635235161570154,
          -0.3846343801634542,
          0.08243573125280482,
          0.05356285017374611,
          0.08541075083250249,
          0.10122382032702512,
          -0.3636897647845363,
          0.18851426321755044,
          0.002275818967947728,
          -0.15103845645549935,
          -0.2808095425361852,
          0.08540368600471873,
          0.22346172363962513,
          -0.37509581393298674,
          0.3004314427157661,
          -0.336062201400222,
          -0.17762123503085964,
          0.2571347979186813,
          -0.16435420902740383,
          -0.09044124258083393,
          0.05829617501203921,
          -0.33937040897616855,
          -0.20412460518227865,
          0.21070313327373652,
          -0.24463146059199128,
          -0.15406274575618006,
          -0.15213935309694016,
          -0.3382328464070571,
          -0.09080765296509455,
          0.0024172643698978785,
          -0.1874271571903497,
          -0.01483912949640411,
          0.013951117935442531,
          -0.07447838081869126,
          -0.07087708983867375,
          0.1923601743451275,
          0.23632198415804417,
          0.2522173658755325,
          0.2486626158181709,
          0.022166330331043763,
          0.12951803673834433,
          0.18676272394963214,
          -0.09023190775735734,
          0.2071672496135121,
          -0.18876734218214455,
          -0.14906077429570014,
          -0.0939607624570261,
          -0.5489441535334012,
          0.1216928036578079
        ],
        [
          0.06344691529894486,
          -0.21189152415637869,
          0.3254580993936659,
          0.13933906382831762,
          -0.4335910598515315,
          0.10707202726311693,
          0.1750815067525055,
          0.2414605105606405,
          -0.10084411199489603,
          0.21334252948590893,
          -0.2393687910437554,
          -0.04760591529121225,
          0.017774193669387497,
          -0.13532444180606307,
          -0.1284391404852976,
          0.45138846566943586,
          -0.23724787604104447,
          0.13130837216074231,
          0.2658651571906731,
          0.05432679715553748,
          -0.1661292462140096,
          0.031389712586024784,
          0.13694767712703593,
          0.2858408726391495,
          0.11064451575995739,
          0.1593286801244005,
          -0.17981713172497596,
          0.3598339546860161,
          -0.021982470803227766,
          0.07119316650616478,
          -0.014227711437979473,
          -0.12019564569332614,
          -0.3626471434411924,
          0.3748272647644185,
          -0.08693656501871677,
          -0.2802301360853122,
          0.0630514824928077,
          0.14370806657731044,
          0.20408278403949948,
          -0.05598303069251033,
          0.1658904070333187,
          -0.1404569698858411,
          -0.2580534725735093,
          0.13745441713958495,
          0.17934936433079113,
          0.29646871201485747,
          0.04716535308360668,
          0.09476594444449263,
          -0.27038820167517885,
          0.3168715749138926,
          -0.4170495541119894,
          0.2177298968083024,
          0.22001002972220998,
          -0.4707395427236506,
          0.12310654006440468,
          0.10488658077091509,
          0.09589549270542962,
          0.07639990470640648,
          0.3202088249684559,
          0.5154528500759666,
          -0.2905529831087477,
          -0.3918566055473194,
          -0.3334617990310303,
          0.2559073104361791,
          -0.03376526565600172,
          -0.12846625287434632,
          -0.30699789463992655,
          0.12512716360595633,
          -0.08767192557435748,
          -0.26843646584705994,
          -0.10321125533754748,
          0.1230123732680834,
          -0.30949139884611765,
          0.05616128055240339,
          -0.42419144387640356,
          0.04780240265391783,
          0.1209569827206795,
          0.14841867134992043,
          0.3548340383136532,
          0.16983183581061184,
          -0.05569718813723219,
          -0.053258556626784165,
          0.5848201200240934,
          -0.5032588596429669,
          0.3138101661097763,
          -0.15337998517624202,
          -0.05849601117233033,
          -0.22215819843899995,
          -0.029444891798235312,
          -0.15427024550846752,
          -0.12214499012517978,
          0.33881945454252904,
          0.051178192039132674,
          -0.008459556474583362,
          0.2529676306462535,
          0.373137184329406,
          0.16057565447955555,
          -0.5797186305848658,
          -0.07232517512656106,
          -0.18323950162661995,
          0.09171556635063777,
          -0.46367828801792904,
          0.0782272801667395,
          0.04284140520930482,
          -0.32429200004795916,
          -0.18394762459163033,
          0.09239685831538245,
          0.2414533414774792,
          -0.31164923006598894,
          0.16948339948746072,
          0.08821752698054112,
          0.03126029959044696,
          -0.00755947481416485,
          -0.20441237473450707,
          -0.30654960068592685,
          0.4010747810596448,
          -0.5961898389297886,
          -0.3933561177895658,
          -0.05800962097953837,
          -0.08132497635824702,
          -0.04160552906129865,
          0.13862107664842416,
          -0.2644964793868497,
          -0.424253660833224,
          -0.1746077487188934,
          -0.3048226507926418,
          -0.09114167368945,
          0.04615984472203581
        ],
        [
          0.15504283116398168,
          -0.2673002248188237,
          0.05783026386868528,
          0.36780433504203636,
          -0.060691364523348126,
          0.34815423170166565,
          0.2647437813904906,
          0.2478412361666994,
          0.12624763234118966,
          0.2866636616787785,
          -0.21664133393346163,
          0.14205169333739592,
          -0.006178128119793208,
          -0.01755250131070584,
          0.03448970211656047,
          0.27639693634723056,
          -0.008823007356077418,
          0.25472846547329564,
          0.23453844026473689,
          0.04802240260996575,
          -0.6212682159874481,
          -0.017420922462300648,
          0.5384283735509885,
          -0.5140486386847288,
          -0.23543910306620142,
          0.3364596765673579,
          0.06239361214749195,
          -0.27917051474423343,
          0.20791666782169627,
          -0.24910239291453748,
          -0.5516085672156034,
          -0.3635750492784874,
          0.14714610795000788,
          0.294081824624663,
          -0.3194389360948835,
          -0.21029215338267185,
          -0.2643800107436517,
          0.023254130380953406,
          -0.2591150924498943,
          0.3247793635356271,
          -0.4848235418534895,
          0.19727268672701173,
          -0.07688705546077274,
          0.023427873558511267,
          -0.10842142030234403,
          0.06955176400498614,
          0.17995280689788407,
          -0.13195423399524703,
          0.5721630250456361,
          0.10936793374717457,
          0.2958024059706525,
          0.1777405625212108,
          -0.19788613928095203,
          0.042717205390379404,
          0.3902214644405817,
          0.3274821575427297,
          -0.00011221533876250994,
          0.5993570380154564,
          -0.3345398077405854,
          0.2009951078678126,
          0.17333062375982372,
          -0.26901597868067706,
          0.06105564736168167,
          0.1333246662322391,
          0.3273751550063798,
          -0.05739209094666627,
          -0.29527906520275715,
          -0.2801561882100348,
          -0.08511116989464247,
          -0.037464604385042975,
          0.20117283868271207,
          0.23572345318918975,
          -0.371118715802566,
          0.25758717064004055,
          0.008368844385972386,
          -0.1094087896419768,
          -0.14183387774904455,
          -0.18352417837690443,
          -0.0038079319075616696,
          0.2053157139977843,
          0.08055964778309609,
          -0.02529021769562255,
          0.01036954383755262,
          0.34878323420624047,
          0.20551557852262567,
          -0.20714736867324518,
          0.016569455951563762,
          0.0903507069103973,
          0.2598226891823415,
          0.45145681664454107,
          0.03953496192878089,
          0.28518077232966593,
          -0.03830719401421814,
          -0.01010635187191531,
          0.14167627284557785,
          -0.3740028816559683,
          0.04655766918013822,
          -0.13850282289183408,
          0.21070158029117111,
          0.1549117904821759,
          -0.07508172016670564,
          0.16720116255564352,
          0.028618362815860464,
          0.09523144746075077,
          0.028825091931933184,
          0.010431087220396245,
          -0.2035473607005996,
          -0.16233605654685215,
          -0.2713642299374771,
          0.06910358867095412,
          -0.3795918907390373,
          -0.062114241809170204,
          -0.18936945013689027,
          -0.10733137131305223,
          -0.268862507452494,
          0.018251226259396028,
          -0.1270793989766785,
          0.292452129590939,
          0.4694590937333989,
          -0.4047782441604535,
          0.36627044488160615,
          -0.18608866116738565,
          -0.036753794681306746,
          0.12108392832138472,
          -0.30394784934849844,
          -0.22470338569492893,
          -0.04303717801037677,
          -0.2988217275395456
        ],
        [
          -0.10780420107312369,
          -0.5222120792637958,
          -0.0808447660506225,
          -0.17658557069947708,
          -0.005286168624945381,
          0.19533726492421188,
          0.0517442937314984,
          0.2048066715608212,
          0.19267252696231543,
          -0.007771606188382595,
          -0.3456771175087409,
          -0.05358434143797649,
          0.7394844678193835,
          -0.2773701446490599,
          0.2001601335041902,
          -0.30436993839423565,
          0.34496408776678317,
          -0.482072011506465,
          0.04260031161254078,
          0.22849003134657903,
          0.07641217661872686,
          0.3035184500002722,
          -0.08857225895512419,
          0.40884070530446603,
          -0.24073094300104475,
          -0.3481805238366973,
          -0.3040498548178242,
          -0.23835549420726987,
          0.13845882194085354,
          -0.034676729856436314,
          -0.5098888530083011,
          -0.10056992629346165,
          -0.402205253795075,
          0.11877432722860315,
          -0.06858030275021221,
          0.11118067910260912,
          -0.39013041573078777,
          0.0543225245159063,
          0.3362488587953081,
          0.11363159747998151,
          -0.21072503903620385,
          -0.3456843088484112,
          0.27106467977573634,
          -0.00964224863429539,
          -0.1318151915218102,
          -0.34711261436532137,
          0.5194018342217674,
          0.13028253688715924,
          -0.06520074798228176,
          -0.14663275593495323,
          -0.14323703109374675,
          -0.1066500711780608,
          0.41604369931400187,
          -0.2642996028763991,
          -0.21157755783935955,
          -0.6661560300344169,
          -0.016705578884407962,
          -0.3865500089942808,
          -0.0010335671448220493,
          -0.2108189300869127,
          -0.07196421448653313,
          -0.3547395523138421,
          -0.024277471457574046,
          -0.13969864304897398,
          0.37111125132038814,
          -0.22451108744075435,
          0.14894511429103877,
          -0.11638775496643314,
          -0.17184681371934238,
          -0.039386479204567504,
          -0.12062734074058648,
          0.21371388721059742,
          -0.32234994001609535,
          -0.13514749277367766,
          -0.016053379413539584,
          0.15505006135384175,
          0.07769365739064704,
          0.23732436659482112,
          0.38432693665638695,
          0.0594598901975613,
          0.018339472830284774,
          -0.36882321342485813,
          0.05621755190017039,
          0.7947669245046696,
          0.2614783615353323,
          -0.013604247441066974,
          -0.4228109543434698,
          -0.3586950041420701,
          -0.0436252521722818,
          0.049766564124371554,
          -0.0785611613999715,
          -0.5317741944771096,
          0.0015846441233386133,
          0.5169718465873846,
          0.5048561916637385,
          -0.1913740552622096,
          0.08251088160261973,
          -0.17507917248736152,
          0.006045121917261323,
          -0.14141910623021123,
          0.14560510085453138,
          0.16577658028018957,
          0.19420263611122768,
          0.16623885752431394,
          -0.19824150701182952,
          -0.06274208615747044,
          -0.11297961145779267,
          -0.011013122200983258,
          -0.37461515442281934,
          0.3751582050373239,
          0.1855115321962686,
          0.23126151112898244,
          0.06540155267173839,
          0.09547458020119762,
          0.050739258386604924,
          -0.19974960424445679,
          0.1257245272912998,
          0.34528988985844017,
          0.11052251631877896,
          0.012298176139916659,
          -0.060337672688645747,
          0.13938542796554437,
          -0.1606740342844764,
          0.21974509291514918,
          0.20260757594867068,
          0.4845915097026979,
          -0.28315832018019377,
          0.20181598195502845
        ],
        [
          -0.04786954431017665,
          -0.1503805401976875,
          -0.6558738651696211,
          0.6767855930242159,
          -0.024983578157384972,
          0.05017164743114462,
          0.023449418258200017,
          0.07029455773873632,
          0.0609495191550669,
          -0.19145702947001697,
          -0.20154120614727114,
          0.1462205855016329,
          -0.3356861040765182,
          0.25969069473046197,
          -0.2579608416457703,
          0.2081825399752654,
          0.24174435946593026,
          0.23945336116538268,
          0.098084889757721,
          -0.18299031262998047,
          0.1172588237618031,
          -0.28352903865974655,
          -0.29607981901154995,
          0.08591019719790194,
          -0.06725465194930977,
          -0.2897818596362328,
          -0.16545400274641345,
          0.05531504685625551,
          -0.11160264452062413,
          -0.4647824338615559,
          -0.35686713769339723,
          -0.043771190160036055,
          -0.07463499283617997,
          -0.1321909840977219,
          0.6312113697794257,
          0.09655398334634688,
          -0.5962161920615958,
          0.0034797222852215523,
          -0.06950608092327204,
          -0.2656711459353185,
          -0.10366961336904325,
          0.25028970805236195,
          -0.12155754234824706,
          -0.17427168670631446,
          -0.09499889565662836,
          0.10480028295116228,
          -0.1310339956410396,
          -0.0338117929081041,
          -0.08292864313867274,
          -0.04371744347215149,
          -0.05269443762021936,
          0.28597468218231903,
          -0.39103563406365127,
          0.043714343631576315,
          0.5042077425344933,
          -0.17983975461558022,
          -0.1857368098015956,
          0.4248140804794712,
          -0.11507526935787438,
          -0.17147769994170822,
          0.02742474817894705,
          0.20957168862801362,
          -0.11130371426599367,
          0.15565482049903667,
          0.07834092230477996,
          -0.0885623921093463,
          -0.06471691556937145,
          0.22709782436576498,
          0.08735962840712751,
          0.25299511758724086,
          0.07820211936686863,
          0.3996225067146324,
          0.054713201790750524,
          -0.21104510349115185,
          0.10659968075430776,
          -0.050795394526871394,
          0.0585928841453826,
          -0.18368026742405832,
          0.1927690062951002,
          0.061955812068459605,
          0.4545303659801415,
          -0.09167222265878347,
          0.016739539377986293,
          0.052135454167269855,
          0.056419040460608944,
          0.17597448955141315,
          0.07648172330993613,
          0.4189911901364135,
          0.023597967101563276,
          -0.08761828607311026,
          -0.01881757097972541,
          -0.21500633578400688,
          -0.3999139693739977,
          0.07055434278144991,
          0.039401944037760914,
          0.20319530623829685,
          0.10336918359474648,
          0.2776130361519869,
          0.1194616174542914,
          0.43326286074110765,
          -0.04269037074621086,
          -0.4265463379554926,
          0.07001121784850185,
          0.28144404802806355,
          0.39452640972092545,
          0.06595390323326482,
          -0.10232140191160044,
          -0.0753859144380079,
          -0.21542775038612294,
          0.038387741609850326,
          -0.15315434184695625,
          -0.2710547710019049,
          -0.12353620141208022,
          0.22776525287226873,
          -0.011609947659486485,
          -0.25405401268746536,
          -0.08046915882044425,
          0.14175478099279987,
          -0.12168541926111166,
          -0.16472035134183577,
          -0.6189915921918504,
          -0.2442535168047224,
          -0.06424985806455447,
          -0.1302340840760185,
          0.24363253242695765,
          0.010382371373285876,
          -0.06515994459080948,
          -0.20979854521156593
        ],
        [
          0.15930951310412111,
          0.18535473705335243,
          -0.2773462525480345,
          0.24503792954417455,
          0.5374677379277986,
          0.22510653422730476,
          0.09161694558005046,
          -0.26119455042385986,
          -0.28909568464261526,
          0.03150033110396791,
          -0.37035521808917315,
          -0.3893631576565694,
          0.29594365845708737,
          -0.1830920044837107,
          -0.1913744920038058,
          0.5274775162955836,
          -0.4028756160731735,
          0.08732400329861016,
          -0.003181808437133095,
          0.2572832127581439,
          0.005738367205213004,
          0.025515559868865563,
          -0.289067655401106,
          -0.05086902793218331,
          0.3606387445517455,
          -0.17354013811285196,
          0.30448275230693606,
          -0.42113236498109796,
          -0.4747660070433685,
          0.015539938212001562,
          0.2836038641873641,
          -0.1929457695116189,
          0.18141435868141478,
          -0.041402539721932224,
          0.049059883894451824,
          -0.10561377394089086,
          -0.21973187651322404,
          0.3742701301786841,
          -0.4904408511221128,
          -0.45320718720399983,
          0.6316760081742763,
          0.32668338376646777,
          0.15547321947020748,
          0.1975277965187101,
          0.27354565884410964,
          0.10946873229961879,
          0.6698697941950271,
          -0.262142155067201,
          0.30330111470863874,
          -0.18536644895728208,
          0.00577729948336736,
          0.09528968933944917,
          -0.28143379686918163,
          -0.11277660157336566,
          -0.46126732108083607,
          0.12266702552829646,
          0.08241371805315312,
          0.5257212988064177,
          0.019605276341340933,
          0.15242116448524526,
          -0.30395623121335397,
          0.3493735674632524,
          0.16036162347937183,
          0.17576866131597224,
          -0.24289884202213588,
          -0.282063865230906,
          0.1717069311756539,
          0.05016479706856011,
          -0.038592647438968675,
          0.3051791145937046,
          -0.21302899981074275,
          -0.12690434454443694,
          -0.31901932436772507,
          0.029436448016374496,
          -0.10102794353602494,
          0.05863380881923304,
          -0.04813741148819352,
          0.000343840846401558,
          0.09500676723974902,
          -0.39549033479421275,
          -0.29382993987912587,
          -0.11100731461898118,
          -0.15739039315844602,
          -0.08690550687458054,
          -0.10219362642971194,
          -0.1256512308903291,
          -0.06418494384235852,
          -0.11336990771700647,
          0.02908341148451278,
          0.2508120383594393,
          -0.04360603085010991,
          0.1664949168363839,
          0.1619506933876923,
          0.10089361120191238,
          0.010229765969118718,
          0.41457296803582644,
          -0.3299502760262923,
          -0.0746926835380445,
          0.387331418655516,
          0.12923760205445767,
          -0.3590279310496818,
          0.3128984215265719,
          -0.05823521010786557,
          0.1823189091622905,
          0.21398667716295028,
          -0.12232510066588693,
          -0.10601164607875224,
          -0.039162987462531565,
          -0.1330758243370517,
          0.17210310029906628,
          0.1492758051542616,
          0.31159639317169585,
          0.06084598565820119,
          -0.026075001798436706,
          -0.28108665269426947,
          0.05551932350485282,
          0.3323753971292433,
          0.06640202952861536,
          0.23761386055603972,
          -0.01869761624558243,
          0.20609471154832654,
          0.25564199268562265,
          0.18942079076713642,
          -0.5133569372049005,
          0.13408965897384065,
          -0.2360302813181488,
          0.19908011988622826,
          -0.19620287321406626
        ],
        [
          -0.023307642401411574,
          0.21977737573908435,
          0.0944033591013517,
          -0.3675306710837989,
          -0.03365646065728116,
          -0.6251953510211792,
          0.0962305139684195,
          0.12856030642346805,
          0.016403785120413933,
          -0.11103736661096643,
          -0.5464321582188628,
          -0.06955014936052863,
          -0.00920188057685127,
          -0.1977684598223296,
          -0.23068273097323685,
          -0.0907068518815465,
          -0.09420896113530239,
          0.005008556441006281,
          -0.41740894357595126,
          -0.4792061980678237,
          -0.3003366220447602,
          0.08501103345725597,
          -0.08230070488950483,
          0.21121375665061137,
          -0.5189518558742373,
          0.09863038780451056,
          -0.32069342399524514,
          0.15665100150325192,
          0.09328543948601815,
          -0.08198339603384902,
          0.012047259506161472,
          0.07176429346375501,
          0.1503130669265855,
          -0.022919041430843043,
          0.38959361014825533,
          0.2144996259381598,
          0.2317230722206916,
          0.053891077060323506,
          -0.038202749022306,
          -0.08460087027798012,
          0.07399480767089345,
          0.10424705874270321,
          -0.39223230401537285,
          0.1507507013264798,
          -0.01947401636267549,
          0.30590303610919406,
          -0.11529757687042358,
          0.1651762166007849,
          -0.424898668617471,
          0.20670849377461875,
          0.1902861864978312,
          -0.00012495942173054025,
          0.21493671595353483,
          0.8317608462405548,
          0.283895568063248,
          -0.035018409864696814,
          0.11465059994790311,
          -0.40141156705874015,
          -0.2068300634737656,
          -0.243111497642442,
          0.1967119049023056,
          -0.19056316590072137,
          0.3004722178538666,
          -0.035255084805743096,
          -0.28332547484375403,
          -0.1833806868556466,
          -0.03241943256576753,
          0.18427225855898,
          0.22854368039576017,
          -0.0726843419898422,
          -0.18723072377006383,
          0.3426211267209971,
          0.14712927248459592,
          -0.07136843924761822,
          0.02630854327680339,
          0.26319522065318546,
          -0.027311024110721047,
          -0.018309737346545042,
          -0.3320334398459871,
          -0.17065198553506897,
          -0.09560452272370114,
          0.0776508837113368,
          0.1135647865682495,
          0.21818856652401575,
          0.2117689792100099,
          0.26034154830470335,
          -0.06261217305577566,
          0.008547272104060318,
          0.3862263259420167,
          0.34551563271975094,
          0.010767596550455852,
          -0.1759025176446041,
          0.07752716933239436,
          -0.2553035703102634,
          -0.08595352856751964,
          0.12614742834648524,
          -0.2432362893143779,
          -0.10663722666001406,
          0.5336098674271995,
          0.14404723502541467,
          0.10790943641952788,
          0.14358867208814702,
          0.17763549177138363,
          0.6618846341909571,
          -0.20718901395301376,
          0.012970091389167347,
          0.11415618726915254,
          0.44401909166796794,
          -0.10361645155430023,
          0.21198737276357776,
          -0.2503317250355489,
          -0.06652993075724553,
          0.15845512236991321,
          -0.40812271145159695,
          0.23009228432825776,
          0.07297342226972925,
          -0.4486718072647199,
          0.4037070033709549,
          0.13788334368581576,
          0.05423676935236066,
          0.16461340846962,
          -0.08672113303047213,
          -0.3160929671694907,
          -0.2121751887570354,
          0.2657636023236062,
          -0.02894342130865043,
          0.3203392671279611,
          -0.1265226911274229
        ],
        [
          0.27205639055095165,
          0.002055436931744134,
          -0.5626211016210932,
          0.051368529730586414,
          -0.02043431631262589,
          0.2426728179374038,
          0.04230428884508107,
          0.04711340534783035,
          0.3855478655176649,
          -0.011688880442686737,
          -0.1631616438529045,
          0.14328236465759023,
          0.3750608848880318,
          0.18287826121823506,
          -0.1836256976560423,
          0.04341564185349947,
          -0.001486681357024136,
          0.030575653237370073,
          -0.1275408052170916,
          -0.03631189987843656,
          0.13248019801187597,
          0.15820288971760083,
          -0.06606987229377866,
          0.026878592873813494,
          0.0046558957781224625,
          0.20303305231498098,
          0.051937766218579,
          0.10930119576126199,
          0.41352157523462585,
          0.2876580183238924,
          0.24580447379302234,
          -0.07606618548993745,
          -0.19082943272524042,
          -0.16902877296879731,
          0.006926037636077242,
          0.1390580920556534,
          -0.2589504096405811,
          0.2305651648763763,
          0.12382742379066743,
          0.45778833543164044,
          0.3224860073530665,
          -0.014377906734466678,
          0.12605470680601694,
          0.30235094892934,
          -0.16838265726379442,
          -0.05694370014235896,
          -0.18285198040243858,
          0.09294092435280647,
          0.31799625612807353,
          0.04909172134247203,
          0.013266004024003027,
          -0.08378623369628108,
          -0.2608702289390174,
          0.18274838392679826,
          0.4600069106774433,
          -0.060376280053085554,
          0.007309034487042038,
          -0.3016611905887872,
          -0.15906731960389345,
          -0.16778764667657142,
          -0.2561622620151124,
          -0.17793674609621524,
          -0.2732100560220925,
          -0.5028072548138903,
          0.13751401157619436,
          -0.3793991798054185,
          -0.6705168993723721,
          0.0861243871032675,
          0.12033232027866078,
          0.4958954126549242,
          -0.25423620980133266,
          -0.09987979612041745,
          0.019811629528542846,
          0.0035823709873554557,
          0.07333558313731037,
          0.03176413433573753,
          0.0003949392373308602,
          0.034329353365836236,
          -0.48172615648430694,
          0.08123282516835881,
          -0.20117117258221595,
          -0.3135879394027572,
          -0.19536697011867776,
          0.10338366944793911,
          -0.1967698723886837,
          -0.34314627193831976,
          0.14028294596655916,
          0.4383937675923175,
          -0.2417750649386045,
          -0.10834770558858244,
          -0.6434672974689389,
          0.2536490231795199,
          -0.010475180494025887,
          0.04409053518126867,
          0.14084404271377154,
          0.15274125463132204,
          0.00010426544145142498,
          0.002878130516127328,
          -0.3394840577912177,
          0.12590978271844128,
          -0.06936335834796525,
          0.17324256775352964,
          0.08138859658488354,
          -0.0005203649136686864,
          -0.12021640430323294,
          0.17850541978517706,
          0.4442585780666331,
          -0.11754193423803332,
          0.17086979263639576,
          0.12875806682902102,
          -0.2999264000437466,
          0.14983488528879774,
          -0.08160260707523267,
          -0.2517874751762974,
          0.036285671327719295,
          0.3729132334275661,
          0.13745471635994344,
          -0.20905512561620027,
          -0.2613317528870934,
          -0.3298630716222985,
          -0.13791365110232073,
          -0.06034919362245306,
          -0.1459433485295173,
          0.040853102007018145,
          0.07369527566373846,
          0.021786731037697685,
          -0.11093027807950426,
          -0.0639621197401864
        ],
        [
          0.02779820165879027,
          0.2431227847348339,
          0.2529417841077895,
          0.11228081208273691,
          0.30258710394429156,
          0.03851677098620741,
          0.31790845308147575,
          -0.07922598514626282,
          0.09170287340271574,
          0.027194471143871093,
          -0.0356664540662794,
          -0.30922536772332887,
          0.32190720522851624,
          -0.12054621370647951,
          -0.054671107397154986,
          0.21876169054795366,
          -0.311752057749503,
          0.06516990389320827,
          -0.002294600421234236,
          0.03967196137850028,
          0.11654716005929872,
          -0.013459540416629612,
          0.19244006415782877,
          -0.20162392455053418,
          0.15658740591971998,
          0.230050293792908,
          -0.49555374298334814,
          0.13012583330929306,
          0.23192268128854887,
          -0.12459397147442668,
          -0.2298644477117659,
          -0.5230150160310705,
          -0.16912818873820915,
          0.04763097662374627,
          0.21800258946546244,
          0.033901365979813275,
          0.3781621041179636,
          -0.2775361799921223,
          0.19686881916456905,
          0.08648860551517248,
          0.2913574073614553,
          0.04662489210802497,
          -0.08264960445124302,
          -0.24994385565134322,
          0.0850816259287,
          0.23200260075023837,
          -0.046963206816047515,
          0.2793894230711301,
          -0.3152815975757076,
          -0.13677657594649542,
          0.29096340590129816,
          0.08056755868579538,
          -0.1076844730375492,
          -0.23672282449765092,
          0.7374132400221504,
          0.274943750951253,
          -0.3871559119874932,
          0.2557227463895197,
          0.18757167643722558,
          -0.4334893729314353,
          0.23160331167979945,
          0.21193717529297712,
          0.460993684757459,
          0.15478505480426796,
          -0.08069085603952694,
          -0.2470229857306468,
          0.08447920530788258,
          0.017018890401791532,
          -0.16315084358555682,
          0.4041643216794624,
          0.16281866454161673,
          0.2792768879915827,
          -0.19627489766503575,
          0.3624718912563953,
          0.10633304151983404,
          -0.1374513173173135,
          0.09859786966089312,
          -0.10708328620157236,
          0.09750422998348057,
          0.06740888151656121,
          0.07468552087345792,
          -0.2562992910610809,
          -0.369243939242319,
          0.2983684220487032,
          -0.13559739142896998,
          0.08942229102743417,
          0.006065914416736151,
          -0.383155886214329,
          0.4126833238298126,
          0.3979732843830494,
          0.1291424511324627,
          -0.5803696528876602,
          -0.08664767045679561,
          -0.12042180618981027,
          0.09710206096528674,
          -0.1554967940343478,
          0.002973489052577695,
          0.16136978651863576,
          0.3828046051650307,
          -0.1190410774265444,
          0.0720028024395748,
          -0.18251614636971383,
          0.2542712320523913,
          -0.20940233341616063,
          0.1691515026957699,
          -0.08376243577635203,
          0.2703863433837408,
          0.061814606947987676,
          -0.002768532432573405,
          0.28671059879726424,
          -0.00870574513246793,
          0.13086652397486245,
          0.12360946140102558,
          -0.09660025350099488,
          0.13513313872243332,
          -0.7557551292220402,
          -0.2420367744314092,
          -0.4668615365119332,
          -0.8417986096301012,
          -0.1508269406360844,
          -0.05404056337077283,
          0.030791791012978187,
          -0.2836631734408003,
          0.008172662483149927,
          -0.3521597695462225,
          -0.15252955707555624,
          -0.030872330297273126,
          -0.11370152728493257
        ],
        [
          -0.16835007953040382,
          -0.04679534580309033,
          -0.13932374426792193,
          0.054976308895980916,
          0.26226439288364073,
          0.07558355591944864,
          -0.14298518722042522,
          -0.3410838989691697,
          0.3555157073654626,
          -0.007769415784786973,
          0.012441310945964762,
          -0.10801595493076643,
          -0.020598374761498818,
          0.05129840470973645,
          -0.2669753469926916,
          0.20203774007821082,
          0.26476948958770935,
          -0.2350005676236857,
          -0.23264003075258152,
          -0.030088930757802734,
          0.34049647346448664,
          -0.0887722613349457,
          0.052839349562657165,
          -0.1466509826178708,
          0.07954333966912969,
          0.3551634557109329,
          0.030190288005668493,
          -0.1415037340000569,
          0.14047731096451993,
          -0.24265912997201583,
          -0.3229122269659992,
          -0.06905335252674775,
          -0.1407453053108083,
          -0.39476017960497384,
          0.3761931941718239,
          0.5206304793527899,
          0.15915572124388833,
          0.011833970611688692,
          -0.40629422021749795,
          0.224670141984261,
          0.2131039809230123,
          0.203598185610194,
          -0.1962900545140037,
          -0.05667611746085546,
          0.036770679272599784,
          0.033072039139117854,
          -0.13895618594409964,
          0.00457270501021436,
          0.28349513133446,
          -0.1993466050003096,
          -0.06131598982877482,
          0.0059618574744137315,
          0.6183020129138145,
          0.43409573574477556,
          -0.06179025351152878,
          0.3085849395355107,
          -0.1523766013790653,
          0.1758444097632975,
          0.22609535935272823,
          0.0302844988997438,
          -0.19550645293404711,
          -0.13994073359500087,
          -0.23992171535233947,
          0.046369379275370326,
          -0.3901328602528644,
          0.17935279357601497,
          0.09131715697192352,
          -0.16669196513329373,
          0.13602795639761106,
          -0.2638099253098686,
          -0.2269198045736616,
          -0.3786510072274352,
          0.16702870299151015,
          -0.20294833891599182,
          0.20477603298409364,
          -0.023554509411384594,
          0.026570067373882556,
          0.05205054160857931,
          0.18387904207584516,
          -0.3639861102036221,
          0.20540643193867883,
          -0.14583745712842244,
          -0.08219532948872554,
          0.33569141985420353,
          0.09111059050671452,
          0.06276915635035896,
          0.2671865436249373,
          -0.2827712546999452,
          0.02338263096588168,
          -0.10771091738299934,
          -0.19690207312308255,
          0.07347072362801274,
          -0.007741783352193624,
          -0.4359456386823839,
          0.12325609809919663,
          -0.2624869395382883,
          -0.06897820619925928,
          0.23960078889065642,
          0.13586272752901515,
          -0.29145439009355184,
          -0.13807152722365673,
          -0.38501498026887626,
          0.17376922608352688,
          0.15892686284050037,
          0.09430129737362661,
          0.2286677489277891,
          -0.2245930684942788,
          0.02644711042886247,
          0.1576868038384735,
          0.23299801659078312,
          -0.6236351815231387,
          -0.00040042730985440436,
          -0.26624011663685837,
          -0.09584339612400627,
          -0.04988037582308984,
          0.3853861801813711,
          -0.0765694698694557,
          0.16476989892005706,
          0.10770319751089558,
          0.31399773947590615,
          0.10859472383570365,
          0.23245722376716096,
          0.015464863606800466,
          -0.115308205423004,
          0.42533535254989385,
          0.3394641216430858,
          0.43939371675233024,
          0.08323929546463522
        ],
        [
          0.20386238280388486,
          0.18565148127168937,
          0.4574507641748025,
          -0.46748484908737364,
          0.09728162628626301,
          0.05027245304555084,
          0.005073212001045407,
          -0.0009798000796834919,
          -0.14828739824595044,
          -0.08915427983988534,
          0.06112836113166043,
          -0.17999461750251933,
          -0.15458539197349933,
          -0.25531578828960516,
          0.09787195356902863,
          0.03624243212317489,
          -0.29625586136322907,
          0.027657530117136557,
          0.0949079469303043,
          0.14318472790496356,
          0.14686580113700998,
          -0.010654231995774331,
          0.11537284035950687,
          -0.3499786029220065,
          -0.4933023170195843,
          0.12682869484701034,
          0.3060827764432465,
          0.16773686794782924,
          -0.276431447679776,
          0.143902083963804,
          0.06656199172107102,
          -0.17340093717292143,
          -0.12125616516551897,
          0.08724889791790218,
          0.05490453347608048,
          -0.3250506097064824,
          0.3325578401492463,
          -0.06582522674374226,
          0.003892376923955436,
          -0.19237166677095432,
          0.3539753255757252,
          -0.09456610323929032,
          -0.040752775097552874,
          -0.060698497044036195,
          0.12555656827448042,
          -0.23164223500524866,
          -0.09855608854292805,
          -0.2834452122156894,
          -0.26545130575242104,
          0.019723382371131165,
          -0.06622575937098041,
          0.026692301820158464,
          0.03459964843709612,
          0.1835388790888301,
          0.3515226764164594,
          0.1361520900266683,
          -0.040180699345421164,
          0.12791025853022292,
          -0.027870534471203454,
          -0.02916145408344517,
          0.12415175702031309,
          0.47092772752714257,
          0.0375443600590223,
          -0.06052785535527741,
          0.15717541934169002,
          -0.1656875718470474,
          -0.05984356183477572,
          -0.30830729276296226,
          -0.6757233244873054,
          0.29900758967151025,
          -0.008126781005373888,
          0.29045319929358104,
          0.23227387760613422,
          0.24797885892391108,
          0.2462232256051769,
          -0.07010579913223346,
          0.06399060986338487,
          0.239741818323205,
          0.42385664162491277,
          0.22321042680230513,
          0.026150261609515148,
          -0.03683763213074463,
          0.2701712378131501,
          -0.03247401226466215,
          -0.3593587087829559,
          -0.35090903117022054,
          -0.16457568664670022,
          -0.26533334498675815,
          -0.26369276929798025,
          -0.1965746030843129,
          -0.3034894399484095,
          0.24478583925702485,
          0.03846450878923093,
          0.3156951952158535,
          -0.020713594552112684,
          0.23450815569967803,
          0.1721733462675798,
          0.32915342264999553,
          0.052655941858095925,
          0.07640781602835332,
          0.2415989784896565,
          -0.18240383754387035,
          0.432754249739818,
          -0.10939161714831762,
          -0.18112791211806736,
          -0.057989173293792266,
          -0.4859576459051293,
          -0.09815717385333642,
          -0.19654307307142616,
          -0.35133996570553355,
          0.061843269514218875,
          -0.00013232117991175685,
          0.07128768119560396,
          0.42172437211314034,
          0.24141658538559388,
          0.5604394181687298,
          -0.42781788949464494,
          0.004379408129336154,
          0.21764675481176105,
          0.20589782274111712,
          0.07771267700592688,
          0.0019920814647956253,
          -0.17148290377895073,
          0.2688307024143271,
          0.07543235343280853,
          0.12109641995154234,
          -0.021558233479549598,
          -0.018391430134092602
        ],
        [
          -0.10917901168789265,
          0.08429580000430317,
          -0.09120325351787269,
          0.004845411348077748,
          -0.06910179091217819,
          0.06387387470408068,
          0.007971146278027582,
          -0.5205686218370713,
          -0.20736839418952216,
          0.1501065667539141,
          -0.3660253723288748,
          -0.01594549510308943,
          0.030102562749123898,
          0.3053740221993065,
          -0.01834970953541793,
          0.27196571734972963,
          0.2600437699302845,
          -0.2834950458029677,
          -0.033841547798768225,
          -0.42116737902815404,
          0.4459049651418402,
          0.07063238268558777,
          -0.016258361531198195,
          -0.8223977797093858,
          -0.14838073197364715,
          0.25520871926557576,
          -0.25198081600979133,
          0.001045468175610905,
          0.4873777007160986,
          0.04763914934818238,
          -0.2352267312105619,
          -0.12483263024323923,
          -0.7623869017707205,
          -0.062438586490367536,
          -0.2248600007533459,
          0.255270142210342,
          -0.16589580733799567,
          -0.14531196102823732,
          -0.11534213451186656,
          0.5170279717948576,
          -0.09454304707153796,
          0.3192895441564537,
          -0.13729847922800192,
          0.17378858162183608,
          0.009686282393960376,
          0.14369300736781493,
          -0.10245404823248197,
          0.4079313722236501,
          0.16257052219844234,
          0.3896123951597666,
          0.35284369644085767,
          -0.2803476354265688,
          0.5634962324558105,
          -0.23293712649084794,
          0.1846738932638538,
          -0.06444457561285039,
          0.24346999133393646,
          -0.1947178865248353,
          0.015057716508261092,
          0.5143530038901267,
          -0.04262798703802659,
          -0.29500819968879993,
          0.2007173930310317,
          -0.26773815336462925,
          0.013552855196221285,
          -0.04032018934649677,
          0.19559159200546455,
          0.018643521890435354,
          0.26012838728400667,
          0.009414996244229194,
          0.4532272114206698,
          0.09814901742707142,
          0.06532816125002194,
          -0.40397295275648515,
          -0.10169181099206437,
          -0.021093339965955638,
          -0.09763470764956417,
          0.06707633467509222,
          0.29679800983564375,
          0.10973555491717463,
          -0.19618357759235475,
          0.05266971579340923,
          0.21912228573024387,
          0.12062000727175691,
          -0.12208287952967417,
          -0.027494565754605807,
          -0.11917900646731448,
          0.1879823943292046,
          0.30493736341252264,
          -0.27050531977098907,
          -0.31559136838023694,
          -0.0956410304825627,
          -0.18519570618509368,
          -0.1053054701546511,
          -0.03318481741492712,
          -0.10786160872563608,
          0.31171849165095167,
          0.24446727036291915,
          0.44475666279389137,
          0.10463287264911149,
          0.04854791863920509,
          -0.06312150584876233,
          -0.4018398815566982,
          -0.39043811271344037,
          -0.07213605368778322,
          -0.19207517823495118,
          -0.49685612165649773,
          0.060770413347387746,
          -0.02366263925484205,
          -0.21725735162750937,
          -0.11028957485201248,
          0.20690367254554515,
          0.18376017590743882,
          -0.21918813204121393,
          -0.025041263042415825,
          0.059548312855029366,
          -0.06999243337104286,
          0.03711945916670978,
          -0.06070141495274835,
          0.21744753423284094,
          0.12014877730939842,
          0.11186227229287929,
          -0.3480152269713906,
          -0.09436325493263764,
          -0.008745638734184796,
          0.04694882412976521,
          -0.21723285797988767,
          -0.26226845378353364
        ],
        [
          -0.35807339132047605,
          -0.25483588847002586,
          0.11149651983714783,
          0.2367916984621815,
          0.07968313576705412,
          0.06834944999698367,
          -0.34752305743118955,
          0.0735568231039432,
          0.26604211513840237,
          0.2633605761086646,
          0.005477072332240533,
          0.1452057324150413,
          0.4246279474767167,
          0.2103298220619725,
          -0.19965370317024053,
          0.4578315813152257,
          -0.1708533641890742,
          0.10398684183086088,
          0.24091408364695938,
          -0.5799047289685605,
          -0.22438728944510689,
          0.30369046592647664,
          0.21902454259450788,
          0.37997164444547854,
          -0.42048873992050834,
          0.0593903351635763,
          0.14745030368496573,
          -0.18401800602399784,
          0.2048348668901409,
          -0.2828799492444368,
          0.1469502783591795,
          0.2732706114833123,
          -0.2806365317069294,
          0.0018317511319919516,
          -0.5335927662492363,
          0.10347230485749134,
          0.19073127957057517,
          -0.211992714756776,
          -0.07543578754576145,
          0.35457544328698165,
          -0.5835063980317582,
          -0.1906714840513604,
          -0.10872601312455958,
          0.3951684529637902,
          -0.2656722652484009,
          0.1562812842613292,
          -0.15787052308441407,
          0.19273132712412205,
          -0.2366957713970939,
          0.0016002866608506288,
          -0.04289032962439631,
          0.22324726259087685,
          -0.3067712739831078,
          -0.43576751416936743,
          -0.2567053673133126,
          0.03980472354038486,
          0.005132456166073449,
          -0.23066499147960617,
          -0.31825925159306706,
          0.1565172252695435,
          -0.054297925063709104,
          -0.03596319956823564,
          0.19218048647531827,
          -0.3587693863904725,
          0.40516643063013846,
          0.12404945716034171,
          0.0991952606129059,
          -0.1316823641349496,
          -0.21092753221237964,
          0.06094235159199264,
          0.14173298258780348,
          -0.2624714017798692,
          -0.34007250333755773,
          0.09487937902921746,
          0.38930010802328097,
          0.43373601590003397,
          0.007401719163536567,
          0.15029578770148155,
          0.059428044548205466,
          0.3069261980934355,
          -0.006748257716094011,
          0.18735838986779663,
          0.4335852461203292,
          -0.1578543371860554,
          -0.584255652116279,
          0.030001338644104945,
          -0.17721029331648191,
          -0.5056585300555305,
          -0.411583009054172,
          -0.17538334099440833,
          -0.12106180205289087,
          0.14561776780759775,
          0.10873555534583232,
          0.2237674971714863,
          0.2817516369117507,
          0.23293633351607218,
          -0.21327372158510616,
          0.02444714175293923,
          0.05901078465459303,
          -0.026310367938388896,
          0.13622165487619642,
          0.2010056670738919,
          0.050549117415744124,
          0.394682615320774,
          -0.29101810514089693,
          -0.20154062990337554,
          0.032063117897386015,
          0.028276155926532626,
          -0.09075956138620885,
          -0.04735600907303089,
          0.053645250322336024,
          0.2972900164951359,
          -0.22830778515911698,
          0.4083929956034266,
          0.15818268175421601,
          -0.22525093768086568,
          0.2944906039761071,
          0.3468760378217948,
          -0.15508225834708844,
          -0.44953165433957276,
          -0.12289336415349562,
          0.03787290196044165,
          -0.16017213617844028,
          -0.07902414429852134,
          -0.29214179408389596,
          0.05725468814116378,
          -0.10941667660903927,
          -0.24225854154254137
        ],
        [
          0.2604427289163979,
          -0.19360879779322904,
          0.40009906395028977,
          0.11928552796183663,
          0.3856514280447326,
          -0.12600372025290807,
          0.053294513500390446,
          0.30839879437038803,
          0.07068731830900862,
          0.12889523882786785,
          -0.22513315089247218,
          -0.20913689129587437,
          -0.2225608634047816,
          -0.024420961929377268,
          0.29930882673013204,
          -0.42455983298275446,
          -0.4364084752427041,
          -0.5630729351277454,
          0.15482913427834005,
          -0.1112855491110454,
          0.23864235692608227,
          -0.097875538474455,
          -0.6958257671883418,
          -0.5697982226660785,
          0.17449274722176014,
          0.06885965285910109,
          -0.10127230714394832,
          0.09874422295183062,
          0.136854751551711,
          -0.08740228070568132,
          0.012458678643010437,
          0.09839495199223779,
          0.40918021581278974,
          0.025907455442728558,
          0.4510763171393281,
          0.11825978224097769,
          -0.17934158425775992,
          -0.15297352909338374,
          0.10454237143943196,
          0.06491971763829188,
          -0.15683416755896462,
          0.05082563192082234,
          0.06755410535765316,
          -0.08265926282477297,
          -0.5991228034871117,
          -0.5277608938839756,
          0.11374945466332262,
          -0.07184017391154268,
          0.22705492761788038,
          0.13761670516283245,
          -0.1136841536716813,
          0.0800962988537108,
          -0.257020904807156,
          -0.23857746051484593,
          0.3184175460848757,
          -0.24173460328935548,
          0.3002283443715163,
          0.16882876698608762,
          -0.185997008450639,
          -0.3963230669248975,
          -0.15122912008440326,
          -0.015464971414460196,
          -0.06990700425810192,
          0.08328116191430815,
          0.07254783379711531,
          0.18188424104760864,
          0.2795375566567535,
          -0.2207434524936939,
          -0.13306510116649828,
          0.5626274109375222,
          -0.3932934796766007,
          0.08178986831693617,
          -0.13695838673435726,
          -0.2800733172024935,
          0.1164755412063955,
          0.4579173711609856,
          0.4416034987938595,
          0.31327297363090967,
          0.47121224105753523,
          -0.13510801168327885,
          -0.352873392126472,
          -0.05732550159531071,
          -0.3331116885929439,
          0.3549655579705552,
          0.391687509134927,
          0.41925867671561506,
          -0.41153157508011523,
          -0.14426391198421698,
          0.390138934311022,
          -0.12818759795271373,
          -0.2237371097589461,
          -0.12161676505621123,
          -0.1805661231404421,
          0.10458411205580324,
          -0.06716928998125422,
          0.03740374085639601,
          0.2044322085886285,
          0.2980980800652444,
          -0.01532601816273109,
          -0.20168338491703047,
          0.031902898273508784,
          0.1649918209197813,
          0.020202560576201824,
          -0.02594972918426932,
          0.2265803362564057,
          -0.04573377024025159,
