{
  "weights": {
    "layer1": [
      [
        0.054497482491972934,
        0.04192543077714993,
        0.013092854780554247,
        -0.027473020190151062,
        0.07702503752960377,
        0.04750831967812669,
        -0.0916227694265501,
        0.08148592784781913,
        0.13438244457768495,
        0.10720494549367311,
        -0.06761362440728655,
        -0.016687101818775335,
        -0.058146431938924395,
        -0.051669519179217235,
        0.08029109761909334,
        -0.059766773272062576,
        0.11318059320914638,
        -0.033437623110394825,
        -0.002192858718528548,
        0.07372202755521759,
        -0.04578487338428927,
        0.02700220703573504,
        -0.038064955728667374,
        0.06639521989318786,
        0.06175403708309421,
        -0.007639806356491613,
        -0.10321043075120787,
        0.07428680404114033,
        -0.05892807987666609,
        -0.021296983801754932,
        -0.06928191459994924,
        -0.12566952768597775,
        -0.012162078916511138,
        -0.055787541658577224,
        0.12989540558123844,
        0.0718252871251149,
        0.06259373827002455,
        -0.02486186040467981,
        -0.00869488410755885,
        -0.09303995492704027,
        0.055022631015321496,
        0.014315362153033681,
        -0.07524649082003115,
        0.1372060790198581,
        -0.11468549433051434,
        0.0629380839087765,
        0.11830209140921408,
        -0.04668873215869345,
        -0.06986584617624499,
        -0.017016223862298036,
        -0.05516964868749137,
        0.12364195846577965,
        -0.00732167961489566,
        0.017067527678477995,
        -0.01577661467889032,
        0.007434466971822054,
        0.033591550162027584,
        -0.06020086361712088,
        -0.036673426526117284,
        0.03765347187183872,
        -0.08318135542395476,
        -0.03150052653615454,
        0.0879427324873843,
        0.022098567841273592
      ],
      [
        -0.03378602206704827,
        -0.001473086772091084,
        0.0324852374239894,
        -0.02995180307336432,
        0.05304231700704773,
        0.01788430220529951,
        -0.007639831992639914,
        0.07410988837777745,
        0.021030200369429618,
        -0.13336815519166273,
        0.02856080732704029,
        0.03552420240516459,
        0.09042166205306675,
        0.06072114820821983,
        0.005033686309132077,
        0.12567408551002465,
        -0.07649598577911387,
        -0.07251970201857608,
        -0.04616466302477351,
        0.04530294568010798,
        0.056598357999555225,
        -0.06825231538417541,
        0.008938640207978042,
        -0.036294053922460455,
        -0.12264261489595021,
        0.039018671902698754,
        0.07389935740741016,
        0.015733714525279406,
        -0.03494368440457539,
        -0.07031770791616582,
        -0.000674751592687664,
        -0.08003739735695596,
        0.022745605814601583,
        -0.023908575099367745,
        -0.13323655068088333,
        -0.004155965198470168,
        0.04042289215633599,
        -0.045833446918712564,
        0.02941078220358185,
        -0.0018254107847811146,
        0.10010161451024956,
        -0.027839300872384495,
        0.04329404453405371,
        0.18818130661454266,
        -0.017504272211569305,
        -0.023669164193815803,
        -0.07493444899850203,
        0.05112551772677811,
        -0.035078978393689314,
        -0.008513250255989396,
        -0.00179903916065937,
        -0.0200785568961388,
        0.09318761753921205,
        -0.03211290195945744,
        -0.06698211438102687,
        -0.055310844338253444,
        0.06171539776759044,
        -0.06846460532150261,
        0.0051375332505190635,
        0.12972563752572783,
        -0.03195939448640847,
        0.07161207399832667,
        -0.05077004559162788,
        -0.007285682259233636
      ],
      [
        0.06026662262929827,
        0.022322677799519422,
        0.08778134805641608,
        -0.030123853603958042,
        -0.02308588458015126,
        -0.011389399338752201,
        0.005569716060633612,
        -0.06391502166022829,
        -0.0022041046364061484,
        -0.01119759473727621,
        -0.07424378187613515,
        0.013800334785260097,
        0.049333013163624595,
        -0.006273423822280827,
        -0.03590551723897614,
        -0.06057627626033904,
        -0.10894697355621774,
        0.014337248449062659,
        0.037576798436517234,
        -0.07151271771082578,
        0.021805957856818617,
        -0.10744291107902518,
        0.06816006291960379,
        0.03801296717526972,
        0.12050477430600165,
        0.008326431951668468,
        -0.02705066125630455,
        0.0984318651360767,
        -0.03942411891126883,
        0.0925332059116881,
        -0.1221258718774142,
        -0.07355644074241541,
        -0.026058372006379227,
        -0.16068029969257963,
        -0.022142506476029077,
        -0.09371992663770685,
        -0.024457271091921376,
        0.034715529086096056,
        0.05266239920612814,
        0.11122670730093716,
        -0.024170441987286725,
        0.011404080226458335,
        -0.0770251420509019,
        0.06479126263718094,
        -0.07074864479029291,
        0.028892997115443714,
        0.06646244269414309,
        0.13700721423473608,
        0.008230838691537588,
        0.0411195880892097,
        -0.05301563674662946,
        -0.0041082355629490225,
        -0.10636348967914583,
        0.11097524099354053,
        -0.06253113501452348,
        -0.13265554772132904,
        0.07368915273600925,
        0.07419006650484382,
        0.06783410610146398,
        -0.10139354509066825,
        -0.017408473564832952,
        -0.009518874100230668,
        0.07627801439794057,
        0.06044815533235687
      ],
      [
        0.09656309212350436,
        0.04585968372277887,
        0.059279526194250476,
        -0.018771994288880697,
        0.015703431690260117,
        0.011139737068494027,
        0.07037072545455379,
        -0.020025515519974085,
        -0.0809506811336834,
        0.08084653410473983,
        -0.032004096461035504,
        -0.1006552424709081,
        -0.00029295590452209364,
        -0.090451433015371,
        -0.06032891023950747,
        -0.07642385262603942,
        0.09624806939118334,
        -0.019086804987793537,
        -0.0754826474399422,
        0.026455026522434102,
        -0.033457723605712676,
        -0.04956898615845154,
        -0.02677804338537046,
        -0.020576104208863827,
        0.011525456077510016,
        0.0032387919840264,
        -0.09016587975541157,
        -0.05098240607338454,
        0.08113911472119202,
        0.05825830171337504,
        -0.01762834056406251,
        0.01880413719368007,
        -0.10123088180571624,
        0.02336753223573114,
        0.0011598658977094861,
        0.00497437179683935,
        -0.06803558683890745,
        -0.1296675611306835,
        -0.10976588852637244,
        -0.0034994355240730857,
        0.1588215920260743,
        0.02835367713203084,
        -0.08569770688347764,
        -0.059065218468569006,
        0.03713601815474474,
        0.06008750159414349,
        -0.1582714327874915,
        0.034095048640854386,
        -0.051741473205099295,
        0.0446681933313071,
        0.008143499142530406,
        -0.053808294729170494,
        0.07784099654355944,
        -0.0589846196270727,
        -0.03992822912765018,
        -0.0035290035485548293,
        -0.10992987805658368,
        0.11766359475397882,
        0.046303101616963965,
        0.13583078488129702,
        -0.026844344266714212,
        -0.018196621601964807,
        0.08130973626601426,
        -0.016036026465298156
      ],
      [
        -0.00834019610361126,
        0.07337953854600252,
        0.06593641466307598,
        -0.0801018863117496,
        -0.06152782422925751,
        -0.055654835701593824,
        -0.04150742238724865,
        -0.0758430517178981,
        -0.09962069477495344,
        0.030249297229598834,
        -0.03832215776252394,
        0.09066016830788211,
        0.09205044367549534,
        -0.021163196782174265,
        -0.05229660007145667,
        0.12692777654180423,
        -0.02378697283864821,
        0.09544653854602622,
        0.006071503667838485,
        0.018615911777001726,
        -0.011304853942203416,
        0.05549079856354858,
        -0.10504741571645863,
        0.045975007988294146,
        0.015289441352435464,
        -0.037436723080636655,
        0.047090087500099895,
        0.08400118119751433,
        -0.00624607938689422,
        -0.11196232814201347,
        -0.05202712564019222,
        -0.073582221460881,
        -0.08084325774963455,
        0.1519463386341601,
        0.07818880057523944,
        0.018542621612992374,
        -0.08414539600860471,
        -0.0013380576165820807,
        -0.057353475852698246,
        -0.04661106343172891,
        -0.07808682814487997,
        -0.12019981109646893,
        -0.05680484302040035,
        -0.0015073571666062227,
        0.045509032574976245,
        -0.057948326561681945,
        -0.0002696263821530681,
        -0.05211006702798322,
        0.0578084535690866,
        -0.07201614014906958,
        0.06614917702117104,
        -0.08969102663730047,
        0.06462791788605309,
        0.030631259236710492,
        -0.024696030569882302,
        0.006572069283882577,
        0.08510039621674625,
        0.04079076646783561,
        0.0588552480608391,
        0.12280474202071646,
        0.06517138450681403,
        -0.02922434205517266,
        -0.02038044174543094,
        0.005016443865600587
      ],
      [
        0.04091315028433625,
        0.0038280976885489426,
        0.01796117153029738,
        -0.041999318611293676,
        -0.04754707641184715,
        -0.02491025365722798,
        0.04962137481604928,
        0.05709873359314302,
        -0.022072620732629757,
        0.05598606476225408,
        -0.08655376730943051,
        -0.040546516852597275,
        -0.08389992534002536,
        -0.1272630108196556,
        -0.07382700469471701,
        0.0985708150252576,
        -0.03163643055259348,
        0.11299664489860167,
        0.04566211086782708,
        -0.07171125504819995,
        0.033312456205845165,
        0.047935261434921494,
        0.044151923629140416,
        -0.05977587487473923,
        0.02137176069409033,
        0.09628387552323123,
        0.004544938731189475,
        -0.047751659858698337,
        -0.005675295799731105,
        0.03604871491741114,
        0.05601064923699492,
        0.21629081667646188,
        0.061002270899588845,
        -0.16953438708915347,
        -0.06740254546615695,
        0.05500573434493657,
        -0.0074899740297099116,
        0.09834187613009204,
        0.050000506121733665,
        0.08640040849411058,
        -0.08531977502487606,
        -0.0046210039371405165,
        0.11431594488569842,
        -0.08892670204097851,
        -0.09958911030523936,
        0.0468145489365009,
        0.05761761307069834,
        0.030639888397424604,
        0.010228993201940761,
        -0.06247329427307444,
        0.01175591206403015,
        0.025928882065214487,
        -0.011299810866978996,
        0.05696064950363846,
        0.023953559779900102,
        0.07270456403624424,
        0.06464106320231348,
        -0.0434752134164168,
        -0.07934829631260681,
        -0.05713009463503832,
        -0.04261134197247647,
        0.03587088586757964,
        -0.04154954498146288,
        0.05097396974742527
      ],
      [
        -0.011157647723137203,
        -0.09399022965706692,
        0.05110470735538866,
        -0.04815962775183673,
        -0.14188960022386185,
        0.02002385633342981,
        -0.12665106707354884,
        -0.0972048471129594,
        0.09674152499948563,
        -0.051937654772944805,
        -0.05072051857793312,
        -0.04328052514603914,
        -0.03573109937989753,
        0.16587090396733611,
        0.026491833551692393,
        -0.04496068590943952,
        0.07592246060665736,
        0.04142042596441184,
        -0.019545840944127396,
        -0.07996958834736714,
        0.006342361455961898,
        0.04484290154331725,
        0.03221961792088368,
        0.10564433263532771,
        0.09284820938121921,
        0.051367981103818565,
        0.0016560342945069195,
        0.056478212376857434,
        0.09326732589348176,
        -0.10242934102393228,
        -0.1327746807908515,
        0.15199306609357915,
        -0.042718242104772576,
        0.039830125551516,
        0.04840859067071954,
        0.0909296576896027,
        0.06991131747412108,
        -0.039913995486429446,
        0.016448665455641935,
        0.10789444919776824,
        0.11669752969115939,
        0.0048141567510661745,
        -0.024699291950503834,
        0.04853753064904623,
        0.09491934341940551,
        0.038062207035060205,
        -0.06630198963724773,
        -0.017412112920838954,
        -0.041259517595051344,
        -0.1012329483226907,
        0.07794342616849223,
        -0.03291610753996968,
        -0.07914543735703311,
        -0.11768616749472903,
        0.01174647610909623,
        0.029442307969541975,
        0.06900380810517062,
        -0.030644894113629743,
        0.039566086194832754,
        -0.1209438108591178,
        0.04473056073584614,
        0.09397449282414666,
        0.06946088782173751,
        0.0058794241687677926
      ],
      [
        -0.04226803109241113,
        0.002795302119728768,
        0.04474697509706977,
        -0.04187960436502822,
        0.06226704016273686,
        0.008286812450998222,
        -0.17924231963923454,
        -0.04442247352081859,
        -0.08443813837871342,
        0.054177278492452366,
        0.04650054907565475,
        0.06602603403459077,
        -0.009231492936851465,
        0.094982603019886,
        0.11857054558495099,
        0.0707475459943083,
        0.09193456478948266,
        0.14708253933307064,
        0.047431205566639406,
        -0.08344135577867315,
        -0.005638654963794593,
        0.08218904977568739,
        -0.009501324928317893,
        0.0987832933648673,
        -0.023395641913025858,
        0.02883248399848283,
        -0.030882681943273482,
        0.03664808662332594,
        0.03290829751336695,
        -0.0516215324380639,
        0.024832848286739616,
        0.038152266118904765,
        -0.04647142887816601,
        0.0816196924600447,
        0.010502976667008057,
        0.09155778460003947,
        -0.11921538185616169,
        -0.11595097319061395,
        0.020997056375513648,
        -0.03869085076542733,
        0.001517230763740704,
        -0.0629080450923971,
        0.046465785467934825,
        0.010918200916059648,
        0.026581980423186262,
        0.005665839168678757,
        0.048557144305947986,
        -0.012203431121179012,
        0.10424258503561329,
        0.09629896338563738,
        0.035366853745578936,
        -0.10093179948059577,
        0.017773208204078253,
        0.20290416864658956,
        0.05578173663591543,
        -0.02566750975697625,
        -0.03360412555360119,
        -0.04056767038793333,
        -0.13316226732307013,
        -0.1177821834257686,
        -0.08326518350188762,
        -0.01300055411309034,
        0.128442698598982,
        0.08150576511113491
      ],
      [
        -0.026418162373683204,
        -0.01315431568029958,
        0.05488962071959912,
        0.029157552189961432,
        0.011725938260851318,
        -0.14165135281878236,
        0.04656450491329414,
        0.05844536982811662,
        -0.0390369711803842,
        -0.10281490690157502,
        0.10067975518826458,
        -0.1083921645310362,
        0.0672062321489946,
        -0.008729922604020782,
        0.06265290448233804,
        -0.0042152537863366785,
        0.0004757452001294682,
        -0.03527236398657688,
        0.06046044021784122,
        -0.05724265151775719,
        -0.07657473070004324,
        0.039425009431492734,
        -0.002271329355278885,
        0.0066090845186726754,
        0.09708888429612536,
        0.11744359317652853,
        -0.095453709954119,
        0.030004444443650358,
        0.005035507849689161,
        -0.019622028387409493,
        -0.1319853946735237,
        -0.09860771002297605,
        -0.01470132898244507,
        0.04214556537101024,
        0.04128794529382848,
        0.006508359809973802,
        -0.030186447310306307,
        -0.027604301201973658,
        -0.01595595129441943,
        -0.061688103437928375,
        0.051883088895246246,
        -0.103603367063762,
        -0.01874459442894364,
        -0.06256471997990326,
        0.0413345583393039,
        -0.08818597355200544,
        -0.1331636787881466,
        0.03894864647925256,
        -0.0901845060677031,
        0.012688751451562646,
        0.03280762371560857,
        0.04617144768968179,
        0.024184848077883528,
        0.03657046652288227,
        0.010813157160952484,
        0.11328457597817092,
        -0.02661437980187918,
        0.04301419331130433,
        0.07470117832372991,
        0.05902823571102228,
        -0.026723474999723766,
        -0.0306780958083063,
        -0.08743168352554323,
        -0.0003584962324585106
      ],
      [
        0.02944097957663855,
        0.017073479926529272,
        0.1425150791212787,
        -0.0013157371227027898,
        -0.04354636096880698,
        -0.05763334937932936,
        0.06872728088917913,
        -0.023820247950492424,
        0.08042259735536822,
        0.06681289734538191,
        -0.02842065115662453,
        -0.07195521294482415,
        -0.024085987298033323,
        0.07097027380734611,
        0.03649893404211628,
        -0.07367299234495404,
        -0.038441715182130666,
        -0.07330495662015853,
        -0.04404048468681526,
        -0.10000012995033764,
        0.02924365000333292,
        -0.1339717598248575,
        -0.14558409746834067,
        0.0658401581714344,
        -0.03575254957442529,
        -0.043994481388029805,
        -0.021553798930556957,
        0.033785031053544065,
        -0.08153574633917142,
        0.05662015042118693,
        0.034583307198053956,
        0.04375645910563182,
        -0.02605757192549299,
        0.11312551192192857,
        0.007498387111716118,
        0.1389987856610876,
        -0.007054191486633957,
        -0.12208838719650161,
        -0.02109875591633159,
        0.05369465640767973,
        0.09513180580585423,
        0.015780956465508734,
        0.14503504707236542,
        0.01106931889729705,
        0.06899143463797572,
        -0.055027666880116115,
        0.03121045952956429,
        -0.05354845871656323,
        0.018396205600984716,
        0.08644907030197253,
        -0.07140460115849434,
        0.12177791275450386,
        -0.03788972124886799,
        0.08266220184943937,
        0.041343332548203895,
        0.1129803758069524,
        -0.04450290594549533,
        0.056343390963967815,
        -0.010636275327091015,
        -0.08591728869958311,
        0.09772387914859447,
        0.07835563485902247,
        -0.0837796018107144,
        0.08484192500735491
      ],
      [
        -0.0018639407815236458,
        -0.04839663469735494,
        0.02498389397998583,
        0.06176201602615089,
        -0.054755752515576545,
        0.015795540668663927,
        -0.059105847444024674,
        0.03844100127304151,
        0.07464622752863381,
        0.1013882920164847,
        -0.04872856141230213,
        0.12101355831341123,
        -0.05165557972786872,
        -0.10967152350392712,
        -0.025906000352742556,
        0.07528625894847582,
        -0.058595354846674566,
        0.04924156816387215,
        0.0007626330550309368,
        -0.08217527762610284,
        -0.02789399642488842,
        0.07138562834273035,
        -0.003007999680517452,
        -0.06845211441397399,
        0.01845543140903197,
        0.05054572927967871,
        0.027900379169720085,
        -0.02943051131987947,
        -0.08644965996473586,
        0.06802690089222546,
        -0.04085342080487909,
        -0.021914020646938245,
        -0.058533195010248965,
        -0.045657034585961154,
        -0.1576063778562613,
        -0.01633966280387454,
        -0.038196306063097554,
        -0.06664327459171715,
        -0.02425494042283409,
        0.06558778952150189,
        -0.06875356040135372,
        0.12720647102190477,
        0.007490780565824792,
        -0.009847046147004379,
        0.04406220471381017,
        -0.02812624080815644,
        0.10037309037048886,
        -0.0744528266510478,
        0.015700786682940386,
        0.012414471789279735,
        0.04994802315240161,
        -0.12348065181742962,
        -0.15638250082733332,
        -0.11862292039421174,
        -0.05885707710506225,
        0.017784175232335733,
        -0.033110277893451515,
        -0.06852114858571698,
        0.009144484219814876,
        -0.033122087102589154,
        0.0040439084705805525,
        -0.06938310077734519,
        0.02368168313674647,
        0.0039636021496586155
      ],
      [
        0.04595238022275191,
        -0.014777704718170664,
        -0.024701392752546965,
        0.057926257304785594,
        -0.0890854768961914,
        -0.03474957650599268,
        0.01218578230632164,
        -0.1327534960313773,
        0.015321533723142766,
        0.03470312501264598,
        0.07084598567133696,
        0.0425219962746332,
        0.0804759884330319,
        -0.09963669541518694,
        0.03415250254989178,
        -0.05534100212821705,
        0.06067583227306303,
        -0.03188414750923523,
        0.06100957971989787,
        0.06196857266961073,
        -0.029828314407970048,
        0.1108615043832184,
        -0.025732955645533892,
        -0.04904367180712563,
        -0.06681851773867278,
        0.04657052223980719,
        -0.03984947178461189,
        -0.009823521374450306,
        -0.003534756062288393,
        0.07388988915786306,
        -0.07930608466585898,
        0.03194318867252749,
        0.05773707466920473,
        -0.06708059798702753,
        0.025495041467692256,
        0.05266557003015199,
        0.0712158460525096,
        -0.07427419033183108,
        -0.05065494930910805,
        -0.10951097160339315,
        0.014405757095599311,
        -0.022033267435158467,
        -0.10985481331047783,
        0.03483810310797928,
        -0.02290708977700044,
        -0.014661279395644128,
        0.024199400818997498,
        -0.001923903928357118,
        0.0089742077353413,
        0.03659738509522095,
        0.03167316436071611,
        -0.05331997581523669,
        0.08504518890614247,
        -0.06330096388796308,
        -0.04808000333094173,
        -0.026833162662343396,
        0.03903774924097529,
        0.031818841754255256,
        -0.10799859919630844,
        0.071001198810005,
        -0.023177690485369357,
        -0.010441238123348962,
        -0.008552550109967597,
        -0.06732159942387234
      ],
      [
        -0.11542768696391986,
        0.04408428288934568,
        0.052166898452727914,
        -0.07081695216338617,
        -0.06105276077872972,
        0.009885859408544556,
        0.10590595520513978,
        0.025491592597147936,
        0.05436049574715171,
        -0.07058311787153522,
        -0.08674371987743033,
        -0.08547710324669162,
        0.17768775894105937,
        -0.07362351953933868,
        0.018168901947714228,
        -0.010554991137285016,
        0.12340427095683305,
        -0.14672098565083533,
        0.05353200148771621,
        0.051124281333355406,
        -0.08008005723404435,
        -0.008736309583627512,
        0.02010934048852489,
        -0.0062003993312432365,
        0.0034884691253662947,
        -0.04816807080039044,
        -0.0038751153653392156,
        0.004687858591668426,
        -0.11902989873207358,
        0.07174555561752341,
        -0.04831491697910493,
        -0.13574571650596548,
        0.011426608756629195,
        0.09876887062449811,
        0.009505237263964836,
        -0.028792240049112926,
        -0.028940889557634575,
        0.043473615456222345,
        0.046414304334311485,
        0.052446969992874404,
        -0.0007325090624857589,
        -0.007144690457685676,
        0.014412604486840536,
        -0.018651084920995084,
        0.04426647660973207,
        0.020194646470588544,
        0.037258018796554146,
        0.05444733271096819,
        0.05317143412601655,
        -0.005198402156838602,
        -0.10495140215271981,
        -0.004664277090187588,
        0.06025133366909995,
        0.09310653673668842,
        -0.06422438095104843,
        -0.06139971901519952,
        -0.09987413777181163,
        -0.015171738335635315,
        -0.023881986599354144,
        -0.0481434885508571,
        -0.04152650374699549,
        -0.06870648763638966,
        0.006560906286629115,
        -0.1441430136157616
      ],
      [
        0.059388474872294,
        -0.12230957943091106,
        -0.024314015509528206,
        0.04746654121576585,
        0.11552571738749545,
        -0.06980993112963414,
        -0.002150000139412217,
        -0.08002835371097078,
        -0.036280706050987425,
        0.07950324130214492,
        0.03955129378194895,
        -0.05373373517123732,
        0.02613959018373109,
        -0.02791429927761583,
        0.07054268285223739,
        0.12790040006322073,
        -0.019653603544676525,
        0.1312805354360243,
        0.09770109525986218,
        0.05434687487999253,
        0.18313074166871302,
        -0.06214513702767721,
        -0.04586870962380385,
        0.09859448188124728,
        -0.002127177521587864,
        0.0547617876853427,
        -0.07038107162960806,
        -0.09794391756304582,
        0.02377115266604274,
        -0.024382492049665555,
        -0.05429594124116634,
        0.04636419391136613,
        0.0008025037302565874,
        -0.07044803639731839,
        0.08623928511729946,
        0.07875922151418754,
        -0.042901533026965054,
        -0.04069044519106039,
        -0.011370325214099378,
        -0.06105423707602891,
        -0.06734965391939368,
        0.1160152278284031,
        -0.059536374341374584,
        -0.058549005089401335,
        -0.06770115717231076,
        -0.005788764552542534,
        -0.15104360094218042,
        -0.07089075347123673,
        -0.07277289074248733,
        0.09431649757522216,
        -0.016849111253168847,
        0.038910782915004764,
        -0.03860003800024952,
        0.02191143287997846,
        0.08684040735379489,
        0.06975078538476015,
        0.09697187239659567,
        0.07563065217751488,
        -0.06154084134516297,
        0.037934584103339025,
        0.04979313807399338,
        -0.07796448975089401,
        0.11930592735014106,
        0.10955231954741855
      ],
      [
        -0.10575253845950479,
        0.03640761230679916,
        0.12214081300775127,
        0.07351090752372705,
        -0.08395184437305525,
        0.08822417647342794,
        -0.03817280823584442,
        0.0193488270426405,
        0.016837806007435285,
        -0.08501784439176147,
        0.010390176135589693,
        0.05677786707366238,
        -0.06345053024116931,
        0.03927888272024846,
        -0.08114564912717981,
        0.006147992230488442,
        -0.024166175355892442,
        0.060376969423589444,
        0.015860562748450532,
        -0.1969470518237652,
        -0.039896620627153045,
        0.03328508213792923,
        -0.09717563160151736,
        -0.07871381138274176,
        -0.12191157707270965,
        -0.04469566595525812,
        -0.09749549981206046,
        0.05465320358204265,
        0.10361814339690621,
        -0.07408991514437953,
        0.041062526134134095,
        -0.05061364028663936,
        -0.041708854479776666,
        -0.01274672269116807,
        0.08418669034988652,
        -0.059419846244840854,
        -0.09148797733598345,
        -0.017607899254174234,
        -0.021888560207668453,
        -0.12450142072896023,
        -0.02675213692754308,
        -0.07240553205124949,
        -0.028668140735829878,
        0.01805514883683594,
        0.06418009174522861,
        -0.026354887977123112,
        0.0061810481207895535,
        -0.0707643074291544,
        0.07504205626311453,
        -0.05685431252592133,
        -0.10228926624368367,
        0.09508710138634649,
        -0.038322933716411,
        0.007488069892861611,
        0.054760392515559746,
        -0.0391421479240133,
        0.10827264999210011,
        0.06827510216956542,
        0.01242172702776622,
        0.06229385577168585,
        -0.11510426984296301,
        -0.0013716971877118511,
        -0.020566454225812617,
        0.02576426799463899
      ],
      [
        -0.015801484308341246,
        0.06568702549187005,
        -0.07092699061520788,
        0.048614508296967326,
        -0.05772150760271415,
        0.044612144637793075,
        -0.09327069953443562,
        -0.020815029840916346,
        -0.0418550168159193,
        -0.02259144073081315,
        0.023665756277513467,
        0.010350179161466258,
        0.03465563406058155,
        0.05547054178778697,
        -0.051848761638364604,
        0.07853710531356718,
        0.11964583645899307,
        -0.07352456049088527,
        -0.05816850491204737,
        -0.022134713729648384,
        0.1817598091603033,
        0.062282885794075094,
        -0.027622757445937327,
        0.056283699593787345,
        0.106747588329683,
        0.058167074503163246,
        0.06946253381332279,
        0.03274606630291961,
        0.12620994372300723,
        0.022702915187178076,
        -0.08105412818448794,
        -0.13745686128395773,
        -0.051303848835094173,
        -0.004367019329963494,
        -0.07779216944902648,
        0.0005198989376685448,
        0.014888921884762762,
        -0.027479660599635518,
        0.06619740310073813,
        -0.08507850607574019,
        -0.11766408479238537,
        -0.025525040311973682,
        -0.06829664670886901,
        -0.10504648465589077,
        0.05265294977964276,
        0.04487458519476334,
        0.11581642177535449,
        -0.0484589375334859,
        -0.012692370574786296,
        -0.05598219217996385,
        -0.05581762605120277,
        0.11521023185156601,
        -0.11276845930014087,
        0.12969082961081047,
        -0.008531040903844038,
        -0.0884610899916323,
        -0.0743194024815612,
        -0.015772641315995206,
        -0.08432517753269035,
        -0.07816052886887978,
        0.09134902187580538,
        -0.05021379115958676,
        0.08768039515381343,
        -0.05076664909719722
      ],
      [
        -0.013294502634500622,
        0.04448125020351685,
        0.07141376238900471,
        -0.135183793339712,
        -0.0445244494210044,
        -0.08758239562860175,
        -0.09413036362721489,
        0.07297683759741222,
        0.01695635276960311,
        0.07463790963913433,
        -0.016177810645452012,
        -0.08964582356673714,
        -0.0480673285482872,
        -0.0486375174960922,
        -0.07596058793117473,
        -0.02491901180597586,
        0.06996538135098235,
        0.016389420442349506,
        0.03775917376873693,
        -0.1354255842028341,
        0.014170664786968719,
        -0.11497217377408671,
        0.00797283901723174,
        0.042325471686207816,
        0.029026127813986176,
        0.02682006922022393,
        -0.035235479472436305,
        0.0369307837777466,
        0.02048815810815359,
        -0.05288227660209723,
        0.05697851370345313,
        0.05130966842337034,
        -0.03159090248862936,
        0.02892972666534567,
        0.04077335325619638,
        0.02686784484822209,
        -0.07395350013609081,
        -0.00597720590773413,
        0.07273496309593941,
        -0.0464983798218854,
        -0.008569436260074656,
        0.021580021876615785,
        -0.09355595980794901,
        0.048961874181074644,
        0.13264260838710956,
        -0.1374474858368133,
        0.1455618036917911,
        0.06905744105363243,
        -0.07478205050807746,
        0.014552791572984627,
        0.04220550161601351,
        -0.11144027555904058,
        0.12212891850204877,
        0.07480825984548525,
        -0.041043035806201916,
        -0.01928285492023392,
        0.0453560874675161,
        -0.04852909592381886,
        0.010351136291342974,
        0.0642309284046019,
        0.01420923513353188,
        -0.11416395363752165,
        -0.09932943161163313,
        -0.12510408696239414
      ],
      [
        -0.06538530463092522,
        -0.1275902829021183,
        0.06328369721513996,
        -0.052789249940504115,
        0.08810098417493567,
        0.06891906897402578,
        0.02603575589573709,
        -0.009746367476613442,
        0.05258691556989478,
        0.08981280572340658,
        0.05129846018150626,
        0.002861909812756226,
        0.06231251265212617,
        -0.06628258960749409,
        -0.0759826001699558,
        0.006652771768307732,
        0.014253937451889742,
        -0.0460067270880628,
        0.004791793077818046,
        0.0038305959137174897,
        0.03428194110948026,
        -0.07145667991787831,
        -0.005066839516977728,
        0.1470283770287093,
        0.09356234541792749,
        0.08123703704158888,
        -0.07040850578078303,
        -0.05669154236102336,
        0.023417485650819483,
        -0.08394328771185476,
        0.04826369850949647,
        0.036777965315928196,
        -0.020961742568291968,
        -0.01326880237260783,
        0.023841417169365855,
        0.13668527541624678,
        -0.053133056797435164,
        0.03852983956116343,
        0.026187845548656573,
        0.073963385801763,
        0.08947445946798292,
        -0.09413363218952259,
        0.057614120513187816,
        -0.09554054682168736,
        0.01906448415395985,
        0.049106585145766345,
        0.019023251364532992,
        -0.01938801419530263,
        0.0834027164101537,
        0.0014787388645405575,
        0.04757122283743063,
        -0.005828577026081194,
        0.013304099789827564,
        -0.02248047819903068,
        0.044349999987642434,
        -0.02525094009241642,
        0.002736560125921668,
        0.04531224756599542,
        0.06412986737200142,
        0.08876889063286843,
        -0.1364717830158829,
        0.053294895601813205,
        -0.13661502451540886,
        -0.026506158603557026
      ],
      [
        0.08425593557507402,
        -0.02267638317095339,
        0.1090696892939099,
        -0.08958122687874163,
        -0.0018353152575651469,
        0.06483044049246603,
        0.026279831804527184,
        0.01641124424347211,
        -0.08602413698365552,
        -0.052409748467599715,
        -0.1519268430616904,
        -0.003174527790755735,
        0.038053966814545995,
        0.03683880855275179,
        -0.005002543773275664,
        0.1067208151900367,
        0.03292750004523017,
        0.03222123782594534,
        0.008685197225839908,
        -0.046208760591123624,
        -0.05866429543556613,
        -0.046976097208800235,
        -0.0318373229511997,
        0.04843405596416441,
        -0.012804863015123576,
        -0.08365181000213454,
        -0.05802375604921019,
        -0.07788339392823963,
        0.08995487725357193,
        0.006118957281283713,
        0.03512412242069904,
        0.10880943329574363,
        -0.00995158787587324,
        -0.01387187522248752,
        -0.08375342412666233,
        0.13787238813368652,
        0.1217261162317389,
        -0.07844518204231393,
        -0.040887009957032455,
        -0.09415516932997917,
        -0.07446136897481018,
        -0.040731655938273326,
        0.03386102247298049,
        -0.10134674976195869,
        0.08636626353790709,
        0.15479932797449195,
        -0.0250838907127499,
        0.14288365289747068,
        0.02486236357149206,
        -0.03719247301585375,
        -0.019334104974971456,
        0.08281655826606335,
        -0.13169954285451385,
        0.01959973785042371,
        -0.11377499428635086,
        0.037043520826308046,
        0.006241143391452791,
        -0.04408916207461623,
        -0.0960495505626178,
        0.018480898642570992,
        0.10965449759370066,
        0.058296249816819586,
        0.08244236358913114,
        -0.00831726909987223
      ],
      [
        0.028510301161648925,
        -0.012191741284262848,
        -0.03091941985309253,
        -0.1113411728054231,
        0.10408025001782002,
        -0.06347648564081836,
        -0.07224235497862384,
        -0.02088483028951106,
        0.05019197663347255,
        -0.09958963588974767,
        -0.026947738838909184,
        0.08090115737167596,
        -0.07187328357291037,
        -0.07525036099102012,
        0.06920377855128657,
        -0.10993962957332498,
        0.03662416800418239,
        0.06772115053482036,
        0.016918541306303464,
        -0.0795853135243019,
        0.022220059824267543,
        -0.0689584580936231,
        0.008416587258008881,
        0.0703369682118756,
        0.0989872059517617,
        0.08336108543166179,
        -0.016667328102942275,
        0.09129735304620015,
        -0.03385239019653913,
        -0.051311516253771776,
        -0.09025840826557432,
        0.06841046276928495,
        0.09190568736178664,
        -0.09855027204812494,
        -0.06453250822025675,
        -0.03775379633962457,
        0.036021790530021414,
        0.01742557734490008,
        -0.0006918260414865707,
        -0.053339294022988704,
        0.09626038459224721,
        -0.034329531424086644,
        0.06306057142412413,
        0.09667332874480128,
        0.11308859901637264,
        -0.09247659506354099,
        -0.05167235270006936,
        0.06761931209587133,
        -0.07497339057957676,
        -0.08165136257592305,
        -0.1029105527267522,
        0.015602438971205702,
        0.08249573341487212,
        -0.11429599573123744,
        0.0011173676438751834,
        -0.08476728875595221,
        -0.04832794319035502,
        -0.04026615520975654,
        -0.020017102859710575,
        0.02221581836849,
        -0.14130896881602234,
        0.1297254114392646,
        -0.06823099483763478,
        -0.027082912710417614
      ],
      [
        0.051789654850941974,
        0.07377323277106426,
        -0.05052407722571403,
        -0.0962843816020834,
        -0.11351902385841503,
        -0.008355019727746701,
        0.09922891224269274,
        0.06489008087308329,
        0.0931117264838575,
        0.02586410241453474,
        0.09949907378084036,
        0.05319593037253398,
        0.052925686113346485,
        -0.005979559603060548,
        0.05793702581195116,
        0.12316835485979816,
        -0.03530677870482496,
        0.09709492304432157,
        0.10682321313693527,
        -0.14274007573207115,
        -0.02178030755309701,
        0.011652350394096237,
        -0.14531566624664782,
        -0.0005859529712568812,
        0.0689105492869386,
        -0.09385217036299967,
        0.1210239305024706,
        0.02501544697020225,
        0.021559638935819372,
        0.09007769869535831,
        0.050967429003232076,
        0.06177621010013798,
        0.05789425035769398,
        -0.06799038141574229,
        0.07163335564764695,
        -0.024708813546028507,
        -0.016200707283235034,
        0.027575456368541487,
        -0.037043902611707494,
        -0.05027825584729344,
        -0.08213944743147611,
        0.09884454102304045,
        -0.14165888809760918,
        -0.056071835341331915,
        -0.053318632861833005,
        0.011593274774326048,
        -0.07066834514398795,
        -0.02654978172450688,
        0.025346850519212406,
        -0.002033443621387951,
        0.08246708264177458,
        -0.02310818925898836,
        -0.029457998948959598,
        -0.01395527482740816,
        0.043596523525111244,
        0.08597203206376189,
        0.056834051332200125,
        -0.14435555246533785,
        0.02386768221729254,
        0.0760785950219338,
        0.09037841606771344,
        -0.046686288394563194,
        0.02595909582626916,
        -0.05285645018117289
      ],
      [
        0.0023041511133375103,
        -0.07964843670082326,
        0.04758538767080461,
        0.13620277464420716,
        0.09908736008953509,
        0.021807888504385156,
        -0.09027518505414286,
        -0.07147767908341916,
        -0.02496781621173807,
        -0.050100137748108786,
        0.08108908788397198,
        0.019037557994864673,
        0.018092424330114043,
        -0.014530903578781298,
        -0.01751379185453414,
        -0.0020436133250945274,
        -0.16216601552798038,
        0.012668640753858026,
        -0.03930140199134681,
        0.09959959131041926,
        -0.037437467306298405,
        0.10350119583688273,
        -0.017341238950615165,
        0.13275663819341219,
        -0.05228990917918837,
        -0.13307445279377889,
        -0.04210358308604017,
        0.10371636172821593,
        0.01941502446186434,
        -0.042551611555610394,
        -0.09374707523110493,
        0.0012801439772091028,
        -0.04207080142868454,
        -0.01901167258519324,
        0.06529528296284315,
        -0.0015803012733342989,
        0.07439849157459,
        -0.11284165029789144,
        0.028392680034531555,
        0.10673422569042067,
        -0.040068010908510227,
        0.1021063664501008,
        0.11459041312621965,
        0.09398053865378894,
        0.05255375510625598,
        -0.03437666535518216,
        0.09791034288873793,
        -0.03961967456241908,
        -0.05843894332403619,
        0.07121736867651662,
        -0.05650465666027751,
        -0.08770715493633341,
        -0.022740787353204048,
        -0.15249432698036713,
        0.017711214216728402,
        -0.0976602815156361,
        0.07013022627821042,
        0.06678626384117521,
        -0.0234959863621739,
        0.012293483792304896,
        -0.013590672972410456,
        0.0056842327728542225,
        0.030943577961314472,
        0.11089635365890538
      ],
      [
        0.0016764038959657945,
        0.049470859989818816,
        0.030794322085269915,
        0.05444708048607218,
        -0.09019053041601643,
        -0.006398507486223531,
        0.0614078716221676,
        -0.03679419445442552,
        0.09918952006040693,
        -0.040626460182913084,
        0.01673908203582189,
        0.01906827550847849,
        0.016600480363300557,
        0.013838660025826163,
        0.12199144873026706,
        -0.09013016173929352,
        0.06361377003119606,
        -0.025993876729544882,
        -0.04432587045092988,
        -0.0012536965423860166,
        0.07322616335903528,
        0.06979183271882182,
        0.040480993498506666,
        -0.08057728465542689,
        -0.030660405243698598,
        0.039402084892434325,
        -0.00289232862902733,
        -0.0100640545350065,
        0.10130673197487475,
        0.13373475542130878,
        -0.039087891667194535,
        0.0836109915823485,
        0.029256061752870932,
        0.0595754437115984,
        -0.05442583962352822,
        -0.045814545995795444,
        0.008231505726131044,
        -0.05464165057542641,
        -0.04940647174956235,
        -0.15565922545480307,
        0.09992842779443323,
        0.07821731041805642,
        0.014423681667803376,
        -0.04860561542033101,
        0.0892297736931089,
        0.05210176544759741,
        0.03914393308777363,
        0.031235947967334157,
        0.06623804632845698,
        0.06217059916210283,
        -0.019151948399367444,
        0.040209359743963946,
        0.06984250058273017,
        0.13739719183918064,
        -0.026654135990828713,
        0.0498873393447776,
        -0.07098077413962851,
        -0.03806531300670595,
        0.07579696246545255,
        0.027720260603411505,
        -0.04223357948558218,
        0.07042090117305953,
        0.0988077763124777,
        0.01255153891519678
      ],
      [
        0.032412671234504586,
        -0.10057925192289874,
        0.0018535154925087838,
        -0.02533455879303846,
        -0.09050018037844768,
        -0.0022779870360224094,
        0.09424980747021738,
        -0.03935280451279819,
        0.0040875058795393285,
        -0.010509637786689903,
        0.036547415088031755,
        -0.03140557467970748,
        0.06644702155405584,
        0.10618886468474965,
        -0.18430917410145603,
        0.08905514320509078,
        0.06226903125904001,
        -0.08051670205241448,
        -0.043820512874600315,
        -0.0319925618436601,
        0.08353905627450708,
        -0.01220146096374048,
        -0.08073792082103773,
        0.03362858268998968,
        -0.05302719523932964,
        0.05142467789348923,
        -0.06500514908114607,
        0.03097967069345582,
        0.006157428428639686,
        0.07241781991083066,
        -0.048896964565192755,
        0.06613843602792223,
        0.036435132989161595,
        0.06593002859186717,
        -0.07432283942227091,
        -0.06588523686986948,
        0.009402731935306968,
        -0.0616617429947376,
        -0.024932144044102142,
        0.06628737451243336,
        0.04294723087067828,
        0.03571276420395497,
        0.06774122007574901,
        0.02726237222586666,
        0.021647519626264426,
        0.04848521410487947,
        -0.014527811103306573,
        0.008858425521863444,
        -0.09210929643034382,
        -0.005166582583153133,
        0.012158201480970847,
        0.15137726226495785,
        -0.0856811432550271,
        -0.03034707709295774,
        0.01691189702107463,
        -0.004492897727878954,
        -0.0723086624305618,
        -0.013798712165098558,
        -0.010324065085301933,
        0.0644119237689423,
        -0.038420844561877665,
        -0.06399092773171024,
        -0.06905661418646183,
        -0.12616537525144816
      ],
      [
        0.06357529367132361,
        0.045170458657137515,
        -0.023539537543692444,
        -0.04622957930477414,
        0.0009181615366124218,
        -0.10257914102681648,
        0.0713829409349492,
        -0.07901986264790795,
        -0.14799030714500946,
        0.0432490908839452,
        -0.011245439428533028,
        0.028125689350045405,
        0.028025805059294084,
        -0.06353197833303834,
        -0.07546094937443243,
        0.04156151047655035,
        -0.07033673212063189,
        -0.08595833703868634,
        -0.056106927877881616,
        0.07418915289956707,
        7.871871765106203e-05,
        0.06321029776771198,
        0.09082531139060111,
        0.06048608395233221,
        -0.003318146244692441,
        0.09992506719419937,
        0.008666479390091825,
        0.01662465934849098,
        -0.13896359983168874,
        -0.0497292321949413,
        -0.026638441717101738,
        -0.10314393875133832,
        -0.06829582742689239,
        0.08225692385925615,
        -0.027652643131770193,
        -0.06039373596094111,
        0.07462906488720814,
        -0.0052548502038500325,
        0.03463173565088305,
        -0.0262603963828468,
        0.01273197939382846,
        0.11668413184763159,
        0.12218276851233399,
        0.11307129318823629,
        0.05438453442237051,
        0.03824152523933111,
        -0.06354769634877622,
        -0.07076666209781843,
        -0.06707139467660403,
        -0.08924290256575944,
        -0.016252507065620547,
        -0.04821646064548338,
        -0.002584422838547734,
        -0.06012667489929383,
        0.019240889051790826,
        -0.08740007379575915,
        0.020413341261063894,
        0.04384446601295633,
        -0.018925786501642977,
        0.044190349260730094,
        0.0498149264170682,
        0.04080121941168885,
        -0.13751632868285651,
        -0.09114174536775616
      ],
      [
        0.14469111854100486,
        0.09352316625874843,
        0.024678666836722263,
        0.02293653862615977,
        0.008118604797909545,
        -0.013580391688110226,
        -0.04001174773590349,
        -0.05807904839421263,
        0.022387577536858203,
        -0.062124437094721534,
        0.006767259458543534,
        -0.027904832383136,
        -0.10201277811370926,
        0.028234360228584388,
        -0.06644189105362819,
        0.054217352829729906,
        0.0029521259368461145,
        -0.013927214420776525,
        0.0704928947613406,
        -0.008479763525743839,
        0.07558260746176557,
        -0.06821533693611369,
        0.006374199043805179,
        -0.0612338167552362,
        -0.041907915039981106,
        0.049979135002507696,
        -0.08339709895238058,
        -0.006984343827730721,
        -0.025701151381869847,
        0.007553396614990729,
        0.02551515730723547,
        -0.0912847702990878,
        0.026434134814799004,
        -0.09917375719986636,
        -0.006587822089289722,
        0.09170054440031292,
        -0.09690301679011996,
        0.07676615915601889,
        -0.10869877571967722,
        -0.039321834876476086,
        -0.060196725106287624,
        0.12597750516471204,
        0.013775635150986384,
        -0.04974730524604143,
        0.05864872963759674,
        0.009452996769478979,
        -0.03962317121096351,
        -0.08922037589763088,
        -0.024437278034016678,
        0.08988924261625678,
        0.03551488697980125,
        0.020366387334638275,
        -0.022821298889084046,
        -0.09519123821549551,
        0.07109368993208341,
        -0.026243875787062887,
        -0.01764912066582773,
        -0.08924053439157507,
        0.005576724770786898,
        -0.13302331208929122,
        0.015464984798672476,
        0.012753386584570203,
        -0.026745913351398136,
        -0.029530934288543517
      ],
      [
        -0.11638299187441396,
        0.06641345292120235,
        0.002892479258828573,
        0.08963257105682135,
        -0.06681149197689984,
        -0.04916341450051678,
        -0.06435310448785991,
        -0.06350265837328103,
        -0.07491237440449156,
        -0.04487874870257074,
        -0.03999490690376738,
        -0.0018917296982865206,
        -0.1465965757799999,
        0.14298643958906235,
        0.06372549470310054,
        -0.1371387846171342,
        -0.0032394840974305714,
        -0.018330989836470017,
        -0.09954656125542645,
        -0.07096252368600786,
        -0.12294093022981334,
        0.04873515613442476,
        0.012756997375380556,
        -0.03349880764645465,
        -0.09969586439528108,
        0.008164559967208718,
        0.0027259148819442913,
        0.004341891535203965,
        -0.16876573341565285,
        0.023242729214837998,
        0.05370827689817548,
        -0.003806834401377371,
        -0.0872323429147552,
        -0.0530080942017508,
        -0.03247150333029816,
        -0.062478681485295944,
        0.06394889812889892,
        -0.026224942794232237,
        -0.018445185442215767,
        -0.01143182850897654,
        -0.004134878080882129,
        -0.02920272021655594,
        0.07123301173993596,
        0.04970009712951386,
        0.035550724134927644,
        -0.09716199417645828,
        0.029913233006874845,
        0.053709942648237405,
        -0.03195866620481529,
        0.012956306707603608,
        0.06173681292262759,
        0.010374327993654765,
        -0.02408887100182852,
        0.027647504913545173,
        0.0968083993684201,
        0.0792138015658961,
        -0.014706843181631131,
        0.08385321409744079,
        0.029943962306372134,
        -0.03617283475449769,
        -0.12796132880298938,
        -0.05958901717265204,
        0.10413698675858785,
        0.11176046211722471
      ],
      [
        0.16128098899151266,
        -0.09494880317987993,
        -0.04959721486025434,
        -0.0017246536812002278,
        0.1186935434887634,
        0.02608168567782569,
        -0.0743648316446609,
        -0.09780249959401781,
        0.12360276323432708,
        0.021825912920222332,
        -0.060436833757847565,
        -0.0179653549851663,
        -0.0005053887792733774,
        0.03137135842616319,
        0.0961076498725496,
        -0.05486927201559129,
        0.006332870912146599,
        0.03758186303923224,
        0.11579253293521394,
        0.04176112131414886,
        0.08118141109142117,
        -0.006613770764218249,
        0.09087219461283672,
        0.07744302405154783,
        0.06123854765792634,
        0.06699576149037326,
        0.03478994277154311,
        -0.027569540070831372,
        0.11398926499144438,
        -0.08443448994467717,
        -0.11731830289157512,
        -0.0511110543255578,
        0.010306817840876698,
        0.05208577022301013,
        -0.07914520663562248,
        -0.16826226655471013,
        0.10097774885330386,
        0.09152458503661105,
        -0.1838886178890871,
        -0.052865801180041555,
        -0.08615294307115398,
        -0.002506933699345376,
        0.09946666078652142,
        -0.025293753116331807,
        -0.005513692633036915,
        0.03612260272482068,
        0.036621426194728884,
        0.12669270211949113,
        -0.02350411485928386,
        0.1321285263301435,
        0.03596253345917824,
        -0.02216546910268409,
        0.11763390340791917,
        -0.053399350406547,
        0.04426449936266833,
        -0.08278954117454668,
        0.01861817623587078,
        0.09978734851159242,
        -0.007810055035521873,
        -0.029585416158604,
        0.1354872518371745,
        -0.09031146378784402,
        -0.09678422427198947,
        0.05850869666109957
      ],
      [
        0.03156537948821697,
        0.08089212786492327,
        -0.003988174319408573,
        0.104007803782136,
        0.08085173488059602,
        -0.06315020222911989,
        -0.022967342440025858,
        -0.08920251781185384,
        0.09476352266729954,
        -0.0339207403386838,
        -0.048878783622181406,
        -0.07566031231323009,
        0.034330843688126764,
        -0.06131198054368505,
        0.07085876951776608,
        -0.02531513386629032,
        -0.02683941413840607,
        -0.03282367997987616,
        0.04171179611772691,
        -0.05245766609104596,
        -0.010703103156047996,
        -0.07566775507502183,
        0.056532582688702704,
        -0.07465670954712011,
        0.01297621841830595,
        -0.03798040137001925,
        -0.03607062443119151,
        -0.12858153219685886,
        -0.014245082136764356,
        0.11806352230514698,
        0.009102364637806629,
        -0.08327727345979563,
        0.012851535256985194,
        0.03018954060321466,
        0.013555097789382457,
        -0.023230554206529204,
        -0.07075939970825418,
        -0.039061858568212184,
        -0.042059040806506735,
        -0.01589365306608064,
        -0.029155345073820713,
        0.003334518003149947,
        -0.10846753177690427,
        -0.014219807564557686,
        0.03695229420371046,
        0.0019139095736789846,
        -0.0031116669840626256,
        -1.89348926047557e-05,
        -0.05053655134225643,
        0.09723349060641416,
        -0.09837578702223529,
        -0.08708654131214194,
        -0.1420349364512043,
        -0.12158039413520026,
        -0.01720399064021571,
        0.0662565244702981,
        0.069301538412333,
        -0.05234492569591827,
        -0.003582554893884246,
        -0.09584210697102982,
        -0.10234665541344062,
        -0.13827067413092042,
        -0.04783534525668574,
        -0.03837289694457557
      ],
      [
        -0.08855622952859783,
        0.01495141155450807,
        -0.02208173880559393,
        -0.009760103232707228,
        0.061193186309347156,
        0.04453789485871831,
        -0.036888337036548174,
        0.07085219354749256,
        0.09470361134097562,
        -0.052973126672290594,
        -0.038300914506368036,
        0.10342108170859109,
        0.014625393631892282,
        0.07091232290215602,
        -0.08536385238790174,
        0.058641457755389016,
        0.0034874443924744272,
        0.09141503843008539,
        0.04641823277027862,
        0.00837611005521724,
        0.09453115079560741,
        0.11806259745656604,
        -0.05777272508364833,
        0.01826785100611473,
        -0.05977166772662365,
        0.029839814269010057,
        -0.00303723019055524,
        -0.04343068076096897,
        -0.048652283139189505,
        -0.019237008812516346,
        -0.04548627083124819,
        -0.014166078727967935,
        -0.0012447964319816582,
        -0.05407169622959329,
        -0.013051658946682719,
        -0.040019509126489106,
        -0.03385303328693668,
        -0.0939890324698361,
        0.05701869593941111,
        0.029789191756242048,
        -0.09326912507348184,
        0.05824886237555296,
        0.06644998536698493,
        -0.0708804075961624,
        -0.03411547984028007,
        -0.04958371516076167,
        -0.04086102320800312,
        -0.010860096676253914,
        0.04985581394026041,
        -0.08145939342687657,
        0.0849383629736492,
        -0.04256248557937027,
        0.06828934787255497,
        0.024305132894382575,
        0.006316331489699872,
        -0.09931480308556084,
        0.003064542210328449,
        -0.0876096873403486,
        0.04301149900445769,
        0.08094334056724815,
        -0.023664988243674315,
        -0.10255470254719967,
        0.0482318043901051,
        -0.09861624891939856
      ],
      [
        -0.11116763793798407,
        -0.0918667622591145,
        -0.014995535189696818,
        -0.03623501943080136,
        0.00022290371263135322,
        0.0030992222459899077,
        0.12525028738793648,
        -0.038689528562628354,
        -0.06891673201516156,
        -0.08429367988335931,
        -0.07194887619509338,
        -0.05207151662110586,
        -0.0840633582168328,
        0.05911587472957874,
        0.004738558209472117,
        0.061581586197260466,
        -0.06143733959038311,
        -0.1173426273179807,
        0.038670463151292925,
        -0.021273811805264664,
        -0.05729798090911371,
        -0.035401234658168884,
        -0.05592180969676804,
        0.029128934474508983,
        0.04870013913473116,
        0.0648452638960535,
        -0.1522117595569465,
        -0.017847106715775392,
        -0.021044702999561085,
        -0.09368930305838073,
        -0.1016113804601058,
        -0.026535380601822776,
        0.04469074788614183,
        0.010210935166607198,
        0.0014152166052933124,
        0.04564737765872599,
        -0.05114945622524246,
        -0.0894225356347004,
        0.009285763295888011,
        0.0535754856793044,
        -0.03168504505108652,
        -0.03974100728047263,
        -0.09533509363248048,
        -0.003857132326857679,
        0.027731683949473007,
        -0.1053085362439342,
        -0.01628953122159811,
        0.0896474986866247,
        -0.06217799061256253,
        -0.054326533331755106,
        0.007130161447585631,
        0.05392355303978483,
        0.021231386198191468,
        -0.013830749480534157,
        -0.03879642421812082,
        -0.04317542971868393,
        -0.07609820497899092,
        0.043201714960981574,
        -0.06553715640640698,
        0.09327552173398557,
        -0.041437817486949066,
        -0.01801129218144229,
        -0.043752009352141616,
        0.011428829267590982
      ],
      [
        -0.09729451079278073,
        0.013525711981210067,
        -0.04628046507546495,
        0.0066355897170647694,
        0.0520057219760697,
        0.05271879708629977,
        -0.06928443292577023,
        -0.01885810044588107,
        -0.11037583687257287,
        -0.003988827800905398,
        0.16586036352199646,
        -0.048211516841724825,
        0.002533348969010585,
        0.03400374356146849,
        0.10214762235701211,
        0.07056683387020765,
        -0.021466140280717187,
        -0.11372420909710121,
        -0.014815013981121488,
        0.057744354984610294,
        -0.01989198530475495,
        0.09628388015763073,
        0.022592466862355533,
        -0.06787158186109116,
        0.03171682879222502,
        -0.09262337664465788,
        0.018646229386012958,
        0.05576470292414647,
        -0.046480273980844505,
        -0.053662860378697434,
        0.02845174988107399,
        -0.039687830256515844,
        -0.009706228338975512,
        -0.12454672232889216,
        -0.047489927681266135,
        0.04896804554614426,
        0.025226501340282773,
        -0.13306375172673812,
        -0.09133373907012238,
        0.052860903922448715,
        -0.14800239586191738,
        0.12840124179287332,
        0.08551023525676205,
        0.0061730581726940625,
        0.01935259298525291,
        -0.026248867368317982,
        -0.06427402149103081,
        0.058644047018680506,
        0.033063321218201505,
        -0.09619206393551105,
        0.01147847524753217,
        -0.04822430307284667,
        0.05110942988845025,
        0.08733064734388088,
        0.00636800533042596,
        -0.14027001553278595,
        0.014485545491176352,
        -0.050223420102067574,
        0.05758296945740885,
        0.03347276851251905,
        0.10953122395664268,
        0.00368694378781817,
        0.008366011044604743,
        0.08745306268717541
      ],
      [
        -0.012864149138773644,
        0.08020853884386969,
        0.05935772068776089,
        0.050503427867666144,
        -0.07205322867678435,
        0.06037529849051826,
        -0.030905949883303294,
        0.045886280341745106,
        -0.137403533071978,
        -0.08652489180450862,
        0.06112206965743346,
        -0.01863309199094698,
        0.06745979278908784,
        0.08946658932539797,
        0.09420309778132835,
        -0.0352645183239543,
        -0.12124394932597715,
        -0.09997934001928077,
        0.0008925961254244996,
        -0.03707464189582375,
        0.05706396574284159,
        -0.07709066068965485,
        -0.07855322222609941,
        0.05785310735632465,
        0.09789674476819907,
        0.005897588662174859,
        0.046908566511328464,
        0.0584757655447532,
        -0.029005839067222684,
        -0.03464027442925932,
        -0.017215572076799315,
        0.07245249791382061,
        -0.04897962358618965,
        -0.11993169502802757,
        -0.04330727980920683,
        0.01645685652790306,
        0.0029603017928492292,
        0.0046449428064667606,
        0.07773922314005985,
        -0.002980848052791335,
        0.0588000525714063,
        0.08848717999132347,
        0.011026840314493629,
        -0.021547340758952885,
        -0.08867550849176095,
        0.022763429146995993,
        -0.005855601505840996,
        -0.0070252875873539206,
        0.06841019200473293,
        0.045260884297840816,
        0.0907671109923318,
        -0.0515577908770231,
        0.09989877825454259,
        0.14387735229942925,
        -0.08993415062645833,
        -0.06888217390131816,
        -0.04854718494265369,
        0.021419103984955563,
        0.029880594125764368,
        -0.04896000307447573,
        0.051394885607497456,
        -0.026728340148054065,
        0.07150986477445129,
        -0.08005399329167863
      ],
      [
        -0.022186128860693197,
        0.10470826609404725,
        0.02375331549938256,
        -0.11735416135181931,
        -0.16559676497483258,
        -0.025990378952703952,
        -0.049164975619902934,
        -0.021416196624316458,
        -0.07476074013328785,
        0.03311270900558169,
        -0.03910998103220385,
        -0.14119991729415918,
        0.04468351459578829,
        0.04984822466837929,
        -0.013379640435513047,
        -0.00392851545534792,
        -0.026641455660698234,
        0.056899624075568506,
        0.03240591324898795,
        0.05911506148361855,
        0.10751231154540063,
        -0.027232190275394273,
        0.042601405152386,
        0.11884952470966506,
        -0.0411897610853405,
        -0.016881026951991035,
        -0.049723701144044063,
        -0.08792642830258064,
        0.09089095806694722,
        0.0922408257775322,
        -0.06659688511094507,
        0.0062581573507901785,
        -0.09472073450575133,
        -0.11044744386517992,
        -0.09129573955192022,
        -0.027481510859654557,
        0.10091482505409854,
        0.1374773200678779,
        0.1020257011594522,
        0.0455571035012325,
        -0.02037750682218722,
        -0.07949204794479534,
        0.08364986614835736,
        -0.07461965750895128,
        -0.03293972147438535,
        0.004668389431468065,
        0.05633058839654623,
        -0.024798238605129225,
        -0.06132712609830193,
        -0.025202980804906003,
        0.05483739221904224,
        -0.010522431637897713,
        -0.0031072748107566772,
        -0.07263543376245762,
        -0.00836854631451514,
        0.032458904708591405,
        -0.06365232759424863,
        -0.10777097333196298,
        0.09697513036121452,
        0.06237974605747171,
        0.03879031994516213,
        -0.038566381479779456,
        0.08005404321979928,
        -0.010662656238203463
      ],
      [
        0.024590677368165288,
        -0.05169383777279386,
        -0.08937929405178258,
        0.05919021021995911,
        -0.06583471676879511,
        -0.03962674813397976,
        -0.015478217931223517,
        -0.09792184894956954,
        -0.007510213729306575,
        0.09290535333001337,
        -0.13634359814918723,
        0.07458175147050729,
        -0.02456878494281063,
        -0.1284771084382248,
        -0.05635343059902345,
        -0.013316858495019943,
        0.05933126473136742,
        0.12427176230592309,
        -0.010917563095737277,
        -0.045045184766527725,
        0.06236819089250986,
        -0.13803386318264632,
        0.05749409118500263,
        -0.015348621854753247,
        -0.0312366114516315,
        -0.005485608114223044,
        -0.022611443243096052,
        0.03168034557193805,
        0.07685495793969403,
        -0.07442368601873943,
        0.05308054639443194,
        0.005041043870733508,
        0.03947388913925149,
        0.06699013468651036,
        -0.02118345385455485,
        -0.09408309958626429,
        0.17008142179846505,
        0.001698313571356587,
        -0.06097918269984462,
        -0.10932085778295494,
        -0.005594261956492513,
        0.10243980688363982,
        0.02053268579716895,
        0.01599166449169611,
        -0.12432371179959091,
        0.06852936945803637,
        0.12728129004679442,
        -0.015345882082959728,
        -0.0060372288262043675,
        -0.01995674541759994,
        -0.07542050629543516,
        0.05594598483377297,
        -0.00533361970733201,
        -0.016496993229203297,
        -0.07836472103336678,
        0.08456012241950646,
        0.0078760123600473,
        0.08986058549984349,
        0.06946225090073395,
        -0.14644453221385614,
        0.05352422095877271,
        -0.09644322133996466,
        0.0008155800148077624,
        -0.006175348189967608
      ]
    ],
    "layer2": [
      [
        0.005664499049125346,
        0.11820324643860729,
        0.03020679883080897,
        -0.053131527344019616,
        0.0726915003786886,
        -0.030383821656482193,
        -0.007885433584131227,
        0.0041934999094404395,
        -0.11335844937075373,
        -0.008750499520066235,
        -0.06894536989369389,
        0.00514854971962813,
        0.06287580520309463,
        -0.05215282508586397,
        0.09382175942487654,
        -0.03492970543898076,
        0.11408454815357731,
        -0.04093384995668051,
        0.03247296974986355,
        0.011757093447331932,
        -0.04046761683538289,
        -0.08561101013703143,
        -0.013968221871639284,
        0.01959885049367846,
        -0.05393749248098745,
        -0.05167365571173456,
        -0.08433279893316659,
        0.013041740941670432,
        -0.05649580022107522,
        0.025123098433428498,
        -0.0738829068209995,
        -0.04651520630309463
      ],
      [
        -0.009305624997273262,
        0.06730994996566914,
        0.08848748913398455,
        0.017882675308095036,
        -0.08252461545787462,
        0.031397374721488736,
        0.0446931957469299,
        0.05941132797490989,
        -0.18579897262852088,
        -0.00857359504141654,
        -0.002193749619388556,
        -0.04137508921315154,
        0.11308490372171369,
        0.011908006105709967,
        -0.01737819043794317,
        0.06995196631898803,
        -0.1232678196427809,
        -0.06786608449433672,
        -0.07621722207191882,
        0.105021307922197,
        -0.058255967797436435,
        -0.018054591866125125,
        0.06306006599609089,
        -0.017287204025483782,
        0.02639803969881746,
        -0.09936954896835107,
        -0.006690088263346772,
        0.024140039641658582,
        -0.04531968330769531,
        0.055149980436379836,
        -0.025192273072444427,
        -0.1289984845561855
      ],
      [
        -0.07866659001860254,
        0.08578661657971381,
        0.005162666857595172,
        -0.10989101396195858,
        -0.01667844610199709,
        -0.038282468426266945,
        0.015518691523505115,
        -0.004679124609173829,
        -0.10684345315476851,
        0.08632309455172621,
        0.047194974787563716,
        -0.016969823102943524,
        0.10743622119494955,
        -0.056703508712384235,
        -0.08859302164737676,
        0.05495252205143289,
        -0.05735622569601041,
        0.07478703002362093,
        -0.030919477030859593,
        -0.041562898510213955,
        -0.03505251129314109,
        0.005075632038405553,
        0.05487176530207196,
        0.09823021210224382,
        0.0599322876735435,
        -0.10931009810668847,
        -0.008882195596413081,
        0.08768448886276105,
        -0.08434445120755474,
        -0.006882236767894373,
        -0.09594517792035527,
        -0.12221824847063077
      ],
      [
        0.008646054400715308,
        -0.0551121525486912,
        -0.07230020300266833,
        -0.010612145598596717,
        -0.07117761735372632,
        0.08927445834196587,
        0.023590125551538783,
        -0.11583932631996119,
        0.004965405382355938,
        0.09428010630988798,
        0.07887762778963248,
        0.00042362657605120313,
        -0.07079830347326095,
        0.0972134897378,
        0.10427507718132571,
        0.055326440870296506,
        0.011381479211167729,
        0.006614868233721684,
        0.06259241495427761,
        0.13765579343850823,
        -0.03239080716457822,
        -0.05013741432929776,
        -0.1385920844769274,
        -0.08106412525940823,
        0.11467200158807449,
        0.08624810057015539,
        -0.03636626198856497,
        0.0028508800636214138,
        -0.07794151621347706,
        -0.14884072053726927,
        0.007591557483114839,
        0.13937403332469983
      ],
      [
        0.04432759422303398,
        0.08470875657807356,
        0.03514078263598217,
        0.078049551936892,
        6.778169105121912e-05,
        -0.10570303438284218,
        -0.03321897718654947,
        0.08830971391418918,
        -0.1055812150206414,
        -0.025036849749137516,
        -0.05938207139128285,
        -0.05464673405560188,
        -0.049110369897372746,
        0.09481614531119195,
        -0.1007503068187165,
        -0.05914211450846381,
        -0.10434423532805634,
        0.10667472090387235,
        0.003695515765872341,
        -0.10335213347610528,
        -0.060451472261223216,
        0.1335121666959304,
        0.01240997028313117,
        0.034850551795369354,
        0.035484388758244105,
        -0.025903198283128752,
        0.13447143466944478,
        -0.06268332583492064,
        -0.016006489957628642,
        -0.04130879075840619,
        -0.10619471455282783,
        0.08473091810073102
      ],
      [
        0.07956578983903674,
        -0.09520588343531061,
        0.1580554959403498,
        -0.11922358489886757,
        -0.07865081352464831,
        0.114039618011539,
        0.049721980345837496,
        -0.07898183777457199,
        -0.08078688721551257,
        0.06844363163342967,
        -0.027102749408148587,
        -0.062257238644305574,
        -0.03571156523023149,
        0.0033946644293193773,
        -0.07869067562939229,
        -0.06080701700244458,
        0.006664809240223536,
        -0.10222506536240149,
        0.03967476201809614,
        -0.09049207080887861,
        -0.04024477510867447,
        0.07197637980741542,
        0.05296213344327749,
        0.03403094312946752,
        -0.04888147787790757,
        -0.10100233216118701,
        0.06042455630930983,
        -0.004115702822353601,
        -0.08321958368527568,
        0.08223009858125503,
        0.06404973127585545,
        -0.008564095053155522
      ],
      [
        -0.11647178585904157,
        0.0287173973169223,
        -0.08123273405135865,
        0.11517751169893103,
        0.08635904787716511,
        0.0571681189238233,
        0.008253195711373021,
        -0.03455535969266576,
        0.09821374297122426,
        -0.03419543833736261,
        0.05439966213904711,
        -0.0025915431619150386,
        -0.05018714319535832,
        0.011507381411169054,
        -0.11224709402050924,
        0.09642941713675432,
        0.012420379922691516,
        -0.11865530131581853,
        -0.035950655426503164,
        0.0892005359282939,
        0.0682955408784961,
        -0.074360490610595,
        0.09631177544570953,
        0.12023271362469562,
        0.023863712992685568,
        0.00448121368578111,
        -0.005411417218029707,
        0.16684761047366758,
        0.059120368236790496,
        0.07669105776971646,
        0.009196340085492978,
        0.03207886442808017
      ],
      [
        0.06363052102530499,
        -0.06833244762307925,
        -0.016681421224859716,
        -0.0042012828654136025,
        -0.039536126911784014,
        -0.012971718112779876,
        0.045859623644238984,
        -0.009089759047914314,
        -0.029164968827573315,
        -0.040490909711720605,
        0.06872571010270026,
        0.11517737764519163,
        -0.010404515549099755,
        0.08879575704796483,
        -0.08272142615379337,
        -0.08311571128110701,
        0.07019026360625398,
        0.13411839934590566,
        -0.004479643441325704,
        -0.020907789209420075,
        0.10957437173635161,
        -0.12344155851343436,
        -0.05176411137066833,
        -0.03254206416148942,
        0.0037532384108990152,
        0.10907723934453027,
        -0.051123912991909326,
        -0.06595593762998815,
        -0.058614067773571144,
        0.06533101365651103,
        0.07285095233395161,
        -0.049406252663580875
      ],
      [
        0.054520864666803864,
        0.0184224509552037,
        -0.0247521724384309,
        -0.0027732832552413503,
        0.11483345940326874,
        -0.07678492298173181,
        0.015120628679871552,
        -0.04156569677023513,
        0.01978782899951522,
        0.03482083334224832,
        0.023916859406599225,
        0.07108737677928817,
        0.08879686835116737,
        0.03939020931336737,
        -0.03541039469948551,
        -0.03682182080913775,
        -0.12507278749511463,
        -0.14853461717790833,
        -0.07752149270933435,
        0.05237926493069967,
        0.01378741383366499,
        -0.012787754869555225,
        -0.0046970971734055095,
        0.05899371949970472,
        0.003479806516628388,
        -0.10951976615795447,
        -0.06087173975278766,
        0.004661004390601641,
        0.08340556163201654,
        -0.09187980931442814,
        0.022654495889009522,
        -0.05120199206094769
      ],
      [
        -0.005576794415559701,
        0.012390646193703045,
        -0.03627647720701663,
        0.011793113174368569,
        -0.009020074774094382,
        -0.01973845186371011,
        0.04485217707717146,
        0.003935140877719248,
        0.05041974187748577,
        0.06837691237393878,
        0.047829412717613984,
        0.018968717737013904,
        -0.05781822867413634,
        0.0870915486667173,
        -0.08566306503150944,
        0.10456754243180641,
        0.2066768273347029,
        -0.023178019731538296,
        -0.03218141889013323,
        0.10986474962386023,
        -0.05306189232096416,
        0.10229978873330217,
        0.032602213264771605,
        -0.019581641104023773,
        0.09117165434495009,
        0.08519362929840235,
        -0.0349263023920766,
        0.03607355514417082,
        -0.0009072494148135296,
        0.0866328027151422,
        0.047099771343021096,
        -0.10005108668224116
      ],
      [
        -0.1315701531919682,
        -0.034555036619724866,
        0.10496285020072106,
        0.03874607620829341,
        -0.018863669163799668,
        -0.12230217907544572,
        0.03779027348806447,
        -0.031425412940146516,
        -0.03397285395146203,
        -0.05164525023638231,
        0.014894017456145409,
        0.05014861216609674,
        -0.05137645861288063,
        0.006476879499527161,
        0.06644250879346068,
        0.013236653831277145,
        0.07356240645923162,
        0.06951842311779105,
        -0.027039678552542145,
        0.011912161276713233,
        -0.08484861721749809,
        0.07479286761891812,
        -0.006195898951194573,
        -0.03421009037422032,
        0.07694272319534073,
        0.05566535451145682,
        0.023950994480367416,
        -0.01729396787651822,
        0.06800000363034864,
        0.1271158246225905,
        -0.08939385369158231,
        0.11945882826454267
      ],
      [
        -0.01968206315692623,
        -0.06303013307052924,
        0.09110494438424033,
        -0.01976558226973417,
        0.0017843035731923834,
        -0.1452921873069868,
        0.12331031563143252,
        0.018707405866463217,
        0.05635228603687051,
        -0.10136065853072201,
        0.026290136950390286,
        0.033267876578043906,
        -0.07226716210112144,
        -0.06877344734218388,
        -0.07872141670299454,
        -0.01810312691042793,
        -0.07204284048899663,
        -0.07971657563124025,
        0.09164423518507142,
        0.11876325530947442,
        -0.06530563684823663,
        -0.029508747439090828,
        0.01041356236160474,
        -0.07453265791009797,
        0.04401088384965962,
        0.045209758996207605,
        0.02353704084278571,
        -0.05483259781437777,
        0.005369417037767693,
        -0.04578609202654671,
        -0.007994119630580172,
        -0.11509537673389655
      ],
      [
        0.008262971748603604,
        0.0653172411514065,
        -0.056561739447551135,
        0.0024312283865911832,
        -0.03097538808756138,
        -0.09151068997728326,
        0.09167403740521507,
        -0.030164405380646714,
        -0.047128053188813995,
        0.014883935999250336,
        -0.025824237546481152,
        0.05340044294159314,
        -0.030938917981153613,
        0.020975869734105534,
        0.066021155237271,
        0.0018259615595836304,
        0.06406823700870207,
        -0.03402657729108903,
        0.07939167798707697,
        -0.09070744547362096,
        0.057482515198688994,
        0.12422076257097493,
        -0.021509397504368692,
        0.022744717105716725,
        -0.09873597809454093,
        -0.08902223187647743,
        -0.04806977076790664,
        0.030198495000306497,
        0.0019793531456936686,
        0.01421529495950316,
        -0.09171685435923764,
        0.034299511754279866
      ],
      [
        0.06440584939511651,
        0.08559138942175556,
        0.006992848715451916,
        -0.033732375832105595,
        -0.08919840484645288,
        0.04829239879933276,
        -0.0855002192346826,
        -0.09123366449476256,
        0.005896897958220293,
        -0.020521815613048333,
        0.0677202629904609,
        -0.03177302838043734,
        -0.058470958187410084,
        -0.06722655863002228,
        0.04333378338933798,
        -0.016704597518463468,
        -0.0007371177093896258,
        -0.03243801137919679,
        0.09552348176377706,
        0.030298810798916484,
        0.06107911015802968,
        -0.10053890374560706,
        -0.07619650773756226,
        0.09060287006181475,
        -0.046650987427852,
        0.10929309265051793,
        0.0014920374745722512,
        0.09439169363065164,
        0.03268389744867742,
        0.015658256195396028,
        0.005638360293255481,
        0.031233947426692714
      ],
      [
        -0.04654018174081183,
        0.027705495176071633,
        0.044005253061572186,
        0.11674532997625976,
        0.07550731799314925,
        -0.08425555049880351,
        -0.11018023192057727,
        0.0836338686682001,
        0.04832698585861564,
        -0.061039254303255255,
        0.089060585377295,
        -0.06791474032013567,
        0.03719684099068498,
        0.07089358689630408,
        -0.04085310423731944,
        0.026572187335712066,
        0.03879911172055507,
        0.045800886349634,
        0.026362107422975834,
        0.05515870250490515,
        0.00034909275536199047,
        0.09695667191139365,
        0.03236018759905357,
        0.004084158825365634,
        0.04547822302946741,
        -0.022171590567132797,
        0.09271351638294029,
        0.0757731379212841,
        0.03937011598593082,
        -0.03389547321685869,
        0.08681297356734576,
        0.044157962824047894
      ],
      [
        0.10175128450000868,
        -0.032117702648256065,
        0.05189469091681195,
        -0.01157349439558561,
        -0.09248859475760293,
        0.043267899784486495,
        -0.0886968181881316,
        0.06902140825069024,
        0.004795396781432648,
        0.020375434516906106,
        0.04157130257729284,
        0.07667296732675222,
        -0.04208371835405267,
        0.0273449966567857,
        0.046771086838460596,
        0.025623196299720007,
        -0.10797529862185126,
        -0.031021886527730358,
        0.08595539257951555,
        -0.11219345255118425,
        0.005655417245323258,
        -0.06864528978018844,
        0.06189648743930751,
        0.0931561945843119,
        0.05315301312143162,
        -0.056156990289232406,
        -0.07766180134598685,
        0.009126685015661787,
        -0.037211254123504095,
        0.05315827324916356,
        -0.02569575344987214,
        0.04968807120029225
      ],
      [
        0.013765074135456981,
        -0.060594452601506796,
        0.09622740413178751,
        0.0705269709096345,
        -0.04078474102311894,
        -0.05268975932566683,
        -0.08971796693907397,
        0.06018037918648035,
        0.145867891368054,
        -0.031613021429292204,
        -0.08028637837298234,
        -0.007841105302069856,
        0.030129300947437182,
        0.035950809191214905,
        0.17509328474592167,
        -0.08496062487709688,
        0.09558762916826433,
        -0.04818500479059018,
        -0.11697112076914198,
        0.020928921958415163,
        -0.14305706108292837,
        0.03464291054770415,
        -0.009309250147734122,
        -0.0370348508188662,
        -0.0510467247526812,
        -0.004187958978606153,
        -0.05915399784740874,
        0.05457433247001848,
        -0.09562537751702768,
        0.011825468506498352,
        0.01263047791169887,
        0.09511588779286288
      ],
      [
        0.00041040555772545173,
        -0.024499610362430313,
        0.010433051139609434,
        0.1691249846550898,
        0.12347921811417689,
        -0.07906792940047636,
        -0.11369839908167831,
        0.07644287892900412,
        -0.05169343685394724,
        -0.047435918385410704,
        -0.056877150747222154,
        0.10969456479082662,
        0.04043567597991962,
        0.04514594370685433,
        -0.09522564051490308,
        -0.02390551359275503,
        0.017552302595893923,
        -0.056694989361203235,
        -0.06115727222155619,
        0.09948653270228705,
        -0.025833148953342974,
        0.07772242730245583,
        -0.08365778349056884,
        -0.015813590572307606,
        0.06358179835779834,
        -0.0010174018184411632,
        -0.09739441737471347,
        -0.08546515621656908,
        0.02513576535512295,
        -0.03448556065459607,
        -0.009574032101830138,
        -0.02319133209578976
      ],
      [
        0.04707623508855173,
        -0.00012034830198384694,
        -0.0028041758853486545,
        -0.011407425043334071,
        0.09079496440855694,
        -0.02264092916899233,
        0.07650450411651366,
        -0.09018911883117395,
        -0.005996394522855664,
        -0.005047037975209792,
        0.024419164432710777,
        0.02765372014271078,
        -0.05939704091058895,
        0.008870448884427597,
        0.0016821358860094199,
        0.09169233024940093,
        -0.08774042546966893,
        0.04945620811324558,
        0.021930462514159005,
        0.015842792995214627,
        0.04384756438940421,
        -0.037280437189486024,
        -0.0952355472346118,
        0.07710149674918583,
        0.1149825966597939,
        -0.057826029676694896,
        -0.01654511690851445,
        -0.04479242033182569,
        -0.04691778372739652,
        -0.13734010713690428,
        -0.0548097107714187,
        -0.15512158216804062
      ],
      [
        0.051627996817493305,
        0.12253859294882893,
        -0.03774660509250292,
        -0.03675168558515217,
        0.05679114141789901,
        -0.01582221018426322,
        0.016458306279422588,
        -0.03056598430313477,
        -0.0014648616463630582,
        -0.09349042394860341,
        0.02583888979963264,
        -0.04963401874210243,
        -0.052718411326560966,
        0.0640970810460014,
        0.04654023763666676,
        -0.08300501629375404,
        -0.05086122987933193,
        0.08866478945456135,
        0.011245451194738673,
        0.013411670908973772,
        -0.03507641622507217,
        0.03080550458476196,
        -0.079934801486848,
        -0.05159575073028105,
        -0.098967365361603,
        -0.06712555757563315,
        0.058525892793539536,
        -0.02167322709566362,
        -0.039172221990572846,
        0.03171601809005792,
        -0.06523452529177465,
        0.025252495024191565
      ],
      [
        -0.1007004667141373,
        0.11309724522543849,
        -0.02895801835412662,
        -0.033441103090136794,
        0.06713627890506955,
        0.00258263857139672,
        0.06105607749476882,
        0.06862253815095459,
        0.06029494356185837,
        0.006114495195056149,
        0.007430215796573575,
        -0.003897748527996653,
        0.03918741085722908,
        -0.045341944994164544,
        0.025159053350015677,
        -0.05930912614532771,
        0.09521482142116619,
        -0.09465810427341684,
        0.0005702208401348469,
        -0.029524223835659717,
        -0.007932313176296078,
        -0.03769129332341839,
        -0.02961951198150467,
        -0.14964771856326825,
        -0.048185225586497016,
        -0.037149764727926846,
        0.03765560900210749,
        0.0543225705519437,
        -0.04038188750521764,
        -0.08461206689930793,
        -0.10058739206602087,
        -0.014066735525838814
      ],
      [
        0.0224772711628985,
        -0.08715577479643341,
        0.025166138197821708,
        -0.008021865658947497,
        -0.006200180531087368,
        0.023142004207270722,
        -0.07963840624034478,
        0.015569075888281908,
        0.07122743302740811,
        -0.1123753886946486,
        0.02628507895548391,
        -0.007783276853854493,
        0.06292843379072643,
        0.01580960874871392,
        -0.057004250962572174,
        -0.006771690366605999,
        -0.11497626303888323,
        -0.055978615385704346,
        -0.058184769735385104,
        -0.033531528269263394,
        -0.02723971990177102,
        -0.07226635901085623,
        0.06520072659641019,
        0.004679261045559685,
        -0.03368571197243063,
        0.04591005704296504,
        0.04839211323582305,
        0.08148191734829562,
        0.1354079093646579,
        -0.0978724579386378,
        -0.07537121315959563,
        0.061521889366194335
      ],
      [
        -0.04078628645688293,
        0.09799276792384644,
        0.018874697677936786,
        -0.08019639573709175,
        -0.06091431340693783,
        0.018667485467384955,
        -0.044161263610298915,
        0.004668936166167259,
        -0.03860572762422754,
        0.11379837558032597,
        -0.06105886830559042,
        -0.06113114460203803,
        0.024272297779062355,
        -0.10648541342308646,
        -0.004828322942091082,
        -0.024727935899007278,
        0.09791679729695583,
        -0.04936539864389062,
        0.02053368753875228,
        0.03177949447616757,
        -0.03769322625305507,
        0.08678925976930393,
        -0.039589311684902526,
        0.03197826096821879,
        0.05864652177974963,
        -0.08315835964555163,
        0.049066790410082786,
        -0.12222733436761873,
        -0.014424480939716378,
        0.005045454623131981,
        -0.012077413610340065,
        -0.009310189731224092
      ],
      [
        -0.13369940972388697,
        -0.06824190142445677,
        0.042856615658879944,
        0.12778046702833928,
        -0.0504340971225576,
        -0.038954513675700686,
        0.13578930056577398,
        -0.14237597429879797,
        0.004270731358669504,
        0.035992037402741296,
        0.10625357011301029,
        0.03853301945234884,
        -0.0322639962556686,
        0.042751185562210074,
        0.12894209930567474,
        -0.03715897407031714,
        0.04361032435996732,
        0.03892385598285529,
        0.038049736769489334,
        0.04764019371866106,
        -0.00658612915777472,
        0.0025364270633113223,
        0.1270238387834296,
        -0.0452548487988672,
        0.003938909451802232,
        -0.021709763312816197,
        0.07691727307192658,
        -0.010130113933389619,
        0.046330054063414124,
        -0.008138500308260688,
        -0.01823374355483058,
        0.12067206864030908
      ],
      [
        0.01209737810964516,
        0.0002913396123213202,
        0.11111314192897816,
        -0.039820510081091755,
        -0.11232531809594175,
        -0.09534829476821684,
        0.030612948361912397,
        0.0408358643586524,
        -0.033681743861262395,
        0.08019071344765938,
        0.04346995742890601,
        0.06964457648679534,
        -0.052350250558012915,
        -0.033374663069282814,
        -0.08065379800313771,
        0.027980540294887557,
        0.027590253802319678,
        -0.029953650730296315,
        -0.05274042176933355,
        -0.03155197721993712,
        0.05157229489987845,
        -0.06686174297279109,
        0.04625039605433099,
        0.09001440365072266,
        0.028819318476545577,
        0.041883717975505746,
        -0.11053206519852474,
        -0.08071656472651545,
        0.05650443894998386,
        -0.043717688228158164,
        0.0632744565590381,
        0.041218572944798526
      ],
      [
        0.006996335454496641,
        -0.07201374275199701,
        -0.002126731971087821,
        0.009569963348942195,
        -0.01954572552868747,
        0.07928015987809961,
        0.12552345384495528,
        -0.0149110495387164,
        0.03463004350500253,
        -0.047786474372282256,
        -0.014627115706565039,
        -0.04998448973958491,
        -0.035603526409182865,
        -0.01911683985588264,
        0.00569193931129916,
        -0.033177905200787214,
        0.07436659287930364,
        -0.0981066614529397,
        -0.03361147800093768,
        -0.035131105942282935,
        -0.1082000529670655,
        -0.10849302184401398,
        -0.007739448022368225,
        -0.016501588363359507,
        0.07300103579363547,
        -0.08805909694384259,
        0.10484409566508052,
        0.018417317364548248,
        -0.07610219211966879,
        0.0416928420411829,
        0.008279042789967689,
        -0.002209243176944334
      ],
      [
        0.12997804164915744,
        0.010700715038719194,
        -0.05143456248306689,
        0.05787435225642671,
        0.02193205063931948,
        -0.014304451887811681,
        0.06238239282138744,
        -0.06697493886944435,
        0.059910290576893316,
        0.04400026096783078,
        0.0767909721680338,
        0.0021178414565408837,
        0.11017430516773645,
        -0.02575296300550807,
        -0.06553531024527279,
        -0.015896401633598706,
        0.01615024719568462,
        0.03750712965162364,
        -0.10800460631642414,
        -0.0737045386449837,
        0.096253187982007,
        -0.09843238208268695,
        -0.004130515433252019,
        0.05959220359192997,
        -0.06585230388853391,
        -0.0062552109106054354,
        -0.018058391838040644,
        0.010604320551484275,
        0.12315044627115534,
        -0.07306522241404931,
        -0.10129119797421782,
        -0.09012720510212996
      ],
      [
        -0.01586328416827091,
        0.039252743739929576,
        -0.05474596821049439,
        0.017551829653179196,
        -0.07020228430677364,
        -0.0827028692969092,
        0.007867061487298148,
        -0.005461057029425606,
        0.08087680065075224,
        -0.07546123517820504,
        -0.04010797295395099,
        0.13359930450972324,
        -0.013796903223796224,
        -0.03436659998066312,
        0.10578010703471653,
        0.0445070532719021,
        0.06948469396310336,
        0.08291404108705207,
        -0.08283334340929918,
        -0.017865962140116605,
        0.003162433986890534,
        0.07745442059812115,
        0.016634770856286965,
        -0.046802062405076617,
        -0.028230366357795078,
        0.06812915190759333,
        -0.02179908261998404,
        0.10152594946756868,
        0.09813009178161855,
        0.07775734894002526,
        -0.12780224005574845,
        -0.043486738469785444
      ],
      [
        -0.08474034591554372,
        -0.03221123047605482,
        0.029161269929677186,
        0.0387439740569129,
        0.05460781683750714,
        0.026983426958253787,
        0.04131604564138572,
        0.02477780406116123,
        -0.05090265316846672,
        0.08039881327181192,
        -0.08714895153512872,
        0.026933540946570245,
        -0.03275610047612573,
        0.07482521450797015,
        -0.03352232305731566,
        -0.005063636582167866,
        0.10341194999412562,
        -0.061303342889234176,
        0.06895740518576046,
        -0.0055468769258153056,
        -0.04851397216079465,
        0.013117102509168033,
        0.06489420775072155,
        0.009827203987875663,
        -0.024080937571422295,
        0.06349649693843325,
        -0.03370478165516094,
        -0.03803634264529999,
        -0.03616791935236026,
        -0.11481717710334871,
        -0.023807079696974917,
        -0.03344242387974908
      ],
      [
        0.0871911610855226,
        -0.07142000302670172,
        -0.0262295510284518,
        -0.03906120096043497,
        0.07447842397301703,
        -0.015348755873617934,
        -0.03332725625798306,
        0.039543597894807596,
        0.045130084499766035,
        0.06084176861802568,
        -0.05346330710796159,
        -0.012253853833431722,
        -0.03230512872419973,
        0.08810906624611055,
        0.11493544790195831,
        0.02636664467048727,
        0.070302764973048,
        0.075316041848576,
        -0.08902757223833146,
        -0.014276627441879103,
        0.03998309088177734,
        0.04316628603008159,
        -0.054592525082160295,
        -0.08303396119104427,
        0.08083396034466603,
        -0.03419591284916905,
        0.06137787113939305,
        -0.027467644253649948,
        0.03473303806113351,
        0.037502474533040626,
        0.05446530252578391,
        0.08973486728847614
      ],
      [
        0.0731834118158003,
        -0.05348882913332746,
        -0.0738758762195333,
        -0.01343684318248796,
        0.026745204936072742,
        0.08660644739735102,
        0.003019089360798616,
        -0.12616901478891732,
        -0.016433895691788825,
        -0.07560841683713823,
        0.022841282617975883,
        0.07261406413210451,
        -0.08286781495381523,
        0.006095351385404693,
        0.09022282218015584,
        0.03872582537630475,
        -0.09580609471349183,
        -0.00012747108428363962,
        -0.02183789028592991,
        0.058817006805963995,
        -0.0882429869403366,
        0.0025361818673075506,
        0.1280249233131564,
        -0.00966408904060323,
        -0.020704212721721883,
        0.07014709995447176,
        -0.001995196299363955,
        0.1016207676607278,
        -0.005058670028544196,
        0.043302326241628025,
        -0.017503350205139462,
        0.06292928866333591
      ],
      [
        -0.10063654103794982,
        -0.008110970187135205,
        0.0036305169206582028,
        -0.09259354673406087,
        0.13093558964423108,
        0.06186830093827967,
        -0.002517838422609976,
        0.07240010671898361,
        0.056471908363460194,
        0.001545544116833275,
        0.08308105809284635,
        -0.06339713323636521,
        0.00023856303772946952,
        0.06648531163065699,
        0.02455075549074842,
        -0.11404527214184566,
        0.06416244988413024,
        0.09397608595169533,
        0.017024833208320142,
        -0.02937242933941818,
        0.08009850311634217,
        -0.015002628897962472,
        0.11808649110104322,
        0.13605148365121944,
        -0.0049503717432232905,
        -0.04605257936919638,
        0.054438092169107194,
        0.06136495793568672,
        -0.0599568766303545,
        -0.08472470303218732,
        -0.03944028464463654,
        -0.03831650440758527
      ],
      [
        -0.004607410677670752,
        -0.03584350404394028,
        -0.05425002606338894,
        -0.0413364602203954,
        0.040534684067368376,
        0.09192663364130824,
        -0.11999727221139747,
        -0.04816362009367453,
        -0.06957615022970474,
        -0.04377900729312659,
        0.0873940541028939,
        -0.03421988581025258,
        -0.004298451493118097,
        -0.06304980325619938,
        0.030352853128540677,
        -0.01892854519123944,
        -0.12229973483886333,
        -0.004483220765699715,
        0.1273716871415262,
        -0.0415248689238536,
        0.027962768031786087,
        -0.1048326692728593,
        -0.05740664853191809,
        0.05827835152274613,
        0.022438634107656306,
        -0.17365367635181475,
        -0.033708132233087884,
        -0.0537866572506229,
        -0.02929401175086535,
        -0.06107252319013406,
        -0.0017118283591706779,
        -0.09799262734298192
      ],
      [
        0.09351671659778005,
        0.10797714677864188,
        -0.0045845999112318,
        -0.0020059456612656207,
        0.034423404136191105,
        0.10113943648110152,
        -0.13899441457722092,
        -0.039107151836230876,
        0.05713679378376549,
        0.004117530632882935,
        -0.040945681038704794,
        0.010052796088402902,
        -0.01294107223553527,
        -0.03099930166056593,
        0.048378342658038864,
        0.0552967033158929,
        -0.036765393471924104,
        -0.003349023118481523,
        -0.082285406863424,
        -0.046992354351512125,
        0.043669993102001856,
        -0.06431072716139205,
        -0.02940491827570066,
