{
  "input_size": 35,
  "hidden_sizes": [
    128,
    64,
    32
  ],
  "output_size": 16,
  "layers": [
    {
      "weights": [
        [
          -0.17913806117308223,
          0.16028493740529456,
          0.11610616369589485,
          -0.002353897690917029,
          0.35009898523686883,
          0.2931171445012578,
          -0.047202293301964786,
          0.12578513904023447,
          0.05322801834486124,
          -0.13486007571557734,
          -0.399392284269283,
          -0.08849238195675438,
          -0.2127828062238622,
          0.13610909050036069,
          0.09732927874830105,
          -0.023621740632096336,
          0.3416671888883405,
          -0.08470126837142714,
          -0.11607203715135929,
          -0.24503319264672313,
          -0.05215282961262306,
          -0.022421314379262505,
          0.022447053762204905,
          0.11426937214887438,
          -0.5726206244143215,
          -0.3133991684169893,
          0.012025288938130926,
          -0.16749155361796947,
          0.09334540837641614,
          0.031910282830374496,
          -0.18709342057264036,
          -0.13198201127133416,
          -0.047941561411507044,
          0.04527151025216853,
          0.9710916462990893,
          -0.14855189161362145,
          0.06942512440834661,
          -0.4317155149507685,
          -0.13309083819748754,
          0.0007436115245292654,
          -0.5676350890983243,
          -0.2629880401438449,
          -0.06297151918614331,
          0.11522490306503612,
          -0.10227792783294774,
          0.06020138718160464,
          0.25957258466393984,
          -0.04858019784512181,
          0.5518623644365994,
          0.156120491688258,
          -0.18271851827835636,
          -0.10425587228998692,
          -0.20028524629547426,
          -0.14487617800637517,
          -0.19080947530791886,
          -0.11845308028802126,
          0.19330201045116535,
          0.04445607626846619,
          0.46269904963979513,
          -0.090332450086657,
          0.1953926115941614,
          -0.09333609366712622,
          -0.11065480020451329,
          0.050630225044264156,
          -0.2182662938241734,
          0.21713498077719168,
          0.2558594533400491,
          -0.2671171903041233,
          -0.37212618927184093,
          0.0029899622343477136,
          -0.21730566511418337,
          0.5310043994860457,
          -0.19252814975696791,
          -0.3275966035139344,
          0.14129014162191839,
          -0.08743902471497686,
          0.13328847600549926,
          0.24740222060389075,
          0.3438166070549978,
          -0.028616190333170574,
          0.0157470392621412,
          0.06671225831504046,
          0.08328420356588104,
          -0.40666806112863896,
          0.09152201923028881,
          -0.36917422291019997,
          0.3301405378212992,
          -0.07908893639275168,
          -0.04719221306892787,
          0.08383474372255718,
          0.4806999324848904,
          -0.0645139537908837,
          -0.05630707677384651,
          0.14806019983332988,
          -0.12153129766092233,
          -0.3805410476932104,
          0.11057712829176908,
          -0.430306791526279,
          0.13700776622167485,
          -0.6054924346367992,
          -0.03474622692152785,
          -0.24046366746234443,
          -0.26619920497886457,
          -0.10089543929465605,
          0.02312464338409699,
          -0.09336461034158067,
          0.38968106404776454,
          -0.1287944068312803,
          -0.06860933455341124,
          -0.13452777348052453,
          0.09613690032113609,
          0.08224210099107992,
          0.013911805049641228,
          0.4447415509142574,
          0.2203515395106521,
          -0.3244647628679852,
          -0.023540137167805442,
          0.2581700127091509,
          0.02845335841204278,
          0.16844867377957096,
          -0.2522546219450597,
          -0.06495723602633272,
          0.01938637930658394,
          -0.2917168243031298,
          0.014473555847299195,
          -0.43134691191010255,
          -0.08158399383032085,
          -0.2635652466427044
        ],
        [
          0.17618279716386076,
          -0.24996055616559248,
          -0.32670293982244625,
          -0.20091695955921077,
          -0.1871816116566008,
          -0.7376903553056884,
          -0.11317323658003717,
          -0.02070506404448525,
          -0.006144874807279287,
          0.03975945929028146,
          0.030614538988887954,
          -0.13036128515233586,
          0.36465993234425187,
          -0.7950822250072124,
          0.11062424598264148,
          -0.504585794118355,
          -0.21778679218985747,
          0.17720090963347912,
          0.09386749002607019,
          -0.049974664440805894,
          0.26405318496271485,
          -0.4056012435869511,
          -0.3225233468982,
          -0.25851866306364396,
          -0.018666583276587982,
          -0.15393238864693293,
          0.007769777229401175,
          0.23847390749015107,
          -0.011872122059155853,
          0.24939854439524173,
          -0.11912184695700057,
          0.2833440844999393,
          -0.005176216195646316,
          0.33317804525900174,
          -0.07064206343960078,
          -0.2803064686940117,
          -0.05712279661373093,
          0.2342881753611975,
          0.248127236398765,
          -0.4971999982570429,
          -0.14202567306726432,
          0.05393821479858493,
          0.079486396425063,
          0.2862017479004484,
          -0.05223209317235443,
          0.14253315122631527,
          0.20017677033092945,
          0.0637090095730083,
          0.18826841204788075,
          -0.09406597957783702,
          0.1333869412722881,
          0.0034003511833359673,
          -0.05403944833955459,
          0.17875757163187875,
          0.4880297763780326,
          -0.11704135756638193,
          -0.017248817676297313,
          0.615530312437774,
          0.052467221227656874,
          -0.03355699650877374,
          0.03798163076624439,
          0.46689520649821586,
          -0.1862577893175864,
          -0.28281387891718346,
          0.04843782240455039,
          -0.5434830472848787,
          -0.03631726609835679,
          0.10267300653651289,
          -0.015821715752338893,
          0.17995683050127426,
          0.22882916497227135,
          -0.2502844012365268,
          -0.05035332382961067,
          -0.056374167076573174,
          0.027112331532383162,
          0.28509696414034197,
          0.12299758007873729,
          -0.25977181143100375,
          0.26061920821667406,
          0.06330014122856409,
          -0.23163439285924595,
          -0.2368095829809167,
          -0.504149072678807,
          -0.24790092258572927,
          0.5162982877334072,
          0.036798931759059045,
          0.5625600334928618,
          -0.6037893308842263,
          -0.14511562668553785,
          -0.0600871012225367,
          0.5486438911295557,
          -0.291604355233902,
          -0.2804621458361934,
          0.11473869174484488,
          0.18076119486965378,
          -0.00515883169050578,
          0.2685982365970006,
          0.3592809752066929,
          0.1686850929483315,
          -0.24862991334825607,
          0.23240638710937972,
          0.21230688536525463,
          -0.25144934482771947,
          -0.19027643608316805,
          0.35637192847925575,
          -0.053692999442981754,
          0.010801179311273341,
          -0.20017637983596648,
          0.3339486697040975,
          -0.3931742333885704,
          0.3265154963946645,
          0.6884379501572365,
          -0.03070074076390785,
          0.2222660662847844,
          0.0944584349636175,
          0.18277471844838655,
          0.39869375903411364,
          -0.24786303160646384,
          -0.383947664428062,
          0.07541605871086145,
          -0.2823702696396534,
          -0.028579174835955887,
          0.07137184758832771,
          -0.19395501397190373,
          -0.36660361944470715,
          0.2019167450789839,
          0.2517401688581402,
          0.23700224892555943
        ],
        [
          0.26706320436161723,
          -0.20612925448717745,
          0.13126086257074185,
          0.21639055631039122,
          -0.27727494017393106,
          0.058309321757306076,
          0.12973579041504468,
          -0.272264456717948,
          0.13441623344461173,
          -0.17846902431298434,
          -0.1496711191834301,
          -0.12884177917369471,
          -0.22352510048160407,
          -0.07296926771066806,
          -0.06681637397320217,
          -0.11866735998289488,
          0.08992579522366645,
          0.1879745900282413,
          -0.38449249409101827,
          0.4520105668489779,
          -0.42725961931936607,
          0.011513363628505201,
          -0.10240768139412283,
          0.8308633372131753,
          -0.05898678556223472,
          -0.13346988987456648,
          0.18398103391391296,
          0.24253807042815634,
          -0.4099785752394644,
          -0.1651719670805991,
          0.27284350823035763,
          -0.003068030452058921,
          -0.3338515399320877,
          -0.050614210168360374,
          -0.0722208774112513,
          -0.0744477748367515,
          -0.3855223651840692,
          0.19067968855882522,
          0.26547567457203347,
          0.23890665333551767,
          0.3839964468765103,
          -0.040882082807748236,
          0.09359438034125687,
          0.04973156296284456,
          -0.21444323876200405,
          -0.0054615986685809526,
          -0.46904794179277454,
          -0.03863719776689994,
          0.1900079913237061,
          -0.00542876286095894,
          -0.3594798176093105,
          0.01659783917386954,
          -0.013501191890033973,
          0.12158569894521298,
          -0.06469189965622876,
          0.27250748605616665,
          -0.3213810432613061,
          -0.3923759719188228,
          -0.06379051969066521,
          -0.0789089498566975,
          -0.28884898039732954,
          0.09058796148872683,
          0.043181952084652725,
          0.26250580105249377,
          -0.11937659811240918,
          -0.582074969837614,
          0.1363056877868148,
          0.19203782849064263,
          0.15756163386840782,
          0.3091569862569916,
          -0.16272303513195058,
          0.19313593723391065,
          -0.01402588043996223,
          0.0007413788129459111,
          0.3461606888216749,
          0.013171172109672606,
          -0.11362471154099285,
          0.48496992148715673,
          0.2001456522047559,
          0.10400933723212666,
          -0.39693472637732247,
          0.00508727581547358,
          -0.4361546754144595,
          0.27861055777334326,
          0.41654583683510366,
          -0.4526974263744703,
          -0.019991231167126908,
          0.18315822565019949,
          0.39225963298228367,
          -0.3385729273015672,
          0.20040709153235753,
          0.1176138344324814,
          -0.3575694928395457,
          0.17957926460222404,
          -0.19422202853013054,
          -0.06907868553914764,
          0.010106112631056603,
          -0.23979131613097437,
          -0.14619374048938033,
          -0.14275852377316184,
          0.13369425830806791,
          0.1241757739954323,
          0.26028872850611945,
          0.07508665179646704,
          0.014581160038424294,
          0.20807584322716596,
          0.05230797577826023,
          0.2399244828068925,
          0.1742158918023547,
          0.1527434618504215,
          -0.009845145083729152,
          -0.4311283800401705,
          -0.25138013860171915,
          0.016031812863984134,
          0.06118949854753225,
          -0.036619992942655596,
          -0.3833829312113639,
          -0.20234001909823188,
          -0.48984049829472215,
          0.3461326705865918,
          0.087208572039209,
          0.1056501207182278,
          0.20775160466132575,
          0.15846432685557515,
          -0.11626890661107744,
          0.1210083299969647,
          0.3388666892166856,
          -0.06125911279171633
        ],
        [
          -0.19391986174177656,
          -0.5277499904820872,
          0.1963697275159546,
          -0.19550073491217193,
          -0.3182810814327127,
          0.5131481179788897,
          0.1786287461778011,
          -0.3594700198804516,
          0.0811627315370769,
          0.21636429342938446,
          0.2980608503538309,
          -0.3304463580767537,
          -0.09432564887773084,
          0.23155309252048928,
          -0.08349743998319974,
          0.1676439726020646,
          -0.08868189864889875,
          0.12496448863460494,
          -0.3666697972502825,
          0.20682918626585328,
          0.19121044318092645,
          0.20420537299867658,
          -0.1307058131572631,
          -0.19135093960624905,
          -0.25115134318277615,
          -0.09874992509175422,
          0.17328041376119804,
          0.1283574327834609,
          -0.48965251811315863,
          0.12003384671094477,
          -0.15703637488298205,
          -0.46919308848255614,
          0.21862767285589568,
          -0.13819743245760743,
          -0.22782187085594613,
          -0.06988980373144206,
          -0.1948379437151505,
          -0.050260527339729084,
          -0.13511918309780452,
          -0.273277979837057,
          -0.2761950003195358,
          -0.30022883672096373,
          0.2468183209433204,
          -0.27912143343898654,
          -0.07171712974908996,
          0.15690310475685834,
          0.23682353546417484,
          0.04030565362777179,
          -0.32006960161870013,
          0.18205840689169997,
          0.38708300144614316,
          -0.0409084277202998,
          0.5735718534204789,
          -0.471015503357973,
          -0.2974389750977182,
          -0.1018314938600403,
          0.09236374969712446,
          -0.30041716739263047,
          -0.02455422439523107,
          0.31268412559572023,
          0.05841837597519269,
          0.25629567489428245,
          0.04751288966273126,
          0.1489254877214819,
          -0.20470886819188397,
          -0.5302733943710443,
          0.08788833893075054,
          0.11373322598606392,
          -0.4048919234571754,
          -0.0795948487392441,
          0.09886145879463278,
          -0.33434056547913704,
          0.28405514322038383,
          0.04652056195718175,
          -0.5439585045078624,
          -0.03602844957785696,
          -0.08425598257297834,
          -0.21501900258744955,
          0.17401191457192866,
          0.16871611965624,
          -0.040589438536997396,
          0.24944465547765993,
          0.025309244592349966,
          0.25067840490617543,
          -0.3457561991736241,
          -0.2221334264591257,
          -0.08639961744677684,
          -0.007861827363780986,
          -0.17390219111204422,
          0.2537687114640618,
          -0.5584667854044769,
          0.08836258076855953,
          0.24980407538754196,
          -0.015892165035727088,
          -0.3129843670737549,
          0.09338647129321886,
          0.26375158385146347,
          0.36429045121755177,
          0.4522319593306651,
          -0.12570561641553696,
          0.1343106098870775,
          -0.16175948421085118,
          0.27928422120743174,
          -0.2920254241057174,
          -0.1876549744703677,
          -0.2131011890111197,
          -0.24765317559453923,
          0.10096089270841556,
          0.053631607566091505,
          0.27132177337315044,
          -0.17182032208877238,
          0.22541373526240327,
          -0.1360620617780253,
          0.15831563937438434,
          -0.2754236904094396,
          0.019830049265704315,
          -0.21132205837489426,
          0.11847547423992977,
          0.05090272643964571,
          0.2724039276358109,
          0.13473976676250415,
          0.053816143634269537,
          0.04029312966370026,
          0.08009593950097432,
          0.146405058033343,
          -0.4785531979810215,
          0.04313909005334205,
          -0.12185707694044177
        ],
        [
          -0.11652663448663839,
          -0.618103413986334,
          0.1762264055200469,
          -0.23230259733866432,
          0.336252598349117,
          0.20179344128897195,
          -0.07185535685314111,
          0.20129981129447347,
          0.5822780543261663,
          -0.17449720010283187,
          -0.034565474701622675,
          0.146131180428029,
          -0.18829573153371043,
          0.006995115631524626,
          -0.0972790850680195,
          -0.13923611615158765,
          -0.007288039296937552,
          0.0382621370068549,
          0.056199054458040784,
          -0.09887635663073295,
          0.49157726964728155,
          -0.21984324991901077,
          -0.08224328805906359,
          0.17342879745061562,
          0.05746909539028108,
          0.16001413355554034,
          -0.064245342092605,
          -0.16740340932564796,
          0.22396172315253166,
          0.03348711267257518,
          -0.2033904409258955,
          0.3373213714377641,
          -0.13880521306368057,
          0.27638812854237027,
          0.22086860837060923,
          -0.0071935068801335135,
          -0.23958053762817483,
          -0.5164708445576022,
          -0.2049843526017334,
          0.0688613552765171,
          0.30364161646457644,
          0.43324305528573964,
          -0.08569495645765532,
          0.2444680079939639,
          0.1774774659114886,
          0.34991433437425074,
          -0.5941258946852825,
          -0.08795287185327573,
          0.11953944426772908,
          0.26079422587633355,
          -0.08900225672623191,
          0.3670974784460414,
          0.004973048861060549,
          0.06371501707736774,
          -0.11621984340159834,
          0.25122848188579805,
          0.5623494304628903,
          0.03348383974566105,
          0.3990704020491387,
          -0.20307536981202567,
          -0.13227890438390372,
          -0.18082017673776724,
          0.08218393214987552,
          0.06881496261845174,
          -0.48614650817776,
          -0.3311647201501119,
          0.3859322744676992,
          -0.1264039237954398,
          0.11933656812972142,
          -0.12078510121914814,
          0.20614147377419978,
          0.01721838404833985,
          0.05317638553990602,
          -0.28521726901052125,
          0.23006186929024514,
          0.10236519810519842,
          0.07974798774458894,
          -0.15576730719948925,
          0.08734122686632446,
          -0.3515740047716799,
          0.3867067572186591,
          -0.22913536446134508,
          0.27936267739730714,
          -0.26054200826654217,
          -0.12166274206852457,
          -0.01225487102102631,
          0.09707258598899711,
          0.05384428901531108,
          -0.1462284663061268,
          -0.32694577794442364,
          0.09493973763183734,
          0.004920866755150272,
          -0.05438256868450335,
          -0.0793213215600039,
          -0.32582135646289606,
          0.03499905262984941,
          0.05625475680586943,
          0.04401826601288389,
          -0.39925517649667785,
          -0.23172479621929332,
          0.17361146612243986,
          -0.21705060846581686,
          0.422569197306231,
          -0.22211726106937235,
          -0.34258111427148785,
          0.004511397170985601,
          0.2998709815891125,
          0.3085615084508931,
          0.2931348673876731,
          0.1722605060729681,
          -0.2958687789203004,
          -0.2966421498152009,
          0.08602427326125889,
          0.07329451946072034,
          0.17340416792706542,
          0.0228434988682071,
          -0.13465398564798167,
          -0.3376623082715182,
          0.30367851261070794,
          -0.01014008336342348,
          0.04859073872500909,
          -0.2423757315424561,
          -0.06410609475910925,
          0.14879747406204602,
          0.3592295377946943,
          0.08501383089733663,
          0.040694929260890904,
          0.5108704573986789
        ],
        [
          0.08970730694592693,
          0.013208466991795693,
          0.06097738126379998,
          0.07857399506351165,
          0.003705913837743446,
          0.43883707384002524,
          -0.022494661196549692,
          0.03677980147759552,
          0.3613100571719703,
          0.2980085752983777,
          0.13753871688792924,
          -0.101888560154451,
          -0.3394234378973725,
          -0.12317558304173049,
          0.03234832573425432,
          -0.015013440248830376,
          -0.026820430745134,
          -0.023245142051562653,
          -0.10584842419436892,
          0.23930897370762444,
          0.35793657875322504,
          0.09971576719491021,
          0.4050945312557095,
          0.28781041975152244,
          -0.1978385432333432,
          0.00677469882049947,
          -0.11735139779938394,
          0.32685685128515557,
          0.2558789505948217,
          -0.13262957497422917,
          0.16545419573877324,
          0.2013919985379392,
          0.1259829264188999,
          -0.11544729540220985,
          0.7568704616829415,
          0.0959762490814267,
          -0.3305546261033934,
          -0.30328182124445513,
          0.022667065535715306,
          -0.036281428886189876,
          -0.137485018398451,
          0.0557907147863529,
          0.15185906203427826,
          -0.46069838385805895,
          -0.005686131069897033,
          -0.25648358609899197,
          -0.10537037391291419,
          0.002657895997588159,
          -0.08316114683040404,
          -0.16769051524461592,
          0.36766582789598146,
          -0.3616886326231168,
          -0.026927217203174904,
          -0.45362073142240517,
          -0.005301453066267272,
          0.5876114083336412,
          -0.0342485022164908,
          -0.13819616958997785,
          0.14087801675605008,
          0.17824224249563275,
          0.3311636755560066,
          0.22950114157170895,
          -0.12580251361923028,
          -0.05914385799219205,
          -0.09105445452913714,
          -0.008581268259293708,
          -0.16397659841146217,
          0.22226164387558534,
          -0.4766876497277,
          -0.24600560612524766,
          -0.2999648278967094,
          0.02452406396769824,
          -0.16989072531700689,
          0.06225720419138089,
          -0.11681880137351196,
          -0.2899669880478329,
          0.23415218879810587,
          -0.12087896383382084,
          0.18796976304489083,
          -0.21300768049731061,
          0.09414367536481616,
          -0.07917453600924589,
          -0.16237077068691236,
          0.0054891342760328594,
          0.15621081047034557,
          -0.11360401724595383,
          0.5511597102211259,
          0.22706815825468743,
          -0.4555874019805508,
          -0.20419842385736617,
          -0.6534951690315807,
          -0.19532921808937684,
          -0.19842098968711389,
          0.14147654883924635,
          0.32720681348783937,
          -0.039701096812513006,
          -0.00335030360890938,
          -0.17193948256738367,
          0.1333954286362569,
          0.5083287930023092,
          -0.3358827886878783,
          -0.10475587172595881,
          0.1789442838338529,
          0.20040151123363464,
          0.1934733810470992,
          0.372961320104051,
          -0.07005646993725619,
          -0.1803378986095553,
          0.2892836261336019,
          0.1422220921133664,
          0.3141526065836171,
          -0.13509834651213107,
          -0.18460544330883993,
          -0.08221624405242224,
          -0.23466083815097705,
          0.23160781441896444,
          -0.15405168569325994,
          -0.18498926935220242,
          0.23346228570373168,
          -0.17208272299302316,
          -0.05793554770112784,
          -0.15819808210001332,
          0.08487299949569121,
          0.09758751707562935,
          0.4150462678629654,
          -0.19972081979539935,
          0.177601114238288,
          -0.20727171708219108
        ],
        [
          0.10504707657606105,
          0.0867466341598073,
          0.004158520629481154,
          -0.3095543304654933,
          -0.016714155562368715,
          -0.6237717422870389,
          0.2784818133645008,
          0.30264615997035255,
          -0.034973387753016144,
          0.1429190739413857,
          -0.3484259109899147,
          -0.21893648324053702,
          -0.021626813161780327,
          -0.29518141691696836,
          -0.2013487746531995,
          0.09471831505162576,
          0.08303150559130759,
          -0.38830329094035254,
          0.00852113858810485,
          -0.07556604338243116,
          -0.11849620814371169,
          -0.10241123829425226,
          0.2817136650013311,
          -0.058831784262904294,
          -0.10118899795953308,
          0.06126488238868252,
          0.01392506584859833,
          -0.1127373272426611,
          -0.23516090031565054,
          0.0725457976420931,
          0.30768507051909577,
          -0.0020559870583484255,
          -0.3531728687487852,
          0.0025977626064141793,
          1.0968362090410426,
          -0.18340701345497396,
          0.23878642997884797,
          -0.06970726885615845,
          -0.14336099056670365,
          -0.083742088026338,
          0.00965905402445788,
          -0.07048533870230264,
          0.32366329950618994,
          0.04367969190435573,
          0.0286819259026103,
          -0.0749732268518041,
          -0.12146331312104118,
          -0.1547985307352932,
          -0.0342029853573122,
          0.13696953753528038,
          -0.02972601742585593,
          -0.2063805883289475,
          0.20972463211263892,
          0.06487921066185515,
          -0.3025337070697453,
          0.24037763956702193,
          -0.3997847185341458,
          0.08886852175824658,
          0.10997866935791771,
          -0.16141019685275476,
          0.03990397342856304,
          0.08743404351676434,
          -0.26009270255623007,
          0.2728478053334543,
          -0.31434929300393893,
          -0.062275958239796356,
          0.0809521124133813,
          -0.22247988481694886,
          -0.30144184265176255,
          -0.16399936891805897,
          -0.004602052047204333,
          0.07331118113277021,
          0.060564884405319194,
          0.4611307293657756,
          -0.08551607088942356,
          0.1011989673877979,
          -0.1570289313612406,
          -0.035874845974990605,
          -0.05260846694560013,
          -0.04763563118793845,
          0.2601797459227037,
          0.034139052321877694,
          -0.15297412000022992,
          -0.19480444128762867,
          -0.0583792000357474,
          -0.017884824509435793,
          0.10617938464703261,
          0.15620110643239882,
          0.4078383012016707,
          -0.4007309980119596,
          -0.363523928624453,
          0.3158152739864514,
          -0.4820286648036594,
          -0.05077593799969918,
          0.4476649393585272,
          -0.015594597169627094,
          0.13361377249048015,
          -0.09024216964099185,
          0.22872006749808055,
          0.06529710042178602,
          0.20354567446620236,
          0.209690574615054,
          0.07178117185589303,
          -0.2793410614110563,
          0.005040142753348013,
          -0.03677746152447883,
          -0.4149430308889005,
          -0.060504561942369625,
          -0.05444980657698828,
          -0.32216447444944935,
          -0.001712347970657599,
          0.23402317685367957,
          -0.27357403858803525,
          0.11304414553132783,
          -0.013117412141235924,
          0.08582432368558468,
          0.3208665732541094,
          -0.1703002156971618,
          -0.3636941668183288,
          0.22120782987429663,
          -0.19505898973085256,
          0.22016287195911927,
          0.07682074922927995,
          -0.09278488563318764,
          -0.12039160592316733,
          -0.21547170846949704,
          0.04734725480350585,
          -0.280430127973039
        ],
        [
          -0.5442165209167282,
          -0.033169426546768875,
          0.03619003698480122,
          0.008918645710085271,
          -0.09170113575533342,
          0.43782590627967977,
          -0.04308220648762049,
          -0.2008728190110622,
          0.24048450321524922,
          0.2568591807531227,
          -0.06854858344795635,
          -0.30387661191638954,
          -0.2677720322445525,
          -0.07852895736252509,
          -0.3220525082134886,
          -0.08488597704560208,
          -0.2854548660239363,
          -0.1873733406819216,
          0.41756588302351616,
          -0.0862164165709226,
          0.21693083762110127,
          -0.28612892382084043,
          0.40018857227880206,
          -0.26733509923614096,
          -0.3594987584046376,
          -0.10784124081967238,
          -0.29834310334776737,
          -0.11925024650294183,
          -0.09061277700963764,
          0.09295603751715553,
          0.13917785996319726,
          0.21371057665138127,
          0.023104996214334754,
          0.14580431944406308,
          -1.0104681408907685,
          0.2911073050381125,
          -0.3849046967140162,
          -0.20623769669699676,
          0.27200880881258216,
          -0.21362901073395058,
          -0.12388629142455009,
          0.03030617380929701,
          -0.052353631908930345,
          -0.2350657693773259,
          0.13546891559588253,
          0.6194729569851172,
          -0.48831595468498545,
          0.18655421846581144,
          -0.20029726467417863,
          -0.014960436851988234,
          -0.42380341639427976,
          0.2750241722608305,
          0.06229001312587342,
          0.3116507876615635,
          0.2402983049399514,
          -0.07273454838941101,
          -0.028907133248360868,
          0.16899040910290752,
          0.11888944688799162,
          -0.3468818461453291,
          0.34200790378149004,
          -0.04668177709424352,
          -0.40659916770283877,
          0.23816370709642362,
          -0.11607296591861085,
          0.20364782124495212,
          -0.30176595510656834,
          -0.34460352940246675,
          0.3390756870557643,
          0.46722937242861623,
          0.6232679387202898,
          0.23489260495557193,
          0.14711162294721816,
          0.16163493233587012,
          -0.46839070058495286,
          0.1859934738658261,
          -0.6022025604892124,
          -0.12287492383047621,
          -0.1287818836852056,
          -0.3550577986621666,
          -0.2705046306614126,
          -0.13303982789204405,
          -0.01767373119346446,
          -0.012659542363230651,
          -0.23668338924041693,
          0.055852832670787465,
          0.22484557284874124,
          -0.04472711009182633,
          0.022457033423595018,
          -0.02285501122793189,
          0.11860222773914735,
          0.5924387926716358,
          -0.14337685126069297,
          0.25360619455687317,
          0.20688509071120176,
          -0.22718308578960877,
          -0.18621194990417084,
          0.04497668453952772,
          0.3690394578075692,
          0.315958389046609,
          -0.26956399933449726,
          0.048427925888450074,
          -0.5020821767023051,
          -0.21143906371431248,
          -0.146051407465066,
          0.21005987953426586,
          -0.45481055181821967,
          0.12935455728438577,
          0.1285589931283309,
          0.242179215649305,
          0.20469879671635288,
          0.3402142883835041,
          0.48605461091317803,
          -0.2534234656202793,
          -0.12457281684016715,
          0.37145368933741985,
          -0.42773129992715087,
          -0.20815807465038388,
          -0.012345502007351496,
          0.12815720548547152,
          -0.07801319582844873,
          0.4228656656214985,
          0.14197406061302192,
          -0.27474999504359904,
          -0.016186129246431417,
          -0.20645374929171373,
          0.15527226852328527,
          -0.11416704776875446
        ],
        [
          -0.07387446051723844,
          -0.10379054508847525,
          0.12498298947887768,
          0.2488256961183349,
          -0.0724059757332893,
          -0.06814409729083598,
          0.11951122521575933,
          0.33625295197579497,
          0.011028845276990159,
          0.04158050408052901,
          0.6395384512346547,
          0.03842522721760982,
          -0.036067655599805515,
          0.12681025692329098,
          0.6055521814364101,
          -0.1673044803411425,
          -0.014809166292710021,
          0.26504531216144606,
          0.11561131576706174,
          0.14184069133345903,
          -0.08713759616248683,
          0.006178601977365561,
          -0.5202286346164536,
          0.2678211926840375,
          0.16194266887692646,
          0.0789844115821666,
          -0.029974310869165174,
          -0.05519364889785515,
          -0.15647089829557978,
          0.16723692774728438,
          0.12271583784735111,
          0.05685208252658613,
          0.08811614101517044,
          0.20586381681364066,
          0.4682661303199841,
          0.3517702181615233,
          -0.15691711931061136,
          0.06632602521121464,
          0.03878121613136147,
          -0.1349431165892848,
          0.30323382749054306,
          -0.4295942173977415,
          -0.29889904121665506,
          0.0374346908367893,
          -0.4472375663416168,
          0.15094742529868238,
          0.3132055013321121,
          -0.08787871791606447,
          -0.09716943675940032,
          0.6598831598290689,
          -0.07603239870891186,
          -0.5039858253928442,
          -0.24705173640481704,
          -0.2948482800053091,
          0.27911694679279153,
          -0.33722013590644917,
          0.5127419392944987,
          0.12472578520635955,
          -0.12139634122893468,
          0.15337185684154914,
          0.3511453467198968,
          -0.32948578742200807,
          0.2015367370018295,
          -0.051489252957139735,
          0.09690943251382016,
          0.2623915881707522,
          0.2582811260986868,
          0.013210002328000077,
          0.12899707253075113,
          -0.2903793805654778,
          0.1606992400138832,
          0.15172742517846477,
          -0.04283151906569714,
          -0.10356621943128076,
          -0.35872481888418006,
          -0.0938182309220635,
          -0.16541975845660073,
          0.16114394870350995,
          0.2737442823283452,
          -0.26586035182217843,
          -0.09987361114628239,
          0.11658134946550616,
          0.12903121655017002,
          -0.08165613467141203,
          0.23633709367083489,
          0.09240952043480313,
          -0.1893369166032897,
          0.3263727913346894,
          0.015162222661638067,
          0.041179144372423065,
          0.048377811765265524,
          0.4225656844133512,
          0.546635384391686,
          0.23437454799015248,
          -0.014915677257940026,
          -0.12511037067994463,
          -0.06511099250339644,
          0.17252987261285038,
          0.018218091321695367,
          -0.28393675528418955,
          -0.21054875509556187,
          -0.10254687613519618,
          0.15376810202624325,
          0.19958270226182245,
          -0.27929336925700016,
          -0.1571690638240051,
          0.05373016649717856,
          -0.058522323714019345,
          0.17711786105951755,
          -0.38743524596268486,
          -0.007639294204219698,
          -0.3829736433918714,
          0.13890817630761798,
          -0.22815066993486607,
          0.053746281143606904,
          -0.3214313747348768,
          -0.00216810768712708,
          0.12658469584940646,
          -0.039060979704015356,
          -0.3733224692738236,
          -0.09481538027754181,
          -0.4093815898971854,
          -0.2572869050393892,
          0.09611779127416736,
          0.05492226406130635,
          -0.06870030710753114,
          -0.15134537347546373,
          -0.15900953824734726
        ],
        [
          0.259297100280476,
          -0.030629004367320127,
          0.00952507468503215,
          0.0948734711671656,
          -0.06829204684727667,
          0.2559814640366433,
          0.07105368837136967,
          0.061186798077448645,
          -0.11138338934422479,
          -0.09076302456844601,
          -0.1957293457393147,
          0.10460331754086902,
          -0.36175837549858614,
          -0.5398234955228115,
          -0.13429109838563183,
          -0.03465753313853339,
          -0.012412209788367722,
          -0.16477431562914902,
          0.12044186215753097,
          0.2069051289563274,
          0.3510685917669166,
          0.3369658787748263,
          -0.028107914964961202,
          -0.34773315436001007,
          -0.2928434220965768,
          0.04909300806746969,
          -0.33833433770686927,
          0.09995769229430018,
          -0.3075991834876875,
          -0.16477251235000695,
          0.20973163274046566,
          -0.4244626881794055,
          -0.15075796196382804,
          -0.07467765698577469,
          -0.24529860926839234,
          -0.030147950672982704,
          0.11953709872732673,
          -0.061807778753850295,
          0.24212087428276366,
          -0.021324118388536994,
          -0.20498015983876017,
          0.06449639178173805,
          0.06805941307001528,
          0.0062880566176908015,
          -0.12625777607348096,
          -0.39428208301452594,
          0.4483907581909341,
          0.21829166820872287,
          0.2647225872341345,
          -0.18091053294422435,
          -0.06326064352496628,
          0.10342976940755767,
          -0.30119288030924296,
          -0.36281979000431536,
          -0.07736020564236852,
          0.3399098416048869,
          0.11289487501809067,
          0.181739185099513,
          0.21435821466617108,
          0.1670949714028494,
          0.0013541548936789102,
          0.16638710001806556,
          -0.09389058468533971,
          0.056111103548544636,
          -0.022147698234608503,
          -0.0041091744742059455,
          0.06369082661394924,
          -0.059433070461933385,
          -0.05338502533286574,
          -0.1486879312365245,
          0.5238365706637906,
          -0.023573500745592998,
          -0.34944055931370255,
          0.059661616132061814,
          0.05788721155751808,
          -0.08297969646825787,
          -0.000967885295875718,
          -0.050261141883565466,
          -0.02408817897938944,
          -0.0240294750043694,
          -0.0005330949852384789,
          0.19882599085291452,
          0.23604942040765525,
          -0.248882258346666,
          -0.00663163251405593,
          -0.14697213545565668,
          -0.02277795874796874,
          -0.6031446829840345,
          -0.5150632504307944,
          -0.2536774007914555,
          -0.43344910728161884,
          0.015881071772938384,
          0.1680317019085452,
          0.11411451888777477,
          0.3001208799912051,
          -0.44113175247325054,
          -0.2719620306873838,
          -0.20850890759135227,
          0.42745556345662195,
          0.354920452603871,
          -0.12331004687080739,
          -0.2927176494281199,
          -0.19007946532841763,
          0.18629865250950095,
          0.0003213578179326708,
          -0.15417810218872924,
          -0.16522943694693645,
          0.05530712004967475,
          0.10698840208782046,
          0.24735034926156954,
          -0.21133441783166795,
          0.07206915695414566,
          0.32155104370917004,
          0.08168914145900316,
          -0.03995464662975273,
          0.03148991848463099,
          -0.10094601440807632,
          -0.044771829086954984,
          -0.24104977793629695,
          0.07152796937136569,
          0.16496078980559792,
          0.4438910111302992,
          0.1464445725385185,
          0.002348378915516265,
          0.11508663872876242,
          -0.04125171669144963,
          0.0816125771399411,
          0.3059510016029944
        ],
        [
          0.05480203979024597,
          -0.34659158713451,
          -0.13004483966088598,
          -0.5021713020329815,
          0.21761245986885225,
          -0.26708801804717763,
          -0.1381902095152061,
          0.060513673399841955,
          0.18599876403782323,
          -0.33625437457311785,
          0.08347464062008379,
          0.018650319903994156,
          -0.13627687096056393,
          -0.04878619236600367,
          -0.043764251135157334,
          -0.1149531289650965,
          -0.023646449782438468,
          0.03913657478302504,
          -0.13221730881673882,
          0.2852127154419401,
          0.20315344778611166,
          0.11357289520127664,
          0.4354940873803652,
          0.2611556256161116,
          -0.08785435948477542,
          -0.454053485532423,
          -0.3374863542772816,
          0.3694635269509217,
          -0.05766465250209468,
          -0.08216173366421883,
          -0.06920275766239224,
          0.3048377617060857,
          -0.058376246139739435,
          -0.02806538966531061,
          0.36069612964000297,
          0.1293565271161899,
          0.31697031739917936,
          -0.17681572272972695,
          0.019211375759712743,
          0.2235277797838916,
          0.1274037229365623,
          0.28411985476021745,
          0.14812053242655898,
          -0.27501940484678544,
          -0.34900948717849495,
          0.1039649478786017,
          0.09466621455101001,
          -0.11579665307608339,
          -0.014076294999963736,
          0.36546135415671577,
          -0.0764634118311879,
          0.014841588688283287,
          0.39554477737956517,
          -0.24539093201445905,
          -0.3871637874540488,
          0.2637539519317201,
          -0.1191810817690846,
          0.03420055139939451,
          0.17727800383911838,
          0.005398563734831229,
          -0.125204663374191,
          -0.12320514853433084,
          0.4304516268599267,
          0.15984485419650846,
          0.2897102064041579,
          0.25779818471685373,
          0.20560691361019004,
          0.36580611880756086,
          0.05257433825487174,
          -0.15386591632573682,
          -0.021835446017241723,
          0.04278296992035808,
          -0.308239117897251,
          -0.03639320038032902,
          0.5468566092022614,
          0.1738832134908259,
          0.492908476748803,
          0.013184156267740662,
          0.30819018316355007,
          -0.3158394659662877,
          0.04561761578181417,
          -0.032322448329141246,
          -0.04067346859195655,
          0.1653800943637603,
          0.14763198816750697,
          0.09846860169346824,
          -0.18355574757896567,
          0.22534559437742224,
          -0.15616848631475375,
          0.20102773170829852,
          0.33203486377828023,
          0.011595140655915631,
          0.33258087368019745,
          -0.04379470090455988,
          -0.02958304711471619,
          -0.2161982980940118,
          -0.15128131391979133,
          -0.030611868846827445,
          0.10052331208840093,
          -0.3812513170255706,
          0.0020871448569060955,
          0.471072997026804,
          -0.27762413136713127,
          -0.1503302134712725,
          -0.1882481385964099,
          -0.11411663561675384,
          0.4156148797288874,
          0.0638988737559661,
          0.3219282641119933,
          -0.2012013308447239,
          0.48613200578786925,
          -0.12710173206122222,
          -0.4222840188242616,
          0.42198188605732023,
          -0.13756906951263997,
          -0.25079159603597584,
          -0.10031044548133076,
          -0.09365921671942537,
          -0.014285141069098568,
          0.05146756363794672,
          0.38357531144863716,
          -0.2453141557041613,
          0.3028990201366921,
          -0.305672887665596,
          0.4590620817587055,
          0.1238320039587537,
          -0.31333864190287053,
          -0.06140912162045074
        ],
        [
          0.06679373191139512,
          0.27170714756104825,
          -0.1512591582493775,
          3.473397473639783e-05,
          0.5134591654411631,
          -0.19579698985408225,
          0.12486080787716851,
          -0.25302948608121634,
          -0.3507343081946539,
          0.3418140615319089,
          -0.05706203443172484,
          0.1722353651707168,
          -0.2523189369726089,
          0.1793794743081058,
          -0.15546664154769324,
          0.1478654423000591,
          -0.5433337971446919,
          0.15757393555972843,
          -0.21501404692292825,
          -0.6530048103513308,
          0.07725039156137903,
          -0.21213229372602568,
          -0.019054934748987142,
          0.10823131883048068,
          -0.0052716705759632,
          0.3361179885699011,
          0.14929338000620768,
          -0.04087777520824831,
          0.17674803384443222,
          0.1438866141775428,
          -0.3404256674244893,
          0.31434881455632424,
          -0.18714500038504717,
          -0.15615976327343534,
          -0.32463126085235533,
          -0.09693231210247615,
          0.3810117519893726,
          -0.43742803003588215,
          0.1703429669273458,
          -0.06161660065530851,
          -0.2507518952692961,
          0.10026622300587953,
          0.2059329961315744,
          -0.13767395649552838,
          -0.20808119072439865,
          0.07424840524211238,
          0.09722106472641656,
          -0.2784779397461731,
          0.4308519028224067,
          0.18562909047789256,
          0.09451564209691239,
          0.11026089035913536,
          0.20436101902533843,
          0.43885941356988656,
          0.4280669970466431,
          -0.3326176163379958,
          -0.04002840075007005,
          0.27085925863016813,
          0.06415705863141334,
          -0.417867807938786,
          -0.26591798206723816,
          0.14937979322812145,
          -0.11476693825100212,
          0.6516006013551694,
          -0.25650944087722816,
          0.2586257678948154,
          0.25474606114953563,
          -0.017539946256023665,
          -0.17636147687400222,
          -0.22737956680108629,
          -0.1490684969576097,
          0.1489218952225151,
          -0.11960720489075136,
          -0.36729322691996813,
          -0.41216647463080014,
          0.39142643303358376,
          -0.181181356421249,
          0.5949126587208534,
          -0.15761964482715618,
          -0.0980831732287313,
          -0.405859686122863,
          0.05579976151679474,
          0.007915220901370878,
          0.13657304273133258,
          0.15724028461443315,
          -0.41256628707870996,
          0.14895357361343065,
          0.060232553482916555,
          -0.179491174440267,
          -0.29385257490159933,
          0.0719216787938772,
          0.21044822566078364,
          -0.33872468956265217,
          0.28400105958101324,
          -0.2845054732681014,
          -0.18591339599084894,
          0.2449705407488544,
          -0.16097127248117704,
          -0.13211446022575812,
          0.001571170061871227,
          -0.2941715442290557,
          -0.14429885537661502,
          0.23903568132955438,
          -0.2579773759949979,
          -0.14750414581011956,
          -0.1449844116274847,
          -0.3650001316875521,
          -0.10980026837330162,
          0.045753444090663876,
          -0.15137401333278547,
          -0.007494508200328957,
          -0.03088070829798861,
          -0.04784770066152051,
          -0.12129452645889012,
          0.2058195874294149,
          0.2168178776015096,
          0.27521328629764663,
          0.2818677782709039,
          0.027752078205074856,
          0.09579678744731515,
          0.1837448556154011,
          -0.13003787788706697,
          0.16248687249787203,
          -0.2001031714737072,
          -0.15172274573983102,
          -0.09742299121323574,
          -0.5757181977913194,
          0.07694829240209762
        ],
        [
          0.12196967815839413,
          -0.1624711625709016,
          0.28366429881731847,
          0.080076848014937,
          -0.48110893330743965,
          0.04781745725800039,
          0.12866896492425972,
          0.28319690136163955,
          -0.11551524377075886,
          0.2383265186854736,
          -0.18864043517812634,
          -0.08999833851014678,
          0.016782083358812636,
          -0.09191431682997586,
          -0.1755370486894062,
          0.411679478220207,
          -0.2906364903800014,
          0.10757845519560497,
          0.3241050218495591,
          0.020756319089974176,
          -0.201591999672883,
          -0.014886352617858905,
          0.07707703312696695,
          0.28250615786927913,
          0.15115751666980218,
          0.14638350840082284,
          -0.22563007467495586,
          0.3185310635047656,
          -0.02887349959531589,
          0.031344485769915796,
          0.031026583640026726,
          -0.12148334661478423,
          -0.33489462589587665,
          0.3223220933197828,
          -0.032689295428878835,
          -0.26997090175895083,
          0.03611684139523012,
          0.11613938304414978,
          0.14581551298137202,
          -0.10628245726731403,
          0.1439368713551357,
          -0.1096134727054863,
          -0.2864773591279077,
          0.17709850028269333,
          0.21191243755663886,
          0.33675032620872153,
          0.06072427054432547,
          0.11081284181891404,
          -0.21861816264220407,
          0.2819072679349638,
          -0.38517050117137697,
          0.18195418397675384,
          0.2053635569752777,
          -0.47153044369340114,
          0.07007483895694969,
          0.16009845616862806,
          0.06574961340543425,
          0.026026589588677308,
          0.3301264437966235,
          0.5162406614895003,
          -0.34926144932628905,
          -0.42252369842125975,
          -0.30016506700003565,
          0.2673700860688115,
          -0.03764901674424339,
          -0.11137472340743679,
          -0.3661505764886665,
          0.08087627574853584,
          -0.1266983649209146,
          -0.2284410190121693,
          -0.15186927114582352,
          0.15425883958927972,
          -0.2690590892989634,
          0.056900055197720636,
          -0.43453124590930947,
          0.014442385871430291,
          0.1122641761491703,
          0.12005793300282988,
          0.36706303063175133,
          0.1431071818935025,
          -0.05735055719526727,
          -0.11205265203000697,
          0.5517305036314353,
          -0.5617466733792286,
          0.26150038352852395,
          -0.15773130578483113,
          -0.1020428973848867,
          -0.17199095866501354,
          -0.045322909989984644,
          -0.1626331411492346,
          -0.14005193641521174,
          0.31007950716717747,
          0.07361053766622913,
          0.02518026745169483,
          0.2672079106665067,
          0.31976500688322623,
          0.16669915301888316,
          -0.5605547897548474,
          -0.057404388825971604,
          -0.2417081534388083,
          0.0479781536027614,
          -0.4368764441997842,
          0.02242876552156027,
          0.019745515692674322,
          -0.3608000383330381,
          -0.15533866971258764,
          0.07645412864752504,
          0.21011091198783494,
          -0.33439586130728677,
          0.12466590996448144,
          0.1405704858689203,
          0.038096630430756784,
          -0.029443664738128462,
          -0.1825932997944613,
          -0.34101689549982506,
          0.37019211307155486,
          -0.6141291030116746,
          -0.42607311242560153,
          -0.033283359728590714,
          -0.02637615952117895,
          0.005843978595632271,
          0.12214811169216436,
          -0.23875225403244055,
          -0.39644432730733015,
          -0.12293909710873685,
          -0.3165079771401813,
          -0.03582306259223797,
          0.09516501491476627
        ],
        [
          0.18999310822488785,
          -0.22256627581044508,
          0.06626620398956011,
          0.4078467201416897,
          -0.09424226905342169,
          0.40331415320293723,
          0.22217711745957217,
          0.1960731573228441,
          0.14858068893319404,
          0.30427162291374504,
          -0.19975658819990705,
          0.14633952846273865,
          -0.013038975284750842,
          0.006802664109983508,
          -0.0020541137531192716,
          0.15820079008668442,
          0.024046936663631675,
          0.19871439126044016,
          0.2259857223763413,
          0.032537901105229694,
          -0.6540258202350759,
          -0.031234070725195018,
          0.48940347418251834,
          -0.4951078142026962,
          -0.19791503298213217,
          0.2840006293478802,
          0.07587152481156517,
          -0.23674692489907168,
          0.21036226573718397,
          -0.242210582516728,
          -0.49381219036720103,
          -0.3259505861229375,
          0.110917990506343,
          0.267448518580388,
          -0.26592231464192156,
          -0.19703753266305551,
          -0.25989205524967496,
          -0.002307216626243766,
          -0.1995363414263859,
          0.2666233947094286,
          -0.4976745966573421,
          0.16666585497289188,
          -0.03623908985450432,
          -0.02976854345039706,
          -0.09343807706578298,
          0.05783547683883246,
          0.13991074227417144,
          -0.13630126861777273,
          0.5478594571065146,
          0.13488579663871525,
          0.3527500314940073,
          0.16756006431613002,
          -0.14582562313648395,
          0.0770648645310739,
          0.38090904816238774,
          0.374973311147442,
          0.049751351242666476,
          0.6036212530008196,
          -0.3399579175059911,
          0.15028954344859863,
          0.213413154548825,
          -0.22847755473407,
          0.08291737103278898,
          0.18417618600815971,
          0.27036098850261175,
          -0.023422171675580382,
          -0.25278084150471325,
          -0.22849167276710058,
          -0.06361404148347027,
          -0.032584525081512876,
          0.16195092054553803,
          0.20493057348142832,
          -0.4059480457557952,
          0.2895264539465326,
          -0.019808084578624936,
          -0.05387810700999983,
          -0.1490568987587112,
          -0.20199997673581052,
          0.006606675413863494,
          0.24368001970389036,
          0.11974809497894165,
          -0.05882519121819825,
          0.008201010941843417,
          0.33513689112585515,
          0.16908937264837476,
          -0.22552851032014384,
          0.02866450418245317,
          0.0405230437706465,
          0.22850933949676902,
          0.5061734956745192,
          0.016558577878586913,
          0.22817244312813295,
          -0.09290271590963292,
          0.022086430567222183,
          0.1731198963778895,
          -0.3970846293217759,
          0.08578971948137012,
          -0.11173259435265825,
          0.2686511896707025,
          0.2006182025520995,
          -0.06003241794278376,
          0.1851824520004246,
          0.06234213376640598,
          0.10569740928160287,
          -0.019285387118792126,
          0.023860444335184246,
          -0.14647892898717477,
          -0.18378603920443126,
          -0.26577205845189356,
          0.12266043313903567,
          -0.3712207375405448,
          -0.029345951595678627,
          -0.18206295161051933,
          -0.12244964755646306,
          -0.24455179897340185,
          0.055504278340961596,
          -0.14039279762392726,
          0.3015510088464762,
          0.47310225912576154,
          -0.38499363832933,
          0.36787529501798993,
          -0.19163444598863227,
          0.021769864842585203,
          0.17658909455182192,
          -0.3133505149663167,
          -0.16477736678633795,
          -0.019392088952237332,
          -0.25223744416341787
        ],
        [
          -0.04976328737087104,
          -0.5154016208846607,
          -0.0720425046378661,
          -0.12172957847735455,
          -0.020318546299725362,
          0.16212785170365435,
          0.042330262327725326,
          0.2124195671055638,
          0.24572755307522653,
          0.015489330604489746,
          -0.2928367639413261,
          -0.03990044587342209,
          0.729409772185803,
          -0.24185453216613195,
          0.1809384042151656,
          -0.31058038585799175,
          0.3136323967627912,
          -0.4905720570638846,
          0.053505660416242384,
          0.2000555458882468,
          0.04711987605700149,
          0.3218331829141633,
          -0.07648997951586309,
          0.45579991417752314,
          -0.23605019062492855,
          -0.3920856931569646,
          -0.2714840871685577,
          -0.24598341507677599,
          0.0812142022255555,
          -0.011943869432878777,
          -0.46400246845128296,
          -0.06793833514852396,
          -0.36069258686825734,
          0.13923560107692795,
          -0.12485067867131182,
          0.14971985146264138,
          -0.43157416909633894,
          0.02532260368594219,
          0.31292896948737625,
          0.09654173524692364,
          -0.20354159146812037,
          -0.37223723860660185,
          0.31853627838375975,
          -0.02433001126097337,
          -0.12566213097925877,
          -0.32406987912823004,
          0.5446367208970826,
          0.09937597941655432,
          -0.05519199211851901,
          -0.18701094435978644,
          -0.12689697812164494,
          -0.1223333319670554,
          0.43299874353430445,
          -0.30418655438615905,
          -0.17615652763518538,
          -0.6316987939118108,
          -0.07644719962776975,
          -0.3306422467033196,
          -0.04971538528532172,
          -0.1656679970723765,
          -0.07042568627503785,
          -0.30026565032232766,
          0.009036617245306338,
          -0.11917781154179335,
          0.3351462246823086,
          -0.27215106924442767,
          0.11996778734357066,
          -0.0725805962729818,
          -0.2041851206472812,
          0.01910929156734491,
          -0.11062528803880967,
          0.17522489419421386,
          -0.26395288671113276,
          -0.11442738676516327,
          0.013920705845684713,
          0.1482232239934963,
          0.047550193929897094,
          0.2706909488396513,
          0.3769526063032672,
          0.026313147151291696,
          -0.020264538934098457,
          -0.40593671958791194,
          0.025542466854829752,
          0.8153980093891496,
          0.26420462341260575,
          0.025511983217692324,
          -0.45395813858947043,
          -0.3547883369275908,
          -0.07591961615265558,
          0.008922509299655917,
          -0.13412162280549988,
          -0.47487189248476613,
          0.038012750152551913,
          0.47870730468250333,
          0.4613298181034988,
          -0.1390976030320648,
          0.05077830839422834,
          -0.13849127430962954,
          0.056207660414785685,
          -0.11508835900636721,
          0.12565101262691414,
          0.17641585876393306,
          0.17155117954763968,
          0.11727410539528205,
          -0.18490152253630637,
          -0.08775667402955603,
          -0.14671924101676165,
          -0.053089729434988006,
          -0.37549719267922904,
          0.42698378666962233,
          0.24182473623343484,
          0.25247950380694983,
          0.07939222810816703,
          0.1523489136974626,
          0.10991504270798237,
          -0.18620177570443572,
          0.16675228961098465,
          0.37356083620390496,
          0.13437696961851714,
          -0.025032081417056467,
          -0.06806059371649631,
          0.11045986933628288,
          -0.12143051323843491,
          0.27923925523010446,
          0.21891312548491143,
          0.48371802407947984,
          -0.23800177364933053,
          0.23668074792154092
        ],
        [
          -0.07240221276039066,
          -0.19728106963374137,
          -0.6263326910244764,
          0.6961056789550657,
          0.03019326950366019,
          0.096968472228374,
          0.023325132406713453,
          0.027905276143776785,
          0.07286929066622547,
          -0.19168657621901633,
          -0.16572565424640823,
          0.14746787934889166,
          -0.29070080217953326,
          0.2017939582725673,
          -0.23119642313684083,
          0.19416913367192212,
          0.1930313947325413,
          0.18946614342019316,
          0.04722825605246433,
          -0.17605227691179864,
          0.16129231205416678,
          -0.26704464592512656,
          -0.3533256352426061,
          0.03833324075064878,
          -0.10427809498312912,
          -0.3076843173970039,
          -0.14962163002403983,
          0.08286018136669396,
          -0.09474277527145065,
          -0.49607541383269205,
          -0.3350002154952814,
          -0.019597333951495977,
          -0.10165724580065845,
          -0.18783044230744617,
          0.6791482833174789,
          0.05995560899549325,
          -0.5695569061395918,
          0.03000274717926313,
          -0.059054790549862984,
          -0.23431319704113157,
          -0.058780907026124526,
          0.19701811849536582,
          -0.06919674092568005,
          -0.14064892349752475,
          -0.04596002908300441,
          0.10631333640647991,
          -0.07263007842267868,
          -0.039880162484824275,
          -0.042274094331398136,
          -0.08504372000610852,
          -0.10691929546260473,
          0.34557287828125316,
          -0.40669403602169524,
          -0.004029718340360956,
          0.4466520693480649,
          -0.1832833694110219,
          -0.2302049272847309,
          0.4344332649072136,
          -0.06235225658898222,
          -0.16580394836384144,
          0.07764804927594773,
          0.1729109350695388,
          -0.0612860399567462,
          0.15489230897780518,
          0.021968457826640406,
          -0.047560783602508136,
          -0.02722371240481718,
          0.19786425721849135,
          0.08652712222858172,
          0.2893342293595791,
          0.09178921119247296,
          0.4013194754194076,
          0.04903442395597152,
          -0.17314735143232157,
          0.13760797764194882,
          -0.004179438256086944,
          0.0024940880093162546,
          -0.209078566780591,
          0.16446226066615435,
          0.029661095010036352,
          0.46569777025749903,
          -0.061891715065053574,
          0.027518544279014574,
          0.04916619232586172,
          0.060188417596917426,
          0.2355595267508468,
          0.10027081720007902,
          0.3680731755677183,
          -0.018971611129689266,
          -0.08686758848357463,
          -0.05546711210704155,
          -0.19248638132160395,
          -0.4474966679438215,
          0.046319431623082316,
          0.07365872787805836,
          0.14369534275922713,
          0.12661627191949848,
          0.29055138807778824,
          0.17057453185164445,
          0.37505593573867463,
          0.0031353405551655077,
          -0.40028741027985226,
          0.024412333303323375,
          0.34023947571541396,
          0.40580785367524524,
          0.06162190860588565,
          -0.05694370859162291,
          -0.02772290665956082,
          -0.2484131835240111,
          0.04180325091674223,
          -0.14992154893159199,
          -0.3265529705537675,
          -0.10190991183272703,
          0.17460968182852304,
          -0.012648251721341573,
          -0.29953161076447254,
          -0.12759025506094157,
          0.0853451347228302,
          -0.1594587518794382,
          -0.1603462430454763,
          -0.6526522404549896,
          -0.21157983101657862,
          -0.08226151153836445,
          -0.10599380736327556,
          0.24995887897927985,
          -0.04197341739175889,
          -0.06480092259496627,
          -0.18213577108539142
        ],
        [
          0.17233034326645835,
          0.2427863659126782,
          -0.28192005790578084,
          0.20827522496013,
          0.544670144785391,
          0.2666504201139072,
          0.1502720723092585,
          -0.29043125541673953,
          -0.23706295570548763,
          0.04459198379901843,
          -0.3952007677153075,
          -0.40799142474101047,
          0.25197268625266567,
          -0.12834847339876007,
          -0.17751726144127578,
          0.41348204766898794,
          -0.3703065465557294,
          0.02831349543577077,
          0.020704032404303983,
          0.21858039834618972,
          0.034731244573626155,
          -0.0060760702863735735,
          -0.25166581077372824,
          -0.04916961268047179,
          0.32301094245136897,
          -0.1424928621498206,
          0.2918449115300816,
          -0.3761242325557286,
          -0.4817593569987118,
          -0.011541990923595365,
          0.3046103116260827,
          -0.1439690796776077,
          0.13593784400791692,
          -0.08368413256933209,
          0.05350048490413771,
          -0.10067839308328722,
          -0.18356564760169625,
          0.31665710814278636,
          -0.5433168878933052,
          -0.4730797287379582,
          0.5735086542673475,
          0.3181542927714007,
          0.15526544761054006,
          0.17986363309569353,
          0.28405794610190604,
          0.09198489828660897,
          0.6111518651151888,
          -0.27389880869972694,
          0.3610764197780834,
          -0.15907911382461232,
          0.05737322262357438,
          0.04142908860306829,
          -0.25396879503151537,
          -0.11041440857065593,
          -0.42169521744614635,
          0.11776544667566227,
          0.026862209975009398,
          0.5644354560058824,
          -0.0049863621559404075,
          0.11711812748227851,
          -0.32677328869960287,
          0.39222146633840943,
          0.1921539939797765,
          0.16386192539888889,
          -0.2956771183379644,
          -0.303340384433146,
          0.15372043720347017,
          0.0910591589982272,
          0.015143927016996447,
          0.24947447519415472,
          -0.19617278015287754,
          -0.15273117507575457,
          -0.3322893343063241,
          0.07448649909154748,
          -0.1263679723119705,
          -0.0004942110959089453,
          0.004241747247243147,
          -0.03287719790013563,
          0.10803900426153876,
          -0.3389176312100251,
          -0.2626874719345723,
          -0.14505547814430397,
          -0.2018351818891918,
          -0.08855272230705782,
          -0.14012569883361056,
          -0.15008690845030637,
          -0.10366944697730346,
          -0.08767210642842518,
          0.046103786694285,
          0.2017644329724339,
          0.01449316953986765,
          0.10743912117652556,
          0.17189463193252777,
          0.11138944539340877,
          0.006783274016907578,
          0.4308209301254978,
          -0.37513180584765327,
          -0.08915374421770703,
          0.4196992403840114,
          0.15182915834529467,
          -0.40712252916583785,
          0.3493765894398469,
          -0.027620232379048773,
          0.18978123238832162,
          0.18562208596990082,
          -0.16211602844152034,
          -0.11292854888559758,
          -0.06938262198998082,
          -0.09920818936026983,
          0.22340304747478704,
          0.1912142308609036,
          0.259879046558779,
          0.11170717480400918,
          -0.06214791778546051,
          -0.23029454016967335,
          0.08348411786450465,
          0.30154905450344155,
          0.007097169685000588,
          0.20588573053850673,
          0.01478855661989209,
          0.20561016510359037,
          0.228525188009312,
          0.23114502894837563,
          -0.45588505684851666,
          0.14797087587951138,
          -0.2188060396482236,
          0.21669220488024657,
          -0.15715885194422913
        ],
        [
          -0.032420571989322716,
          0.19884925622402322,
          0.14516615284915546,
          -0.3334079863417707,
          -0.0875309687645611,
          -0.6399744953861021,
          0.13987524810612864,
          0.11052053586935946,
          0.06944195177925508,
          -0.11644810066966414,
          -0.4912109223719663,
          -0.034090474317801774,
          -0.0012257390010289929,
          -0.1587268830994055,
          -0.1879476172422027,
          -0.13912586606774668,
          -0.1534974086400814,
          0.03115957829013338,
          -0.40705864048373885,
          -0.4519834768731576,
          -0.3056067069694321,
          0.10884164167006188,
          -0.08047674675347083,
          0.25122123327360785,
          -0.530713327209278,
          0.14552802843663093,
          -0.35169034438057617,
          0.21024552048805828,
          0.06602213049018818,
          -0.03705964075566536,
          0.015628872170174182,
          0.11035905780980271,
          0.19231365272853118,
          0.030842544901838215,
          0.42247291491971267,
          0.16995544482601666,
          0.22231073774597246,
          0.0075556014959246,
          -0.07145120164235277,
          -0.027947374603635913,
          0.1323852744041324,
          0.0915145299912481,
          -0.440713088289675,
          0.15573231963430512,
          -0.013020091063141205,
          0.2802678126155832,
          -0.14742338436345692,
          0.17746880753173921,
          -0.46771631188775653,
          0.23342143345474797,
          0.21832671194810316,
          -0.037721671068344696,
          0.158165457885583,
          0.7880166534785753,
          0.26766414263590377,
          0.01542300026294015,
          0.1314623754514601,
          -0.3786126949951491,
          -0.2509695948290882,
          -0.23105554722692098,
          0.2173771977804761,
          -0.1820659799276365,
          0.2637848556176734,
          -0.00040032161868314847,
          -0.3356248874711438,
          -0.17636943385242299,
          0.011112828753803629,
          0.15558692267539492,
          0.19995933574273592,
          -0.022231218428881015,
          -0.14497176663635689,
          0.385008826723829,
          0.20639668488336657,
          -0.04891790858013982,
          0.04478863262198353,
          0.2576292105517622,
          0.02972835744490796,
          -0.009126094394986545,
          -0.32617345359311783,
          -0.14927484436238286,
          -0.11733314210058947,
          0.11201448139246262,
          0.11594476426093361,
          0.26488521856786074,
          0.15265017684534773,
          0.20299242615857932,
          -0.024952376033227745,
          -0.039512200931834,
          0.4064320278014082,
          0.4000286772467803,
          -0.0047017672083312645,
          -0.17027591568511535,
          0.02368958913315901,
          -0.29288658106483184,
          -0.14359456159740722,
          0.17423576953360498,
          -0.25582258703193383,
          -0.13333198555424278,
          0.48319815131421673,
          0.16848150473016948,
          0.1362966051228338,
          0.08369262184475598,
          0.1455916759892798,
          0.6349920723345036,
          -0.20338220938394255,
          -0.020866987212911102,
          0.06883896843435224,
          0.4309263866374514,
          -0.16158664856149035,
          0.19434872494862127,
          -0.21131114314827512,
          -0.09688524368952395,
          0.1467279620498566,
          -0.37063001708860205,
          0.22774799699702625,
          0.07514108053502928,
          -0.4216549950018088,
          0.34510623582111993,
          0.19715776918236638,
          0.0853608720712327,
          0.20383930271673126,
          -0.09438550678593101,
          -0.2904900918813566,
          -0.23101621492739663,
          0.31049959669077415,
          0.007885128630110427,
          0.28394824903790705,
          -0.14195977649567493
        ],
        [
          0.2986309811191391,
          -0.05557863877104055,
          -0.6130165473376824,
          0.01728576550293604,
          -0.04459300127728691,
          0.2294013339858983,
          0.0831978348471574,
          0.07575184409261608,
          0.36372031778495156,
          0.009606037768242221,
          -0.17986978749080812,
          0.18771910023411725,
          0.384280929796034,
          0.12775722970472816,
          -0.1281031965160379,
          -0.01707052988234515,
          -0.04143545154184887,
          0.06084370124315684,
          -0.11434187167402492,
          -0.02497136693452566,
          0.1354090875874166,
          0.20260835715971626,
          -0.041828120271218086,
          0.03911296609319722,
          -0.03188234783650844,
          0.2084362087135468,
          0.0200889318512931,
          0.08057266476784988,
          0.4603209968180563,
          0.2605188898946873,
          0.22131064755955854,
          -0.052650127100266314,
          -0.1697235769252911,
          -0.152298391914472,
          -0.034637113919889634,
          0.14670483241828658,
          -0.2541732758304135,
          0.2582895999282233,
          0.11245195362090947,
          0.46014077013583143,
          0.34380578748970514,
          0.005439567359552824,
          0.10420038652873849,
          0.33489164261550114,
          -0.17901235614158045,
          -0.021030993702499667,
          -0.19656718419764652,
          0.14025786496143944,
          0.2862294619948179,
          0.02469930088874621,
          0.03316762022441506,
          -0.13794791874954904,
          -0.2497145517549255,
          0.17788688634325406,
          0.48427115118454034,
          -0.10116934436228628,
          -0.027566684045731732,
          -0.26763084005197363,
          -0.15041171027767336,
          -0.2134024840464405,
          -0.2174151218377703,
          -0.12078363538907907,
          -0.29646844467703704,
          -0.5107417773589835,
          0.08494181011201929,
          -0.3596913075190901,
          -0.6294840040541505,
          0.034982970841876355,
          0.11822593035183068,
          0.48291736475949887,
          -0.2687005199778445,
          -0.09983385949526766,
          0.05384222722026433,
          0.03213447635747781,
          0.13044094042405113,
          -0.005531825838156359,
          0.0527918794939562,
          -0.017698957556256507,
          -0.4362509616550835,
          0.09964616759686473,
          -0.26092194908919386,
          -0.34005733470607014,
          -0.13794860459030772,
          0.09373724917040674,
          -0.22825251005378233,
          -0.3687445563901578,
          0.1908201362831493,
          0.40572648188553145,
          -0.20610032825830926,
          -0.10588107938703915,
          -0.584521356859004,
          0.22033739756733656,
          0.010484461297820834,
          0.0326351917702654,
          0.19486081641215086,
          0.10157179615098158,
          -0.010000056927072341,
          -0.019722230322924958,
          -0.34314950896948027,
          0.09474621325617849,
          -0.12665245349704513,
          0.1147314807983448,
          0.03955148925612212,
          -0.01393972450207564,
          -0.06893723234676388,
          0.22125297300844052,
          0.4183648781313719,
          -0.10590651217440994,
          0.12865313849295654,
          0.08332637545110232,
          -0.27969364971793376,
          0.09798086006977874,
          -0.11509634546922413,
          -0.23200910774687225,
          -0.017705877946308367,
          0.3191858388953375,
          0.12997895896712572,
          -0.21488139705017628,
          -0.2907741200633831,
          -0.36328625608585163,
          -0.19557247372757144,
          -0.058035483834582624,
          -0.14398266882194832,
          0.04600865810284362,
          0.041613583649098104,
          -0.002759105543932338,
          -0.12259854213046761,
          -0.031342507416644766
        ],
        [
          -0.002698946800890844,
          0.18740876526777148,
          0.29197298628354756,
          0.13676844317614098,
          0.2554241387133036,
          0.02799382998962502,
          0.2710494609597444,
          -0.042104539770332225,
          0.1406513084267021,
          0.04522893028320323,
          -0.08692491274338615,
          -0.3195190357686074,
          0.3715495112070641,
          -0.17080136593968429,
          -0.04256956664115132,
          0.12366481538997862,
          -0.3216916394654572,
          0.07594363538021823,
          -0.04347216482864809,
          0.012922794539702367,
          0.11910922974887156,
          0.032684405931628774,
          0.16475300074083865,
          -0.25645860507319723,
          0.19664401473412468,
          0.28531154678772375,
          -0.4375633979605995,
          0.1623226676716792,
          0.2368894334611764,
          -0.16419939652316023,
          -0.21076890900077494,
          -0.5017176634989372,
          -0.19002731373539714,
          0.01576247900237518,
          0.21568076433932218,
          0.005908818106500208,
          0.39629300045182886,
          -0.21928824421802395,
          0.153486129915895,
          0.08780769112373243,
          0.3447826641229962,
          0.031088046800157733,
          -0.053390443492330464,
          -0.2088544369720231,
          0.03385647025614021,
          0.26496592163636323,
          -0.0593782009943762,
          0.3032947361452349,
          -0.316166671799658,
          -0.17692062845959605,
          0.34709319828595464,
          0.08280181534364355,
          -0.06644731819789484,
          -0.2763500084345215,
          0.7136285381318641,
          0.2571763113900957,
          -0.34758719760540147,
          0.20542316498831037,
          0.21557243821554162,
          -0.39526283289900116,
          0.2344527751275599,
          0.2229775627251106,
          0.4090637918629788,
          0.10483550510587611,
          -0.1037410206689745,
          -0.24247808733078147,
          0.11450897870603223,
          -0.025990900773099353,
          -0.14557690405551157,
          0.44169993785223494,
          0.1948087560972452,
          0.2558536612680895,
          -0.2541191138404639,
          0.39896832563258045,
          0.0771766590459011,
          -0.12594065135557536,
          0.06132870655112409,
          -0.11048620260972546,
          0.06092522461238484,
          0.04966188191639726,
          0.04590576477843374,
          -0.21090239920534298,
          -0.3644091084373914,
          0.3457345018839551,
          -0.12381968455046571,
          0.06308860054570518,
          0.04822798984684976,
          -0.33544411086756004,
          0.3795091726167066,
          0.4024236085688532,
          0.09464824272345349,
          -0.5325365919901993,
          -0.12781025421842385,
          -0.06270543851177268,
          0.09799590604470576,
          -0.1295182335790956,
          0.020739037351364717,
          0.12495593483077919,
          0.34222675050186835,
          -0.17056931403001097,
          0.039294442096716564,
          -0.17858683404172798,
          0.24965124335294722,
          -0.24210587284428117,
          0.1308308315892171,
          -0.09090019921031313,
          0.30746876937133527,
          0.006418915267811402,
          0.05305592277399805,
          0.25275050377196295,
          -0.017052451397846672,
          0.0868949700590802,
          0.15510045910437034,
          -0.04949353829834445,
          0.13510809230090992,
          -0.7183593330509478,
          -0.27296795934740253,
          -0.524930756418444,
          -0.814217485449362,
          -0.12313176754688916,
          -0.08539157630614164,
          0.0017479591371723918,
          -0.24978099623119807,
          -0.02834499855558164,
          -0.3882930946502984,
          -0.10602495300898701,
          -0.05477003062724212,
          -0.09144488852818629
        ],
        [
          -0.12795381711010673,
          -0.08602711928609472,
          -0.1417322805064017,
          0.05174773958452572,
          0.25796256573459714,
          0.11440143324065451,
          -0.12755586177384115,
          -0.3381499740831949,
          0.3376938070007595,
          -0.06330225365290562,
          -0.030713651979590653,
          -0.1553738334891952,
          -0.046536105225736944,
          0.00032432127169739616,
          -0.2504342303091497,
          0.19480335021921444,
          0.2878350120729648,
          -0.18324984568484076,
          -0.18501667588606935,
          0.02076899563723732,
          0.28325653156922836,
          -0.05597823373730129,
          0.019526882377947363,
          -0.12442229225370748,
          0.12634148846281706,
          0.30194510086710225,
          0.05903423148054548,
          -0.08435088838111623,
          0.11629475265919346,
          -0.26236991492253653,
          -0.34589384846103804,
          -0.01627574554051244,
          -0.13829664078605636,
          -0.39583845736898793,
          0.3843451295951834,
          0.5428655467458453,
          0.16913382443522695,
          0.030265695608807368,
          -0.4134370571485725,
          0.2775201291291522,
          0.22544943952849478,
          0.26041342582817906,
          -0.18718465430931314,
          -0.05675340370083222,
          -0.014749682311673971,
          0.03996201984169373,
          -0.15839476555733378,
          0.0276098214955159,
          0.3272276914290972,
          -0.232975253153134,
          -0.05543614750000401,
          -0.00674130618798123,
          0.572743681924426,
          0.46827279220414697,
          -0.01660040247954398,
          0.3244719267467096,
          -0.13181862316316065,
          0.1820774567808892,
          0.21785483266758357,
          -0.028669330730805492,
          -0.2076036404690832,
          -0.1792275175556258,
          -0.24422115571640152,
          0.06800972504504443,
          -0.3734243315365851,
          0.18665692185210087,
          0.08823099476741736,
          -0.16313191160806342,
          0.19317449703408937,
          -0.2567599112958003,
          -0.18327769476223982,
          -0.4036943874268832,
          0.18010113407555275,
          -0.1642888204782376,
          0.19849026876653908,
          -0.06806490790301649,
          0.03043868231427307,
          0.1112281716093729,
          0.16382429694653183,
          -0.31752747658962455,
          0.23785981815494173,
          -0.09852033313817259,
          -0.06312567842055114,
          0.31292403558990706,
          0.032012909556724485,
          0.046214968355680154,
          0.23120091473721832,
          -0.2526129177089392,
          0.045032785012157094,
          -0.15068093394582208,
          -0.2267729085887425,
          0.03079266659959109,
          -0.05920995414695199,
          -0.4761781510821952,
          0.13132116187833312,
          -0.2267407025747819,
          -0.08957450171208062,
          0.28606275268094844,
          0.1023841215757182,
          -0.28406036278455205,
          -0.09600195144806117,
          -0.373674056637654,
          0.12091256998433768,
          0.10468131291594446,
          0.042291849466163184,
          0.23712939778756037,
          -0.2653246970692686,
          0.04887502345587981,
          0.15272115660590468,
          0.18184100599346037,
          -0.6489882037575494,
          0.004734243481346465,
          -0.310455866235839,
          -0.09975018896848221,
          -0.03513879867612262,
          0.3397825217167733,
          -0.026723239754198963,
          0.12588247183644255,
          0.12573361852347376,
          0.32184104702940247,
          0.06804395541431249,
          0.17803709065318132,
          0.0680929905897837,
          -0.05577058616270779,
          0.46488795759837526,
          0.3905138383394181,
          0.4523547225320664,
          0.1094270156331394
        ],
        [
          0.18656134725060705,
          0.2001112616956509,
          0.42264464291423065,
          -0.43106627296763267,
          0.15117581277952727,
          0.07229940778468555,
          -0.028555552829017394,
          0.051456665965854624,
          -0.10326049014948446,
          -0.13764712953132513,
          0.11816724435123543,
          -0.1766239571791735,
          -0.20835182305384947,
          -0.26338727232326964,
          0.08289644876399196,
          -0.034501818595611355,
          -0.31636181092001164,
          0.08389032766211005,
          0.12792203367250254,
          0.12400166061769695,
          0.16418125212515428,
          -0.005457472910081279,
          0.11822176049625496,
          -0.2935795643237816,
          -0.4733957723246871,
          0.1818328062571955,
          0.3400289012892733,
          0.16273447534976124,
          -0.2167424649654225,
          0.20238468596618447,
          0.04654230553768698,
          -0.1704272515951866,
          -0.08735190438936061,
          0.09654059868661963,
          0.11447565365144537,
          -0.2768840276140669,
          0.33240874664690434,
          -0.10782828845839801,
          0.05405117327051775,
          -0.13549261066474227,
          0.30832096747576593,
          -0.14604268691067376,
          0.004988688952584768,
          -0.02851328634464953,
          0.08071783242993513,
          -0.18647506105955952,
          -0.0519200658385781,
          -0.2880491104732299,
          -0.26128364407764987,
          0.07179511451840251,
          -0.013355006202892004,
          -0.011200271169845878,
          0.08962528450429832,
          0.12855423375701552,
          0.3617757827452888,
          0.1682526365905706,
          -0.07493457596031472,
          0.11358998100202541,
          -0.06870076762474984,
          -0.06494977717587912,
          0.13568049633647472,
          0.45918013467589713,
          0.08779183353147889,
          -0.11025396445092296,
          0.13158111805203782,
          -0.22285652513830168,
          -0.008244489883585247,
          -0.27712215025058007,
          -0.64843548001788,
          0.2556234083507985,
          0.024907670755845157,
          0.31461812156570257,
          0.2079389635702536,
          0.23740961689845533,
          0.24778680362584057,
          -0.0743431242506742,
          0.025204283452429886,
          0.25825859179054006,
          0.3787751853300906,
          0.17852426087691753,
          -0.013408787415721608,
          0.014849392457789589,
          0.25697172094522247,
          -0.07276691284105505,
          -0.3141709348903138,
          -0.3227813005053109,
          -0.22285939070938676,
          -0.2559487450769199,
          -0.21028126085687776,
          -0.1528832135182872,
          -0.2864881764652046,
          0.24693575227722478,
          0.01975274800854309,
          0.3490615506268208,
          0.01204836551212747,
          0.1798720209922327,
          0.1294930675931737,
          0.3111767593183682,
          0.09493366052354055,
          0.05473012211344691,
          0.20934493135353766,
          -0.13845984259464614,
          0.4507198875822652,
          -0.10444639626980112,
          -0.17944934812409763,
          -0.04409609216185325,
          -0.49959438183846727,
          -0.07814935090827244,
          -0.1534500333517419,
          -0.31359227609778917,
          0.08875891146146679,
          -0.04832625791964479,
          0.014251955057157886,
          0.3753171886133337,
          0.23651346296979958,
          0.5050409895665022,
          -0.39973406703674624,
          0.05209893405755136,
          0.2633498179833507,
          0.1698645161553471,
          0.09044314621826094,
          -0.026552518210501003,
          -0.14506856628113582,
          0.23578357592247834,
          0.1177514497984512,
          0.08351812018232568,
          0.01985205701264703,
          -0.00016697935316033544
        ],
        [
          -0.09486849738744343,
          0.10005116945574932,
          -0.10658807354184897,
          0.016405909995699082,
          -0.029536503677426895,
          0.044634185187206195,
          0.026451516829613175,
          -0.5071011999748914,
          -0.21490376266288136,
          0.20195508863644404,
          -0.3777732844822923,
          -0.07094460988167806,
          0.01372544150800099,
          0.3117766629225385,
          0.023553034495382992,
          0.20706181221708295,
          0.21505922661244567,
          -0.247328086500594,
          0.012333164067718921,
          -0.36727247529068935,
          0.5023044450781544,
          0.10720016489951184,
          -0.06310025766274648,
          -0.8592824350834163,
          -0.19281187099152303,
          0.29267365073122054,
          -0.23086705982677339,
          0.01377028167521065,
          0.540232492196208,
          -0.011668321175713689,
          -0.23931658637501288,
          -0.08896329099903538,
          -0.7648494280294647,
          -0.042973386504908506,
          -0.2712633593887901,
          0.2128443499853274,
          -0.2067375022873188,
          -0.08737775477125201,
          -0.07395285598393875,
          0.4724152308091316,
          -0.040486079322265264,
          0.3141509033223593,
          -0.10214048734720578,
          0.23093119976158927,
          0.0008709336651650731,
          0.16084876154069563,
          -0.0471554653039407,
          0.4209341857828963,
          0.17245605101592282,
          0.35388626981435545,
          0.2993222256889751,
          -0.23799934955106944,
          0.5550861682723448,
          -0.18439863112541954,
          0.14737725442624922,
          -0.015923594682184433,
          0.26664797638711374,
          -0.20040540610167623,
          -0.038487908831570807,
          0.5699459404945699,
          -0.08285011719123794,
          -0.24878581131470154,
          0.1560430699058917,
          -0.2460033821862054,
          0.033766280773299184,
          0.014602980277685404,
          0.15250002317723532,
          0.07544237154140077,
          0.24743801727121673,
          -0.03455865106127103,
          0.4077352056267871,
          0.04806751213522392,
          0.029362886640421842,
          -0.34431338109254744,
          -0.06868688414212396,
          -0.04563731417124191,
          -0.08264213391791589,
          0.10841076727830096,
          0.3327671071868457,
          0.11386891847998817,
          -0.15934511521314645,
          0.08833522642357322,
          0.24100712392832205,
          0.1619255067317132,
          -0.07464413733524675,
          -0.03456428181859891,
          -0.16084472441370246,
          0.14606767035181578,
          0.2980712664962848,
          -0.32076477962676614,
          -0.2808934118179277,
          -0.036679312644435344,
          -0.24453282809630944,
          -0.1313627962762266,
          -0.057194814932222525,
          -0.0505073023077178,
          0.34159361864203563,
          0.1997407134981422,
          0.39641362024129667,
          0.04494470047078472,
          0.06837605783672196,
          -0.11236062382530715,
          -0.34842350271459027,
          -0.4390223727295669,
          -0.07449217523346591,
          -0.18387691702360975,
          -0.44533208274982927,
          0.05460210496339387,
          -0.013978670763998668,
          -0.2452098514774545,
          -0.13309672438576398,
          0.1546896066634772,
          0.23662175886375825,
          -0.2744720373887762,
          -0.010685982041108075,
          0.043550435745596534,
          -0.11272083697488926,
          0.0036255260866441853,
          -0.003839155996994033,
          0.2107129521401004,
          0.06930904140984066,
          0.15607773139716047,
          -0.40470212996750726,
          -0.13879264408241018,
          -0.04029625720505317,
          0.050272864669508366,
          -0.2658021661959031,
          -0.30247561401040834
        ],
        [
          -0.36675624209682606,
          -0.25426078907067573,
          0.10808997592963229,
          0.187915916399573,
          0.10975531973488262,
          0.1077974697438859,
          -0.3450750804290748,
          0.06075910507846198,
          0.299130386938968,
          0.3079142918890334,
          0.05151327473829388,
          0.17603707106801098,
          0.3792187773997484,
          0.24741256197223366,
          -0.2583482640009675,
          0.36395484016377755,
          -0.22538476432730792,
          0.0751506452800723,
          0.26102342143296225,
          -0.5963953632983809,
          -0.17225171845481535,
          0.27931024605536603,
          0.27837448883923643,
          0.3519318294127503,
          -0.42385175993051094,
          0.07452675111700449,
          0.10231722997593773,
          -0.15344832810101827,
          0.23405515561442844,
          -0.29178088212493947,
          0.1107657445975648,
          0.2378921557302961,
          -0.26126956324441675,
          -0.05550471115827585,
          -0.5205690878077581,
          0.15791289732951513,
          0.16559207129807366,
          -0.18434712624691432,
          -0.1110913723208764,
          0.3751289809598425,
          -0.5461411416354209,
          -0.15489164432581698,
          -0.09954343844834516,
          0.3966222562961327,
          -0.2662632620062088,
          0.1591201225440192,
          -0.20101412865778298,
          0.1406039447101668,
          -0.25917111537970017,
          -0.01317553854240461,
          -0.03912842189716936,
          0.2698986329172034,
          -0.3558809107203471,
          -0.3818136687296837,
          -0.2700467289662546,
          0.015154609133780101,
          -0.005862176018873585,
          -0.23599526518960579,
          -0.2772901813824775,
          0.13893987366395383,
          -0.10398921979397902,
          0.015010403660295005,
          0.18269285199096819,
          -0.38923521524017235,
          0.3503417894749523,
          0.15501356681410525,
          0.11743716430752746,
          -0.12464307289209561,
          -0.16956267642737996,
          0.04191147346247062,
          0.1661901125885385,
          -0.2730565871540098,
          -0.3681588436722288,
          0.09336308983162545,
          0.3725095770317315,
          0.4140234177410561,
          -0.022927838186361633,
          0.09042748337845685,
          0.11084447136243436,
          0.3305857867462682,
          -0.038887811856912424,
          0.16955478650494607,
          0.46674120363609867,
          -0.12383004251331771,
          -0.6393167389271829,
          -0.028508611640069674,
          -0.13223360097169967,
          -0.4681105490057919,
          -0.4374611276296636,
          -0.12246414584258752,
          -0.13910603586386933,
          0.13609319034957112,
          0.09138120232539437,
          0.16513528928256255,
          0.33592518703882923,
          0.20189894089287347,
          -0.20849096345252272,
          0.037225600933079174,
          0.10185461565338375,
          -0.07020229612702104,
          0.14197435444937004,
          0.14340907890619708,
          0.0450341988806431,
          0.44002756175019886,
          -0.29319471824631566,
          -0.1422799662547901,
          -0.013222694251493264,
          0.006815287799064096,
          -0.08092329327008954,
          -0.04683253393636525,
          0.05017577707506307,
          0.3290829612019949,
          -0.2069404057549883,
          0.3656240230075193,
          0.21682219352134002,
          -0.25787498936312586,
          0.3006636486797015,
          0.33735209135880884,
          -0.10452137185805675,
          -0.5023928916370186,
          -0.06528089204003938,
          0.029754789852294926,
          -0.14424881684188354,
          -0.06251767094401292,
          -0.29102828571668615,
          0.05688696957409887,
          -0.1513291947075756,
          -0.2707759429706413
        ],
        [
          0.29835342927537917,
          -0.19967390909748406,
          0.41198635642494286,
          0.12162183978323571,
          0.3424077062302464,
          -0.1366092564799592,
          0.1031541034824126,
          0.31376009874470173,
          0.04752405572695623,
          0.09342962143743985,
          -0.2609106414624953,
          -0.20121510287022837,
          -0.18224318233012787,
          0.028172236344797062,
          0.3125113984326335,
          -0.4820009677747134,
          -0.38651939266267177,
          -0.5388890087480682,
          0.18161450267421872,
          -0.051398871489666674,
          0.28670257330488796,
          -0.13866255252262652,
          -0.6933168078543633,
          -0.5431776103209438,
          0.21203206332556251,
          0.031424886412297764,
          -0.06877195250578753,
          0.06928032648759404,
          0.09452057616418459,
          -0.032105264692142116,
          0.06167854831205173,
          0.12260859347077913,
          0.3957400740578001,
          0.010563969158504188,
          0.5044446494236919,
          0.07226470877116159,
          -0.1537178535814766,
          -0.1995117495586847,
          0.07789284327808933,
          0.04846360575204213,
          -0.14839323029303125,
          0.06652925085230622,
          0.046928838135752625,
          -0.03841882583071252,
          -0.6482235678312579,
          -0.5099163511048701,
          0.05522598410530414,
          -0.014055471709174362,
          0.2486644148781078,
          0.16581960087213385,
          -0.09573686323323835,
          0.10472900704352192,
          -0.2180251534226373,
          -0.22282169143393818,
          0.2686026541849814,
          -0.26095258727973397,
          0.31809302992117855,
          0.11439011039287043,
          -0.15428884688561054,
          -0.3709218344618896,
          -0.16592029516156617,
          0.01615905240719679,
          -0.0829622258230466,
          0.053689820933057665,
          0.11107701645169614,
          0.21283552397159985,
          0.2647831024222378,
          -0.2083565575905975,
          -0.10874212584439012,
          0.527469644205071,
          -0.3824318363257976,
          0.11312221702435811,
          -0.08475569474606379,
          -0.30112034464427484,
          0.17370166515025307,
          0.4665330539447896,
          0.3854294227687911,
          0.25706730430274144,
          0.46145009250591623,
          -0.10645824282053298,
          -0.33351643275842063,
          -0.005013517962392168,
          -0.34544678865049294,
          0.3210408710754465,
          0.3602108890433441,
          0.38032929503575685,
          -0.3674313033679444,
          -0.10514168902173497,
          0.4085171193816113,
          -0.09523277691818541,
          -0.20593057145430954,
          -0.13827356994093698,
          -0.21187621120552014,
          0.13462995486346374,
          -0.0583366400662557,
          0.024075176319379075,
          0.23393390370042222,
          0.24604450541968462,
          0.02605418559865398,
          -0.1534317760472371,
          0.00939616917069987,
          0.13089816564204154,
          0.0032157332748554354,
