{
  "input_size": 35,
  "hidden_sizes": [
    128,
    64,
    32
  ],
  "output_size": 16,
  "layers": [
    {
      "weights": [
        [
          -0.16045749394231987,
          0.13794449040434797,
          0.1304412780244915,
          0.017342611910410245,
          0.36758608892332617,
          0.28137809672713443,
          -0.020726604361325153,
          0.15725779294615524,
          0.030997062959863052,
          -0.1816425926188173,
          -0.37527861648651073,
          -0.04408192150089197,
          -0.23800446253326432,
          0.13940776997618015,
          0.13360715460707334,
          -0.03775362052148501,
          0.3786810715451655,
          -0.08245166290061075,
          -0.149488212707857,
          -0.20217896262889432,
          -0.09979295927739508,
          -0.024570517683793657,
          0.011941451170410582,
          0.10240413493648498,
          -0.5482348419285187,
          -0.30762033191660976,
          -0.021436620816330427,
          -0.1335907323241698,
          0.08063163955155225,
          0.0771393324087996,
          -0.182390452478845,
          -0.11946929764229235,
          -0.0957811540492623,
          0.052639891035322565,
          0.9697718626247209,
          -0.15655701570723735,
          0.059637146102220026,
          -0.40991240602093254,
          -0.09947451699169049,
          0.03631247478270475,
          -0.5370268334129088,
          -0.2726074749115374,
          -0.04692109740812757,
          0.12071403426011938,
          -0.10414452701525233,
          0.079001070776515,
          0.30487807489232666,
          -0.0003718747703706475,
          0.5272833629256753,
          0.11748362568466426,
          -0.22888985066785283,
          -0.09615043802912018,
          -0.23848420891081668,
          -0.1229702405335424,
          -0.2179205567741878,
          -0.06944948705685042,
          0.16401292233067574,
          0.026596807281622392,
          0.4938994945309016,
          -0.06431585616479563,
          0.2109863327602617,
          -0.04875205100319702,
          -0.12014551754839065,
          0.09064376983909653,
          -0.21515096431669115,
          0.2595798307177659,
          0.22998224932240183,
          -0.26389287805586875,
          -0.34117171068905516,
          -0.03468732027119557,
          -0.2554818605719391,
          0.5678889075950919,
          -0.21405514850042387,
          -0.29813026024432665,
          0.1655770867110826,
          -0.1215236902226944,
          0.10844667372063241,
          0.2522865136323268,
          0.31635251814450477,
          0.012471837435301348,
          -0.020048865823104504,
          0.11457113381810785,
          0.04572427376682324,
          -0.3847302851958908,
          0.13445040743910194,
          -0.3667565985177917,
          0.30992192692670634,
          -0.11949256537916368,
          -0.05367861727897518,
          0.08145960310092294,
          0.49223242515752,
          -0.03019586051768245,
          -0.006801660254484131,
          0.15199182175146872,
          -0.12372159530835436,
          -0.40692384872374504,
          0.11034265571045758,
          -0.39124765162886893,
          0.17613252165719911,
          -0.649463677108476,
          -0.009360572493399727,
          -0.21587186513383294,
          -0.24658509310836563,
          -0.058875806091546294,
          0.0669901571399558,
          -0.06427071846083664,
          0.3762401178422113,
          -0.10099047732106543,
          -0.08534539445544036,
          -0.14078738908364874,
          0.09442067138204893,
          0.12435932009192534,
          0.05904312078915314,
          0.4896217656311976,
          0.25336008726504117,
          -0.3418021574749359,
          -0.011983042197497271,
          0.3032068693854946,
          -0.015361188592626506,
          0.17876635018079698,
          -0.2606273704786091,
          -0.057441516066221714,
          0.06252297902197734,
          -0.25614794106146027,
          0.016274930621969948,
          -0.383227742949701,
          -0.1005352340833046,
          -0.30813817551312944
        ],
        [
          0.14255212622501384,
          -0.28039284907620143,
          -0.33735709071514725,
          -0.15170679396544423,
          -0.22520103352348106,
          -0.6941304712804867,
          -0.12334360609581049,
          -0.03917696430081844,
          -0.03747524386739371,
          0.005457011909498611,
          0.07312742533250673,
          -0.1304827655309401,
          0.38579062961564775,
          -0.8182040004215427,
          0.15810940866693007,
          -0.5210299902644415,
          -0.2507104457094989,
          0.21727362859380567,
          0.06656422066551941,
          -0.06524121329401633,
          0.2659296852124943,
          -0.440249025503189,
          -0.2742251122814419,
          -0.2622017958209919,
          -0.014263827874949224,
          -0.17441723968984646,
          -0.004468561570604166,
          0.20748029333469542,
          0.02395439502774014,
          0.21601008860315868,
          -0.07834276473359279,
          0.3279064858784386,
          0.014166565937661954,
          0.32989017032938484,
          -0.022710283552276687,
          -0.23752100385894007,
          -0.011008279978625435,
          0.1958553897724551,
          0.26628225873904904,
          -0.4519416466406857,
          -0.09303930929663717,
          0.08316886310058703,
          0.050321921009489345,
          0.2818378279234579,
          -0.08201132487238354,
          0.09661320580608809,
          0.17249990510756316,
          0.0848587784086207,
          0.14321285490411836,
          -0.08071037393469964,
          0.1462811126580916,
          -0.042842147006436126,
          -0.045756917025548245,
          0.1522296664997435,
          0.44386021672299397,
          -0.10219593260225816,
          -0.0017444136829117044,
          0.590754294511328,
          0.06343993140428719,
          -0.06983990295137085,
          0.08481030351999033,
          0.46679850306616155,
          -0.1868099827561718,
          -0.32036809951628575,
          -0.0004243247226680223,
          -0.5499015160612335,
          -0.01827613307226044,
          0.05946663348738253,
          -0.019451750856228724,
          0.13824896864646097,
          0.2009467720288219,
          -0.2818561773145991,
          -0.05846277460862572,
          -0.050223029746094126,
          0.003244564036975017,
          0.2557224246870516,
          0.12490248468093115,
          -0.28384008316546977,
          0.22652337396766714,
          0.041078561616710633,
          -0.20656169908542357,
          -0.2107435202850199,
          -0.5329880585000698,
          -0.22073217645442483,
          0.4709161759879016,
          0.04403018145136373,
          0.5649954593566852,
          -0.6143111695548146,
          -0.16185313251725786,
          -0.016972907660279538,
          0.55550641401751,
          -0.2834494230014085,
          -0.2510678773049223,
          0.14814752753937127,
          0.2119333118444624,
          0.03649895700912937,
          0.2257994172621062,
          0.4002422101051746,
          0.17498990115975196,
          -0.20327418246228415,
          0.24204134643758893,
          0.19205024157374054,
          -0.27566236482478984,
          -0.19243927947162293,
          0.34619550559964435,
          -0.02255481703117665,
          -0.03915205534930425,
          -0.2426241680306361,
          0.3484140758444585,
          -0.4099624754893631,
          0.3014581730131819,
          0.6812600874181716,
          0.003683205766319004,
          0.17267924574551982,
          0.12711815056499767,
          0.15999996766134794,
          0.37438915361071934,
          -0.24361420934363726,
          -0.4161601830734217,
          0.052134040488382744,
          -0.297723558993091,
          -0.0784828619221633,
          0.04809475153996507,
          -0.19387372310760953,
          -0.39728378795572244,
          0.21349312856930922,
          0.29705223123799346,
          0.26241346247264025
        ],
        [
          0.2526118041442156,
          -0.19377371887237754,
          0.14390775093960934,
          0.20542370926171244,
          -0.25212715192648627,
          0.07109126508647796,
          0.15239011591095258,
          -0.31558302898757135,
          0.09431464056686417,
          -0.20459623081002154,
          -0.15754955395097084,
          -0.17593274581023344,
          -0.21529353575344592,
          -0.041433369251229694,
          -0.031179649356790462,
          -0.1392398091174225,
          0.09093714028620148,
          0.1761129740530217,
          -0.3997496797339464,
          0.41947648469915716,
          -0.3918457328407313,
          0.0263198896318635,
          -0.06971096237194288,
          0.8523821158047018,
          -0.03767245585199845,
          -0.1576215691405114,
          0.1374671635611128,
          0.20669514732004593,
          -0.3966707469731751,
          -0.19356332900878526,
          0.2507001534696738,
          0.008968129946759145,
          -0.38097536848727165,
          -0.07490241284561762,
          -0.11179662246058693,
          -0.04573928326419189,
          -0.3685736233178083,
          0.1928765297666207,
          0.24590178485181519,
          0.25244013084124073,
          0.34554130120391946,
          -0.020742473852141643,
          0.10785499428452054,
          0.0793239078569535,
          -0.19639536759874152,
          0.03623330936153765,
          -0.4624385931739114,
          0.0034410070049258217,
          0.14228851059339595,
          0.018147111258467505,
          -0.35631357718938383,
          -0.02861470977696378,
          -0.025352814626680722,
          0.1231199226813406,
          -0.03074839712159004,
          0.2765958950692481,
          -0.2895857921946238,
          -0.3952477498041749,
          -0.03596150986258594,
          -0.10405292219464234,
          -0.2813935550694163,
          0.08279304976102783,
          -0.003701986471192536,
          0.25196882817713884,
          -0.13706785048819167,
          -0.5710583847419153,
          0.1582493624205629,
          0.16922307983635396,
          0.20576130898458111,
          0.2701302679950544,
          -0.17466200309356528,
          0.14673647648860014,
          0.01094485937783863,
          0.010114312497612526,
          0.37197982262749796,
          -0.03677907165020696,
          -0.08581928201341082,
          0.4430954726350627,
          0.18264556830988493,
          0.06701123780895016,
          -0.39780700237955396,
          0.03842565345960659,
          -0.3948776431831545,
          0.27443853438083887,
          0.37692882834564795,
          -0.43641271833538764,
          0.0005745998300609004,
          0.14044290213894095,
          0.3475891634771395,
          -0.3565705752159939,
          0.19817026809795898,
          0.08177692879186,
          -0.34759822297162535,
          0.15727799209405322,
          -0.2020376156287475,
          -0.07167527076799268,
          -0.031686660122042166,
          -0.23129436286835867,
          -0.142283673386859,
          -0.11225694656482955,
          0.15610516001950447,
          0.08190117420453663,
          0.26816242950261837,
          0.10931744553044218,
          0.06118353755128448,
          0.22334142966746395,
          0.07431379196230227,
          0.1925756462501306,
          0.22120816770668308,
          0.1990831777216154,
          -0.01570815811198156,
          -0.3900184011074564,
          -0.2930840766481746,
          -0.01133398666029476,
          0.06694586696805682,
          0.010661080171323205,
          -0.37272448814879067,
          -0.17557784579338392,
          -0.4859332914901951,
          0.30179010867409656,
          0.12243321369629111,
          0.15241425920056423,
          0.20225395005925725,
          0.17616855526489786,
          -0.08041262483118708,
          0.12798569755584163,
          0.333346871871061,
          -0.04767727921387068
        ],
        [
          -0.22726304057734645,
          -0.5611405589014439,
          0.17037133231086815,
          -0.18638963338125436,
          -0.35144266578309247,
          0.4983746554181193,
          0.1385610452704727,
          -0.3764849351406591,
          0.10685249184075592,
          0.2236470291761924,
          0.27632412522577565,
          -0.3089420778997417,
          -0.07644360815306515,
          0.1990753384303424,
          -0.11839581141339094,
          0.14535035046938224,
          -0.07777297826897335,
          0.1642131835364418,
          -0.33002799418928824,
          0.2447892332542135,
          0.2293597225712533,
          0.19788381758704715,
          -0.12614241843562018,
          -0.15564833911971718,
          -0.2500588886099363,
          -0.1226458356389707,
          0.1920915051000856,
          0.10019775169295182,
          -0.4430055728250865,
          0.10552499190913212,
          -0.10838362761724406,
          -0.43590160594687233,
          0.252247459839835,
          -0.1353700922653316,
          -0.18112801868372047,
          -0.047871283196764446,
          -0.16104532803318233,
          -0.05175909708885128,
          -0.11684337787516039,
          -0.2894359667204416,
          -0.23709478297633035,
          -0.303941885986996,
          0.22540298164586625,
          -0.32482225492952144,
          -0.07028605500744879,
          0.20359101087478076,
          0.2165446145930542,
          0.051028662170661813,
          -0.349692514332232,
          0.22960756139519228,
          0.3515837738012609,
          -0.02311146051875047,
          0.5362830352295695,
          -0.45531254803744864,
          -0.29962545468783025,
          -0.08554119200489473,
          0.08848243133237424,
          -0.2944759998414336,
          -0.0671248507184002,
          0.2628571717186948,
          0.047159328962507505,
          0.21076630183126427,
          0.06770238968686598,
          0.1756918923793753,
          -0.20874056921653805,
          -0.4853211375055212,
          0.13457910439158374,
          0.1522500929137562,
          -0.43730869461019,
          -0.030428076639614145,
          0.04900758310550293,
          -0.3068585703433319,
          0.23438968456779766,
          0.0033282170118074787,
          -0.5577136870128756,
          -0.0011698201199825294,
          -0.04992075653871441,
          -0.251096856144486,
          0.22042139994665538,
          0.14205182090833793,
          -0.01961884622173036,
          0.23681706360703866,
          -0.013050748352043843,
          0.24277488778991965,
          -0.3138417035734811,
          -0.22638835140904973,
          -0.10147460672084772,
          -0.036960997936635216,
          -0.2230316829620235,
          0.25042364502575765,
          -0.5194492459912582,
          0.09791569192335939,
          0.2710811908745346,
          0.033592629040411486,
          -0.2818709676188237,
          0.07867323780419476,
          0.26072941482232787,
          0.3179253056422127,
          0.41067579676658666,
          -0.17046602055936041,
          0.11444390152735923,
          -0.20324123759912077,
          0.2848506649680975,
          -0.2719731444152551,
          -0.1847698213895247,
          -0.1751145437141368,
          -0.25890500517364845,
          0.08298142996668807,
          0.018667312743199767,
          0.2661206344210353,
          -0.1839505994157279,
          0.20343260516839173,
          -0.12852620269973153,
          0.12602531305644657,
          -0.24142584486942634,
          0.014510936439597897,
          -0.24107334822011844,
          0.09763289210816832,
          0.04291420501335155,
          0.23669391963467146,
          0.1549149197252965,
          0.01441024286416545,
          0.023037509764918102,
          0.08734392717191417,
          0.15788365457196524,
          -0.5006914072464866,
          0.08174315088043142,
          -0.16871902420372994
        ],
        [
          -0.07227117874135856,
          -0.658509622018474,
          0.22452503922360928,
          -0.24220738168769215,
          0.3338924084567882,
          0.22209379279501806,
          -0.11913429840488424,
          0.1927824529089686,
          0.5896416521151682,
          -0.21238187372311526,
          -0.004936156628054814,
          0.19390069676983931,
          -0.1498718406764297,
          0.005633008406482043,
          -0.05196306050444034,
          -0.09997145222895852,
          -0.00814198140459482,
          0.04717628764652874,
          0.008233425066236862,
          -0.07003465542567668,
          0.5044937735327144,
          -0.1912162475845125,
          -0.09989728111574502,
          0.18132446195671406,
          0.038775879099613594,
          0.20044646644013836,
          -0.023999674688427446,
          -0.2139487847347951,
          0.18297835204108914,
          0.07574331711203566,
          -0.19735258154370705,
          0.37400929139263356,
          -0.11182342196536635,
          0.2502650849989692,
          0.18464681842602398,
          0.02561919754016145,
          -0.24670023435109276,
          -0.5345629902120104,
          -0.19693957636621645,
          0.10816001756798807,
          0.27869865733329835,
          0.40294675995607526,
          -0.0936806203998806,
          0.27515004289652667,
          0.22370571642486606,
          0.3639435292891835,
          -0.6292024009018082,
          -0.0699638630067334,
          0.12464553718800432,
          0.28815160873489526,
          -0.13279976878620095,
          0.4134371262209029,
          -0.006287612545860189,
          0.10303385881917054,
          -0.09305665383271554,
          0.20235572610775768,
          0.5659305907356621,
          0.02532841400224081,
          0.3708844193913809,
          -0.19389968221967646,
          -0.164234844053262,
          -0.14734063801937616,
          0.05673273829281139,
          0.05175451216019592,
          -0.4600608614379952,
          -0.29490565859654316,
          0.34258830053161154,
          -0.10206103264136838,
          0.09563692551347042,
          -0.1591743224366987,
          0.24083264430830648,
          0.018485677981012937,
          0.06810487079532197,
          -0.23909288474180815,
          0.2787204451537516,
          0.08299747902050274,
          0.12343528991131142,
          -0.14393959872856,
          0.05440794612590519,
          -0.388390359077289,
          0.4154913324421921,
          -0.2203284725876822,
          0.2445151604989274,
          -0.29148655951546454,
          -0.10958818947693642,
          0.014012539798224928,
          0.05428027682145309,
          0.054157592510894755,
          -0.12237179949142825,
          -0.3322270958667373,
          0.04521525617543856,
          -0.010599821508111118,
          -0.0780661824962264,
          -0.07736538808595676,
          -0.2769968067848621,
          0.005144349767462422,
          0.014369478205201373,
          0.08730408979424148,
          -0.4244765671009998,
          -0.2577328574665377,
          0.20399678020817505,
          -0.24391109129454389,
          0.3976356034517117,
          -0.2613452828783672,
          -0.38213617319635435,
          -0.0016772995555946193,
          0.25063182242499554,
          0.28840653383261233,
          0.32132314186197086,
          0.1825482601318628,
          -0.32149858429336087,
          -0.28380940654280296,
          0.06751760223137063,
          0.09574656897216194,
          0.1886979463170163,
          0.021540843725341638,
          -0.11411242188215448,
          -0.33324114740100597,
          0.2611780082328608,
          -0.03408316011481122,
          0.07813365392212912,
          -0.2750249643157941,
          -0.07521375042364027,
          0.18928801030235828,
          0.31011505154345687,
          0.12066430321310952,
          0.05717131793130747,
          0.5088219655385566
        ],
        [
          0.047159083291757345,
          0.02512627298426959,
          0.011755678517252413,
          0.10486199578361503,
          0.0003224883357409415,
          0.42272876381302915,
          -0.04183139906802423,
          0.06717749699288314,
          0.3539165744461049,
          0.2493692438532507,
          0.12185651494013791,
          -0.06727411628407913,
          -0.37926503980579795,
          -0.1122434546137222,
          0.04267062182159541,
          -0.05494886783737764,
          0.018832955949427622,
          -0.06502576001266987,
          -0.10935638839368633,
          0.2755799099621701,
          0.34316716973904693,
          0.113794370736952,
          0.3761901072456699,
          0.2874371080327866,
          -0.15407361291778376,
          0.03873560851545563,
          -0.1250532058472588,
          0.29489618214695107,
          0.24126441077197502,
          -0.15294275719377765,
          0.18997664863049604,
          0.19428531762989346,
          0.16046841731025946,
          -0.088840540682677,
          0.7092906422149456,
          0.07542152422792295,
          -0.31122576256769335,
          -0.28770545750808696,
          0.004337509798525013,
          -0.061667878952124056,
          -0.1557684537942532,
          0.08702580422110533,
          0.16175651253067694,
          -0.49331296030642413,
          -0.022362481943841748,
          -0.2424863206447551,
          -0.12284901051725752,
          0.007708042094970038,
          -0.13025961049269064,
          -0.15243498540919742,
          0.32008653875246895,
          -0.4032031624184511,
          0.01332069501160712,
          -0.4412870399912735,
          -0.0010562537365853121,
          0.5387472780634627,
          -0.013039265016532128,
          -0.13843128334621418,
          0.16494614935052895,
          0.22410792719656908,
          0.2890686577299386,
          0.2590837063626165,
          -0.09970718783698754,
          -0.060495784321264005,
          -0.07222225649749445,
          -0.033890631690128646,
          -0.1509329783099081,
          0.1784281009781676,
          -0.454087659928713,
          -0.2549517202730203,
          -0.34568180936373577,
          0.06823843069499957,
          -0.17054430626820835,
          0.10931226435263898,
          -0.08414752487419168,
          -0.2653632602734912,
          0.27166919206401824,
          -0.15520231737135484,
          0.17480097647707724,
          -0.25137188134202554,
          0.06659697973548877,
          -0.05595794770445396,
          -0.11317535283745052,
          0.0023649147031586134,
          0.138888805467364,
          -0.1485980263305761,
          0.5367918139679626,
          0.24165604795038206,
          -0.41408476563124763,
          -0.19243582995004083,
          -0.6758354014029828,
          -0.20691935859636149,
          -0.1552267003492173,
          0.11212770729221971,
          0.33600204582232446,
          -0.07371046354185899,
          0.03264843404165595,
          -0.18089448236841424,
          0.1479506848246979,
          0.4994108293455864,
          -0.32619850339644424,
          -0.1000265475028195,
          0.18212292007033778,
          0.16501436624740018,
          0.21389774714589466,
          0.41668089176803147,
          -0.08086017729814128,
          -0.19578819377227372,
          0.2829601172774201,
          0.12415076312261837,
          0.2913126190643738,
          -0.14240080963159507,
          -0.19545244475903026,
          -0.09885188525192502,
          -0.1985343479540924,
          0.23247478378995987,
          -0.19684886387939027,
          -0.22007157801873045,
          0.2038041397903041,
          -0.15885050054276809,
          -0.030152398672608743,
          -0.1705452150839367,
          0.11138049952868416,
          0.14577997452323432,
          0.412531040902956,
          -0.2338176618137765,
          0.13904863765659084,
          -0.17594391172409407
        ],
        [
          0.09540544323842708,
          0.10294677679567171,
          0.046482757101584816,
          -0.33391135113491593,
          -0.051645027385145134,
          -0.6180823160508289,
          0.24076696362956743,
          0.3375854185835348,
          -0.003918446939510729,
          0.12945621473758892,
          -0.3143130369609966,
          -0.20522841491441327,
          -0.004225013336188515,
          -0.2646142549882624,
          -0.23536099315445072,
          0.07146999156026018,
          0.07011910921590231,
          -0.3995523484805015,
          0.036749664505392514,
          -0.10955423360203007,
          -0.07241932812754824,
          -0.1059444190853884,
          0.26197426838028637,
          -0.09577833140203824,
          -0.13301448731343463,
          0.08573606475744426,
          0.04192653808167808,
          -0.12899884490555039,
          -0.2762481121998584,
          0.05403473064535481,
          0.2671791111864374,
          -0.04977864755775236,
          -0.39256570658364115,
          0.008631213027704386,
          1.0821250189495382,
          -0.13574424720122952,
          0.22838952989982564,
          -0.04311268717229772,
          -0.123913030846829,
          -0.11480834748742798,
          0.03373783100087955,
          -0.08815439805408576,
          0.2755621772829288,
          0.055027836705880746,
          0.022049945171959368,
          -0.08041795626630545,
          -0.09218704932039073,
          -0.14437992123627838,
          -0.08033859966000022,
          0.11664242800896557,
          0.00012639373010937713,
          -0.25431981736070225,
          0.17698344374489133,
          0.09764577143578494,
          -0.26303001747023924,
          0.2251076225780475,
          -0.38828429896354305,
          0.04251174760623506,
          0.06681780672298572,
          -0.13731758425823173,
          0.025004529674353636,
          0.12348700316969999,
          -0.266939251161158,
          0.30629856516882176,
          -0.31979020109370987,
          -0.09603306885072413,
          0.042219769145294704,
          -0.1867735081675688,
          -0.2788455785636567,
          -0.20450211683276628,
          0.03386703674970075,
          0.028563534794345473,
          0.03186632087899416,
          0.4959575089795937,
          -0.10364216390145709,
          0.08945761906984923,
          -0.20199852139403454,
          -0.07456756658173992,
          -0.014741822218131516,
          0.0003468939649957311,
          0.2737204581998519,
          0.025585429533594207,
          -0.10656190164372065,
          -0.19914271428343322,
          -0.08929758836687583,
          -0.03473609326294942,
          0.09930008381023452,
          0.16847347495114834,
          0.41656387396360034,
          -0.3584126947685253,
          -0.3230406138244253,
          0.31862640323714514,
          -0.44828187912272016,
          -0.03102017766604253,
          0.4458908318443913,
          -0.012586069497141335,
          0.14581039335578513,
          -0.04688449788788972,
          0.22040084105718333,
          0.11293951333997994,
          0.17308003365646898,
          0.19722739484652246,
          0.11305091118727811,
          -0.25954434276185373,
          0.04571411524795232,
          -0.03526724978627261,
          -0.4128447857509986,
          -0.0971162694217713,
          -0.02628318382080209,
          -0.2911517897138961,
          0.011992124638152406,
          0.20832253068138812,
          -0.22740054762246126,
          0.14275525955207238,
          0.0060649645899873246,
          0.03755091544452992,
          0.2918663580706517,
          -0.17376351187813618,
          -0.352068067142155,
          0.25347512320245136,
          -0.17503184444619052,
          0.2561455421931136,
          0.08307698020328137,
          -0.09763262828896507,
          -0.13279139012652072,
          -0.2194106664964581,
          0.08728973409495382,
          -0.24143204997862827
        ],
        [
          -0.520156656262176,
          -0.06167700648696193,
          0.07258154803880651,
          0.051186979026282435,
          -0.04518186720760734,
          0.41760417658706733,
          -0.04535689357019832,
          -0.1539905617355453,
          0.21165200609976334,
          0.2604140131810661,
          -0.04791444540686673,
          -0.27364882463001655,
          -0.23325653148677863,
          -0.11240708776125874,
          -0.27784262590057324,
          -0.11313233284873929,
          -0.2360475782022618,
          -0.17072179880458868,
          0.4277111759697137,
          -0.07127317663238457,
          0.21305120494667681,
          -0.3159936497906258,
          0.3901092434667887,
          -0.27780750867083515,
          -0.3310826187924676,
          -0.14658137204841548,
          -0.33894832227848215,
          -0.10914321003031273,
          -0.1304857976945674,
          0.08588090273204192,
          0.14611585542483743,
          0.17743871420759164,
          0.0021886812724862758,
          0.17028847724651977,
          -0.980551088949726,
          0.3013296429462722,
          -0.42415113244609315,
          -0.18603202778772715,
          0.25336007543159095,
          -0.21891166168800322,
          -0.17192545452727048,
          0.05477926417182544,
          -0.02471899237978096,
          -0.1946542060113765,
          0.09837431366189403,
          0.584013386738167,
          -0.48284721542987963,
          0.17866431175491923,
          -0.19725132230385212,
          0.01982912065158547,
          -0.4379245684009315,
          0.23349364386512736,
          0.0313901632075466,
          0.3570715505482333,
          0.21818451263465172,
          -0.041175667343172316,
          -0.03438915916193344,
          0.1574487571819132,
          0.12173865092032024,
          -0.37609053745543364,
          0.33715137433139875,
          -0.010341817854354665,
          -0.3773309869679944,
          0.22240146262381105,
          -0.12946112202448418,
          0.20400487022398275,
          -0.33830523390250095,
          -0.32864526603342453,
          0.308912825502852,
          0.5029633466708017,
          0.5871453169151554,
          0.2761006986417863,
          0.12568436288324564,
          0.15684054871787714,
          -0.4337229576411358,
          0.2019782973055347,
          -0.5853747726165169,
          -0.13217745391440514,
          -0.13758306508840676,
          -0.3052085568569907,
          -0.24418028901368885,
          -0.10407374434653607,
          -0.0007929798483621544,
          0.011873925923113036,
          -0.23276057369742395,
          0.09568347401206596,
          0.24333430636397335,
          -0.03535458095390823,
          0.01179129757694979,
          0.002518920936601753,
          0.10540224557157388,
          0.5472370481599104,
          -0.1815779029338843,
          0.21893104751171746,
          0.22130613113976547,
          -0.2578241936217786,
          -0.21553533909768638,
          0.04467998386392684,
          0.34499196179179537,
          0.27175774527964924,
          -0.2549254936879727,
          0.029056126925826434,
          -0.5297602379977316,
          -0.20002542305109156,
          -0.1203153141494987,
          0.232605082064098,
          -0.4169197952742373,
          0.161262943573985,
          0.11369383521264524,
          0.20928252525499136,
          0.19517473350232437,
          0.38885790770109985,
          0.464924235645885,
          -0.2706165965632277,
          -0.10292112125672977,
          0.3216170022964682,
          -0.3854959556820858,
          -0.20556684716374904,
          -0.03658827836829905,
          0.1758586157571781,
          -0.08201648807004107,
          0.3952507038038617,
          0.1318892528680086,
          -0.230659685537512,
          -0.04160400146007382,
          -0.24188071868816577,
          0.13813981414193457,
          -0.08852345634522375
        ],
        [
          -0.06424683874618606,
          -0.14252217781382726,
          0.09754668415846576,
          0.22295215240875263,
          -0.029303716904945175,
          -0.09696260611940422,
          0.10606835102390594,
          0.29714827864377075,
          0.03077039094953898,
          -0.005632235373085846,
          0.6280989929519458,
          -8.351397783156351e-05,
          -0.011945971737986725,
          0.171280822392941,
          0.5960928588187385,
          -0.12404925930791531,
          0.03446800771895665,
          0.25691944552191565,
          0.10442957511069052,
          0.1023813354576131,
          -0.127522332055123,
          0.0035077209726934165,
          -0.480881312654656,
          0.23019626965084686,
          0.14734168529444316,
          0.1263981528998426,
          0.010730933946493533,
          -0.08499429431064813,
          -0.16941471797518726,
          0.20715448062847722,
          0.0887189404772814,
          0.04114269108165667,
          0.09414370329405392,
          0.19052207922281023,
          0.4346008163184827,
          0.37488408784283855,
          -0.13067369908422566,
          0.06072563369361798,
          0.048748081565882784,
          -0.1069972845100194,
          0.32354158473727873,
          -0.39833800316563583,
          -0.2810571110129952,
          0.015024467977574368,
          -0.4054512574921742,
          0.14299951091824253,
          0.32190772552529157,
          -0.08515148495518124,
          -0.06124813719066397,
          0.6172952477869034,
          -0.09256259287710336,
          -0.537833114139664,
          -0.2693924926593197,
          -0.29549409205586596,
          0.28308381503001345,
          -0.35336937186988426,
          0.5484152287309155,
          0.15624257217466278,
          -0.11430513361756892,
          0.19860878339497856,
          0.35306730499361766,
          -0.289279670222295,
          0.1550142372961323,
          -0.03372852577999391,
          0.0846680431141964,
          0.28166044206859175,
          0.24378208745304245,
          0.030314090272050162,
          0.1354947675007905,
          -0.24256947205482116,
          0.14656825203832566,
          0.15052993659570438,
          -0.003395378787676804,
          -0.0988591861900849,
          -0.3965665776827272,
          -0.0931892033602236,
          -0.1578563377923672,
          0.1291471359456605,
          0.29601259931212487,
          -0.25945637622438994,
          -0.1021298105546952,
          0.10753854237935308,
          0.14366813013478894,
          -0.08953868476292196,
          0.23970504616871308,
          0.06410425807552382,
          -0.17704622637148207,
          0.28864844506084586,
          -0.02823902990567173,
          0.028204602373331594,
          0.017768318008174064,
          0.4345701181407917,
          0.5024937517573399,
          0.2304721767276517,
          -0.0035434332097968517,
          -0.14590621351316468,
          -0.05869688137173993,
          0.1426837514114126,
          0.015163464000549815,
          -0.3006648422255069,
          -0.22922161223640602,
          -0.13292908028249228,
          0.15321751538289066,
          0.1949385861985677,
          -0.2966323430387874,
          -0.13092774410183028,
          0.07957838101593644,
          -0.033031434086202106,
          0.17610899998012694,
          -0.34228826959151365,
          -0.02374551816499323,
          -0.3863675440003251,
          0.09086137348620295,
          -0.18176297518052842,
          0.09559430011552869,
          -0.36768744571532197,
          -0.03669365300111334,
          0.11727242099722988,
          -0.08803185303853579,
          -0.3931681694448685,
          -0.08745618493499882,
          -0.45146160447628225,
          -0.2420081395451149,
          0.10143195728464655,
          0.062105755651537455,
          -0.024169464652586955,
          -0.1408220902337378,
          -0.12295629015136285
        ],
        [
          0.2259832577703489,
          0.017078151360879264,
          0.058314557694693424,
          0.1086668495340566,
          -0.08275605911517082,
          0.25940291181297453,
          0.04539590689774611,
          0.04358177535721794,
          -0.12365703872510496,
          -0.13597831723721088,
          -0.21978134034770025,
          0.1026210614491808,
          -0.3422002385990188,
          -0.5143773026692542,
          -0.14649444413540988,
          0.011728509981131932,
          -0.013622056443123389,
          -0.14164826692797264,
          0.13116695811102674,
          0.2529244957968239,
          0.3467944355462594,
          0.3089465215697954,
          -0.002364078178476039,
          -0.3887670193294195,
          -0.3326402958535579,
          0.021011215551315535,
          -0.3116490944536654,
          0.1393544566809371,
          -0.3142821945274212,
          -0.199058951066372,
          0.19689667272979716,
          -0.3905179969615255,
          -0.12355139738254152,
          -0.03658881651758946,
          -0.2432733819686937,
          -0.049213280990509395,
          0.15324056592715296,
          -0.07138201159793335,
          0.21473714158483817,
          0.025846915283668375,
          -0.22456589460950757,
          0.03279707951587437,
          0.11528470127390067,
          -0.02918127795306366,
          -0.09874366441989621,
          -0.39444289628647705,
          0.43884412733148864,
          0.24754653545535504,
          0.2402600561733828,
          -0.18309452830972234,
          -0.11208271267713207,
          0.08811712485612053,
          -0.2681181491080568,
          -0.40293210158469833,
          -0.07848795504330659,
          0.32654002908520746,
          0.1336400307921326,
          0.18500131778968604,
          0.19939576203383957,
          0.1492049939842862,
          -0.008301799281514992,
          0.1607441636635719,
          -0.06698964744223326,
          0.03542433055392476,
          0.0035399731409503496,
          -0.03310067144083077,
          0.10489927591074248,
          -0.07201520522988406,
          -0.09301017459485264,
          -0.12468301178466105,
          0.49950681748810416,
          0.020362876556168533,
          -0.3695375364541327,
          0.04268314249026712,
          0.034880111188660246,
          -0.07025627893847426,
          0.022626293343243908,
          -0.05616912022064629,
          -0.03180654398592152,
          -0.012244476286284316,
          0.04501888999918614,
          0.21681301792940594,
          0.19405131097021946,
          -0.23683434272215598,
          -0.00709700320808058,
          -0.13819606907786647,
          -0.02550231478078493,
          -0.651403237657064,
          -0.46605530208375817,
          -0.23143048013260828,
          -0.4585253749209256,
          0.057292099566607836,
          0.14332914993872697,
          0.11741429434671927,
          0.3490488496103147,
          -0.4702625488020581,
          -0.3193230653928918,
          -0.19762448996439771,
          0.4160387452925356,
          0.35026616810406364,
          -0.08163562315530408,
          -0.2820479711355487,
          -0.19917658722539783,
          0.21386223311129451,
          -0.011203523384666545,
          -0.10566616862859105,
          -0.2056571414616079,
          0.08583452780044812,
          0.07065823750688949,
          0.26577595839766055,
          -0.2539653416097542,
          0.08687116174020935,
          0.2797556129533643,
          0.0319776385397832,
          0.00011282735243313378,
          0.08140461649399369,
          -0.05884259768619712,
          -0.07802522950318756,
          -0.22548738655055625,
          0.02228438221530122,
          0.15239370220027756,
          0.4160361283797141,
          0.15664282308174904,
          0.027834878210805165,
          0.09413755204598281,
          -0.08610235369067265,
          0.08063502685571246,
          0.2737042387965682
        ],
        [
          0.03960261642161466,
          -0.37874467186808863,
          -0.11696574464781047,
          -0.5071353295859848,
          0.20250111514011834,
          -0.22618331839314196,
          -0.14844764071917543,
          0.09319371731266292,
          0.15382636358619298,
          -0.3675325809789479,
          0.10728132618947124,
          0.018586548771729022,
          -0.11485342201790096,
          -0.04921197249140048,
          -0.04283034744804956,
          -0.08343437758319214,
          -0.05487556206140646,
          0.06999706290659784,
          -0.1510240834445517,
          0.2574191069384967,
          0.15932100843581454,
          0.09302854747198198,
          0.44798173195062374,
          0.2331795574162026,
          -0.10238267628647012,
          -0.4909104935854982,
          -0.3110652168836212,
          0.3803153592705418,
          -0.07692640071143161,
          -0.12914150320426498,
          -0.03242307567322638,
          0.2654932634137034,
          -0.01088302915454853,
          -0.04040646396619802,
          0.37174708329787837,
          0.10855105379049458,
          0.29911376163001085,
          -0.16225777505499064,
          0.00848270366385297,
          0.26668664453332774,
          0.16054532216413403,
          0.2923337253349169,
          0.1935105684233881,
          -0.29194683373708813,
          -0.32485299839864973,
          0.08702626957216644,
          0.12765352564845917,
          -0.07228197484246066,
          0.024062038816909024,
          0.3246220493213758,
          -0.04912983141180787,
          0.020544062623317788,
          0.3519166257199351,
          -0.19744937659690517,
          -0.3569065110900399,
          0.2676867708183221,
          -0.09679291433086032,
          -0.009131560336234593,
          0.19772929623459368,
          -0.001060604504383656,
          -0.12622272662475997,
          -0.1638842481513946,
          0.4784209996639402,
          0.17244388935995847,
          0.2553011095885626,
          0.22689352342680413,
          0.23314182272538017,
          0.3634663910001878,
          0.0161313132991898,
          -0.19835205879974435,
          0.01975518717754258,
          0.015021097561978468,
          -0.27619717940334676,
          -0.027617279566399866,
          0.576257606807983,
          0.19531196905216502,
          0.500729004587174,
          0.005003067433510216,
          0.2802957055237222,
          -0.3318322813290863,
          0.01847915449538724,
          -0.011649387443121287,
          -0.061441770971844646,
          0.20747776107799776,
          0.11237118684285098,
          0.05667674067644347,
          -0.22208975611450854,
          0.19739102630668953,
          -0.18709425859463386,
          0.21002473030625296,
          0.28684261404524525,
          0.024972035909318256,
          0.37498545431827607,
          -0.01437139059159034,
          0.006438449365594011,
          -0.18007896211056584,
          -0.1928212907133339,
          0.018191602441473474,
          0.13461060658242266,
          -0.38974472245746455,
          0.005857093852167193,
          0.4691835026470356,
          -0.228605842540826,
          -0.16389561265144012,
          -0.14890261223846374,
          -0.11973457958738999,
          0.38520368513133624,
          0.08632049926837047,
          0.2780311696179904,
          -0.24422123381633068,
          0.4804857356852364,
          -0.10573605663652975,
          -0.42982338486356814,
          0.3893988490435229,
          -0.13846882813390762,
          -0.211506410672077,
          -0.08890950601741525,
          -0.12886990420307273,
          -0.027106795700341114,
          0.015809771121445174,
          0.3830316727443511,
          -0.20729102564548005,
          0.25749008515413935,
          -0.29460316456208085,
          0.47301714739244516,
          0.084286610315637,
          -0.2977429153492368,
          -0.10589591239324583
        ],
        [
          0.02339936393107189,
          0.23074557929075892,
          -0.1595225585103796,
          -0.031474847053253846,
          0.4915475420509419,
          -0.1940596646235107,
          0.15889780157705952,
          -0.2558637053886427,
          -0.3881988050834691,
          0.31606941998685517,
          -0.021226702510034223,
          0.13599954107158882,
          -0.2359459132394315,
          0.19151932052163254,
          -0.12841464817582093,
          0.14737762426699388,
          -0.5639172498313574,
          0.12703860393136482,
          -0.2637557186294562,
          -0.6366025511001482,
          0.048345763494681275,
          -0.25047033212743575,
          -0.0074232011145211095,
          0.12771640978950505,
          0.027692228823023142,
          0.29421860624818597,
          0.1320258272637862,
          -0.06956284424288614,
          0.13909577892806332,
          0.17633807572851973,
          -0.30223645703960195,
          0.267451339481538,
          -0.21600331259189892,
          -0.11777896205241954,
          -0.31631136428838913,
          -0.08406954075926018,
          0.38392431968488927,
          -0.4103598795596799,
          0.15099692459330702,
          -0.04628158440156476,
          -0.258069029906683,
          0.0676798244471677,
          0.25049563486366677,
          -0.16478633348226343,
          -0.16142195623643857,
          0.12406839406631168,
          0.08285180105094304,
          -0.27195316781426565,
          0.45565633598752014,
          0.14871330310087583,
          0.1239353019428949,
          0.1349907748301867,
          0.23448607555843734,
          0.47594255366538263,
          0.40323961386412566,
          -0.3372656324729789,
          -0.08323649941857764,
          0.28124398757582075,
          0.05178930742634214,
          -0.4530793916401986,
          -0.3071458570040206,
          0.12627292308156945,
          -0.11523220594214514,
          0.6052388536291352,
          -0.22406741639827402,
          0.22194216141686993,
          0.24603100710861484,
          -0.009264366536302516,
          -0.18459335851495384,
          -0.22735712205933026,
          -0.1864513351081822,
          0.15820444413633122,
          -0.16279664887938686,
          -0.4161095302495373,
          -0.39715307297360525,
          0.4051014189793409,
          -0.186062552042081,
          0.5903155174275951,
          -0.15082191158503236,
          -0.14778672587872146,
          -0.3774888232550294,
          0.008514193701958975,
          -0.020635069970537937,
          0.1253625126124322,
          0.19497832675807916,
          -0.4153262264095967,
          0.19343299596357869,
          0.03466872686697626,
          -0.15821138860728828,
          -0.30895591035007935,
          0.10367090547280279,
          0.16843693190749112,
          -0.2891602022963791,
          0.24609344584531223,
          -0.2743438155948375,
          -0.18322703953085404,
          0.20507355318248022,
          -0.1188050870261155,
          -0.16161071657672296,
          -0.03735053186254009,
          -0.3405146574387966,
          -0.10550507475488814,
          0.20875887497330736,
          -0.2938128103806806,
          -0.1775914896824764,
          -0.09510206524439704,
          -0.38134412871646933,
          -0.11488468035031188,
          0.06328602607572328,
          -0.12214746190777985,
          -0.01458161773087229,
          -0.010147013073306427,
          -0.04503062245591624,
          -0.1484395785186427,
          0.23275347414875022,
          0.200904835860844,
          0.228465265599715,
          0.3190509594737156,
          0.05447980777847465,
          0.050401577932164585,
          0.14293001729673446,
          -0.10302847771224861,
          0.178887503246029,
          -0.20520980702448857,
          -0.14541343090382067,
          -0.13476382207099102,
          -0.6075902802351363,
          0.06960083109418394
        ],
        [
          0.12119805267749054,
          -0.13705740955843917,
          0.2376798019625585,
          0.033588888071782,
          -0.5265737080795733,
          0.09720361960659253,
          0.08659652322424072,
          0.2987012406694778,
          -0.11104930395265926,
          0.19454841930549335,
          -0.19808617422765598,
          -0.10455779127125096,
          0.06368721500899961,
          -0.059771968652503275,
          -0.18867314521595724,
          0.3922029966385897,
          -0.25650345764355825,
          0.140545746193864,
          0.32759960152708956,
          0.06069655062501745,
          -0.21918377689152047,
          -0.010901270782120758,
          0.05859227073045623,
          0.3273641184837297,
          0.1688634134838333,
          0.15790807451045205,
          -0.26538574339308235,
          0.3449552716261689,
          -0.07029507410810927,
          0.03409822222833164,
          0.006772153578605892,
          -0.15543039842298814,
          -0.3393378076407592,
          0.3588808610561217,
          -0.054632940788526325,
          -0.29147569979568994,
          0.012733203891262717,
          0.1610262037162338,
          0.12284116471721737,
          -0.07136362389581356,
          0.14225828538091856,
          -0.10767497780789125,
          -0.24500387569615265,
          0.1536324464367407,
          0.176227637357284,
          0.28720539890485747,
          0.11056621117395538,
          0.08368717994557334,
          -0.17069214767117388,
          0.27800187544148375,
          -0.35131247474864996,
          0.20043526694176736,
          0.20341563753586023,
          -0.4686457947979978,
          0.07124226046115727,
          0.13235397211682828,
          0.034563127487658815,
          0.05341718125761148,
          0.31079313758744964,
          0.5016456500762994,
          -0.32127311845858975,
          -0.3867212160046053,
          -0.2934277481526802,
          0.25441876049040024,
          -0.049575250874917244,
          -0.15863164803937277,
          -0.3825885491828364,
          0.07534170642677146,
          -0.08158473183221858,
          -0.2775589245019847,
          -0.19437771828898898,
          0.11555710633363703,
          -0.23791753287816886,
          0.09420665846377473,
          -0.38493693251346656,
          0.05515233366398778,
          0.07039567457987686,
          0.14615160740524458,
          0.3294320628396315,
          0.1020104095471626,
          -0.08956646463920442,
          -0.11792876451120896,
          0.5539776267892096,
          -0.5210841928492113,
          0.21797365033276395,
          -0.18843044275599855,
          -0.10874915473657963,
          -0.20001874556721577,
          -0.03402067546396777,
          -0.14641002688204252,
          -0.16195572996721505,
          0.2922051939282551,
          0.09414858709287488,
          0.052993697102443775,
          0.2698554739717978,
          0.34589992794841434,
          0.1550470749067343,
          -0.5241464594771506,
          -0.05503057571161087,
          -0.27862154941800965,
          0.06555840348223065,
          -0.41371096187049805,
          0.06382108504204562,
          -0.021508345882603076,
          -0.31589657941318483,
          -0.12706770550729155,
          0.09550369415332852,
          0.19228007558409924,
          -0.38315737958444707,
          0.07637452942033937,
          0.13447032052687793,
          0.031041382247030156,
          -0.009486370217689534,
          -0.14468487263256646,
          -0.29315096367643034,
          0.3726623454680808,
          -0.6327371896824447,
          -0.43700589277299073,
          -0.016371999835751185,
          -0.04925886054906133,
          0.01354760421089606,
          0.13493816256976382,
          -0.2279976320990621,
          -0.4300930890048824,
          -0.10452504906264524,
          -0.3063162930173155,
          -0.00022123168877055452,
          0.10212031627383111
        ],
        [
          0.1629528157636621,
          -0.24187317178948556,
          0.05407611364614346,
          0.40385480159739323,
          -0.13759929950111677,
          0.401111464622553,
          0.2179549906876437,
          0.21279754345702742,
          0.18765885844197353,
          0.2663275224733901,
          -0.1621345553795067,
          0.16125407005802264,
          -0.001139541006598167,
          0.034984954558934196,
          0.03607761021785951,
          0.19539208801571123,
          0.0725288257279063,
          0.1957824454815467,
          0.2701204286663719,
          0.00032489478467510657,
          -0.6986400887307166,
          0.014700578859311956,
          0.4811924154748531,
          -0.5249372248447657,
          -0.16969787958743665,
          0.23584769927135713,
          0.031618848874152124,
          -0.2840582251804216,
          0.23615153907380937,
          -0.28453042245005167,
          -0.49839047252054247,
          -0.278704131826451,
          0.1321797573650926,
          0.3121795328196761,
          -0.22582767408088975,
          -0.16846219115318076,
          -0.21991493586450503,
          0.03227481741232186,
          -0.235052738064975,
          0.2256671997491858,
          -0.49095594943479404,
          0.12008751063192631,
          0.012271699867293815,
          -0.07231378338422426,
          -0.09379322035517006,
          0.013469749342089596,
          0.13194023084167622,
          -0.1063404623129594,
          0.5011467691245843,
          0.17408968509518408,
          0.3315348692009244,
          0.14611639136956756,
          -0.13556439052144093,
          0.027292418471678903,
          0.39719643449605196,
          0.4091858519180133,
          0.04991976410173604,
          0.5538700823210804,
          -0.31018317030991216,
          0.18553729208664002,
          0.2073133094823545,
          -0.25602451174600865,
          0.10217057829100651,
          0.13911398690485202,
          0.22512795685984158,
          0.009764538607574385,
          -0.24980201065355337,
          -0.2366846871346649,
          -0.035632672701548615,
          -0.05493478586544947,
          0.1720105034032231,
          0.17306849289232185,
          -0.3751259342918289,
          0.28943124446560514,
          -0.05782522380743688,
          -0.049206786252706525,
          -0.1061566115640575,
          -0.17663110646326516,
          -0.000868564737089493,
          0.2022429779816069,
          0.10050823325149731,
          -0.07773369258699801,
          0.029755509077366245,
          0.3034451620355278,
          0.11932281087607206,
          -0.23483916788518971,
          0.040618117848126585,
          0.020123784336589182,
          0.2492110601737501,
          0.4726821798631019,
          -0.025321789024205902,
          0.2659332955815593,
          -0.06583833615711929,
          0.01059800015349138,
          0.176023936958427,
          -0.39046771624538446,
          0.048542058438650296,
          -0.1408885714889211,
          0.24742583977214955,
          0.200755240361787,
          -0.06892640330014571,
          0.18916589600110062,
          0.06703126471238469,
          0.15444172245012727,
          0.015714247366863738,
          0.008758467954669929,
          -0.125082675930595,
          -0.2260160658458749,
          -0.23630813050698124,
          0.11812657295735284,
          -0.3609595928101981,
          -0.009999316752910051,
          -0.17937298280934336,
          -0.09975548778688048,
          -0.23989882777391364,
          0.0939224447964992,
          -0.1004558303575075,
          0.32419455070066633,
          0.4744206260428628,
          -0.3375776861960875,
          0.41075765566597994,
          -0.21576469851294036,
          0.004851652347680682,
          0.1486915092236594,
          -0.30670095565575844,
          -0.19586399568155716,
          -0.06682991414111306,
          -0.26594211668685835
        ],
        [
          -0.009043460363299794,
          -0.4938333362101091,
          -0.05797063946708994,
          -0.15707448462861362,
          -0.013266638665102519,
          0.12023633382797164,
          0.05765704276954559,
          0.18945291629425373,
          0.2099968323449907,
          0.05826978814553625,
          -0.30530064660891926,
          -0.06775494738953104,
          0.7160036750335252,
          -0.24165555655246518,
          0.1858375127426192,
          -0.3503163494798068,
          0.36078871258431455,
          -0.49419261644527784,
          0.01752897783495093,
          0.1793203438395852,
          0.07581873769305833,
          0.2836821037820047,
          -0.09906638887277203,
          0.4327646140674088,
          -0.2018611110140701,
          -0.3742918678998123,
          -0.23876241339759557,
          -0.26342532883044495,
          0.040136537148104494,
          -0.04282310240388137,
          -0.4300996050736931,
          -0.07258470218210333,
          -0.39979553012481645,
          0.16286804405978586,
          -0.16498295920456177,
          0.15144974603865982,
          -0.4045454294203297,
          0.0675521447123469,
          0.35914015396111837,
          0.10298657145723744,
          -0.19316791725997606,
          -0.4044575851234951,
          0.3178919651360613,
          -0.026256412031021987,
          -0.11633776324714364,
          -0.3636559704296602,
          0.5686833482760714,
          0.08437785185894858,
          -0.0718240211424256,
          -0.14245203221223451,
          -0.1479270887523323,
          -0.10622321853289268,
          0.38887377556988856,
          -0.26735394488179937,
          -0.1648830631590153,
          -0.5963006862646806,
          -0.031838232819053715,
          -0.31291167837443135,
          -0.03622332448779481,
          -0.21126164072013875,
          -0.08497009525571143,
          -0.29816562073456726,
          0.027341747389350416,
          -0.12199541003948483,
          0.3796710372401693,
          -0.2521037895340513,
          0.1379882035617445,
          -0.06607503994965147,
          -0.15730110525569282,
          0.027016384577322337,
          -0.10461601689430088,
          0.19714936390058319,
          -0.24249265908272033,
          -0.09813419206638795,
          0.008561812268685512,
          0.1526656656807669,
          0.03270950317573067,
          0.3005706955552209,
          0.35724314453440115,
          0.07397123820445048,
          -0.057114279376739,
          -0.36646209759329,
          0.006643430393883296,
          0.798396814885319,
          0.2169716282020893,
          0.035396328817776115,
          -0.42650527890663936,
          -0.3698556545834075,
          -0.09623575376588775,
          0.008802914407873359,
          -0.10096905733281153,
          -0.4557821184179886,
          0.027998215616917538,
          0.4639947001926781,
          0.4789042863028743,
          -0.15130045740704975,
          0.08790609789835979,
          -0.1401503263270518,
          0.09735228955206073,
          -0.08933000148662515,
          0.1670412654609813,
          0.19360216355063725,
          0.21030692272757645,
          0.1575943987663235,
          -0.1775575144480799,
          -0.0819490880527499,
          -0.17946028251181972,
          -0.01098030258528582,
          -0.3815672512970367,
          0.385340640789796,
          0.20659228771347696,
          0.28286722195089414,
          0.0994494839770171,
          0.16182811128722133,
          0.08368024133634287,
          -0.18193503083708357,
          0.11970355017736785,
          0.3599547745111234,
          0.1683151488363769,
          -0.024546006621757193,
          -0.10793696013543384,
          0.10985609162288415,
          -0.15141042582921285,
          0.3096554863450777,
          0.17027639946943965,
          0.464780688718767,
          -0.2535635826388691,
          0.1932430181435824
        ],
        [
          -0.05397423895838067,
          -0.1812454142979113,
          -0.6037908404200825,
          0.6986364677915297,
          -0.011421280882341067,
          0.11673185056097224,
          0.061975865145266575,
          0.04812797553699311,
          0.054351061037118335,
          -0.15043142193734832,
          -0.19724741832409398,
          0.16168181069085835,
          -0.31635028977070884,
          0.1994742050728559,
          -0.19711201844429305,
          0.14602826183679796,
          0.16850991712717456,
          0.1665933547791876,
          0.05586980516074676,
          -0.20847643132421484,
          0.20485569296270206,
          -0.23271157274574417,
          -0.35047634074949824,
          -0.009160213942581144,
          -0.07057985161003429,
          -0.2921458145974249,
          -0.11374833193188903,
          0.08690489509280126,
          -0.089273562187453,
          -0.4935527621722733,
          -0.3153702150854388,
          -0.008808780296140895,
          -0.09424194219408039,
          -0.21436916500865186,
          0.724956736817481,
          0.025833534421239344,
          -0.6008434530439232,
          0.06369265424916105,
          -0.0885355326429995,
          -0.20647169560858383,
          -0.022984187749475724,
          0.16974542258191203,
          -0.09905048860716817,
          -0.16802176951245618,
          -0.07315830657724869,
          0.12515120548089054,
          -0.10956967975983041,
          0.009322421243061773,
          -0.029647042874820617,
          -0.10584186009945745,
          -0.11479735278370891,
          0.35399476736927615,
          -0.4379786249210324,
          0.038977846744615796,
          0.4774099355989509,
          -0.16136385532945172,
          -0.24216358255506398,
          0.39039282960668875,
          -0.046328453348800216,
          -0.16692801962257983,
          0.09111087296960263,
          0.15127275010423266,
          -0.04849505081534813,
          0.12357059964450463,
          0.029583731253453177,
          -0.023585656528363724,
          -0.006781865154568776,
          0.15452119150859228,
          0.08674496003729854,
          0.24006691703896504,
          0.09338417541754794,
          0.44570954216244507,
          0.049174710808170805,
          -0.2209342133093205,
          0.1427510715673703,
          -0.046510598368584795,
          -0.01717858819004122,
          -0.20654586584571008,
          0.21433478930279398,
          0.05481450020831463,
          0.4512704620552213,
          -0.0741892627081577,
          0.05212657723512656,
          0.005792376221942569,
          0.05709499548006332,
          0.26890119131941254,
          0.10820345342977107,
          0.3374558065862148,
          -0.010068860971604006,
          -0.06299289012048072,
          -0.0404285802827194,
          -0.22861602833029018,
          -0.455375019462311,
          0.0413265885693422,
          0.09477501276548403,
          0.1031562536458691,
          0.1700542461283451,
          0.28700349378132295,
          0.14810193748258413,
          0.3643080550893435,
          0.032827223691532036,
          -0.3946560553020615,
          -0.008462346295660561,
          0.37074236093478385,
          0.42263542385219777,
          0.1006047457674416,
          -0.024264040488699234,
          -0.046486217661215294,
          -0.25787067139883535,
          0.004116221727381626,
          -0.1520650571951929,
          -0.3618391135612523,
          -0.1382556781329746,
          0.17242188432077024,
          -0.024869571028343484,
          -0.34124580689311473,
          -0.17537219850839353,
          0.07365992720725889,
          -0.1783031087339653,
          -0.1446922987190222,
          -0.6201118523555054,
          -0.2297271267660227,
          -0.10052026178690662,
          -0.08489720026598459,
          0.2077778095108761,
          -0.06060019118296009,
          -0.1019718642664332,
          -0.1623446933474257
        ],
        [
          0.12389259281834247,
          0.23295429872776027,
          -0.28807728264865756,
          0.24801503778193126,
          0.5752072269587833,
          0.28174900850838464,
          0.10361719117359848,
          -0.24607218230923428,
          -0.2828123768615475,
          0.055791820086184975,
          -0.3776024331384533,
          -0.4348072971500677,
          0.28926946640340706,
          -0.1260962694793017,
          -0.20136730649764076,
          0.4121308842312968,
          -0.3663357476818487,
          0.020440406052918036,
          0.06864658986311252,
          0.20561210396113294,
          0.01759696701246372,
          -0.036286523071526904,
          -0.2612612275220341,
          -0.09699176464343891,
          0.2848869936841705,
          -0.11306684755084985,
          0.3131452029235053,
          -0.4196414504318843,
          -0.4421185118369948,
          0.023441379456488918,
          0.3070249062936521,
          -0.12409755619467157,
          0.09041383992088776,
          -0.053652375578997685,
          0.004953007702765026,
          -0.09304499743482991,
          -0.2035046636670146,
          0.2667289285210852,
          -0.5202400357755055,
          -0.450913508258009,
          0.616308688163336,
          0.33050882794646297,
          0.1211466007353814,
          0.1793028854933944,
          0.3178251366553378,
          0.12406827829829394,
          0.6261242799655727,
          -0.22450213600448007,
          0.3340995181704311,
          -0.11451771587365897,
          0.047329772839526,
          0.08327275154459826,
          -0.20487435738697635,
          -0.0933861137225569,
          -0.40137264411001655,
          0.10810910762432033,
          0.06269261219161337,
          0.5506976084716205,
          -0.03817112150740791,
          0.07106018918553253,
          -0.37596773790697324,
          0.418022236830924,
          0.15496590797399443,
          0.1630584809026207,
          -0.3182083763349122,
          -0.29759622405850283,
          0.1153373834496959,
          0.04489102850284075,
          0.05567042022815681,
          0.24203736197990391,
          -0.16313444457889328,
          -0.13362280637714224,
          -0.3676961202758147,
          0.07999012270790011,
          -0.1530916676330103,
          0.02535896853219484,
          -0.029435641305724874,
          -0.03642356490330955,
          0.10317137417460055,
          -0.34126313371221745,
          -0.22862987303448015,
          -0.12924544680360436,
          -0.15457097489189384,
          -0.08963374952152786,
          -0.1271986807218991,
          -0.1266583552063171,
          -0.10241777446346778,
          -0.0551963530011309,
          0.033071164625764954,
          0.2286095478701476,
          -0.0350785058298886,
          0.1330663505992255,
          0.1602706104944409,
          0.10411354018034312,
          -0.036942566728678655,
          0.4047849393807033,
          -0.3935441826154011,
          -0.04293883905094215,
          0.46228519569975296,
          0.18107344432234446,
          -0.38112671001138354,
          0.3565980849105936,
          0.013029229837521137,
          0.2047269457791017,
          0.21160356890927934,
          -0.16682727905340283,
          -0.1117516557766064,
          -0.03193256424812088,
          -0.14811077321680116,
          0.2580912009636195,
          0.2389078231633358,
          0.2614541901573563,
          0.06214856170998783,
          -0.021064316307381585,
          -0.20932090258008484,
          0.08397710245032151,
          0.2518189146707726,
          -0.02064824264181447,
          0.23758229320986488,
          0.005749779745194653,
          0.16491219631971923,
          0.1805873083291508,
          0.24829358987470523,
          -0.49378520326696856,
          0.14647092144151075,
          -0.25544703091237203,
          0.19929038093445858,
          -0.12340848465663169
        ],
        [
          -0.03320306903332797,
          0.22835610781703714,
          0.13211104935075146,
          -0.31086033010003455,
          -0.06597997556747046,
          -0.6042809804388324,
          0.17790682020853824,
          0.06545869862475798,
          0.08385516273614398,
          -0.14362694386705996,
          -0.5041988685623431,
          -0.05994186584378388,
          0.033225850651826684,
          -0.1977500884602041,
          -0.16558336110599464,
          -0.09694971227203841,
          -0.11565338318482786,
          0.027869370428149683,
          -0.4247366462419105,
          -0.438404012347947,
          -0.25638388239870274,
          0.11270927505883409,
          -0.05319520943391393,
          0.29289437502764415,
          -0.4814258918562182,
          0.14120550881213037,
          -0.38807472155222555,
          0.22945313593306893,
          0.10701545418131941,
          -0.045927229569295396,
          0.04133175777320493,
          0.06402696636021729,
          0.15028966991342388,
          0.07601290790118562,
          0.42271840762571633,
          0.15584749240776313,
          0.24957088998221943,
          0.00824473834787561,
          -0.07652854880522654,
          -0.02386510741228112,
          0.13496114682977797,
          0.08324792992297617,
          -0.42992084883162607,
          0.11777630270946687,
          0.03314861571974551,
          0.23381402205845345,
          -0.11753774435548921,
          0.19918565482978895,
          -0.4315365072033586,
          0.18996779141943648,
          0.2633673985457385,
          -0.059691376959258184,
          0.17324075745991405,
          0.7719281520311089,
          0.2901031420708357,
          -0.010247316968755941,
          0.11283302495943742,
          -0.38796035441612814,
          -0.24257573917040384,
          -0.19087346696290164,
          0.1947651679967843,
          -0.21605546528912445,
          0.23821080634519173,
          0.038037235280304275,
          -0.3114902233140627,
          -0.16872346533617516,
          -0.025839233532286905,
          0.12210510057043292,
          0.24493008998152002,
          -0.019055945888990223,
          -0.12678687126327878,
          0.39376233597916177,
          0.2202044791974635,
          -0.08443070728449352,
          0.025132136365142343,
          0.26083332575764173,
          0.04101924477637329,
          -0.03789358767588327,
          -0.3577075887957316,
          -0.16747146454252285,
          -0.07762538877761428,
          0.1275026253753997,
          0.08292419357502827,
          0.2680176629691926,
          0.11723175728855345,
          0.1704448694829373,
          -0.054778032753909446,
          -0.05814396128790065,
          0.44773849626290435,
          0.40259852344077807,
          0.026026900057347282,
          -0.21489063792992116,
          0.04739532159384431,
          -0.29862997289152,
          -0.09994576725912722,
          0.1395423175050405,
          -0.2687601283939789,
          -0.08410413191952537,
          0.4690500743351195,
          0.20504584274521373,
          0.13484442387065462,
          0.08154674750456388,
          0.15215513653576082,
          0.664770903614622,
          -0.17327828944024154,
          -0.007152364676768572,
          0.06402106366010363,
          0.4119324441058462,
          -0.18162417486554605,
          0.16664134765468855,
          -0.22943471790146036,
          -0.12492071268822683,
          0.16261616782894361,
          -0.3367926202502023,
          0.2680192868534872,
          0.03552679163904503,
          -0.4706609102663386,
          0.3547618681594238,
          0.18838508900643486,
          0.06208789727863548,
          0.2255039799727989,
          -0.13862747138163,
          -0.2992196569810746,
          -0.19656367722063803,
          0.2980344512419626,
          0.04937795441847456,
          0.33135944559095687,
          -0.10988328265338551
        ],
        [
          0.32493281996458656,
          -0.016171196998150648,
          -0.6267183116202233,
          0.03289060714077566,
          -0.06706013986491355,
          0.27657237772590415,
          0.06749253970397537,
          0.06136652628390131,
          0.3159559781811947,
          -0.025949844933189217,
          -0.2190550231062414,
          0.1621871530602871,
          0.42074760309171194,
          0.13195864927048392,
          -0.14823032289675572,
          -0.04948745329033736,
          -0.08065226071630197,
          0.09572604758425403,
          -0.14728431769614928,
          -0.06398805493576988,
          0.18451233486656474,
          0.18135658732575013,
          -0.06519184241888713,
          0.04787673438065123,
          0.014347736427217202,
          0.20027812426169203,
          0.008653235648829225,
          0.03337664676130928,
          0.4710777264435731,
          0.2127945835865411,
          0.2334913349310901,
          -0.034909297412398684,
          -0.21315784940986582,
          -0.10661441497164004,
          -0.02141991427551872,
          0.11721859751102434,
          -0.2267465802655568,
          0.2172754644077629,
          0.09571920144549023,
          0.46894791893594573,
          0.30451973728491466,
          0.03196834283643745,
          0.08138220997065351,
          0.30862744191424085,
          -0.1593112463467212,
          -0.05816782562095195,
          -0.16265528702373486,
          0.1675659486565288,
          0.3209020217823043,
          0.07338157381518674,
          -0.010169511595911169,
          -0.08945327903005067,
          -0.27331245361235,
          0.20511367275571282,
          0.48619741246406056,
          -0.12295024031829484,
          -0.06683236958585576,
          -0.30625565041125885,
          -0.10486011102038897,
          -0.253919371110504,
          -0.2634206277398217,
          -0.1011715607834179,
          -0.27511300107818676,
          -0.4891502860891806,
          0.0711361692365878,
          -0.3254941340939634,
          -0.6127940089621077,
          0.03412854451730118,
          0.08929023257858013,
          0.4714096989982763,
          -0.283590752272259,
          -0.09323182629330332,
          0.021961933921096344,
          0.038478630233405094,
          0.17160280397866648,
          0.00924202656136751,
          0.01602073883132101,
          -0.04743713874875969,
          -0.4034488755127329,
          0.11185196754907117,
          -0.3055479505796581,
          -0.3702337333715181,
          -0.1497334444134899,
          0.13134370634570314,
          -0.2074398734755194,
          -0.3248253135639767,
          0.22147312804428168,
          0.3622777432856531,
          -0.22218715884976384,
          -0.14792062394379854,
          -0.595998318138335,
          0.17988375567998405,
          -0.02906839020767023,
          0.023401747483444202,
          0.23235399974936327,
          0.06452527417129032,
          0.00522303074934514,
          0.007050852336546668,
          -0.31643263394979737,
          0.13155865813932546,
          -0.11317689782874647,
          0.16459589818715548,
          0.06181386746120856,
          0.015109235741072731,
          -0.11105433891619211,
          0.20215373585670693,
          0.4446810467869344,
          -0.07212615664994532,
          0.13060338024861112,
          0.13278035580796177,
          -0.27048888119353864,
          0.12248237699217583,
          -0.1472948728774866,
          -0.20719332794787942,
          -0.030201536434543527,
          0.2902193296714845,
          0.17904322765046163,
          -0.2065960557677912,
          -0.24498908331493005,
          -0.4049395757642072,
          -0.17626031701250153,
          -0.10348521902032115,
          -0.10798021796935449,
          0.019872016207382513,
          0.0652603268198354,
          0.010495889555618042,
          -0.08103063563971558,
          0.008914550079700188
        ],
        [
          0.023651611485576655,
          0.19474687994387396,
          0.33588771613376517,
          0.1590457222481542,
          0.22961698147787696,
          0.021161135809306786,
          0.27213141788186135,
          0.0011717192405608398,
          0.1399980901992515,
          0.045946921433395654,
          -0.04192914564446191,
          -0.31886766905024094,
          0.3240628713926741,
          -0.1733951625358227,
          0.0061400572620890085,
          0.07601582578169756,
          -0.36003846969476083,
          0.03269099389905326,
          -0.049744469531866155,
          -0.022449141845629822,
          0.13706354016689257,
          0.03081480904685745,
          0.19503332687390287,
          -0.2755199814030416,
          0.2232369353879218,
          0.2661033321405115,
          -0.4157103410740765,
          0.11470275793004397,
          0.20555854563790768,
          -0.16147785351785934,
          -0.1860855965659323,
          -0.519149233584657,
          -0.15386644493646306,
          0.03366512866892737,
          0.24313039770655812,
          0.05359262866305805,
          0.39167795694757,
          -0.23693598306278163,
          0.10938073934132278,
          0.041405622379074615,
          0.2959427734133765,
          0.026973065423766075,
          -0.08157032311211232,
          -0.19852090914893394,
          -0.0028958611976054108,
          0.3027846650707803,
          -0.1010713058789148,
          0.32698334410092433,
          -0.3009350852568758,
          -0.16723257869044025,
          0.37271866765788314,
          0.07944586708789768,
          -0.08355590528037965,
          -0.23540967855953718,
          0.7050870138400365,
          0.2283513167191186,
          -0.35370111840962504,
          0.19013073048578885,
          0.20260371569189398,
          -0.3754582508177402,
          0.20061418977913203,
          0.1881844722308223,
          0.3816794298724362,
          0.09422816093330645,
          -0.08955898366572211,
          -0.26760072093971976,
          0.08316729218377265,
          -0.008810247490131803,
          -0.11658916708376675,
          0.4013979101061331,
          0.19941147486457064,
          0.25796148320963175,
          -0.22723499963300398,
          0.35411181888402177,
          0.09297578409313578,
          -0.17426484172125198,
          0.02408123625523646,
          -0.08218960906569976,
          0.09972308093473095,
          0.04653962897326968,
          0.032018338279446105,
          -0.1904942603421268,
          -0.32570747145032797,
          0.3299581683083083,
          -0.13234673408193223,
          0.11182663447005418,
          0.08750932562864806,
          -0.3261750057819471,
          0.35188729552879433,
          0.417146229910769,
          0.13215281911823315,
          -0.5492367735769393,
          -0.11636823762116053,
          -0.07428415908557784,
          0.09038661204669372,
          -0.1039072732157775,
          0.007764760568762893,
          0.12102011686863888,
          0.2928283014466853,
          -0.16438283426107955,
          0.07088115030840757,
          -0.22405401989897586,
          0.22157424511634424,
          -0.2280310012595887,
          0.09679888989708191,
          -0.12663005055190413,
          0.3005804259576862,
          0.0412268586781784,
          0.08632323259998317,
          0.27768045723108514,
          -0.0017577732594205675,
          0.06105306630092447,
          0.16678453944588095,
          -0.07808455325783983,
          0.1130921412586766,
          -0.7668473652114081,
          -0.2678824490498012,
          -0.5398710235320217,
          -0.7854636672739105,
          -0.15523628685282814,
          -0.07496438114570854,
          -0.01192161241163782,
          -0.21869838286502427,
          -0.03865904511076294,
          -0.3750958820993977,
          -0.06578920805338437,
          -0.10330757139646816,
          -0.06623911375297928
        ],
        [
          -0.13135946710108026,
          -0.061585884636627945,
          -0.0986961197962856,
          0.08229325240002512,
          0.2588143777334326,
          0.13782616293981337,
          -0.12271335490495841,
          -0.35203579045075795,
          0.30609819753717754,
          -0.0871970774695352,
          -0.04677849046447781,
          -0.1601372261760241,
          -0.037808781228671005,
          0.043399987900413314,
          -0.29754609417148775,
          0.1475303300387206,
          0.2710927170794248,
          -0.2284509224047271,
          -0.16277097581493877,
          0.010982042528292036,
          0.33047158168478163,
          -0.09500091119593967,
          -0.005400697981554819,
          -0.08632628734521337,
          0.14475822099470578,
          0.31159974467555446,
          0.08434789770237769,
          -0.08312171590194235,
          0.12073449349423308,
          -0.2664876337615871,
          -0.308634918414846,
          0.00801703548743468,
          -0.137745849896332,
          -0.37048155589237114,
          0.3536092611755002,
          0.5734435378504259,
          0.15811007892849943,
          0.07974081181275608,
          -0.4266927558457695,
          0.23078075613848525,
          0.21316929706255913,
          0.2632814202207349,
          -0.1532761290066605,
          -0.06262894972815577,
          0.030438463871359046,
          0.07341577486177767,
          -0.17465772471497026,
          0.03209254748683769,
          0.31589215408315596,
          -0.23679223718981193,
          -0.04226062618996387,
          0.013496184157159988,
          0.5401202682273049,
          0.4619545364274067,
          -0.032413815710218986,
          0.33527634918601995,
          -0.11414199387055719,
          0.19278932055587417,
          0.24933297415644645,
          -0.05485160767225762,
          -0.2370553967500854,
          -0.177681456760108,
          -0.26245769624709603,
          0.08918564659822947,
          -0.3495474961435898,
          0.1821324077708083,
          0.13407426278771323,
          -0.2106490458573122,
          0.1701144781789577,
          -0.2963892380319263,
          -0.19283035283002867,
          -0.3934027151155733,
          0.21827240913148516,
          -0.19377470083647796,
          0.23427282906966373,
          -0.05602221082357771,
          -0.005449873481354134,
          0.08598577847331301,
          0.1231634404184329,
          -0.2714011932129711,
          0.21137411854384916,
          -0.04873469589905404,
          -0.09029111699373264,
          0.34881491161281625,
          -0.01587913895904052,
          0.05172997889580966,
          0.23315497911083208,
          -0.208311314859738,
          0.04068258589607991,
          -0.11906549439846148,
          -0.1798573695553148,
          0.06600149434153486,
          -0.012772807845048969,
          -0.4523921385001182,
          0.14760872518964926,
          -0.25673348622880954,
          -0.058525671879365304,
          0.27675120623393423,
          0.13387506754438952,
          -0.25649764278388243,
          -0.1125341122214061,
          -0.3669394202454788,
          0.15057291837500983,
          0.05586436788167757,
          0.07037337041369504,
          0.2754012433843491,
          -0.3087344630349534,
          0.07744318601503287,
          0.12506226411739685,
          0.17817180561687293,
          -0.6585022244786006,
          -0.029083139641437727,
          -0.32129402115027844,
          -0.14202098976156974,
          -0.013184963338296232,
          0.34739003541305485,
          -0.031687131581886255,
          0.12209923798592244,
          0.09037258179864098,
          0.3168569986948213,
          0.04856723553105353,
          0.17149735513353648,
          0.0630845660280494,
          -0.08691971622450419,
          0.4301666661445271,
          0.3989710732734165,
          0.49262099896989425,
          0.11846508239181325
        ],
        [
          0.21532252828754964,
          0.18545421132086745,
          0.39693352018920663,
          -0.38455565699590727,
          0.11622729502344185,
          0.10320103837846296,
          -0.04618702585320121,
          0.06618203700482829,
          -0.10070233191896759,
          -0.0904943625478734,
          0.08033191751776576,
          -0.19579517343178246,
          -0.25135465071674473,
          -0.22696932601483424,
          0.06587968579111105,
          -0.01730488862677669,
          -0.3234116832872532,
          0.08694845726371268,
          0.14622154872262136,
          0.1117962797176883,
          0.21334014257320147,
          0.037616015753865945,
          0.15430245454454075,
          -0.3035987959619807,
          -0.4895975376124002,
          0.19362067942709785,
          0.33910165928455455,
          0.14483196397657944,
          -0.2616054980061475,
          0.1954150850230337,
          0.06093731049860144,
          -0.16289434862703167,
          -0.05885006696964474,
          0.08500065390818444,
          0.07159426564134408,
          -0.2782620176422084,
          0.2915829114984548,
          -0.1530252802792081,
          0.09929007853737787,
          -0.1712912275135205,
          0.26125025787068856,
          -0.16736653841344035,
          0.00591047964943431,
          0.007424007525680758,
          0.042419221828253396,
          -0.17075670159180295,
          -0.09138733400012906,
          -0.3034216026717074,
          -0.23040921523077648,
          0.050500402729531595,
          -0.012572561228301658,
          -0.016705247143097644,
          0.07478299764443955,
          0.16123549609663526,
          0.40228244025239,
          0.18612985786469313,
          -0.09663815705603863,
          0.15345027780625728,
          -0.09664407161625656,
          -0.06766032341560091,
          0.18286339853544917,
          0.5022253798396865,
          0.10926010973274543,
          -0.1199588250742103,
          0.14645632386603313,
          -0.26347422742405263,
          0.03612258135251269,
          -0.31932377513109683,
          -0.6155104165884211,
          0.2666741733074638,
          0.007411348604612024,
          0.31707244477417784,
          0.23345772989467806,
          0.24060143926154998,
          0.2932446366694053,
          -0.04623436425202798,
          0.05981302233215283,
          0.25996537134502556,
          0.3664781211077646,
          0.1733462240062606,
          -0.0289932539759827,
          0.00416037556027868,
          0.23720700055079794,
          -0.06286110451330566,
          -0.26955364134380366,
          -0.3421189630362475,
          -0.21908726217932764,
          -0.2487676320262273,
          -0.21361910518928048,
          -0.12056703424615248,
          -0.3214376492100325,
          0.2832325243507719,
          -0.006779256272908033,
          0.3005863110699675,
          -0.008967610697857634,
          0.21164660168617866,
          0.12481718829399917,
          0.29993953811715796,
          0.07531393557315248,
          0.0753145936927581,
          0.17769006705551457,
          -0.10485017520329491,
          0.45816613145452645,
          -0.061524153657001826,
          -0.14733253569346474,
          -0.0013695899687141972,
          -0.5311182695565781,
          -0.08484176720253218,
          -0.16288872471720084,
          -0.27383150820387164,
          0.07958932277906833,
          -0.06277921493680735,
          0.0413734583939734,
          0.3877699012767263,
          0.20643265586375795,
          0.5126633824929354,
          -0.4057362115562656,
          0.08623057646153248,
          0.23278901328878782,
          0.14451234196129026,
          0.0569344187833648,
          -0.06663765466912432,
          -0.12475034629324884,
          0.24453593099900328,
          0.1677263389999204,
          0.07067516191164358,
          0.05272453172048823,
          -0.026059282221904585
        ],
        [
          -0.07583878773327378,
          0.05084152515751233,
          -0.0656828804089491,
          -0.03358027658409119,
          0.013741449582832545,
          0.06962751974108354,
          0.029018558401175964,
          -0.5200912194334774,
          -0.1868993701052367,
          0.18090534600164104,
          -0.33574974443013444,
          -0.028947437297305527,
          0.025857024398005624,
          0.3031035481442135,
          0.044894823497321344,
          0.2414561207155688,
          0.20261438260005638,
          -0.23949561547196027,
          -0.002996569608863701,
          -0.3894372087035543,
          0.49895366586940454,
          0.09030086211693156,
          -0.08369143504723636,
          -0.8273730344819102,
          -0.23218990844566934,
          0.2707811314631772,
          -0.23118285726153065,
          0.02500830832918011,
          0.5010657148434976,
          -0.05863388144860203,
          -0.1974923646787263,
          -0.039995776835213825,
          -0.8124396931504172,
          -0.09039803157677305,
          -0.29193610588405944,
          0.24789519606009466,
          -0.21783686059809532,
          -0.03917671020941674,
          -0.052729330086196326,
          0.43925448442077003,
          -0.08623680786191547,
          0.3478185913314136,
          -0.10052787563425272,
          0.21567855195974972,
          0.04756324162816755,
          0.13172172837396298,
          -0.0763469659563227,
          0.3750198876528023,
          0.16704713210043923,
          0.3368638100550846,
          0.2960919582770404,
          -0.28366293558831657,
          0.5189045175448352,
          -0.1626693733584342,
          0.19550527168611617,
          -0.061941750228381734,
          0.22496222819190537,
          -0.17655891806938662,
          -0.0014041941422642242,
          0.5611932816577295,
          -0.07376505130276284,
          -0.23528822840022795,
          0.14138481338435524,
          -0.2886665868618453,
          0.06889514543331067,
          -0.02040357008952126,
          0.12646998389096897,
          0.08946004768144321,
          0.2630396033034178,
          0.0025614599211806607,
          0.3948599174961334,
          0.014361227433941288,
          0.01539581485507904,
          -0.3019964741542877,
          -0.10453224407759899,
          -0.06644078447637806,
          -0.08758591811796308,
          0.08683886844080439,
          0.3060184444366191,
          0.07309376689213752,
          -0.13371846602348572,
          0.1294192045293035,
          0.27861745971401447,
          0.11678915550972055,
          -0.1206140560981754,
          0.010051775159881676,
          -0.14833842418142507,
          0.19023717886556155,
          0.3090320672919027,
          -0.3442033170616991,
          -0.3019530549876157,
          -0.014039567339749606,
          -0.2619659131672317,
          -0.14134708021866843,
          -0.065508407358495,
          -0.02754662652374164,
          0.3312785766071217,
          0.16039583910503116,
          0.36739785244648604,
          0.09380533123718723,
          0.05171359511956424,
          -0.09546019869745079,
          -0.36623812782164705,
          -0.48055981459130387,
          -0.07327843991105051,
          -0.19483486403775727,
          -0.4229363884872793,
          0.056578268726677684,
          -0.024014897171794537,
          -0.2874133511457445,
          -0.12308722810770951,
          0.1223791558548745,
          0.21150210340312134,
          -0.24366117932277456,
          0.0034191086589828628,
          0.0027148790417853797,
          -0.15729494156885876,
          0.017623467808532748,
          0.03763540822843569,
          0.23184398939936152,
          0.025371730048087734,
          0.11967750255701559,
          -0.45011120451431125,
          -0.1812326381190881,
          0.0046475955004153975,
          0.003787578711379814,
          -0.2963097337253181,
          -0.29029277903430856
        ],
        [
          -0.3364504397693508,
          -0.2287898515338321,
          0.062247319023247975,
          0.15169225897643213,
          0.1575510160070243,
          0.11926614239831643,
          -0.3551533494961932,
          0.07413445070437201,
          0.33099233091382324,
          0.30644779105932307,
          0.08762236847239248,
          0.19921839230481939,
          0.3742403412195199,
          0.21966619269786078,
          -0.2482613962404913,
          0.37873217824389876,
          -0.21219544071483593,
          0.06388328971845539,
          0.23894048127898293,
          -0.6051582968565525,
          -0.21318150696042817,
          0.23414543651977723,
          0.3272135791348085,
          0.32333198852147665,
          -0.45481481168472077,
          0.04982209432662516,
          0.06714895833509181,
          -0.1875328203416758,
          0.2140292303599456,
          -0.3226507851227482,
          0.07154801917637796,
          0.21211020025693827,
          -0.2986590331278163,
          -0.026080463430477686,
          -0.4840645432153582,
          0.16928813254222458,
          0.19940025746068124,
          -0.18282458796108628,
          -0.12506956895719526,
          0.36030800743667757,
          -0.5745368350965178,
          -0.10870947737229959,
          -0.06743181913681276,
          0.40724580622316114,
          -0.29733135133449545,
          0.12006872290225591,
          -0.20276758956738078,
          0.15436214330124287,
          -0.2887495021709922,
          -0.011895202242763582,
          0.007957574291245977,
          0.25001729107515686,
          -0.3513538869977024,
          -0.3443280297201748,
          -0.31375299188314626,
          0.03677925754587273,
          0.009965295340295515,
          -0.24207175178983653,
          -0.2585286808725518,
          0.12839089370742526,
          -0.0758841784116481,
          0.0639453564561636,
          0.16828579395512422,
          -0.39194601507610616,
          0.3798285649364166,
          0.14688592854979537,
          0.16238805001264128,
          -0.12991611557991412,
          -0.12863673397435993,
          0.0061911649000355035,
          0.13773778062848407,
          -0.22928119310836564,
          -0.40685854024974794,
          0.08650904430848502,
          0.3828858344917962,
          0.37779327138032776,
          -0.05568071590098044,
          0.10347399477691029,
          0.0628532819178644,
          0.33601141757309155,
          -0.01150377694378359,
          0.13918552711184765,
          0.48429731467267795,
          -0.1297712950056657,
          -0.6565762733912769,
          -0.04852283471654676,
          -0.12374187278844631,
          -0.4489771834301491,
          -0.48413537322754296,
          -0.1089989327521687,
          -0.1860872755614756,
          0.14434124556611022,
          0.09616958255672702,
          0.12435569294985796,
          0.33715123549537807,
          0.16230437244462392,
          -0.18565088747190378,
          0.04063877211688099,
          0.07675453953940613,
          -0.049941208669694974,
          0.15947774110668084,
          0.14892658575382622,
          0.03142141504648818,
          0.4040292419975149,
          -0.33392510678777426,
          -0.13513308767026283,
          -0.041124685049249696,
          -0.002507551983471759,
          -0.0517744415240279,
          0.00129943450014821,
          0.023585243207015494,
          0.3553242050160753,
          -0.19544101871691075,
          0.3357583168219025,
          0.22781488560540222,
          -0.30527289694347703,
          0.3310293106941218,
          0.3260337316835032,
          -0.13881396253077888,
          -0.46662291206088763,
          -0.10548930924413971,
          0.02824219152158653,
          -0.13819810791017112,
          -0.061366868066267996,
          -0.30676559292726935,
          0.08149530669606077,
          -0.16437234824348226,
          -0.30328806543758613
        ],
        [
          0.31386437008998447,
          -0.1748252184327826,
          0.37774697330732926,
          0.10365949669933745,
          0.3237958643465863,
          -0.12629608170398232,
          0.15002093312865333,
          0.2775497915406737,
          0.004266141915308273,
          0.13529068483769705,
          -0.30779437863343456,
          -0.24337815124851328,
          -0.19408433785939264,
          0.04785751384818998,
          0.33683638338523675,
          -0.44550500496051443,
          -0.3428366934947411,
          -0.514316208520063,
          0.20277627144400454,
          -0.046761008893637164,
          0.2673358885993307,
          -0.1183396483752688,
          -0.7172007316787827,
          -0.5286516282850079,
          0.16710205334545733,
          0.03468966647092202,
          -0.043098091365557936,
          0.032974885008001706,
          0.05650620642401234,
          0.011646796328810034,
          0.01807821394174844,
          0.11508129194274679,
          0.38470158192578563,
          0.04495487719349619,
          0.5334776718219975,
          0.08928479517909271,
          -0.12995390213914956,
          -0.163888685258624,
          0.1171654767242982,
          0.08774970981036305,
          -0.13672502935392533,
          0.01746088057673824,
          0.05208542212319132,
          -0.05967618578112697,
          -0.677499790569766,
          -0.5357750255233741,
          0.09040848805892039,
          -0.013866174344174868,
          0.2616863923118431,
          0.13543207671733953,
          -0.1330528369776212,
          0.11629840086811495,
          -0.20021774447386365,
          -0.2322149352864498,
          0.31607570116606604,
          -0.26476175219908793,
          0.34781695900816023,
          0.11512418110308079,
          -0.11963457893670523,
          -0.3318152026371286,
          -0.16832288399724935,
          0.034801799445720594,
          -0.0622935905845611,
          0.06446784695159136,
          0.15884241841251956,
          0.2471796244581805,
          0.28999537434338063,
          -0.20492750939979676,
          -0.12241250745490508,
          0.5593325056545095,
          -0.4017983134210312,
          0.06625952213710379,
          -0.13218207924855288,
          -0.3171130791527121,
          0.15872765008902406,
          0.4269316316552514,
          0.35708715534170893,
          0.22885643525002566,
          0.46648002634248387,
          -0.09114122070506571,
          -0.2872369927291958,
          0.019305854755027996,
          -0.3277434282450872,
          0.31421678018892885,
          0.36926642118756214,
          0.3623997262712488,
          -0.341567223669213,
          -0.12775574235560133,
          0.4113423725805931,
          -0.09518458797215895,
          -0.18028523840769337,
          -0.09024237423177328,
          -0.2122449533018722,
          0.10415427127230792,
          -0.05663365293057626,
          0.03512993056368234,
          0.18512049015556123,
          0.24120989999595102,
          -0.006158622021494626,
          -0.10909663451860521,
          0.009606965352806657,
          0.1662483667615474,
          0.04651807820048683,
          -0.013129182731975761,
