{"network_id": 16, "w1": [[-0.5424326718427304, 0.6103206144234798, 0.7533922028095841, 0.0246126852390543, 0.5006652202837172, 0.08687014263310243, 0.30585206907394547, 0.9316223200522034, -0.3673632910985759, -1.0223158822038065, 0.0489010593846535, -0.5286280524891377, 0.3123576246848371, 1.2675717000942461, 0.20219820071803504, -0.25565620174202275, 0.3517140550424343, -0.03943935739692239, -0.744000964606173, -0.4439913064146948, 0.16944906123664696, -0.2032375389408579, 0.43673130953043804, -0.04541161171798571, -0.12835662340169623, 0.25393067755967347, -0.2441800753079049, 0.093203531964412, 0.22439218592711818, -0.12977352905052808, -1.2231121877751567, -0.4042965987224698, -0.06420078930534942, 0.23281788278045465, 0.8182135436085312, -0.18707668742090183, 1.0551372213833785, -0.026874749121207964, 0.1381235222389882, -1.2532423237316537, -0.4176923523357119, -0.5223834378441837, -0.2027784674582895, -0.5254961888934147, -0.40135960942903615, 0.4753685277295568, -0.5896070228538453, 0.251591024664765, 0.3859133790097247, 0.720510126937175, -0.8127360835100295, 0.7524225370762193, -0.7159753367085485, -0.06884986376208194, 0.9629022662414255, -1.0814775931483565, 0.1704254370325281, 0.10917220771894562, -0.9306330338126297, 0.21362592278847858, -0.4844575846882845, -0.01096986157067091, -0.2857794261121216, 0.17175247138261213], [-0.7000410078790285, 0.4293476113454404, 0.9170970193502548, 0.8502566162752256, -0.18934936085233112, 0.37019498333950557, -0.15416041296899213, 0.16406147347958605, -0.041127914260813705, -0.09837405846685192, 0.15886535927059223, -0.5010120078594417, -0.3271607822885503, 0.18763864441197764, 0.12030358456112869, -1.0421885191274325, -0.4258429512841755, -0.4482153929514082, -0.1537066225318534, 0.7312589685158666, 0.5438631411123687, -0.057706467715809576, 0.9579400951073743, -0.8527022623519064, -0.9736591652514229, 0.7467662013226066, -0.7154814550253891, -0.18667627284562927, -0.5537451233361503, -0.010000508927441282, -0.23174548739935097, 1.3226824106105568, 0.2753915656750785, -0.28019701144814885, 1.09272659477895, 0.08898229251754955, -0.7325773129235226, 1.1608783160054579, -0.40184187070138055, 1.12046394606262, -0.5133122200075749, -0.5924713886213357, 0.09760696000452271, -0.08731472863250295, 0.029355234687348852, -0.014924479973008005, 0.015474852507673276, 1.8254176347014135, 0.18046975062138917, 0.16585180393628524, -0.029940349845272524, 0.17034451141131907, -0.399393688273475, -0.007703124206792589, 0.541643282805586, 0.4803782320609322, -1.1260351869109553, -0.3161065006765567, 0.5914359736637175, -0.06505900978868326, 0.5781105627985027, -0.5406616156020203, -0.753867608646339, 0.2459329325159501], [0.32232036333257263, -1.819163033455614, -1.100122564932578, 0.03259555260468147, -0.8462858656416336, 0.5585421050735497, -0.35272693491620205, 0.3813699117372322, -0.115511000000704, 0.2796255963107775, 0.8490582515911247, -0.8083589548064629, 0.03577154114329367, 1.2059816006016657, -0.0885998947400741, -0.43328577660037887, -0.8879631510435244, 0.5443735327631332, -0.06546488555624008, 0.872035807014308, -0.32824774523041567, 0.19511345548092807, 0.27414196729035606, 0.5923857567338515, -0.3379502692681138, -0.05173027988006685, 0.639083780187333, -0.255520779843088, 0.6805923663232047, 1.1893402901717764, 0.3115022297260273, -0.782042962793773, -1.1303393468291199, -0.8567053850654027, 0.5057427779845557, -0.1966090638491519, -0.4502991866365719, 0.16034020749185096, -0.6373559175598015, -0.4666329623110409, 0.5179130194485005, 0.06255948774997441, 0.4868713240427719, 0.6253846065009419, -0.8131974124372217, 0.7104037389978151, 0.5081875676307962, 0.6698367359701584, -0.5200291598682076, -0.07759774553051199, 0.04578840279419623, -0.08943284833108722, 1.0377447453111144, 1.045529684613658, -0.2771723262086853, 0.24070882713353223, -0.2567817163072895, 0.2502353338668492, 0.15931887480397616, 0.2892880000566531, -0.640802729977996, -0.033788751401382155, 0.4143748746813154, -0.32482278014452565], [0.38621096260373644, 0.4378284192706763, 0.9194111762382388, 0.4076355159697989, -0.29487319992077676, -1.0560269253019352, -1.0469509788723808, 0.2382782543443972, -0.40288972151325486, -0.6887988286490849, 0.5585232979574891, 0.7854980931375669, 1.1128610357667994, -0.057736668361772436, -0.29751206527532853, -1.4624605429922906, 0.8152134876379924, 0.39479107063944535, -0.5548841401716964, -0.17546958068766616, -0.036556254903223034, 0.3443039828540194, -0.14057280581057977, 0.6391713222568923, -0.001215313437058843, 0.1204506980277768, 0.7343291005177358, 0.06548992807538584, 0.935852055809319, 0.31224531053101123, -0.17896004771418128, 0.8278692693020593, -0.2749202736098396, 0.2562870738019087, -1.3441899373365342, -0.10697407364527878, 0.21519504177192894, 0.018351837179690758, -0.3062745128640227, 0.3041851742063693, 0.050689507031131995, -0.5365439847745505, 0.044744875730180655, 0.2877791362861744, -0.4893468221766778, -0.19886740150530904, 0.5423233955900971, -0.15614845537440378, -0.4088376215515069, -0.5975686282934882, -0.4634978359511127, -0.27940283123803406, 1.0744091513785752, -1.071909905037445, 0.07019512661747035, -0.3418545405599156, -0.49572046210461945, -0.37358181492395104, 0.6191804542277826, 0.01777882154588628, 0.14933041008321482, -0.3619591995504117, -0.08321957574983765, -0.5931240494169727], [0.25284286878001805, -0.5933379145881645, -0.33210073185289896, 0.44323166745811243, 0.01799090035201159, 0.9328493606059676, 0.5561604583544543, -1.0943584011181593, -1.1226054011145488, -0.97766308053196, 0.33045102179823077, -0.631114422398044, -0.05920522203843792, 0.1992092990098591, -0.9149626608676611, 0.12669655726572815, -1.167282225404225, 0.7610904464006158, -0.30790668476143784, -0.3670079988601871, 0.07946510083708408, -0.04345089315703546, -0.05453256497816714, 0.17078836329927466, -0.16181540164773678, 0.3400604228431457, -0.3566927023324164, 0.23038209880672753, 1.2378950340037609, -0.04836967118853959, 0.7138427423958802, -0.1786507872735953, -1.262549785659314, -0.17125947083332893, -0.22092371181608114, -0.28529700690445975, 0.6358027668745423, 0.21813845201358942, 0.7683886318519928, -0.1039425231113519, -0.35907954787977314, 0.18740585064857015, 0.5454798831698384, -0.4259369845560808, 0.626362303797531, -0.43953211845108, -0.13351722520321585, 0.6597698066106124, 1.690636643713449, 0.37206423980189307, 0.1475104587126855, 0.41743497718070255, -0.15358535679728472, 1.1332848127538777, -0.060621634382883774, -0.4484577294456843, -0.5139372459548404, 0.215456741156924, 0.13273242036399338, -0.07163020892101196, 1.5328851755668684, 0.6157706572927528, 0.733625012681067, -0.0998022022698636], [0.7807025924670803, 0.41382659792380055, -0.04114132942156981, -0.13710853217072982, -0.2802339129334639, -1.6111603148117226, 0.01244749609365503, 0.1828323868381258, -0.5643519007708504, -0.7158049387505572, -0.04444725310479142, -0.6490640198690092, 0.5371141239581787, -0.006577610095005293, 0.4344038601887415, -1.0173263920633597, 0.8757396665986835, -0.7550483133264856, -1.0973130801936257, 0.2110186711926807, -0.4063504960754828, 0.8498190623317136, 0.8431932572567304, -0.7056129079071093, -0.32766234155935414, 0.3804731742521645, -1.0794064791328801, 0.6728519564855858, 0.3337518908397018, -0.22794056252454503, 0.49396763464003934, 0.3954193321480679, -0.6942748357320075, -0.5198813224740404, -0.2989055449367364, 0.13809363612822026, 0.08467648578894414, 0.044626014048201504, 0.7636373289968013, -0.5648710342539714, 0.1349667228561273, 0.28906088127362567, -0.2287895309823811, 0.35527248428373126, -0.2318205764937336, 0.6137878503590504, 0.0070220207713546645, -0.23543831536093884, 0.6787992060420422, 0.29846005338348386, 0.229930079277418, 0.04187427689077808, 0.4119887126720432, 0.3655027275472462, 1.0369305582867805, -0.46672124619896876, 0.8950453283926911, -0.32396340888421277, 0.2328998183926759, 0.6820945106466653, 0.46664500080782506, 0.7133462700000204, 0.2930770675685027, 0.3826290650720146], [-0.09785588945558327, 0.09933975460801187, 0.17784193796372558, 0.10971006549001044, -0.8869261203610836, -0.7364611640539127, -0.15199483259977675, 0.2814325797293965, -0.10286034593474366, -0.4038576159990556, 0.04369550864807936, -0.8946089371169115, 0.19995946580154134, -1.4328979456939885, -0.5871553566523006, -0.4769953175033223, 0.7453093954988316, -0.722988607355713, -0.536606242818481, 1.007847296024385, 0.01453285539691982, 0.3309422312070317, -0.08938440537397141, -0.4561879387466057, 0.26425311941636115, -0.2598540555993629, -0.8510562066386248, 0.5182052591026957, 0.6045362195702582, -0.365335204838048, -0.7941948499348966, 0.6136431472971964, 0.9920396615700369, -0.07835394051878299, -0.09368838968842513, 0.2441191527543764, -0.3499912319413965, 0.1471481668691505, -0.2116207143554896, -0.6063745567655594, -0.053224463097976016, -0.33216195197150755, -0.43089882526803885, -0.3956557781239912, 0.41999602453178525, 0.014654223702787572, -0.5310519770485733, 0.9282870731001398, 0.32997192329956065, -0.616759602985565, -0.6426588007731673, 0.3580314642484789, 0.7770090872693356, 0.12073113585199047, -0.29734040139359746, 0.39894104126670044, 0.39010130747483984, -0.33919962016993876, 1.0273038182904457, -1.0482159018879162, 0.2963890820516943, 0.38276611705125047, -0.9106957525266752, 1.0357915696271538], [-0.40657491515481775, 0.8893913583271824, 0.038682867920596525, 0.1287677376997789, 1.1485282998526483, 0.9749594402493569, 0.2537967811020592, -0.4846016183146704, 0.08035328660735344, -0.706568429649432, -0.41949655453432194, 1.1571641656992186, 0.7362678163442191, -0.2566425850978004, -1.202037616155422, -0.011079957282438092, -0.7249710185719295, 0.05207800008032379, 0.30622492156706604, -0.18381444903312294, 0.7360769615815782, -0.27694980498881394, -0.24946103582183093, 0.4661307368957147, 0.2704957049787078, 0.3407160657386344, -0.021197387678267954, -0.8711732802597906, 0.10257191300248811, 0.5667351039920602, 0.7926125751052958, -0.5318729810532965, -0.03330642243519666, 0.828404044391251, 0.5763554789877402, -0.04259139900566922, -0.8672069051234957, -0.3246614045753979, 0.3617843932922101, 0.4863372532058662, -0.32294626007161104, 0.20987870102690145, 0.743168643622697, -0.3095808814894023, 0.17490476553132556, 0.5204916521085003, -0.1520150592530831, 0.2203172936493204, 1.021608005420398, -1.1214602469934443, 0.5754781444398138, -0.13465206923784306, 0.755146472067453, 0.685258412785991, -1.7602900811457864, -0.11473286529512482, -0.17238126788054253, -0.8890540273702405, 0.29514436785784914, 0.6261081140075808, -0.5338887541902257, 0.24976284228927836, -0.2918590681034896, 1.4687116453663005], [-0.7526483871673901, 0.08839757154747097, -0.09598169689125802, 0.1012658755243076, 0.3921667363836836, -1.387381375372621, 0.701707801374891, -0.05924094258400825, 0.8424379610176687, -1.3080314163194957, 0.17049879183595684, 0.2435298180917787, 0.4500809907314507, -0.605743997090207, 1.19401086005372, 0.33180353324196343, 0.359245642448372, -0.6499105307237227, 0.00900621414632262, 1.1864937106046625, 0.4171771229416812, -0.5745800084193244, -0.726348378272728, -0.10620665432989179, 0.2142232919442129, 0.24909996958185832, 0.5444693436626165, 0.38983164352507016, 0.21011826524311478, 0.2592015694623063, -0.14238279979027268, 0.48187710110947984, -0.13463033672929728, 0.4293477137726591, 0.45900179542393005, 0.6351108413934571, -0.8414761234033852, -0.21642159496627464, -0.5017124434402628, 0.22807365346222158, 0.7517387565360265, -0.2733753407542275, 1.1331103591542742, -0.03633345538059693, 0.19855269100789932, 0.03887660458224296, -0.26481137359288676, 0.6169052730301066, -0.24899531262776065, 0.213962039571765, 0.3161032323735209, 0.18408289291138896, 1.126815155367594, -0.388853130292139, 0.6637545866625595, 0.6973324035421428, -0.6415843662239065, 0.6903861143364012, -1.3599862671935428, 0.8358186586417498, -0.14736343417561507, -0.06663941047760255, 1.047854874880653, -0.0497908351210061], [-0.8566168516118582, -0.4806214124317179, 0.5581321038956426, -0.6549430326458853, 0.20277960086962227, 0.020251137142336922, 0.4035933149470129, 0.3709162706478619, -0.6775656680802533, -0.48049379463640135, -0.5994016081910338, 0.061196494108649996, -0.871717595725252, 0.309478113222489, 0.34380362401305414, -0.49214999707678275, 0.8398225643038222, 0.20756592809529645, -0.9068879499994743, -0.49757104727564616, 0.5551555646053759, 0.21110058200128734, -0.8428523636313614, -0.40130893439416776, 0.49753178109025464, 0.1366219785399545, 0.1689589847248164, -0.1501721195467448, -0.8069932472340124, 0.14836208312925123, -1.0800108901964751, 0.34582293040083756, 0.1787040291425408, 0.8697585191209195, -0.8542345805522816, -0.7995767561300648, -0.8985889315119381, -0.011548747081072508, 0.6151451446214855, 1.0456662816599427, -0.166457389246509, 0.25695678635087466, 0.18438291994638834, 0.6089670355853715, 0.12461052355001095, 0.3040867183554085, -0.20784368264505892, -0.10697796561527942, 0.3835313559264429, -0.1368411381009928, 0.1723088366299691, -0.003962122462632223, -0.044512352162439844, 0.13729306129620533, -0.21350288613234547, -0.3036132393090127, -0.6689728071705325, 0.3282370112490107, 0.1761958871314313, -0.5421051646271378, 0.6764419968708417, 0.4970116670538598, -0.5344007315224665, 0.21445377169910584], [0.05812407717569408, -0.4081494584718721, -0.30577881736243695, 0.3220787306186987, -0.5991086340946181, 0.17318877041497802, -0.28520078198572707, 1.880768958368223, -0.2944835092641561, 1.0910759707578317, -0.34552716638858083, 0.24654603191490437, -0.5907556132549967, -0.5069241943074039, -0.3874399992367429, -0.7702708310264128, 0.9897432034258511, 0.6926684240758642, 0.6857233942117936, 0.37731623188041274, 0.788193126643575, 0.0520205493241275, 0.17801088663031542, -0.06917148013269858, 1.3337740569017347, 0.6000763583430873, 0.27466674474328256, 0.5504365135433563, 0.027474771365843753, -0.6052108056261531, 0.25439202015913864, 0.18873618897353825, -0.10164979184260661, -0.5853734038037184, -0.6057776799154793, -0.23170515620880378, -0.09602044440460988, 0.303077641795352, -0.7061427555810296, -1.145371218275514, 0.7265310388907602, -0.6671497770964395, 0.3037560659655317, -0.1533074997348594, 0.1446339308064789, 0.22772287791170293, 0.14152169398641395, 0.4797017828733299, 0.21348512866208338, 0.6494766728246224, -0.7302912001644098, -0.16746007976871913, 0.31034066052818626, 0.455011510313416, 0.8039736411903537, -0.9015732228304245, 0.2281205673261978, 0.43664221284524307, -0.865240351078225, -0.06859907758319436, 0.3410796902809755, 1.4765157475362714, -0.6517648435669473, -0.4903085002659953]], "b1": [0.0, -0.118350294391566, -0.22601111944641272, 0.213100140891707, 0.32291889160206566, -0.17494243017021782, 0.2482594187247411, -0.3815180574912839, -0.09103696089787656, 0.195570724436873, -0.8251036635146797, -0.8216145977030429, 0.044375099817496794, 0.5709945697492885, 0.662528881192695, 0.09628688712860972, 0.1443668358581751, -0.05224029478318454, -0.24835906682737338, 0.03566936347441048, 0.23788253916846291, -0.20470801334090444, 0.21004401923218363, -0.5579208798940749, -0.033475160839191054, -0.6884997689002686, -0.10731048597125831, 0.5223934076890191, -0.11721726898643632, -0.2032119866540487, 0.0628673890362699, -0.6395445329214792, 0.21922582129061227, 0.45572641748483705, -0.05514495860013377, -0.16595207661738226, -0.08587935416050231, -0.6193353636126292, 0.01096508297738065, -0.11629717008179336, 0.0, -0.12619507550355685, -0.34237337442529525, -0.1702838830036484, 0.0, -0.007351562676545714, -0.047707231160646964, 0.3178370925189923, 0.9873333746913903, 0.2974074202185601, 0.22456896602424659, -0.3719855765357454, 0.24258165336751145, -0.43138281734138184, 0.5292640641840505, 0.787347207933401, -0.0973471626923715, 0.6094679926720141, -0.3348691400215434, 0.30488829348882984, 0.6192957821345052, 0.358407193356026, 0.1778118967167391, 0.3484282652570419], "w2": [[0.23844538953769487, -0.379159213447743, -0.12136682865706785, 0.7034251459718907, 0.495499505102989, -0.8737657975824182, -0.28868239872159124, 0.17392356300942163, 0.4364243912710827, -0.35068219036323833, 0.22026556947567832, -0.13835413807221053, 0.33266954004397314, -0.25191292492697237, -0.23840204156573674, -0.23021622625180033], [-0.36847429139225923, 0.4736417666470995, -0.008780681667149973, 0.6490067513384878, -0.39889705414449433, -0.05792307536737664, 0.4896264798829473, 0.25106259157762617, -0.3464707520260924, -0.02242259729859505, 0.02379200595809398, 0.49304020028519596, -0.014256059700545387, 0.43634580668734557, 0.6266336012554838, 0.13258577059051602], [-0.3010177339670724, -0.017165586239232172, 0.7955481775425872, 0.045750345547254934, -0.7063846290237009, 0.12718738289597856, -0.1698558664176985, -0.07742034003226336, -0.13402334413247274, -0.49533393357741273, 0.39513238419802754, -0.15537891552608374, 0.26625101548513064, -0.42163420219973546, -0.08754688504069565, -0.17930318748069876], [-0.0032341732418214135, 0.17276762637158322, 1.030475579342417, 0.10326077152518959, -0.6113021092166179, -0.15859484185073885, -0.1599066932963897, 0.4419716702068519, 0.15022767880183163, 0.8542701910586459, -0.21449399330850055, 0.562084482908999, 0.38572243497066194, -0.3929168346392811, -0.6115695503881888, -0.36786168217150483], [-0.569636006518036, 0.7490903048463632, 0.03888727210825585, 0.6285036926100199, -0.013943983795314197, 0.32653006128557316, -0.2095743181858919, -0.011416250362744726, -0.024509966817231915, -0.0505494148493332, -0.044521680112767026, -0.22702238688209894, -0.15424658072171765, -0.4934103553827459, 0.265677192599476, 0.17268332590369273], [0.0037854654766730053, -0.24701388363367968, -0.2537161418587646, -0.07499923352299245, -0.2325125973343717, -0.04639080464352416, -0.32555492311755463, -0.6790430280280678, -0.06657807746275213, -0.11468362397810439, 0.03768810543273386, 0.25420664808903687, 0.0022767719482649634, -0.02019758540936803, -0.6376583873162224, -0.6336508127800946], [0.8102028506491551, -0.47943735275618815, 1.0861788214030312, 0.8026404762504278, 1.1423480481357307, 0.11326307108102675, -0.10289727440477314, 0.7685297077886579, 0.4978831436385911, -0.1413516904828263, -0.2491830974557371, 0.2424845520652057, -0.13637591889097886, -0.5249877577571394, -0.7606302353992831, 0.39091838898012565], [0.509910911568758, -0.7691602107391731, -0.41582340692330777, -0.3955448807053453, -0.39221915156807374, 0.05112639156364393, 0.3262187479061579, -0.4676350039001953, 0.20017134013417268, -0.13526719488815603, 0.4243537845655624, 0.1180854645856281, 0.2503604637317054, 0.16816448819086122, 0.2835064973333915, -0.15835551467637668], [0.9553880595208779, -0.36890361489185775, 0.35933159744349097, 0.24799753628488377, -0.1305475475563909, 0.6507812693316845, -0.5496055125935533, -0.34519063766858504, 0.07677602914003039, -0.4013530899741832, -0.16280138347437967, 0.12992173564106607, -0.7443506082512623, -0.1790535993550464, -0.4046293142718057, 0.22517648086260098], [0.09609685327153514, -0.2398544384333496, 0.9540359947042065, 0.22518512354632128, 0.006559482931983718, -0.21239786802030947, 0.37544540297860285, 0.5800119186866886, -0.22527941899043577, -1.1646531517196217, 0.38598771515133357, 0.31366420844922394, -0.39828395168788117, -0.17999569617468544, 0.3147873029730334, -0.3499124866916381], [0.49692923461915456, -0.05950222648112061, -0.5160284713025531, -0.41908520371929386, 0.2920274545572132, -0.8533715688734427, 0.0750427979131008, 0.08203784333763614, -0.6003222609869052, -1.041669940191544, -0.18981048249864763, -0.22218099156204013, 0.4651981453817787, 0.15456586577827847, 0.331124143779853, -0.5162936061438833], [-0.8208083078410053, -0.41539408289231744, -0.09988361809518334, -0.16935315656911445, -0.2684534254549926, 0.210073039436612, 0.4611914798114731, -0.28327493144314153, -0.990322416668498, 0.3611033378268919, -0.2046186652968736, 0.22404156805928968, 0.19918835889315922, 0.14224274797251762, 0.21690318971397976, 0.3105767396326317], [-0.44794740462071414, -0.17225086832901815, 0.26294169969823755, 0.12958112201978278, 0.35515213259484213, 0.16069846718077155, -0.11387189525302382, -0.7974792839230951, 0.061214060452130854, -0.4265296359577378, -0.01839657169581263, -0.30993543143612334, -0.7650400920620549, -0.5494819918050489, 0.7471435600567237, 0.08752788264318574], [-0.456304179163892, -0.8886211631017467, 0.08197042601763388, 0.541743045947346, 0.46594810870982084, -0.656283783279418, 0.6962678185127567, -0.028083725127114066, -0.0513583947266706, 0.15549460307946092, 0.2791318840986743, 0.25562906359680204, 0.7862029613552116, 0.1912916840123948, 0.33706537585198887, -0.0013518982417682623], [0.7118274461311301, 0.22919921744737887, -0.09495407869671738, 0.34911556825694046, -0.6421224450422154, 0.5777377296281554, -0.0591244303610943, -0.07788062964272432, -0.2984900321381724, -0.3650100325425444, 0.0895079896405784, 0.039421481126053065, -0.445597297702398, 0.389246257154091, 0.23697765862046202, 0.11707733345372935], [0.027015159054337698, -0.10128311098820023, -0.18604545389932667, -0.47637366588252583, 0.5416427778850408, 0.16255117235204353, -0.5553037994147644, 0.11739109556571958, -0.28231978948161357, -0.6031560186972701, -0.5451406135691108, 0.1831116896968955, -0.06830809665350475, 0.08549421979459741, 0.0648217618421541, -0.5887171181127586], [0.41578302258444466, -0.3679029798537516, -0.09940016915443944, 0.008886963471940845, -0.030338999309921746, 0.6959746551509352, 0.501469465955628, -0.3542604211013705, -0.13627488885250744, -0.19401602294716022, 0.6296864296494518, 0.08254513563246313, -0.04005993950819131, -0.0024705449287683867, -0.27817194813398616, -0.2452599166702693], [0.2835524387298096, -0.1336984008452287, 0.40701588046088716, -0.48514700804565264, 0.15085851538581938, -0.4471499053349869, 0.6618504615293589, -0.27421071734769237, -0.7590658274650307, 0.7706081858328327, 0.05900437662232249, 0.25601904024004607, 1.0104925365200934, 0.013976751248362285, 0.06662557718749411, 0.47412247739434354], [0.5257276240632702, 0.19723560810681912, -0.5557499374793553, 0.3613421377622519, -0.09944285170940892, 0.046334899825953034, 0.27942826540502785, 0.13640300768101474, -0.4304584201841454, -0.21082480871355833, 0.1733275461015931, 0.3285871920707986, 0.7183262718166004, 0.529709674895637, 0.05770345348011949, 0.3600664368613089], [-0.03441470982329142, -0.49930412981292205, 0.576335903077403, -0.3528800821095464, -0.05600638113423528, -0.06015430033022099, 0.1447915147642015, -0.23857467268521065, 0.9844283805673196, 0.23693823661683772, -0.22533346277549313, 0.3236308502243723, 0.5467782719276444, -0.22907304328887623, 0.22158873218583325, 0.2858927731307386], [-0.028714113646889226, 0.1645258824427739, -0.7383660081440051, -0.11270085521153421, 1.065488211690953, 0.4930693988797492, -0.22725889661313145, 0.5428971108113761, 0.07376766296298133, 0.1731567096374418, 0.3601208455653437, 0.23162603900981565, 0.24130697977640164, 0.13369659463477496, -0.058140440734571586, -1.0503848946247554], [-0.24021004050215367, 0.3311875922481868, -0.03339193448884366, -0.446342918088541, 0.3073376791794703, 0.07852241458208899, -1.0909272352458896, -0.39496800021628065, -0.22575396563284192, 0.2470395742804149, -0.3102885462171215, 0.36920072053052844, -0.4961070146729837, -0.13743388476955656, -0.1962257073868345, 0.20854884530868312], [0.0651078214896359, -0.10473782910846297, 0.4138161189867071, 0.6664967528723135, 0.04004172479098789, 1.0284617670284069, -0.5131140139115228, -0.4162940703101512, -0.1947628478141829, -0.26236769343361743, -0.13235012694454149, 0.33459099597060704, -0.08678485764307992, 0.06157445679395959, 0.23398892086407425, 0.3953195474696687], [-0.023318379667791822, 0.31206946459933294, 0.374631207480317, 0.4421989430041391, -0.14981661584482664, -0.2742362422324011, -0.4959257766896885, 0.11724489488855322, -0.03931010321010961, -0.2558094596939082, -0.036597198237009146, -0.3523686632139523, 0.1762217494029038, -0.4929469180045174, -0.04170244511239906, -0.032524709047499656], [0.10768477335093024, 0.13420113647376097, 0.06952193862400366, 0.2134901845155606, -0.334807152134378, -0.2359789327051005, -0.07700805138193292, -0.03525730793517109, 0.07830989683971422, -0.17309814763494924, -0.13218470818383798, 0.6088402594311086, 0.5544271989250958, 0.04134245681354963, -0.36444689092855287, 0.9827845548200762], [0.014343812454594623, -0.04569927233522131, -0.06647792110061546, 0.11602437176143153, 0.2053194096970382, 0.2902309323204145, 0.16386358451227007, 0.07629587664144892, -0.338476889699141, 0.3815648320702139, 0.07606867229854197, -0.033247115960040874, -0.3270095787433205, -0.345195640850371, -1.0169301296439253, 0.6350363014817313], [-0.001986960151019698, -0.13910908273985356, -1.0070297729288664, 0.008369900965516722, -0.3965784371860861, -0.2747372539554246, 0.2193717711645052, 0.084578134146084, 0.320142583530201, -0.011572793368543999, -0.11314453507132083, 1.0455964161472713, -0.18182922639599192, 0.45085560582653694, 0.12927473640972315, -0.025864703072768926], [0.5392393184476728, -0.02420466588033321, 0.43307212268334144, 0.28997318647120723, -0.3597220305068842, 0.11801672963016074, -0.24009255157090242, -0.5885968277419082, 0.17064883500181224, -0.3803060284696351, 0.3804529624559234, -0.8023937563815091, -0.1831946018677815, -0.44182926029927105, 0.08054994511909794, -0.3131601596763903], [-0.5945306593566636, -1.07904144184277, -0.10246756955036532, 0.06711111390076505, -0.18271570293415182, -0.5027947381726964, -0.2140632237066277, -0.05634652658089978, 0.11583131799414295, -0.2306583414383272, -0.21523116120680563, 0.2785803219394131, 0.5215439679542819, -0.37300688681125194, 0.3599272630230984, -0.02104149069829958], [-0.5364712089563027, -0.11434647382714992, 0.8559589667127047, -0.41968199087263053, 0.36657143516497814, -0.7589159868107607, 0.06323962298854946, -1.0767888478346537, 0.2776691220387404, 0.04562817080565049, 0.3196538056682627, 0.13629547065108838, 0.030209015035159104, -0.49678824976092173, 0.03832194223009133, -0.4689256231000213], [-0.10564153996345338, 0.1252219274737562, -0.610772228617799, 0.19485624289299602, 0.9745578179925561, 0.3399591521681776, -0.03447606759170996, -0.49218970322974454, -0.10511779972469242, 0.3746225385447482, -0.10827006891832239, 0.06739289053132691, -0.39423536334742565, -0.7916790824383956, 0.4742399989624835, -0.2866926683639578], [0.015944516003955717, 0.1114773125328057, 0.21806691555116098, 0.26516118282835294, 0.5228791146695326, -0.062143908733805736, -0.1279562965727638, 0.19741683882800193, 0.08588488086747748, 0.8458744315216181, 0.40360942318486426, -0.694716013311919, -0.36832958376473324, 0.17713535592311427, 0.339629089525857, 0.003499776070843501], [0.04261870205195989, -0.03747085270925929, -0.08939463406782511, -0.31320769561603057, 0.5778402002100044, -0.0650612791619775, -0.019160040150923374, 0.347002314143202, 0.4587126234087465, 0.8372616514834437, 0.7070945222601852, -0.0350880332466989, -0.29680900152668005, 0.15990561140658394, 0.19722857391472653, 0.500390322088328], [-0.33026510233872935, 0.00350275992778944, -0.008074665092046698, 0.9721250854577721, 0.1669881926184263, 0.24693676254758246, -0.22244197097024965, 0.5725837337976122, -0.6776744948576836, -0.3965445170431887, -0.10228927421818361, -0.23550141869577224, -0.5897437554513423, -0.47849190070056336, 0.15446398218745822, 0.13123052734198537], [-0.2704412283494383, 0.18326987338673498, 0.6004189261732108, 0.5485095772439035, -0.27324193133794894, 0.5590257457294153, -0.01077664763259839, -0.6983663428543396, 0.1251628848370796, 0.1593803709914819, -0.7680283603309459, 0.33005268022535295, 0.19578060860905622, 0.14503907322366563, 0.3144330483728602, -0.05808979739851787], [0.22989844986027316, -0.15690328932011516, -0.2857442224910507, -0.039678899004033014, 0.3664197009782201, -1.3197838413416734, 0.09072810639544558, -0.746817753690064, 0.17569260950411592, -0.22816499523602038, -0.49399132856354305, -0.6638917858890303, 0.5734289483300435, -0.10647144312156702, -1.1058451142275458, -0.32437855800353094], [0.790988835767769, 0.8966762542355772, 0.3025398237253911, 0.9673119145169822, 0.30348839730431887, -0.10836232055058606, 0.6869681238694179, 0.555464928044351, 0.7312719947115085, 0.2873156463047809, 0.21533058528428153, 0.1809056542390395, -0.1232664456397252, -0.13459315495005664, -0.6508305798480587, -0.053169389880308254], [-0.6175424069285718, -0.35827400926833974, 0.5380879129734044, 0.13039984279243477, 0.4723785029781631, 0.2516276436469796, 0.6783374487287889, 0.38287671173093013, 0.41461854029324685, -0.10849647586424739, -0.12964635622244047, 0.18476847586973796, 0.20733971487365527, -0.3408065823764066, -0.12322441832526275, -0.7490128775333533], [-0.2926100436091176, 0.259206605410798, -0.6611461807742414, -0.18478588102251287, -0.8304660546496672, 0.09399407264538684, -0.2408333571905174, 0.5216681650479682, 0.2929115028091386, -0.2082645247854651, -0.06172360004784011, 0.3611812682547292, -0.2518688254673811, 0.025820542338140476, -0.3338234643676109, -0.18672590584309828], [0.7253582950412039, -0.1533680639384163, -0.20639446199344172, -0.13631597598782635, -0.019577048231542993, 0.36024573194229575, 0.5115410968831976, 0.08225087747194335, -0.07508118367528097, 0.5656469240557698, -0.5459560577487441, -1.1091171158980018, -0.1601414892783335, -0.6402702927668138, 0.2205250474560492, 0.2930583379354744], [-0.032073737020701085, 0.8884024894040076, -0.10921035098212778, 0.16869442053292982, 0.5236070204128007, 0.10923965696379458, -0.062341270385061154, -0.2680482209761229, -0.11373344353010124, 0.03940392483873582, -0.40105822403803043, -0.10314650713006186, -0.8083245170414111, -0.46309642019976893, -0.022680899091008663, -0.7953003891073175], [0.425852294017008, -0.03712720686354942, -0.13132771771085922, 0.23870818184954512, -0.8227853910529693, 0.22813852074447144, -0.13237883544914222, -0.06540016829943918, -0.6298343610440077, -0.07436615035766109, 0.18955348114844983, 0.114013451535176, -0.6189734592909217, -0.24507529705641423, -0.8823828157177791, 0.4130163360146872], [0.42336195153113243, -0.7933784489528747, 0.3084785149762566, -0.26246493403804233, -0.2507371476182451, -0.46169315130203487, 0.31965711291613846, -0.5289978521452541, 0.6503894489517527, 0.10676784538979006, -0.47134604844619066, 1.1345170711921673, 0.368403416500203, -0.25016543229837135, -0.6267021086988904, -0.8758740489418338], [0.21594013221964178, 0.2768432232060947, -0.39984978443067276, 0.09384768478866683, 0.11385078368212809, 0.09383013171495436, 0.15364902742374376, 0.0809934038252136, 0.5112802222042162, 0.48559462352507354, -0.2407244183345149, -0.04550027721240174, 0.13160071648815452, 0.3489456956348112, 0.09012831006696355, 0.2740641621577087], [-0.07203318340919052, 1.0548414620748598, 0.6240396965632407, -0.5023281250628137, 0.16131731614272446, 0.07286613514515178, -0.4868843267459111, 0.6633778468037923, -0.32525648713312105, -0.2519634661273383, -0.4469728226353852, 0.19279698058835776, 0.3554492418832835, -0.20315231715277038, 0.32106886907328896, -0.20619777572869208], [-0.35675057921540587, -0.003191093684005079, -0.9340239681288016, -0.44426511037840044, 0.3553689521824876, -0.8451503659445634, -0.11226388519992991, 0.1793128217491431, 0.6351765932242639, 0.09614343382465068, -0.25099229261695477, -0.038774190511555395, -0.20794110942227031, -0.2700545240971173, 0.22488962615953606, -0.14918413934610114], [0.19271541826686886, -0.45380332446971444, -0.14710584575155922, 0.14816758320941334, -0.12421311483197192, -0.5677091564379783, -0.455357677542879, 0.24636312042183262, -0.1531246950395579, 0.13614335291045182, -0.34017781025693683, 0.1132021709828627, -0.3074878780690946, 0.701742905122922, 0.08201647086596489, 0.3829323497176349], [-0.21388170910653007, 0.007131590595072276, -0.2119662086470085, -1.0125076792147838, -0.06790203836632683, -0.16348121895341058, -0.6076150070391932, -0.04707131392341063, 0.5066282164978761, 0.06331215233390422, 0.1349924245427552, -0.1747471713916598, 0.07761554549142224, -0.18801707806649176, 0.21299900974595307, -0.2625210129361586], [-0.07189484608661789, -0.013452558878674359, 0.022077374451265952, 1.184862216109806, 0.4499255569900342, 0.18980910142124197, 0.6933792136274778, -0.15789333319052853, -0.09152282680967909, 0.6815904521488942, -0.06219503427603312, 1.0783124321558843, -0.44716915681470926, 0.003025721836993074, -0.7011974418396064, -0.6576398856337439], [-0.7986837558397374, -0.5153830684147916, -0.44494914404315794, -0.04353953183950843, -0.4489702416493507, 0.14973886049980137, 0.5091478181508089, 0.03931357171425953, 0.8584025228486888, -0.10652617119528868, 0.13387376187833408, 0.16325330093720666, 0.36536447432615654, -0.4765414918014531, -0.6818869908066201, -0.01863932573520624], [0.058186489598356594, 0.13338814135175386, -0.20972979187440463, 0.6859085035721839, -0.20743352058509282, -0.25145829226625743, -0.4486944549733688, 0.3452852437079373, 0.5703843037387402, -0.03423370537707021, 0.10886457454229745, -0.4109438275360149, -0.03249718960585485, -0.2727936552504558, 0.3167972501000189, 0.4541013144399915], [0.3039474430881366, -0.8981752363119065, -0.05553528474071143, 0.19016707051180923, 0.21208402676659918, 0.0347315374304502, -0.15046467941903433, -0.07793980139294708, 0.21397278728714847, -0.35990062611099705, -0.569420385012882, 0.28095626200302126, -0.3641170194311316, -0.14402871238349052, 0.3900722052879207, -0.636128667548047], [-0.04950610653628865, -0.3094713365371397, -0.14727750417723434, -0.5921675798785134, 0.5203407077298002, 0.31717508749234163, -0.16534275681847915, -0.21093194038520394, 0.23815103624286413, 0.3383263888606696, 0.003131861687764928, 0.2673636188376248, -0.36376248570096553, 0.020434915826371605, -0.3995486527326349, -0.1322992752024862], [-0.09122070706062727, 0.31983800398948814, 0.1272615303058104, -0.19743478903307266, 0.4009346181611928, -0.23487918393438997, 0.47065346826430443, -0.030551791287745128, -0.6901940282264546, -0.4030277791903395, -0.3602971140086405, 0.5495848374203764, -0.20482616148126975, 0.5266468528615087, -0.8829679000530326, 0.3781371456994604], [0.5261982585442114, -0.1003734277354503, -0.37693304040668524, 0.09997243228033648, -0.038098289014702164, 0.6990884467809285, 0.7670482301842592, -0.4227577198657364, 0.5173589814013843, -0.044759401873644106, 0.3541334136309582, 0.36624303872632474, 0.4486405217477808, -0.44740307587386297, 0.3757087253172404, -0.15272962743832846], [0.15365193773230112, -0.04566274737568196, -0.17921946614195794, -0.6365045680619718, -0.161309300982283, 0.11445237727286228, 0.8448682172245725, 0.009172043517745108, -1.1572862321880035, 0.35369192999229726, 0.027642177945443575, -0.0523161199651076, -0.48187811644735584, -0.2880464382874941, 0.20991298726921426, -1.219805045375399], [0.3522473577769446, -0.39670317915648695, -0.023633942458067436, 0.46964269896568844, 0.04859965217350673, 0.07941307887808806, 0.2928159135556296, 0.14393805588882747, 0.385850336629709, 0.27683923384362985, 0.055369015227772767, -0.3846594092504159, -0.17761967183638025, -0.09437805836348133, 0.17002293585073133, 0.2878792482693082], [0.07048447748863308, 0.01802956156196417, -0.18838843519096155, 0.5150725144678419, 0.38227350243923597, -0.03001088377410449, 0.04729459786232755, 0.17456430902290374, -0.47786265885447854, 0.6315718364056013, -0.3887236052845693, 2.02509539604726, 0.27814846978667385, 0.6849994216691319, -0.08167473098573111, 0.3249245114894298], [-0.2419891820361779, -0.2263784376557363, -0.003501947127757088, -0.2318579363176132, -0.29240107485000427, 0.3126660483866026, 0.26165915808019813, -0.012869496528922997, -0.900966067462337, -0.28262498324741897, -0.9733904039904971, -0.015387256241444824, 0.6670717266338918, 0.13373683674044928, 0.11804849604453123, -0.014292229408349288], [-0.34125039958266257, -0.583505781829389, 0.4453800488397814, 0.0047327067162539205, -0.11687730538922786, -0.14983419533201467, -0.052496314617173745, 0.11529598977925579, 0.1115116111044912, -0.23304585113094908, 0.5689338865442393, -0.6098851105669885, 0.2919745144429512, 0.13485513703902818, -0.11307747231858264, 0.43528916048809396], [-0.16308380971723158, -0.3340590812793675, 0.11736991395105827, -0.5154055355922051, 0.2463729568784186, -0.6717075044234059, -0.0017345050355397525, -0.5049938552073994, -0.1263508135971479, -0.37188468863180757, 0.006647863732532705, -0.09889713596691757, -0.5187218810197167, -0.5884222343227973, -0.03836484388286396, -0.09007051752298553], [-0.43009668654991967, 0.347825979621678, -0.36418746104811583, -0.7632647834994805, -0.33181932706116135, -0.8346134607752187, 0.430029703036629, -0.25979828351996775, -0.41952552108677693, -0.12959917322227804, -0.7043929823195523, 0.025233208995342732, -0.08657284104270817, 0.23054663126817113, -0.8524249502822875, 0.6690056653773455], [0.2349849979843388, 0.6633260061380966, -0.5748681821300805, -0.2742312378298905, -0.5791287940996286, -0.8479539594760885, -0.2777519076343098, -0.16375286383436438, 0.42301158807802663, -0.23692975334377506, -0.09361245491132245, 0.0013156145182111612, 0.24047699132731265, 0.27360800556472165, 0.7358413129853938, 0.4604201164220483], [-0.5693471124469502, -0.024395958692334185, 0.17462727125801042, -0.6790860461194498, -0.16230381080749734, -0.6913345878384147, 0.1575288394916149, 0.16850923862032835, 0.3633596989900428, -0.2833746521390425, -0.4390141660943883, 0.18184920282790057, 0.01888881367752457, 0.11450376843879803, 0.09024413621816615, -0.2724179329703514]], "b2": [0.5051127063844811, -0.4139040180554251, -0.23944042288728934, -0.19047684966381154, -0.07086366721650811, -0.7638787857396634, 0.09942139095796834, -0.1665252522843047, 0.25571122197513396, -0.5214824808893715, -0.38989477828386, -0.3052335593718263, 0.6356476464071819, -0.18921457241664874, 0.0, 0.05020019387066121], "fitness": 0.6653061224489796, "wins": 652, "games_played": 980}