{"network_id": 7, "w1": [[-0.8532630179628997, 0.2848089238415389, 0.048124977898137924, 0.6819788490242551, 0.32750181185752875, 0.3074788447839382, -1.4145012777123265, 0.6662267328633429, 0.004192374623768258, -1.1230162848271206, -0.1544245028665221, 0.08623509648236108, 0.17363346051795636, 1.158029300292642, 0.2990800387621817, -0.6908244389997946, -0.6981629495118747, 0.8437296910747185, 0.725407335732462, -0.9022148590725888, -0.15117886464149743, -0.3679916768404773, 0.8683347221063595, 0.17007686964898694, 0.3494348272362885, 0.9733925837370695, -0.832870247378608, -1.1245099583464977, 0.9091972731243068, -0.18896573533757027, -0.04431894923832183, -0.8728644649213371, 1.2190113062378765, 0.13556617055056375, 1.8070459624921718, -0.5356995679225337, 0.8267723491746481, 0.5236572221650149, -0.3176691545262574, -0.8131942663678262, 0.47194794817715313, -0.564702102528833, 0.039681113237872156, 0.4195040005240957, -1.2939469217444706, 0.36045834755441364, 0.02249699024324675, -1.5911105395165466, 0.5303740159881907, 0.22575680032369688, -1.4237428989490064, -0.9202622538079873, -0.5071961751042711, 0.28269109223301114, 1.9714729818995242, -0.34457211665435983, 1.241957639836369, -0.28601379446517283, -1.527325577440402, 0.029345685002759414, -0.4719621633198362, -1.3333196327827541, -0.10413107875817512, -0.10468139644066304], [-1.2506470052337442, -0.9555572763960101, -0.5400939714190558, 0.7181455728744841, 0.1392721198182165, 0.28533791880897597, -0.7763248974115448, 0.6819846691730468, -0.1263206387037112, 0.0701090949636411, -0.09067395778731391, -0.5317990129843109, -1.0837869701921425, 0.0726678258918047, 0.7732613802341837, -1.5363780287061573, -1.0294751954065995, 0.09300749526529861, -0.5153616463106562, 0.299525426864286, -0.28406996938765655, -0.26933622887450315, -0.022109973160568952, -0.5528789070588627, -1.4481423852827862, 1.7096117624080973, -0.6095279801575872, 0.5528812540698492, -0.37488242732858634, -0.860104461029546, -0.6347862336941005, 1.3443372707776624, -0.5051559792046454, -0.5283100117827046, 3.017406344545244, 0.837636953039335, -0.28960790819491533, 1.2316211195029252, -0.33081022378900654, 0.12333021039718767, -1.509145175796134, -0.4535162025876658, 0.393654150989068, -1.1721923982716507, -0.06111934472007535, -0.7083432339226802, 0.6318917055556206, 1.458693000343105, -0.18158784430962993, -0.8006253038038782, 0.14746552264429647, 0.28242575343259124, -0.3325770718894878, -0.625203665129349, -0.594480812108048, 0.8421202846595557, -0.7144448581458365, -1.3411342416064254, 0.7944768070697982, 0.11300405596386318, -0.42231266562817743, 0.3674208594381919, -0.047069454297528124, 1.9274585849420918], [1.5565341131510078, -1.2202375358395205, -0.28955408680055517, 0.6318490496778164, -1.1292770236925815, 0.1992501211263943, 0.42907483907820027, -0.29904330266567225, 0.4571975396621403, 0.5527163111688542, 1.1766936148734983, -0.32016677077516037, 0.6505986014245462, 1.4893887977563238, -0.9825629301994747, -0.8002749719176954, 0.06493541811888415, 1.123158970018799, 0.8420516474392077, 0.9745751485449672, -0.237404683729593, -0.03499986986525862, -0.31797500487237135, -0.4375935249192402, -0.23538613210362844, -0.8596634753943395, 0.8197150629039683, 0.3221262098611988, -0.3119425514772431, 1.7885208985373635, 0.7117986665234681, 0.37766608382278477, -0.8055326660423703, -0.6327447198540709, 0.6248056005401867, -0.558951016495089, -0.39216410233385257, -0.05049843856347097, -0.7964918418690717, 0.24405641735631195, 0.8151101613350638, 0.35111732421267977, 0.7286120324923304, 0.853939338144536, -0.7482137041041582, 1.1653462035545843, 0.9307876459499915, 1.2154739589161467, 0.8711677586845892, -0.454258758805047, -0.9247720582641985, -0.7467509678300495, 2.3729392763216954, 1.5280923637621702, -0.11511602228688544, -0.618853663044724, -0.7387984658912135, -0.6276021708192078, -0.5788475329490979, 0.3591248527720359, -0.903768095197497, 0.4443693364701816, -0.6372259624177281, -0.7895540058447816], [0.9027459254233106, 2.0638015664506866, -0.9298183429458658, 1.3352411995745612, -0.36347892121373976, -0.5048646544234083, -1.0882294619954926, 1.3325623673709375, -1.0439803997044466, -2.0631384533857164, 0.5884668278589977, 1.136421311299785, 1.0431868371762982, -0.5009943127006917, -0.3928837116749495, -1.7552017305002476, 0.10210447318952609, 0.563432582794928, -0.09522011778813766, -0.8260298562568555, -0.5505238827755141, 0.3818360503451983, -0.22770769300013488, 2.489446473266458, -0.22729649967778948, -0.03213143199669599, 1.3468629777437329, 0.05033191464760453, 1.6918590209391549, -0.8257294150964876, -0.13611785304107307, 0.22582861232538343, 0.70412183981697, 0.3859821755912318, -1.1422336529606771, 0.36827380111541685, -0.20774616832110498, 0.8596426606286165, -1.393294295622681, 0.4537176370194285, -0.8290774663010099, -0.7845347546325684, 0.30044772737518755, -0.28992428200286563, -0.41698026409935124, -1.2169002221009686, 0.7742828708024562, 0.2702369217698807, -0.5315431381759009, -0.9381354513752664, -0.30371046284180053, -0.6484157290282807, 0.11798314262257875, -1.1961285210341324, 0.27347063744073646, -0.7724209079800939, -0.25712184000919297, 0.5942283847980485, -0.0882637129081866, 0.5443518231798908, 1.039222470914822, -0.13369187680696065, -0.5529497742239919, 0.8783949562952764], [0.6045018023451971, -0.4549315772674888, 0.3107129831022688, -1.1952401046525298, -0.6492078200066969, 0.5714517754115934, 0.7095514517895448, -1.4359873003145562, -0.8043222973406254, -1.3975505871552185, -1.1893108230061777, -0.9965706272052235, -0.6039391053380931, -0.681130555025925, -1.1184172192761712, 1.1739516146070428, -1.2915740106289866, 0.9104604126760363, -0.7389041071187662, 0.9680496415117328, 1.0967478257515806, -0.009350381917687, 1.2405098332023439, 1.0702521150695843, -0.17394420871676924, 0.01737794572480217, 0.01034765402103232, -0.07360464927048377, 1.5364754569597188, 0.44809302826085673, 0.3675092659777065, 0.3666683782767114, -1.5558718824007673, -0.1057380274514428, -0.48048626140005923, 0.561969396326454, 0.7108790444669008, 1.22967910060838, 1.07572541634088, 0.10073166721309473, -0.03119941301229756, 0.3969035794224718, 0.17025154197331238, -0.8330504124769069, 0.6309239701012133, -0.8869220257433271, 1.0166650713154515, 2.210366027608066, 1.0527553202858742, 0.2174471335692427, 0.5712631373058915, -0.35181263847075717, 1.4399764575754808, 1.2996540446336, -1.351439321123649, -0.19019124725570286, -0.22687619021429697, -0.034756615809045543, 0.3127425446431493, -0.8184423433772391, 1.4869977106185788, 1.47748241590209, 0.7769915614027207, 0.5720824218872149], [0.6280467591027116, 1.0845163247690595, 0.14114488281578577, 0.5218730383268895, -0.9272654641428208, -1.2347715631942742, -0.23389791655924982, 0.20817550674318075, -0.6003838702339519, 0.05666917053557197, -0.9301142115106067, -0.06020213090141327, -0.24990370450544458, -0.5941863839115527, 0.9145286841779877, -0.7314462051428813, 0.9251222232005439, -0.8567081274605587, -1.1673615166161835, -0.4137538511382232, -0.19809270368188817, -0.31833446479554395, 1.1863334954329374, -0.9953828454081125, -0.048197252335583696, 0.5089782043805392, -1.9457864221467418, 1.2694332726848678, 1.025279615329841, -0.05473803999792254, 0.336859601959275, 0.7605499521487412, -2.7949977066729867, -0.9468959387376672, -1.335537810206868, 0.48440526673552475, -0.9073008421782631, 0.4685197329173928, 0.16959061225682673, -0.4524038353611568, 0.9072509773996136, -0.3324686942658944, -0.6507969845826106, 0.9400195522301387, 1.4944021643280008, 0.10675579836394414, -0.45704450036950073, 0.21929209956589127, -0.019664437291065054, 0.31703023276383435, -0.13863513941488972, -0.8944369511310237, 0.9498698328888693, 0.6437387935236848, 1.5469247893941338, -0.4678929753922389, 0.5524193152631481, -0.05399186776166645, -0.3854455378667947, 0.22128971824828564, 0.4172508004294059, 0.41083469141230067, 0.2930770675685027, 0.6621685433744118], [-0.6983841364025475, -0.6953474390007686, -0.015028607335517807, 0.8632492690996177, -0.5191169002291126, -1.5571636553967005, -0.15030477950479126, 0.3936640268196037, -0.17873504798315765, -0.9476527053775461, -0.3236455921575722, -1.534938530227942, 0.5635767820637352, -1.6612166083744593, -0.5314508951711461, -0.2786372175858651, 0.40599483689102805, -0.8881201816510532, -0.8230052176595113, 0.200957790737249, 1.056760648539691, -0.604640144224255, -0.46886926461747, -0.20242022192696077, 0.3551029910115518, -1.3142179523548656, -0.7554474415606743, 0.9963012498276678, 1.1916972779811958, -0.40655668713326876, -0.8288416112649777, -0.16177379989524657, 0.9136968019600556, -0.9914665831117764, -1.372607473157946, -0.1425432040649833, -2.030087391031877, -0.45548919369381435, -0.2843578858802776, -1.7221490235837598, -0.23976967563778367, 1.1312047149288564, 0.8038128038188195, 0.19190073639412464, 0.4024072945606717, -0.4253306857049748, 0.24275865516184394, 1.3585763004710396, -0.55882394064506, -0.05610899861292984, -0.27443758254126815, 0.02447630712441501, 1.0784771593465226, 0.03175337469605542, -0.6752205429607929, -0.6392520418753727, 1.1518937584434046, -0.6297577129031388, 0.49890496749633095, -2.153039984441374, -0.1298401414646415, 0.8229950579362966, -1.1551495155708364, 0.6811971597713419], [-0.8766911736506143, 0.02539086451663597, -0.43697708061709134, -0.23858309197333252, 0.7533211811384379, 1.161815587830033, -0.28319704200903517, -0.05023103090616016, -0.016454878456576637, -0.022061427159511537, -0.3922976500147538, 2.318147619411495, -0.01689683601139108, -0.9580632889484247, -0.9739156410092042, -0.19108323998630372, -0.5857572479362634, -0.8901540814888186, 0.3929679332268581, -0.18276062142877103, 0.7240429906081004, -0.1624167512488976, 0.07156213265843858, 0.9142481609218469, -0.01841911453506548, 1.9792838974254254, 0.03779807951947051, -0.6533860804373243, -0.009573925498659638, 0.14983667718573246, 1.5319321807737905, -1.020085293045109, 0.02121330319638426, 0.9578285378365328, 0.7035104299550863, 0.7123858321373625, -0.8774601158134541, 0.7416314981996686, 0.07687294433277277, 0.5408908495402347, -1.1368500337940306, -0.14655346568525318, 1.0445801204913183, -1.039683244207906, -0.7634179043722973, 0.3906440192502572, 0.46900573881992796, -0.39670233064335425, 2.008468255713071, -1.5378534105642179, 1.2124827173276194, 0.15147080919245592, 1.3243989917088936, 0.9016792792406119, -0.6378808069293816, 0.7235444248260283, -0.8495018418166499, -1.0865418417580242, 1.5442310948638847, 1.737479764546329, -0.5467648754668674, -0.2054652481787145, -0.37525589476543897, 2.1481597219940247], [-0.7009575417304628, -0.0706476733621078, 0.022626709196186173, 0.41184744688063235, -0.6439945610667142, -1.4459994046426505, 0.2075655163805597, 1.2612598870396239, 0.4544062262430612, -0.48324864529472966, 0.4206242445314552, 0.6068010440596839, -0.4951298710973505, -0.3651027825466506, 0.8485983072170847, 0.5873064820204833, 0.5857015208149503, -0.21163113396851485, 0.07018898896273751, 0.8213820004276181, 0.248418446153989, -1.37105903859684, -0.25994402907158626, 0.33732588916708905, -0.1107883059121274, 0.4064102672774097, 1.1915091582640496, 1.2558813193718765, -0.7109694462974993, -0.09144537417491044, 0.010930620417698794, 1.1764753333843418, 0.0050424677875478, -0.3683495869778615, 0.053437994488312546, 1.3337341053174012, -0.7666772474679785, -0.314358390171078, 0.15024506612803334, -0.6911560333090488, 0.6147372996162003, -0.6650493102662567, 1.8314584168863641, -0.42764003312370424, 0.36419632148746, -0.18456278780380983, -0.47062306875389115, 1.1085343043138278, 1.188168826235147, 0.17420508794951517, 0.9951629741492555, 1.3390133789808598, 1.2262227343457348, 0.27090339064221103, 2.112684602371023, 0.21483679264485353, -0.4592527351027022, 0.7791570390574114, -0.8932963530353437, 1.084240391526453, -0.44589852320300005, 0.1775312173496828, 0.9535666703465489, -0.2894007097539456], [-0.6457099583731047, 0.4141820572713356, 0.34806014800450696, -0.1096322759671817, 0.8318182045381063, 0.3263682422301922, 0.6211999618806607, 0.7963496887177217, 0.7070574313311677, -0.40943633882055697, -0.8898786236951701, -0.6479764954248719, -1.2730368879548597, 1.147438816262249, 0.662850952459529, -1.781116211231926, 0.6632612995705893, -0.1044897474059801, -1.1180764943894814, -0.7957249656450363, 0.4709373652725096, 0.14561525231241046, 0.4261811359398081, -0.27160643439416027, -0.007976868700416029, 2.1762796857267728, 0.1407632694658852, 0.11008132886899635, -0.7327659815326762, 0.48950974106801015, -1.3625293146633994, 0.157797490306734, 0.1787040291425408, 0.5121310229776526, -0.5623396354987016, 0.7234322934888672, 0.30290179927576033, -0.07382641023368988, -0.20440411467711317, 1.341589411277871, 0.8129329524459403, 2.833714301491609, -0.3890611367794675, 1.3092290057585356, -0.07014414362142571, -0.22277916749188206, -1.346927533448028, -0.543239088858509, -0.6906350150556392, 0.6336463105682271, 0.885650125152647, -0.8936020941758042, 1.8805519430803477, -0.5088134758061077, -0.5713825099360049, -0.3040311689293199, -0.275601222504525, 0.6858031834309174, -0.3960466035778595, -1.245463277600746, -0.4660946816552865, 0.49338443670773274, -2.2136256682839877, -0.722156603888742], [0.3862697084037784, -0.25793875720017256, -0.31349098491412286, 0.2585244703493823, -0.2501009293091974, -0.030952091327154825, 0.7419028844162312, 2.189382264385328, -1.396658992665121, 0.6381387802163572, -0.030405282503875794, 0.6338854710189195, -0.4272675603614474, -0.2736061985984656, 0.05698276329649493, -1.9850507475846841, -0.0029482489159378678, 1.1589281869021293, 1.6293129659949102, -0.6909666493925842, 1.068535987671247, 0.3929983552312259, -0.27875671150117043, -1.032224276948032, 1.1567761428834387, 0.7499919128540236, -0.03360922519114107, 0.7332697729841617, 1.0256017499295913, 0.25562477165298136, 0.12392510300019038, -0.513927899023677, 0.33040207111352415, 0.08061781573192028, -1.2876275512444675, -0.25286539730498997, -0.24021458169761523, 1.208800321785374, 0.3009613113556004, -1.783655547962837, 0.7282913635772892, -1.1583890906936194, 1.5758250812668408, -0.8666806690648873, 1.2064720507998237, 1.3297246530119304, -0.9555035278880124, -0.3178601774356345, -0.4518116378354657, 0.46602603201747383, -0.6416722348420787, 0.9424557062524808, 0.021999973816952623, 0.13212838165605073, 0.271442516181929, -0.16539446646696487, 0.4685116707134531, 0.4146276167690859, -0.9535068546323586, -0.5204937518132238, 0.6404166475565085, 1.3898577501652412, 0.1079884818256585, 0.5961277522525077]], "b1": [-0.6139814539837989, -0.46043996406088433, 0.2779094458984892, -0.01116249688853671, 0.3641268137582735, -0.869072431722381, 0.42652279554652084, 1.0197636009757332, -0.4729299425081794, 0.0683078722216425, -0.4693575431134133, -0.5569812241049912, -0.2583224639989954, -0.2061541741413494, 0.27744262870968484, 1.2970520092790472, -0.4021393725766932, 0.597009983283489, -0.5050735052754656, 0.3506204917746635, -1.4669831487167928, -0.9805431750937853, -0.5408151580165513, -1.308185051196503, 0.18846479545081427, 0.0846329736282212, 0.24610986073269597, 0.9032605052731733, 0.7667845637763937, -0.7983360159048196, 0.7547478141927407, -0.07988535228196608, 0.27844445628540476, 0.8543005432781661, -0.702557708576508, 0.044163850375273594, -0.4905938481967508, -0.48038949262964425, -0.6551779029925654, 1.353231023836134, -0.8689495518809717, 0.38581530365259387, 0.46040992864415065, -0.7618578283204562, -0.14168502304593827, 1.0393466879172042, -0.6824095685706927, 1.4014017635849512, 0.748559805699191, 0.822394139388743, -0.46258452003231776, 0.2250978295707601, 1.5798817570984058, -0.45845887456960766, 1.1373055856633214, 0.6453717700849844, -0.2031502962564999, -0.4373954526111059, -0.28264820586894446, 0.43882989021066793, 0.19756407258519965, -0.6064444532904157, 0.5845885025208356, 2.079970619641588], "w2": [[0.48893751296449856, 0.2170502956127528, -0.5214268665478514, -0.1543851940110736, 0.37867054977469156, -0.6355195936204916, 0.08248962266357335, 0.9355130980102041, 0.7146127037561715, -1.3559986983281782, 1.4286000052540138, -0.691262211805435, 0.04178809602752973, -0.3104185134505453, -0.9251695925358273, -0.13075410052014463], [-1.1376551955730243, 1.6779594022319766, -0.1833062086352145, 0.48040817790710627, -0.7450363553158821, -1.032723210858123, 0.7828940011126634, 0.7036464355898389, 0.7589278450722574, 0.23197943887195124, -0.3297163437615633, 0.4666482518909305, -0.8926264276481264, 0.06865648444271472, 0.9547036727553323, -0.0037828232760508396], [-0.9679724054803454, 0.9186838970593828, 1.5132772169728619, 0.3654438766076397, -0.4304588194538019, -0.159211852635678, -0.9392926517583361, 0.2108663989954585, 1.1683855679940232, 0.7125665599466795, 0.3531595780075825, -0.7536644557053934, 0.15159044030564217, -1.0790216048215366, -0.39671884338104757, -1.195005344633677], [0.07793804475145566, 0.026772172009226353, 1.111618536781441, -1.3895310205615297, -1.0692050730751788, -0.7507860563591383, 0.1628211350718534, -0.05023563702358626, 1.5339184084256545, 1.0233720927039327, -0.5805827693205822, 0.803627449256147, 0.1775973564748708, -0.008305169945745816, -1.0033969606994926, -0.761991759750006], [-0.6401606620618587, 1.6276473163140923, 0.6133653970921327, 0.31305436050050883, -0.40815297752757385, 0.8154020622349569, -0.8341388143772371, 0.0712388471314373, 0.10613528128950761, 0.2666135043713091, 0.2276206361358587, 0.49034468765982775, -0.32450079592043746, -0.44490612792141343, -0.2828758016767831, 0.13125899537000385], [-0.4717173570956572, -0.5891910958335338, 0.2284705038265558, -0.720132629013527, -1.3095581074093965, -0.4843832980576225, -1.0227490560874455, -1.2744034125960921, -0.8647316729755439, 0.08298685333588328, -0.9301614396312132, 0.5796977592221738, 0.11588668215755973, -0.2188827939782011, -0.6546776750308942, -1.4304682916652438], [-0.5980177478711195, -0.4871480549944964, 0.7839717116771943, 0.7865211999775729, 1.7043505304299744, -0.22980595075791352, -0.24807528563554543, 0.45913234340118103, 1.4157805303572335, -0.2510861620915844, 0.49950021784512566, 0.2494065079575594, 0.2684047209473295, -0.6812742974625646, -1.2125782123661897, 1.6503945889109564], [0.509910911568758, -1.2733677762942635, -0.8496393880642135, -2.088934615707915, -1.005280926432839, 0.9893682337431379, 0.9448149227656031, -0.49585181804645007, 0.38409380906841245, -0.7948446402474945, 0.568405680459523, 1.1465729637919173, -0.32417683499694766, -0.45698663600927214, 0.036583451291003856, 0.5009142261530287], [1.417862352755629, -0.5355630550820344, -0.7283282736281922, -0.025051095767857412, 0.5626283962567147, 0.4375783785492703, -1.2096255919566241, -0.6222358548078712, 0.016659530999927563, 0.33896188307685565, 1.3317975067560006, -1.3165868397228753, -0.8864735067535612, -0.8365388552840735, 0.04744207585117563, 0.650352039136628], [-0.3189383301184394, -0.7027314246402827, 1.3315730323618122, -0.4565706469719313, 0.45105570459742833, 0.1457097996635231, 1.8036731207676582, 0.5179550706875212, -2.0018040637172874, -1.61317430746555, -0.017833173458771445, 0.6962652791533762, -1.303146221110477, -1.316035433202527, 0.5946244393560335, -0.32842975830248305], [-0.46048337798609995, 0.6777653003982461, -1.3428898738043389, -0.6633612571273176, 0.7206229408945394, -1.6941682633844688, -0.045823631332191694, -1.168043247752348, -0.9712367970500725, -0.6795360878781649, -0.7644323038060763, -0.9530030638241824, 0.4966780780522896, -0.39355652236681166, 0.05407836253249507, -0.4168919112252323], [-1.221460833608248, 0.23694474143592126, 0.1800599457878066, -0.2818382594849995, -0.5772010815038399, -0.1361437166899153, -0.9275661861143853, -0.43135328963949154, -2.2325088191621205, -0.13038709032250406, 0.3593089241953797, 1.2736778892791492, -0.5338474209446431, -0.1312743276877144, 0.2652052484598926, 0.81112462946599], [-0.8077490441770562, -0.032258521244286714, -0.11538490385221806, 1.7558560503646023, 1.8341046290825669, 0.757930892227416, -1.7218293071518578, -1.2822805693839878, 0.4357445937031954, -0.15140782950997406, 0.05651114737025589, -0.8693294630120862, -0.9548967685532885, -2.1365187390323834, 0.8788109393074235, -0.5672285994708348], [-2.1462064577839826, 0.5538665418302064, -0.7732791973038972, 0.5455434602852252, 0.19546360141624394, -0.5913823628544862, 0.4605940859873988, 0.24041734562741404, -0.686546368776229, -0.11943348727746428, 0.16970741661587732, -0.5145320657678316, 0.7096370687935939, 1.0888765189151413, 0.7787800069665538, 0.6520042982514807], [-0.0328078610303327, 2.394639987493741, 0.48543721438794835, -0.5011481586981212, 0.205084245926274, -0.5706690662990164, -0.21224163028735224, 1.2887995733627435, -0.2988782878592933, 0.6524494010387268, 0.0895079896405784, -0.11126685727082081, -0.5065808979282687, -1.292244226928946, -0.803504688920065, 0.18987980210404745], [0.12689862159603288, 0.588106258743593, 0.13626508226772227, 0.02740558123866016, 0.09597304127265821, -0.3930353718328302, 0.006382260087787035, -0.42807647404402516, 1.172754899598666, -0.83345187350379, 0.11601387178044137, -0.11850315947023765, 0.493953805551497, 1.1019104698196185, 0.4075262192186924, -1.2453456443112563], [0.5674387088562898, -0.700483341034766, -0.5272171226532182, 0.39293405367816414, -0.13350638849288005, 1.2124835577403736, 2.048330139185901, -0.3909732740855173, 0.011560478439573182, -0.575155547580851, 0.2575395221428578, 0.12012414430768278, 0.37720047156706926, -0.08267480438989294, -1.587847678759279, -0.6526803353352295], [-0.4842483165199705, -0.16604665297244176, 0.15831244962808017, 0.9099017002671246, 0.4097152332116947, -0.05449609665665667, 0.5292671084214214, -0.14851607280664575, -1.0288988589117896, 1.4621334592443054, 0.10856797929570017, 0.4596031104111777, 0.6930625078763042, -0.47352189762465025, 0.540597285257365, 1.5971427433597585], [0.6204615807114854, -0.45715906685166874, 0.2083795982041561, -0.24118166784776596, 0.4805693596875566, 0.5624034430772206, -0.4176039935433631, 0.42085348792587457, -0.03753911572367799, 0.3982102905736785, 1.1362845255158813, 0.4039092080274078, 0.4814171691613848, 0.34828385393126504, -0.5468968572795673, -0.4469699175106134], [0.9013388745742305, -0.3844780477757854, 0.7423254252314947, -1.5879892011403398, 0.0030079934397031077, 0.4707168349358891, -0.37749303498193837, 0.2463017999483979, 0.6732727756171027, 0.5803991715822, -1.1988802315932077, 1.589923450990879, 1.2471903389237065, -0.8477790741180664, 0.06254293806991651, 0.9064478225081087], [-0.9944817459344987, -0.09971217955811473, -0.23114240151100807, 0.38336554250628885, 0.7652127309631525, 0.19106288462222357, -0.044259331825027406, 0.9072784857293834, -1.2041928646505105, -0.00014568632975800466, 0.7719824084075738, 0.34439958638806223, -0.2406822651623487, -0.6920570071213945, -1.0044535523009694, -1.0202978274819134], [-0.9624660875178412, 0.42829780110836857, -0.886422642615228, -1.146442339862498, 1.0708499747707596, 1.0114734135027854, -0.8814065468480884, -1.0323616265253197, -1.2275772588646503, 0.6858262733861272, -1.0442008978185808, -0.10282950037088875, -0.580582010384952, -0.220519731429042, -0.4058486059206936, 0.18917413640312042], [-0.11226721777917201, 0.12205172722663535, 0.17171956738413213, 0.24114748352401455, -0.9036529236760857, 0.5006702057922197, 0.7240525644601086, -0.4950951211274833, 0.7344764130865727, -0.5683826600040267, -0.2194694944551503, 0.18785732258024002, -1.058154620291491, 0.14746329387146762, -0.39944501607167165, 0.3148204947695845], [-0.49925186192375004, 0.14187643391683208, 0.4984672555347939, 0.6154177318042668, -1.4328749624325425, -1.341570831063175, -0.4931704671075312, 0.6291897063331932, -0.03931010321010961, 0.15981511169640814, 0.13574782552001569, -0.2889152978731788, -0.5161781817614961, -0.7622241046553371, -0.9761284747290275, -0.1314445625564464], [-0.6731798263037339, -0.300266006600039, -2.0975430282217813, 1.1288371932660208, -0.26913151131251906, -0.21089921161981975, 0.5643079903583614, 0.47843424290375014, 0.4907560183324952, -0.08726486577825268, -0.042414731035236825, 0.014626043349657128, 0.7134681155127804, 0.17000219580021342, -1.2102639058980926, 1.7218843386969336], [1.104493901896666, -0.08662096143572964, 0.6317880284484798, 1.0622784015062017, -0.10708592203830708, -0.2457875296095218, 0.6876411981710758, 0.1036874048377349, -0.07992783373211246, 0.6397753659730689, -0.11715763015435332, -0.039977637474098965, -1.0816466937293239, 0.13059301378053564, -1.3767196776288626, 1.0098527033498248], [0.562451092088779, -0.04645722832282301, -0.9376156974021141, -0.2779743672671843, -1.2122112398604532, 1.4928605740524126, -0.8817871532357876, 0.6661528871734274, 0.430775457283436, 0.10855226841269716, -0.02365546447244353, -0.02914935996599488, -0.22870493697622063, 0.41400966114256177, 0.9530754193459354, -0.27653455649662606], [0.32876594331972825, -0.5698385949304884, -0.04325965759695149, 0.3335945182982547, -0.5768304201103291, 0.24531707709949155, 0.5327353612260428, -0.9924713131242454, 0.35729686209386, 0.42079567006321505, -0.36835610553060116, -0.3026464333778717, -0.863620250545464, 0.11034950118379638, -0.2492314031478401, -0.4618368783182566], [-0.38573082908721223, -0.8250118173776337, -0.06167596596298947, 0.17754354626957142, -0.714259207603676, -0.7712872538480643, -0.7894607463244482, -0.3190727565701019, -0.37026925014212575, -0.8757699544951603, -0.5322232315875858, 0.8097223808961594, 0.1280772571296369, -0.8401352401454796, -0.8889299530867649, -0.02104149069829958], [1.0271560497083967, 0.6498842461457222, 1.4646756726525918, -0.8041021656511846, -0.3955028159906489, -0.14049968212951758, 0.308957805251438, -1.0474798506235652, -0.049217006509011896, -0.6890846616729474, 0.22953382348042164, 0.2733239886622956, -0.18454998818817153, -0.18948648603671958, -0.6916251206403113, 1.2761269716329044], [-0.21046612325881084, 0.26686304407734784, 0.054513042698282, 0.3018002400991683, 1.4625022287510316, 2.014614121485204, -0.8208828818002913, -0.6452342458756778, -0.27724015559140575, -0.04031984963236479, -0.8098372843115881, -0.46132009908225513, 1.2170488572183675, -0.14313102476352457, 0.7100372343975374, 0.8343119934722735], [0.8266412084003695, -1.9995464424925682, -0.23597229477763076, -0.29568576201279645, 0.5970211861451121, 0.5644310589294477, 1.4615594493249138, -0.21434128769201966, 0.9370712710057805, 0.7210319563940839, -1.1167889496846952, -0.7963490829664455, -1.417046305167526, 0.045221095026167724, 0.6769235476084796, -1.4338100731342904], [1.3238952845089118, 0.17501944002162056, 0.0893568712241756, -0.5965918000338725, 1.779222309957122, -0.06581518621164673, 0.20097248574257626, 1.019768437869, 1.097424403870731, 0.7936908201154559, 0.9441307777314075, -0.5973910017731915, -1.086350399837023, -0.20930443354348074, 0.934187852593309, -0.6162204697846775], [-0.6781270330585568, 0.2523014268277159, 1.2175294468888893, 0.18098423580226441, -0.08047011173437724, 0.2041341530853853, -0.6714324099391124, 1.5150543150680027, -1.1302119584620627, -0.8412196841626464, 1.1577784357689043, 0.5580113638439644, -0.8215495077335153, -0.6422795032118386, 0.05935354680073818, -0.825854942380553], [0.06835853982144235, -0.08298164988971818, 0.4122620179122421, 1.0245150973984902, 0.16002701991131324, 0.12053874339083753, 0.46004133978187534, 0.17814897526042486, -0.7911902216832013, -0.1292818113054502, -1.7035658823283137, 0.0020536196850585164, -1.5462521842328634, 0.5129339575501339, 0.678240595748763, 0.8129917833790081], [0.21513550082520877, -0.5437192805867022, 1.3238393591452005, -0.6535002911278902, 0.6934672294550571, -0.2527660934008909, -0.17921837508393967, -1.2275736328061715, 0.1070131781919002, -0.046719730282272054, -0.36009441315298696, -0.00587681235078389, 0.2900196619690124, -0.011247527434341764, -0.8735752796741335, -0.9341201230033336], [-0.0528253522337033, -0.17215669062906663, -0.271277075472386, 1.2744519033883153, -0.16631842343868897, 0.7030787496417816, -0.34821421290099003, 1.679925510303495, 0.1638340716264985, -0.92049698858574, 0.4367479765303347, 0.4612403679529956, -0.5416490198640582, -1.0620746522242377, -1.6631885266769102, -0.4446315508366272], [0.6547976250722256, -0.7831594973661926, 1.3628781924057376, 0.48749573825021286, 0.4723785029781631, 0.21195043785290643, -0.9711723246095605, 0.2248241164510138, 0.26693206242787904, -0.6499602530540317, -0.3848243548426734, -0.32546270945829747, -0.7416093006418332, -0.15078255703402466, 0.6973137435676908, 0.19083370809014555], [0.31252425419258145, -0.4867133762797554, -1.2994760627858444, -0.32153391306700463, -0.8092023522029025, 0.9347581964088527, -0.0469426846045683, 1.8745028814837856, 1.7012601760522361, -0.21120147267582323, 0.7123814120152693, -0.23442977361157918, 0.08088662357385513, 0.3180551566522738, -0.28114171752174927, 0.020177535209194658], [1.0646611945839561, 0.3847122266517055, 0.46128016140522554, -0.5690049215774635, 0.5354432515046351, -0.012324055351923026, 1.149691893076795, 0.38281326225544177, -1.1047418126491282, 0.3256443931369299, 0.18313093918144596, -1.617859513928115, -1.518527262897212, -0.8167370269495735, 0.20841614797458488, -0.049066140371828104], [-0.5300739866850825, 0.7614460474927213, -0.6086409478027638, 0.8345646939109359, -0.43717587156116944, -0.02260982542728407, 0.06673335766853308, 0.9870530553440032, -1.9118189410962012, 1.3465538699806967, -0.8580231086829574, -0.09394842365554265, 0.23025328179088245, 0.2993149741263652, -0.4370643558287858, -0.21203826512220628], [0.7100712189588678, 0.7296876607764082, 0.7182571155012414, -0.15048500145209304, -1.0062851095380507, 1.5650801428780368, -0.5059593373542222, -0.2587405470780748, -1.3214572706229735, -1.063531676905564, 0.3626774661017535, 0.5266164756501649, -0.59103731608396, -0.4050124932169612, -1.4507720974615899, 1.0094970495982123], [0.6174105054748693, -1.3400034535421663, 0.8683377869124114, -0.07284469427282389, 0.05220137474959216, -0.1748010573397089, -0.3340049722157593, -1.0808742633434565, 1.4015507368389115, 0.21961323972999364, -0.8358024868892416, 1.2280614919016049, 0.5641909760637733, -0.5341067360495175, -1.13773498988636, -0.6035361664988963], [-0.8182840361761672, 0.3335755542175598, -0.5898616726443566, 0.5880506963736643, 0.4784397759197098, -0.36586750331642914, -0.4186719356803296, -0.4457669748509711, -0.3970436334583589, 0.5769042728228067, -1.6607996649391525, -0.5466766944068778, 0.5967140610393094, 1.0565259596145196, -0.6830342592463478, -0.6584900364478526], [0.006624132996600307, 2.3498827023291473, 1.2808038617669177, -0.6752730706094616, 0.8216259612411843, -0.09842598598357408, -0.80995370156554, 1.551742670000477, -0.20185090937799316, -0.005449496464504343, -0.2586103731995753, 0.19544594389830508, 1.2827304356974616, 0.09230040736119832, -0.5563795298021903, -0.40144769535766894], [-0.021958044235062313, 0.12430480287871566, -2.1756966691697914, -0.7569154371367448, -1.236478308003087, -0.1290884483773641, 0.5726178576605899, 0.8130358107358143, 1.4398021137214758, 1.1188415748037306, -1.0539729551199852, -0.15076347576661914, -0.3456902352052675, 0.14283954663245296, -0.9256394201322868, -0.33372978573817047], [-0.9866782139950409, -0.4489523666544276, 0.22815164426446666, 1.1268077466165112, 1.0049947443044775, -0.04878272244197046, -0.8914827932768262, -0.27993259218050504, -0.03051437580947565, 0.30816134785814153, -1.0736681603078555, 1.1833797406294924, 0.5953252214517548, 0.9100833247900254, -0.5135494763027492, 0.48286954217346173], [-1.2064771646058934, -0.4290240636943856, 0.47664949751319674, -0.7966351375009868, 1.570992065972431, -0.7597755661845579, -1.355309566573602, -0.5191724848792869, 0.03224887113877123, -0.19944444988421495, 0.6549281398070097, 0.2965835959781099, -0.18032739394667985, 1.2985065408071663, -0.6003571432998864, -1.2915029420711615], [-0.28309806554167294, 1.0626970177144928, -0.5485365826576568, -0.38992224930899866, 1.9260670868451664, -0.5902768531727319, 0.6894154185302419, -1.3193802312725298, 0.6886611275032849, 0.6722889079474145, 0.2459958346410321, 0.722150226355586, 0.545362920428864, -0.5982251707436811, -0.009798515945643904, -0.5546067205050041], [0.3224783688740609, -0.28844138430553734, -0.4424118334882861, 0.3075575907078133, 0.3178658442538864, 0.9661895254846455, 1.1413826167368109, -1.123063761250296, 0.7439847385158643, 0.1152562211847817, 0.03102139791921535, 0.5728231994994912, -0.8253559268719308, -0.3036974145941083, -0.4972635126185614, 0.2678510765002893], [-0.8525501035441054, 0.6123213831319274, -1.0643101695479251, 1.041727401328796, -0.8893409954912458, -0.39936253840281, -2.8801516830936262, -0.931294789605642, 0.9666673670149601, -1.6310533441957145, 1.0201224374589264, 0.07440696135906814, 0.41087825056420146, -1.0200009242275867, 1.389612583305577, 0.93090520227474], [0.4888952262736922, -1.2479845779218657, 1.8708135312947403, -0.061062337137944955, 0.30584431497689135, 0.1350945684523096, -0.48854837420825475, -1.9185624451534775, 0.16994514948724337, -0.2589774786344405, 0.1383953394950751, -0.021876262763116036, 0.39916310663868804, -0.8941112525241526, 1.2307220161096875, -0.678348824151994], [-0.6392833689720852, -0.19596895883371487, 0.15082260398870262, 0.6188930748068748, 0.6117504803246658, 0.1503626651065687, 0.3719253917457716, -0.3559336247325892, 0.41113714034119037, -0.6150503213115326, 1.0725971229569733, 0.9248150859970484, 0.7565855833039925, 0.6129684304879186, -1.2282187053057825, -1.012942940114799], [1.0002201918178844, -0.04071342620595142, -0.3017504811072075, 1.073032344290692, 0.32273463277231285, -0.055142992013653414, 0.46393092723419393, 0.40745174043503063, -0.8454207029915924, -0.4926628959751703, -1.110724874772981, 0.992429817694569, -0.5180008316679854, 0.4350409722556686, -0.6497967730688321, 0.4930664942706344], [0.21007260486528243, 0.35526841453854835, -0.8524538696651063, -0.7758443590288254, -0.038098289014702164, -0.024094303201883827, 1.2128406800002354, -0.8579700940880928, 1.323349976029222, 0.17344931914702177, -0.3780663256523292, 1.134543282085117, -0.43068707405985995, -0.9418521306467981, -0.03360734577288774, -0.29037748376427014], [0.5040878803258053, -1.1215880162306695, -0.9171015738469614, -0.6984262471713854, 0.1835812221729967, 0.15227179860532336, 1.2034154758185687, 0.7686427630921167, -1.86724576331486, 0.5078966205980194, -0.43205010680507516, -0.2487392882049802, -0.0010850263412154337, -0.3299673308284694, -0.313802418398167, -1.0199092235363056], [0.34442406051950114, -0.1148458527485823, -0.5785894161853478, 1.5401095381096237, -0.8569215392362998, -0.04316099420324082, 0.9096796498411733, -0.6603657786013796, 0.4485351759655617, -0.24832529567913675, 1.0853956547867718, 0.06423162142124718, -0.5565667303230083, 0.6459058936498487, 0.6482269355291703, 0.8201822560530716], [-0.5093416833117045, 0.20061555339833334, 1.5987167155664699, 0.8199569773105548, -0.5370934180526189, -0.5915269124477778, 0.6451544495583942, 0.577614602573554, -0.34451659499972426, 1.06707895675142, -0.4223476688843256, 2.9674218677053212, -0.0014652155608093909, -0.404674834081063, 0.2754975011245184, 0.7252146781549531], [-0.18066552649655027, 0.6960282280795156, -0.5803567552942038, 0.2677658482794167, 0.19108799602042226, 1.7961905798444655, 0.44396708189969664, -0.568415940053899, -0.5628503374248239, -0.8752456683721138, -1.4529820964555695, -0.7931334141521659, 1.3866348568244249, -0.2647688624446188, 0.41328899004552466, 0.928803470948966], [-1.2152304009273274, 0.29564271266943887, 0.9978408782145917, -0.3023026586485344, -0.6826481814296802, -0.009635844442625358, 0.8805235503931865, 0.47243329525141253, 0.5747491550812964, -0.8215729766267494, 0.4780407982179563, -0.9417400808122603, -0.23792884927840763, 0.7745873999923198, 0.3109105351189808, -0.23662965907535466], [0.967017296756804, -0.14251482247771896, 0.3839863386540933, -0.5262567252012957, 0.5249064835361131, 0.4171964711545097, -0.14137226323145208, -0.5513444148180577, -0.48344799839856, -0.9917067940178399, -1.0829825088503031, -0.28677451087170147, -0.7400686579568524, -0.13608507689305124, 0.03600060791276888, -0.30841031835352556], [0.3974602206942113, 0.5752310751337149, -0.8715257818901823, -1.3057973185824747, -0.8579101477877717, -0.24737828491602948, 0.8239980180861808, -1.495023244528551, 0.6298628965178275, -0.3554579949243498, -1.0144496617975627, 0.6713376043126994, 0.267213538206116, 1.1691519220107034, -1.730813098842906, 0.5579809557769351], [0.42322309000214364, 0.7409693474215227, -2.293236583360255, 0.6767059970568507, -0.7512225741544798, -0.16371665620958314, 0.33747343805411273, -0.546206977160896, 0.12313653822400589, -0.25231881428485997, 1.064371893602902, -0.7620890237958844, 0.014945282748744015, 0.5418556381786728, -0.19427861173460392, -0.30038120560188963], [-0.9902775146284014, 0.496790579693743, 0.527692572944497, -1.9656725714360512, 0.27470485916615495, -0.5009154687124271, 0.7543011940375001, 0.23401978865276488, 0.2059909915717162, 0.3963022703961542, 0.45117279018605577, 1.327484935631188, 0.7124527049250063, 0.5447062550327859, -0.11596220953457469, -0.5391255298853987]], "b2": [1.3095406801454212, 0.7589124064038295, -0.5925233227888536, -0.2328423269953564, -0.050458912658031596, -1.583551409897013, 0.10316994850522154, -0.09304404139643399, 0.2860637419167531, 0.2361867427529436, -0.7649924213489776, -0.9911983670373943, 1.1298023374645056, -0.47892780439926214, 0.5980526339731089, 1.1812138153056748], "fitness": 0.6061224489795919, "wins": 594, "games_played": 980}