{"network_id": 3, "w1": [[-0.554208554314418, 0.34133497408712304, -0.06370013048047085, 0.09091055624291762, 0.2855458883260764, 0.15767111264693784, -0.9069752874055953, 0.612693297333694, -0.022614551917981562, -1.481949254815931, 0.11711299698452862, 0.08623509648236108, 0.29516225226876375, 1.3527836705247602, -0.3292107043285692, -0.06418226700359347, -0.051041994915574554, 0.7952818887422237, 0.6911063288205376, -0.521573607702218, -0.5724351267285859, -0.46619187974845544, 1.0648493871737157, -0.1254983799697395, 0.12446932354435919, 0.8354730155336261, -0.6777866417156155, -0.24328213862604742, 0.5558996543031127, -0.18896573533757027, -1.1713884741052343, -1.1632138410894473, 1.2625752640746895, -0.486961128735923, 1.0483100829871217, -0.3711772595703715, 0.9411966694945169, -0.15741218807059854, 0.01053036988643519, -0.8354660389370838, 0.512403311980947, -1.0126369829979578, 0.13867004871876887, -0.5508071742430881, -1.2939469217444706, 0.662112138308542, -0.5896070228538453, -0.3926582713825173, 0.378712094224626, -0.5246313792575883, -0.5010231047926645, -0.03560070189909592, -0.5219629870648728, 0.3617433453045485, 1.6675016390033401, -0.8134784604987371, 1.241957639836369, -0.0765886562223006, -1.0520131714779244, 0.35286677004721123, -0.08005689458504989, -0.8972992151799926, 0.20153125015055823, 0.17175247138261213], [-0.83611506825548, -0.07472152729439857, -0.7650361253685485, 0.7181455728744841, -0.8429203231859035, 0.5683875907482566, -0.7058800610743516, 0.5782772383864826, -0.42896148997249495, 0.5729580823088946, 0.3653837500928594, -0.3333547571084957, -0.9214171404653217, 0.44215075126948167, 0.7732613802341837, -2.0354828735148347, -0.7906869997465608, 0.2499998626622189, -0.49750241220518066, 0.15920784128269488, -0.24547222285462217, -0.003950819793049565, 0.593675601005436, -0.9518738527592432, -1.3813166198311524, 1.877347965174596, -0.6840809694228509, 0.47719527330645506, -0.728272856737767, -0.45408188640176483, -0.3799983807334041, 1.3684385622031623, -0.10465364135347884, -0.6495162815595625, 2.0532006395121742, 1.3356531915334848, -0.79577477701546, 0.8877209200946101, -0.46010426732187126, 0.12333021039718767, -1.3972503562529575, -0.6090058294769479, 0.393654150989068, -1.1721923982716507, 0.2932185180678946, -0.7095925947901158, 0.9041666099058108, 2.029423343264538, 0.18807979325273155, -0.27213533668562395, 0.8331552868205183, 0.28242575343259124, 0.004456528254202022, 0.16711371148634124, -0.26803832405772, 0.8403466390616952, -0.18955722742852243, -0.7773847110390517, 0.32275003340452363, 0.021080512578624762, -0.6184209111357151, -0.3641363738600782, -0.3326418099472152, 1.4471225541352497], [0.5193740873507653, -1.460168973080711, -0.3070873696216485, 0.5199338914042945, -0.9570013970309964, 0.5710366823650649, -0.4274571701217009, 0.3124981999441365, -0.11505745106906254, 0.15427229526792866, 1.0662795692113045, -0.9329475094922527, 0.10274328799221077, 1.6600187272715834, -0.4140861749331951, 0.38130540985196704, -1.2602663758392432, 1.0266104454756215, -0.09680093939950543, 0.824265891982863, -0.32824774523041567, -0.1544694133798732, -0.49970353412919966, 0.10687493251101113, -0.974182995287242, -0.2836748156442987, 0.9765220966699555, -0.22034889602879354, -0.2301417541034583, 1.1554083673244817, 0.44283227125368196, -0.1776878954351243, -0.8555756203752121, -0.7104403997012456, 0.5057427779845557, -0.6374077506986723, -0.261863781054826, 0.6887809516381987, -0.5017150619389392, -0.0629558799838631, 0.8891202686317631, 0.2724736329988439, 0.6133627738763757, 0.9317586837833293, -0.6999961458238502, 1.1030833292690538, 1.3794216954111884, 1.0885809615523045, 0.7891596342837309, 0.045983596825766304, -0.7318103188266908, -0.5402451758970453, 2.3789029811838116, 0.7530710562714933, 0.2376658794051419, -0.08450322937030885, -0.6470419826426572, -0.32594356434948446, -0.22753981833296694, 0.11074635489506482, -1.0821868267140098, -0.17907020874548638, -0.3461400315211494, -0.5180022121441199], [1.0698261133817872, 2.017127853574088, -0.6613619625242303, 0.17423879096440092, -0.47635226626525595, -0.7142382777679426, -0.9030047444682342, 0.6419793632609864, -0.6328991743881052, -1.7407382117543806, 0.8413076056522737, 0.7905123064985614, 1.0256797616761049, -0.5009943127006917, -0.26743303893064874, -2.2014221128832223, 0.08609610379843062, 0.1931262624327069, -0.4135559729704073, 0.011026154090042432, -0.7465482340975648, 0.6380295741013269, -0.1536910910252957, 2.823179432167518, -0.028097123507424993, 0.24444374306898667, 1.2490483214837749, 0.03650468229743211, 1.90681108387736, -0.414270798530163, -0.34218253798623344, 0.33653101610421177, 0.70412183981697, 0.2562870738019087, -1.5258313951939044, 0.36827380111541685, -0.1282849728712921, -0.05376669919978245, -0.9111111365711391, 0.6335098354069467, 0.11424865634556708, -0.5698065665283317, 0.7122276676236502, 0.6112490448410879, -0.5403322422331337, -0.704595182610338, 1.3336565645033667, 0.16195882943539774, -0.7167642397173657, -0.26165255750981203, -0.4634978359511127, -0.6774185188828588, 0.24601868799502435, -0.8910392375244918, -0.2990249839687513, -0.24532243552919614, -0.27558671261627893, -0.2972854106306082, 0.5653533491727838, 0.5443518231798908, 0.7414532789268693, -0.3619591995504117, -0.4672160441019069, 0.027871010730653067], [-0.7057559905373572, -0.38443038747511654, 0.18617940351491535, -1.1501456997529886, 0.014339960359875337, 0.5046700482783255, 0.5769393309604967, -1.4683503839117595, -1.0849573590359771, -1.4159560814842105, -1.0959119096480066, -0.9965706272052235, -0.15936435419834236, 0.01718012794294696, -1.131541226719921, 0.9603209644194339, -1.2915740106289866, 0.7540956365170015, -0.7151682183442576, 1.1273374158308431, 0.04492874720389768, 0.28108367527771416, 0.9503603582764648, 0.1745581871893951, -0.33679125905256535, -0.4174825750348209, 0.1206713186948114, 0.7957090784262046, 1.2887070925244606, 0.3564142599923816, 0.3724526535531303, 1.0290738527812557, -0.7239649314583534, 0.08351629027775183, -0.6872460412378499, -0.5849628302172635, 0.4362034747897233, 0.5444862098015004, 1.5256854025691062, 0.10073166721309473, -0.564371692935162, 0.3969035794224718, 0.599201000569265, -0.7541426216717586, 0.925534322302714, -1.0854311634771674, 0.04022633767788459, 1.9148558594570635, 1.1276385887709215, 0.51552399018219, 0.33253503622320807, -0.0792553066005412, 0.9222863239863694, 1.2529353152185758, -1.351439321123649, 0.25768813468216634, -0.167065533304918, -0.034756615809045543, 0.2537241845315528, 0.2644518942392999, 1.3538777074471093, 0.8933571497225268, 0.7769915614027207, 0.5536074836103242], [0.5870439289218377, 0.49632896665439585, 0.0247785841305673, 0.1532882675774604, 0.05211774158135776, -1.9173136897830205, 0.17214259250814282, -0.05244581592463421, -0.1015707309818975, -0.23207502658608598, -0.5324137944964932, -0.28854488865935235, 0.29548567310120966, -0.42289923390225437, 0.2727956192236106, -0.4358052241012563, 0.24878970991629734, -1.117825845754224, -1.0973130801936257, 0.12092354880983872, 0.22384843568619225, -0.8432539191581562, 0.818923260256458, -0.5182277760456016, -0.20795025654571697, 0.4254564612741702, -1.6016735937179731, 0.3889354596897607, 0.5769667980152633, 0.020492897809429922, 0.8448590860773222, 0.399479988552206, -0.6942748357320075, -0.6281328078437272, -1.296946446482862, 0.6398622747683438, -0.7265105898960594, 0.33385278134079194, 0.5104392255105459, -0.36705289099594257, 0.9072509773996136, 0.3224829587144627, 0.29496382137631516, 0.6277329934930855, 0.36545515756944635, 0.6046003783138638, -0.2114536127317311, 0.6757865743371383, 0.041990453197512156, 0.8310709028840885, 0.11620175193102887, -0.43647779028195827, 0.23677156879914707, 0.6325072854509648, 1.219855089247471, -0.5579270825261788, 0.9677262676007081, -0.34214049217957004, -0.09021985468109164, 0.3851702685200127, -0.122553151997186, 0.5630097665308251, 0.2930770675685027, 1.1550075917597624], [-0.8736275365365906, -0.5139060738962027, 0.06759963695854923, 1.1199665047893437, -0.6416431499258379, -0.6614395159104309, -0.31272569904558767, 0.6287037957308327, -0.5060923407004924, -0.7538670714560249, 0.10661498566669153, -1.534938530227942, 0.5460894666088693, -1.3860211548900878, -0.4998586953776074, -0.16533350478923137, 1.0580911946846574, -0.6066407494491384, -0.6330659092874976, 0.9093278859399938, -0.07157640602690576, 0.011265431084623061, -0.2696695535048085, -0.9557794996569382, 0.30759474482672233, -1.1223646236283298, -0.4448722319381311, 1.05195957877781, 0.9182809501779392, -0.6086957967374415, -0.37064060206337807, 0.4794418609379879, 1.1160244414522869, -0.9180367427746592, -0.09368838968842513, 0.1790651989306936, -1.32080192132846, -0.19897215767206905, 0.2747930850157125, -1.780265508001194, -0.3061081845280301, 0.13439988758961122, 0.0565989650648524, 0.19190073639412464, 0.6523814091263167, -0.3529626685691844, 0.24275865516184394, 1.8503058678495408, -0.10259403184930493, 0.16343402881022023, -0.4597964129918446, -0.2424723027904907, 1.29698785385161, 0.12073113585199047, -0.6752205429607929, -0.09581622619436825, 1.1518937584434046, 0.049538609575855264, 0.9375381557697021, -1.3588648493202382, -0.4554021960095923, 0.4686635882987879, -1.2728546638870126, 0.8762138837957933], [-0.6759840635799439, 0.5864551833066884, -0.3627519551858566, -0.014770901858952468, 1.3688366648218666, 1.161815587830033, 0.13454285671839541, -0.05023103090616016, -0.14005636213222306, -0.022061427159511537, -0.052805934678491845, 2.07514707879455, 0.40192903588137796, -0.8853699947233694, -0.42292482161206346, -0.590390153632394, -0.7039366257054216, -0.48320730987578603, 0.43454355479790796, -0.21027056098631858, 0.9494641626542719, 0.03340661096087104, -0.36864442613837684, 0.4367304671123171, 0.12305952433567402, 0.3407160657386344, -0.5931419471190933, -0.8837580592192675, 0.653371418238868, 0.396771544685412, 1.5279806653349168, -0.6496310444827386, 0.1466595238327032, 0.9194098589953621, 1.051923748202146, 0.25646447120218385, -1.0749080000790527, 0.11551605408938989, 0.3617843932922101, 0.8241160914133329, -0.4658019249445705, 0.041777667039479216, 0.8265965212405463, -1.314949095068307, -0.3063681983932397, 0.5868364209978127, 0.37019981440748506, -0.2835379278974494, 1.1116722208646816, -1.5110655018587285, 0.563920852428786, -0.12427469163133514, 0.6171361097235128, 1.09203376147575, -1.3583350677246573, -0.06844335274947733, -0.17238126788054253, -1.477399197647976, 1.3961832426309042, 1.4773790474936759, -0.5575523233660754, -0.6955885713663024, -0.24446912224422487, 1.6846985109377226], [-0.5041410574245813, -0.5542872233439728, 0.182548644038989, 0.5621593858326316, -0.6439945610667142, -1.931080497374585, 1.0188128051732679, 0.44369117114616663, 0.8228472069655932, -1.019840568345843, -0.2930893123565469, -0.1276944053898056, 0.4500809907314507, -0.3651027825466506, 0.9976341731799557, 0.14542977409346491, -0.05130460822934041, -0.9231505101283548, 0.353125175056537, 1.4482588198543316, 1.0106547441629825, -0.6165813814650454, -0.5715250114757707, -0.0035752063200671785, -0.1107883059121274, 0.20954485580111165, 1.3617335999808169, 0.4736828684842951, -0.41214561475514244, 0.08077633579601656, -0.14238279979027268, 1.191607102609662, 0.4296821841117677, -0.3910455873781135, 0.24636667144050334, 0.8347344732224452, -0.8238866412812498, 0.19018567790273774, 0.26328624248688237, 0.10714469611834837, 0.6147372996162003, -0.6203862391833529, 1.7565192498791853, -0.706877705560676, 0.2489029975808651, -0.11767254155344653, -0.45408029214540924, 0.960417939138019, 1.01251457860826, 0.36807652456325574, 0.7804368925363885, 0.997680250020889, 1.3698315352327193, 0.6285880039421005, 1.952143270700373, -0.24071900705729243, -0.12395612739224038, 0.5478914703350537, -1.135953244725213, 0.7296590110478224, -1.0014298396886394, 0.3660808160666016, 0.9535666703465489, -0.26337817366465494], [-0.7796144808332035, -0.4535404020024621, 0.33783739045731404, -0.12957179688325454, 0.6657186037630307, 0.24036518506379193, 0.9547425893741617, 0.7963496887177217, 0.3709796801407701, -0.381599517509865, -0.10747524784246859, -0.5445082740330076, -0.7870789761901023, 0.595118481469198, 0.15679778659354077, -1.781116211231926, 0.2761497629578247, 0.20756592809529645, -0.9558455141136253, -0.30068478200593596, 0.6776361896854055, 0.12121223593453742, 0.26831299912216944, -0.2404774403470759, -0.18984803607831618, 1.7602273619438966, 0.5336308089167047, -0.553882327867854, -0.7327659815326762, -0.03785717091778473, -1.3903494485215173, 0.23762835986820785, 0.1787040291425408, 0.5121310229776526, -1.0641871239883967, -0.31716334108570327, -0.9538665274457556, 0.02334661932171761, 0.3443247188490117, 1.73757034805909, 0.3788686386987966, 0.965783385975999, -0.8547801774173391, 0.9746569113000387, 0.12461052355001095, 0.2361584612838045, -0.7410503457747405, -0.27953370837945135, -0.6357943597105364, 0.2916007566006396, 0.5585813149646854, -0.49151452526013045, 0.41280254871467836, 0.13729306129620533, 0.008582809961108731, 0.04785605709000018, -0.6689728071705325, 0.7345912749376398, -0.5421999567987111, -1.6409621106204064, 0.03343781006390095, -0.0069063326360307015, -1.630875915601449, 0.16709596149201206], [0.5054022101272131, -0.2506853658516829, -0.4365872270549087, 0.45789276069775364, -0.22000948734009426, 0.22010746597545294, -0.017949498842980846, 2.2604067837702013, -0.5361232670080813, 0.8969155809035927, -0.04556452597138688, 0.16621585659371796, -0.3421390621044096, -0.35113294738434614, 0.01606607838868168, -0.9103055321406612, -0.0029482489159378678, 0.5508351392960693, 1.1176234486689414, 0.38656446768669056, 0.150398413588395, 0.03315050304959982, 0.0656242917125389, -0.7289966821080485, 1.0195718605402009, 0.28642213128342736, 0.3661535659993098, 0.1115084145266837, 0.6941478500540406, -0.43956606787594404, 0.12392510300019038, -0.4729717154490477, 0.04200480887291161, 0.08061781573192028, -1.1526638078777234, -0.0072847242460374485, -0.0697132773277927, 0.5695199207644288, 0.30946644484469216, -0.875595152356609, 1.6357421809379917, -1.1583890906936194, 0.7539444591631776, -0.18826141505225943, 0.6161293762214518, 0.707146446337312, -0.1008099130126647, 0.2703926436888747, -0.25427100800837044, 0.46602603201747383, -0.29205341504531673, 0.9318683452380213, -0.1009786981176685, 0.7869553666751268, 0.13214498390623794, -0.4022983025954047, 0.11216907857728714, 0.5017422790465002, -0.9535068546323586, -0.06859907758319436, 0.7924821410656095, 1.3184872915996353, 0.18100170280410313, -0.3456525955096277]], "b1": [-0.5822955671872394, -0.2285952877174545, 0.44954240516016053, 0.2905985330991296, 0.24344636828937372, -1.0754996784438549, 0.817065326115219, 0.5418381549212052, -0.9657680879772643, -0.3795350602002169, -0.501817754073157, -0.5909621238133849, -0.33699928936354373, -0.6585172918513406, 0.6249228924068708, 0.6231263645667025, -0.0567546416244924, 0.22907645608490612, -0.6560645755969449, 0.13715913955205059, -1.4669831487167928, -1.5358527983290786, -0.27139724873036675, -0.8750769058275283, 0.012975348388269931, -0.4763750844340546, -0.007144517834133571, 0.7939612590922526, 0.12115981924564667, -0.2032119866540487, -0.09758030912406522, -0.2772686257251811, 0.3143668200388773, 0.4045369757846988, -0.7008185401309182, 0.08121760699788766, -0.04438824423646831, -0.6193353636126292, -0.7405446823807416, 0.7891109879348411, -0.6187672361764558, 0.5987392301436117, -0.34237337442529525, 0.02591497417309995, -0.14168502304593827, 0.4427674001758336, -0.04259696407951288, 0.6556154702684027, 0.21043935057306767, 0.7046945339460747, 0.025790443824860704, -0.07220378177940945, 0.9860945492954647, -0.3320831755117797, 1.0011430453750971, 0.6833685482083409, -0.15192099416885768, -0.35719072669899093, -0.2033815680345594, -0.06373424348875145, 0.13062496013325392, -0.6433051279277378, 0.6703421911529734, 1.2704378659338302], "w2": [[0.3099171807774354, 0.21485190581849872, -0.04857939646564344, 0.5981720508100687, 0.32017524533207414, -0.9683008847965966, 0.14805289260827662, 0.9960124598524639, 1.2593515914972797, -0.9734553203657467, 0.7796160543059587, 0.02362637021207642, 0.28523268376846017, -0.8183761814535051, -1.4317075536311845, 0.031165167624569723], [-0.035436938285512753, 1.4706669060111628, 0.016137935888244446, 0.2003339711745542, -0.6313992694388255, -0.23969603691093777, 0.799953305856296, 0.7036464355898389, 0.67961168119741, -0.35678038646739285, -0.5601404652728107, 0.08045453468313196, -0.8926264276481264, 1.0097571540672228, 0.7051455347222463, -0.0037828232760508396], [-0.2757794954974153, 0.22910987512038916, 0.9997093867513754, 0.30734964346948007, -0.5193805973179147, -0.18107705062721247, -1.0303247193334175, 0.10625748791387232, 1.3011552023163349, 0.5587302481225096, 0.3531595780075825, -0.4546469962758974, 0.23467997637125823, -0.9110535105218344, -0.07525501586003192, -1.195005344633677], [0.07793804475145566, 0.3808759421355199, 1.166317411550688, -0.44058832930877856, -1.400714079377164, -0.5222546186647457, 0.29069769263443085, -0.37781601963051936, 0.7829124731474897, 0.8959776043191425, -0.8398395058639236, 0.803627449256147, 0.834518221235053, -0.818492274367526, -0.5692626978938655, -0.5914426156525925], [-0.5781683949914133, 1.326632825044499, 0.664572472160728, 0.11004501039494086, -0.40815297752757385, 1.0079261887167452, -0.46261146339979375, -0.11405307366094268, -0.5217178805306307, -0.06252823145690523, -0.7176229439131991, 0.26859096755980016, -0.4326930552732109, -0.7109924130385115, 0.2188276409360855, 0.15301163430716544], [-0.09238171503206319, -0.48644730518808654, -0.21519398199577355, -0.1380312433007475, -1.01017092397293, -0.04639080464352416, -1.2742634966642221, -0.3560685475460238, -0.45219377906655434, 0.30832790367525165, -0.45446654896512023, 0.1826868416231211, 0.24750642896066927, -0.4493016790946306, -0.23727672015269125, -0.6696538725660524], [-0.08430714665196248, -0.47741802014394474, 0.8620458220901243, 0.5673728833090719, 1.304070481432031, -0.18395112322625334, 0.4156048226069213, 0.5286125102639273, 1.1630446800915664, 0.27400226021515683, 0.49950021784512566, 0.43257901925181047, 0.1532762097142046, -0.5249877577571394, -0.6205036297081672, 1.0857520666315854], [0.509910911568758, -1.4290566736105974, -0.7888425015807851, -1.2934439765572285, -0.7101582932515792, 0.9225160013306217, 0.6804828283154307, -0.13186442151960565, 0.26119093090574774, -0.7734329479082886, 0.6639161980366631, 1.1297046023523263, 0.05371749698069474, -0.6474851790755906, 0.44070108813715103, 0.2782998913932672], [1.3013942374827387, -1.159255597427078, -0.4841634016406196, 0.27971337045943645, 0.5602064782603993, 0.7746743120256079, -0.6980746781552392, -0.6222358548078712, 0.042696239263755764, -0.4013530899741832, 1.4355508021370462, -1.0052869565794003, -0.7443506082512623, -0.7265983961837563, -0.14017658325201476, 0.9342958089061375], [-0.3189383301184394, -0.1791225729043915, 1.710887397230545, -0.2868073496162157, 0.4641281662955334, 0.347891484647202, 1.8916543178397132, -0.023025397643138372, -1.0609453241004903, -1.229317620913755, -0.12653632743161047, 0.3307985435830935, -1.0826645940774804, -0.9584528235815305, 0.5946244393560335, -0.5072930048173707], [0.22483616001105705, 0.6777653003982461, -0.6387646225882753, -0.5224440455271311, 0.22564657786275993, -0.9537417792610813, -0.6732659809996902, -0.735912848898607, -0.8007320416212304, -0.8359091479261731, -0.7290068746988002, -0.866733796650344, 0.5978582628847735, -0.7026892120213264, -0.015245779680270063, -0.46625148587194465], [-0.8633964842280342, -0.17082689808219953, -0.8560626967670755, -0.1660121085712662, -0.8411942777089261, 0.24982201506186014, -0.3844537990780583, -0.28327493144314153, -1.2517482037666352, 0.016059541270052397, 0.41361784456627326, 1.0592418663215137, -0.482640551457617, 0.2640594805788333, 0.21690318971397976, 0.3376814713319199], [-0.8207868179796453, -0.2136689646758366, 0.10243240848084348, 1.0141888328437447, 1.5064171347525048, 0.3638200004508057, -0.35140037290239096, -1.4066031841261022, 0.27857844251704916, -0.5267297398824436, 0.2773449177101332, -1.1618046981073697, -1.0207455215626433, -1.0688596612985988, 0.7376938820767762, -0.2089023037154759], [-1.5292910591436675, -0.9013193682954259, -0.4848651918285488, 1.0427200044722431, 0.3787681879026268, -0.2062034544709974, 0.560766335969431, 0.24041734562741404, -0.686546368776229, -0.32648161803949016, 0.3176412279255758, -0.11206212801745918, 0.35193376573317126, 1.5265816781023358, 0.5226943223388469, 0.14046856350929413], [0.22576998674840487, 0.5781013571326673, 0.46344091508738006, 0.08445618352551232, -1.0126035734945904, 0.15722107750045367, 0.6232310782870534, 0.8687911492009653, 0.39890573997207607, 0.09657098270730935, 0.0895079896405784, -0.38866239994614743, -0.24696311886759312, -0.46820883567961336, -0.16227843789971558, 0.06384900706114735], [-0.06646038503117506, 0.21689997370115724, -0.3163088420939082, -0.6763386941895028, 0.34813687170074603, -0.3930353718328302, 0.06413453317210849, -0.14323773351674904, 0.2717272231738329, 0.058944732679110656, -0.21233889680490992, 0.01492468260125962, 0.23006653274304406, 0.9327577721259352, 0.6714781579002114, -0.8711061485715053], [0.3876509790864217, -0.39365182614777294, -0.14119903736595746, 0.7752348328126697, 0.10723073377286643, 1.0319295801713977, 1.184373627339253, -0.6429123271366769, 0.16978615943696418, -0.33357458713473687, 0.7878380054907629, 0.12012414430768278, 0.3751875539217493, 0.36287819715233904, -1.3387242940014314, -0.33339307976691157], [0.21675599684892988, 0.1402580504652542, -0.3210846995903871, -0.06066010472261146, 0.33453787000221297, -0.05449609665665667, 0.3083839631062785, -0.03430800433626682, -1.2090171484836627, 1.2724505109261504, 0.7373950978625985, 0.15429250091369834, 0.7193679607192209, -0.8257927797222628, 0.14771786344860333, 1.5971427433597585], [0.644922508586974, -0.8667604351086773, 0.23914619851961483, -0.5707063749047081, -0.06159171495569321, 0.52502019970877, -0.21293267457921333, 0.42085348792587457, -0.03753911572367799, -0.3084479095132199, 0.42257265249014786, -0.15441223007845606, 0.5970003777648094, -0.0201124017106058, -0.1353270064190213, 0.16426959048433742], [0.6794442775034855, -0.2978548356116862, 0.3088243167250164, -1.0968747119710032, -0.04234401450740779, 0.2501418622289859, 0.15571041108614092, 0.08080965170941079, 0.18036148888175996, 0.8730817361150849, -0.5028977143978937, 0.6042402261009772, 0.9012049310435053, -0.4758814534472016, 0.342082486593424, -0.19297861901389657], [-1.4903083594445021, -0.32655388132373453, -0.18799617217763354, 0.2757927806574704, 1.4533136144782355, 0.3477794958870538, -0.10432150572779325, 0.167778284032607, -0.7747559791603756, -0.002524773961878224, 0.6464790365851412, 0.8160910004274259, 0.28535186239591964, -0.170078557085162, -0.5486781952517634, -1.0691548744501735], [-0.7601816972571087, 0.9236190361610865, -0.886422642615228, -0.6472983894263414, 0.4779116818906409, 0.9225750877456382, -0.7319957181402668, 0.03093760505994833, -0.981871382382279, 0.5443638636377166, -0.3389255250808938, -0.06819262187034275, -0.580582010384952, 0.0802676885596986, -0.3470841578842341, -0.27350146036322287], [0.2041799405543549, -0.057709629377047385, 0.17171956738413213, 0.39320531886315513, -0.16027108174032267, 0.4269044064419316, 1.0452315112609347, -0.34285377462249034, 0.5725649244562068, -0.9752966916409391, 0.08719681814586533, 0.5341797972161566, -0.7195896567787881, 0.033121313930685056, -0.3474907216935937, -0.1770414571471824], [-0.345583819598147, 0.5414974050438796, 0.4775147369373661, 0.7028270238907603, -0.24757702933718084, -1.0522151283360133, 0.11450282892073405, 1.1208401409808808, -0.03931010321010961, -0.13276539384426675, -0.036597198237009146, -0.2889152978731788, -0.06733220374113436, -0.3564750240715121, -0.598752814308248, -0.22626238632736648], [-0.1493622374850524, 0.28021632745162095, -1.8061941580816019, 1.0272421503565161, -0.03815114282014129, -0.34464197913612754, 0.33059846924026043, 0.8774117704945197, 0.06669884103629137, -0.08726486577825268, -0.23825828777478789, -0.027333150049208388, 0.5787515139722625, 0.3774562657381301, -0.7673528754805983, 1.1032638929969811], [0.7556032786077445, 0.09083734809132973, 0.17850175910827565, 0.8378184862140547, 0.37248368678703736, 0.401123607228965, 0.18362638652337454, 0.5413857234037749, -0.01280407677042339, 0.3550657159937982, 0.0873234236180134, -0.42729771994854704, -0.4723785477988409, -0.345195640850371, -1.498885636026308, 0.6345748828962221], [0.562451092088779, 0.3854381332693432, -0.9123808558883797, -0.19671067810396692, -0.9068255335035582, 0.2837642050490883, -0.42644972691868466, 0.084578134146084, 0.3062594885281983, 0.09977744031898378, 0.10991671309219182, 0.4217717759435328, 0.09089551393309275, 0.49473114592422307, 0.7444581000038326, -0.5365930423307016], [0.2817372597561209, -0.5698385949304884, 0.2902611315764514, 0.28997318647120723, -0.5768304201103291, 0.17556683776494753, -0.6458161651003415, -0.17674997007265264, 0.41014787595855207, -0.05569266783896798, -0.7554709638286673, -0.03994725476191496, -0.6823642496283653, 0.24913824706735838, -0.1327105937951572, -0.31010718513859736], [-0.38573082908721223, -1.73356755202169, -0.03311872408053801, 0.3297678162365097, -0.975577282116639, -0.5027947381726964, 0.16268951017681274, -0.3190727565701019, 0.19222537731019274, -0.28819695129948886, -0.3206667305121449, 0.623472157212362, 0.18013018618253385, -0.7773070457798384, -0.3439799208302638, -0.02104149069829958], [0.5792780592998293, 0.16867905449066445, 1.0451814929244319, -0.40323146191021286, -0.1863231769003112, -0.08015807412292653, 0.06323962298854946, -0.9435111290164122, 0.26018870053069765, -0.38480290691306496, 0.22310259922737047, 0.04820938475718463, 0.14403354925089495, -0.48095030000876304, 0.09380563874714813, 0.28956187463748495], [-0.10564153996345338, 0.38800879873712557, 0.17465254421149393, -0.22700307915003712, 0.904085426869103, 0.6917572621334731, -1.027376794450429, -0.8063103412762094, -0.7568362185646658, 0.3576630243356559, -0.40188971586225075, -0.6038811260426564, 0.5902501364065926, -0.43004896576272594, 0.7100372343975374, 1.2486333049529936], [0.022543521741483302, -0.6979543697958482, -0.23597229477763076, 0.04728459221756959, 0.48849444532383773, 0.29698220666850506, 0.6672835623448794, 0.18378799064645057, 0.12601843414520403, 1.2057768868706007, -1.1167889496846952, -0.4245423387368967, -0.7266821646721091, 0.045221095026167724, -0.05515377875787447, -0.758838586191894], [0.4601044087859989, -0.03747085270925929, 0.32143014665284475, 0.09032270254521368, 1.3241624642205072, -0.7308912014019472, 0.20097248574257626, 0.7085970780888584, 0.5148634846924803, 0.2516116314389103, 0.7023668782776489, 0.2603049771542265, -0.9260842540955394, 0.1740728410405256, 0.19722857391472653, -0.31397738182029233], [-1.0704568978411466, 0.23413336445530908, 0.6914567597446111, 0.4252551156516007, 0.05167085424609874, 0.24693676254758246, -0.9312610285248257, 0.9447575576006144, -0.6041138636742088, -0.8933763188153027, 0.40742681020934635, 0.7183656449153231, -0.26445515085698146, -0.37372989724497296, 0.013110351322721217, -0.2011349303949124], [-0.7061253124605913, 0.39443860128282854, 0.5996304270474293, 0.748959375362029, -0.3152710985473546, 0.10904888270412089, 0.5295549765988231, 0.05357206437311912, -0.17374027132278552, 0.2955046964416026, -1.1098747271504583, 0.501544657992652, -0.9500966695818617, 0.3674384231655714, 1.051942180458307, 0.5832909136321694], [0.03630080646286121, -0.18218707592206476, 0.6230893222905285, -0.6745407618614042, 0.5959266920186986, -0.004609492063207196, -0.4564359729901144, -1.4494171130503557, 0.021718046008444875, -0.052878539633814226, 0.06958992546378523, 0.027211084911419103, 0.2900196619690124, -0.43586802929101587, -1.7462436580898286, -0.10610185498470057], [0.3896862607500773, 0.3655702760775767, 0.020454948763865693, 1.2866202912651303, 0.5145464324504792, -0.2825552637317497, 0.11635331981089869, 0.3442253956515984, -0.355586338109002, -0.02343637658002977, -0.03066091914462246, 0.06641663888478452, 0.06451435669575044, -0.33551678508796345, -1.1494922288183076, 0.35199824320246104], [-0.8218223127239851, -0.39717412814343384, 1.3461774720816742, 1.2732755083297855, 0.4723785029781631, -0.11797311314232002, -0.25041667547952273, -0.12594823837323232, 0.5293391821404713, -0.04313273697913789, -0.3848243548426734, 0.3368716530820939, -0.032369874863381554, -0.3408065823764066, -0.11732182504655574, -0.12420719800325884], [-0.6950808585239053, -0.3090060093051636, -0.9038349517235071, -0.26283357306975036, -1.323143375934642, 0.6767345541056546, -0.2781344329551873, 1.8629419646576157, 1.5101504835662376, -0.25819088667857365, 0.35827259908270853, 0.4958834710563285, -0.15301739110943285, 0.3180551566522738, -0.09705742626445635, 0.07076465196853354], [1.2074073111251566, 0.0946410622204051, -0.010011232431290776, -0.7897932619468384, 0.3104826171462502, 0.2608275237032391, 0.5360358789591047, 0.2606259275535355, -0.724733867156691, 0.7454646831814226, -0.32168019885152077, -1.139946958377991, -1.3844308328766137, -0.5841939985519282, 0.17775879441971054, 0.11558342856977633], [-0.6495551294450732, 0.9035918259369675, -0.5190125695451151, 0.6267683949921032, -0.10472668156970855, 0.538367744224065, 0.06673335766853308, 0.6797411154092134, -1.3654113947028859, 1.0387524556960235, -0.40105822403803043, -0.0418290037325261, 0.3252848975962901, -0.26361458962925166, -0.42997569367328786, -0.21805815277115015], [0.010207999445793078, 1.2368407586976002, 0.35651743260387003, 0.6143252788289872, -1.6090776790509458, 0.07898442579381129, -0.3506205022005648, 0.41556639525525385, -1.0475718201191178, -1.1553225008894614, 0.14092450387608726, 0.26884526116946633, -0.5671180841644734, -0.48754615854397687, -1.646434268006801, 0.18419644376278005], [0.45473231039382894, -1.502708686721714, 0.5999732964787863, 0.13497834831872757, -0.24823463150510333, -0.46563356369618336, -0.3017323525922122, -1.1724167258695957, 1.536135070141369, 0.13869700753279252, -0.47134604844619066, 1.2280614919016049, 0.3095461040167871, -0.4981493052875812, -1.1408689084384587, -0.7575511609905157], [0.07626926891253535, 0.3335755542175598, -0.6933085486126267, 0.37159123647841796, 0.18041816405036248, -0.10339246579306041, -0.6240472223186222, -0.33400541129894545, -0.0316520139072021, 0.5769042728228067, -1.2954303840870325, 0.17007598791734624, 0.4335780304096107, 0.5886819313207412, -0.41615528303100363, -0.6375766642082881], [0.07741500389208533, 2.041274827832303, 1.2148912007609556, -0.6752730706094616, 0.3665401528684761, -0.09842598598357408, -0.80995370156554, 0.7192364781377802, 0.04229863691420441, 0.029349752936510626, -0.3245254616366504, -0.14928743556635493, 0.35601051613117135, 0.30856118817426437, -0.30387627839420045, -0.1261783485772292], [-0.45699839079420446, 0.15384897685302532, -0.9008724038138967, -0.37458479468217987, 0.09053978902402864, -0.8620032690768153, -0.007647876273337038, 0.7523478089119897, 0.9929511512216898, 1.1188415748037306, -0.7069905716249113, -0.15076347576661914, -0.6375017199144677, 0.38059173181246014, -1.2052019092020583, -0.17198025006104511], [-0.6669400688294562, -0.7777097822285508, 0.22815164426446666, 0.271665281432536, 0.2467079181599817, -0.6716292815843015, -0.9283047041615503, 0.07857511557312513, 0.053242341275474336, 0.13614335291045182, -1.534100929405921, 1.108122866881492, -0.48078704691507557, 1.0991326500503407, -0.19802762644670666, 0.5223414597826849], [-0.6408089035011236, -0.40923313078613643, 0.08907361001166637, -0.9318945120881461, 0.43318073884744207, -0.7597755661845579, -0.8870102527386475, -0.23176487748551056, 0.7322500566060544, -0.36256624145888416, 0.8522918182584904, 0.12617347627477263, -0.10852051112348204, 0.9942247463993258, -0.08458737265517652, -0.8237214116934322], [0.2633941380250354, 0.9349911107467199, -0.136676943000823, -0.32909565066531277, 1.3445416247961253, -0.3785591344009651, 0.679863141114659, -0.8386190281054049, 0.5160863518939125, 0.8455365945771036, 0.2459958346410321, 0.9150130101930212, -0.11546012809722635, -0.28953234508286485, -0.36749943145438146, -0.5460934419996586], [-0.7664772938163174, -0.12800528265754452, -0.5532737341900642, 0.3075575907078133, 0.2558665777556506, 0.6083997883005995, 1.09898135302699, -0.7814110112443883, 0.7936237485184346, 0.2324674125257424, 1.0006940614547606, 0.4960154014697399, -0.8550646002052282, -0.44924700280780555, -0.5689574743009822, 0.4417822467703628], [-0.542575892388063, 0.3614399131500422, -0.4036698151592812, 0.10452730767054635, -0.483775882632306, -0.25145829226625743, -0.9971508056597855, -0.4205241391675633, 0.6259339610432064, -1.2462809428159942, 0.5825858983302477, -0.2344155256522787, -0.3311717581473434, -0.8790519753430404, 1.2705832243933988, 0.8093981796024913], [0.3321650167059183, -1.0148192410144823, 2.0977482364333233, -0.2102147116339065, 0.4749038838495896, 0.21396979813140543, -0.8325270267468906, -1.693650422267352, 0.43291461710630497, -0.20392755048818823, -0.07844652933692743, -0.10348632750399461, -0.06680193579058263, -0.3478650802603267, 0.5408965078107782, -0.20066180277290496], [-0.5449004417457816, -0.6014821704705261, 0.1678085067328975, 0.16695320720166426, 0.4597357821342817, 0.2125245737598039, -0.0016962016316296805, -0.3649146923474479, 0.028438111847183256, -0.44996881749889334, 0.628185850329003, 0.965421493131017, 0.5324902030624815, -0.32780000051948854, -0.7990656240439354, -0.26820093024435726], [0.584350443816932, 0.34986923343787657, -0.43481637587464933, 0.16540430997727434, 0.32273463277231285, -0.055142992013653414, 0.5089480831579214, 0.47074248339149627, -0.9755625857638883, -0.6133930800074963, -1.0886479923170773, 1.152268243673074, -0.09328308165354376, 0.46960113096159156, -0.6497967730688321, 0.3985190647907167], [0.21007260486528243, 0.35526841453854835, -1.1109077871791682, -0.06574993530856407, -0.038098289014702164, 0.7566047189131958, 0.8989954694347525, -0.828122360090894, 0.8822231770730201, 0.22144637562321376, -0.0007089019758559634, 0.9794370577353106, -0.6192458526367899, -0.8750095032427146, -0.07220173187206147, -0.33263498126703817], [0.19063806267508593, -0.27130958759008095, -1.0075320266898105, -0.8631290642747251, 0.3571390365683156, -0.008005639100808842, 1.0214095769243297, 0.1624451417375113, -1.3370363648460692, 0.2401703459597932, -0.188164027294327, -0.4189876045215115, -0.025627622979641607, -0.5341944700892625, -0.005730575052146913, -1.4937408294769536], [0.39207322372608716, -0.19372001953316215, -0.4910304183263681, 0.26922274603362717, -0.6261868357401886, -0.28785248096689375, 0.928565734872729, -0.3140248955213977, 0.9135114831661046, 0.010893299558521363, 0.3549329860379591, 0.06423162142124718, -0.7980379476179821, 0.06534405306071288, 0.6482269355291703, 0.2878792482693082], [-0.0836119430858078, 0.11438406552585316, 0.31857433037024857, 0.9897020223749533, -0.08404378469308713, -0.8862468344788534, 0.06834073108663058, 0.7634741222071028, -0.40840470072251955, 0.6954903041828363, -0.6389970378079719, 2.6251245624132076, -0.10085702483071296, 0.2990310125101662, -0.20895068957525054, 1.0791512664956204], [-0.1882719831144251, 0.4811415382691555, -0.40447606846895984, -0.1529458304938497, 0.11178628854838575, 0.621288378151936, 0.6820799205270407, -0.3473350984287076, -0.900966067462337, -0.9719433906743512, -1.032986581780189, -0.43270865284969634, 0.99111271434152, -0.2599869367188354, 0.26265371226471745, 0.648396674031523], [-0.17413560863692557, 0.29564271266943887, 0.4693844560913961, -0.4063994197868796, -0.6499621172479071, -0.14983419533201467, 0.5513341157417904, 0.2252467702674939, 0.8390186571997416, -0.775854788067745, 0.6895671884405964, -0.7285181101543557, -0.061069437353231115, 0.33506687691110154, 0.3219561424616918, 0.6002695747311881], [0.5408700900332196, -0.6763810951271706, 0.3839863386540933, -0.9919826017963027, 0.30212304373310406, -1.0480183827134648, -0.7207050836899265, -1.0931131651673014, -0.6827774084570208, -0.5225774796852385, -0.6521585705324193, -0.30097978626270794, -0.4925342321749808, -0.3151700517044066, -0.12839600793302428, -0.0386817906943554], [-0.1782550566696187, 1.4372314381085594, -0.9743269702278073, -1.0854942481465963, -1.085444164547724, -0.3382465182551895, 0.430029703036629, -1.2281756006330902, -0.5343872539393237, -0.3554579949243498, -1.17411894899946, 0.6979208053525168, 0.4910919352237637, 0.5643363649802916, -1.8640126312241483, 0.12131912065776893], [0.42322309000214364, 0.38659747526323346, -1.7188661120010829, 0.1725147857135519, -0.3983063521989527, -0.16371665620958314, -0.033126363352161514, -0.546206977160896, 0.37036245620763797, -0.35601716678078, 0.5459411073418368, -0.6549613051970091, 0.014945282748744015, 0.4440174478146902, 0.5514493299190961, -0.08066990176943861], [-0.7813330566065375, -0.3706556638028952, 0.4904277300118868, -1.3606833672223666, 0.37850645118035325, -0.6624991478382536, 0.16004925356561855, 0.022947807158546718, 0.4503426418457297, -0.12076289557455272, -0.04761549633236406, 0.7152420862233068, 0.42461251386033844, 0.23968620078543984, 0.19479648093877455, -0.5022240424020251]], "b2": [0.24178617764879215, 0.7589124064038295, -0.5925233227888536, -0.7085892540201716, -0.050458912658031596, -1.9613545673402188, 0.08362235091083059, -0.05248406841573634, 0.1174151719711897, -0.21445632093757355, -0.11554965737533268, -0.8706344057327595, 0.9988192039448361, -0.47892780439926214, 0.21008303778838747, 0.9345757262878914], "fitness": 0.6306122448979592, "wins": 618, "games_played": 980}