{"network_id": 48, "w1": [[-0.594844276381362, 0.7087435043274644, 0.7533922028095841, 0.0246126852390543, 0.43565011539771986, 0.08687014263310243, 0.30585206907394547, 1.2137858286257455, -0.5319320568674666, -1.0223158822038065, 0.0489010593846535, -0.3256885298011133, 0.3123576246848371, 1.2675717000942461, 0.20219820071803504, -0.25565620174202275, 0.6558658060736738, 0.2098066142573725, -0.24386805678887136, 0.049748341800887975, 0.16944906123664696, -0.2032375389408579, 0.43673130953043804, -0.04541161171798571, -0.4836012256044262, 0.25393067755967347, -0.44002957654100133, 0.093203531964412, 0.22439218592711818, -0.12977352905052808, -1.2231121877751567, 0.03614361208043315, -0.06420078930534942, 0.23281788278045465, 0.8182135436085312, 0.054748092998431114, 0.8220356473094843, -0.19388502504553504, 0.1408168665441205, -0.9058362091681111, -0.4176923523357119, -0.371846133899931, -0.2027784674582895, -0.5254961888934147, -0.40135960942903615, 0.4753685277295568, -0.40405320980162734, 0.251591024664765, 0.47776404402229355, 0.720510126937175, -0.8127360835100295, 0.7524225370762193, -0.7159753367085485, -0.06884986376208194, 0.3691604548574876, -1.0814775931483565, 0.07737115760595058, 0.10917220771894562, -0.5941111460630241, -0.6332907171385728, -0.4844575846882845, -0.01096986157067091, -0.2857794261121216, 0.15533280855505088], [0.04984965889945303, 0.4293476113454404, 0.569047231773752, 0.3832796412136612, -0.18934936085233112, 0.37019498333950557, -0.15416041296899213, 0.16406147347958605, 0.07340178566792721, -0.09837405846685192, -0.09326622303073231, -0.1551633877646746, -0.13548874603175992, 0.13093685490299767, 0.12030358456112869, -0.7512162943650856, -0.6070810308965124, -0.20086167329465743, -0.014102436533740562, 0.8488465583956167, 0.5438631411123687, -0.057706467715809576, 0.37205974101785055, -0.8041611149808198, -0.9736591652514229, 0.7467662013226066, -0.7154814550253891, 0.10887030377083401, -0.24111010066046873, -0.010000508927441282, -0.23174548739935097, 0.8089754365411564, 0.2753915656750785, 0.015389748985103258, 0.16453626445732855, 0.08898229251754955, -0.3617886510233602, 1.117484399045678, -0.40184187070138055, 1.2459669457663722, -0.34353464913450055, -0.622517259032408, 0.10063969039017512, 0.15748537514257677, 0.029355234687348852, -0.014924479973008005, 0.3411965004067541, 1.8254176347014135, -0.18021233000390222, 0.16585180393628524, -0.029940349845272524, 0.17034451141131907, -0.399393688273475, -0.007703124206792589, 0.541643282805586, 0.4803782320609322, -1.0681461809585444, -0.3161065006765567, 0.5914359736637175, -0.06505900978868326, 0.47820581548379415, -0.5406616156020203, -0.753867608646339, -0.3162408487684078], [0.32232036333257263, -1.819163033455614, -0.9550820651354368, 0.03259555260468147, -0.8462858656416336, 0.5585421050735497, -0.6644363471733119, 0.6091706926251158, -0.44230346619280064, 0.2796255963107775, 0.8490582515911247, -0.8083589548064629, -0.30377255822447574, 0.9853767285910897, -0.0885998947400741, -0.17695994386528058, -0.8879631510435244, 0.4081348846860454, -0.3800909634273557, 0.5819716172880696, -0.32824774523041567, 0.19511345548092807, 0.27414196729035606, 0.5923857567338515, -0.3379502692681138, -0.05173027988006685, 0.2914840547447708, -0.255520779843088, 0.7699317779168473, 0.579244946933185, 0.2398978845521227, -0.6657139131223099, -1.1303393468291199, -0.4691856064262943, 0.19013845658944104, -0.6352719181023948, -0.4502991866365719, 0.49908725433591383, 0.016513611243450736, -0.20830341776312314, 0.5179130194485005, 0.06255948774997441, 0.24537050469046254, 0.8744451462554285, -0.8131974124372217, 0.5864948368776791, 0.5081875676307962, 0.42715833173062634, -0.3659084945429281, -0.2612972220959105, 0.04578840279419623, -0.08943284833108722, 0.46298801560119834, 1.045529684613658, 0.04517648648198591, 0.4380822142898323, -0.5350972823067723, -0.04668477598044731, -0.0021378860310495434, 0.23732494347568328, -0.640802729977996, -0.033788751401382155, 0.4143748746813154, -0.32482278014452565], [0.3697251639920152, 0.41396373405367476, 0.9194111762382388, 0.4076355159697989, -0.30102124755635307, -1.0560269253019352, -1.0469509788723808, 0.273036138461076, -0.40288972151325486, -0.6887988286490849, 0.4474614593573116, -0.29353815294208696, 0.5110634346808549, -0.057736668361772436, -0.394727009607615, -1.4624605429922906, 0.8152134876379924, 0.39479107063944535, -0.269576296679251, -0.17546958068766616, -0.19527779964533598, 0.23462210511340392, -0.32989259784549935, 0.7032442354591172, -0.001215313437058843, 0.1204506980277768, 0.7343291005177358, 0.06548992807538584, 0.935852055809319, 0.5288756015285243, -0.12105800727199101, 0.7172348502231116, -0.2516358561785327, 0.07522296119689215, -0.9500622844196118, 0.24218655215760304, 0.21519504177192894, 0.018351837179690758, -0.4030094713929607, 0.2969902888363617, 0.07214576362410613, -0.5365439847745505, 0.37720881917185833, 0.2877791362861744, -0.4893468221766778, -0.19886740150530904, 0.3946588164420311, -0.061812335761982994, -0.4088376215515069, -0.5975686282934882, -0.010928515345989959, -0.27940283123803406, 0.8041395669813157, -0.8705294675473865, 0.07019512661747035, -0.06199198758706906, -0.49572046210461945, -0.23282321434966047, 0.310967055273263, 0.01777882154588628, 0.28920802543856244, -0.3619591995504117, -0.08321957574983765, -0.3415020230388577], [0.2728280113268363, -0.2976118177871315, -0.33210073185289896, 0.44323166745811243, 0.01799090035201159, 0.9328493606059676, 0.17226201325544174, -1.374741233598138, -0.9830356157580447, -0.97766308053196, 0.33045102179823077, -0.631114422398044, -0.2816704260305511, 0.1992092990098591, -0.44846866443040323, 0.12941566917489047, -0.8234093354123706, 0.8883742890329919, -0.34274380746748695, -0.3670079988601871, 0.3572727841302763, -0.04345089315703546, -0.006381729707727379, -0.3553179545798049, -0.16181540164773678, 0.25418977815412575, -0.010406902045793753, 0.23038209880672753, 1.2378950340037609, -0.04836967118853959, 0.7138427423958802, -0.5679443969361275, -1.262549785659314, -0.17125947083332893, -0.22092371181608114, -0.284288986105914, 0.5734094217197575, -0.1743744222617364, 0.7683886318519928, -0.1039425231113519, 0.1499806666554301, 0.3985219458212791, 0.13856844924391773, -0.4259369845560808, 0.626362303797531, -0.1576213159101401, -0.41372145333765986, -0.13289853606092683, 1.8048096824051887, 0.37206423980189307, 0.1475104587126855, 0.20140597252824133, -0.15358535679728472, 1.1332848127538777, -0.04475854339245411, -0.6629900550122512, 0.5844383099733472, 0.07679639568878166, 0.07255117076554624, 0.009025863901920839, 1.0782342635079818, 0.11139279324467484, 0.39124182088003534, -0.015759106017356847], [0.5101515935291553, 0.353732119374789, -0.04114132942156981, -0.3546884862633727, -0.4258207288340713, -1.6111603148117226, 0.01244749609365503, 0.278958715124606, -0.5643519007708504, -0.7158049387505572, -0.04444725310479142, -0.6490640198690092, 0.5371141239581787, -0.006577610095005293, -0.12906673240496222, -1.0173263920633597, 0.8757396665986835, -0.7550483133264856, -1.3517970030646573, 0.45855092907613426, -0.4063504960754828, 0.4622513842685788, 0.8431932572567304, -0.4610320785184379, -0.32766234155935414, 0.3804731742521645, -1.0794064791328801, 0.7393772455069711, 0.3337518908397018, -0.22794056252454503, 0.08029560110420988, 0.3954193321480679, -0.6942748357320075, -0.4321036363910241, -0.2989055449367364, 0.13809363612822026, 0.08467648578894414, 0.044626014048201504, 0.6840528637048227, -0.4140262942542751, 0.1349667228561273, 0.04652179054570338, -0.2287895309823811, 0.36425984704947406, -0.2318205764937336, 0.6137878503590504, 0.0070220207713546645, -0.45769937274973055, 0.6787992060420422, 0.28628747300069607, 0.229930079277418, 0.04187427689077808, 0.6328388581571511, 0.3655027275472462, 1.24493648209367, -0.46672124619896876, 0.5560373707295502, -0.32396340888421277, 0.06163166978170786, 0.6820945106466653, 0.46664500080782506, 0.4325789347151021, 0.2202948026302895, 0.3604663836399284], [-0.09785588945558327, -0.1587551470710944, 0.17784193796372558, -0.05517124065369236, -0.8869261203610836, -0.3084992785402133, 0.31869517262066616, 0.2814325797293965, -0.10286034593474366, -0.4038576159990556, 0.04369550864807936, -0.8946089371169115, 0.3691506095066499, -1.5214613554413425, -0.5871553566523006, -0.4769953175033223, 0.7453093954988316, -0.5829362660402287, -0.536606242818481, 0.41117072226528373, 0.01322437004828994, -0.11455561744174536, -0.08938440537397141, -0.2921068108962989, 0.23206901075488798, -0.2598540555993629, -0.902902217594008, 0.600132674724265, 0.6045362195702582, -0.365335204838048, -0.6867255996406234, 0.6136431472971964, 1.0008717136869112, -0.017958092191125236, -0.09368838968842513, -0.03844881854928367, -0.3499912319413965, 0.1471481668691505, -0.2116207143554896, -0.6063745567655594, -0.053224463097976016, -0.33216195197150755, -0.43089882526803885, -0.5094397592533688, 0.26294607725074004, -0.2684605647648648, -0.17633784667044272, 0.9282870731001398, 0.2402402623455437, -0.42905831590398613, -0.5721261898206558, 0.3580314642484789, 0.7770090872693356, 0.47760629894958867, -0.572758997145779, 0.5045123703244163, -0.20227561943049877, -0.33919962016993876, 0.14390324086535672, -0.5970259401936163, 0.03313148282229489, 0.12017547902062015, -0.7553789241219676, 0.06917025301627293], [-0.40657491515481775, 0.84446685851096, 0.038682867920596525, -0.44368238059226417, 1.1485282998526483, 0.6147012254822333, 0.2537967811020592, -0.4846016183146704, 0.14175163474102767, -0.706568429649432, -0.41949655453432194, 0.8621630207182698, 0.7362678163442191, -0.4869190587817862, -0.8738482266503433, 0.006039703972695348, -0.7249710185719295, -0.14433884442534903, 0.30622492156706604, -0.18381444903312294, 0.8515165901812539, -0.27694980498881394, -0.37202347138190817, 0.3959219641541395, 0.2704957049787078, 0.6075861364192212, -0.021197387678267954, -0.8711732802597906, 0.10257191300248811, 0.5880987941344115, 0.9233940057362895, -0.5318729810532965, -0.03330642243519666, 0.7956502801318953, 0.5763554789877402, -0.04259139900566922, -1.5146517336684462, -0.3246614045753979, 0.3617843932922101, 0.4863372532058662, -0.32294626007161104, -0.07924332382998792, 0.4193783286595975, -0.3095808814894023, 0.32366017825497084, 0.37909591156798245, -0.14130609203692865, -0.5700201793281665, 0.6503524849523382, -1.1659063221773158, 0.5025094034745473, 0.21651245770225303, 0.9403237718571225, 0.09075666847202471, -1.3932458014518472, -0.11473286529512482, -0.19862197423145703, -0.8890540273702405, -0.019446759853873584, 0.4719225501327913, -0.45878603740506, 0.24976284228927836, -0.17912909147299236, 1.4687116453663005], [-0.33780807910138994, 0.08839757154747097, -0.420668508537381, 0.16055959446231485, 0.391261198685672, -1.0892047209350502, 0.2758013519393657, 0.23309577971936934, 1.051301381902594, -1.1013173016611124, 0.20081558688469098, 0.2435298180917787, 0.4500809907314507, -0.9241157690224115, 0.7298213425384975, -0.0716287655320902, 0.359245642448372, -0.662539628233014, -0.07763091719124662, 1.1864937106046625, 0.6092103584474629, -0.4179009240131727, -0.36936635389290945, -0.10620665432989179, 0.05305967295676081, 0.24909996958185832, 0.608289611719016, 0.38983164352507016, 0.21011826524311478, 0.2592015694623063, -0.14238279979027268, 0.7466686845062718, -0.13463033672929728, 0.26892311617167325, 0.6806658376330503, 0.6351108413934571, -0.7372121390136998, -0.4457231915285218, -0.5017124434402628, 0.3949662126909892, -0.28559158355920056, -0.2733753407542275, 1.1331103591542742, 0.028253943779945084, 0.19855269100789932, 0.03887660458224296, -0.308507030504402, 0.6169052730301066, -0.5509262076744377, 0.17371533041262197, 0.3161032323735209, 0.18408289291138896, 1.126815155367594, -0.388853130292139, 0.6637545866625595, 0.6973324035421428, -0.8542299116301046, 1.0310333552152178, -0.8253695202604591, 0.6585201607283586, -0.14736343417561507, -0.06663941047760255, 1.047854874880653, -0.0497908351210061], [-0.9171685330250792, -0.4806214124317179, 0.5581321038956426, -0.6549430326458853, 0.20277960086962227, 0.020251137142336922, 0.4035933149470129, 0.47859463893175885, -0.6775656680802533, -0.5525922502078364, -0.5994016081910338, 0.30807179636450416, -0.5407200050787166, 0.309478113222489, 0.1814161002012168, -0.49214999707678275, 0.8398225643038222, 0.18510951432036524, -0.5727264675264923, -0.49757104727564616, 0.5551555646053759, 0.21110058200128734, -0.8428523636313614, -0.40130893439416776, 0.49753178109025464, -0.2953307380526794, 0.1689589847248164, -0.1501721195467448, -1.0089132531053628, 0.08103493665447906, -1.0963934749819386, 0.34582293040083756, 0.1787040291425408, 0.32954146172036614, -0.36670271535336946, -0.7528646813574495, -0.8985889315119381, -0.011548747081072508, 0.397147024127008, 1.0456662816599427, -0.09478445688139805, 0.25695678635087466, 0.18438291994638834, 0.5212026124154854, 0.12461052355001095, -0.2077788428452378, -0.20784368264505892, -0.2581530055501181, 0.3835313559264429, -0.38628302697805733, 0.1723088366299691, -0.003962122462632223, -0.044512352162439844, 0.13729306129620533, -0.21350288613234547, -0.5392207907650362, -0.5411180456788267, 0.3282370112490107, 0.3857061150870607, -0.5421051646271378, 0.6193292566929511, 0.605894815106836, -0.4192882254231227, 0.7221928978552031], [0.05812407717569408, -0.42206526658965093, -0.6944111298450497, 0.3220787306186987, -0.5991086340946181, 0.17318877041497802, -0.30362934572715083, 1.7742738764296742, -0.2944835092641561, 0.8920378997664611, -0.0727717344044737, 0.24654603191490437, -0.35946914383735773, -0.5069241943074039, -0.27585089447549793, -0.632291274515766, 0.9897432034258511, 0.6926684240758642, 0.5306581515593355, 0.2902135496423109, 0.5176638972922121, 0.0520205493241275, 0.17801088663031542, -0.4166645050279424, 1.2326688478208698, 0.8474739864809779, 0.2052906269951683, 0.5504365135433563, 0.3757340143001669, -0.6161445110144218, -0.026502637202469148, 0.35351406603137175, -0.6632420072683917, -0.5853734038037184, -0.6057776799154793, -0.30144369470540555, -0.09602044440460988, 0.24908520872671364, -0.7061427555810296, -1.145371218275514, 0.7265310388907602, -0.6671497770964395, 0.7407493972477786, 0.4331488828386712, 0.1446339308064789, 0.22772287791170293, 0.14152169398641395, 0.4797017828733299, 0.21348512866208338, 0.6494766728246224, -0.7302912001644098, -0.13894247411987823, 0.4869297044842351, 0.455011510313416, 0.6437571102036014, -0.6280506259307223, 0.2281205673261978, 0.43664221284524307, -0.865240351078225, -0.06859907758319436, 0.3410796902809755, 1.6025609418567988, -0.6517648435669473, -0.09055947195593883]], "b1": [0.0, -0.118350294391566, -0.22601111944641272, 0.213100140891707, 0.18401311146753657, -0.2785048227537611, -0.0675973737409007, -0.3815180574912839, -0.09103696089787656, 0.15582185442890334, -0.3382457165780003, -0.8216145977030429, 0.15943559035963, 0.14090765337173303, 0.13759166015580634, 0.5383898929515404, 0.1443668358581751, -0.05224029478318454, 0.0, 0.11543623948513113, 0.23788253916846291, 0.10666082125998894, 0.210103639974151, -0.5579208798940749, -0.033475160839191054, -0.39144072859417806, 0.07676647088367056, 0.13557405808585019, 0.013825019568193972, -0.1945329812683005, 0.0628673890362699, -0.29346704048315564, -0.14225310077001152, 0.45572641748483705, -0.05514495860013377, -0.16595207661738226, -0.08587935416050231, -0.6193353636126292, 0.01096508297738065, -0.11629717008179336, 0.0, -0.12619507550355685, -0.042182592243317996, -0.1881708069697608, 0.0, -0.007351562676545714, -0.047707231160646964, 0.11145348542089023, 0.9873333746913903, 0.2974074202185601, 0.0, -0.26956728593967977, 0.1675914507252808, -0.43138281734138184, 0.3022836673480399, 0.3225726439220926, -0.0973471626923715, 0.6094679926720141, -0.05151441582971379, -0.13802242441127488, 0.6192957821345052, 0.358407193356026, 0.1778118967167391, 0.27180776180829513], "w2": [[0.19593121743380978, 0.0002703991259956559, -0.12136682865706785, 0.259852153295746, 0.5688979392003475, -0.8737657975824182, -0.28868239872159124, 0.17392356300942163, 0.4364243912710827, -0.35068219036323833, 0.19509720055886126, -0.13835413807221053, 0.33266954004397314, 0.026047946894860813, 0.1425383710637844, -0.23021622625180033], [-0.03221475345387237, 0.4736417666470995, -0.008780681667149973, 0.3412857090639136, -0.39889705414449433, -0.05792307536737664, 0.4896264798829473, 0.25106259157762617, 0.0148357931673204, -0.02242259729859505, 0.02379200595809398, 0.14369948587300063, -0.014256059700545387, 0.43634580668734557, 0.2493167105270082, -0.11859697098108553], [-0.3482475810057386, -0.1930351637188801, 0.7955481775425872, 0.29017881340469037, -0.6121121256197697, 0.12718738289597856, -0.1698558664176985, -0.07742034003226336, -0.13402334413247274, -0.2783257963997323, 0.39513238419802754, -0.14127003942755237, 0.28791230639195975, -0.42163420219973546, -0.08754688504069565, -0.17930318748069876], [-0.0032341732418214135, 0.17276762637158322, 0.7931880181624859, 0.10326077152518959, -0.6113021092166179, 0.16585291360735815, 0.3631289613683761, 0.4419716702068519, -0.21915324766893807, 0.4850452165914042, -0.20303663563401075, 0.562084482908999, 0.07733788407463224, -0.20896903722012378, -0.01671381432624204, -0.36786168217150483], [-0.5701534902567996, 0.405218935510662, 0.03888727210825585, 0.3065469203583133, -0.19828632339518107, 0.32653006128557316, -0.15213557405333888, -0.011416250362744726, 0.6549440136874851, 0.2172973204580422, -0.5640808790957843, -0.22702238688209894, -0.19993162728858593, -0.4934103553827459, 0.10935622641491136, 0.4172188668149231], [0.0037854654766730053, -0.24701388363367968, -0.2537161418587646, -0.07499923352299245, -0.0862703675372854, -0.04639080464352416, -0.32555492311755463, -0.07898737138616307, 0.3601791782820097, -0.14898145452288547, 0.03768810543273386, 0.17750602141397037, -0.04895749284927221, -0.02019758540936803, -0.4997125808158229, -0.4590241097198342], [0.9111724665076927, -0.3298740410043989, 0.6205588526731093, 0.7068729791871214, 0.4323058459986194, 0.027407024976713906, -0.0739000359002367, 0.16561593906533745, 0.10140094779941483, 0.06051486983232196, -0.2491830974557371, 0.17653276865047637, -0.22407414573608014, -0.5249877577571394, -0.04783098524014348, 0.39091838898012565], [0.33721513984104945, -0.7691602107391731, 0.03934166319761273, -0.3955448807053453, -0.13887020375843664, 0.05112639156364393, 0.3262187479061579, -0.4676350039001953, 0.1712705290581498, -0.13526719488815603, 0.4243537845655624, 0.1180854645856281, -0.04653959839826842, 0.16816448819086122, 0.2835064973333915, -0.3604702236852486], [0.9553880595208779, -0.06874213050873096, 0.35933159744349097, 0.37540794477596706, 0.21656296429333335, 0.18686547968388317, -0.11804192734263663, -0.417602317800315, -0.03736281778891769, -0.4013530899741832, -0.16280138347437967, 0.12992173564106607, -0.3288625456806662, -0.3815949548460128, -0.4046293142718057, 0.22517648086260098], [0.09609685327153514, -0.2398544384333496, 0.6999180215171735, 0.22518512354632128, 0.2151561718181903, -0.21239786802030947, 0.37544540297860285, 0.5800119186866886, -0.22527941899043577, -0.585044478277412, 0.38598771515133357, 0.27634853797197634, -0.39828395168788117, -0.17999569617468544, 0.3147873029730334, -0.3499124866916381], [0.49692923461915456, 0.08094598307889003, -0.2200403738766923, -0.4801158557633874, 0.2920274545572132, -0.492019845546635, 0.0750427979131008, 0.08203784333763614, -0.3434740693123711, -0.7280914843418606, -0.18981048249864763, -0.22218099156204013, 0.4792185207593128, 0.4522223858030054, 0.331124143779853, -0.41639854990471137], [-0.8208083078410053, -0.6357509854923891, 0.2838359693019196, -0.16935315656911445, -0.2684534254549926, 0.1756012838313086, 0.4611914798114731, -0.28327493144314153, -0.9817037453124455, 0.4867375145831931, -0.24029449963392494, 0.22404156805928968, 0.19918835889315922, 0.14224274797251762, 0.32165594964421895, 0.37789254830142], [-0.2952265009274507, -0.17225086832901815, 0.15433275548756983, 0.12958112201978278, 0.35515213259484213, 0.17392723213339284, -0.33809411936253414, -0.7339899247473733, 0.061214060452130854, -0.4265296359577378, -0.01839657169581263, -0.5461568241950661, -0.5361780584678351, -0.21210604557568624, 0.7471435600567237, -0.05085290902382973], [-0.456304179163892, -0.1264671000454668, 0.08197042601763388, 0.541743045947346, 0.46594810870982084, 0.0389442588149055, 0.6962678185127567, -0.028083725127114066, -0.0513583947266706, 0.15549460307946092, 0.03628896076183094, 0.25562906359680204, 0.7862029613552116, 0.1912916840123948, -0.04827246935449049, -0.0013518982417682623], [0.7615648390201564, -0.1380702086370188, -0.09495407869671738, 0.34911556825694046, -0.18119298683013613, 0.39333440370252515, -0.2646512979869309, -0.07788062964272432, -0.3332996054401783, -0.3650100325425444, -0.23188365332412306, 0.039421481126053065, 0.1423347577054489, 0.019100013193051213, 0.23697765862046202, 0.015858612408766598], [0.027015159054337698, -0.10128311098820023, -0.2325491777834992, -0.47637366588252583, 0.732013369583503, 0.16255117235204353, -0.5553037994147644, 0.11739109556571958, -0.09549066496113509, -0.5085055010783316, -0.2814258208724555, 0.1831116896968955, -0.06830809665350475, 0.08549421979459741, 0.35313228099077626, -0.4108953691397315], [0.41578302258444466, -0.11184526188525605, -0.09940016915443944, -0.5404610560829974, -0.030338999309921746, 0.30077125454762466, 0.0214760906857156, -0.3542604211013705, -0.13627488885250744, -0.401427437047865, 0.9637101325263397, 0.2732724558105744, -0.04005993950819131, -0.0024705449287683867, -0.27817194813398616, -0.48019869319149516], [0.2835524387298096, 0.08679303740573965, 0.40701588046088716, -0.48514700804565264, 0.15085851538581938, -0.0692187178050662, 0.6618504615293589, -0.009082213371329848, -0.7880177687653676, 0.152736041191867, 0.030381132634891173, -0.20049669889967417, 1.0104925365200934, 0.5949462202701197, 0.06662557718749411, -0.44348615186190127], [0.5257276240632702, 0.11427654372176706, 0.10682334516366546, 0.3613421377622519, -0.09944285170940892, 0.08392055913981408, 0.10924999736419376, -0.060760905588750636, -0.13388108447545932, -0.14749188085178006, -0.022976956435754686, 0.4150003217059749, 0.7183262718166004, 0.529709674895637, 0.05770345348011949, 0.3600664368613089], [-0.03441470982329142, -0.49930412981292205, 0.576335903077403, -0.3528800821095464, -0.05600638113423528, -0.09895630130847832, 0.1447915147642015, -0.20996534194111136, 0.9844283805673196, 0.23693823661683772, -0.08271661080488474, 0.342405673473976, 0.6198120088657794, -0.22907304328887623, 0.47377661706594487, 0.2546651630740308], [-0.028714113646889226, -0.0199625635755293, -0.7228792080521097, -0.0209742086127242, 0.8853881783598823, -0.03619723484309982, -0.418151930019965, 0.5428971108113761, 0.07376766296298133, 0.1731567096374418, 0.46363240837137615, 0.23162603900981565, 0.24130697977640164, 0.13369659463477496, -0.058140440734571586, -0.5043455105432386], [-0.5574211586023858, 0.2957050189195404, -0.03339193448884366, -0.446342918088541, 0.3413562845557282, 0.07852241458208899, -0.2825096369861608, -0.37462461823102505, -0.22575396563284192, 0.2470395742804149, -0.3102885462171215, 0.36920072053052844, -0.09995963412158759, -0.11419141313833565, 0.21439079365699584, 0.20854884530868312], [0.5358952887616413, 0.15787276258195312, 0.4138161189867071, 0.6664967528723135, -0.280372959003245, 0.8135373330882307, -0.26561738067917506, -0.4162940703101512, -0.1947628478141829, -0.26236769343361743, -0.13235012694454149, 0.22475747827630965, 0.27926654148195085, -0.1516021247431834, 0.15335858468300553, 0.3953195474696687], [0.09590670933955796, 0.31206946459933294, 0.374631207480317, 0.4421989430041391, -0.14981661584482664, 0.30952632485466713, 0.23912292825712253, -0.143302099812037, 0.2212569085205713, 0.40383541971600145, -0.036597198237009146, -0.04970589023972993, 0.1762217494029038, -0.5527565132422838, -0.04170244511239906, 0.4169122961842867], [0.3829559613697222, 0.13420113647376097, 0.06952193862400366, 0.2134901845155606, 0.067669331975231, -0.2359789327051005, -0.07700805138193292, -0.07670871496715405, 0.04333403663432947, -0.14767689175317436, -0.40136636897744415, 0.6088402594311086, 0.03080495770511811, 0.04134245681354963, -0.36444689092855287, 0.9827845548200762], [0.18077027152025993, 0.020817726317204854, 0.537391670460452, 0.08472892855767414, 0.2053194096970382, 0.2902309323204145, -0.1591466158988415, -0.08218830448646619, -0.10275983989898449, 0.07684743979780757, 0.07606867229854197, -0.033247115960040874, -0.25536647279710556, 0.15206252818555832, -0.30246516656530753, 0.1152059518267382], [-0.001986960151019698, -0.19207159929063794, -0.2963209222207155, 0.2055834689908213, -0.40311947252685676, -0.5959227180395223, 0.2418780058302627, 0.084578134146084, 0.320142583530201, -0.16095997468639406, -0.11314453507132083, 0.7088429002656944, -0.18182922639599192, 0.0186632667461486, 0.12927473640972315, -0.025864703072768926], [0.6507948529901503, -0.02420466588033321, 0.4677540551067662, 0.28997318647120723, -0.3597220305068842, 0.20501150329653506, -0.18673059168019523, -0.8283205193045441, -0.012141581458642886, -0.3803060284696351, 0.3804529624559234, -0.19873949964777093, -0.1831946018677815, -0.44182926029927105, 0.08054994511909794, -0.3131601596763903], [-0.2521941089488583, -0.6788189340009589, -0.10246756955036532, 0.06711111390076505, -0.15714121165425912, -0.5027947381726964, -0.2140632237066277, 0.2901225680626392, 0.11583131799414295, -0.09081559044519132, -0.21523116120680563, 0.0626906065969528, 0.5215439679542819, -0.37300688681125194, 0.0781684862353947, -0.24135650595146177], [-0.5327860378443516, -0.11434647382714992, 0.0811787904387717, -0.41968199087263053, 0.36657143516497814, -0.30771086454331537, 0.06323962298854946, -1.0767888478346537, 0.2776691220387404, 0.04562817080565049, 0.25520613873504305, 0.15607845961870387, 0.3012417090532481, -0.49678824976092173, 0.03832194223009133, -0.4969248638935219], [-0.10564153996345338, -0.28427927604130265, -0.610772228617799, 0.1787607096385933, 0.9745578179925561, 0.3399591521681776, 0.43239880452847, -0.317465192039492, -0.10511779972469242, 0.46983508179646666, 0.12359333509296178, 0.10946905851142447, 0.20315631808649842, -0.7916790824383956, 0.25748997219645414, -0.2866926683639578], [0.2065789981055263, 0.20244965287747835, -0.04518083822869029, 0.26516118282835294, 0.5228791146695326, -0.062143908733805736, -0.1279562965727638, 0.00865167428359695, 0.37817454193356786, 0.23574842934110005, 0.40360942318486426, -0.694716013311919, -0.4339505059914098, 0.17713535592311427, 0.2828566524587307, -0.006952566944987073], [-0.29987265030985477, -0.03747085270925929, -0.08939463406782511, -0.37297724817103145, 0.23113555960131318, -0.0650612791619775, -0.019160040150923374, 0.347002314143202, 0.19159494285658416, 0.754173146819322, 0.6017418195232195, -0.0350880332466989, -0.29680900152668005, -0.00027927792859439027, -0.041305310821316624, 0.5892482970583696], [-0.33026510233872935, -0.0048319377195684965, -0.008074665092046698, 0.9274850417003981, -0.22254400036990102, -0.11913765081205313, -0.22244197097024965, 0.5725837337976122, -0.45984143334251887, -0.3965445170431887, -0.10228927421818361, -0.39000852597905794, -0.35747709194545224, -0.10885717507846715, 0.15446398218745822, 0.13123052734198537], [-0.2704412283494383, 0.18326987338673498, 0.7473330328473956, 0.5485095772439035, -0.27324193133794894, 0.5590257457294153, -0.01077664763259839, -0.5335409136258559, 0.1251628848370796, -0.1327114906046245, -0.5793092648194403, 0.008312999065099975, 0.19578060860905622, 0.14503907322366563, 0.3144330483728602, -0.05808979739851787], [0.22989844986027316, -0.07633643149901859, 0.08977951149282798, -0.039678899004033014, 0.19935148687862542, -0.8266430800890208, 0.09072810639544558, -0.7232299735023666, 0.1245487435176923, -0.2875176491212411, -0.49399132856354305, -0.4094826093898229, -0.04062223426385182, -0.10647144312156702, -1.1058451142275458, -0.32437855800353094], [0.5529994735808273, 0.7207677019194787, 0.3025398237253911, 0.47655062295416417, 0.14207406865496877, -0.10836232055058606, 0.38914949170193885, 0.555464928044351, 0.7312719947115085, 0.06320703926506599, 0.21533058528428153, 0.03638824744613053, -0.1232664456397252, -0.09318585181571759, -0.5820326155679972, -0.03624037040113407], [-0.6175424069285718, -0.35827400926833974, 0.1492633624108205, -0.07527420584924188, 0.06783134246622956, 0.05889919671449689, 0.8607931848923482, 0.42321078959108993, 0.41461854029324685, -0.18686988365587795, 0.1933322593522499, 0.18476847586973796, 0.20733971487365527, -0.32780159989605556, -0.12322441832526275, -0.3265074401684985], [-0.7051110376513468, 0.259206605410798, -0.6611461807742414, -0.18478588102251287, -0.1864202197332162, 0.09399407264538684, -0.2408333571905174, 0.3222256258227078, 0.11131168807211618, -0.2082645247854651, -0.06172360004784011, 0.3611812682547292, -0.2518688254673811, 0.025820542338140476, -0.3338234643676109, -0.18672590584309828], [0.6151256257810072, -0.1533680639384163, -0.20639446199344172, -0.13631597598782635, -0.019577048231542993, -0.006668690036160441, 0.43288977505739124, 0.08225087747194335, -0.21459720717350658, 0.13575911634794527, -0.42434473065558836, -0.3279629336338338, -0.1601414892783335, -0.5659498207701286, -0.06272007488766965, 0.2930583379354744], [0.03460008498778905, 0.8972622254545578, -0.10921035098212778, 0.16869442053292982, 0.0540766854366892, 0.10923965696379458, -0.062341270385061154, -0.2680482209761229, -0.11373344353010124, 0.045107322528797955, -0.4628556410604414, -0.10314650713006186, -0.8083245170414111, -0.46309642019976893, -0.022680899091008663, -0.6720239101224652], [0.425852294017008, -0.03712720686354942, -0.13726255988657338, 0.14651386417356493, -0.7450232993077689, 0.22813852074447144, -0.08290102935798424, -0.06540016829943918, -0.6298343610440077, -0.07436615035766109, 0.09705760460505335, 0.04469182489177002, -0.6189734592909217, -0.24507529705641423, -0.8823828157177791, 0.3432480830893958], [0.06233860477290741, -0.9212547593969529, 0.18846374623123416, -0.16377992706687172, 0.0011271735659971055, -0.46169315130203487, 0.31965711291613846, -0.18737935063113428, 0.5552288546763439, 0.6496863078540042, -0.47134604844619066, 0.6487145801616261, 0.368403416500203, -0.35591492093439214, -0.6267021086988904, -0.020873886555188726], [0.36313528369509046, 0.26097049247968085, -0.39984978443067276, 0.09384768478866683, -0.29176785187350923, -0.08078776592251488, 0.15364902742374376, 0.05270876685557641, 0.5112802222042162, 0.48559462352507354, -0.10922490166812222, -0.04550027721240174, 0.0901398347939999, 0.3489456956348112, 0.2046416236767653, 0.28963879127830316], [-0.07203318340919052, 1.0548414620748598, 0.6240396965632407, -0.005829508629845409, 0.35231968211542697, 0.07286613514515178, -0.4868843267459111, 0.6633778468037923, -0.0026083494427224744, -0.2670859500677274, -0.660171128768902, -0.06584033038163555, 0.3554492418832835, 0.25946306034551025, 0.32106886907328896, 0.006134311450585683], [-0.35675057921540587, -0.003191093684005079, -0.9340239681288016, -0.3241459906974545, 0.3553689521824876, -0.6741468114531527, -0.06492057653469506, -0.12316519211979224, 0.7320962484642157, -0.296971916952955, -0.13355296532840416, 0.4521218481574619, -0.06474299435725556, -0.2700545240971173, 0.5527309156634829, -0.14918413934610114], [0.19271541826686886, -0.45380332446971444, -0.14710584575155922, 0.14816758320941334, -0.12421311483197192, -0.3217257841309119, -0.01596262213661509, 0.24636312042183262, -0.2521868426836965, 0.13614335291045182, -0.17909298752803596, 0.3745673969883564, -0.3074878780690946, 0.06269092788737424, 0.08201647086596489, 0.13024114943947276], [-0.6517241317387179, 0.007131590595072276, -0.2119662086470085, -1.0125076792147838, -0.024047813306828595, -0.16348121895341058, -0.16717555391515568, -0.04707131392341063, 0.5066282164978761, 0.06331215233390422, 0.1349924245427552, -0.1747471713916598, 0.07761554549142224, -0.18801707806649176, 0.01496073427210215, -0.1358587852829835], [0.5249257447953627, 0.38911159040930765, 0.022077374451265952, 1.184862216109806, 0.4499255569900342, -0.43595695021609937, 0.6701081089403154, -0.15789333319052853, 0.0569983626520449, 0.6815904521488942, -0.06219503427603312, 1.0783124321558843, -0.44716915681470926, 0.05088440328539856, 0.10513927295371849, -0.6576398856337439], [-0.2651473571771732, -0.5153830684147916, -0.44494914404315794, -0.04353953183950843, -0.4489702416493507, 0.14973886049980137, 0.7871840813182092, 0.6372334666226454, 0.24416458290570173, -0.10652617119528868, 0.13387376187833408, -0.0019391301813411472, 0.36536447432615654, -0.4765414918014531, -0.6818869908066201, -0.01863932573520624], [0.058186489598356594, 0.13338814135175386, -0.20972979187440463, 0.5632363893527959, -0.20743352058509282, -0.25145829226625743, -0.4486944549733688, 0.3452852437079373, -0.2081709235569545, -0.03423370537707021, 0.10886457454229745, -0.4109438275360149, 0.10326531394008631, 0.03752354410836856, 0.5255684362335296, 0.4541013144399915], [0.24495373187255023, -0.1516835439980355, -0.05553528474071143, 0.19016707051180923, -0.09644316247046927, 0.0347315374304502, -0.04112597664977867, 0.07749457653044715, 0.21397278728714847, -0.35990062611099705, -0.569420385012882, 0.28095626200302126, -0.22892212289053904, -0.14402871238349052, 0.24220779432869366, -0.636128667548047], [-0.04950610653628865, -0.20221834964232283, -0.14727750417723434, -0.3527928646460352, 0.34426909394995775, 0.31717508749234163, 0.10144605955665452, -0.16437512232166251, 0.23815103624286413, 0.39625540031996775, 0.0656974655617581, 0.2673636188376248, -0.09037602466213958, 0.020434915826371605, -0.06810316907883085, -0.1322992752024862], [-0.21480201895603313, 0.5164076385843681, 0.3370973925177009, -0.19743478903307266, 0.24963689088649216, -0.23487918393438997, 0.22671146328918784, -0.030551791287745128, -0.48696764629164124, -0.4030277791903395, -0.3602971140086405, 0.5495848374203764, -0.27871200518694933, 0.5266468528615087, -0.6647431321606927, 0.014960710815711833], [0.5261982585442114, -0.25682517904597363, -0.37693304040668524, -0.043912214813039106, -0.038098289014702164, 0.6990884467809285, 0.2676226363894433, -0.4227577198657364, 0.16325023151751272, -0.044759401873644106, 0.3541334136309582, 0.36624303872632474, 0.4486405217477808, -0.44740307587386297, 0.3757087253172404, -0.15272962743832846], [0.15365193773230112, -0.029160157071118298, -0.17921946614195794, -0.23556239874105595, -0.161309300982283, 0.11445237727286228, -0.04919335171731508, -0.029314947708153224, -1.1572862321880035, 0.35369192999229726, 0.027642177945443575, -0.0523161199651076, -0.48187811644735584, -0.2880464382874941, 0.13253199412838493, -1.219805045375399], [0.3522473577769446, -0.39670317915648695, -0.023633942458067436, 0.46964269896568844, 0.21610347023687815, 0.07941307887808806, 0.2928159135556296, 0.14393805588882747, 0.11163379507485177, -0.14896437200143495, 0.055369015227772767, -0.3846594092504159, -0.3046720901053549, -0.09437805836348133, 0.17002293585073133, 0.026367533590701375], [0.07048447748863308, 0.01802956156196417, -0.043513563974999114, 0.5347676480499788, 0.38227350243923597, -0.6892208773265557, 0.04729459786232755, 0.09813052925296992, -0.5312803835776654, 0.2134536655156284, 0.06656207592337843, 1.4683206590781959, 0.27814846978667385, 0.4637546837386789, 0.21920267074455826, 0.3249245114894298], [-0.11745096669173102, -0.15658540687195627, -0.003501947127757088, -0.2318579363176132, -0.5275762659236193, 0.3126660483866026, -0.18430029411714918, -0.012869496528922997, -0.43308342521167287, -0.28262498324741897, -0.8660926037824047, -0.015387256241444824, 0.6670717266338918, 0.13373683674044928, 0.11804849604453123, -0.014292229408349288], [-0.34125039958266257, -0.7000517530885079, 0.4453800488397814, 0.0047327067162539205, -0.03694287794862781, -0.14983419533201467, 0.3549677647177494, 0.3008238714070353, -0.03401118194521163, -0.24237369261913805, 0.16072138153391322, -0.25537183011149234, 0.2204736132979449, 0.20038322130391253, -0.11307747231858264, 0.43528916048809396], [-0.16308380971723158, -0.1612816691398605, 0.11736991395105827, -0.09136848278213355, 0.06243743217931225, 0.041938672571214364, 0.07292974169620797, -0.5049938552073994, -0.3254571855197945, -0.15985693274901316, 0.006647863732532705, -0.35248877133369644, -0.16623805377396927, -0.29796226638393053, -0.15831984946135794, -0.09007051752298553], [-0.43009668654991967, 0.24294037455147405, -0.36418746104811583, -0.3651603358511105, -0.12399336325792792, -0.8346134607752187, 0.7620529187161513, -0.25979828351996775, -0.41952552108677693, -0.035409351241993195, -0.6824808886085167, 0.025233208995342732, -0.08657284104270817, 0.23054663126817113, -0.41196401432595614, 0.6690056653773455], [0.2349849979843388, 0.6633260061380966, -0.5748681821300805, -0.4110114991342296, -0.4511299931674134, -0.8479539594760885, -0.3781407806970152, -0.16375286383436438, 0.3885162726768996, -0.23692975334377506, -0.09361245491132245, 0.0013156145182111612, 0.08327146187139425, 0.27360800556472165, 0.1642335725103432, 0.4604201164220483], [-0.18688174399731852, -0.009753067512295335, 0.17462727125801042, -0.6790860461194498, -0.16230381080749734, -0.6393676589629973, 0.0842838553625965, 0.16850923862032835, 0.3633596989900428, -0.2833746521390425, -0.4390141660943883, 0.18184920282790057, 0.01888881367752457, 0.11450376843879803, 0.09024413621816615, -0.22580549283189835]], "b2": [0.149258241237402, -0.4139040180554251, -0.23944042288728934, -0.21469871939622284, -0.07086366721650811, -0.7075221700818464, 0.09942139095796834, -0.1665252522843047, 0.08138395463903454, -0.11640572190255853, -0.3592645354674889, -0.2859501855915625, 0.6356476464071819, -0.18921457241664874, 0.0, 0.05020019387066121], "fitness": 0.6357142857142857, "wins": 623, "games_played": 980}