{"network_id": 1, "w1": [[-0.694966232596973, 0.34133497408712304, 0.7030586704011619, 0.09091055624291762, -0.29465762458002265, 0.4926702240884841, -0.3751210953635412, 0.6853135563585286, -0.022614551917981562, -1.481949254815931, 0.11711299698452862, -0.5286280524891377, 0.29516225226876375, 1.2199955605142867, -0.23690841357244594, -0.06418226700359347, -0.051041994915574554, 0.4366014730938407, -0.053217281650250886, -0.8832509710349927, -0.4561187707248602, -0.23591396356487604, 1.0648493871737157, -0.1254983799697395, 0.07073331452023635, 1.031748403759887, -0.10464878571866687, -0.18946360731019227, 0.5558996543031127, -0.09428173477039686, -1.1713884741052343, -0.8700844999354239, 0.9749342662985906, 0.23553508000750253, 1.0320661587801707, -0.45058519667254376, 0.8493729757989924, -0.38571790015144525, 0.41809470450327324, -1.2532423237316537, 0.21865161583361975, -1.0126369829979578, -0.05096218284817064, -0.7367001790286678, -1.170720581881607, 0.5381357634805206, -0.5896070228538453, 0.07473551489457461, 0.4641203932175191, -0.29774994752739703, -0.5010231047926645, 0.17113810266443463, -0.620707809735382, 0.3617433453045485, 1.1623005886612956, -0.8134784604987371, 0.4662912633753024, -0.0765886562223006, -0.7589665870451109, 0.15652979126250843, -0.5108657815041616, -0.1251586678901268, 0.20153125015055823, 0.17175247138261213], [-0.7000410078790285, 0.05555595077809233, -0.7650361253685485, 0.7181455728744841, -0.38846531672116386, 0.7964368487902183, -0.27458983545984206, 0.24971650625444525, -0.19355453018486296, 0.5108871840098932, 0.027853843492702784, -0.5010120078594417, -0.9214171404653217, 0.45894922369607977, 0.8062619823161652, -1.2059847339612573, -0.7906869997465608, 0.3140095637023843, -0.1537066225318534, 0.7312589685158666, -0.413656458005373, -0.31103430689196754, 0.9896067530822279, -0.9518738527592432, -0.8885411997065791, 2.0204146902430606, -0.6383971514642753, 0.03906975505932109, -0.6296572186568934, -0.21756138932667615, -0.23174548739935097, 1.219611131540419, -0.1686421146969782, -0.21952174180244777, 1.9595110095424757, 0.5694985937280028, -0.7325773129235226, 1.194749619525838, -0.40184187070138055, 0.8067513482255293, -1.1562134940573094, -0.6516776029947778, 0.393654150989068, -0.5732417872026986, 0.2932185180678946, -0.20451856629759155, 0.9041666099058108, 1.8254176347014135, 0.02091122164397552, -0.27213533668562395, 0.7811900640740461, 0.1079803462837241, -0.28971785151863055, 0.5385294454107397, 0.541643282805586, 0.23611129863410685, -1.1394175662704824, -0.7773847110390517, 0.32275003340452363, -0.026123849882848216, 0.1661909836124637, -0.5067586341445214, -0.33967728808913755, 1.2026812467576038], [0.5193740873507653, -1.4079194783548425, -0.8471533434250054, 0.5588009494929456, -1.0952825957723826, 0.5059854537941112, -0.3642210797640585, 0.3124981999441365, -0.42814320639819897, 0.2796255963107775, 1.0662795692113045, -0.9355544170308029, -0.3330611443443108, 1.655205803077078, -0.0885998947400741, 0.2831478199199887, -1.362623110623374, 0.3654984658363152, 0.11322761733489417, 0.824265891982863, -0.32824774523041567, 0.19511345548092807, 0.1512055327071514, -0.08730271705044945, -0.7853650219025585, -0.2836748156442987, 1.29152483108868, -0.22034889602879354, -0.2301417541034583, 1.1554083673244817, 0.7477817673061532, -0.3867607885500227, -0.9562343622324821, -0.6728900888161631, 0.5057427779845557, -0.1966090638491519, -0.261863781054826, 0.2716132023556838, -0.4943481457365, 0.23699032319113156, 0.8266939510872999, -0.08567217731484714, 0.46912582056861485, 0.9317586837833293, -0.6999961458238502, 1.1030833292690538, 1.193442313158106, 1.0301235703197185, 0.7109104870676423, 0.16593709617761146, -0.3966760818247584, 0.1316963114681792, 1.4696211453935764, 0.7530710562714933, 0.08288671717140092, 0.3474736111148188, -0.6470419826426572, 0.2234534889518653, -0.22753981833296694, 0.11074635489506482, -1.1960759218494645, -0.17907020874548638, 0.27072505381615225, -0.1397868841894005], [0.6353144397279078, 2.017127853574088, -0.6613619625242303, 0.17423879096440092, -0.47635226626525595, -1.0560269253019352, -1.011941270826185, 0.005361382611010046, -0.7931010240153678, -1.2498629446574003, 0.6335931976969515, 0.5186887315678542, 0.829517447649088, -0.5009943127006917, 0.0699260244629214, -2.307306332426146, 0.10600282595806165, 0.1931262624327069, -0.3558237977662504, 0.03308394974572482, -0.7465482340975648, 0.9005139690710305, -0.40092592166912555, 2.2687554263915457, -0.6857143726514603, 0.24444374306898667, 0.8845029547456482, 0.03650468229743211, 1.185179480637101, -0.022856877036477985, -0.2668878241148593, 0.544759162949698, 0.17332369063219188, 0.2562870738019087, -1.5258313951939044, 0.15542508209387346, -0.1282849728712921, -0.05376669919978245, -0.46504718256854305, 0.6335098354069467, 0.11424865634556708, -0.5698065665283317, 1.0018917099274949, 0.2994559691802864, -0.5403322422331337, -0.704595182610338, 1.0410187822892034, -0.023369021194284953, -0.46232843066735985, -0.26165255750981203, -0.4634978359511127, -0.6774185188828588, 0.961275897932366, -1.216389867613336, -0.11219714511987638, -0.6723772874397415, -0.45143052981668286, -0.5298610456834018, 0.7594097157990838, 0.7831401888711677, 0.6853867574063734, -0.3619591995504117, -0.4074160015157926, -0.5594014236503824], [-0.23927545981421688, -0.5933379145881645, 0.10896670285071319, 0.5837098906897271, 0.01799090035201159, 0.2881338175615718, 0.5769393309604967, -0.7513921463824351, -1.5026151823501084, -1.064937204472724, -0.9499365192862719, -0.9965706272052235, -0.2140559525878409, -0.24677743057250276, -1.131541226719921, -0.051280089121648574, -1.2915740106289866, 0.4305123786678438, -0.9518934347183308, 0.17360263437406395, 0.04492874720389768, -0.04345089315703546, 0.8162724702843777, 0.17078836329927466, -0.16181540164773678, -0.08414774288034416, -0.38717234308883147, 0.23038209880672753, 1.4857859418906354, 0.21774717039034852, 0.39804885549483043, 0.5915697994328409, -1.210219051724391, -0.06550738831386095, -0.6872460412378499, -0.7656921596931553, 0.5678227102807948, 0.5444862098015004, 1.03550205053833, 0.16321430203150206, -0.6805065126829846, 0.22010591844617186, 0.599201000569265, -0.840731234646625, 1.049701822967944, -1.0107045176568696, 0.06302603011233282, 1.9148558594570635, 1.5566099137713092, 0.51552399018219, 0.8252884399516267, 0.19470704286261342, 0.765822753122067, 1.2529353152185758, -1.111127754605523, -0.2109888986110669, -0.6398259012006218, 0.1089077120538926, 0.2537241845315528, 0.2644518942392999, 2.12512640120451, 0.4078007902197443, 0.7465713586322619, 0.5080953031986151], [0.7648877846074325, 0.9986138535855222, 0.14226258669828942, -0.10883100001582087, -0.2802339129334639, -1.9173136897830205, 0.01244749609365503, -0.05244581592463421, -0.1015707309818975, -0.23207502658608598, 0.06742378860771507, -0.34963748155710256, 0.33635500941259033, -0.5621339117897682, 0.2727956192236106, -0.38208796819974744, 0.35894794291217974, -0.9594190859400287, -1.0973130801936257, 0.10902730291006127, -0.07400242707854118, 0.7232113763620014, 0.7513228149267165, -0.5182277760456016, -0.1662659817510292, 0.4254564612741702, -1.6344250095997637, 0.6728519564855858, 0.0013906594346376755, -0.3839713640413683, 0.49396763464003934, 0.2087230079569678, -0.6942748357320075, -1.0803158978961693, -0.30727823507552754, 0.13809363612822026, -0.7265105898960594, 0.11401440088290724, 0.5104392255105459, -0.36705289099594257, 0.0013448863252235876, 0.32300846749824974, 0.27827372742332, 0.7295466176825911, -0.04337077405178999, 0.6046003783138638, -0.26254960121484594, -0.20747239080104837, 0.25615752800544245, 0.8310709028840885, 0.08752004516995188, -0.30359709011128144, 0.7534082926251671, 0.3655027275472462, 1.219855089247471, -0.5579270825261788, 0.9677262676007081, -0.2898897226602765, -0.09021985468109164, 0.3851702685200127, 0.12316484236991682, 0.7133462700000204, 0.2930770675685027, 1.1550075917597624], [-0.4731236357500489, -0.316765272683645, 0.06759963695854923, 0.7167862013457532, -0.6416431499258379, -0.535397612266348, -0.31272569904558767, 0.6651658241461964, -0.37964146614994276, -0.7538670714560249, 0.04369550864807936, -1.203033572443797, 0.4166215678466293, -1.8771375978720561, -0.4998586953776074, -0.16533350478923137, 0.7453093954988316, -0.49866936536634343, -0.7515372461306337, 0.7697650432717698, -0.07157640602690576, 0.009946959965354024, -0.24261328728091633, -0.9557794996569382, 0.26425311941636115, -1.2368279603811774, -0.6423056250773537, 1.1292431702082872, 0.9182809501779392, -0.5082850235841607, -0.06101447196115484, 0.8588934804209266, 0.9169426766666472, -0.3554353053790355, -0.09368838968842513, 0.4011769384394969, -0.8089808325149537, -0.2907081867415696, 0.012570663511535352, -2.0359690162691475, -0.6150979530859045, -0.33216195197150755, -0.6321804782214704, -0.3956557781239912, 0.409739983177011, -0.10371266420354726, 0.030092203790613004, 1.1569443790075207, -0.36536495329826835, -0.2118860815196886, -0.8039662313475333, 0.09000679537848572, 1.2337140167036078, 0.12073113585199047, -0.7794814929842901, 0.6187956513198114, 0.6536281425738513, -0.27538254066202694, 0.901268742500254, -1.355229472415461, 0.3723113040677182, 0.38276611705125047, -0.827052086149695, 0.8762138837957933], [-0.6412124250817862, 0.45357592529119267, -0.19783585740041573, -0.014770901858952468, 1.3688366648218666, 1.1635263382785865, 0.3109311600398647, -0.05023103090616016, 0.4489957017563445, -0.022061427159511537, -0.4955919339139805, 2.07514707879455, 0.7362678163442191, -0.26743896476965034, -0.21747314982024396, -0.590390153632394, -0.3980644472157625, 0.01668342523717628, 0.7498326361001748, -0.21027056098631858, -0.030477501650902683, 0.1430263089790112, -0.24946103582183093, 0.4367304671123171, 0.15973856741914483, 0.3407160657386344, 0.08979936599569108, -0.5694425215638641, 0.653371418238868, 0.396771544685412, 1.5006012991846618, -0.8100009673159001, 0.27326902883413545, 1.201565317972985, 1.051923748202146, 0.09197590790948734, -0.7696600292664298, -0.4067659365343103, 0.3617843932922101, 0.7589896747845906, -0.6099932483613011, 0.041777667039479216, 0.6855371168487603, -1.0062005987371778, -0.3063681983932397, 0.5707696166511682, 0.26839557528732394, -0.25461339679809136, 1.1116722208646816, -1.57210008503754, 0.9210994914245777, -0.21361257000026823, 0.6171361097235128, 0.685258412785991, -1.7602900811457864, -0.06844335274947733, -0.17238126788054253, -1.3674322483092136, 0.8185726395441045, 1.0307784273866656, -0.5575523233660754, -0.6955885713663024, -0.5659744521939862, 1.5502828364484327], [-0.6327605516934531, -0.5542872233439728, -0.3215807624507291, 0.417781131720405, 0.4168682105155832, -1.959212840225953, 0.44177152081983223, 0.6144821143663168, 1.3052510418098717, -1.2931491726355302, -0.2930893123565469, 0.2435298180917787, 0.4500809907314507, -0.642177303756401, 1.3695623423498136, 0.6434954023789676, 0.359245642448372, -0.9231505101283548, 0.04693005057594211, 1.4050400688458997, 0.05187998129031157, -0.869688893599524, -0.6460309645042375, -0.09141056010876691, -0.35434222781417235, 0.40533535794768566, 0.6903170614706577, 0.4736828684842951, -0.029528564767856674, -0.26551633132863, -0.14238279979027268, 0.9642597283363156, 0.17369576035177695, -0.3910455873781135, 0.2529738706885307, 0.5855373109492139, -0.913145831753726, -0.05019139093375848, -0.05437427342089357, 0.24175326104433392, 1.1364104054285369, -0.6203862391833529, 0.9830346119026474, -0.681327959418086, 0.08180192640876496, -0.6543051597900624, -0.5190917814919817, 0.8957081765171964, 0.9901615397591378, 0.4427978566533682, 0.5077502928272313, 0.6996727580936524, 0.7774842419040142, -0.2391434242385018, 1.5382692748343396, 0.400301787884557, -0.49627815764316685, 0.5381758140893307, -1.3599862671935428, 0.8100643924347686, -0.6468395897976927, -0.3122214426450607, 1.177312812897762, -0.6514713033302397], [-1.3119460159808234, -0.454178621618597, 0.3250939942591583, -0.3121508182199444, 0.720478945967446, 0.09511001859036713, 0.8045802148693456, 0.7963496887177217, 0.11780618062627124, -0.519973478565223, -0.43554081609811657, 0.19960818722761658, -0.7870789761901023, 0.2361147846079433, 0.0972189817469134, -1.3939963172553118, 0.2761497629578247, 0.20756592809529645, -0.9558455141136253, -0.02669637523375573, 0.2944396138491498, 0.3577608128626461, 0.09432745551899999, -0.13806968325528057, -0.30742303979285446, 1.2022094218686563, 0.5336308089167047, -0.553882327867854, -0.8069932472340124, 0.14836208312925123, -1.1217832551287827, 0.23762835986820785, 0.1787040291425408, -0.20059385547814212, -1.0641871239883967, -0.6453110433496071, -0.9538665274457556, -0.19201708174231272, 0.6097229698145685, 2.020429061169062, 0.3788686386987966, 0.6073246913131843, -0.6249991562266699, 0.9746569113000387, 0.12461052355001095, 0.2361584612838045, -0.31181106060144437, -0.27953370837945135, 0.02093734231124883, 0.2916007566006396, 0.38940932961425334, -0.003962122462632223, 0.42257306931478505, 0.13729306129620533, -0.01266637577494581, -0.2993058075440409, -0.6689728071705325, 0.8341736082512236, -0.5421999567987111, -1.4223754203197085, 0.05839625881502425, -0.06226455048348023, -0.7396646827565317, 0.24670451902803048], [0.6325813844763931, -0.3542646837586995, -0.26060618161868676, 0.07162824430121627, -0.22000948734009426, 0.17318877041497802, -0.09359221414410032, 2.2604067837702013, -0.5361232670080813, 1.0907268101764651, -0.04556452597138688, 0.5004391683044563, -0.6892955891245365, -0.6632548291672764, 0.01606607838868168, -0.8351210390118577, 0.8554724554660498, 0.6926684240758642, 1.1176234486689414, 0.27930448893344867, 0.7644626349704249, 0.2703301925528096, 0.0656242917125389, -0.7289966821080485, 1.3337740569017347, 0.28642213128342736, 0.04290789126542832, 0.4332916848774343, 0.4908654593645888, -0.43956606787594404, 0.352016378294399, -0.24194976418757316, 0.04200480887291161, -0.19454651143074958, -1.2486410804485977, -0.23170515620880378, -0.3433412113906947, 0.5252090748826485, -0.42432998103613045, -1.0151320863904159, 1.1372326004280422, -0.6671497770964395, 0.7539444591631776, -0.2078148957931012, 0.18926503526073024, 0.14328657359089303, -0.09491016752482373, 0.2703926436888747, 0.39506277571608217, 0.948205806005334, -0.29205341504531673, 0.8313049049790253, -0.03576814375076426, 0.7869553666751268, 0.5607175555569055, -0.3915180983704037, 0.11216907857728714, 0.5017422790465002, -0.865240351078225, -0.06859907758319436, 0.34496370188780734, 1.3184872915996353, -0.41746124998898876, -0.4335570597949978]], "b1": [-0.5821343200003524, -0.23707755135950803, -0.09043539336484498, 0.2905985330991296, 0.05747290097279523, -0.8224769180938467, 0.0390225156285422, -0.28380302277751046, -1.5914113809373935, -0.3795350602002169, -0.501817754073157, -0.6593740730532905, 0.07642704232031809, 0.02069616372944147, 0.5995613353811935, 0.09628688712860972, 0.5076755744210287, 0.6537968479728584, -0.24835906682737338, 0.13715913955205059, -0.7258082563599383, -1.5358527983290786, -0.06714294356780406, -0.8750769058275283, -0.4429736469390636, -0.623158269424143, -0.007144517834133571, 0.7939612590922526, -0.08206124134175853, -0.2032119866540487, 0.0628673890362699, -0.7849783447277788, 0.6788378937461275, 0.4045369757846988, -0.7008185401309182, 0.04255232385809962, -0.3478782769943697, -0.6193353636126292, -0.1875324714938238, -0.11629717008179336, -0.25292667298202953, 0.3898665356732619, -0.34237337442529525, 0.02591497417309995, -0.14168502304593827, -0.007351562676545714, -0.19745365781267685, 0.9822334106459257, 0.9873333746913903, 0.6480846559689136, 0.025790443824860704, -0.4692254712072862, 0.9189065332820121, -0.44436792555645743, 1.0011430453750971, 0.5250453385430434, -0.15192099416885768, -0.32701705338871967, -0.2033815680345594, 0.2902197411115865, 0.5558668798832156, -0.1352657143890956, 0.5909020670321868, 1.2704378659338302], "w2": [[0.09512683428749759, -0.379159213447743, -0.04857939646564344, 0.41963690296568523, 0.32017524533207414, -0.8451732783779274, -0.28868239872159124, 0.7380475200851443, 1.0860146547506917, -1.0007190253805005, 0.14159523511617086, 0.07818502864759988, 0.2906609630083882, -0.6674551653575188, -1.1966912263083838, -0.11935571468133296], [-0.36847429139225923, 1.0322496008970967, -0.008780681667149973, 0.7011431531658997, -0.4995218379717474, -0.05792307536737664, 0.4896264798829473, 0.352062748929106, 0.2144226567002132, 0.03255044904176263, -0.16644368323884973, 0.08045453468313196, -0.693950743885127, 0.43634580668734557, 0.7051455347222463, -0.22026672415030668], [-0.3956846395936481, 0.12696359542820357, 0.7955481775425872, 0.24921277778870068, -0.7063846290237009, 0.21237198799672968, -0.1698558664176985, 0.08517398825829348, 0.7237158199645208, 0.26553557501099556, 0.3624746081658462, -0.1375731340903302, 0.45986397455854455, -0.3790746275513083, -0.3275031800161612, -0.9633874755872094], [0.14169052832251525, 0.19233250607386548, 1.166317411550688, -0.08218567665477228, -1.400714079377164, -0.13532816091173938, 0.45667200215337206, 0.4419716702068519, 0.7110649331938019, 0.8542701910586459, -0.35793351378456284, 0.803627449256147, 0.5896226239401081, -0.818492274367526, -0.2800240010309982, -0.5003019969362803], [-0.7337778114622437, 1.0949371399468937, 0.06443067655972079, 0.11004501039494086, -0.5516896066610636, 0.8831911889103403, -0.4888591981430531, -0.011416250362744726, -0.24545909946386565, 0.11053862487898147, -0.9667031158918048, -0.4213034750103928, -0.4326930552732109, -0.7465498397926565, 0.2188276409360855, -0.06612451517395787], [-0.24081591049366938, -0.2914657039010911, -0.4048791315626793, -0.39690889573068744, -0.8472685192668594, -0.04639080464352416, -0.5517615887770104, -0.6634388941484349, -0.5504603426669847, 0.30832790367525165, -0.19296382150311497, 0.7541750097916902, 0.45492874754578166, -0.4555418117340375, -0.6133051392291636, -0.6696538725660524], [0.78812768780235, -0.2684951540220127, 0.9661941825650354, 0.7676469936921362, 1.1877296498253964, 0.23169113670837205, 0.37320383804546964, 0.6554616967143811, 0.9039041570466683, 0.04187194683716311, 0.03894995965050635, 0.19067512738162049, -0.2058454207269733, -0.5249877577571394, -0.6205036297081672, 1.1356718438635147], [0.509910911568758, -1.175150042218508, -0.6299762030637761, -0.6879106513384745, -0.7101582932515792, 0.273838121686023, 0.6804828283154307, -0.4676350039001953, 0.4491034244229593, -0.16889225060841528, 0.2877769025085317, 0.8673653243236217, 0.03041079611688048, -0.6474851790755906, 0.13533199296584222, 0.2782998913932672], [0.8886705108172557, -0.620009363375237, 0.630099346778604, 0.023102883540253583, 0.6347012349150493, 0.4679965665724679, -0.7969074020296234, -0.6222358548078712, 0.5891616880036419, -0.4013530899741832, 0.9833586308694642, -0.7271294010214934, -0.7443506082512623, -0.8431532010568349, -0.23614501639308702, 0.7904537275757474], [-0.08474187296661079, -0.9039107452928874, 1.4448480085293887, 0.056321827085645815, 0.20725666725416952, -0.13000684293881373, 1.2178843984322796, 0.010757658030732253, -0.436534508299673, -1.6080944936842694, 0.8031839931156612, 0.3307985435830935, -1.0826645940774804, -0.8478668476673649, 0.4359555692397104, -0.7591491060778268], [0.4943921065667876, 0.5699655527067384, -0.6387646225882753, -0.40207507032308565, 0.46829912738108087, -0.7486835117248476, 0.2342268646033916, -0.026548471558513698, -0.8707046614612355, -0.7868206477394117, -0.7290068746988002, -0.7303999290502997, 0.5978582628847735, -0.7526961688689444, 0.10400947774371341, -0.44469322452326465], [-0.8821028809405094, -0.36098322569648433, -0.48334372792818237, -0.25472861568729455, -0.8411942777089261, 0.1997387380935126, 0.14128755208404986, -0.28327493144314153, -1.3600905042930647, 0.3611033378268919, 0.41361784456627326, 0.6370851297128464, 0.2556440101980694, 0.2640594805788333, 0.21690318971397976, 0.3376814713319199], [-0.7465802201223973, 0.13391400705835177, -0.06689385778500317, 0.921317478399378, 0.8909395319630913, 0.2944473528182079, -0.3471629908219509, -0.9688586819687777, 0.16070887493622904, -0.4031595418667329, 0.44985541506132154, -0.9363830603611201, -0.8330593538442905, -1.1517191716976796, 0.5454505047261452, -0.2089023037154759], [-1.554493782727899, -0.9013193682954259, -0.2230010352419653, 1.271804292306625, 0.3787681879026268, -0.35665250895382417, 0.6962678185127567, 0.2271410745253332, -0.1737662867675242, 0.16076236871987704, 0.6001004177083151, 0.45863779217051925, 0.35193376573317126, 0.768718059815459, 0.6370418087016998, -0.29452061589563705], [0.22576998674840487, 0.8146632024062459, 0.13167339977667286, -0.013277942533199416, -1.1313741733299478, 0.15722107750045367, 0.550565602690793, 0.6997624394618716, -0.004577401831451111, -0.7119841457585242, 0.0895079896405784, -0.6767989906334346, -0.24696311886759312, 0.4088108427950924, 0.1324356669690932, 0.06384900706114735], [-0.06646038503117506, -0.10128311098820023, -0.18604545389932667, -0.6763386941895028, 0.5416427778850408, -0.7099765445196288, -0.136938903159673, -0.35176954167480834, 0.8107824162577891, 0.058944732679110656, -0.21233889680490992, 0.3239876190295288, 0.23006653274304406, -0.022208680040609934, 0.4671810599242554, -0.8711061485715053], [0.41578302258444466, -0.39365182614777294, -0.14119903736595746, 0.8968522142138672, -0.13847304044839776, 0.670877170181111, 0.9147605134434291, -0.6429123271366769, 0.16978615943696418, -0.23370475720544892, 0.6683924244461308, 0.33576800987063754, -0.0939454040418672, -0.08868352990620229, -1.230371586733301, -0.39566244258369704], [0.13017449720999894, 0.1402580504652542, -0.1512532826548056, -0.679002459380201, 0.26916038104569034, -0.04715464343512095, 0.7091735254625126, -0.1715694774851574, -0.36323662193814527, 0.6247171172874739, -0.012044062883707629, 0.3389187712569256, 1.056962121384821, -0.7021297032867776, 0.14771786344860333, 1.028711471354467], [0.5916602525836417, -0.9078462273882812, -0.45005671226736005, 0.16599860709345016, -0.09944285170940892, 0.046334899825953034, -0.25943855323286374, 0.4981899725975063, -0.15817654991128532, -0.3084479095132199, -0.11379735505369867, -0.6101912536862006, 0.8576533469817215, -0.0201124017106058, 0.21485433356567596, 0.16426959048433742], [0.24269832824826362, -0.49930412981292205, 0.19050786567872213, -0.6528957383594103, -0.04234401450740779, 0.21771156495557484, -0.5019447746220262, 0.07755508053983212, 0.7060921228465697, 0.23693823661683772, -0.22533346277549313, 0.3236308502243723, 0.9428930716149836, -0.37050188896156716, 0.4797403223677868, -0.19297861901389657], [-0.6639103113349014, -0.32655388132373453, -0.7773343517684863, 0.31885237606001593, 1.4533136144782355, 0.15900921633579002, -0.10432150572779325, 0.12011414390987196, -0.30339079858264983, -0.5123280405684215, 0.3601208455653437, 0.8090239975726878, 0.28535186239591964, -0.21035895584254227, -0.058140440734571586, -1.0691548744501735], [-0.4780557786350361, 0.4990392061389678, -0.03339193448884366, -0.6472983894263414, 0.6385423729819125, -0.16006877752568743, -0.9217520747961075, 0.03093760505994833, -0.8240045639208716, 0.24756420154527675, 0.139363159616018, 0.36920072053052844, -0.6603739598246232, 0.10178635759195881, -0.31835797096444485, -0.23954840314819242], [0.0651078214896359, -0.10473782910846297, 0.17171956738413213, 0.6664967528723135, 0.04004172479098789, 0.7469071574525681, 1.0452315112609347, -0.34285377462249034, -0.40234617209867946, -0.25705260307294775, 0.08719681814586533, 0.3757030578520766, -0.7195896567787881, -0.030685502427167624, 0.1290164702692495, 0.07055323138030523], [-0.20098100185446993, 0.2545789643686256, 0.5265156102268633, 0.25755324143341823, -0.24757702933718084, -0.7765996422032306, -0.45589186864054765, 1.1021503252668972, -0.03931010321010961, -0.2558094596939082, -0.036597198237009146, -0.3523686632139523, -0.06733220374113436, -0.05855725856593069, -0.2995350782312568, -0.1545850445164173], [0.04755299349237902, 0.28021632745162095, -0.8332737579117251, 0.4503959444426354, -0.04711637618493214, -0.34464197913612754, 0.3861960001449146, 1.033617572414569, 0.06669884103629137, 0.011289536487713914, -0.12084694891601205, 0.2552195728915528, 0.5787515139722625, -0.19379604518170457, -0.19995759966015197, 1.6088041216511066], [0.06794226432806015, 0.09083734809132973, 0.17850175910827565, 0.17927708769477663, 0.2420539376286763, 0.401123607228965, 0.3306761979158199, 0.5413857234037749, -0.41395137568423546, 0.3550657159937982, -0.10331612454060074, -0.42729771994854704, -0.4723785477988409, -0.345195640850371, -1.0169301296439253, 0.6345748828962221], [-0.001986960151019698, 0.28407291924836503, -1.2212817504587827, -0.770350109303188, -0.8155349831739273, 0.2837642050490883, -0.27666267856100824, 0.084578134146084, 0.320142583530201, -0.06360209695628857, 0.10991671309219182, 1.0414139808280318, -0.2747220688952545, 0.49473114592422307, 0.19914667253475984, -0.025864703072768926], [0.2817372597561209, -0.5698385949304884, 0.2902611315764514, 0.28997318647120723, -0.5768304201103291, 0.17556683776494753, -0.6458161651003415, -0.7689912359013859, 0.2852514004570673, -0.05569266783896798, -0.841577793617019, -0.41935636079902416, 0.13774031208412377, 0.05909884913086064, -0.44160980401344746, -0.46585868346347237], [-0.5945306593566636, -1.4732137978028277, -0.0057676016259728125, 0.3297678162365097, -0.5986537316150056, -0.5027947381726964, 0.4123563273514208, -0.3190727565701019, 0.2818034685064871, -0.1019300643311989, -0.2631605403066355, 0.7342696569379632, 0.18013018618253385, -0.6789275635303293, 0.032740779241049345, -0.02104149069829958], [0.34997393738280247, 0.7281460614506547, 1.0451814929244319, -1.1340076020952878, 0.15701679467129398, -0.7589159868107607, 0.06323962298854946, -1.2381343875702417, -0.5605747745033047, 0.12793513827702854, 0.3020509355021412, 0.13629547065108838, 0.14403354925089495, -0.6174406920760758, 0.09380563874714813, -0.18743171458438007], [-0.10564153996345338, 0.38800879873712557, 0.1705653192393345, -0.16639174355932784, 0.7593997039269326, 0.6917572621334731, -0.3460208517051508, -0.3791752884807419, -0.5471409366107198, 0.3746225385447482, -0.40188971586225075, -0.5800915514209544, 0.5548409357660793, -0.5729267645656938, 0.7100372343975374, -0.1136269614389096], [0.20984114437632545, -0.3860873495196788, -0.42941539780983506, 0.04728459221756959, 0.5228791146695326, -0.09561967009436959, 0.5611679040439127, 0.6169596063401062, 0.5761662760418131, 0.9408623611728812, -0.7296858193446627, -0.7896351670283064, -0.36832958376473324, 0.045221095026167724, 0.38353983582184875, -0.47710969011006976], [0.543469523261346, -0.03747085270925929, -0.40281637062911735, -0.31320769561603057, 0.5778402002100044, -0.43275616989736543, 0.056073575501437725, 0.6304423842578581, -0.2134368709353265, 0.2516116314389103, 0.7023668782776489, -0.023771012708091732, -0.3971643427369063, -0.03125138253851975, 0.19722857391472653, -0.04212588834147535], [-0.5605627670619852, 0.2448215864464017, 0.5956531677236071, 0.48768804649574404, 0.1669881926184263, 0.24693676254758246, -0.9312610285248257, 0.9460668086299318, -0.6776744948576836, -0.8933763188153027, 0.40742681020934635, -0.07866492242029607, -0.7183346680860297, -0.37372989724497296, 0.15446398218745822, -0.16445229630453034], [-0.29768548892184615, 0.4709111743579242, 0.934379115739882, 0.8228938794826248, -0.3272264813431657, 0.5590257457294153, 0.15262747428458362, -0.6848566402990949, -0.17374027132278552, 0.2955046964416026, -1.1098747271504583, 0.3377490596706415, -0.9500966695818617, 0.5512004611046488, 0.6353235979392102, 0.5832909136321694], [0.23736981419830747, -0.15690328932011516, -0.5705025446611851, -0.5541436737933522, 0.25586262046647473, -0.46329616491056613, -0.13579691487621076, -1.0912558622002604, 0.021718046008444875, -0.47446947632542624, -0.49399132856354305, -0.6262705141599195, 0.4728215199230814, -0.652258567420804, -1.7462436580898286, -0.10610185498470057], [0.2746916924640553, 0.3655702760775767, 0.3213015842864222, 1.2866202912651303, 0.4230072353322979, -0.2277136322948426, 0.00765465648484516, -0.17161111009839558, -0.09433612725726293, 0.2865810363040827, -0.03066091914462246, 0.22467105119931227, 0.06451435669575044, -0.33551678508796345, -1.0927424849680618, -0.053169389880308254], [-0.8011315229297711, -0.39717412814343384, 0.795164756886714, 1.2428418719620344, 0.4723785029781631, 0.13939650321425032, 0.9859203349049657, -0.4031421064759562, 0.5454683824922549, 0.07638730588428895, -0.22307872738218593, 0.2831361342905698, -0.48118557646561594, -0.3408065823764066, -0.11732182504655574, -0.1906809918494603], [-0.4187513584199323, 0.19574467081679886, -0.9038349517235071, -0.11239946669037566, -0.8251732050636374, -0.0326291876589668, -0.3415499911799876, 1.0457593338368636, 0.3203227495229721, -0.2082645247854651, 0.6468888452034673, 0.44149437522927515, -0.05233639738024465, -0.23319248565710482, -0.09705742626445635, 0.07076465196853354], [0.9864965918145615, 0.5343778916613874, -0.1233724165690746, -0.05950450881120264, 0.3104826171462502, 0.24742462839600787, 0.5360358789591047, 0.35897776046384866, -0.05535122106503034, 0.570568163099737, -0.32168019885152077, -1.4076460465106044, -0.4075071417846514, 0.012909922454174827, 0.2205250474560492, 0.5133275081939938], [-0.710299805934496, 0.7812737629607213, -0.6278799411593459, 0.4326673148412602, 0.16285766204717378, 0.5828406638668623, 0.06673335766853308, -0.13859132538821567, -0.8914402420569958, 0.8530094028131776, -0.40105822403803043, -0.10314650713006186, 0.04292295657132389, -0.46309642019976893, -0.42997569367328786, -0.52072982148709], [0.10781283424475469, 0.7789792212058693, -0.002221140521182413, 0.2703056271745315, -0.8377886042592546, 0.07898442579381129, -0.14103709313437515, 0.2724352571750489, -0.8531766845349257, -1.008424610135042, 0.18955348114844983, 0.3888195994114486, -0.782378555553189, -0.48754615854397687, -1.203529826138044, 0.18419644376278005], [0.7070202910239176, -1.502708686721714, 0.3084785149762566, -0.3301753702844344, -0.18752445817137747, -0.7411523139700565, -0.18840338594074496, -0.5564068334351979, 1.161292316001184, 0.10676784538979006, -0.47134604844619066, 1.0323594882356817, 0.3793938770204154, -0.8395491407530207, -0.9338709412471733, -0.5983016002410565], [0.07626926891253535, 0.14467491959608755, -0.6933085486126267, 0.37159123647841796, 0.47591689977630247, -0.05216707333749929, -0.476901328602985, -0.33400541129894545, -0.0316520139072021, 0.48559462352507354, -1.050255710752056, 0.02312276708874028, 0.40652999004380796, 0.7907748182040024, 0.37557603672947815, 0.4645789894257697], [0.07741500389208533, 0.982756202596149, 1.3186121329098954, -0.32314182726552254, 0.15228351592548123, 0.07286613514515178, -0.4868843267459111, 0.7192364781377802, -0.08383438424053541, -0.057590006488621726, -0.045370378335141404, -0.08963838858156697, 0.3361751298808885, 0.30856118817426437, -0.20627215009667438, -0.1261783485772292], [-0.35675057921540587, 0.15384897685302532, -0.72228037733434, -0.5018542629548425, 0.3553689521824876, -0.9770067414359239, -0.33936724038860344, 0.08642267795446187, 1.0947775563482938, 1.1188415748037306, -0.6879263758197923, 0.41623598471454654, -0.20794110942227031, -0.08925106230715818, -0.3337708830833223, -0.17198025006104511], [-0.28743001334298246, -0.5659711793550317, -0.2629413005048433, 0.271665281432536, 0.26516012096649555, -0.5677091564379783, -0.9792557849714436, 0.07857511557312513, 0.053242341275474336, 0.13614335291045182, -0.9218612998483433, 1.0502318699836868, -0.3074878780690946, 1.39474279805611, -0.19802762644670666, 0.8588961572348448], [-0.21388170910653007, 0.006963397005031402, 0.08907361001166637, -0.6685876963970707, 0.25625278570216786, -0.690207963335224, -0.8870102527386475, -0.13621774794171104, 0.7322500566060544, 0.13695421584417541, 0.06938790650379598, 0.12617347627477263, 0.07761554549142224, 0.5782645722537496, 0.17275228321021496, -0.8237214116934322], [0.40719018977555477, 0.7178399206280518, 0.2712151846616973, 0.07601596405566435, 1.3999332332960819, -0.2312117391449189, 0.7476620455388705, -0.8495763434618835, 0.28469638300295885, 0.8455365945771036, -0.0504562280802133, 1.2874243833509862, -0.39501423556123955, 0.33877552677984213, -0.2389796657487553, -0.598115429960333], [-0.7664772938163174, -0.2568186475338731, -0.8184541826968228, 0.660297121415506, -0.4489702416493507, 0.3739239073289549, 1.1403357799729887, -0.5560086275962147, 0.6383045572625062, 0.25138296767281937, 1.0216575213322896, 0.14354658050946253, -0.31846942917726306, 0.028935321663794977, -0.5689574743009822, 0.4417822467703628], [-0.37978708622513835, 0.2072641219407529, -0.20972979187440463, 0.17469062880763953, -0.483775882632306, -0.25145829226625743, -0.6730317831956495, 0.17622845461864417, 0.6347351205258432, -1.2462809428159942, 0.3124999932322224, -0.19695192209556525, -0.3311717581473434, -1.0582994310224683, 0.9582807727757269, 0.9440829607981409], [0.05038723070689899, -1.0783636538516743, 2.13903862332235, -0.2102147116339065, 0.4749038838495896, -0.2617941374473822, -0.2727870713485394, -0.48050620865536287, 1.0254471160641947, -0.20392755048818823, -0.4041075321102401, -0.10348632750399461, -0.4097657678116027, -0.3529489814652103, 0.3697579177418139, -0.5871060912488382], [-0.5449004417457816, -0.6014821704705261, -0.14727750417723434, -0.18758443925361704, 0.4597357821342817, 0.10707356114568845, -0.21993318063994954, -0.3649146923474479, 0.028438111847183256, -0.44996881749889334, 0.13854205586424367, 0.9304586891299125, 0.11972765679128497, -0.05098512413208564, -0.7990656240439354, -0.3995213911647172], [0.6673362134079539, 0.2896655290729751, 0.1272615303058104, -0.10207804846637374, 0.22908226753161365, -0.17665600980878332, 0.8608746181059515, 0.2091203852344344, -0.9755625857638883, 0.18683446307241158, -0.6151536933871562, 1.152268243673074, -0.09328308165354376, 0.4739128501338206, -1.0001441904545396, 0.3664624531865225], [-0.366610785057003, -0.22671685900487834, -0.5130934295504005, 0.09997243228033648, -0.038098289014702164, 0.7566047189131958, 1.2255351359768019, -0.285852128319199, 0.8016659312697665, -0.05808925206981494, 0.11417781028642748, 0.7105062359969492, -0.0037098861214283074, -0.5666968897581454, 0.8255750295063125, -0.5332791942044635], [0.09864285681029249, 0.3378331099821771, -0.332101879337385, -0.8631290642747251, 0.4132002784606639, 0.10915128073668742, 0.910960449021065, 0.1624451417375113, -1.5852319333654141, 0.2401703459597932, -0.07685413116884696, -0.438982402460357, -0.8471257041835842, -0.5341944700892625, -0.3348432252816396, -0.9034458143961008], [0.39207322372608716, -0.46176203320350373, -0.023633942458067436, 0.7860003183426625, -0.6261868357401886, 0.46738408645572205, 0.2425478134514362, 0.43170914067360905, 0.3902875927649524, -0.06115024302865324, 0.5054450964379693, 0.14810850497377512, -0.8468616024079327, -0.06441141030187227, 0.3554797167042256, 0.2878792482693082], [-0.0836119430858078, 0.01802956156196417, 0.31857433037024857, 0.9897020223749533, 0.0861060802724095, -0.21706610348273894, -0.10268369958455176, 1.0223403268798843, -0.5531745160532655, 0.6814029404752494, -0.4380932609268109, 2.449461159874568, -0.10085702483071296, 0.7812071829539173, -0.8885318835102423, 1.3647789749578965], [-0.1114027916670294, 0.2106514835355675, -0.003501947127757088, -0.1529458304938497, 0.07652664542110116, 0.621288378151936, 0.2424374196605089, -0.3767990841698507, -0.900966067462337, -0.9719433906743512, -0.8358558227581467, 0.042411424659260996, 0.99111271434152, -0.2599869367188354, 0.15068366791703464, 0.01752462691752761], [-0.515562839789677, -0.402949451514409, 0.4693844560913961, 0.014217321117850528, -0.3229092936260365, -0.14983419533201467, 0.31932839594259493, -0.1478384765474713, 0.8390186571997416, -0.2611933260381555, 0.4014965845594284, -0.1996903870746832, 0.07841918667313899, -0.14264656029995304, -0.11307747231858264, 0.6002695747311881], [0.631414068786803, -0.5321221907922361, 0.11736991395105827, -0.900213591946557, 0.492539353144803, -1.0480183827134648, -0.9004813103820654, -1.0931131651673014, -0.34050310927654287, -0.1365907374850352, -0.6310066553368311, -0.09889713596691757, 0.04509594349187784, -0.3265789292165505, -0.12839600793302428, -0.4094008596906761], [0.1451421516480237, 0.8341361948222965, -0.8113889483656327, -1.0854942481465963, -0.3783057221093926, -0.3382465182551895, 0.430029703036629, -0.39884371306799915, -0.41952552108677693, -0.07827608108264408, -0.9770575766442112, 0.6979208053525168, 0.7558276550825989, 0.8094797778498838, -1.3560163250974417, 0.26773612831872445], [0.20088359845158194, 0.38659747526323346, -1.6107077465740753, 0.19790652328141653, -0.3983063521989527, -0.5578166018475992, -0.033126363352161514, -0.5584031199204127, 0.9683294718023261, -0.19148858339637342, 0.29122630470742017, -0.7098805014295001, 0.24047699132731265, 0.4440174478146902, 0.5514493299190961, 0.5457991323618279], [-1.1699536741016918, -0.024395958692334185, 0.4904277300118868, -1.1813845372633676, 0.11826120529439199, -0.6624991478382536, 0.0658483234625423, 0.16850923862032835, 0.3633596989900428, -0.4744584043250065, -0.04761549633236406, 0.7152420862233068, 0.42461251386033844, 0.11450376843879803, 0.003261042353702545, -0.2724179329703514]], "b2": [0.4033565080328742, 0.3830254376500799, -0.6705877254414543, -0.33424025063580987, -0.26060679391891284, -1.9613545673402188, 0.43953268124094336, -0.0987528884211151, 0.3037272742921776, -0.2915541144869206, 0.8457575414901081, -0.8706344057327595, 0.9988192039448361, -0.47892780439926214, 0.30853146375652285, 0.595015441830656], "fitness": 0.6418367346938776, "wins": 629, "games_played": 980}