{"network_id": 13, "w1": [[-0.7152914694547212, 0.12702199524378516, 0.048124977898137924, 0.8604451942546307, 0.32750181185752875, 0.3074788447839382, -1.4145012777123265, 0.6662267328633429, 0.004192374623768258, -1.481949254815931, 0.32695918867585666, 0.08623509648236108, 0.29516225226876375, 1.3318970275445916, 0.2588789272091008, -0.23601769463708994, -0.6981629495118747, 0.8989731423201661, 0.8690207519351056, -0.691889178420754, -0.15117886464149743, -0.3679916768404773, 0.8683347221063595, -0.1254983799697395, 0.18124955236687376, 0.9733925837370695, -0.8147895854447293, -0.8830558290965997, 0.9091972731243068, -0.18896573533757027, -0.04431894923832183, -0.8728644649213371, 1.2625752640746895, 0.13556617055056375, 1.8070459624921718, -0.3711772595703715, 0.8267723491746481, 0.046265877614227575, -0.3176691545262574, -0.8438838145032482, 0.7778176995194745, -0.564702102528833, -0.2673426795560976, 0.4195040005240957, -1.2939469217444706, 0.662112138308542, 0.02249699024324675, -1.0118929858185852, 0.5303740159881907, 0.22575680032369688, -1.4237428989490064, -1.0054662067487494, -0.5071961751042711, 0.28269109223301114, 1.9714729818995242, -0.34457211665435983, 1.241957639836369, -0.019899079071155373, -1.0520131714779244, 0.029345685002759414, 0.15164801346344844, -1.3333196327827541, -0.10413107875817512, 0.17175247138261213], [-1.2506470052337442, -0.9693332437289379, -0.4233687459480682, 0.7181455728744841, 0.1392721198182165, 0.794965953560884, -0.7916298221955609, 1.197012525594991, -0.0999443770697998, 0.0701090949636411, -0.09067395778731391, -0.23265903104523172, -0.9214171404653217, 0.0726678258918047, 0.7732613802341837, -1.5363780287061573, -0.9117797443637443, 0.09300749526529861, -0.5153616463106562, 0.299525426864286, -0.48068957829222203, -0.1533833977218419, 0.593675601005436, -0.9518738527592432, -1.4481423852827862, 1.7096117624080973, -0.6095279801575872, 0.7343377739105952, 0.05931343667336514, -0.5678194933882663, -0.7242144232271507, 0.9093870812970315, -0.5051559792046454, -0.5283100117827046, 1.838420098306068, 0.8325826619542005, -0.2071197424398451, 1.2316211195029252, -0.33081022378900654, 0.12333021039718767, -1.628829548997189, -0.9672036588091599, 0.393654150989068, -1.1721923982716507, -0.06111934472007535, -0.9402032931727347, 0.49963282193244807, 1.458693000343105, 0.18807979325273155, -0.8006253038038782, 0.14746552264429647, 0.28242575343259124, 0.004456528254202022, -0.5784490456925198, -0.7230058574418106, 0.8421202846595557, -0.43363117658411093, -1.2122221021598107, 0.23795802585821482, 0.04030817166260682, -0.567712782738356, 0.3674208594381919, -0.39258063293493356, 1.9274585849420918], [1.501108871059845, -1.2202375358395205, -0.28955408680055517, 0.6318490496778164, -1.1292770236925815, 0.5710366823650649, 0.38675737228317647, -0.4381644869500459, 0.44583282406365654, 0.37508678879853063, 1.1766936148734983, -0.5174154698430324, 0.6505986014245462, 1.4893887977563238, -0.9825629301994747, -0.8002749719176954, -0.6394887129609313, 1.123158970018799, 0.4616597572304231, 0.9745751485449672, -0.237404683729593, -0.03499986986525862, -0.19815126033046493, -0.22346231866861013, -0.6153034090913001, -0.8596634753943395, 0.9974020403298488, 0.3221262098611988, -0.3119425514772431, 1.7885208985373635, 0.7117986665234681, -0.047205604429071485, -0.8055326660423703, -0.5696594606162302, 0.5495648772082269, -0.558951016495089, 0.007970180782136238, 0.18495890720483632, -0.8067380172427286, 0.24405641735631195, 0.8151101613350638, 0.35111732421267977, 0.7286120324923304, 0.8804847427212156, -0.6999961458238502, 1.1653462035545843, 1.3794216954111884, 1.2154739589161467, 0.8711677586845892, 0.045983596825766304, -1.5843838079880144, -0.7467509678300495, 2.3789029811838116, 1.222781066477424, 0.16733269240694548, -0.618853663044724, -0.7426839904719025, -0.6276021708192078, -0.5788475329490979, 0.7756959590666836, -0.903768095197497, 0.6002642345316533, -0.5852935397840665, -0.7895540058447816], [1.0698261133817872, 2.0638015664506866, -0.9298183429458658, 1.396993102522619, -0.36347892121373976, -0.5048646544234083, -0.9030047444682342, 1.3325623673709375, -1.0439803997044466, -2.0631384533857164, 0.5361900442136218, 1.136421311299785, 0.6411843695961503, -0.5009943127006917, -0.26743303893064874, -1.7552017305002476, 0.08609610379843062, 0.563432582794928, -0.09522011778813766, -0.8260298562568555, -0.30798986150670293, 0.3818360503451983, -0.18093472190644444, 2.6953239884307187, -0.22729649967778948, 0.18595751265306118, 1.5782414277581327, 0.05033191464760453, 1.6694654098771868, -0.8257294150964876, -0.13611785304107307, 0.22582861232538343, 0.70412183981697, 0.18909880496297826, -1.8393831751798149, 0.36827380111541685, -0.009210911112006712, 0.8602674024835402, -1.393294295622681, 0.5996701844731774, -0.22778924345194757, -0.5653641184460138, 0.58485152798643, -0.28992428200286563, -0.41698026409935124, -0.704595182610338, 0.7570006550304489, 0.2702369217698807, -0.5315431381759009, -0.9381354513752664, -0.30371046284180053, -0.6484157290282807, 0.24601868799502435, -1.1961285210341324, -0.16298801033959492, -1.2652403261882674, -0.25712184000919297, -0.17948567969180734, -0.3022006928262122, 0.5443518231798908, 0.9097808606492424, -0.25522556281133923, -0.5529497742239919, 0.027871010730653067], [0.6045018023451971, -0.5055592673566338, 0.4577700071332888, -1.1952401046525298, -0.19110181237205157, 0.5714517754115934, 0.7095514517895448, -1.4683503839117595, -0.8043222973406254, -1.6278957795275932, -1.1893108230061777, -0.9965706272052235, -0.58951818243385, -0.681130555025925, -1.1184172192761712, 1.1739516146070428, -1.2915740106289866, 0.9104604126760363, -0.7389041071187662, 1.0180525881090274, 0.23312070616748437, -0.009350381917687, 1.2405098332023439, 0.646334437590534, -0.2176024285161352, 0.18015288660096096, 0.01034765402103232, 0.6305892806892491, 1.1865739082071256, 0.8357049561098475, 0.4894634857839347, 0.3666683782767114, -1.5558718824007673, -0.1057380274514428, -0.767897157262324, 0.4280334105505049, 0.6081586205134408, 1.22967910060838, 0.9691452341800524, 0.10073166721309473, -0.564371692935162, 0.3969035794224718, 0.17025154197331238, -0.8330504124769069, 0.6309239701012133, -0.8869220257433271, 0.12793541243635176, 2.30046486146151, 1.0527553202858742, 0.2174471335692427, 0.5712631373058915, -0.005180301873319141, 1.4399764575754808, 1.2996540446336, -1.351439321123649, -0.2828189749135237, -0.167065533304918, -0.034756615809045543, 0.3127425446431493, -0.38337188648014603, 1.4869977106185788, 1.47748241590209, 0.7769915614027207, 0.5786800226604438], [0.391738344171375, 1.0845163247690595, 0.14114488281578577, 0.5218730383268895, -0.48226071249654145, -1.4158815775836717, 0.07881563770072988, 0.20817550674318075, -0.21015037583697888, 0.05666917053557197, -0.5873442810268312, -0.06020213090141327, 0.01101913445593894, -0.18191612205229793, 0.8087271607440156, -0.6785707964476384, 0.9251222232005439, -0.8094440336280077, -1.1673615166161835, -0.4736491142644659, -0.19809270368188817, -0.7106212814184758, 0.8222375723853309, -0.8441354106900333, -0.20795025654571697, 0.5089782043805392, -2.2380363254732254, 1.0445403063796868, 0.7036817572875739, 0.020492897809429922, 0.3413536759558966, 0.5688512625250046, -2.447031601183775, -0.9468959387376672, -1.4833004607326343, 0.48440526673552475, -1.0063763267696202, 0.4685197329173928, 0.18639925000352667, -0.4524038353611568, 0.9072509773996136, 0.23237895711748743, -0.6507969845826106, 0.8131547303304533, 0.9946784913580073, 0.10675579836394414, -0.45704450036950073, 0.09363884330077893, -0.019664437291065054, 0.6595985548895728, -0.0005276984170107246, -0.682204196917858, 0.7406018826673127, 0.746690504548382, 1.3613392072312345, -0.36151024858492936, 0.5524193152631481, -0.05399186776166645, -0.3070064469474918, 0.18162754281882978, -0.039612337742687714, 0.41083469141230067, 0.2930770675685027, 0.6621685433744118], [-0.6983841364025475, -0.4639701329546871, 0.7877350856385593, 0.8632492690996177, -0.42217400719047243, -1.5571636553967005, -0.15030477950479126, 0.3936640268196037, -0.4773313052368931, -0.9476527053775461, -0.3941339965421266, -1.534938530227942, 0.8754938931454559, -1.6612166083744593, -0.5314508951711461, -0.2516580049263449, 0.40599483689102805, -0.8881201816510532, -0.5202730572344019, 0.5395770947364992, 1.056760648539691, -0.604640144224255, -0.038378801218660386, -0.20242022192696077, 0.3551029910115518, -1.3894196471686149, -0.7554474415606743, 0.9963012498276678, 1.1916972779811958, -0.40655668713326876, -0.8288416112649777, -0.16177379989524657, 1.106776111205316, -0.7924773855988176, -1.0332325704864846, 0.14328062578377246, -1.6323952938829003, -0.29575407385103664, -0.2843578858802776, -1.8581026058277712, -0.16832372562735787, 0.965560771045177, 0.20062155328961215, 0.19190073639412464, 0.4024072945606717, -0.4756365773235167, 0.24275865516184394, 1.3585763004710396, -0.55882394064506, 0.16343402881022023, -0.27443758254126815, 0.02447630712441501, 1.0784771593465226, 0.03175337469605542, -0.6752205429607929, -0.5237679709103003, 1.1518937584434046, -0.6297577129031388, 0.49890496749633095, -2.153039984441374, -0.1298401414646415, 0.8764142037398137, -1.1551495155708364, 0.9858296267593144], [-0.6759840635799439, 0.5205814897895538, -0.5240480036795251, -0.4280023254368933, 1.3682268565077225, 1.161815587830033, 0.37626452034921865, -0.05023103090616016, 0.034428076555737486, -0.022061427159511537, -0.2491477299184537, 2.1929557408419247, 0.373125265852101, -0.9580632889484247, -0.7156482561064714, -0.19108323998630372, -0.7039366257054216, -0.7179896263461841, 0.5489423182792397, -0.18276062142877103, 0.5379884127597205, 0.03340661096087104, 0.07156213265843858, 0.9142481609218469, -0.01841911453506548, 1.9792838974254254, -0.4497150984920365, -0.6533860804373243, -0.024373347086730557, 0.14983667718573246, 1.0844496227456821, -0.9661175527127521, 0.02121330319638426, 0.9578285378365328, 1.051923748202146, 0.373874161983633, -0.8774601158134541, 0.6571584712699104, 0.3617843932922101, 0.6344957806513265, -1.0454403321298966, -0.24798706786475067, 1.0445801204913183, -1.314949095068307, -0.7634179043722973, 0.721741758292435, 0.46900573881992796, -0.8431142995387799, 2.008468255713071, -1.5378534105642179, 1.1593166900798404, -0.0027876748960862924, 1.3816865335545938, 0.9016792792406119, -0.5965898490470226, 0.4263372459079531, -0.6980138528974755, -1.541013617382031, 1.5442310948638847, 1.737479764546329, -0.5467648754668674, -0.23337851324379744, -0.09578542906761123, 2.1481597219940247], [-1.0819433983140012, -0.08577733803611931, 0.182548644038989, 0.5057425149534739, -0.6439945610667142, -1.1011757159297184, 0.2075655163805597, 0.44369117114616663, 0.4544062262430612, -0.48324864529472966, 0.15755904987375535, 0.6068010440596839, 0.26629874820970595, -0.3651027825466506, 0.9976341731799557, 0.13932695852720584, 0.7009811108741804, -0.6428819658754417, 0.353125175056537, 0.8213820004276181, 0.7425779709592292, -1.2415772463017893, -0.5169852138984454, 0.05382315367996837, -0.1107883059121274, 0.20533717132451035, 1.2511584232387287, 0.9017762875449999, -0.7594417338315186, 0.08077633579601656, 0.010930620417698794, 0.9414405745215586, 0.34696304324884897, -0.3683495869778615, 0.053437994488312546, 0.9527091794650101, -0.6509889947044507, -0.314358390171078, 0.15024506612803334, 0.17796367232056798, 0.6147372996162003, -0.6650493102662567, 1.8314584168863641, -0.6448032251933509, 0.4396712583041116, -0.18456278780380983, -0.47062306875389115, 1.1085343043138278, 0.9922870881972422, 0.9046957761558168, 0.9951629741492555, 0.997680250020889, 1.3698315352327193, 0.27090339064221103, 1.958592703392681, 0.21483679264485353, -0.4592527351027022, 0.7791570390574114, -1.135953244725213, 0.7433763160034594, -0.44589852320300005, -0.0855593089072973, 0.9535666703465489, -0.2894007097539456], [-0.6457099583731047, 0.2131462980669715, 0.5431197069043286, -0.7441559742670432, 0.7141392458417584, 0.3263682422301922, 0.8877411734971619, 0.7963496887177217, 0.6010307232589814, -0.21078218601788812, -0.8898786236951701, -0.18241456957753643, -1.2730368879548597, 0.7660375315441783, 0.11794329078331561, -1.781116211231926, 0.5952405776001429, 0.15067676278071956, -1.396268741546212, -0.7861676669254833, 0.4494191977671429, 0.32910763587958536, 0.5628293728601041, -0.3511272030760859, -0.007976868700416029, 2.1762796857267728, 0.29079853523520494, 0.11008132886899635, -0.7327659815326762, 0.48950974106801015, -1.3625293146633994, 0.157797490306734, 0.1787040291425408, 0.5121310229776526, -0.5623396354987016, 0.7234322934888672, -0.07857130324767791, -0.20408310824864986, -0.20440411467711317, 1.341589411277871, 0.3788686386987966, 1.9156014957848693, -0.77117373251203, 1.3092290057585356, 0.12461052355001095, -0.22277916749188206, -1.346927533448028, -0.4183059970560147, -0.6633189505168118, 0.3832363492809421, 0.42135273928787303, -0.8631537523552637, 1.8805519430803477, -0.5088134758061077, -0.5713825099360049, -0.2522333069264409, -0.275601222504525, 0.7528129165925301, -0.6541137910384077, -1.2022370515533027, -0.4660946816552865, 0.49338443670773274, -2.2136256682839877, -0.722156603888742], [0.3862697084037784, -0.2506853658516829, -0.31349098491412286, 0.2585244703493823, 0.002609230180636607, -0.031770504334664745, 0.7419028844162312, 1.9598993273267908, -1.2995766911547098, 0.6381387802163572, -0.030405282503875794, 0.6338854710189195, -0.2601091277175679, -0.2736061985984656, 0.10568037282770384, -1.9850507475846841, -0.0029482489159378678, 1.1589281869021293, 1.6293129659949102, -0.6065694050253136, 0.7486823859826135, 0.34136639255934437, -0.027486998415899272, -1.2745841675914167, 1.0195718605402009, 0.5412651190445525, 0.5012568918673377, 0.7332697729841617, 0.9726232641539265, -0.05103500393329502, 0.12392510300019038, -0.513927899023677, 0.03816234100865168, 0.08061781573192028, -1.5471184080361071, 0.11861381603754091, -0.24021458169761523, 1.208800321785374, 0.3009613113556004, -1.783655547962837, 0.7282913635772892, -1.1583890906936194, 1.362067504849537, -0.2055399452968875, 1.2751045539114778, 1.3297246530119304, -0.9555035278880124, 0.1300821510742151, -0.14239455767927445, 0.46602603201747383, -0.6416722348420787, 0.6430610041292089, 0.021999973816952623, 0.13212838165605073, 0.271442516181929, -0.16539446646696487, 0.09308642957081248, 0.4146276167690859, -0.9535068546323586, -0.42222461874283257, 0.6459795261112129, 0.8548293554379935, 0.1079884818256585, 0.09995619111923226]], "b1": [-0.6139814539837989, -0.34354972695021113, 0.2779094458984892, 0.2905985330991296, 0.24344636828937372, -0.9314853769353038, 0.42652279554652084, 0.6756648225819318, -0.4729299425081794, 0.0683078722216425, -0.501817754073157, -0.5569812241049912, -0.47682190097148336, -0.6585172918513406, 0.27744262870968484, 0.6231263645667025, -0.0567546416244924, 0.597009983283489, -0.5050735052754656, 0.03288643805516375, -1.4669831487167928, -0.9805431750937853, -0.27139724873036675, -0.7223688682005267, 0.012975348388269931, -0.3891416545301437, 0.09757809023490202, 0.6738485020772618, 0.31727708627101436, -0.48062184135011043, 0.44094379299647424, -0.012283745842801307, 0.27844445628540476, 0.8543005432781661, -0.41813291437207023, 0.044163850375273594, -0.04438824423646831, -0.5789678423096819, -0.7937651290496824, 1.353231023836134, -0.44893806360192356, 0.38581530365259387, -0.057294236787036046, -0.7618578283204562, -0.14168502304593827, 1.0393466879172042, -0.8444268186449484, 1.040644847280368, 0.7377508090659602, 0.7046945339460747, -0.46258452003231776, 0.2250978295707601, 1.5798817570984058, -0.45845887456960766, 1.2522006422641065, 0.6453717700849844, -0.2031502962564999, -0.14875848941744949, -0.28264820586894446, 0.5404468733618868, 0.041853833000166984, -0.6433051279277378, 0.5845885025208356, 2.079970619641588], "w2": [[0.48893751296449856, 0.3897822786377238, -0.7772650112139569, 0.4565978122372405, 0.3694324623777606, -0.7546452692986909, 0.498363841531835, 0.9960124598524639, 0.7146127037561715, -1.274901507899044, 1.3208074874927158, -0.06018104801817431, 0.28523268376846017, -0.3104185134505453, -0.9251695925358273, 0.031165167624569723], [-1.1376551955730243, 1.6779594022319766, -0.1833062086352145, 0.359368765452801, -0.7450363553158821, -0.7829591433744352, 0.7828940011126634, 0.7036464355898389, 0.7589278450722574, 0.23197943887195124, -0.3297163437615633, 0.5055795425311366, -0.8926264276481264, 0.38589322590460534, 0.8822823122742727, -0.0037828232760508396], [-0.9679724054803454, 0.9186838970593828, 1.4879400205859155, 0.43769173335337114, -0.4304588194538019, -0.159211852635678, -0.6967924902866656, 0.2263786394146067, 1.1156134011355467, 0.7125665599466795, 0.3531595780075825, -0.7536644557053934, 0.8515567724275476, -1.0790216048215366, 0.11577894738010211, -1.195005344633677], [0.07793804475145566, -0.17292387800075548, 1.111618536781441, -0.8699564911665066, -1.0692050730751788, -0.7507860563591383, 0.1628211350718534, -0.14518572663303364, 1.3097795249534223, 1.0233720927039327, -0.7452017824097894, 0.803627449256147, 0.42850649360612125, -0.41206507349197324, -0.8894497399378785, -0.761991759750006], [-0.6401606620618587, 0.9297687767259367, 0.6133653970921327, 0.31305436050050883, -0.40815297752757385, 1.0149762588894387, -0.8341388143772371, -0.16789816007654312, -0.0400187806003115, -0.06252823145690523, -0.8312032191596408, 0.49034468765982775, -0.32450079592043746, -0.10028593200565006, -0.2793877744448381, 0.13125899537000385], [-0.4717173570956572, -0.39326475528302757, 0.2284705038265558, -0.720132629013527, -1.3095581074093965, -0.04639080464352416, -1.0227490560874455, -1.2744034125960921, -0.8647316729755439, 0.14869316078831313, -0.44960684202183987, 0.5796977592221738, 0.11588668215755973, -0.2188827939782011, -0.5830761487437057, -1.4304682916652438], [-0.6197425196717053, -0.609404992809722, 0.8620458220901243, 1.2035169794278773, 1.7778735623969495, -0.22980595075791352, 0.09269134908895288, 0.6479668592037581, 1.4157805303572335, -0.2510861620915844, 0.49950021784512566, 0.42963555566209144, 0.2684047209473295, -0.6812742974625646, -0.6698532459712421, 1.4428831914722897], [0.509910911568758, -1.6243353709747748, -0.8496393880642135, -1.6813600763367675, -0.8280084354240365, 0.9893682337431379, 0.9448149227656031, -0.7256605346383556, 0.6985087772900369, -0.7948446402474945, 0.6639161980366631, 1.1465729637919173, 0.05371749698069474, -0.45698663600927214, 0.08962477166935837, 0.2782998913932672], [1.417862352755629, -0.22447006154507765, -0.7283282736281922, -0.22848990462622348, 0.5626283962567147, 0.5135823471114387, -0.9147562663983307, -0.6222358548078712, 0.016659530999927563, 0.3445638468606955, 1.4248984082892917, -1.6653380284166341, -0.8864735067535612, -0.7265983961837563, -0.06351441690858142, 0.650352039136628], [-0.3189383301184394, -0.6983276601558719, 1.5853143588735734, -0.054980500779390096, 0.4641281662955334, 0.24382864156353828, 1.8036731207676582, 0.03729229372474233, -2.02062992038433, -1.61317430746555, -0.017833173458771445, 0.3307985435830935, -1.547013377782417, -0.9839500359460822, 0.5946244393560335, -0.32842975830248305], [-0.46048337798609995, 0.6777653003982461, -0.822717966199995, -0.7386107901194285, 0.6814326667860646, -1.6941682633844688, -0.17718524549396025, -0.735912848898607, -0.8007320416212304, -1.0134711825257652, -0.7644323038060763, -0.9530030638241824, 0.4966780780522896, -0.7026892120213264, 0.05407836253249507, -0.8230390549096622], [-0.9493013629811138, -0.17082689808219953, 0.1800599457878066, -0.2818382594849995, -0.5079489761717572, 0.1123243293851155, -0.9275661861143853, -0.36751753578960983, -1.6569367979444862, 0.026675683726146822, 0.41361784456627326, 1.0592418663215137, -0.5363278908072231, -0.1312743276877144, 0.21690318971397976, 0.81112462946599], [-0.8077490441770562, -0.2136689646758366, -0.3989140521250182, 1.0141888328437447, 1.5880937792725507, 0.4363404087075891, -0.9669210472530578, -1.2822805693839878, 0.15604159001850645, -0.45898544913318506, 0.2773449177101332, -0.8693294630120862, -1.0701809352457916, -1.7138034735653358, 0.8788109393074235, -0.31118407354053623], [-2.0087342650517215, 0.19547842004673813, -0.7732791973038972, 0.8971733044402247, 0.19546360141624394, -0.5913823628544862, 0.4605940859873988, 0.24041734562741404, -0.686546368776229, -0.11943348727746428, 0.3176412279255758, -0.11206212801745918, 0.7096370687935939, 1.2606730319635555, 0.7787800069665538, 0.6520042982514807], [0.15963855834501894, 2.2366004810869486, 0.7903414896051046, 0.2978219914064537, 0.205084245926274, -0.5706690662990164, -0.07376466726975622, 1.42516208945466, -0.2988782878592933, 0.6291181483605712, 0.0895079896405784, -0.38866239994614743, -0.2238010047026696, -0.46820883567961336, -0.8896763195881086, 0.06384900706114735], [0.3433917701751924, 0.40897442997046174, -0.3850614993969569, -0.27073745057966353, 0.5427204571859215, -0.3930353718328302, -0.04818635825622426, -0.42807647404402516, 1.003697073815328, -0.8837802458348377, 0.02753959082709906, -0.11850315947023765, 0.493953805551497, 0.9327577721259352, -0.13379267294275304, -1.2453456443112563], [0.4878335928266454, -0.700483341034766, -0.3714160330711126, 0.39293405367816414, -0.03382806995645854, 1.2124835577403736, 1.5755158408766503, -0.5140080427539369, 0.011560478439573182, -0.575155547580851, 0.2575395221428578, 0.12012414430768278, 0.26670879231103156, -0.08267480438989294, -1.632739213653862, -0.6526803353352295], [-0.25489283257893613, -0.16604665297244176, -0.12915890992446488, 0.9099017002671246, 0.2039666942764225, -0.05449609665665667, 0.3618316646245102, -0.14851607280664575, -0.7697596695879942, 1.6505758236730794, 0.10856797929570017, 0.4596031104111777, 0.6930625078763042, -0.47352189762465025, 0.6856894895304623, 1.5971427433597585], [0.8922010989406011, -0.30060788447931475, 0.2083795982041561, -0.24118166784776596, 0.0485534205866963, 0.5624034430772206, -0.4176039935433631, 0.42085348792587457, -0.03753911572367799, 0.3982102905736785, 0.6929333322291749, 0.4039092080274078, 0.5677307079367769, 0.34828385393126504, -0.5538464606191892, -0.46959403918173226], [0.8450237380684751, -0.3844780477757854, 0.7423254252314947, -1.5879892011403398, 0.0030079934397031077, 0.4707168349358891, -0.1662605562224459, 0.05164864710399862, 0.6732727756171027, 1.1463013572760763, -0.3998054993632398, 1.3579698358764665, 1.2471903389237065, -0.8477790741180664, 0.2973816067180337, 0.5627409432328898], [-0.9944817459344987, -0.09971217955811473, -0.11850073371052822, 0.38336554250628885, 0.8401773937482608, 0.1371940970693639, -0.044259331825027406, 0.9072784857293834, -0.7747559791603756, -0.18163466385306115, 0.7719824084075738, 0.859751602671949, -0.2406822651623487, -0.44373309062941513, -1.0044535523009694, -1.1577448785899365], [-0.9624660875178412, 1.322698201856645, -0.886422642615228, -1.1314805873164235, 0.7402376562613642, 1.0114734135027854, -0.8814065468480884, -0.7233032321217466, -1.2275772588646503, 0.7894416357031844, -0.3389255250808938, 0.07382626865368172, -0.580582010384952, 0.0802676885596986, -0.25278990915673216, -0.17546378198072998], [-0.13295072936105679, -0.057709629377047385, 0.17171956738413213, 0.24114748352401455, -0.8426967044462584, 0.5006702057922197, 1.0452315112609347, -0.40382375279569016, 0.7297087549045187, -0.5683826600040267, -0.16517850074069074, 0.29002357596281264, -0.7195896567787881, 0.033121313930685056, -0.39944501607167165, 0.3148204947695845], [-0.28671223524077233, 0.14187643391683208, 0.4775147369373661, 0.6154177318042668, -0.33823351099379806, -1.3670305509136653, -0.3438457395667523, 0.5626057928836433, -0.03931010321010961, 0.15981511169640814, -0.036597198237009146, -0.2889152978731788, -0.375091100724768, -0.9421508132714858, -0.9761284747290275, -0.1314445625564464], [-0.1493622374850524, -0.300266006600039, -2.0975430282217813, 1.1288371932660208, -0.3896277008976634, -0.21089921161981975, 0.33059846924026043, 0.7195982072901633, 0.4438058408822446, -0.08726486577825268, -0.042414731035236825, 0.014626043349657128, 0.7134681155127804, 0.17000219580021342, -1.2102639058980926, 0.996385123566328], [0.6067883739600892, 0.09083734809132973, 0.6411681490221397, 1.030166688691017, -0.10708592203830708, -0.2806213815212399, 0.08137322255608581, 0.022678609793703314, -0.07992783373211246, 0.6397753659730689, 0.0873234236180134, -0.039977637474098965, -0.6493529040579448, -0.22061977527317497, -1.7279714118472829, 1.0382465182359233], [0.562451092088779, 0.3854381332693432, -0.9376156974021141, -0.2779743672671843, -1.3872349179189225, 1.4928605740524126, -0.5020345267428798, 0.8140881591044444, 0.430775457283436, 0.08768563142349256, -0.02365546447244353, -0.02914935996599488, -0.22870493697622063, 0.41400966114256177, 0.9530754193459354, -0.1884457201537358], [0.42260564283228597, -0.5698385949304884, 0.01766455944839379, 0.4611441003531962, -0.5768304201103291, 0.4572361826810342, 0.32718493940467486, -0.9924713131242454, 0.35729686209386, 0.42079567006321505, -0.36835610553060116, -0.3026464333778717, -1.0170798724554133, 0.11034950118379638, -0.5039570724703704, -0.4618368783182566], [-0.38573082908721223, -0.9664807791767402, 0.048576819042017945, 0.17754354626957142, -0.8682834571453533, -0.42278088028457, -0.1522294754426102, -0.3190727565701019, -0.37026925014212575, -0.8322272018334091, -0.5322232315875858, -0.01287913407069341, 0.1280772571296369, -0.8401352401454796, -0.8339225639447921, -0.02104149069829958], [1.0271560497083967, 0.6498842461457222, 1.0451814929244319, -0.8041021656511846, -0.7267377804021714, -0.14049968212951758, 0.308957805251438, -1.0474798506235652, -0.049217006509011896, -0.6890846616729474, 0.24612720392660026, 0.16798134829478023, 0.14403354925089495, -0.5811337406432608, -0.6916251206403113, 1.2761269716329044], [-0.32906044984607313, 0.6891973360388355, 0.3701278463028209, 0.3018002400991683, 1.4625022287510316, 1.2129233467866367, -1.088127698306631, -0.8063103412762094, -0.27724015559140575, -0.04031984963236479, -0.9178558746983716, -0.46132009908225513, 0.6077318948315762, -0.14313102476352457, 0.7100372343975374, 1.3605573854252382], [0.6120987811053746, -1.9995464424925682, -0.23597229477763076, -0.4241240455343345, 0.5970211861451121, 0.5644310589294477, 1.2532452404502308, -0.21434128769201966, 0.46945932902418264, 0.9821082361847812, -1.1167889496846952, -0.7963490829664455, -1.417046305167526, 0.045221095026167724, 0.29529052011601603, -0.758838586191894], [1.3238952845089118, 0.29757261195342377, 0.26500545607152187, -0.8900390638270617, 1.203930228423236, -0.5375863882303795, 0.20097248574257626, 0.7085970780888584, 0.709402063842333, 0.6991873209372974, 0.9441307777314075, -0.3127891791156995, -0.8781638928765086, -0.20930443354348074, 0.934187852593309, -0.6106347182877532], [-1.1399706754712933, 0.2809165271001726, 1.2175294468888893, 0.681380087116626, -0.08047011173437724, 0.059122992638917723, -0.8603758351459622, 1.6270814361673964, -0.6041138636742088, -0.8412196841626464, 1.1577784357689043, 0.5667698617991219, -0.45450420884689624, -0.8758850368503808, 0.05935354680073818, -0.825854942380553], [0.06835853982144235, -0.08298164988971818, 0.2167455544601145, 1.3964042205041676, 0.16002701991131324, 0.12053874339083753, 0.3059508276508456, 0.11111614006500845, -0.4013587245830637, -0.1292818113054502, -1.7035658823283137, 0.0020536196850585164, -1.7158560046099796, 0.346920005324345, 0.678240595748763, 0.8129917833790081], [0.2633029603544779, -0.5437192805867022, 1.3238393591452005, -0.9720274865288147, 0.6934672294550571, -0.15838710265665845, -0.17921837508393967, -1.2275736328061715, 0.21931061029123355, 0.27211983950436636, -0.20938754196471016, 0.027211084911419103, 0.2900196619690124, -0.011247527434341764, -1.1487521533873266, -0.5952114746505314], [0.13357613805719987, -0.17215669062906663, -0.271277075472386, 1.2866202912651303, 0.35538243893571975, 0.7141844205709023, -0.34821421290099003, 1.1454494453546542, -0.22155215667788475, -0.92049698858574, -0.03066091914462246, 0.06641663888478452, -0.30466749055795045, -1.0620746522242377, -1.6631885266769102, -0.4446315508366272], [0.4470582165260798, -0.7831594973661926, 1.3628781924057376, 1.2732755083297855, 0.4723785029781631, 0.19835860894888863, -0.5864245520161411, 0.18969188244203483, 0.26693206242787904, -0.3714236454873629, -0.3848243548426734, -0.32546270945829747, -0.5506990224994964, -0.3408065823764066, 0.7378612937350523, 0.19083370809014555], [0.31252425419258145, -0.4867133762797554, -1.2994760627858444, -0.32153391306700463, -0.8092023522029025, 0.9347581964088527, -0.4368957978661815, 1.8745028814837856, 1.7012601760522361, -0.35419924808623277, 0.7722286397008579, 0.22940321756327453, 0.08088662357385513, 0.3180551566522738, -0.28114171752174927, 0.020177535209194658], [1.0646611945839561, 0.7637145170468103, 0.2920920618497111, -0.5690049215774635, 0.3104826171462502, -0.012324055351923026, 0.7770494175355828, 0.2253144494890265, -1.1047418126491282, 0.3256443931369299, 0.18313093918144596, -1.5543255872702897, -1.518527262897212, -0.8107983921949787, 0.16865207652934594, 0.21547426438945944], [-0.9507978409000922, 0.7614460474927213, -0.6086409478027638, 1.1135908836119253, -0.10472668156970855, -0.02260982542728407, 0.06673335766853308, 0.9870530553440032, -1.9118189410962012, 0.882323843500001, -0.21598854434907913, -0.09394842365554265, 0.10244169779043244, 0.2993149741263652, -0.3940901653294179, -0.1307050689498354], [0.7100712189588678, 0.7296876607764082, 0.7182571155012414, -0.556626247245513, -1.8341730969703343, 1.2745190957995922, -0.22938263170582734, -0.2587405470780748, -1.3214572706229735, -1.063531676905564, 0.3626774661017535, 0.10205304769872162, -0.5671180841644734, -0.48754615854397687, -1.3729778853113956, 1.0094970495982123], [0.7972475230547615, -1.3400034535421663, 0.8683377869124114, -0.07284469427282389, 0.001355408621619203, -0.1748010573397089, -0.3340049722157593, -0.9501667036915871, 1.536135070141369, 0.41656590123370707, -0.8358024868892416, 1.2280614919016049, 0.5641909760637733, -0.3809506258970935, -0.8966799110169876, -0.6035361664988963], [-0.8182840361761672, 0.3335755542175598, -0.5898616726443566, 0.4311341264264572, 0.4290946110364159, -0.4316196773309816, -0.4477305057533053, -0.3405660230976171, -0.0316520139072021, 0.5769042728228067, -1.6607996649391525, -0.1415239854722024, 0.517027869931543, 0.5886819313207412, -0.22743173917227968, -0.6584900364478526], [0.07741500389208533, 2.3498827023291473, 1.7818984624475156, -0.6752730706094616, 0.3168507623206324, -0.09842598598357408, -0.80995370156554, 1.0383462733683926, -0.20185090937799316, -0.005449496464504343, -0.27770686007825574, 0.19544594389830508, 1.2827304356974616, 0.09230040736119832, -0.30387627839420045, -0.1261783485772292], [-0.021958044235062313, 0.0029439608272825574, -1.395012883299186, -0.3315739817541391, -0.4551991681835831, -0.7056926693922445, 0.5726178576605899, 0.7523478089119897, 1.4398021137214758, 1.1188415748037306, -0.7069905716249113, -0.15076347576661914, -0.3456902352052675, 0.5782504355567247, -1.030182469438125, -0.33372978573817047], [-0.7367373491581919, -0.9908616778379673, 0.22815164426446666, 0.5229041193100021, 1.0049947443044775, -0.04878272244197046, -0.782296381207417, -0.02009761564116179, -0.03051437580947565, 0.13614335291045182, -1.26527859958084, 1.1992109430996196, -0.44131149952487314, 0.6266953935802437, -0.5022979271430276, 0.48286954217346173], [-0.5514051188492584, -0.4290240636943856, 0.47664949751319674, -0.5418426772184142, 1.3710300446597745, -0.7597755661845579, -1.1275992362129392, -0.5191724848792869, 0.4423128895429804, -0.14690422701881875, 0.6549281398070097, 0.20897523455767908, 0.2402695538942281, 0.25268630321287056, -0.3080656726536969, -1.2915029420711615], [-0.28309806554167294, 0.9349911107467199, -0.5485365826576568, -0.38992224930899866, 1.6254664317923633, -0.5305098355192, 0.6894154185302419, -1.3193802312725298, 0.5160863518939125, 0.6722889079474145, 0.2459958346410321, 0.402881443248737, 0.545362920428864, -0.5982251707436811, 0.2976131512515927, -0.5546067205050041], [0.07831890149936895, -0.4322696113566612, -0.4424118334882861, 0.3075575907078133, 0.3178658442538864, 1.1459242375135301, 1.1413826167368109, -1.097798153049001, 0.7439847385158643, 0.1152562211847817, 0.03102139791921535, 0.665351206685026, -0.8253559268719308, -0.3036974145941083, -0.7260155851776049, 0.2678510765002893], [-1.3044781708332343, 0.5650957851059288, -0.4476060041113395, 0.24821175079706959, -0.8893409954912458, -0.39936253840281, -2.2097469902520106, -0.931294789605642, 0.9666673670149601, -1.6310533441957145, 0.4938416678025104, 0.0007780705870852056, 0.5340676453739683, -0.8790519753430404, 1.389612583305577, 0.6704583881577612], [0.4888952262736922, -1.2002210967298763, 1.8708135312947403, 0.08633119863847075, 0.4320936001165087, 0.1350945684523096, -0.48854837420825475, -1.9185624451534775, 0.4610064527360674, -0.2589774786344405, 0.3716592788451904, -0.021876262763116036, 0.21885906205123273, -0.6644591652702985, 0.8805595179013548, -0.678348824151994], [-0.6392833689720852, -0.43464713644984804, 0.009669450949589736, 0.6188930748068748, 0.6117504803246658, 0.25493200043901265, 0.3173586049748613, -0.3559336247325892, 0.2898079474186468, -0.6150503213115326, 0.5340472545789243, 0.9248150859970484, 0.6619460985312575, 0.2893862294995912, -1.2282187053057825, -0.26820093024435726], [0.8608618373809094, -0.04071342620595142, -0.45266306500414444, 0.6041154413425208, 0.32273463277231285, -0.055142992013653414, 0.46393092723419393, 0.40745174043503063, -0.8226130465685861, -0.4926628959751703, -1.150759180183944, 1.295331698433366, -0.5180008316679854, 0.4350409722556686, -0.6497967730688321, 0.4930664942706344], [0.21007260486528243, 0.35526841453854835, -0.8524538696651063, -0.7758443590288254, -0.038098289014702164, 0.2434776118057198, 1.2128406800002354, -0.8579700940880928, 1.0723451556366388, 0.035271240793736836, -0.0007089019758559634, 1.134543282085117, -0.43068707405985995, -0.9418521306467981, 0.2457922415233124, -0.6027010877175223], [0.5040878803258053, -1.1215880162306695, -0.8800897320421597, -0.6984262471713854, 0.1835812221729967, 0.15227179860532336, 1.2034154758185687, 0.7686427630921167, -1.86724576331486, 0.5078966205980194, -0.43205010680507516, -0.2487392882049802, -0.14466550580761614, -0.34385488631183536, -0.40994759669330366, -1.0199092235363056], [0.4618019505674804, -0.1148458527485823, -0.5785894161853478, 1.6617307451703986, -0.3804771122102031, -0.18335390712655641, 0.8785678737028427, -0.45348686237501834, 0.4485351759655617, 0.010893299558521363, 0.6485583451266803, 0.06423162142124718, -0.5565667303230083, 0.6459058936498487, 0.6482269355291703, 0.33503882900314347], [-0.0836119430858078, 0.027287986972142967, 1.358225538925724, 0.6925718310614747, -0.5370934180526189, -0.8862468344788534, 0.40985386564996074, 0.41844857513824835, -0.28940589934558125, 1.06707895675142, -0.6389970378079719, 2.9674218677053212, 0.1781367237320471, 0.4632176320488639, 0.24800581067920802, 0.7252146781549531], [-0.26754906057879974, 0.6960282280795156, -0.2309159823053649, -0.24858950636887783, 0.9536836360000455, 1.49402508221887, 0.44396708189969664, -0.568415940053899, -0.5628503374248239, -0.8752456683721138, -1.4529820964555695, -0.33640727185496333, 0.48449065658597407, -0.2599869367188354, 0.41328899004552466, 0.928803470948966], [-0.8250327264458921, 0.29564271266943887, 0.9978408782145917, -0.5924711668748518, -0.6499621172479071, -0.009635844442625358, 0.5513341157417904, 0.31239996037186474, 0.5747491550812964, -0.8215729766267494, 0.4780407982179563, -0.9417400808122603, -0.23792884927840763, 0.7745873999923198, 0.6446121814229975, -0.07820923228305765], [0.967017296756804, -0.14251482247771896, 0.3839863386540933, -0.5262567252012957, 0.5249064835361131, -0.37698177670502314, -0.14137226323145208, -0.9353466028367042, -0.9092378864664548, -0.9917067940178399, -1.0829825088503031, 0.03248852744627266, -0.7484741382984743, -0.13608507689305124, 0.03600060791276888, -0.0386817906943554], [0.3974602206942113, 0.5752310751337149, -0.6087292171514307, -1.0373496320542406, -0.8579101477877717, -0.023678378091810337, 0.8239980180861808, -1.495023244528551, -0.05338728434642548, -0.3554579949243498, -1.1441952517996608, 0.5676689990589975, 0.17281228273751562, 0.5643363649802916, -1.803064044745038, 0.5579809557769351], [0.42322309000214364, 0.7409693474215227, -2.293236583360255, 0.6767059970568507, -0.7512225741544798, -0.16371665620958314, 0.3684805634457138, -0.546206977160896, 0.37036245620763797, 0.1028170599536648, 1.064371893602902, -0.7620890237958844, 0.014945282748744015, 0.5418556381786728, 0.06226978566069069, -0.30038120560188963], [-0.8649622229622719, 0.006478772169774355, 0.527692572944497, -1.4456387151734835, 0.27470485916615495, -0.5009154687124271, 0.9532806948867594, 0.3785514931520575, 0.2059909915717162, 0.4642723423747344, 0.12341629655667402, 1.327484935631188, 0.5139870137827364, 0.6363935820794694, 0.001233681897816974, -0.5008412022581755]], "b2": [1.3619992317259877, 0.7589124064038295, -0.5925233227888536, -0.2328423269953564, -0.050458912658031596, -1.604907332930816, -0.18996837478567186, 0.02476915161491547, 0.1174151719711897, -0.004418372913710944, -0.7649924213489776, -1.0113618376935205, 1.0301831841488271, -0.47892780439926214, 0.5980526339731089, 1.4550862861151908], "fitness": 0.6010204081632653, "wins": 589, "games_played": 980}