{"network_id": 2, "w1": [[-0.694966232596973, 0.34133497408712304, 0.11131291212266314, 0.5891155332608174, -0.29465762458002265, 0.4926702240884841, -0.08568836745728459, 0.6853135563585286, -0.022614551917981562, -1.481949254815931, 0.11711299698452862, -0.05347676720157324, -0.2199903449437211, 1.2199955605142867, -0.15886936138755525, -0.06418226700359347, 0.41064454825220953, 0.4366014730938407, 0.4490114023740346, -0.8832509710349927, -0.4561187707248602, 0.34425962750048544, 1.0648493871737157, -0.1254983799697395, 0.1863859306919804, 1.261224792705478, -0.51994945277662, -0.18946360731019227, 0.5558996543031127, -0.09428173477039686, -1.1713884741052343, -0.8700844999354239, 0.9749342662985906, -0.28588093319462227, 1.2358310304650948, -0.27054518541643524, 0.9062204618660684, -0.18437024256589765, 0.403396974564383, -1.2532423237316537, 0.255694566446553, -1.0126369829979578, -0.05096218284817064, -0.7367001790286678, -1.4170941718667511, 0.662112138308542, -0.5896070228538453, -0.00939469354749961, 0.4641203932175191, -0.29774994752739703, -0.5010231047926645, 0.1950168475023688, -0.620707809735382, 0.3617433453045485, 1.0832385885049927, -0.8134784604987371, 0.9116926210159186, -0.0765886562223006, -0.9577627198496104, 0.33732273953634573, -0.5108657815041616, -0.6412919834682647, 0.37015504562088564, 0.17175247138261213], [-0.7000410078790285, 0.05555595077809233, -0.7135568429110564, 0.7181455728744841, -0.38061561210956946, 0.7964368487902183, -0.27458983545984206, 0.24971650625444525, -0.19355453018486296, 0.33610651795173263, 0.21082097571425118, -0.5010120078594417, -0.9214171404653217, 0.45894922369607977, 0.8062619823161652, -1.3305961588673765, -0.5459881214460478, 0.2291440360621564, -0.8580117146927906, 0.7312589685158666, 0.1219739880627983, -0.31103430689196754, 0.796029530428567, -0.9518738527592432, -1.1801778589736265, 2.064641751513834, -0.6383971514642753, 0.35093795130900235, -0.5620640781022688, -0.02142448311763237, -0.23174548739935097, 1.219611131540419, -0.5237285959828073, -0.21952174180244777, 2.0532006395121742, 0.9662024289780473, -0.7325773129235226, 1.194749619525838, -0.26228764620180506, 0.6157853101835764, -1.1562134940573094, -0.7403369073316688, 0.5147571584655215, -0.9413592425287853, 0.2932185180678946, -0.21666029727304464, 0.9041666099058108, 2.2211892806231592, -0.1391691735004118, -0.27213533668562395, 0.7811900640740461, 0.18928998767717065, 0.07725440090960456, -0.008531895910655285, 0.541643282805586, 0.23611129863410685, -1.1660855048162893, -0.7773847110390517, 0.32275003340452363, -0.6370482207302558, 0.1661909836124637, -0.42164527408713887, -0.9068948706733688, 1.2026812467576038], [1.0606447608904483, -1.399259486579815, -0.8525001697927751, 1.2552864303645999, -1.0952825957723826, 0.5059854537941112, -0.3642210797640585, -0.08613259386201721, -0.42814320639819897, 0.2796255963107775, 0.9579855081399916, -0.9355544170308029, -0.3330611443443108, 1.9700542135789152, -0.021488030359114133, 0.05639594455612612, -1.2602663758392432, 0.3654984658363152, 0.11322761733489417, 0.6530219038839351, -0.32824774523041567, 0.19511345548092807, 0.1512055327071514, 0.10687493251101113, -0.7853650219025585, -0.2836748156442987, 1.5479800029894035, -0.22034889602879354, -0.27179164010153983, 1.1554083673244817, 0.2445939066104751, -0.09257114837102054, -0.8555756203752121, -0.7104403997012456, 0.5057427779845557, -0.1966090638491519, -0.261863781054826, 0.2716132023556838, -0.6913026275552843, 0.5599424548707832, 0.8266939510872999, -0.08567217731484714, 0.46912582056861485, 1.302807721812446, -0.664308854450719, 1.7013480443816196, 1.8307356563454307, 1.0301235703197185, 0.9498018857638268, 0.045983596825766304, -0.7318103188266908, -0.03791802186196169, 1.9092033390050422, 0.834662636618706, -0.04876132581303064, 0.2815241431110533, -0.6470419826426572, 0.2234534889518653, -0.22753981833296694, 0.11074635489506482, -1.1762665222277207, -0.17907020874548638, 0.6165862618702452, -0.1397868841894005], [0.6353144397279078, 2.017127853574088, -0.6613619625242303, 0.2792209377587886, -0.47635226626525595, -0.7142382777679426, -1.0598766413251395, 0.08547675333014479, -0.5297738608271569, -1.2498629446574003, 0.6335931976969515, 0.6134463687807495, 1.0402207508936188, -0.4173909377658867, -0.35931021398990726, -2.18737494539146, -0.01137903904911583, 0.1931262624327069, 0.25140456486860674, 0.5440518314041951, -0.7465482340975648, 0.9005139690710305, -0.24783989959482564, 2.2687554263915457, -0.8791568570825716, 1.0984873372309911, 1.1212013698354624, 0.03650468229743211, 1.3393150602097115, -0.5292077420369454, -0.2668878241148593, 0.33653101610421177, 0.48434738733734073, 0.2562870738019087, -1.4454624421617097, 0.36827380111541685, -0.009939326159348408, 0.3851947344986488, -0.22393953452752696, 0.6335098354069467, 0.5829738714105841, -0.5698065665283317, 1.0018917099274949, 1.0096219989350437, -0.5403322422331337, -0.6590368550855442, 1.1694996319877429, 0.0871045817274161, -0.46232843066735985, 0.21197709980724594, -0.4634978359511127, -0.6774185188828588, 1.1401059611222912, -1.609151118998884, -0.11219714511987638, -0.6723772874397415, -0.45143052981668286, -0.22462016430476903, 0.7594097157990838, 0.5549963636897787, 0.6853867574063734, -0.3619591995504117, -0.5937475769154001, 0.30993504633249425], [-0.17822862842035264, -0.5933379145881645, -0.35099166151358635, 0.6087954067860673, 0.01799090035201159, 0.24807452625118465, 1.010836068508107, -0.7513921463824351, -1.5934943267619457, -1.064937204472724, -0.9499365192862719, -0.9965706272052235, -0.3213514602933621, -0.192285322994233, -1.131541226719921, -0.051280089121648574, -0.9776749682349315, 0.4305123786678438, -0.9518934347183308, 0.9298524260128449, 0.04492874720389768, 0.4028069501648215, 0.8162724702843777, 0.17078836329927466, -0.16181540164773678, -0.4174825750348209, -0.38717234308883147, -0.19866211785826063, 1.6148494130980209, 0.2557076738005295, 0.5633828395626699, 0.5915697994328409, -1.210219051724391, -0.06550738831386095, -0.6872460412378499, -0.5897490319406612, 0.5678227102807948, 0.5444862098015004, 1.1793480153259632, 0.16321430203150206, -0.3308208251272641, 0.22010591844617186, 0.599201000569265, -1.0567423995594143, 1.177265337723501, -1.0107045176568696, 0.06302603011233282, 1.9148558594570635, 1.0256655591222013, 0.7680113911975976, 0.7335395000538967, -0.0792553066005412, 0.765822753122067, 1.2529353152185758, -0.6870980014544437, 0.1104999257378268, -0.6398259012006218, 0.2211562331422251, 0.2537241845315528, 0.2644518942392999, 1.595656188412714, 0.16863903964546548, 0.9810648826180374, 0.5536074836103242], [0.6864994749148886, 0.7935570987364644, 0.14226258669828942, 0.06293772157959605, 0.12414484247150342, -1.9173136897830205, -0.20684991298818586, -0.05244581592463421, -0.1015707309818975, -0.7945025944870507, 0.06742378860771507, -0.2656752273143338, 0.23869366132230097, -0.5621339117897682, 0.2727956192236106, -0.38208796819974744, 0.7545283626526129, -1.117825845754224, -1.0973130801936257, 0.10902730291006127, 0.6596640021693019, 0.25580615272153356, 0.5962886068962749, -0.5182277760456016, -0.1662659817510292, 0.4254564612741702, -1.6016735937179731, 0.6964069190660236, 0.005468353985328217, -0.3839713640413683, 0.49396763464003934, 0.2087230079569678, -0.4834249275764065, -1.0803158978961693, -0.26088555699437815, 0.13809363612822026, -0.7265105898960594, 0.33385278134079194, 1.0555090273322443, -0.36705289099594257, 0.0013448863252235876, 0.32640897854681766, 0.29496382137631516, 0.7295466176825911, 0.3557484272638006, 0.6046003783138638, -0.26254960121484594, -0.20747239080104837, 0.25615752800544245, 0.8310709028840885, -0.03227867715206398, -0.30359709011128144, -0.012806169370646603, 0.8532802483772648, 1.1086959982399829, -0.5579270825261788, 1.0256093928889483, -0.2898897226602765, -0.09021985468109164, 0.20050347420053888, 0.1759090083824507, 0.7133462700000204, 0.5080151878274721, 1.1550075917597624], [-0.4731236357500489, -0.316765272683645, 0.037572620968778704, 1.0230653292420886, -0.5046665011850033, -0.535397612266348, -0.31272569904558767, 0.9795879497624791, -0.2671610804090256, -0.6389757119680566, -0.09026439711634154, -1.203033572443797, 0.4166215678466293, -1.8771375978720561, -0.5059476891969524, -0.16533350478923137, 0.5583414733850003, -0.6438869711329783, -0.7515372461306337, 0.3980932407871257, -0.25500612610936896, 0.009946959965354024, -0.4776291731353321, -0.9557794996569382, 0.26425311941636115, -1.2368279603811774, -0.6423056250773537, 1.1292431702082872, 0.9182809501779392, -0.6086957967374415, -0.06101447196115484, 1.3846192367862828, 0.9169426766666472, -0.6514418632947858, -0.09368838968842513, 0.1790651989306936, -0.8089808325149537, -0.007350915061240693, 0.44782946872067014, -1.7072102697289846, -0.6980457649307796, -0.33216195197150755, -0.6321804782214704, -0.3956557781239912, 0.5672678486521149, -0.15169304470317135, 0.24275865516184394, 2.2214233814172384, -0.36536495329826835, -0.2118860815196886, -0.8039662313475333, 0.09000679537848572, 1.2337140167036078, 0.12073113585199047, -0.7794814929842901, 0.6187956513198114, 0.6536281425738513, -0.27538254066202694, 0.9375381557697021, -1.3543847370700675, 0.3723113040677182, 0.5858754615993645, -0.837960253821892, 0.8762138837957933], [-0.8387124472210137, 0.45357592529119267, -0.19783585740041573, 0.018740065416018144, 1.9251778495032963, 1.1993485711955292, 0.3109311600398647, -0.05023103090616016, 0.4489957017563445, -0.022061427159511537, 0.22103880146435229, 2.07514707879455, 0.4862923445290172, -0.8466700313082811, -0.42292482161206346, -0.590390153632394, -0.3980644472157625, 0.01668342523717628, 0.7882019212917712, -0.21027056098631858, 0.09627439910089672, 0.03340661096087104, -0.24946103582183093, 0.4367304671123171, 0.15973856741914483, 0.3407160657386344, -0.43149677687211374, -0.5918616508187757, 0.653371418238868, 0.311982525486985, 1.462501415747769, -0.6496310444827386, -0.09716391546705028, 1.201565317972985, 1.051923748202146, -0.3598421084062539, -1.0749080000790527, -0.06587110095027499, 0.3617843932922101, 0.7589896747845906, -0.34138487830032826, 0.041777667039479216, 0.8265965212405463, -1.0062005987371778, -0.3063681983932397, 0.5707696166511682, 0.13445363983581549, -0.8854531241604768, 1.1116722208646816, -1.57210008503754, 0.7727615988835101, -0.21361257000026823, 0.6171361097235128, 0.685258412785991, -1.6529642957313408, -0.06844335274947733, -0.17238126788054253, -1.161199514508536, 0.8185726395441045, 1.4563651518264151, -0.5575523233660754, -0.6955885713663024, -0.5659744521939862, 1.6846985109377226], [-0.49718780415320113, -0.5542872233439728, -0.6129977917281746, 0.417781131720405, 0.7245109024714299, -1.959212840225953, 1.0188128051732679, 0.6220189124857447, 1.3052510418098717, -1.2931491726355302, -0.2930893123565469, -0.4701718498759316, 0.22189011938839834, -0.642177303756401, 0.9976341731799557, 0.349545262876574, 0.359245642448372, -0.9231505101283548, 0.5166373772114508, 1.4050400688458997, 0.2992503392803822, -0.869688893599524, -0.5854339841888754, 0.2136820390209876, -0.4572070335293487, 0.40533535794768566, 1.0597140697162466, 0.4736828684842951, -0.375644934218906, -0.26551633132863, 0.017564816038202452, 0.9642597283363156, 0.17369576035177695, -0.3910455873781135, 0.24636667144050334, 0.5855373109492139, -0.9022114518471941, 0.19018567790273774, 0.04175237720845011, 0.2829063193076452, 0.6147372996162003, -0.6203862391833529, 1.6404598863388056, -0.681327959418086, -0.26032456462330333, -1.0373450172469294, -0.5190917814919817, 0.7941355721786396, 0.9901615397591378, 0.8022768027512441, 1.2070630230369326, 0.738125826482565, 0.7774842419040142, -0.25350337599043754, 1.5382692748343396, 0.1398943566730645, -0.49627815764316685, 0.5478914703350537, -1.3599862671935428, 0.8100643924347686, -0.6468395897976927, -0.3122214426450607, 1.177312812897762, -0.6437707665024567], [-1.3119460159808234, -0.454178621618597, 0.3250939942591583, -0.3121508182199444, 0.720478945967446, 0.24036518506379193, 0.9591714973779233, 0.7963496887177217, -0.09053760238115705, -0.519973478565223, -0.43554081609811657, 0.062465611937540716, -0.7870789761901023, 0.14535423514495155, 0.0972189817469134, -1.3939963172553118, 0.2761497629578247, 0.20756592809529645, -0.9558455141136253, -0.30068478200593596, 1.1009074382006343, 0.3577608128626461, 0.09432745551899999, 0.3470794830711329, -0.33708506143999456, 1.2022094218686563, 0.5336308089167047, -0.553882327867854, -0.6328330472196366, 0.14836208312925123, -1.0822992239080136, 0.23762835986820785, 0.17800685188045726, 0.6093202993644204, -1.5663961355664076, -0.31716334108570327, -0.9538665274457556, -0.19201708174231272, 0.12117734938970359, 2.020429061169062, 0.3788686386987966, 0.49842853315211866, -0.8547801774173391, 0.9746569113000387, 0.12461052355001095, 0.019652027199559968, -0.4075978619140373, -0.27953370837945135, 0.3167731361904997, 0.2916007566006396, 0.5512195798629097, -0.003962122462632223, 0.42257306931478505, -0.36248214035435816, -0.35829724204230307, -0.3346236323001209, -0.3552382319608273, 0.9445406108991093, -0.5421999567987111, -1.4223754203197085, 0.05839625881502425, -0.06226455048348023, -0.7396646827565317, 0.28252996115727436], [0.7294236002462989, -0.36031573417971546, -0.4365872270549087, 0.07162824430121627, -0.22000948734009426, 0.09461718377813912, -0.5299362856080082, 2.607761957060874, -0.5361232670080813, 1.447645871973811, 0.09906872963487895, 0.5004391683044563, -0.6892955891245365, -0.6632548291672764, 0.01606607838868168, -0.8351210390118577, 0.48472864548267774, 0.6926684240758642, 1.1176234486689414, 0.29459735801272746, 0.7788902283667773, 0.2703301925528096, 0.0656242917125389, -0.7289966821080485, 1.3337740569017347, 0.28642213128342736, 0.04290789126542832, 0.37070777241977965, 0.6325245605639853, -0.43956606787594404, 0.36740794274177097, -0.24194976418757316, 0.04200480887291161, 0.08061781573192028, -1.2486410804485977, -0.9388557299594904, -0.3433412113906947, 0.6267080408061477, -0.42432998103613045, -1.0151320863904159, 1.1372326004280422, -0.6449186024578691, 0.7539444591631776, -0.1320225311585841, 0.18926503526073024, 0.42721095424899147, -0.09491016752482373, 0.2703926436888747, 0.3361730340530583, 0.948205806005334, -0.29205341504531673, 0.8313049049790253, -0.03576814375076426, 0.7869553666751268, 0.660766276006326, -0.4022983025954047, -0.053032974768006336, 0.9079822339493107, -1.1776174900944412, -0.06859907758319436, 0.34496370188780734, 1.3184872915996353, -0.41746124998898876, -0.4335570597949978]], "b1": [-0.5821343200003524, -0.23707755135950803, 0.019164020500227447, 0.2978465354961755, 0.006733705651246473, -0.8224769180938467, 0.5453093258862917, -0.28380302277751046, -0.9657680879772643, -0.3795350602002169, -0.501817754073157, -0.6593740730532905, 0.06420086802581274, -0.22574228538984797, 0.43320439585585646, 0.2529997265632744, -0.0567546416244924, 0.6537968479728584, -0.7225750628197626, 0.13715913955205059, -0.7258082563599383, -1.6192481042305877, 0.009813981700219979, -0.9406671919445128, -0.004862696193209781, -0.623158269424143, -0.08720545336736493, 0.6094283133800908, 0.3686077975277989, -0.2032119866540487, 0.0628673890362699, -1.3875430257907284, 0.559095309961199, 0.4045369757846988, -0.7008185401309182, 0.04255232385809962, -0.3478782769943697, -0.6493150127154896, -0.1875324714938238, -0.11629717008179336, -0.29052635927837034, 0.3898665356732619, -0.34237337442529525, -0.03500446982798464, -0.14168502304593827, -0.007351562676545714, -0.0591192542666213, 0.9822334106459257, 0.9083352791061452, 0.5770926477992955, 0.025790443824860704, -0.4692254712072862, 0.6400401252438275, -0.3320831755117797, 1.0011430453750971, 0.6390678685860325, -0.20820853201414255, -0.32701705338871967, -0.18559854568503154, 0.2902197411115865, 0.5558668798832156, -0.5635351274454037, 0.9304819228444172, 2.271540952305343], "w2": [[0.23281067484909768, -0.10410246412196208, -0.04857939646564344, 0.7631149677849252, 0.32017524533207414, -0.9683008847965966, -0.28868239872159124, 0.9947240982840815, 0.6597732008979265, -0.9169282025705131, 0.7555413486108734, 0.6269255839092269, 0.2906609630083882, -0.530442423618305, -1.3331158899159854, -0.11935571468133296], [-0.36847429139225923, 1.4706669060111628, -0.008780681667149973, 0.2003339711745542, -0.09656577984549708, -0.614883774816803, 0.48026312499123436, 0.352062748929106, 0.2144226567002132, 0.03255044904176263, -0.16644368323884973, 0.08045453468313196, -0.693950743885127, 0.7534329169580449, 0.7051455347222463, -0.11240852269353627], [-0.3956846395936481, 0.12696359542820357, 0.7955481775425872, 0.25439116010439256, -0.7063846290237009, 0.40055958833158334, -0.632497108238377, 0.33061093028342714, 0.7237158199645208, 0.26553557501099556, 0.3624746081658462, 0.14188661204217162, 0.13275726803280946, -0.3790746275513083, -0.7438098703777623, -1.25192203054262], [0.14169052832251525, 0.19233250607386548, 1.0620618702901732, 0.08501489561461617, -1.1143383648571694, -0.13532816091173938, 0.45667200215337206, 0.4419716702068519, 0.4298787988776098, 0.8542701910586459, -0.6915183579656119, 0.8391753709326859, 0.8053158907820641, -0.818492274367526, -0.5269759291317955, -0.379818329349053], [-0.7337778114622437, 1.0949371399468937, 0.06443067655972079, 0.11004501039494086, -0.5516896066610636, 0.8831911889103403, -0.4888591981430531, -0.011416250362744726, -0.6567476061698513, -0.08330373392959113, -1.3420358388018947, -0.4213034750103928, -0.4326930552732109, -0.7109924130385115, 0.2593734016614496, 0.32986653061486726], [-0.24081591049366938, -0.7250226117535841, -0.4048791315626793, -0.40189389387048613, -0.8434769227933523, -0.04639080464352416, -0.957043471316104, -0.3560685475460238, -0.5504603426669847, 0.5753041323931237, -0.11681604339845493, 0.7541750097916902, 0.24750642896066927, -0.4555418117340375, -0.8573864665079928, -0.6696538725660524], [-0.08430714665196248, -0.3168594125591608, 0.9661941825650354, 0.7676469936921362, 1.1877296498253964, -0.131804655432746, 0.37320383804546964, 0.6554616967143811, 1.13805262057413, 0.019294868030951193, 0.6877592373062085, -0.025894874451875147, 0.1532762097142046, -0.3508616168366422, -1.0909006244122463, 1.1356718438635147], [0.509910911568758, -1.4290566736105974, -0.5701411585544824, -0.6879106513384745, -0.7101582932515792, 0.8212282071154815, 0.6804828283154307, -0.5500236569900433, 0.4491034244229593, 0.06314376829051405, -0.0898920318835213, 0.9085701462595188, 0.020277471862974794, -0.3443177236826689, 0.48906043163410273, -0.3972313418434879], [0.923260665542947, -0.620009363375237, -0.03999322023740273, 0.023102883540253583, 0.4903412731607811, 0.7834386529441306, -0.8823640188280962, -0.6222358548078712, 0.5891616880036419, -0.8348841550699193, 0.9833586308694642, -0.6176394048870512, -0.7443506082512623, -0.7957055721871429, -0.23614501639308702, 1.239048273682243], [-0.08474187296661079, -0.15179189471087773, 1.4448480085293887, -0.2868073496162157, 0.322756764483729, -0.13000684293881373, 1.2178843984322796, 0.010757658030732253, -0.8667203052437906, -1.8071455802427807, 0.8031839931156612, 0.3307985435830935, -0.8652570075282162, -0.8478668476673649, 0.816731543877005, -0.7591491060778268], [0.4943921065667876, 0.21168502147487156, -0.6387646225882753, -0.423935065645485, 0.8974528654378925, -0.7486835117248476, -0.13966029503678945, -0.735912848898607, -0.8707046614612355, -0.7868206477394117, -0.7290068746988002, -0.9663266877182343, 0.5978582628847735, -0.7526961688689444, -0.015245779680270063, -0.46625148587194465], [-0.903616026348091, 0.16732445843241062, -0.3984385476931742, -0.02702985185342935, -1.181007439953767, 0.24001917599519032, -0.21202135542251088, -0.28327493144314153, -1.1219760819085616, 0.3611033378268919, 0.41361784456627326, 1.0707739385981503, 0.11914884385089644, 0.2640594805788333, 0.05068198048655942, 0.3376814713319199], [-0.7465802201223973, -0.06545763950992933, -0.15934792672032702, 0.921317478399378, 0.8909395319630913, 0.2944473528182079, 0.04376006962220769, -0.3185287380485431, 0.5453916379075838, -0.4031595418667329, 0.44985541506132154, -0.9363830603611201, -1.0207455215626433, -1.1517191716976796, 0.9205565931530946, 0.3895305127019295], [-1.8515313299451797, -0.9013193682954259, -0.2230010352419653, 1.520134230104219, 0.3787681879026268, -0.35665250895382417, 1.4030058750723708, 0.2271410745253332, 0.14769664674440525, 0.10802669271377667, 0.6001004177083151, 0.2776533784970098, 0.35193376573317126, 0.768718059815459, 0.595087878774401, -0.29452061589563705], [0.22576998674840487, 0.5781013571326673, 0.13167339977667286, -0.013277942533199416, -1.1226974893183865, 0.15722107750045367, 0.575699235842456, 0.5199988221815548, -0.3261435637739118, -0.37835919346561764, 0.859900323540941, -0.47588994615794433, -0.24696311886759312, -0.3598311766041844, 0.1324356669690932, 0.06384900706114735], [-0.06646038503117506, 0.21689997370115724, -0.18604545389932667, -0.6763386941895028, 0.5416427778850408, -0.4854346635709171, -0.2845616404274661, -0.14323773351674904, 0.8107824162577891, 0.058944732679110656, -0.21233889680490992, 0.3239876190295288, 0.23006653274304406, -0.022208680040609934, 0.325750015666594, -1.230658694312968], [0.41578302258444466, -0.3153577257765738, -0.14119903736595746, 0.8968522142138672, -0.13847304044839776, 0.22002948221510849, 0.9147605134434291, -0.3328075602365498, 0.16978615943696418, -0.23370475720544892, 0.8174035822963238, 0.23238530756096865, -0.1677154714731129, 0.006157505492742521, -1.230371586733301, -0.11489956907427107], [0.2820599332364392, 0.1402580504652542, 0.20116571646908377, -0.679002459380201, 0.37393458835940235, -0.05449609665665667, 0.7091735254625126, -0.17951079369396342, -0.36323662193814527, 0.9771536259714202, 0.210007804788274, 0.30431457677611207, 0.9076203601403623, -0.7021297032867776, 0.5790260810615911, 1.1403074879037811], [0.7421500147477913, -0.9078462273882812, -0.2404488970953358, 0.16599860709345016, -0.09944285170940892, 0.046334899825953034, -0.25943855323286374, 0.29221994214933067, -0.15817654991128532, -0.3084479095132199, 0.42257265249014786, 0.29455909886516846, 0.9265526484009858, -0.0201124017106058, 0.21485433356567596, 0.16426959048433742], [0.31998827244743455, -0.2978548356116862, 0.17339745601816078, -0.6528957383594103, -0.04234401450740779, 0.2501418622289859, -0.5019447746220262, -0.3474862671627892, 0.7060921228465697, 0.8730817361150849, -0.7416430491794987, 0.3236308502243723, 0.9012049310435053, -0.34588007307089, 0.4797403223677868, -0.19297861901389657], [-0.6639103113349014, -0.32655388132373453, -0.18799617217763354, 0.20588234852380702, 1.4533136144782355, 0.4642325063100282, -0.10432150572779325, 0.12011414390987196, -0.013739044486917873, -0.5123280405684215, 0.5333517195920304, 0.9423745736578715, 0.28535186239591964, -0.21035895584254227, -0.23514245759821528, -1.0691548744501735], [-0.4780557786350361, 0.6979769466251888, 0.11719516949418847, -0.6472983894263414, 0.6385423729819125, 0.35603175512798546, -0.8163076298605317, 0.03093760505994833, -0.8240045639208716, 0.24756420154527675, -0.2518465986816628, 0.2618693016733671, -0.03800424629184562, 0.10178635759195881, -0.31835797096444485, -0.5677385491669125], [0.0651078214896359, -0.10473782910846297, 0.17171956738413213, 0.7031400842151685, 0.43991357735389536, 0.7469071574525681, 1.0452315112609347, -0.34285377462249034, 0.07762017191178086, -0.25705260307294775, -0.017406563172087594, 0.3757030578520766, -0.7195896567787881, -0.030685502427167624, 0.1290164702692495, 0.07055323138030523], [-0.20098100185446993, 0.2545789643686256, 0.5265156102268633, 0.25755324143341823, -0.24757702933718084, -0.7765996422032306, 0.11450282892073405, 0.9453533470580078, -0.03931010321010961, -0.5789348535068892, -0.036597198237009146, -0.3523686632139523, -0.06733220374113436, -0.006324814112218788, -0.598752814308248, -0.1545850445164173], [0.1722532009484453, 0.28021632745162095, -0.9183072670270642, 0.22826004578197123, -0.04711637618493214, -0.34464197913612754, 0.7251102737177479, 1.033617572414569, 0.15865255242381848, -0.19193774004442354, -0.12084694891601205, -0.4980283464413862, 0.5787515139722625, 0.05323969941146975, -0.19995759966015197, 1.1032638929969811], [0.3104965571553961, 0.09083734809132973, 0.17850175910827565, 0.1900487301406796, 0.2420539376286763, 0.675535479666531, -0.06792625209315462, 0.5413857234037749, -0.34788134228919565, 0.3550657159937982, 0.0873234236180134, -0.42729771994854704, -0.4723785477988409, -0.345195640850371, -1.0169301296439253, 0.6345748828962221], [0.5056784429776358, 0.4000946833245921, -1.248753935229502, -0.19671067810396692, -0.9068255335035582, 0.2837642050490883, -0.6930297178494271, -0.17211876751235317, 0.320142583530201, -0.06360209695628857, -0.14044247066900606, 0.9492070057957492, -0.2747220688952545, 0.49473114592422307, 0.19914667253475984, 0.21264057475067785], [0.2817372597561209, -0.5698385949304884, 0.2902611315764514, -0.01005882913376055, -0.5768304201103291, 0.17556683776494753, -0.6458161651003415, -0.8229981277323728, 0.2852514004570673, -0.05569266783896798, -0.7554709638286673, -0.5171163562591672, 0.14378613751099112, 0.05909884913086064, -0.44160980401344746, -0.10692320855236487], [-0.5945306593566636, -2.0541036995838633, 0.41326667363046415, 0.3297678162365097, -0.7627437265480551, -0.5027947381726964, 0.4123563273514208, -0.3190727565701019, 0.2818034685064871, 0.27009392772374696, -0.24823179642204357, 0.7342696569379632, 0.18013018618253385, -0.43140117197371497, 0.018245099926178683, -0.02104149069829958], [0.34997393738280247, 0.7281460614506547, 1.0451814929244319, -1.1340076020952878, 0.15701679467129398, -0.7589159868107607, 0.015186738850056475, -0.8309399215516025, -0.3751483620192416, -0.15472236773758333, 0.3020509355021412, 0.13629547065108838, 0.14403354925089495, -0.6174406920760758, -0.3496648689838047, -0.016956509588321927], [-0.34986081072601055, 0.38800879873712557, 0.5189768024014241, -0.16639174355932784, 1.1086401665559569, 0.6917572621334731, -1.027376794450429, -0.08061441420454313, -0.5471409366107198, 0.3746225385447482, -0.40188971586225075, -0.9303806191714961, 0.6853634187915802, -0.5729267645656938, 0.7100372343975374, 0.43631986636021736], [0.20984114437632545, -0.5242932653335151, -0.4555374647592078, 0.04728459221756959, 0.5228791146695326, -0.09561967009436959, 0.3438925050129297, 0.5917000309325984, 0.6239199878576388, 0.9303097595307529, -0.8762276336209303, -1.0327913827275486, -0.7266821646721091, 0.045221095026167724, 0.38353983582184875, -0.47710969011006976], [0.4601044087859989, -0.18464959670861006, 0.08643178682092617, -0.30458262399644015, 0.9143804456742278, -0.43275616989736543, 0.24995271722671708, 0.7085970780888584, -0.05469775448092176, 0.2516116314389103, 0.3947753196608721, -0.023771012708091732, -0.27165677076145844, -0.03125138253851975, 0.19722857391472653, -0.08347011698422344], [-0.5605627670619852, 0.2448215864464017, 0.3973200409598205, 0.48768804649574404, 0.5020259412967377, 0.24693676254758246, -0.9312610285248257, 0.9460668086299318, -0.6041138636742088, -0.8933763188153027, 0.7313705288945873, 0.40269396810115476, -0.7183346680860297, -0.37372989724497296, 0.38999690349245586, 0.18540431549877232], [-0.7008103793372309, 0.39443860128282854, 0.5996304270474293, 0.8228938794826248, -0.3272264813431657, 0.5590257457294153, 0.15262747428458362, -0.5997827323053819, -0.17374027132278552, 0.4058021554561, -1.1098747271504583, 0.3845879883928204, -0.5233346487558472, 0.5895860736470456, 1.051942180458307, 0.5832909136321694], [0.03630080646286121, -0.15690328932011516, -0.5705025446611851, -0.5541436737933522, 0.5959266920186986, -0.46329616491056613, 0.18615407222433467, -0.810075742289885, 0.021718046008444875, -0.47446947632542624, -0.43633334334365714, -0.8018955273385607, 0.4728215199230814, -0.63702056389733, -1.7462436580898286, -0.4407903356444475], [0.2746916924640553, 0.3655702760775767, 0.26683012697219466, 1.2866202912651303, 0.5145464324504792, -0.2825552637317497, 0.00765465648484516, 0.4446739071846062, -0.09433612725726293, -0.10204413549719582, -0.03066091914462246, 0.22467105119931227, 0.06451435669575044, -0.33551678508796345, -1.0927424849680618, -0.053169389880308254], [-0.8218223127239851, -0.39717412814343384, 1.0736591754053173, 1.2428418719620344, 0.1422791499666733, 0.13939650321425032, 0.26986460750868163, -0.4031421064759562, 0.5454683824922549, 0.2705947783129979, -0.15074718175573465, 0.3368716530820939, -0.48969798429881, -0.3408065823764066, -0.11732182504655574, -0.12420719800325884], [-0.5503346061098353, -0.13572844905312575, -0.9038349517235071, -0.11239946669037566, -0.620617519096812, 0.3560475275654106, -0.3415499911799876, 1.0457593338368636, 0.6875165397075453, -0.2082645247854651, 0.6468888452034673, 0.44149437522927515, -0.05233639738024465, 0.3050960914460393, -0.09705742626445635, 0.07076465196853354], [2.0095969892857917, 0.17589506337050953, -0.1233724165690746, 0.03260706694505162, 0.3104826171462502, 0.7089076445585327, 0.39562512080709444, -0.03672768894668382, -0.05535122106503034, 0.570568163099737, -0.32168019885152077, -1.4076460465106044, -0.9839914520834236, -0.4859271073910312, 0.42602213927739996, 0.33686321088614407], [-0.710299805934496, 0.7677782895044464, -1.4142716816486378, 0.4326673148412602, -0.10472668156970855, 0.5828406638668623, 0.263527990594595, -0.2649268608340447, -0.8538887637361903, 1.1088310018334508, -0.40105822403803043, -0.03258640546135193, 0.04292295657132389, -0.46309642019976893, -0.2607186006222981, -0.52072982148709], [0.28132790763767307, 1.043344616957937, 0.28794664396872227, 0.2703056271745315, -0.7056267704786392, 0.09418547472436363, -0.14103709313437515, 0.9741134183298981, -0.5677756248359551, -1.4262470683872397, 0.18955348114844983, 0.3888195994114486, -0.782378555553189, -0.48754615854397687, -1.203529826138044, 0.3055218747780779], [0.6216301121533488, -1.502708686721714, 0.48021918174513, 0.13497834831872757, -0.18752445817137747, -1.0126191201575243, -0.18840338594074496, -1.242341078905481, 1.161292316001184, 0.10676784538979006, -0.47134604844619066, 1.0486661365725247, 0.4128034865899993, -0.8395491407530207, -1.1408689084384587, -0.5983016002410565], [0.07626926891253535, 0.13997490645232574, -0.6493274102564423, 0.34681116491350683, 0.47591689977630247, -0.05216707333749929, -0.476901328602985, -0.33400541129894545, -0.0316520139072021, 0.9079586301784291, -1.050255710752056, 0.21365872000491548, 0.40652999004380796, 0.7907748182040024, -0.30614783354816194, 0.4645789894257697], [0.07741500389208533, 1.686428291188281, 1.7260230961464096, 0.43070901591055777, -0.16824402597074523, 0.14131073269699065, -0.5754010963462491, 0.7192364781377802, -0.08383438424053541, 0.18549441663968436, -0.045370378335141404, -0.08963838858156697, 0.40523270642060577, 0.30856118817426437, 0.07076049826581737, -0.1261783485772292], [-0.35675057921540587, 0.15384897685302532, -0.3981261543869383, -0.5018542629548425, 0.10234993440856105, -0.9770067414359239, -0.060081651211039644, -0.13844717692298883, 0.9174058854114143, 1.1188415748037306, -0.8877910346420139, 0.41623598471454654, -0.5622138773175092, -0.08925106230715818, -0.3337708830833223, -0.17198025006104511], [-0.6669400688294562, -0.5659711793550317, -0.2629413005048433, 0.02257421980490079, 0.2375419420149909, -0.22371927653733592, -0.9792557849714436, 0.07857511557312513, 0.053242341275474336, -0.3149398103071719, -0.8904650109795256, 1.2552920352464014, -0.24592945704575092, 1.39474279805611, -0.2370989020838128, 0.08261926547344711], [-0.23701511437784867, 0.006963397005031402, 0.08907361001166637, -0.6685876963970707, 0.5311482920397423, -0.878470760851431, -0.8870102527386475, -0.13621774794171104, 0.7869674378688973, 0.13695421584417541, 0.06938790650379598, 0.11136468970111965, 0.07761554549142224, 0.5782645722537496, 0.17275228321021496, -0.8237214116934322], [0.40719018977555477, 0.6373854101191305, -0.303343897026703, 0.08083705168012512, 1.3999332332960819, 0.19557117415790057, 0.7476620455388705, -0.8495763434618835, 0.7743556723021177, 0.5757851806825611, -0.0504562280802133, 1.2874243833509862, -0.027451855429523275, 0.33877552677984213, -0.2389796657487553, -0.28265899097963154], [-0.7664772938163174, -0.2568186475338731, -0.6256164398926574, 0.2585641996581141, -0.4489702416493507, 0.6083997883005995, 1.7810124224869202, -0.7814110112443883, 1.047003881783418, 0.7978419177139424, 1.205929004744027, 0.14354658050946253, -0.5664770538040166, 0.020039957065299395, -0.5689574743009822, 0.4417822467703628], [-0.3175442663009601, 0.3219780340178485, -0.4036698151592812, 0.17469062880763953, -0.483775882632306, -0.2514608141010478, -0.6730317831956495, 0.17622845461864417, 0.7752598030226326, -1.5625730601657164, 0.3085522770042268, -0.28417357620952516, -0.3311717581473434, -1.0582994310224683, 1.1471531526909942, 0.5719438371293586], [0.2902816987726926, -1.6086670071758693, 2.13903862332235, -0.2102147116339065, 0.4749038838495896, -0.2617941374473822, -0.3214557529195506, -0.7540003934870594, 1.0254471160641947, -0.20392755048818823, -0.4041075321102401, -0.10348632750399461, -0.4097657678116027, -0.14711331427805716, 0.3697579177418139, -0.20066180277290496], [-0.6147204785235121, -0.6014821704705261, -0.14727750417723434, -0.09853815539398075, 0.4597357821342817, 0.10707356114568845, -0.05419481779546986, -0.8433797170357782, 0.028438111847183256, -0.44996881749889334, 0.13854205586424367, 0.9304586891299125, 0.5324902030624815, 0.20779602803564942, -0.9747130390154733, -0.28355532436886094], [1.474569985853562, 0.34986923343787657, -0.41038811913553436, 0.1487997780982855, 0.10169779177594501, -0.055142992013653414, 0.8608746181059515, 0.7741512374818416, -0.9755625857638883, 1.0868133967747242, -0.9281816017543609, 1.152268243673074, -0.09328308165354376, 0.4739128501338206, -1.2481854638809553, 0.3664624531865225], [-0.366610785057003, -0.22671685900487834, -0.8110127632228585, -0.06574993530856407, 0.2583812111333039, 0.7566047189131958, 0.5010690480734021, -0.285852128319199, 0.8016659312697665, -0.05808925206981494, 0.11417781028642748, 0.7105062359969492, 0.18061737451059717, -1.1692101094034377, 0.7892676047456989, -0.5332791942044635], [0.09864285681029249, 0.3378331099821771, -0.7586930396192704, -0.8631290642747251, 0.4132002784606639, 0.10915128073668742, 0.910960449021065, 0.1624451417375113, -1.8801914788858722, 0.49843893401443373, -0.18212014803748133, -0.438982402460357, -0.025627622979641607, -0.5341944700892625, -0.3348432252816396, -0.6102169695670691], [0.39207322372608716, -0.46176203320350373, -0.4910304183263681, 0.23819442132504967, -0.4396228437392839, 0.46738408645572205, 0.8040353552630588, 0.2133491587949227, 0.3902875927649524, -0.3677475733641234, 0.3549329860379591, 0.14810850497377512, -0.9140338740205599, 0.06534405306071288, 0.3554797167042256, 0.2878792482693082], [-0.0836119430858078, 0.01802956156196417, 0.31857433037024857, 1.0055781124062686, 0.24935198237194833, -0.21706610348273894, -0.4479290649261605, 1.0223403268798843, -0.5531745160532655, 0.6814029404752494, -0.6389970378079719, 2.449461159874568, 0.17953635844831145, 0.2990310125101662, -0.8885318835102423, 1.2662669704653728], [-0.4695785024081244, -0.39611750335962004, -0.11101565220910736, -0.1529458304938497, 0.5344439864569852, 0.621288378151936, 0.19788089737334827, -0.22670600612183042, -0.900966067462337, -0.9719433906743512, -0.8358558227581467, -0.6549362767432757, 1.0531047615990206, -0.2599869367188354, 0.15068366791703464, 0.04849720632450234], [-0.5499056596060884, -0.402949451514409, 0.4693844560913961, 0.014217321117850528, -0.6499621172479071, -0.14983419533201467, 0.5403839078520898, -0.592372554705566, 0.8390186571997416, -0.46262122782191445, 0.45211256943903344, -1.3090147984782865, 0.07841918667313899, 0.36360036595056094, 0.3219561424616918, 0.6002695747311881], [0.631414068786803, -0.9891157460579507, 0.11736991395105827, -0.900213591946557, 0.492539353144803, -1.0480183827134648, -0.7207050836899265, -1.0931131651673014, -0.5427374491769136, -0.1365907374850352, -0.6310066553368311, -0.3033391424641483, 0.04509594349187784, 0.09031147048576948, -0.12839600793302428, -0.18234596390521282], [0.1451421516480237, 1.4372314381085594, -0.8113889483656327, -1.0854942481465963, -0.632971388929271, -0.3382465182551895, 0.430029703036629, -0.8922226013791944, -0.41952552108677693, -0.3554579949243498, -0.9770575766442112, 1.1193902352164213, 0.19332289352189935, 0.4898346332270339, -1.3560163250974417, 0.22188972487950454], [0.3588026776322518, 0.38659747526323346, -1.833591805245647, 0.3361245064352193, -0.3983063521989527, -0.3749021859749493, -0.033126363352161514, -0.5584031199204127, 0.4077291863110849, -0.19148858339637342, 0.6782647523207033, -0.7098805014295001, 0.24047699132731265, 0.4440174478146902, 0.5773899589026242, 0.5457991323618279], [-1.1699536741016918, -0.5816677220393329, 0.4904277300118868, -1.1813845372633676, 0.17127472998016605, -0.4880217775696417, 0.4779221055133662, 0.16850923862032835, 0.42489411940687305, -0.4744584043250065, -0.18006411920878693, 0.7152420862233068, 0.42461251386033844, 0.1736917598837417, -0.02226228464469382, -0.3439369765954747]], "b2": [0.4033565080328742, 0.3830254376500799, -0.6705877254414543, -0.33424025063580987, -0.26060679391891284, -2.2427549682443075, 0.4209828099169061, -0.1768102701620916, 0.3037272742921776, -0.2915541144869206, 0.8457575414901081, -0.8706344057327595, 0.9988192039448361, -0.38448360526516584, 0.4269699180101839, 0.822386264012334], "fitness": 0.6061224489795919, "wins": 594, "games_played": 980}