{"network_id": 31, "w1": [[-0.48978969057972743, 0.7087435043274644, 1.0182594238597957, -0.028611755565282677, 0.09597053515775643, -0.04362793725212458, 0.001356053501082477, 0.7892324819936569, -0.12758213332738985, -1.0223158822038065, 0.0489010593846535, -0.31913807476655454, 0.3123576246848371, 1.034087144489339, 0.20219820071803504, 0.4554571288300212, 0.44769707376341106, -0.03564165866353872, 0.06967759828347402, 0.5919981596231773, 0.33838377555047305, -0.39127973708420816, 0.633374178838971, 0.2719105680042507, -0.2793316855327832, 0.5161574527435803, -0.5864965600808747, 0.1405250511692469, 0.13042531533855473, -0.12977352905052808, -0.8612879650157025, -0.4451966754816552, -0.01738754770524807, 0.3874310995069979, 0.5879884510597367, 0.3513305860852516, 0.8853319697938827, -0.19388502504553504, 0.08341937430803797, 0.10047915205708866, -0.394723640477704, 0.28738231638504325, -0.132720836395588, 0.10028387969711086, 0.1019049673390273, 0.4686183611391928, -0.5201636516168487, 0.20577114266335983, 0.06527675596018592, 0.4757321573604262, -0.7882718986500696, 0.6895450275593891, -0.7159753367085485, -0.5640380437194188, 0.29544069108839255, -0.18876823203504983, -0.12789221565980236, 0.14971106514076263, -0.5674572146823941, -0.6921269859854043, -0.5787244497265626, 0.13097125397348813, -0.3939364308738432, 0.41376776171198437], [-0.052728091562107005, 0.048294627490283654, 0.7261197067210888, 0.6794907472455582, 0.11294151205776042, 0.37019498333950557, -0.31566053248582093, 0.16406147347958605, -0.08823633164819866, -0.08422301220443126, -0.024859201394791808, -0.243378763488222, 0.019379455845482396, 0.13093685490299767, 0.22601992682587219, -0.39470421555115864, -0.6070810308965124, 0.013126153389187479, 0.03524572689340337, 0.6859645392222828, 0.6897074019832775, 0.07930621976349272, 0.13869728530851194, -1.0048456949854663, -0.6435262069825215, -0.0801221903965178, -0.46570634737500205, 0.10887030377083401, -0.46834257970244103, -0.08252940352541124, 0.32459261393326, 1.2943562006624176, 0.2753915656750785, 0.3754866621983606, -0.07484057232923336, 0.13508156472394964, -0.3107110823735871, 0.8309444576861091, -0.015490354838137415, 1.2459669457663722, -0.5993965284078113, -0.2838350669798474, -0.07221865989399621, -0.22632242116885865, 0.08181088608251089, 0.09361512589627309, 0.2280685158437764, 0.41297094194112, -0.3934110491581159, 0.16585180393628524, -0.19272377328298473, -0.06694587479338472, -0.1584334030975056, 0.12134656488461408, 0.11133877249978183, 0.5629590799932311, -1.0457812479704496, 0.1080933910495, 0.24603023203383856, -0.1353243825618813, 0.18010943640401503, -0.35971568568296264, -0.323004751747938, -0.27861344129875143], [0.03358600198893022, -1.5200945291032972, -0.10494268685429882, -0.21843037860020273, -0.8462858656416336, 0.6566149928338356, -0.2713807735656646, 0.6318531342702347, -0.21768797482767444, -0.08649565808780627, 0.07187359369252565, -1.0126623595967768, -0.7177796773484193, 1.0027500850763278, -0.0885998947400741, -0.10660053055742874, -0.640307481679047, 0.4081348846860454, -0.14311967151666463, 0.4775367348966545, -0.606825887273833, 0.485839214556981, -0.3692883762898981, 0.19331814453381374, -0.3379502692681138, -0.10408456789308138, 0.18618694922539988, -0.255520779843088, 0.31110192282623655, 0.6734248333926554, 0.08860162452333313, -0.3846331767716473, -1.0141950968003752, -0.500738960805359, 0.4196880662623042, -0.32797228672620876, -0.16938357916061847, 0.2911298885444956, 0.33030920207450165, -0.20830341776312314, 0.11893718163307997, 0.06690828729521331, 0.168434372441444, 1.0555294309065715, -0.26388511347189825, 0.9504920107585647, 0.4753124709671859, -0.056290543749618366, -0.1484782116961208, -0.47250009109202495, 0.029528280346934693, -0.029893215578961164, 0.46298801560119834, 0.8752557392597077, 0.38338725280591407, 0.5122141614215824, -0.30749641612012446, -0.04668477598044731, -0.14261209434773964, 0.5969283410255907, -0.3830101625295064, 0.086987328987263, 0.24804841975537611, -0.0674629566668217], [0.0037795620378633914, 0.12517029701384935, 0.5433139688018446, 0.20063817897722355, -0.19227725292672337, -1.0560269253019352, -1.421687779997638, -0.17471630653051765, -0.3944761737531088, -0.6887988286490849, 0.22466545975207086, -0.5025706067285147, 0.20635288667511206, 0.37762081885079213, 0.05699267951858633, -1.4828146755708813, 0.5412457822364094, -0.22874108917396158, 0.06620288928462112, 0.7457105144580609, -0.29220415431575975, 0.07757266489478365, -0.752821875132751, 0.9752929143073817, -0.10650218907661184, 0.16123055539014375, 0.2840015072252378, 0.13437995279015758, 0.6686072253861001, 0.15689614822541761, 0.4516020488620921, 0.46425688707978235, -0.5119425307186999, 0.17479196402014288, -0.47974745875555286, 0.20190602797591303, 0.6917677402843502, -0.04980006128230072, -0.6053976274565913, 0.41687027665355664, 0.22750909150207074, -0.41360502542890665, -0.04621336814052021, 0.3087192486251862, -0.5156758494017958, -0.552856051129242, 0.22671114955925326, -0.09458496072746332, -0.5211317439901606, -0.19850297958571625, -0.010928515345989959, -0.11401605415438927, 0.8041395669813157, -0.8091354109985988, 0.13375739175494827, 0.20639087113890267, -0.4999135069549673, 0.014698446043753595, -0.06516956360008981, 0.1053588595754516, 0.28920802543856244, -0.3900743205828717, -0.10301627168232914, -0.5150355040025903], [0.27244300247621267, -0.05295689404456175, -0.2084958453983945, 0.27938783006337675, -0.13407676829420068, 1.1312180911544445, 0.5548716484860501, 0.19065657444441983, -0.6709044492586731, -0.984316447319418, 0.33045102179823077, -0.6389863724451983, -0.1435324690587857, 0.23474603503949612, 0.13353892085166655, 0.2963575561897658, -0.1499924087807716, 0.8213169168897285, -0.6688965517941352, -0.2567533027320156, 0.1623412554486221, -0.2391014086124582, 0.24204612767098077, 0.010476559392050937, -0.030131079392100434, 0.14364233077541322, 0.18690358810789762, 0.3679216168597335, 0.4487926749695333, -0.14503603295403644, -0.19469397236615937, -0.5472352109955003, -0.5534238989736668, -0.31360568386539517, -0.28015626096220936, -0.1206093440327357, 0.5921247160968727, 0.059858066669949736, 0.5679446315184442, -0.11766217359078168, 0.03192180377278148, 0.8959944371385973, 0.18447176187974015, -0.4259369845560808, 0.626362303797531, 0.14882708040472925, -0.41372145333765986, -0.29999283069456456, 1.055675082809752, 0.5856207960336848, 0.13216907002686157, 0.7758905413051765, -0.12565274619508335, 0.5223701688774154, -0.00739215554182715, -0.5348495618618491, 0.712935856971225, 0.063722114906129, 0.06721704402894726, -0.3596677400927032, 0.6112504919702695, 0.23435053121480662, 0.32883085966635206, -0.037798488792907176], [0.08855677550451918, 0.3158601633553141, 0.056547733984392425, -0.36941679971724567, 0.09526344932667291, -1.0822122375745085, -0.024009982495075133, -0.22578434817193552, -0.8325829019970841, 0.12526533602379314, -0.3479280717601784, -0.3656550672361915, 0.25714766314504434, 0.23257766221345555, 0.11408587283284269, -0.8670343605356021, -0.14816521123232432, 0.16499539303159078, -1.3276045578368492, -0.010957394036088502, -0.31477925941955154, 0.5910684717920669, 0.855604938612866, -0.41250655061596253, -0.16130220950037746, 0.39086381482008714, -0.5815924979548153, 0.046858938854136195, -0.22289334082030438, -0.16740086465371515, 0.250449616190352, 0.3493418144153787, -0.8313928268214031, -0.3285284153183139, -0.12497627939874131, -0.07847028533345225, 0.08467648578894414, -0.12052870635247888, -0.013033789363041837, -0.44649498230146956, 0.0022879804697999995, 0.12741852878080584, -0.3313924523365267, 0.47366184390397864, -0.08968076983643182, 0.5051216236735636, 0.22592781718836555, -0.04364452602110458, 0.7907923178308225, 0.13649011974508768, 0.07003761458863657, -0.4398343921854504, 0.314471158304217, 0.4199883780502587, 1.3073987026866403, -0.3697992813656725, 0.47796427114856477, -0.08854264390282686, -0.24228780817549558, 0.28729253064848437, -0.08522925776046, 0.6365611599911515, -0.06860036413964653, 0.10657202331868086], [-0.6372322189720685, -0.003987789022449215, 0.4173260576098545, -0.20891375941128779, -0.8563499594895748, -0.48363469638042195, 0.19610020014856083, 0.5966318084406097, -0.15393472642408193, -0.03487971631553993, -0.08230298974841788, -0.6599897865492034, 0.5258263815761498, -1.1583205694024077, -0.19968652687376212, -0.37159094260144343, 0.8210543263164006, -0.30591066013703866, -0.536606242818481, -0.05637568521909966, 0.30109447777141063, 0.2880188823415955, -0.2611785308947344, -0.5591897242851165, 0.291400385907296, -0.37628497520622306, -0.1500421139153868, 0.21826441529048052, 0.287218705750647, 0.20448454460288334, -0.36648289059805295, 0.37560418789544553, 1.0983812118283682, -0.00833337990224588, -0.6351679475947283, 0.4102999445305818, 0.0022792029112961715, 0.25394625039283664, 0.08664912954741853, -0.5559110563929454, -0.010995948984517806, -0.242086311494094, -0.22839317683956628, 0.25596470469390553, 0.09117387708332607, -0.47308189258890615, -0.5719588524344528, 0.6996420628440061, 0.1258057160425223, -0.37739089152772837, -0.5721261898206558, -0.03672950530235375, 0.5079935276945412, 0.1106903388347591, -0.5558693811906349, 0.5957891968586042, -0.20227561943049877, -0.3132889630992082, -0.03755974324745459, -0.5970259401936163, -0.713570243398536, 0.05793748196255038, -0.27194318454413163, 0.013653051514597343], [-0.35973865943406147, 0.5990758160501694, 0.038682867920596525, -0.4160129013137409, 1.1018075215366565, 0.6015904257359513, 0.1346446023428572, -0.14001596429765953, 0.13016293367036127, -0.4361186999161394, -0.26837959598925365, 0.4943208459318, 0.7362678163442191, -0.35453585771978835, -0.5067692523691717, -0.11684107519347849, -0.6390745349362031, -0.0719621371320442, 0.250758836087348, 0.12457399912976388, 0.16394549413942505, 0.17213296135920644, -0.9420206290132596, 0.15033394787339588, 0.33534229217471156, 0.19422010161203784, -0.09683849848939784, -0.6883941942652192, 0.3381889255559102, 0.42454742121681976, 0.5901655610415443, -0.2943853294150908, 0.3569946445361238, 0.600511644918698, 0.4566889692258464, 0.47938693375914454, -1.0066496850688587, -0.3246614045753979, 0.4451375171740443, 0.6975279637233132, 0.43146062057531365, -0.5052470139075675, 0.4193783286595975, 0.09332475176096833, 0.48218947401293566, 0.30400230962943164, -0.07698836490484362, -0.4360611534834085, 0.4761383841716138, -1.3331758314296698, 0.5665269903856016, 0.14187209727746783, 0.9324816259677449, 0.09075666847202471, -0.7668874084811321, -0.010474016728514883, -0.41437077795226646, -0.7837642013926382, -0.019446759853873584, 0.8340448722407993, -0.12241715273704425, 0.13771702574146644, -0.17912909147299236, 1.2630728721069122], [-0.4049538339492944, 0.4515159725898517, -0.18918544967529538, 0.41663179028843067, 0.314523231823349, -1.0892047209350502, 0.11376753326258099, -0.0801909402804149, 0.13529513516983682, -1.3960589858529697, 0.13419967614296957, -0.06524891243837798, 0.05688255067465203, -1.1151218722772773, 0.6777963436023917, -0.22794439931656627, 0.5223988429205937, -0.21575961818426717, -0.08927332027062411, 0.7142326321883463, 0.30522432331465815, 0.08184605211247792, -0.3231714927229671, 0.1375174734169619, -0.16412093124151483, -0.07936572392158317, 0.3934894009173079, 0.698650805016744, 0.4174383522178647, 0.04270643423711891, -0.4835129539712517, 0.3849056407608428, -0.0589254147211042, 0.26892311617167325, 0.7130626635388131, 0.6351108413934571, 0.15947177808888421, -0.5378127427179924, -0.4850403601492528, 0.3846362772868636, -0.019104527007270333, -0.011777083972218938, 0.6425833316648901, 0.2605185298487429, 0.21894143662057297, 0.3648959742155635, -0.6590576428199155, 0.5257084385329329, -0.6121902249750175, 0.12226237321513633, 0.009590852973002679, 0.7955811817712494, 0.17884200667346836, 0.10428312946617636, 0.6609518007584299, 0.446246351391236, -0.590328983145199, 0.7092702616646198, -0.5262995772093504, 0.7106745324801416, -0.11898714493515421, 0.18263364064562354, 0.9847771714802698, 0.03916944578219483], [-0.8762326339243907, -0.22230200133225406, 0.4508682898101004, -0.39448946624282, 0.06909780723392699, 0.24266461611259293, 0.2394903891253378, 0.47859463893175885, -0.11640583366947219, -1.0131535815891215, -0.4491880708769945, 0.0289641976465102, 0.1365856806839198, 0.20036952562283974, 0.19214724475921804, -0.4555782768460645, 1.167650789806781, 0.18510951432036524, -0.3946772758851501, 0.15001874857037137, 0.20178490552678843, -0.11643374602136712, -0.5148242564889977, 0.16301975989570267, 0.21959331814414998, -0.10389041221885477, 0.06733145589660997, 0.07096088035457945, -0.16804379890151472, 0.2661204276298139, -1.2169062676857347, 0.09961928105121362, 0.30153301573459684, 0.32342678695598714, -0.018160736362266332, -0.19062171904036773, -0.7332051573451313, 0.03652072169165496, -0.04024380251881449, 0.6523490894197947, -0.13962794782757199, 0.2662593145394056, 0.1636604296074517, 0.22578839444813023, 0.4194307666737577, -0.14398964087920696, -0.1320231475679735, -0.2581530055501181, -0.015379860347335197, -0.407113366877601, 0.18440828253593786, -0.30631729871403474, -0.044512352162439844, 0.5033034479871649, 0.42712043945905376, -0.5392207907650362, -0.5411180456788267, 0.09622507699100663, 0.22135054648884744, -0.28875463043692806, 0.6356733240248413, 0.9837739238021854, -0.5204897927096925, 0.16991792732144362], [-0.22959204811606435, -0.0185131467876453, -0.5402740161091344, 0.11815154934220475, -0.27450534802658605, 0.03147997213371713, -0.3524903937538062, 1.1670591963074959, 0.2298636052177595, 0.5140306972453627, -0.0755859315545868, 0.48680029234306826, -0.4165723434154396, -0.5069241943074039, -0.6039224089870602, -0.09907528748985624, 0.7879303340383383, 0.4241195200337985, 0.8074131164790976, 0.23662327560917953, -0.23612193771016823, 0.22288215154890112, 0.031696086744213814, -0.4127896900973093, 0.20488899928636936, 0.3058161875566724, 0.04086530933031683, 0.16836878682604203, 0.3757340143001669, -0.6365807672795533, 0.4505281775235168, 0.35351406603137175, -0.5515490099098247, -0.5904523069081166, -0.6057776799154793, -0.3954105464258863, 0.6458413151272131, 0.3577930300404141, 0.1452335100093224, -0.139471978360198, 0.7059921595607057, -0.36381907099272526, 0.8864835016466666, 0.1354469000548661, 0.08219391666209985, 0.13429418959351266, 0.15952079637680344, 0.5921344507093425, 0.0706120380695048, 0.6494766728246224, -1.1436700068742232, 0.053659146215857705, 0.2565760816365025, -0.030962471625449267, 0.4647423788206145, -0.6012912251749752, 0.17458310096454194, 0.29270645404748963, -0.619158964904777, -0.06859907758319436, -0.09745948123368439, 1.262281063813561, -0.7422779470585453, 0.15331076415654285]], "b1": [0.0, -0.118350294391566, -0.043498655279593096, 0.0, 0.2633650316289753, 0.0, 0.0, -0.021260772671362293, 0.06915914979814815, 0.09289333468206482, 0.0, 0.1437406583157515, 0.060240548105537146, 0.19452567312904442, 0.0, -0.0916767269428474, 0.27273775720131865, -0.09080447578995247, 0.0, -0.10314240412603706, 0.2567710819317352, -0.24738122615177427, 0.0, 0.2526485423479821, 0.1758947709343085, 0.14269733825571235, -0.02699663602525336, 0.0, -0.1680784251308955, -0.17194451426828072, 0.15009609615029507, -0.1633511840711236, -0.17501778074089633, -0.04032621444644267, 0.0, 0.20754537017604213, 0.08283134558576394, -0.23868847020866285, -0.045525839381136246, -0.20627770955033398, 0.0, -0.09063601617474591, 0.0, -0.009811493010976743, 0.0, 0.16116414673138618, 0.36275570856625083, 0.04007485610559035, -0.2818607378023906, -0.08526734049914114, 0.0, 0.0, 0.1675914507252808, -0.1987380083069897, 0.03738691094479438, 0.0, 0.06154132184299226, 0.3848063735898002, -0.16923282652347965, -0.13802242441127488, 0.19255130775850596, -0.07614182301173189, 0.0, 0.023988569573918567], "w2": [[0.2658839545174202, -0.09091637482183304, 0.201652118683713, 0.22285400260009153, -0.01683263235815372, -0.15148580404279072, -0.0451497668033012, 0.636172601032315, 0.48735726147876735, -0.13742418011534202, 0.3081533322421934, 0.049577777622032373, -0.2092161263000521, 0.04385946176263042, 0.002076343180357404, -0.2806255330267286], [0.04049226328980356, -0.045498139155891834, 0.10276918249965047, 0.15371838222352804, -0.21326342727269432, -0.09373252241955689, 0.08900621256088938, 0.25458958634936535, -0.2994053265228666, 0.08057955723745304, 0.023251217915917388, -0.08117996629313062, 0.039634692830848806, -0.16265679452786216, -0.15730857958043432, -0.12339621434712164], [-0.08251975834385343, -0.09700658692426066, 0.3256147562783268, 0.22968179205201392, -0.2513628862167646, 0.11349915480103659, -0.1012392266980758, -0.07742034003226336, -0.13402334413247274, 0.11651672832442926, 0.14139048610562782, 0.11836040107790693, 0.17152086341705838, 0.0003948794838139122, -0.06523661941609249, -0.35698733436144003], [0.039965454414117085, 0.2896466288341186, 0.15513290603609495, 0.10799576446244166, -0.4095694618392502, -0.0558210389981643, 0.035848187334873605, 0.15700703702242352, 0.4233169051673377, 0.17378888165673073, -0.20303663563401075, 0.18575405184748017, -0.23372107600709036, -0.41753375530831055, -0.08080821283599077, 0.3238796095640377], [-0.5268244374762363, 0.04630038616117496, -0.12792224572428973, -0.11027700720323294, -0.3210983694606983, 0.09153340256224773, -0.19947709380051357, 0.023076989480397256, 0.11708663604904614, 0.23748881819284817, -0.003075966859996106, -0.22702238688209894, -0.2714502561621598, -0.4126024099974773, -0.19316371821917666, 0.20130010864361805], [-0.12866554384083026, -0.20488916980171784, -0.2537161418587646, -0.07499923352299245, -0.1102197736734463, 0.2078444028169402, -0.23215662134170542, 0.041126300246030076, 0.1686000025941778, -0.14898145452288547, 0.2339046688037738, 0.04733142098725225, 0.1958782805674532, -0.17155570239106271, -0.03488799114727703, 0.1509622895823199], [0.018557193125047732, -0.12445469352361133, -0.07506853066371795, 0.2983304512838597, 0.1364834926952237, -0.053080912180291734, -0.048737481571738066, -0.016170841114064666, 0.19845238462085302, 0.06051486983232196, -0.2957841675145834, 0.010201930698495676, -0.3507726230644844, -0.16120159645844095, -0.27222318319152705, 0.31575392816576386], [0.24837490806143347, -0.4449052445245533, -0.08993798837240391, -0.04506528235645533, 0.0505681012852007, 0.016445936952621948, 0.13833499481193634, -0.2612592124895238, 0.1712705290581498, 0.14176286918590536, -0.12207498272600943, -0.10498986572123867, -0.011519661650971656, 0.0946243998724449, 0.4202413536451601, -0.5945136393187338], [0.19340237045134845, 0.2635466422630242, -0.08991046886043053, 0.37540794477596706, 0.4952137581162608, 0.05708829582478539, -0.46829946238422304, -0.19958079856380265, -0.2082645847120187, -0.1467520819997962, -0.17750793327419678, -0.10252899166897511, 0.08104748913233585, -0.3648674851725909, -0.027414784260411218, -0.13600011704564643], [0.05059712948442324, 0.26975364127394147, 0.4814272608250332, 0.22518512354632128, -0.176876899524616, 0.12585069843013372, 0.5465576260644478, 0.41446668799321723, 0.05777053506456007, -0.14565044286991385, -0.07030254038993132, 0.18844169287373513, -0.16561828318918637, -0.15303615064646764, -0.07942717818432506, 0.13300902942200565], [0.15699467015443405, 0.4443092678218632, -0.009537793200216638, -0.12216338689370541, -0.12280977196545648, -0.00042659204179878893, -0.027100483094534215, 0.09984541694009999, -0.44183711635007394, -0.28860469243204145, -0.022213033550646355, 0.4422312859668521, 0.13294504761306375, 0.3446755294616659, 0.136808146626477, -0.11737717324037833], [0.1942654780319798, -0.07711506541599294, 0.2293128191299814, -0.052227001274817914, -0.2684534254549926, 0.020931754215599452, 0.4611914798114731, -0.09020277158408799, -0.42167088627256016, -0.09658854950505116, -0.24029449963392494, 0.2768639599254891, 0.11977001461485584, -0.19210878522745647, -0.23528858500624678, 0.37789254830142], [-0.27026395775198053, -0.0765492811233772, -0.046241559279573005, 0.12958112201978278, -0.055518837696773196, -0.36131844740488706, -0.03679156949031323, -0.26458332506685683, 0.014855654132687565, 0.1763349976762298, -0.14916992311569985, 0.07771528346179, -0.5361780584678351, 0.08977372882892212, 0.40329567814722284, -0.05085290902382973], [0.10249274136271902, -0.1544277201279577, -0.05008928930651313, 0.541743045947346, 0.3583187429474318, -0.17669977774329113, 0.4738008771143344, 0.0004272482401413963, -0.0016322593434877977, 0.14476768363243442, -0.28324797674789165, 0.2864413065710936, 0.31103981557668736, 0.16482664899305166, -6.43356611971374e-05, 0.17680588241295273], [0.08309452482447212, -0.041893142855771476, -0.22894039907560335, 0.2333040308022011, -0.13385849578906633, -0.2421864592727857, 0.15461274078777365, -0.09234254906819182, -0.013781022620611287, -0.2425365834071357, -0.08319973852631829, 0.30134160041614855, 0.34728118563901256, 0.19099557759689167, 3.819892612519013e-06, -0.05055990913684902], [0.027015159054337698, 0.00458213737880922, -0.18500138892986095, -0.11227849949619255, -0.17888090178959176, -0.3201102177611025, -0.12207512359590589, -0.06928497235202441, -0.09549066496113509, -0.2209824133587762, -0.038893953604006534, 0.20509126519671628, 0.012878789040596167, 0.048611153735875004, 0.155358491373902, -0.2956259840287566], [0.19425072986104486, -0.11184526188525605, -0.414218208111956, -0.43793573538253, 0.12090055895844269, -0.35742191853228517, 0.3501049537602073, -0.06773352361129821, -0.2786360060562229, 0.01996298148962383, 0.34214932359907657, 0.12303037179147697, -0.02228863905910807, -0.4205533069514059, 0.10417376275267792, -0.5001164654957749], [0.036505997453857, 0.14773912123491081, 0.3705603466642696, -0.24210622764695539, 0.10132621845319181, 0.06332716878719025, -0.02977923663535526, -0.14438748897762965, -0.14818362073155858, 0.14415066173213353, -0.03182844786357137, -0.18119642202981828, 0.293022547766986, 0.1380963686937061, -0.03334225879198652, -0.2689708562453653], [0.3336839619407578, 0.08554101453783731, 0.09371389462079216, 0.08623400490368396, -0.009847577048216115, -0.2329364938961377, 0.10924999736419376, -0.10355632588074025, 0.10030287135190812, -0.03880165427145638, -0.022976956435754686, 0.020558062373216078, 0.6069551305556466, 0.15312455584438087, 0.08720984317416655, 0.18499930179788496], [0.10548069015588354, -0.1863466836065151, 0.11793270332926804, -0.08722042853421347, -0.05600638113423528, 0.18144354736651913, 0.08662935142736633, -0.1493528908065045, 0.48543449206930056, 0.14049049873419928, 0.2773170206447783, 0.23161041750882638, 0.07351339021995407, -0.08716340600739418, 0.1250888131269163, 0.10715994911230375], [-0.028714113646889226, 0.25359182728371554, -0.6854213567528841, 0.08036226586268419, 0.2973219452287403, -0.011379366668165124, -0.3858431049754195, 0.17753496855205197, -0.08130320312466778, 0.6402178538315411, -0.007672108858414892, 0.19703227625892278, 0.24130697977640164, -0.09902230761081725, 0.004721532541949125, -0.15623550852444612], [0.04583012784844069, 0.4170323740608187, 0.0064860658490334955, -0.2128725934788769, 0.02494573573861654, 0.07852241458208899, -0.09712156556796364, -0.5655491830796786, -0.03643954833005885, -0.07330971625974174, -0.294568356603063, 0.31580153026073665, -0.12150131753785132, -0.02896482162070617, 0.21439079365699584, 0.11717891549348333], [-0.11056997344041494, 0.020187056651001456, -0.047780038087048254, -0.09235814957005892, -0.21698375891439917, 0.20339329212681528, -0.28968283085574664, -0.2322129427680062, 0.004297393441201144, -0.26236769343361743, 0.015008695779403808, 0.35546986362260413, 0.23980940802212347, 0.13085862313925686, 0.05186549219788335, 0.2549145080455256], [0.09590670933955796, 0.05896487560678668, 0.39745126011892634, 0.1857376488386555, -0.1839289527433361, 0.023663585752730837, 0.11512845282044312, -0.1741959335941753, -0.0016778037334565475, 0.15166586742580435, 0.1521698376659134, 0.15041763002920097, -0.07813531074177019, 0.12233992066677712, 0.039362831046681625, 0.13933662920885723], [-0.02729516569168025, 0.10823407658907376, -0.051515567847347385, 0.2860283720804446, 0.19781398315856014, -0.038842383708124206, -0.3747050036052631, -0.08519928695533735, -0.16674146319851646, 0.0596075348130701, 0.10578834944609414, 0.06394212489857402, -0.10375339969994507, -0.11035425052638788, -0.36444689092855287, 0.5286710473458667], [0.16606830512143203, 0.020817726317204854, 0.16519538434539538, 0.0102847298664289, 0.507783027491751, 0.09065481919250676, -0.10160151103500237, 0.0101018117638344, -0.0671994558054817, 0.022023926893218113, -0.008458553481251074, -0.233848490018324, 0.057717632830311255, -0.263890382673065, -0.1632645609960966, -0.058588155541171014], [-0.001986960151019698, -0.317854319869431, -0.24538868097835545, 0.44945780052789036, -0.021608363512882565, -0.4032643014443157, -0.005796994780418285, -0.3258703465244809, 0.2125919326516545, 0.11686118248673824, -0.2737621616540624, 0.23790433167838032, -0.09326602047991346, -0.43095720089573425, 0.17642211766755278, -0.1463903127084501], [0.3173612105746284, 0.18575774327808853, 0.028512807028877166, -0.2554849239377915, 0.10899842407423091, 0.22793086563727927, -0.14248841499930462, -0.46450533084730894, 0.059484171800196745, 0.04820639488775566, 0.07842350989734365, 0.016885033650168954, 0.09312235542988348, -0.1470909313349968, 0.08054994511909794, 0.07178582345394224], [0.035968154848059514, 0.13388899342486424, 0.07373229622225361, 0.08466451643969305, -0.1646695109454651, -0.24744012564423085, -0.07833182490123769, 0.4871294732067306, 0.12203879072546157, -0.18633170307491959, 0.15395604204393978, 0.07386862808025493, 0.44308272103859636, -0.24830243016583642, -0.15205944593928997, 0.06630146687576417], [-0.4286096260187573, 0.02687894941263162, -0.08378940356943655, 0.1911670785912907, -0.1709092451102544, -0.14100495780271902, -0.11480601737996154, 0.1664348569995266, -0.17593900530340104, 0.010355879470119634, -0.3786448640475063, -0.21185842923177822, 0.3940317186394704, 0.053942546714787376, 0.37465848087215337, -0.3278553426217152], [-0.16232847928327535, 0.08853110224491247, -0.27771349576181714, 0.31475087615023334, 0.08320850577150429, -0.005378272987002711, 0.40491577544259216, -0.317465192039492, -0.15176757600445995, 0.10173599848029417, 0.12359333509296178, 0.2229360614917844, 0.020387454740186495, -0.28133121907041203, 0.31000698673017224, -0.19168306783323233], [0.2065789981055263, 0.13694671157316335, 0.035124358071527285, 0.006914350547705715, 0.32964079683351405, -0.18122676890794634, -0.1426447712354403, 0.07925685629995771, 0.02731520808135833, 0.3411404571486103, 0.21034810266043047, -0.23523322872234337, -0.6541861166432934, 0.12115592632709855, 0.32762279733271504, -0.07539626970810359], [-0.463043501862572, -0.01606301308611525, 0.010745420403902715, -0.559876240166735, 0.02946569586217347, 0.0003149507602740881, -0.12524636209707798, 0.05406804313444957, 0.02331570010250278, 0.25770348039945234, 0.07001586234907795, 0.12891944467766195, -0.2328180754535215, -0.04009355369703088, -0.1101787502988042, 0.1876649306757897], [-0.25552077256342365, 0.19359204763047883, -0.12221468936730538, 0.017825714813855687, 0.07441273034926275, -0.13795033917043698, -0.341857514481837, 0.3997897560127004, -0.4026564063620506, -0.4845557402412839, -0.1947622132796658, -0.05398963013678161, -0.11361610299371946, -0.200422298841763, -0.06830410933284588, 0.3439624569672327], [0.2617847817937771, 0.09239591257328456, 0.24977035464728112, 0.37254230705585356, -0.19423872393203126, 0.19538143936314425, 0.13347127485756152, 0.20086334257620828, -0.15086926622099783, -0.026451660743324168, -0.2847765396052615, 0.06922861252505733, -0.21753422337096343, 0.14503907322366563, -0.027990588805380575, -0.05808979739851787], [-0.1457732142647123, -0.13184743317116918, -0.3143405455177083, -0.047795791025371515, 0.5863034925824449, -0.3987202713456234, 0.09072810639544558, -0.3247302180579734, 0.09997560631967012, 0.11438676673658965, 0.25155019057031525, -0.0791977591065896, -0.005214192701793241, -0.35587007072297305, -0.22618996719347578, -0.29543214172524], [0.09403768065345504, 0.260470892481747, 0.1805802293216966, 0.09849744650688197, 0.29883299989572554, 0.0050021457706610015, -0.2766627844119486, 0.052968060059991856, 0.2158730178339026, -0.24598923754507668, 0.5102464265323009, -0.03334364761357477, -0.10176481214704092, 0.024243286083776447, 0.1032156448640216, -0.03624037040113407], [-0.311492280640525, 0.04423492944337451, 0.22723992378653485, 0.1182160441192991, -0.06948743402096079, -0.49377640294706704, 0.4324347702853178, 0.3840368596346166, -0.038689216826863417, -0.13054806834253746, -0.1613944029062344, 0.06354550181199854, 0.20733971487365527, -0.34000638323836263, -0.12322441832526275, -0.028207264960291356], [-0.4334678092259079, 0.24446845061564976, -0.015724800123654913, -0.18257574033268198, -0.16714254826907352, -0.1811645641522484, 0.07741993675257831, 0.12857204917110834, -0.29534921929030533, 0.03704767047795197, -0.18072770947985145, 0.20040947517408242, -0.3113184902444773, 0.4345445265112369, -0.19718267738166273, -0.18672590584309828], [-0.20377864457777883, 0.10755248866268588, 0.3995704490753637, 0.002113197099163383, -0.19227659292251117, -0.2819083248202705, 0.43288977505739124, 0.28130355574390903, -0.21215090841679418, 0.3638206432090435, -0.20263792231623712, -0.08714100789814143, -0.28855828323136923, -0.018531018601864593, -0.13285712883981934, 0.2712076091050324], [0.37772014918195085, -0.04692936271602337, -0.060070049170898365, 0.17864772007505783, 0.16315409097074823, 0.025154475506551335, 0.168277973952971, 0.01858942970062641, -0.11373344353010124, 0.045107322528797955, -0.38621180079267436, -0.0377911501705666, -0.33116443031200643, -0.6900077368869639, -0.26987009860814287, -0.25328029248851336], [0.26342483738248024, 0.14486733284883202, 0.16765816643025547, -0.09819371791887221, -0.32382034845699614, -0.3760323232892343, -0.213655273213672, -0.005933675220492839, -0.07521895914551659, -0.07436615035766109, 0.04010635284201103, 0.04547832557602516, 0.04329127265827541, -0.10558273606392315, -0.2075749268299948, 0.0932742554330577], [-0.08237227171998875, -0.12493501758192588, 0.1826947205286506, 0.16460814545220803, -0.10773969752155432, -0.8880536829330541, 0.2928144716273449, -0.012081631306538262, 0.11529078009090492, -0.08487448927518351, -0.20357596266074585, 0.3400508293623434, 0.07263945982658165, -0.03792000038016082, -0.020402802993562577, -0.020873886555188726], [-0.06376672707129208, -0.018797740873721727, 0.19684433079502914, -0.2118551840253415, -0.04736520307487318, -0.08078776592251488, 0.09080730656674643, -0.023420689538878853, -0.011801648721605919, -0.1102882636119205, -0.06337118724606121, -0.1186120155348189, -0.032464366689023375, -0.12684874090678352, 0.2046416236767653, 0.014044503877906761], [-0.07203318340919052, -0.02260425923316732, 0.03233012986959817, -0.10740135278475035, 0.12123840043220738, -0.4697348177329823, -0.10358440763427698, 0.03844827397489179, 0.07066323525906952, -0.008663890333221718, -0.3696364596395857, -0.06584033038163555, 0.026602339361172317, 0.08137734315649599, -0.22798740007778784, 0.26841335169718883], [-0.35675057921540587, -0.003191093684005079, -0.6375445652251432, -0.3241459906974545, 0.11850692323530343, -0.3459698918959352, -0.1964247189757678, 0.04652432289664278, 0.14875523836654492, 0.18576860958502028, 0.14553726489476088, 0.21817919183922932, -0.052738769452984446, 0.032136368439893995, 0.06252126847635439, 0.24504017160585334], [-0.018636429086300366, -0.02104148143085474, 0.34298213051072807, -0.1305078615919871, -0.35904160974277466, -0.3217257841309119, -0.21547037876587938, 0.09591903906483853, -0.1542836227630469, -0.09168899667517721, -0.2120907959807345, 0.06000441512518799, -0.015674783329854582, 0.0020091043873288403, -0.12740695867223661, 0.2933191518806401], [-0.6259832732808552, 0.02572754829881499, -0.19933433088604843, -0.5557992400352929, -0.23090005525234192, -0.31238483811668577, -0.16717555391515568, -0.10202755310539859, 0.14564613630635234, 0.06331215233390422, 0.04990117880197597, -0.27886966557940873, 0.07761554549142224, 0.0650023551817036, 0.22480803952240308, -0.2586439941092664], [0.004518731944777411, 0.025830052632773173, -0.1856807227448069, 0.27359385283580717, 0.3610497387061844, 0.0033883305546594383, 0.04230391934420787, -0.15789333319052853, -0.01270058485852174, 0.11256878753635312, 0.023303526103674532, 0.368887759095212, -0.058983338122597706, 0.01087242349521556, 0.10513927295371849, 0.23291927126519119], [-0.15817658121948594, -0.5255921876166226, 0.05536072032853961, -0.33258662267142297, -0.025206640404392463, -0.20715517451132953, 0.025393223895832553, 0.14183726491294577, 0.13336247345161076, -0.0709917527714122, 0.17766090820187772, 0.12662072270045013, 0.0509179076495962, -0.08034475929749951, -0.10076045394335006, -0.07182023897322089], [-0.31622434758285156, -0.2740837122303758, -0.19940496299109237, 0.42795250523688094, -0.20743352058509282, -0.5643541678588238, -0.28479470763588244, 0.0320617330753805, 0.03851107167572432, -0.3797492972106849, 0.42489648304260663, -0.14951331248958652, 0.1781843640146924, -0.009333217123452975, -0.09244717641411992, -0.05900307764186481], [-0.22360317578137218, 0.041718515424949164, 0.09556252106131465, 0.49821783789904006, -0.09644316247046927, 0.3281143165857695, -0.1704403186304331, 0.14649266028831093, 0.45502877766809974, -0.0035768809084357617, -0.44435905962369543, 0.02286096549736064, -0.021752866948658633, 0.16213231499822434, 0.3611687920030584, -0.6690612777573436], [-0.060029859502034835, 0.04587579001306048, -0.25557584882071793, 0.10703807302177534, -0.09083896218399212, 0.19732532687223872, 0.0880397032670612, 0.3327913304572091, 0.434791338405359, 0.06624196017832179, -0.3023800632277404, 0.6077881540692138, -0.25490379598155116, -0.04806361992123416, -0.5084290259986283, -0.10398758843046363], [0.01550650199620661, -0.1327308246672525, 0.21186984447830298, -0.11890201341846952, 0.26045716221343956, 0.27548097456943027, -0.12338919652730976, -0.03204630478921883, -0.06040232243784818, -0.10016580666973385, 0.01258721111289094, 0.1684495901384363, -0.33731065699906493, 0.3079567870667096, -0.10998398642289389, 0.19332105170739966], [0.3533720419624524, -0.40032687980736104, -0.27935681253269823, -0.02745648227886454, 0.09257617700297285, -0.061989648354515745, 0.2676226363894433, -0.21096851162835087, 0.5063280030362463, -0.044759401873644106, -0.12931597454834765, 0.13520586353799244, 0.4903670924953128, -0.13632062426500563, -0.06899485154196533, -0.3518628617424136], [0.06662967977821517, 0.1422447722656797, -0.26405273815719027, -0.23556239874105595, -0.161309300982283, -0.22756891267558213, 0.09248594542257708, -0.029314947708153224, -0.35442910688671747, 0.1773188428797719, -0.18909445013298193, 0.5503944519619903, -0.22218311635219548, -0.282679535654017, -0.01396988806948418, 0.12699500404808345], [-0.006246837205572534, -0.2987775895305683, -0.18041657045737908, 0.5274228036490407, 0.012319480375144944, -0.0025432694119090025, -0.0887840591756067, -0.012230610565127503, 0.08688972435805081, -0.3153054096261214, 0.15151638934799694, 0.18678836730761453, 0.029212777280327323, -0.042265504771761116, 0.17002293585073133, 0.18687890607445184], [0.13987985970445743, 0.04504723594995255, 0.05955413909165089, -0.1326657813307899, -0.02666571177597076, -0.11543720449167127, 0.030875684562494496, -0.08581422897056817, 0.047942433819851596, 0.10473064236009531, -0.019256765687123503, 0.11546767361446522, 0.08206163548971926, -0.2681234569500391, 0.21920267074455826, 0.09369273477476778], [0.01772258529641538, -0.37898611906198754, 0.3808076197283021, -0.039255784756861124, 0.3804876265971485, 0.06542644672445244, -0.34528226746434065, -0.4674003128146097, -0.0002384157846765239, 0.13603558223139084, -0.2968568668759955, -0.2599272436724027, 0.07912572455212699, 0.2645527827834172, -0.10113816199223631, 0.11492731061631009], [-0.2041447108355373, -0.9999031554255642, -0.09613733185770656, -0.17122106823363792, -0.17271264211194823, 0.012565544333377726, -0.49171993624375754, -0.1505147552654769, -0.21108079039370323, -0.06671677734238386, 0.20224631324717324, -0.18384639130827712, 0.34560072308671896, 0.45823608200291543, 0.008481250638379068, 0.395224092419674], [0.03142949124730568, 0.25359396847989213, -0.10352266102899937, -0.13812704262631867, -0.2685137226040282, 0.41524359109792325, 0.2042720480745568, 0.08507783780775204, -0.21677099355854013, 0.005218309066101934, 0.2981555980331758, -0.24166486021438455, 0.3205970703139083, 0.12376649504524156, -0.1300807802002798, -0.10768908595973609], [0.3474529213173363, -0.23804384143315457, -0.10268794154201773, -0.6404818526857733, -0.008976549009070217, -0.01726866303511776, -0.011686343521063966, -0.142316954901379, 0.368384419747896, -0.34334733544612606, 0.017630729136105475, 0.24928297065934146, -0.08657284104270817, 0.23054663126817113, -0.16269927797759434, 0.3085461121768554], [0.10260567583853923, -0.14775121970731211, -0.09931817342612925, -0.668419496837332, -0.0017145521561126253, -0.26288228034097405, -0.2015158029127952, -0.16375286383436438, 0.01217140406714351, -0.563286478111555, -0.12677323630389176, -0.0756278884230985, 0.15251248009792254, 0.5862121065208623, -0.01970068437714184, 0.2523137291996399], [-0.29484441043028375, -0.13228101533410141, -0.09262232450484333, -0.3326575335956318, -0.16230381080749734, 0.03168297299300376, -0.04410463314790439, -0.25697515478837846, -0.09627108693086299, -0.1409699923754511, -0.47835479803086794, 0.26737257773069795, 0.039616880221807316, -0.11181533654867704, 0.13233195679952678, -0.16574698352632153]], "b2": [-0.2192355085297787, 0.0, 0.0, -0.01954822839796077, 0.0, -0.12203326428030938, 0.236425535413212, -0.12823915581856218, -0.02431127255542614, 0.0, -0.03805026321417306, -0.03653804680252126, -0.10835649057852377, -0.0860704642671786, 0.0, 0.07074603140764672], "fitness": 0.6387755102040816, "wins": 626, "games_played": 980}