{"network_id": 24, "w1": [[-0.2674839634783738, 0.5968949582562583, 0.9018477287777616, -0.08154685054435268, 0.30837427642694715, -0.13589344075356158, 0.02468377752193638, 0.5059007007123492, -0.003881916694657673, -1.0223158822038065, -0.07285816482873671, -0.07924684819727558, 0.24448806876661106, 1.034087144489339, 0.19456986336974708, 0.30655127231266727, 0.38889896911045074, 0.3841052056952997, 0.09801573516509952, 0.5599248492629489, 0.21317476357162932, -0.39127973708420816, 0.633374178838971, -0.044232400187999024, -0.5375263246520994, 0.4626030093635572, -0.7179146687164639, -0.1984431443942369, 0.0816097451227403, -0.09041134485006495, -0.7635208556337745, -0.5706775140178244, -0.06420078930534942, 0.33399962506719605, 0.51797395865987, 0.3513305860852516, 0.7800009305922372, -0.04263118772115371, 0.05180855823793792, -0.018435505203852853, -0.394723640477704, 0.28738231638504325, 0.09565368198947662, 0.10028387969711086, 0.07218152376917357, 0.4686183611391928, -0.2157510297660354, 0.07529767698159721, 0.3344802344234883, 0.29526142237115394, -0.4644943048262944, 0.26307162727275474, -0.655803642203875, -0.5640380437194188, 0.08621697407225354, -0.2815730897450393, -0.1973531486882158, 0.14345829244770023, -0.5619242958765658, -0.7794783547717331, -0.45414854578586433, 0.04881427698572256, -0.3708635981814917, 0.367056800157073], [-0.3666498405245377, -0.08140383353880776, 0.017894154552902494, 0.6715662063331804, 0.142096241561026, 0.37996189628421295, -0.5030241276187143, 0.16406147347958605, -0.22907878668048007, -0.01813820624977198, -0.024859201394791808, -0.06160690673441458, 0.33491331906169997, 0.14572721815453996, 0.05932825563268049, -0.6258418884139625, -0.6070810308965124, -0.007056925456764052, 0.11885907531280221, 0.8293697474673977, 0.26992285731337895, 0.12678679126256914, 0.016138615020725944, -0.7885904881434818, -0.6435262069825215, 0.024369145870170042, -0.46570634737500205, -0.1295275883101257, -0.4389870619128887, -0.11912408071021577, 0.2735171957959959, 1.150869804429681, 0.2753915656750785, 0.21730852215973523, 0.012773245733856489, 0.13508156472394964, -0.37577833553873824, 0.8309444576861091, 0.10187910397187175, 0.9957250026995728, -0.44406741522582466, -0.2838350669798474, 0.07604178949313016, -0.0018889555805461959, 0.049830428767291754, 0.038820321229593384, 0.2280685158437764, 0.41297094194112, -0.3074720599179244, 0.16585180393628524, -0.19272377328298473, -0.06694587479338472, 0.15970047842230248, 0.08186704606649092, 0.26755505223065756, 0.5629590799932311, -1.0457812479704496, 0.0007727898769259087, 0.20210777878955394, 0.061812131090555195, 0.16452304126786338, -0.26885077047069433, -0.07637872398689252, -0.42579927858451333], [-0.023705069323291125, -1.4273734425627316, -0.10494268685429882, -0.09309864149364669, -0.8462858656416336, 0.5775018549153533, -0.49795373360293027, 0.6318531342702347, -0.4298542366725689, -0.045335443447050885, -0.07604974796376614, -0.9224939023303396, -0.24357858266629698, 0.831616565957307, -0.42267735293784936, -0.02453459705662837, -0.640307481679047, 0.4081348846860454, -0.17594013837361158, 0.19432292657196135, -0.468552979345095, 0.23927485966932466, -0.3692883762898981, 0.3717251625102786, -0.3810868713593119, -0.18371073039565494, 0.08270295589412084, -0.21210686492643935, 0.31110192282623655, 0.6879918751862676, 0.08860162452333313, -0.3434538224903703, -0.7278389939234973, -0.515488428522471, 0.4196880662623042, -0.5050380105572174, 0.018614443627059, -0.04933337348760953, -0.055117206238848034, -0.12069560545325884, 0.28171781143424446, -0.18119209949590645, -0.04424580025409423, 0.8008573294777771, -0.027902747472720535, 0.5850936204072432, 0.3741678229934853, -0.07109761327958697, -0.1484782116961208, -0.3120800758275663, 0.0977651934534908, 0.0010922634859943442, 0.5697367066932711, 0.8752557392597077, 0.33609402633745805, 0.2600065649043086, -0.16668235902962664, -0.037596718039591845, -0.22172442612354337, 0.611710785433571, -0.3830101625295064, 0.020319204237282396, 0.2706987928774677, -0.4036726022355854], [0.0037795620378633914, 0.012778864239439027, 0.5926024513246438, 0.15928419135967797, -0.16319653042640797, -1.0854038609139305, -1.0795976630737272, -0.012005369745311047, -0.3734966704076524, -0.5199350849038735, 0.10012738553736374, -0.7090596950602804, 0.20635288667511206, 0.149153294431263, 0.2699213951916673, -1.2827416824635542, 0.4541557095352418, 0.2813368356263322, 0.24990772175983225, 0.8776838513444567, -0.21872337322066995, 0.0939184133308811, -0.5499128719279303, 0.9757325685215477, -0.08647963088251483, 0.3512223789373977, 0.3823605638835067, 0.3627797108889106, 0.6932995537748751, 0.15689614822541761, 0.44960895466128964, 0.4029561934393525, -0.4418400080728338, -0.07721933678597888, -0.4526074109384538, 0.26671216257200536, 0.7885189386081356, 0.06791906642835044, -0.8225098126840866, 0.599178159176233, 0.22750909150207074, -0.41360502542890665, -0.016515670034299084, 0.3944200639057539, -0.4147202335216833, -0.4312955860100373, 0.18967552174514352, -0.04480414970624063, -0.5211317439901606, 0.038668189132416333, 0.31832354999906365, -0.11401605415438927, 0.8041395669813157, -0.8131168772314425, 0.04400139953766467, 0.4011100495980198, -0.42609006570734026, 0.019235309130429066, -0.03851505504904941, 0.1053588595754516, 0.28920802543856244, -0.3922608883142109, -0.10301627168232914, -0.47188803615756897], [0.27244300247621267, 0.036996280358824726, -0.11914871058981023, 0.27938783006337675, -0.09020274177883715, 1.1784351205290602, 0.35441153192309327, 0.197306397547664, -0.6576083310697347, -1.0628619098774665, 0.5402589968273864, -0.6389863724451983, -0.1435324690587857, 0.022521789575495128, -0.05191337692095973, 0.3810027712661832, -0.2881613485781058, 0.8627933339411215, -0.8060644570528203, -0.6892068074601073, 0.3160037004754072, -0.19782299535070091, 0.37580720412825747, -0.05389228018401566, 0.011867179032716233, 0.18370244114101078, 0.20760565250143254, 0.15107170917464155, 0.4487926749695333, -0.16416242137810916, -0.07540383193088011, -0.5513039751021966, -0.5534238989736668, -0.23855926016315745, -0.28015626096220936, -0.13954284955444174, 0.3087889321207564, -0.10795707265532796, 0.5679446315184442, -0.1728121617895512, 0.03192180377278148, 0.4542655339788676, 0.2917096797975356, -0.5036407373344225, 0.6767447336399928, 0.051508677572040806, -0.41372145333765986, -0.29999283069456456, 1.0694888842834323, 0.2676935011327878, 0.21839177402876847, 0.5119149401802728, -0.12565274619508335, 0.1530000915763702, -0.04409184269854025, -0.6103757409891593, 0.9274436747228167, -0.15689813673065445, 0.03205267022127143, -0.21374639625687208, 0.8974466508971812, 0.13585209608020193, 0.25295951835077896, -0.22653575277659932], [0.3628791953422392, 0.22546099016943075, -0.003234600799490729, -0.36941679971724567, -0.055035475202359636, -0.9536597788685344, 0.2775867509958975, -0.22818223198100865, -0.8643006555328522, 0.058247907305191665, -0.05817839500470337, -0.28188373192949207, 0.4778161246712239, 0.27369209856679527, -0.00016354215933122505, -0.8157367405265886, 0.24210105374684723, -0.18979485088838066, -0.8940580046708473, 0.09953353457961689, -0.3699735652865654, 0.4766213132382603, 0.8987227438418502, -0.174738647397094, -0.16130220950037746, 0.3104292071937463, -0.540854180361945, -0.02269370184076143, -0.20266583064807808, -0.16740086465371515, 0.2698322734734296, 0.6070594188270064, -0.6597390161472286, -0.4466306000326505, 0.1409181320444141, -0.024438582593613815, -0.012558296715751099, -0.167265279560686, 0.10414948018845097, -0.29920360793688705, -0.16553183425787318, -0.08733050401892659, -0.4471948230283728, 0.3735255277268447, -0.1856357020380682, 0.5564456436520001, 0.37403021948196824, -0.39767901494843727, 0.8267585071455277, 0.27970414991451753, -0.11453053977295351, -0.4697759576187744, 0.4477782299721146, 0.35991566090007854, 1.0818738635317924, -0.3369052040740799, 0.4655607418009954, -0.10955119015008431, 0.09102989646654693, 0.314092354347233, -0.06024243041381564, 0.42989968423557123, 0.23021502544170883, -0.020204036146245927], [-0.4760618302704322, -0.03851043965713643, 0.30269625551814583, -0.2572967352999405, -0.9328306779568751, -0.25342170679535553, 0.30123711421331434, 0.34443817783800124, -0.15393472642408193, -0.19475166280221637, -0.08230298974841788, -0.6189695871563543, 0.5258263815761498, -0.9145124731119607, -0.13583607283299753, -0.13836466001899408, 0.9469404515864732, -0.4471750946509706, -0.536606242818481, -0.06651801539972985, 0.3391851016325872, 0.47279564563539983, -0.1133963693702595, -0.667363884604507, 0.24483474868483557, -0.30806660569039085, -0.24035819370853737, 0.20028378283617382, 0.26910575304359163, 0.20448454460288334, -0.30745276055397863, 0.6068542044417993, 1.0360700156096438, -0.017958092191125236, -0.6351679475947283, 0.48402196756108945, 0.010525977990152294, 0.17512990488067454, 0.08664912954741853, -0.5428346740324311, 0.19994909608993403, -0.28077379101429445, -0.20053422792747871, 0.21505653585133946, 0.25752253656816204, -0.4506227171122636, -0.4211818034572229, 0.6746390441924819, 0.2641232243704164, -0.2794911228061611, -0.5721261898206558, 0.4735140356669157, 0.7522494951779902, 0.21962426360822002, -0.6538247496276041, 0.4801251832332308, -0.20227561943049877, -0.07868756473215477, -0.27195070767983004, -0.5534503240326133, -0.6052837489315039, 0.0331782895411246, -0.27194318454413163, 0.16182902939060279], [-0.35973865943406147, 0.5681200371811659, 0.038682867920596525, -0.3265927520223691, 1.157082870016952, 0.49991212698107584, 0.1346446023428572, -0.0473150617675565, 0.03934477965923563, -0.4361186999161394, -0.36379062057524025, 0.6366823770918483, 0.7846925399417239, -0.35877486955548127, -0.4212056889215536, -0.11684107519347849, -0.5800002166175088, -0.5144431853741922, 0.2399287169686531, 0.07945642143306672, 0.14401371106046112, 0.33125972468376164, -0.7511201323446086, 0.03792069795400326, 0.33534229217471156, 0.5235151278456326, -0.21085192239530676, -0.5505998629818247, 0.36180860550163385, 0.3880696035058407, 0.46908261081335423, -0.2943853294150908, 0.2626365103869058, 0.24445772083913753, 0.3714473790350318, 0.29794217972906184, -1.0481950014285781, -0.28979792549057987, 0.43083343417902364, 0.6975279637233132, 0.3510351561868514, -0.4445544843546061, 0.4193783286595975, -0.047815286184474594, 0.43880930622716136, 0.2209051320176749, 0.1698703858707808, -0.3611869904418136, 0.6562329331676016, -1.0030408376494098, 0.6771642601353975, 0.14187209727746783, 0.7978806555093408, -0.09467496506240652, -0.742898955021368, 0.012648984091407418, -0.43723906551467684, -0.6479059671924652, -0.08195137153722006, 0.7210664319188176, -0.05753741139235312, 0.09230330948165243, -0.06410721274245781, 0.8793767426222332], [-0.3387289542697193, 0.5614846082804856, -0.4041288445106987, 0.059412381505368636, 0.314523231823349, -1.0282579419582185, 0.2605428508490242, 0.36171358564608064, 0.044296848016338375, -1.1013173016611124, 0.12111425216515027, 0.22084161262635785, 0.4216104313539062, -0.6078119232347793, 0.6236217034457012, -0.06069030452323139, 0.3897786521726752, -0.1521012283534528, -0.17926537049727786, 0.7142326321883463, 0.25838200714765125, -0.19718130654839558, -0.2639196017914774, 0.1375174734169619, -0.14950730003863835, -0.1255645350178729, 0.4608826905542016, 0.6695523187180508, 0.4174383522178647, -0.10686082087540631, -0.47088153588088066, 0.42926831451307473, -0.0589254147211042, 0.2063171297308976, 0.7572387477176995, 0.6351108413934571, -0.15839041344670932, -0.5009827644170867, -0.5750850475865076, 0.4340462128640939, -0.28559158355920056, -0.18664076401750332, 0.568922832981884, 0.26211499005404076, 0.1513749801838565, 0.3648959742155635, -0.06841038853546974, 0.3814302612945654, -0.46922922867850453, 0.18830541151093014, -0.08686820529020106, 0.4724582766166636, 0.11613087079438342, 0.04657323831159754, 0.8559943481870996, 0.5338416218328325, -0.5202577682292896, 0.8061913144999253, -0.5623962666898153, 0.7106745324801416, -0.013692633398653361, 0.04014192601513083, 0.9463223592854652, -0.1318423859790439], [-0.6614817663740055, -0.22230200133225406, 0.5459553046286619, -0.613095135475901, -0.12953103207200636, 0.22070017240737114, 0.5631554654609168, 0.4095805273877057, -0.009991530474257874, -0.6599879854705736, -0.5994016081910338, 0.0289641976465102, -0.12287982891284492, 0.4635199567941309, 0.2565185690096213, -0.4028363030489309, 1.106119962019231, 0.06719547073551044, -0.4169433673142902, 0.16401873625708788, 0.37441237703792735, 0.09408532938466065, -0.5911478690056169, 0.16301975989570267, 0.38914026965793613, -0.03841363780211122, -0.1514752288990859, 0.12795779728053214, -0.07698450814152193, 0.23983408278244414, -1.100948836934753, -0.0195425007905507, 0.24806742562025233, 0.24567695440063253, 0.05666633841015513, -0.07569144794278794, -0.6376471213845897, 0.2962148836752839, -0.04024380251881449, 0.6211732269255278, -0.13962794782757199, 0.24000748941493766, 0.14453291975958635, 0.18932113592509167, 0.4194307666737577, -0.18711279711442869, -0.1320231475679735, -0.30500179702833646, -0.0935791891461133, -0.407113366877601, 0.12650243999245572, -0.30631729871403474, -0.044512352162439844, 0.4189656986166875, 0.43826422384611097, -0.4100896197950574, -0.5299780415250094, 0.2330489573910873, 0.22135054648884744, -0.512457634601599, 0.5814630002288989, 0.605894815106836, -0.3564729917139086, 0.31670809239613956], [-0.3069683385225145, -0.11506006874337, -0.5873183896674851, -0.14980720506866513, -0.33150642424010507, -0.024288012331986547, -0.47388981618801324, 1.1317244136940716, -0.15612546479533185, 0.47269080361341254, -0.0712183852108207, 0.48680029234306826, -0.36962397810689035, -0.5451186227822516, -0.6039224089870602, -0.05088281745584811, 0.6487291202330236, 0.4241195200337985, 0.5715111304088887, 0.37997816311528354, -0.13068328230403253, 0.2447634720694476, 0.18807441447625617, -0.6031505403862747, 0.20488899928636936, 0.5117950418472187, 0.04086530933031683, 0.04143146603487487, 0.31949017694123905, -0.6365807672795533, 0.4886648350548422, 0.23387460534829027, -0.7126378236921497, -0.5716737504853444, -0.6057776799154793, -0.26757665241893847, 0.008585005205923806, 0.2548380418635053, 0.11564208575216796, -0.5118420085165761, 0.6335753156678211, -0.19976976823793804, 0.8864835016466666, -0.013552618057015095, 0.32595456275477147, 0.18570561867905155, 0.4721388642186053, 0.3400500810509816, 0.21348512866208338, 0.5477221039888955, -0.6911489133339953, 0.053659146215857705, 0.3075765409669253, -0.15675044781603278, 0.4403970525256853, -0.6536629263041982, 0.17458310096454194, 0.09070162042371696, -0.23845609188287376, -0.13363274691984334, -0.0643254160800542, 1.3748453443513773, -0.6367507465513134, -0.1598237810886373]], "b1": [0.0, 0.0, -0.020495313040740065, 0.0, 0.0, 0.0, 0.0, 0.0, 0.0, 0.0, 0.0, 0.0, -0.11360412801963925, 0.0, 0.0, 0.0, 0.0, 0.0, 0.0, 0.0, -0.00944117991378769, 0.0, 0.0, 0.0, -0.1359273298932696, 0.02489747337138449, 0.0, 0.0, 0.0, 0.0, 0.0, 0.0, 0.0, 0.07015420262982683, 0.0, 0.0, 0.0, 0.0, 0.0, 0.0, 0.0, 0.0, 0.0, 0.0, 0.0, 0.0, -0.012235061323794611, 0.0, 0.0, 0.0, 0.0, 0.0, 0.0, -0.007709725450019918, 0.017825668208755873, 0.0, 0.0, 0.0, 0.0, 0.0, 0.0, 0.0, 0.0, 0.0], "w2": [[0.07195360652879702, -0.04034585799298001, 0.201652118683713, 0.057484623821421076, 0.030557851978015308, -0.15148580404279072, -0.25384976463822023, 0.1296047280523625, 0.6036617125097107, -0.23893966014940313, 0.08852865683344445, -0.02459984255951761, -0.27588555339461657, -0.0224735872878557, 0.057710293109061755, -0.15955506793684932], [-0.03590783547829385, -0.16316860544025966, 0.24757371369560882, 0.23013130054997885, -0.09074040987282804, -0.015162722354406513, 0.03673709641445332, -0.03698326955933978, 0.0148357931673204, 0.11700179554592383, -0.12990655708297333, -0.327486689644931, -0.19370688345318005, 0.057834396540750496, -0.2850913325715356, -0.007888143868188029], [-0.08251975834385343, 0.012136539347079254, 0.6445788112563412, 0.1866925789071016, -0.24112500512469967, 0.23480403175252235, -0.2156213016341159, -0.07742034003226336, -0.15651741373756542, -0.013254264537987519, 0.11803446218696799, 0.04151969040675549, -0.058982501525000064, 0.0003948794838139122, -0.08754688504069565, -0.20526057697432062], [0.052063263655696315, 0.18220682485972045, -0.00751763077306327, -0.004028502119241204, -0.4095694618392502, 0.0352942170457399, -0.03271094309438624, 0.17896259453114144, 0.4233169051673377, 0.06547842988241867, -0.2625168906730456, 0.11217865417609205, -0.10983863645271595, -0.28394221612021897, -0.20840027367908223, 0.32938789139101393], [-0.5471965993046297, 0.04630038616117496, -0.14057367134749377, -0.10026885413118716, -0.2693769770729498, -0.010645030016602443, -0.09177773199849584, 0.0841374057247805, 0.006648657631174011, 0.10011411065377152, -0.003075966859996106, -0.12381793340827835, -0.17918509960269188, -0.28708100233246453, -0.19316371821917666, 0.08400857376332935], [0.0037854654766730053, -0.20488916980171784, -0.13079632439355612, -0.07499923352299245, -0.28494435769684756, -0.1118396609185397, -0.09450818321568445, -0.038163631219555544, 0.1031414025047109, 0.044285855246924445, 0.013497902574124908, 0.1618222692643993, 0.2010692239809506, -0.17155570239106271, -0.03488799114727703, 0.2030092614131377], [0.018557193125047732, -0.08246391271118422, 0.1129982033533487, 0.07399584957968373, -0.060794779793400915, -0.22861456201002153, 0.05806855782518864, -0.24602080465124662, 0.2305239457632399, 0.10193040201800253, -0.11480684965294187, 0.10166910262353228, -0.17817293829091135, -0.14346789390399264, -0.11107140583954037, 0.31575392816576386], [0.20627690957582867, -0.3080425388832551, -0.3253188114406376, -0.04506528235645533, -0.13887020375843664, 0.2529515660294266, 0.02705729760220103, -0.07019310199653411, -0.03302423524244008, 0.07442155777003599, -0.08757952599354724, 0.00348638299384961, -0.011519661650971656, 0.02880967027356644, 0.3647310983974867, -0.3115265171459941], [0.19340237045134845, -0.06355283467917076, 0.10199029081507764, 0.17670233858119277, 0.0808968748380999, 0.05708829582478539, -0.36982862033943403, -0.08869310624344218, -0.04403279496437806, -0.230789209357689, -0.25264987067378347, -0.10510972202315871, 0.05804518000631291, -0.12652342205414777, 0.34734879294281706, -0.0580656088186167], [0.09599371855812291, 0.19632174253779497, 0.3900284901066161, 0.37579551030389413, -0.176876899524616, 0.07897289702377996, 0.37544540297860285, 0.41446668799321723, 0.05777053506456007, -0.14390252040333376, -0.07030254038993132, -0.030667966744288733, -0.3578291472748618, -0.09435955550225134, -0.08479740485232239, 0.09768843398920865], [0.13653289623633827, 0.27151136733614206, 0.10386804013639239, -0.09250345059150558, -0.12280977196545648, -0.00042659204179878893, 0.011139666914193219, 0.09984541694009999, -0.11743798087493722, -0.3088351500102941, 0.06522049924962875, 0.3380288583052638, 0.1921392311167905, 0.27368033236548284, 0.1548518088664435, -0.11737717324037833], [0.07730493791192568, -0.2654945166787908, 0.20867144391212653, -0.16935315656911445, -0.21184225161198994, 0.020931754215599452, 0.2604085623961844, 0.002217975424846632, -0.42167088627256016, 0.08788011898800017, -0.30132913480926277, 0.13237002528187972, 0.06771668181789839, -0.2890580701344747, 0.031065556879728565, 0.3357327948213064], [-0.15475310472694623, -0.28544173090391517, 0.014301064610632295, 0.12958112201978278, -0.12845857196166874, -0.1746743179705444, -0.28340092794507477, -0.07385121819768956, -0.0839957936168612, 0.15170445031881521, -0.07386837951232804, -0.044683983090253204, -0.2544764157333151, 0.1531345994162991, 0.26286337401228577, -0.05085290902382973], [0.10249274136271902, 0.1802828124091505, 0.31326776935509026, 0.3145949632857388, 0.24721458867852936, -0.048673413259842965, 0.22096463428848945, 0.0004272482401413963, -0.03429858363343477, 0.17856170289624473, 0.01992915501470153, 0.0411530620161829, 0.3846214851614205, 0.21705146228622046, -0.19874185115460175, 0.22549279220768942], [0.04581229376992433, -0.08752130587820293, -0.22894039907560335, 0.2333040308022011, -0.028451471852174105, -0.08483816888927989, 0.1082172680887144, -0.05632168631667092, -0.10519699648661203, -0.16742289489154755, -0.03295227686420338, 0.16964878229724517, 0.39888980116729517, 0.28638236434754244, -0.004280222354410386, -0.03753864866478127], [-0.15121288963240784, 0.00458213737880922, -0.08397223634015041, -0.1870279352227556, -0.17888090178959176, -0.3201102177611025, 0.1704913813919272, -0.06928497235202441, -0.20594639062759737, -0.02149274030880179, -0.030526679441089943, 0.33399960460602646, -0.06830809665350475, -0.1023779547728873, 0.14184993802988372, -0.108755073016841], [0.19425072986104486, -0.13770764679925127, -0.22163933597252428, -0.22046866890566016, 0.08257791600305778, -0.33912622910304424, 0.40771161553373486, -0.06773352361129821, -0.21093583670088717, 0.01996298148962383, -0.16326089421723142, -0.009011435190399153, -0.012087851489985318, -0.12631053107888848, 0.04282919647859968, -0.5001164654957749], [0.13876485069923097, 0.2774742516339279, 0.12689819032908317, -0.3130513431359821, 0.002418590652559792, -0.11356242122401641, -0.15189362342104504, -0.12366969058051648, -0.14818362073155858, -0.09320607245724681, 0.00798427159275892, -0.04023814673216987, 0.293022547766986, 0.17491940416179202, -0.012566742932788633, -0.12466720803629916], [0.16933442794491785, -0.1354152691281946, 0.14560311668886716, 0.17475740617485455, -0.009847577048216115, -0.0721027267122885, 0.12342204610273172, -0.10355632588074025, 0.10030287135190812, -0.028555318903973496, -0.022976956435754686, 0.020558062373216078, 0.27626852057172524, 0.15312455584438087, 0.05447259474987812, 0.05363084198976766], [0.207984470253606, -0.16225329658429888, -0.026328051036952002, -0.10573087044717112, -0.10242824523287115, 0.09775241192618385, 0.020802869026025166, -0.03387377718020477, 0.3866016899022852, -0.03734407310835942, 0.09419631188161105, 0.20936945052237596, 0.09195882397555219, -0.09413005068093239, 0.269670126820231, 0.10546083391479327], [-0.01422507236078257, 0.039564282142458954, -0.3779159098468647, 0.24204345367636293, 0.20205698624900456, -0.011379366668165124, -0.25136792379379946, 0.17753496855205197, -0.08130320312466778, 0.13738013518006123, -0.0757794603412052, 0.14424470701364586, 0.24130697977640164, -0.09902230761081725, 0.11987758801627237, -0.057665848542629], [0.10910459779165939, 0.4170323740608187, -0.058911263817294376, -0.19956509590274138, 0.07138860628328739, 0.07852241458208899, -0.12334473733484123, -0.483088362430972, -0.055145316553471393, -0.07330971625974174, -0.24995182507011607, 0.16461562708855854, -0.12150131753785132, 0.07563166522421215, 0.21439079365699584, 0.025403076265893863], [-0.04137582745522996, 0.16045680693887235, 0.01393360099674018, -0.12384376047793916, -0.11793306339882313, 0.18487155166914124, -0.15005879634538993, -0.4055749216161021, 0.004297393441201144, -0.16819871090158864, -0.07946187978063216, 0.35546986362260413, 0.3522432873138318, 0.0049015688336751795, 0.05186549219788335, 0.33633796959297985], [0.042662401019610344, -0.09894600615136306, 0.4903735260895431, 0.1857376488386555, -0.010719947672328901, 0.020615441918783457, -0.04301521072768105, -0.1741959335941753, -0.08524249516812081, 0.010956590545732836, 0.11410979615203311, -0.1888574837231944, 0.0057817234672417174, 0.049703329107573795, -0.036558303177309924, 0.13933662920885723], [-0.0020939127842795053, 0.030314497627479817, 0.08329640832865486, 0.2860283720804446, 0.09232652002118025, -0.255065690491497, -0.13314552451950026, 0.13063861338756622, -0.21896300414168612, 0.145447017725088, -0.1295274633407091, 0.08041323046499525, -0.15472245823015743, -0.1235755248345738, -0.3599743512500588, 0.3815078133733284], [0.2360934311407688, 0.05675118213450564, 0.18804158550074274, -0.2410303100520175, 0.4855713396969914, 0.09065481919250676, -0.010690133315555449, -0.08774299214250561, 0.012592860443426012, 0.010853030388796273, 0.09514241446734162, 0.10286100809310653, 0.013703693369883061, -0.042431411249019176, -0.13884187959093994, 0.10286715197260085], [-0.004816752993885789, -0.1338114932090118, -0.2177009173547701, 0.44945780052789036, -0.02230438380727292, -0.25098520549500253, 0.10960240255535443, -0.1010279341952471, 0.007811695645688286, -0.014097582294725325, -0.2737621616540624, 0.23790433167838032, 0.06859402416599254, -0.1311688932637286, 0.15330634614299815, -0.056076471735785914], [0.10973560641454813, 0.06218628342002157, -0.008705812403752518, -0.22141826025054184, -0.1645918778592809, 0.24611646395550282, -0.14248841499930462, -0.03251964052002829, 0.021348114110907007, 0.04820639488775566, 0.07842350989734365, -0.11256810772757524, -0.04843934785403542, -0.14861244073600932, 0.08054994511909794, 0.17559726299543651], [-0.28549936873563625, 0.17667852760778197, 0.02945755240984036, 0.06711111390076505, -0.21653016686369864, -0.24744012564423085, -0.2937101379787941, 0.4376625529067507, 0.0003303550816683883, -0.05724082474208149, 0.07558138331891658, 0.07386862808025493, -0.14200920739483888, 0.17129485080900034, -0.16962706111152534, -0.09776254066204539], [-0.23768511606299922, 0.02687894941263162, -0.17834389504104325, 0.018635366264006237, 0.0006238641748119834, -0.09372566245384359, -0.11402283502446847, 0.013868930087565304, -0.21759461178957887, 0.019232452402106765, -0.34793507425863096, -0.2496763108263468, 0.22586200053090877, 0.08146104091353108, 0.3222299084359643, -0.2732999703730533], [-0.28340267897181165, 0.08920038952622483, -0.08819161190073052, 0.14597215249080717, 0.04302119108793311, -0.17055728888785882, 0.23031030263319777, -0.3178040490782547, -0.16464527830679715, 0.010397593918220071, 0.2592359114807634, 0.31549966755095143, 0.12088524658460396, 0.26048275347596034, 0.011650163345127211, -0.16485312482627484], [0.2180102879396184, 0.13694671157316335, 0.018898603330253394, 0.006914350547705715, 0.08545609976513187, -0.19765848389947735, -0.12545042287259264, 0.02320494140857416, 0.20429501316262189, 0.23574842934110005, 0.2138141446901846, -0.19387228341034765, -0.3024112351368678, 0.09817739532187288, 0.29643141626002456, -0.02530433835151167], [-0.21487626553555728, -0.013517041404989888, -0.1770108590610684, -0.30288672117378196, 0.07753187380554749, -0.08983812990714383, 0.05164186441355902, 0.014936006061235102, 0.06807165343545561, 0.11586584393968226, -0.13815844690570248, 0.140731986454096, -0.15737234526141045, 0.16595129249980486, 0.0006473227358048803, -0.07101919918267136], [-0.09350131451772492, 0.13088192008700897, 0.022850044560458818, 0.017825714813855687, -0.06381681341900923, -0.06175147162527444, -0.22244197097024965, 0.4785095602019509, -0.29785979351413405, -0.3965445170431887, -0.12885058777815747, -0.09471158470506275, -0.11361610299371946, -0.17841279725155118, -0.06830410933284588, 0.3439624569672327], [0.07038163126007164, 0.09239591257328456, -0.2587544429659527, 0.16870118284373528, -0.19423872393203126, 0.33395616867139205, 0.034699397699846944, -0.28576823048455346, -0.010348316463073177, 0.20044220515849967, -0.17529939902052358, 0.06922861252505733, 0.14353923030506807, 0.14503907322366563, -0.16091755886612594, -0.05808979739851787], [-0.1457732142647123, -0.09740392323451073, -0.3143405455177083, 0.18239283915022936, 0.41411834734483594, -0.2636411983255506, 0.09072810639544558, -0.1674619867121279, 0.14817828919080533, -0.013508789221203545, 0.2192581257389288, -0.003298435951119778, -0.15489094602997208, -0.17202928540099258, -0.22618996719347578, -0.17322774671149466], [0.12373165271827376, 0.35656275648713165, 0.26451796364153163, -0.08384378550894081, 0.05991445060355447, -0.1470511956589401, -0.14637659824701527, 0.19894552166462762, -0.12564554416054657, 0.06551341061553856, 0.22577749571471895, -0.03334364761357477, -0.011148733035187996, 0.008944187410868176, 0.1032156448640216, 0.019871468381526737], [-0.16390060942127266, 0.03897805665048009, -0.023910889918838326, 0.16141644939154468, -0.06948743402096079, -0.27084334840634994, 0.29508619504351435, 0.3840368596346166, -0.038689216826863417, -0.019766075544399075, -0.3923442988818841, 0.12313314278137566, 0.15383521075397538, -0.16996028467027097, 0.11462446706861185, 0.0687297804377978], [-0.047735313443650174, 0.3286280039090642, -0.10199903310296118, -0.18257574033268198, -0.19536193398827073, -0.11272675334160871, 0.023493014625647287, -0.2419124034003827, 0.10652443301476915, 0.03704767047795197, -0.021269948425997148, 0.20791061849885017, -0.3113184902444773, 0.1938631031347168, -0.19718267738166273, -0.13685731442315963], [0.0227976939167976, 0.10755248866268588, 0.1759594424200342, -0.019222281939083083, -0.20221465595724908, 0.0331145090925984, 0.43288977505739124, 0.08225087747194335, -0.12537421096409987, 0.1460485426069798, -0.28826776553049455, -0.08714100789814143, -0.15042462800376216, -0.018531018601864593, -0.13285712883981934, 0.22245677517831144], [0.3325719654983221, 0.059040536245363213, -0.0884629767636632, -0.018234074971592417, -0.02158696771996579, 0.02419435206145705, 0.0682591811339199, -0.23783100281836686, 0.1118117248549454, 0.045107322528797955, -0.1989285794669123, 0.02064568544947247, -0.3100366220780829, -0.5050174929267518, -0.12216218691165576, -0.15244999636407425], [0.29381824269695445, 0.0047738169703686155, -0.08431221889979482, -0.09819371791887221, -0.32382034845699614, -0.21508479111841294, 0.20310607558989122, -0.06540016829943918, -0.1788799058707451, -0.1339541371386405, 0.09705760460505335, 0.047327098665145444, -0.012661715087579744, -0.07482114116520419, -0.3270385659298035, 0.16163610616684995], [-0.08237227171998875, -0.24225275677191827, 0.06550153379179849, -0.1948611909368945, -0.08027067781742588, -0.14208837505042798, 0.3282764557935551, 0.009963990868384308, 0.11529078009090492, 0.05644550395539827, -0.09691729476614908, 0.20507654109588663, 0.12157317256866366, -0.061590928331364016, 0.018711440000508263, -0.020873886555188726], [0.06894092734965573, 0.053928986647478305, 0.1274277147564542, 0.037764039891389406, 0.04497492506251822, 0.07378988530867528, 0.18869605591182706, -0.08403062777015095, -0.07329567130546477, -0.008924829828446534, -0.12073082933806387, -0.11848516245747061, -0.010569755783955592, -0.15659209955315478, 0.18315852729022125, 0.1435368758275204], [-0.029629492332391177, 0.09564187729031319, 0.03233012986959817, -0.010355224415824678, 0.11194069121912237, -0.029344362337578096, -0.029781344203010138, -0.033480611314019144, 0.07066323525906952, 0.005126791674053475, -0.17657631763534748, -0.06584033038163555, -0.0825482223256972, 0.08137734315649599, -0.11181475506754131, 0.18433340950914165], [-0.17700562807605427, -0.003191093684005079, -0.2851244850736682, -0.2601347970720067, 0.216235302997592, -0.3459698918959352, -0.2859808990694867, 0.018088500150454215, 0.14875523836654492, -0.04476217182766395, 0.14553726489476088, -0.005882400400069029, 0.1710967774397283, -0.03578365916622836, -0.0262589663408495, 0.06980085169443417], [-0.0015609124060523838, -0.07128117377154451, 0.02612626443576835, -0.1305078615919871, -0.33213411248425617, -0.21084860551793777, -0.16717489504226185, 0.09591903906483853, -0.12352323777357814, 0.09013208979663953, -0.2120907959807345, -0.001356125009651116, -0.015674783329854582, 0.02042706983525283, -0.12740695867223661, 0.027049931786279267], [-0.4680824920990765, -0.14189131644449132, -0.15050100876977554, -0.26823590174345996, -0.14793790120607556, -0.11125657891426893, -0.16717555391515568, -0.07770240383133117, -0.0025933744378646754, 0.36439432716023984, 0.03937963468957102, -0.06510741316505694, 0.2143985255846695, -0.02219937921333172, 0.17240528239880193, -0.3140204984288103], [0.004518731944777411, -0.09854940923604909, -0.14213674335122778, 0.15994601662647762, 0.33702453609085375, 0.12084734171042323, 0.1647771561480271, 0.057237988029684626, 0.239110235359096, 0.11256878753635312, 0.04884387645157764, 0.10297974452759452, -0.13856914811210091, 0.01087242349521556, 0.10513927295371849, 0.1445595602196527], [-0.15817658121948594, -0.4236990164577815, 0.05536072032853961, -0.22097906797305264, -0.025206640404392463, 0.003946169565421171, 0.09125595201132436, 0.09507787520968759, 0.20243238629364257, -0.03556311844984799, -0.02338022134516663, -0.0019391301813411472, 0.0509179076495962, 0.03392156429955175, -0.10076045394335006, -0.07182023897322089], [-0.26786707691499706, -0.23971234758157853, -0.044164412049530276, 0.16829001629766865, -0.09571196545342531, -0.14293475163669317, -0.2292154183530236, 0.08170653573034832, 4.300230939305235e-06, 0.07154541262318133, 0.3289687169955646, -0.14951331248958652, 0.03594117077978727, 0.16598087749881615, -0.08583224609433959, -0.00899822480840209], [-0.22360317578137218, 0.041718515424949164, 0.09556252106131465, 0.2120020473175582, -0.09644316247046927, 0.0347315374304502, -0.05735831722383338, -0.30235916203401714, 0.6131357838849063, -0.04753536970424253, -0.062278208514641574, 0.02286096549736064, -0.04296916977010162, -0.029642971893952746, 0.17189216493229786, -0.4674742225893509], [-0.060029859502034835, 0.03727460600466487, -0.13335777251162184, -0.0995702649173941, -0.09083896218399212, 0.27606540876194663, 0.0880397032670612, -0.014260094805552181, 0.1946452182819429, 0.017708376420391473, 0.24915855353526328, 0.33665348802267964, -0.09037602466213958, -0.30101337381285853, -0.18178847279012728, -0.10398758843046363], [0.0851826904120829, 0.050447950970929654, 0.20511081255022626, 0.09268844633058466, 0.19830407978194575, -0.02540716693752678, -0.2405839477837703, 0.06346797902134153, -0.029286646275167652, -0.2230443979000364, 0.01258721111289094, 0.12888864046494303, -0.31873706433183885, 0.2512876242970341, -0.1447621578496661, -0.08749750627584499], [0.20991824510176502, -0.40032687980736104, -0.19678564940691026, 0.022502045222351393, 0.004293967643405151, 0.11145334660672208, 0.11698378887891071, 0.07299286669464021, 0.11257665018412384, -0.049338000612157186, 0.08744657052682392, 0.13520586353799244, 0.343259569934648, -0.0636229533936593, -0.05631798116167779, -0.010021953459350514], [0.06662967977821517, 0.21708411237475964, -0.17921946614195794, -0.23556239874105595, -0.161309300982283, -0.23809217617320813, 0.1680535272635476, -0.029314947708153224, -0.19203757002372157, 0.1773188428797719, -0.146993571099272, 0.2803442259049813, -0.27197267070742764, -0.16974652312348543, -0.01396988806948418, -0.11686244448301368], [-0.006246837205572534, -0.2987775895305683, -0.18041657045737908, 0.33679770152269195, 0.05865532521857548, -0.013331572897685705, -0.08675121209565151, 0.05739363694295839, 0.05439181195501578, -0.3581245661830678, 0.03855201113771256, 0.02912850716958268, 0.022266851075991384, -0.04748187834796424, 0.17002293585073133, 0.11349395034384087], [-0.09444828402274848, 0.2061408508997215, -0.10772979376663286, -0.01707678503131062, 0.02033969631942622, -0.12602100457829638, 0.08056811318433171, -0.08581422897056817, -0.03421227573408794, 0.2103293906728417, -0.019256765687123503, 0.1888944528478832, -0.08581244671047975, -0.21523747444728422, 0.22093076500949826, -0.021561536112893933], [0.07816235349171766, -0.37898611906198754, 0.09774192741234776, -0.07186714192845961, 0.15186637896795638, 0.18445821262962314, -0.50514302667662, -0.17804711774186766, 0.14423438025621657, 0.13603558223139084, -0.2436340546860721, -0.2599272436724027, 0.11628250990261972, 0.03087578595299198, -0.10113816199223631, 0.11492731061631009], [-0.18248480376737647, -0.5184256359422618, -0.14224457518272446, -0.3067633464695602, -0.18902598544716806, -0.013587065449464874, -0.32922648877290656, -0.13620142579515243, -0.21108079039370323, -0.1392991939739357, -0.08532895448328708, -0.20317861814680455, 0.25787017598913564, 0.20038322130391253, 0.19461430346205472, 0.2728637658322409], [-0.015810266087629154, 0.027520713909425853, 0.01960099767361593, 0.1081986021660457, -0.2844340495857543, 0.1291628093476268, 0.17732510751056096, 0.08507783780775204, 0.03454165932106669, -0.16132285445403108, -0.014929848971821574, -0.14460757651497608, 0.13831073354315043, 0.08234077785208475, -0.08111882907275554, 0.02749474386727294], [-0.11408518388879552, -0.23804384143315457, -0.2199927008970745, -0.1919865054237992, -0.14917373763906072, -0.16054390511642463, -0.011686343521063966, -0.142316954901379, 0.368384419747896, -0.14582943749933183, -0.06274270290745444, -0.021666342295896427, -0.08657284104270817, 0.23054663126817113, -0.16269927797759434, 0.3085461121768554], [-0.031721816303704145, -0.14775121970731211, 0.03343877102445831, -0.1658599129866919, -0.0017145521561126253, -0.3236545349913963, -0.23824652279313563, -0.2396915650112361, 0.2295492765363369, -0.45586942693158705, -0.027608696713928356, 0.19391267980715618, 0.11421367295805565, 0.4011602181044939, 0.1642335725103432, 0.3503291096102461], [-0.24703544833385682, -0.22691675670372352, -0.06814184606590894, -0.2546114524531725, -0.21821124468821135, 0.03168297299300376, 0.10807056850837783, -0.282425677323292, 0.016915387815123587, -0.03278626962702554, -0.47835479803086794, 0.1598375328504574, 0.3126956649371997, -0.023900243788550914, -0.022392675187100808, -0.16574698352632153]], "b2": [0.0, 0.0, 0.0, 0.0, 0.0, 0.0, 0.0, 0.0, 0.0, 0.0, 0.0, 0.11535649954948608, 0.0, 0.0, 0.16078715281979228, -0.040874511131612584], "fitness": 0.5948979591836735, "wins": 583, "games_played": 980}