{"network_id": 0, "w1": [[-0.694966232596973, 0.34133497408712304, 0.11131291212266314, 0.5891155332608174, -0.2104329710884129, 0.4926702240884841, -0.08568836745728459, 0.6853135563585286, 0.06727551421322274, -1.481949254815931, 0.11711299698452862, -0.05347676720157324, -0.2199903449437211, 1.2199955605142867, -0.15886936138755525, -0.3550601896189604, 0.41064454825220953, 0.4201085742545165, 0.4490114023740346, -1.1827381566303012, -0.4561187707248602, -0.3177418895083841, 1.0648493871737157, -0.1254983799697395, 0.1863859306919804, 1.4051868009853172, -0.51994945277662, -0.18946360731019227, 0.5558996543031127, -0.09428173477039686, -1.1713884741052343, -0.8700844999354239, 0.9749342662985906, -0.28588093319462227, 1.2358310304650948, -0.10003728823738287, 0.43506692966645055, -0.18437024256589765, 0.403396974564383, -1.2532423237316537, 0.2718626405861146, -1.0126369829979578, -0.17513516260898251, -0.7367001790286678, -1.4170941718667511, 0.662112138308542, -0.5896070228538453, 0.09672546534762454, 0.4641203932175191, -0.661555696823635, -0.5010231047926645, 0.1950168475023688, -0.620707809735382, 0.4583054505115074, 0.9591940020570855, -0.5142336247053889, 0.9116926210159186, -0.4840043722727552, -0.9577627198496104, 0.34431143558871646, -0.5108657815041616, -0.6412919834682647, 0.4592407355203303, 0.3855791885051366], [-0.7000410078790285, 0.05555595077809233, -0.7135568429110564, 0.7181455728744841, -0.38061561210956946, 0.7171215522424146, -0.2314771613447673, 0.04744559868424103, -0.19355453018486296, 0.17053648917300382, 0.21082097571425118, -0.5010120078594417, -0.9214171404653217, 0.8515313549718201, 0.8062619823161652, -1.1520114577540854, -0.5459881214460478, 0.8374146655665805, -0.8580117146927906, 0.7105857541322728, -0.11200983063122966, -0.22764512518536567, 0.796029530428567, -0.7170730076610881, -1.1801778589736265, 1.9693505208843851, -0.6383971514642753, 0.5864309890329624, -0.5620640781022688, 0.06459492303122673, -0.23174548739935097, 1.219611131540419, -0.5237285959828073, -0.42514905242872536, 1.636590260399371, 1.0141690571833952, -0.7325773129235226, 1.194749619525838, -0.26228764620180506, 0.6157853101835764, -1.1562134940573094, -0.7403369073316688, 0.5147571584655215, -0.9413592425287853, 0.2932185180678946, -0.21666029727304464, 0.9041666099058108, 2.2211892806231592, -0.16404709008084734, -0.27213533668562395, 0.7811900640740461, 0.18928998767717065, 0.07725440090960456, 0.36683361607484893, 0.9374185695558119, 0.23611129863410685, -0.645195311886144, -0.7773847110390517, 0.32275003340452363, -0.6370482207302558, -0.09865922983108932, -0.42164527408713887, -0.9068948706733688, 1.190843369692694], [1.0606447608904483, -1.232131276632727, -1.3744586693317147, 0.7491083717714792, -1.0952825957723826, 0.5059854537941112, -0.3642210797640585, -0.4067827496642441, -0.7294684691642077, -0.19580691039348314, 0.6691583419111973, -0.9355544170308029, -0.3330611443443108, 2.235161774592763, -0.021488030359114133, -0.46169267369021255, -1.149905073585515, 0.30038523094534564, 0.11322761733489417, 0.6530219038839351, -0.32824774523041567, 0.7472311542535973, 0.1512055327071514, 0.10687493251101113, -0.5736585045917302, -0.2836748156442987, 1.5479800029894035, -0.22034889602879354, -0.27179164010153983, 1.1554083673244817, 0.5195312145183664, 0.34572532086149327, -0.8555756203752121, -0.7104403997012456, 0.5057427779845557, -0.1966090638491519, 0.2047201980761012, 0.2716132023556838, -0.6913026275552843, 1.0279814431458782, 0.8266939510872999, -0.33395519311558786, 0.46912582056861485, 1.302807721812446, -0.664308854450719, 1.7013480443816196, 1.6983441258165537, 1.10629390924225, 0.9498018857638268, -0.06111780929323338, -0.7318103188266908, 0.11539432937081134, 1.822857132157318, 0.4853333939661404, -0.04876132581303064, 0.2815241431110533, -0.6470419826426572, 0.2234534889518653, -0.22753981833296694, 0.8644149427759718, -1.1762665222277207, -0.17907020874548638, 0.6165862618702452, -0.1397868841894005], [0.6353144397279078, 2.017127853574088, 0.01252618346186829, 0.2792209377587886, -0.3156883781692338, -0.5806917882827729, -1.0598766413251395, 0.08547675333014479, -0.363650940046791, -1.2498629446574003, 0.6335931976969515, 0.7599910150815807, 1.0402207508936188, 0.13653290670988355, -0.35931021398990726, -2.18737494539146, -0.01137903904911583, 0.6817263563764212, 0.25140456486860674, 0.5440518314041951, -0.7465482340975648, 0.9005139690710305, -0.24783989959482564, 2.2687554263915457, -0.8791568570825716, 1.0984873372309911, 1.1212013698354624, 0.03650468229743211, 1.6146025959482722, -0.5292077420369454, -0.2668878241148593, 0.33653101610421177, 1.0228307101037115, 0.034936104540559176, -1.4454624421617097, 0.36827380111541685, -0.009939326159348408, 0.3851947344986488, -0.22393953452752696, 0.6335098354069467, 0.5829738714105841, -1.4415007127755832, 1.0018917099274949, 1.0096219989350437, -0.5403322422331337, -0.6960941590009793, 1.1694996319877429, 0.0871045817274161, -0.46232843066735985, 0.21197709980724594, -0.4634978359511127, -0.6774185188828588, 1.1407856783760273, -1.609151118998884, -0.11219714511987638, -0.6723772874397415, -0.24157589551949843, -0.22462016430476903, 0.5892034468750285, 0.5549963636897787, 0.6853867574063734, -0.3619591995504117, -0.5937475769154001, 0.30993504633249425], [-0.17822862842035264, -0.5933379145881645, -0.5571825621489468, 0.6087954067860673, 0.01799090035201159, 0.24807452625118465, 1.010836068508107, -0.7513921463824351, -1.7515501338917512, -1.6292256279871025, -1.180221920654491, -0.9965706272052235, -0.3213514602933621, 0.2351725483473559, -1.2406926649354526, -0.051280089121648574, -0.9776749682349315, 0.4305123786678438, -1.1947912801469558, 0.9298524260128449, 0.21568998152223606, 0.4028069501648215, 0.8162724702843777, 0.17078836329927466, -0.16181540164773678, -0.4174825750348209, -0.2666121859041652, -0.19866211785826063, 1.6148494130980209, 0.2557076738005295, 0.5633828395626699, 0.5915697994328409, -1.210219051724391, -0.06550738831386095, -0.6872460412378499, -0.5897490319406612, 0.5678227102807948, 0.5444862098015004, 1.2714459496963189, 0.16321430203150206, -0.3308208251272641, 0.22010591844617186, 0.49336959452975204, -1.0567423995594143, 1.177265337723501, -1.0107045176568696, 0.06302603011233282, 1.9148558594570635, 1.0256655591222013, 0.7680113911975976, 0.7335395000538967, -0.0792553066005412, 0.765822753122067, 1.2529353152185758, -0.6870980014544437, 0.1104999257378268, -1.1789902840065973, 0.6185273686245039, 0.526901708202129, 0.6133956919042298, 1.595656188412714, 0.16863903964546548, 0.9810648826180374, 0.5536074836103242], [0.7059673971194693, 0.926741101021539, 0.14226258669828942, 0.06293772157959605, 0.12414484247150342, -1.957811336312771, -0.37648064547259463, -0.05244581592463421, -0.1015707309818975, -0.7945025944870507, 0.3812963558657179, -0.2656752273143338, 0.24068061213997768, -0.5621339117897682, 0.3817988318894666, -0.38208796819974744, 0.7545283626526129, -1.117825845754224, -1.3561668852237345, 0.10902730291006127, 0.8738001115240261, 0.25580615272153356, 0.5790705864717096, -1.070826956019926, -0.1662659817510292, 0.4254564612741702, -1.6016735937179731, 0.6964069190660236, 0.1656680968708472, -0.3839713640413683, 0.49396763464003934, -0.06351569249616035, -0.4834249275764065, -1.054074668919068, -0.26088555699437815, 0.13809363612822026, -0.7265105898960594, 0.33385278134079194, 0.8915526207321187, -0.36705289099594257, 0.0013448863252235876, 0.32640897854681766, 0.29496382137631516, 0.7295466176825911, 0.3557484272638006, 0.6046003783138638, -0.26254960121484594, -0.20747239080104837, 0.17682370752605936, 0.8310709028840885, -0.03227867715206398, -0.30359709011128144, -0.059755181835182726, 0.8532802483772648, 1.1086959982399829, -0.5579270825261788, 1.0256093928889483, -0.2898897226602765, -0.09021985468109164, 0.18499070674510154, 0.18011921232180195, 0.6127436563073498, 0.5080151878274721, 1.1550075917597624], [-0.4731236357500489, -0.316765272683645, 0.037572620968778704, 1.0230653292420886, -0.5046665011850033, -0.6763969457995362, -0.31272569904558767, 0.9795879497624791, -0.9977223379440079, -0.6722217035655862, -0.6420883488936011, -1.506804086337925, 0.4166215678466293, -1.8771375978720561, -0.5059476891969524, -0.16533350478923137, 0.8731907316701181, -0.9785959024119912, -0.7643186505044072, 0.45154228646485167, -0.25500612610936896, 0.18875736385530234, -0.6911173704794469, -0.9557794996569382, 0.2784664170049703, -1.2368279603811774, -0.6423056250773537, 1.1292431702082872, 1.036843521586403, -0.5659534352979799, -0.06101447196115484, 1.3846192367862828, 0.9169426766666472, -0.6514418632947858, -0.09368838968842513, 0.1790651989306936, -0.7158212828141436, -0.007350915061240693, -0.07519867272888087, -1.7072102697289846, -0.6980457649307796, -0.43236421184007673, -0.6321804782214704, -0.3956557781239912, 0.9006153900972005, -0.08503311035589343, 0.7635950479827592, 2.2214233814172384, -0.27807610624401347, -0.2118860815196886, -1.1188319656474195, 0.33598649434796485, 1.2337140167036078, 0.12073113585199047, -0.5881104392196933, 0.6187956513198114, 0.6536281425738513, -0.27538254066202694, 0.9696110917404589, -1.584163357134534, 0.3723113040677182, 0.5858754615993645, -0.837960253821892, 0.8762138837957933], [-0.8387124472210137, 0.4502229703325483, -0.6653613792533514, 0.2956243273805617, 1.9251778495032963, 1.1993485711955292, 0.3109311600398647, -0.3661041241571222, 0.4489957017563445, -0.022061427159511537, 0.22103880146435229, 2.07514707879455, 0.4862923445290172, -0.8466700313082811, -0.42292482161206346, -0.514514800340641, -0.4304408148053957, 0.044900872054255414, 0.9575774691814167, -0.21027056098631858, 0.09627439910089672, -0.3614421756315053, -0.9153410653016325, 0.4367304671123171, 0.15973856741914483, 0.2691879839345957, -0.47514686759952734, -0.3738979838794798, 0.26657609561050555, 0.7064584409744774, 1.462501415747769, -0.6496310444827386, -0.09716391546705028, 1.201565317972985, 1.051923748202146, -0.42909456113974764, -1.0749080000790527, -0.06587110095027499, 0.5116731705626638, 0.7589896747845906, -0.6242391305199858, 0.041777667039479216, 0.7692781163692497, -1.0062005987371778, -0.3063681983932397, 0.5707696166511682, 0.5611370625087481, -0.8854531241604768, 1.1116722208646816, -1.4528742244729067, 0.3813419724049178, -0.22726834631624454, 0.38743327024475305, 0.685258412785991, -2.13208698154216, 0.4737314623801857, -0.17238126788054253, -1.161199514508536, 0.8185726395441045, 1.4563651518264151, -0.5575523233660754, -0.6955885713663024, -0.735863176863757, 1.6846985109377226], [-0.49718780415320113, -0.5542872233439728, -0.1988911115211936, 0.417781131720405, 0.7245109024714299, -2.1068084579907977, 1.0188128051732679, 0.6220189124857447, 1.3052510418098717, -1.2931491726355302, -0.2930893123565469, -0.4701718498759316, 0.22189011938839834, -1.3445116353638573, 1.7132553499578715, 0.3574783653411219, 0.359245642448372, -0.9231505101283548, 0.5166373772114508, 1.2983674428408887, -0.07248588496555408, -0.869688893599524, -0.5854339841888754, 0.2136820390209876, -0.4572070335293487, 0.40533535794768566, 1.0597140697162466, 0.4736828684842951, -0.375644934218906, -0.3093760509269353, -0.1985576047697283, 0.9642597283363156, 0.17369576035177695, -0.3910455873781135, 0.36167586587145123, 0.5855373109492139, -0.9022114518471941, 0.28187797960115435, 0.08443537985897041, 0.2829063193076452, 0.6147372996162003, -1.029121132469494, 1.6404598863388056, -0.681327959418086, -0.26032456462330333, -0.8205590602873452, -0.34819707961772844, 0.7941355721786396, 0.9901615397591378, 0.8022768027512441, 1.2744814643471625, 0.5123525394992858, 0.6513667669101872, -0.13544240234846705, 1.79425221614309, 0.1398943566730645, -0.49627815764316685, 0.5478914703350537, -1.3599862671935428, 0.8100643924347686, -0.6468395897976927, -0.13292954536085652, 1.177312812897762, -0.6437707665024567], [-1.2169992928113869, -0.585594474885808, 0.36557085888290936, -0.3121508182199444, 0.720478945967446, 0.7213992438222344, 0.9591714973779233, 1.088743985899284, -0.09053760238115705, -0.519973478565223, -0.43554081609811657, 0.062465611937540716, -0.7870789761901023, 0.14535423514495155, 0.0972189817469134, -1.3939963172553118, 0.2761497629578247, 0.20756592809529645, -0.9558455141136253, -0.287265462420619, 1.1009074382006343, 0.3577608128626461, 0.09432745551899999, 0.3470794830711329, -0.33708506143999456, 0.48376898541861524, 0.5336308089167047, -0.553882327867854, -0.6328330472196366, 0.14836208312925123, -1.0363947291395974, 0.23762835986820785, 0.17800685188045726, 0.4476461443362818, -1.5663961355664076, -0.31716334108570327, -0.9538665274457556, -0.19201708174231272, 0.12117734938970359, 1.8516558345113185, 0.28958014804343674, 0.49842853315211866, -0.8547801774173391, 0.9746569113000387, 0.6699729083300872, 0.019652027199559968, -0.4075978619140373, -0.27953370837945135, 0.3167731361904997, 0.2916007566006396, 0.5512195798629097, -0.003962122462632223, 0.42257306931478505, 0.0855878987440894, -0.20005272969143692, -0.3346236323001209, -0.3552382319608273, 1.697292577742293, -0.5421999567987111, -1.4798180793837943, 0.05839625881502425, -0.06226455048348023, -0.7396646827565317, 0.28252996115727436], [0.7294236002462989, -0.36031573417971546, -0.4365872270549087, 0.07162824430121627, -0.22000948734009426, 0.09461718377813912, -0.6292504593693474, 2.607761957060874, -0.5361232670080813, 1.734126606282118, 0.09906872963487895, 0.5004391683044563, -0.6405360082235736, -0.6632548291672764, -0.31901337509967614, -0.57630222582045, 0.9200811061900058, 0.6076907698729336, 1.1176234486689414, 0.29459735801272746, 0.7788902283667773, 0.2703301925528096, 0.0656242917125389, -0.7289966821080485, 1.3337740569017347, 0.28642213128342736, 0.04290789126542832, 0.37070777241977965, 0.6325245605639853, -0.43956606787594404, 0.36740794274177097, -0.24194976418757316, -0.15258422908790878, 0.08061781573192028, -1.6012610613547458, -0.9388557299594904, -0.3136936615330507, 0.6267080408061477, -0.15630093891783792, -1.0151320863904159, 1.1372326004280422, -0.6449186024578691, 0.7539444591631776, -0.1320225311585841, 0.18926503526073024, 0.42721095424899147, -0.1544457651156006, 0.45919980626860446, 0.3361730340530583, 0.948205806005334, -0.29205341504531673, 1.1442678342356203, -0.03576814375076426, 0.7869553666751268, 0.660766276006326, -0.6106317497433282, 0.546453732538533, 1.0621190124367852, -0.7874061380639996, -0.06859907758319436, 0.34496370188780734, 1.3184872915996353, -0.41746124998898876, -0.4335570597949978]], "b1": [-0.5821343200003524, -0.2611862964813576, 0.019164020500227447, 0.2978465354961755, 0.07427300971997375, -0.8224769180938467, 0.5453093258862917, -0.4184027002810083, -0.9657680879772643, -0.7285540223123154, -0.501817754073157, -0.786228471742482, 0.06420086802581274, -0.38265496282850286, 0.43320439585585646, 0.2529997265632744, -0.43324674906381516, 0.6537968479728584, -0.7225750628197626, 0.13715913955205059, -0.7258082563599383, -1.6192481042305877, 0.009813981700219979, -0.9406671919445128, -0.004862696193209781, -0.4804395824460733, -0.5665991233346, 0.6094283133800908, 0.3686077975277989, -0.2032119866540487, 0.0628673890362699, -1.3875430257907284, 0.559095309961199, 0.4045369757846988, -0.7008185401309182, 0.35475044286995494, -0.3478782769943697, -0.3543356611068228, -0.1875324714938238, -0.38301687384328664, -0.29052635927837034, 0.3898665356732619, -0.34237337442529525, -0.03500446982798464, -0.04185802059646625, -0.007351562676545714, -0.0591192542666213, 0.9822334106459257, 0.6735894796391652, 0.5770926477992955, 0.025790443824860704, -0.7565401995632854, 0.6400401252438275, -0.3320831755117797, 0.9407427226919085, 0.6390678685860325, -0.20820853201414255, -0.32701705338871967, -0.18559854568503154, 0.04687373875537129, 0.6372048352336459, -0.5635351274454037, 0.9304819228444172, 2.271540952305343], "w2": [[0.23281067484909768, -0.10410246412196208, -0.04857939646564344, 0.7631149677849252, -0.1351557878057013, -1.3954213427364788, -0.28868239872159124, 0.9947240982840815, 0.6597732008979265, -0.2083020859083815, 0.7555413486108734, 0.6269255839092269, -0.04838218566378588, -0.530442423618305, -1.3331158899159854, -0.11935571468133296], [-0.3827430996288293, 1.4706669060111628, 0.43810521547273457, 0.04079838126666199, -0.026621801820372465, -0.614883774816803, 0.48026312499123436, 0.352062748929106, 0.4159681730281696, 0.03255044904176263, -0.16644368323884973, 0.08045453468313196, -1.1005123555050333, 0.7534329169580449, 0.7051455347222463, -0.11240852269353627], [-0.3956846395936481, 0.12696359542820357, 0.7955481775425872, 0.25439116010439256, -0.19613885770435746, 0.5904791572634386, -0.632497108238377, 0.33061093028342714, 0.7237158199645208, 0.10744341584686387, 0.3624746081658462, 0.4898590146216827, 0.13275726803280946, -0.649448126763577, -0.7438098703777623, -1.25192203054262], [0.14169052832251525, 0.3196970272706308, 1.0620618702901732, 0.08501489561461617, -1.1143383648571694, -0.28924214135660886, 0.45667200215337206, 0.4419716702068519, 0.4298787988776098, 0.8542701910586459, -0.6389284174654153, 0.8391753709326859, 0.8053158907820641, -0.818492274367526, -0.6585055626546229, -0.379818329349053], [-0.7337778114622437, 0.3131716705686389, 0.06443067655972079, 0.11004501039494086, -0.5516896066610636, 0.8831911889103403, -0.4888591981430531, 0.027247464031764403, -0.2003536688864871, -0.038718341303536505, -1.3420358388018947, -0.09086898918041247, -0.4326930552732109, -0.7109924130385115, 0.2593734016614496, 0.32986653061486726], [-0.24081591049366938, -0.7250226117535841, -0.2894230696142565, -0.22487091967868866, -0.9064713714503344, 0.30370182784129485, -0.6496347810544536, -0.3560685475460238, -0.5504603426669847, 0.5753041323931237, -0.11681604339845493, 0.7541750097916902, 0.4545833904339639, -0.4555418117340375, -0.8573864665079928, -0.6696538725660524], [-0.08430714665196248, -0.3168594125591608, 0.9661941825650354, 0.7676469936921362, 0.8561102337328605, -0.131804655432746, 0.37320383804546964, 0.6554616967143811, 1.13805262057413, 0.3813912818694668, 0.8602528737875054, -0.025894874451875147, 0.1532762097142046, -0.3508616168366422, -0.5351424012576727, 1.1356718438635147], [0.509910911568758, -1.4290566736105974, -0.5701411585544824, -0.6879106513384745, -0.7101582932515792, 0.8212282071154815, 0.6804828283154307, -0.5500236569900433, 0.4491034244229593, 0.06314376829051405, -0.0898920318835213, 0.9085701462595188, 0.07412769475573011, -0.3443177236826689, 0.02005534255449537, -0.3972313418434879], [1.5720336002142248, -0.7942441320787048, 0.07461179222872992, -0.015286586499125628, 0.4903412731607811, 0.9305363708076893, -0.8823640188280962, -0.6222358548078712, 0.5891616880036419, -0.8348841550699193, 0.8906535291910587, -0.6176394048870512, -0.7443506082512623, -0.7957055721871429, -0.23614501639308702, 1.239048273682243], [-0.08474187296661079, -0.15179189471087773, 1.4448480085293887, -0.2868073496162157, 0.010271618764915558, -0.13000684293881373, 1.1499762854962086, 0.010757658030732253, -0.8667203052437906, -1.8071455802427807, 0.8031839931156612, 0.3307985435830935, -0.8652570075282162, -0.8478668476673649, 0.816731543877005, -0.7591491060778268], [0.4943921065667876, 0.21168502147487156, -0.6387646225882753, -0.423935065645485, 0.8349569598807934, -0.7486835117248476, -0.5568260434291954, -0.735912848898607, -0.9026965575126371, -0.7868206477394117, -0.7290068746988002, -0.9663266877182343, 0.5978582628847735, -0.7526961688689444, -0.0852926553727846, -0.3178206867213283], [-1.4895701246031705, 0.5471823684358625, -0.5826126326429653, 0.24792492406890024, -1.181007439953767, 0.24001917599519032, -0.21202135542251088, -0.28327493144314153, -1.1219760819085616, 0.3611033378268919, 0.41361784456627326, 1.0707739385981503, 0.11914884385089644, 0.2640594805788333, 0.05068198048655942, 0.3376814713319199], [-0.9491089545492635, -0.06545763950992933, -0.15934792672032702, 0.921317478399378, 0.8909395319630913, 0.16368080336730065, 0.04376006962220769, -0.21000846239215842, 0.5453916379075838, -0.4031595418667329, 0.5599324402428388, -1.3835479144078662, -1.0207455215626433, -1.0874918703046905, 1.0111766879166675, 0.3895305127019295], [-1.7255985167716406, -0.9013193682954259, 0.1684881220075684, 1.520134230104219, 0.3248077316700896, -0.6686482097587934, 1.4030058750723708, 0.2271410745253332, 0.14769664674440525, 0.10802669271377667, 0.7097054038918134, 0.2776533784970098, 0.35193376573317126, 0.768718059815459, 0.7277638157698929, -0.29452061589563705], [0.22576998674840487, 0.8341057108989227, 0.13167339977667286, -0.22343177385101443, -1.1226974893183865, 0.8026124378744203, 0.11216484872391719, 0.5199988221815548, -0.3261435637739118, -0.37835919346561764, 0.8993417411571512, -0.47588994615794433, -0.24696311886759312, -0.3598311766041844, 0.1324356669690932, -0.2274380505475577], [-0.06646038503117506, 0.10811019356933703, -0.18604545389932667, -0.5915658827650332, 0.03221329597054634, -0.4854346635709171, -0.11483136207096709, -0.14323773351674904, 0.8107824162577891, 0.15015297066220445, -0.21233889680490992, -0.04669824762325514, 0.23006653274304406, -0.022208680040609934, 0.325750015666594, -1.230658694312968], [0.41578302258444466, -0.3153577257765738, -0.14119903736595746, 0.8968522142138672, -0.13847304044839776, 0.22002948221510849, 0.9147605134434291, -0.3328075602365498, 0.16978615943696418, -0.23370475720544892, 0.8174035822963238, 0.45459908577759267, -0.1676325464271527, 0.006157505492742521, -1.230371586733301, -0.17202588830872206], [0.2820599332364392, 0.1754549715721056, 0.20116571646908377, -0.679002459380201, 0.37393458835940235, -0.05449609665665667, 0.7091735254625126, -0.17951079369396342, -0.36323662193814527, 0.9771536259714202, 0.210007804788274, 0.9650758072976156, 0.9076203601403623, -0.7021297032867776, 0.4194493812964013, 1.1403074879037811], [0.7253608474324603, -0.5827370689617135, -0.2404488970953358, 0.16599860709345016, -0.09944285170940892, -0.4662147573195253, -0.25943855323286374, 0.29221994214933067, -0.15817654991128532, -0.3084479095132199, 0.42257265249014786, 0.29455909886516846, 0.9265526484009858, -0.0201124017106058, 0.21485433356567596, 0.0762311616309576], [0.5224510620575269, -0.2978548356116862, 0.17339745601816078, -0.6528957383594103, -0.04234401450740779, 0.2501418622289859, -0.5436826045976785, -0.3474862671627892, 0.7060921228465697, 1.5066875585232682, -0.7416430491794987, 0.3236308502243723, 0.9012049310435053, -0.34588007307089, 0.4797403223677868, -0.19297861901389657], [-0.80002416362093, -0.32655388132373453, -0.18799617217763354, 0.2345337872962083, 1.4942852898775039, 0.4642325063100282, -0.17369387154489818, -0.18109854848252321, 0.3984301573163626, -0.46602764741527036, 0.6573102213828019, 0.9423745736578715, 0.28535186239591964, -0.21035895584254227, -0.23514245759821528, -1.0691548744501735], [-0.202342172453999, 1.3602851222366108, 0.11719516949418847, -0.6472983894263414, 0.6385423729819125, 0.35603175512798546, -0.8163076298605317, 0.03093760505994833, -0.8240045639208716, 0.24756420154527675, -0.2518465986816628, 0.2618693016733671, -0.03800424629184562, 0.10178635759195881, -0.11229949935270225, -0.5677385491669125], [0.0651078214896359, -0.10473782910846297, 0.17171956738413213, 0.7031400842151685, 0.3687141470693715, 0.7469071574525681, 1.0452315112609347, -0.34285377462249034, 0.07762017191178086, -0.25705260307294775, -0.017406563172087594, 0.3757030578520766, -0.7132545906352481, -0.030685502427167624, 0.1290164702692495, 0.09950586441683974], [-0.08224129701758595, 0.2545789643686256, 0.5265156102268633, 0.812271556076769, -0.24757702933718084, -0.7765996422032306, -0.33508516157019913, 0.9453533470580078, -0.03931010321010961, -0.32244664124823125, 0.03326573855803994, -0.2753914481432585, -0.06733220374113436, -0.006324814112218788, -0.63883375751124, -0.1545850445164173], [0.1722532009484453, 0.28021632745162095, -0.9183072670270642, 0.10165431439177552, -0.04711637618493214, -0.5332878871596196, 0.7251102737177479, 0.998298934319975, 0.31484973750421497, -0.19193774004442354, -0.12084694891601205, -0.3110839155054512, 0.5787515139722625, 0.05323969941146975, -0.19995759966015197, 1.1032638929969811], [0.3104965571553961, 0.09083734809132973, 0.17850175910827565, 0.1900487301406796, 0.24500150371864216, 0.675535479666531, -0.06792625209315462, 0.38706581041973404, -0.3635014456361375, 0.3550657159937982, 0.0873234236180134, -0.6523676183365481, -0.4723785477988409, -0.345195640850371, -1.0169301296439253, 0.6345748828962221], [0.4865441630836516, 0.4000946833245921, -1.4330465798969396, -0.06382106163189735, -0.9068255335035582, -0.02232184271215082, -0.6930297178494271, -0.17211876751235317, 0.3704870853660276, -0.2255625317141082, -0.14044247066900606, 0.9492070057957492, -0.2747220688952545, 0.49473114592422307, 0.19914667253475984, 0.4172603727645432], [0.2817372597561209, -0.36628658920313684, 0.2902611315764514, -0.01005882913376055, -0.5768304201103291, 0.15333693703742066, -0.6458161651003415, -1.021686150299261, 0.2852514004570673, -0.05569266783896798, -0.7554709638286673, -0.851910619626919, 0.3724154336508101, 0.05909884913086064, -0.44160980401344746, -0.07299777736795833], [-0.5945306593566636, -2.5719149973497113, 0.41326667363046415, 0.3297678162365097, -0.7627437265480551, -0.5027947381726964, 0.4123563273514208, -0.3190727565701019, 0.2818034685064871, 0.1411601596469613, -0.3892157608539539, 0.7342696569379632, 0.18013018618253385, -0.43140117197371497, 0.018245099926178683, 0.031254559882794006], [0.24021838106595766, 0.7281460614506547, 1.0451814929244319, -1.2259870193921578, 0.29729822776642945, -0.7589159868107607, 0.015186738850056475, -0.8309399215516025, -0.3751483620192416, 0.43617044346665224, -0.08048457518565455, -0.12558350850572914, 0.14403354925089495, -0.6174406920760758, -0.22702070167494537, -0.016956509588321927], [-0.34986081072601055, 0.38800879873712557, 0.5189768024014241, -0.16639174355932784, 1.1086401665559569, 0.6917572621334731, -1.027376794450429, -0.04270334666644204, -0.5471409366107198, 0.3746225385447482, -0.8061489043083828, -0.9303806191714961, 0.44610653361631825, -0.8282903311251056, 0.8029963038537334, 0.8971889989480814], [0.6196797286946986, -0.5242932653335151, -0.4555374647592078, 0.04728459221756959, 0.5228791146695326, -0.09561967009436959, 0.3438925050129297, 0.5917000309325984, 0.6239199878576388, 1.157438786509008, -0.8762276336209303, -1.1963585031210564, -0.7266821646721091, 0.38768419693939304, 0.26311721339759087, -0.47710969011006976], [0.4601044087859989, 0.0005907888140299355, 0.08643178682092617, -0.30458262399644015, 0.9020008758312179, -0.16512470708190963, 0.24995271722671708, 0.7085970780888584, -0.05469775448092176, 0.2516116314389103, 0.9529410057491229, -0.023771012708091732, -0.285244154325872, 0.4318812270313668, 0.19722857391472653, -0.17997866706304871], [-0.5605627670619852, 0.2666846700991202, 0.3973200409598205, 0.4732101993490843, 0.5020259412967377, 0.24693676254758246, -0.9312610285248257, 0.9460668086299318, -1.196150479227371, -0.8933763188153027, 0.7313705288945873, 0.26123336156889554, -0.7183346680860297, -0.37372989724497296, 0.38999690349245586, 0.18540431549877232], [-0.7008103793372309, 0.6674233119484987, 0.5996304270474293, 0.8228938794826248, -0.3272264813431657, 0.5590257457294153, 0.15262747428458362, -0.5997827323053819, -0.17374027132278552, 0.4058021554561, -1.1098747271504583, 0.3845879883928204, -0.871803359673128, 0.5895860736470456, 0.5546117877095376, 0.5832909136321694], [0.03630080646286121, -0.15690328932011516, -0.5705025446611851, -0.5541436737933522, 0.5959266920186986, -0.46329616491056613, 0.18615407222433467, -0.810075742289885, -0.19656872882440865, -0.47446947632542624, -0.43633334334365714, -0.5966588366495721, 0.46863020312914955, -0.5737906162363965, -1.7462436580898286, -0.4407903356444475], [0.2746916924640553, 0.3655702760775767, 0.26683012697219466, 1.2866202912651303, 0.5145464324504792, -0.2825552637317497, 0.00765465648484516, 0.4446739071846062, -0.3447305119634968, -0.10204413549719582, -0.03066091914462246, -0.13806803763430572, 0.06451435669575044, -0.3143804918787661, -1.0927424849680618, -0.053169389880308254], [-0.8218223127239851, -0.39717412814343384, 1.0736591754053173, 1.2428418719620344, 0.15202152704579508, 0.11829213774955392, 0.26986460750868163, -0.4031421064759562, 0.5454683824922549, 0.2705947783129979, -0.15074718175573465, 0.3368716530820939, -0.48969798429881, -0.3408065823764066, 0.11968897580607253, -0.12420719800325884], [-0.5503346061098353, -0.35802013029534774, -0.9074700131404104, -0.11239946669037566, -0.620617519096812, -0.4622669455884427, -0.3415499911799876, 0.8770963227826721, 0.6875165397075453, -0.2082645247854651, 0.9563727161159852, 0.44149437522927515, -0.5121980959391597, 0.3050960914460393, -0.09705742626445635, 0.07076465196853354], [2.0095969892857917, 0.00944000510556614, -0.1233724165690746, -0.3434053112734112, 0.3104826171462502, 0.3943235108484037, 0.39562512080709444, -0.03672768894668382, -0.6440329168060436, 0.8219051951130474, -0.32168019885152077, -1.4076460465106044, -0.9839914520834236, -0.2280701758321324, 0.07262927385506407, 0.33686321088614407], [-0.710299805934496, 0.6926315151849947, -1.4142716816486378, 0.4326673148412602, -0.10472668156970855, 0.5828406638668623, 0.263527990594595, -0.2649268608340447, -0.8538887637361903, 1.1088310018334508, -0.6841511110721602, -0.03258640546135193, 0.04292295657132389, -0.8920020337978535, -0.3370180348134728, -0.52072982148709], [-0.22180620892416908, 1.043344616957937, 0.28794664396872227, 0.2703056271745315, 0.12949868799039155, 0.2622797336104519, -0.14103709313437515, 0.9159597227101641, -0.9041325121187646, -1.4262470683872397, 0.18955348114844983, 0.3888195994114486, -0.782378555553189, -0.2612144962951545, -1.203529826138044, 0.3055218747780779], [0.6216301121533488, -1.6591296692450535, 0.48021918174513, 0.13497834831872757, -0.18752445817137747, -1.0126191201575243, -0.2688180765461803, -1.3293288806067758, 1.161292316001184, 0.10676784538979006, -0.47134604844619066, 1.0486661365725247, 0.4128034865899993, -0.8395491407530207, -0.8307652801960561, -0.5983016002410565], [-0.6140972386127349, 0.13997490645232574, -0.6493274102564423, 0.34681116491350683, 0.47591689977630247, -0.05216707333749929, -0.14492368476853357, -0.33400541129894545, -0.0316520139072021, 0.5254452946677376, -1.050255710752056, 0.21365872000491548, 0.40652999004380796, 0.8000173383171915, 0.10058623934813776, 0.4645789894257697], [0.07741500389208533, 1.686428291188281, 1.7260230961464096, -0.0765259935977679, -0.16824402597074523, -0.2508841077616063, -0.5754010963462491, 0.8430118361135601, 0.2971073718614562, 0.18549441663968436, 0.3163792799148545, 0.09195989298789733, 0.40523270642060577, 0.30856118817426437, 0.2847283043560572, -0.1261783485772292], [-0.35675057921540587, 0.14044787238537404, -0.3981261543869383, -0.14627829351676108, 0.10234993440856105, -0.9770067414359239, -0.060081651211039644, -0.13844717692298883, 0.9174058854114143, 1.1188415748037306, -0.8877910346420139, -0.2887649394987963, -0.5622138773175092, -0.08925106230715818, -0.3337708830833223, -0.17198025006104511], [-0.5384249973563913, -0.5659711793550317, -0.2629413005048433, 0.02257421980490079, 0.2375419420149909, -0.22371927653733592, -0.9792557849714436, 0.07857511557312513, 0.053242341275474336, -0.3952573265547442, -0.8904650109795256, 1.1499268848744824, -0.24592945704575092, 1.4503828816704847, -0.3076712202891409, 0.08261926547344711], [0.21195099685528884, 0.006963397005031402, 0.08907361001166637, -0.6685876963970707, 0.5311482920397423, -1.1590063471070682, -0.8870102527386475, -0.13621774794171104, 0.7869674378688973, 0.13695421584417541, 0.06938790650379598, 0.5316937913978839, 0.07761554549142224, 0.5782645722537496, 0.17275228321021496, -0.8237214116934322], [0.40719018977555477, 0.6373854101191305, -0.303343897026703, 0.21076841591442683, 1.3999332332960819, 0.393716652205109, 1.1102343972216644, -0.8495763434618835, 0.7743556723021177, 0.5757851806825611, -0.2823400478314308, 1.2874243833509862, -0.027451855429523275, 0.33877552677984213, -0.2389796657487553, 0.02405637933242305], [-0.8491874135502239, -0.2568186475338731, -0.6256164398926574, 0.31714199817276806, -0.4489702416493507, 0.31984642694027055, 1.421448944648319, -0.7814110112443883, 1.047003881783418, 0.7978419177139424, 1.205929004744027, 0.14354658050946253, -0.5664770538040166, 0.020039957065299395, -0.5689574743009822, 0.4417822467703628], [-0.3175442663009601, 0.3219780340178485, -0.3209983980001342, 0.17469062880763953, -0.7515537310987468, -0.2514608141010478, -0.6730317831956495, 0.17622845461864417, 0.7752598030226326, -1.5625730601657164, 0.3085522770042268, -0.28417357620952516, -0.3311717581473434, -1.2048950192635677, 1.1471531526909942, 0.5719438371293586], [-0.1560793871637885, -1.6086670071758693, 1.9082269502764335, -0.2102147116339065, 0.4749038838495896, -0.2617941374473822, -0.3214557529195506, -0.7540003934870594, 1.0254471160641947, 0.046167408535210175, -0.4041075321102401, -0.10348632750399461, -0.4097657678116027, -0.14711331427805716, 0.3697579177418139, 0.30821533863286804], [-0.6147204785235121, -0.6014821704705261, 0.01859178399875344, -0.09853815539398075, 0.4597357821342817, 0.10707356114568845, -0.05419481779546986, -1.2007123968179598, 0.22585231752571572, -0.44996881749889334, 0.13854205586424367, 0.9304586891299125, 0.5324902030624815, 0.42255214535673147, -0.9747130390154733, -0.28355532436886094], [1.474569985853562, 0.34986923343787657, -0.018060182425291726, 0.5186701415039684, 0.10169779177594501, 0.18025512070433772, 0.8608746181059515, 0.7741512374818416, -1.1330149102228222, 1.0868133967747242, -0.9281816017543609, 1.2452259934098031, -0.09328308165354376, 0.8674037123967776, -1.2481854638809553, 0.3664624531865225], [-0.366610785057003, -0.22671685900487834, -0.8110127632228585, -0.06574993530856407, 0.2583812111333039, 0.7566047189131958, 0.7615589127790512, -0.285852128319199, 0.8016659312697665, -0.05808925206981494, 0.4765789018145212, 0.7105062359969492, 0.18061737451059717, -1.1692101094034377, 0.7892676047456989, -0.5155053814452668], [0.09864285681029249, 0.5428911108715762, -0.733866815848701, -0.8631290642747251, 0.7079046794346088, 0.10915128073668742, 0.910960449021065, 0.6077324710955859, -1.8801914788858722, 0.6532415578544422, -0.18212014803748133, -0.438982402460357, -0.025627622979641607, -0.6777524621813711, -0.3348432252816396, -0.6102169695670691], [0.9961014709536351, -0.46176203320350373, -0.4910304183263681, 0.23819442132504967, -0.4396228437392839, 0.4350321061451592, 0.584584913734319, 0.2133491587949227, 0.3902875927649524, -0.3677475733641234, 0.3549329860379591, 0.14810850497377512, -0.9140338740205599, 0.06534405306071288, 0.3554797167042256, -0.167713072891231], [-0.03610156281874588, 0.01802956156196417, 0.31857433037024857, 1.0055781124062686, 0.24935198237194833, -0.21706610348273894, -0.4479290649261605, 1.0223403268798843, -0.2858781285283232, 0.6814029404752494, -0.6389970378079719, 2.449461159874568, 0.09859898291212077, 0.1833441298085453, -0.8885318835102423, 1.2662669704653728], [-0.4695785024081244, -0.39611750335962004, 0.033547653801306254, -0.1529458304938497, 0.30516841871040673, 0.5258304603751562, 0.19788089737334827, -0.22670600612183042, -0.900966067462337, -1.2884123769538682, -0.8358558227581467, -0.6549362767432757, 0.9222567468616546, 0.27149337330692097, 0.15068366791703464, 0.30470188539970144], [-0.5499056596060884, -0.402949451514409, 0.4693844560913961, 0.014217321117850528, -0.7087371406239923, -0.14983419533201467, 0.5403839078520898, -0.592372554705566, 0.8390186571997416, -0.46262122782191445, 0.6700960547378265, -1.3090147984782865, 0.04399437646089063, 0.36360036595056094, 0.5134750180879185, 0.6002695747311881], [0.631414068786803, -0.9891157460579507, 0.11736991395105827, -0.900213591946557, 0.7022378750339855, -1.0480183827134648, -0.7207050836899265, -1.0931131651673014, -0.10083672410232075, -0.49044315247608766, -0.7398077508325428, -0.3033391424641483, 0.04509594349187784, 0.09031147048576948, -0.12839600793302428, -0.9150721944539721], [-0.2749045127760033, 1.0264454842021655, -0.8113889483656327, -1.0854942481465963, -0.632971388929271, -0.3382465182551895, -0.015272497013321507, -1.12225288352103, -1.1053524836098605, -0.3554579949243498, -0.9734715773147545, 1.1193902352164213, 0.19332289352189935, 0.4898346332270339, -1.3560163250974417, 0.22188972487950454], [0.3825322452641583, 0.38659747526323346, -1.833591805245647, 0.1903736636577662, -0.3983063521989527, -0.3749021859749493, 0.3304647559772784, -0.5584031199204127, 0.4077291863110849, -0.8591075796897594, 0.6782647523207033, -0.7098805014295001, 0.24047699132731265, 0.006393049777092041, 0.5773899589026242, 0.5457991323618279], [-1.1699536741016918, -0.24107913105970724, 0.4904277300118868, -1.1813845372633676, -0.18188902426260786, -0.4880217775696417, 0.4779221055133662, 0.36900794539516046, 0.20738201606472895, -0.6155492590636513, -0.18006411920878693, 1.1647425601662478, 0.42461251386033844, 0.1736917598837417, -0.12226281065318616, -0.056409313641072545]], "b2": [0.4033565080328742, 0.7240065315510278, -0.7449980767091366, -0.45975752680747173, -0.26060679391891284, -2.2427549682443075, 0.4209828099169061, -0.07645339024608265, 0.3037272742921776, -0.2915541144869206, 0.8457575414901081, -0.8706344057327595, 1.4709223460401044, -0.9294818701560426, 0.4269699180101839, 1.3929338614041158], "fitness": 0.6081632653061224, "wins": 596, "games_played": 980}