{"network_id": 14, "w1": [[-0.694966232596973, 0.9914357410588794, 0.11131291212266314, -0.06414939670659095, -0.18969879489662672, 0.4926702240884841, -0.08568836745728459, 0.8825419350869101, 0.06727551421322274, -1.7668652549714046, 0.11711299698452862, -0.07550971613089814, 0.2564104925582771, 1.2199955605142867, -0.45697689664076946, -0.8312146510284182, 0.3123396850141591, 0.3945040399087201, 0.4490114023740346, -1.1827381566303012, -0.4561187707248602, -0.24821480392936873, 0.8587773000901157, -0.7020313147774979, 0.06568456857787282, 1.8855581643945358, -0.6758276106298124, -0.18946360731019227, 0.7249349961204461, 0.2063213379001052, -0.529068659329358, -0.8700844999354239, 1.1196273756154014, -0.03806570550589766, 1.2358310304650948, 0.11317993514099509, 0.4636674921863604, -0.898096110649833, 0.403396974564383, -1.3205082971517692, 0.5522108737929292, -1.0126369829979578, -0.05578927860725212, -0.7367001790286678, -1.2990964249777992, 1.337441594338233, -0.4626724186391645, -0.14433881546720786, 0.4641203932175191, -0.661555696823635, -1.2191750843428042, 0.1950168475023688, -1.0608835749426513, -0.5377995601738478, 0.9591940020570855, -0.40172281322718717, 0.5579540430353188, -0.7023478715123284, -0.8955857240578594, 0.533267136567352, -0.18832571013055216, -0.6412919834682647, 0.49801627401479903, 0.26811320067498967], [-0.7000410078790285, 0.9791329737851584, -1.2042107123275478, 0.9923142511304023, -0.38061561210956946, 1.0201031906212106, 0.02083088192392968, 0.6747422421639099, 0.04688730623792983, 0.17053648917300382, 0.22792477927627808, -0.0851218185585278, -0.9214171404653217, 0.3227899597673073, 0.8062619823161652, -0.39990822210340693, -0.7593569629312501, 0.5290003533899024, -0.6539992550345433, 0.7105857541322728, -0.11200983063122966, 0.11608870941410943, 0.9975389104557795, -1.710032917970162, -1.3233590119894671, 2.4137454920909387, -1.0218658487696242, 0.8621614693371649, -0.5620640781022688, -0.4558070056272858, -0.23174548739935097, 1.0584516766636758, -1.0499506679309951, -0.21635590453042752, 1.6302744646244112, 1.0437732174458376, -1.6870455087538865, 1.3934735278957826, -0.26228764620180506, 0.5237300108349143, -1.492534351017131, -0.3660185150610967, 0.46459907765064606, -0.9413592425287853, 0.13445332390089493, -0.1627004057050805, 0.8629201968090119, 2.3132676308167675, -0.16404709008084734, 0.2393617028396203, 1.4062505741502336, 0.18928998767717065, 0.3400504528722351, 0.1204076615433062, 0.6878792291315, 0.2680865317414103, -0.3506780341377526, -1.5512596054530026, 0.561967670289151, -0.7034155583942762, 0.2308962645903077, -0.42164527408713887, -0.9068948706733688, 1.5026805629003888], [0.5276702879621376, -1.232131276632727, -1.6690624533712128, 0.5266363834135217, -1.8170286384003544, 0.7023516661545187, -0.3642210797640585, 0.4173218548409972, -0.4210210309328535, 0.32489811236499194, 0.10161255301705693, -1.1732280771414827, -0.3330611443443108, 2.235161774592763, -0.17531706647426687, -0.7491099576530709, -0.7651679744157629, -0.16161168602515225, 0.11322761733489417, 1.0926206942543915, -0.9502377860349663, 0.6039333685509471, 0.1512055327071514, 0.10687493251101113, -1.4585784523524, -1.1262711219470347, 0.2806989796207965, -0.4066138611470382, -0.27179164010153983, 1.229889145685772, 0.03525339463552343, 0.29037081387550684, -0.8555756203752121, 0.18393956417930607, 0.5057427779845557, -0.30670559912033546, -0.28925720134005245, 0.5618707153701621, -0.4989488404550475, 0.8532930541046686, 1.2007936387316844, -0.051577929953223356, 0.6536785664916156, 1.031972886169267, -0.4652628445540459, 2.1028651191042655, 1.6983441258165537, 0.578097358490252, 0.6470225681249819, -0.06111780929323338, -0.7318103188266908, -0.07691185019563226, 1.7472240437277295, 0.4853333939661404, -0.4717607209949155, 0.4889028292744213, -1.081063298829876, 0.40191665539326016, 0.3192401449653064, 0.8272692689305017, -2.0747102080483852, -0.8250935556998353, 0.6165862618702452, -0.1368846769634547], [0.34349947583745255, 1.7253867034772927, 0.01252618346186829, 0.2792209377587886, -0.04524235459023035, -0.16748547074711823, -0.8909608802011754, 0.08547675333014479, -0.49262725664842494, -1.5300215625370446, 0.6335931976969515, 0.7123380112930598, 1.1832940524334372, 0.13653290670988355, -0.9892938372598272, -1.6231302591695802, 0.046273698243082695, 0.07692437772880184, -0.6312448041921983, 0.2572618992294361, -0.9117110310550409, 1.302259360151118, -0.3610521271185257, 2.0028690729651526, -0.8878531203607618, 1.2556096283005174, 0.9440068801279162, -0.4125470189201363, 1.6936332288501204, -0.5292077420369454, -1.1937479343533322, 0.33653101610421177, 0.23411901486762726, 0.034936104540559176, -1.4454624421617097, 0.36827380111541685, -0.009939326159348408, 0.6068708561598074, -0.6483821715768314, -0.35126732477840233, 0.36475957606103515, -0.9985939075492078, 1.0018917099274949, 0.6549154367217624, -0.5403322422331337, -0.6960941590009793, 1.9125734571594304, 0.04551889363214717, -0.2660528414063569, 0.21197709980724594, -0.42973061743476293, -0.7480998965440163, 1.1384801266740305, -1.0827681819358466, 0.3324845632996195, -0.6421530986940653, -0.24157589551949843, -0.7939468461096679, 1.0233473350992563, 0.14204330099988532, 0.9123979165707947, -0.33314368858386745, -0.4508596846033506, 0.356595406988304], [0.11443856432215516, -0.41836210145936387, -0.5000716788055065, 0.7611251513681118, 0.01799090035201159, 0.27035554270002343, 1.010836068508107, -0.7513921463824351, -2.1137261243854653, -1.6292256279871025, -0.9095780757559899, -1.10221727299458, -0.3213514602933621, 0.14508853088882834, -1.1822094561480407, -0.4268539670809094, -1.37827197537731, 0.4305123786678438, -1.261420252284327, 1.11976186515336, 0.21568998152223606, 0.4028069501648215, 0.9521621649059012, 0.11077083944794575, -0.16181540164773678, -0.4174825750348209, 0.5140921289435667, -0.19866211785826063, 1.8713768551594991, 0.7755293110720485, 0.7207284715004043, 0.9514308890958114, -1.210219051724391, -0.12472060725195314, -0.10875709406323097, -1.211425047342896, 0.5712367827316136, -0.11927906283578632, 1.2714459496963189, 0.1770868764800885, -0.18801866634856396, 0.5890553135176059, 0.7982600027310984, -1.0567423995594143, 0.9833823747103011, -1.0024491311372419, 0.35520057105500935, 2.3540585143951804, 0.4369324879621152, 0.5994970780669867, 0.41110355479692845, 0.19293130900191324, 0.46268133943481043, 2.0971556936089373, -0.6870980014544437, 0.1421071888629381, -1.1789902840065973, 0.3314526055810216, 0.600752117346576, 0.6186220387368094, 1.9316015889528495, 0.21935536197122252, 0.501051333732182, 0.5536074836103242], [0.03865521205040334, 0.926741101021539, 0.09490428267789033, -0.2786916300757727, -0.7773486505080475, -1.443518189178114, 0.3152958544822283, -0.31091328290196835, -0.1015707309818975, -0.7945025944870507, -0.005209310691929092, -0.7346125996414211, 0.24068061213997768, -0.7491038030612707, 0.3817988318894666, 0.3896076921790154, 0.7545283626526129, -0.9580263939936384, -1.3561668852237345, 0.48755636766549937, 0.48138489094522924, 0.23339821604189298, 0.6797517388670943, -0.7600657730061486, -0.3274808479665437, 0.05589079682201581, -1.0164347458074752, 0.7953283726821442, 1.5514627268660244, -0.3027877799500623, 0.2860984607471082, 0.5569795012467619, -0.6278987517636048, -1.054074668919068, 0.09516929553608111, 0.6080991066118964, 0.3151543606536037, -0.01731816979031936, 0.8231677174047464, -1.0186335337194297, -0.32434600309027806, -0.15959268222612705, 0.29496382137631516, 1.4369628533581973, 0.3557484272638006, 0.2043505383303047, -0.05873315483084618, -0.20747239080104837, -0.07974009799297777, 0.8526215300229085, -0.09321420027049335, -0.28636651536830765, -0.2952118817238184, 0.8532802483772648, 1.1086959982399829, -0.5579270825261788, 0.7832471141211749, -0.04667363379496828, -0.9192364418291676, 0.1257759113378421, -0.3180830605688246, 0.5842027653937439, 0.4355368260734461, 0.9031398272221087], [-0.7993073842892167, -0.6300329216497647, -0.5268250905364934, 1.16240052480078, -0.5445863209008384, -0.9339795894247604, -0.4246919776777039, 1.221273626689671, -1.610610275353988, -0.650985182427484, -0.8678690096177634, -1.372528429916136, 0.2798005845098241, -1.8771375978720561, -1.0372144034236364, -0.2403855318977447, 1.1653698014124885, -0.8386299233070198, -0.523419212434233, 0.04992842150121607, 0.0610698182719312, -0.02223442799579947, -0.6911173704794469, -1.2858677711161988, 0.13543802901651122, -1.5724551718060198, -0.19188300156836258, 0.8875844317179833, 1.1126123361502895, -0.9823820488442143, -0.08074412734652203, 1.4074978971741212, 0.526834213399463, -1.0649472248248504, 0.5395498241097543, 0.1790651989306936, -0.1481560417203012, -0.9087225816013673, 0.15478057248452495, -1.7072102697289846, -0.6989949505405816, -0.07924250883807094, -0.4745885010240758, -1.3796645727982462, 0.9057422708190537, 0.299569129900106, 1.3277542085020269, 3.2449343890771654, -0.15946002719224162, -0.1784931476426571, -1.1188319656474195, 0.13699966222975613, 1.3878268441957662, 0.2853264860637946, -0.2455710667674631, 0.6187956513198114, 1.0149232526597336, -0.4733798921180925, 1.136365251222386, -1.6936053503907198, 0.5382648675851652, 0.5858754615993645, -0.2520267908437109, 0.6405964878276711], [-1.173199003602479, 0.37219587141265076, -0.4211485344131627, 0.3148890030039934, 2.2577533683369326, 1.1993485711955292, 0.3109311600398647, -0.2795515118149499, 0.47954051835364997, -0.022061427159511537, 0.2527586329158813, 1.705425735523478, 0.44206529995428506, -0.7522629586047132, -0.4087113013122513, -0.514514800340641, -0.4304408148053957, 0.044900872054255414, 0.9575774691814167, -0.1387157229985492, 0.10750146320859481, -0.6838690216292101, -0.8598892529298254, 0.2321927493174033, -0.5291307604829871, 0.09567950458233129, -0.47514686759952734, -0.4972220814967705, 0.3529049884468971, 0.8190399435950738, 1.462501415747769, -0.6496310444827386, -0.9782758697949478, 1.201565317972985, 1.051923748202146, -1.0487363366454123, -0.4907874648483562, 0.13294199865305753, 0.008535284832286383, 0.4786048376714183, -0.00327348660250093, -0.6875702029843878, 1.042144657393761, -1.0062005987371778, 0.0014595777140588018, 0.6741312851681772, 1.0022840908126738, -1.0541548982892182, 1.4630299289693514, -1.7793849222095453, -0.029299389268178946, -0.22726834631624454, 0.9100697411233393, 0.5979600697470261, -1.6711408293823378, 0.6228427079891621, -0.11563099491664473, -0.8967119220446611, 0.6853231752124047, 1.3903386506788313, -0.5575523233660754, -0.8848321072860896, -0.37827063067787414, 1.6846985109377226], [-0.49718780415320113, -0.6424327532805857, -0.051031754022459686, 0.38969742789236056, 1.182833775905413, -2.47441475265512, 1.0188128051732679, 0.02132903660995178, 1.3052510418098717, -1.2931491726355302, -0.13237168047814213, 0.1030957004692526, 0.3432458390899902, -1.3445116353638573, 1.7782675227870315, 0.0056586690339400225, 0.6466399442907433, 0.2749013604486226, 0.9148018407046464, 1.5075519411784193, -0.07248588496555408, -1.6234002033368327, -0.5854339841888754, 0.45217905637520517, -0.7566046977020879, 0.5865389711364029, 1.6151759411179296, 0.16051629958866154, 0.2061096692567146, -0.40276394677043265, -0.2241997494684325, 0.5498659697108832, 0.039648686078198325, -0.4691599180299899, 0.36167586587145123, 0.5170136379551566, -0.8580156455596951, 0.011358448531738188, -0.047724875882109496, 0.09271416801422831, 0.6147372996162003, -1.029121132469494, 2.1368253471664733, -0.681327959418086, -0.26032456462330333, -0.8205590602873452, -0.2534154452279997, 0.9213779852282424, 0.5153972772992429, 1.0253952733361487, 1.3551679074687135, -0.2026216242719735, 0.6513667669101872, -0.7744379167990312, 1.6010162273243878, 0.21466273639241068, -0.7955715636700187, 0.9131095509547982, -1.7574895902478924, 0.8652301153173373, -0.6468395897976927, 0.16859250003502987, 1.3274860681442866, -0.5012147423347416], [-1.9156382776001606, -0.884993225567917, 0.4265142692506213, -0.3121508182199444, 1.4185187045249825, -0.01923824803356311, 1.0200911878641123, 1.2003554960100997, -0.18333912190424842, -0.15077953952256945, -1.4377787999706952, -0.41089923445527143, -0.7488979644110875, -0.0667876395939628, -0.6191599226004598, -1.0923855467241719, 0.2761497629578247, 0.26919230563770064, -1.439454484655553, -0.30770157895766276, 1.237632408526372, 0.3577608128626461, -0.552388446848743, 0.3470794830711329, -0.7030149315222958, 0.7708454675303782, 0.48387249154693196, -0.8060289012693007, -0.730369416631459, 0.07349335349837438, -1.094528559962403, -0.24209537088644348, 0.05819317263010476, 0.3690642765381245, -0.5845106784434515, -0.43093146208332, -0.36913526875285163, -0.23708757271896796, 0.01748539822962268, 2.217522577725103, 0.3487153905932727, 1.2141968437991146, -0.8131010252646517, 1.3685072382189063, 0.28056524113896514, -0.18010082578682285, -0.2561565397594815, -0.25695615045944287, 0.5396702360301329, 0.029953467056049288, 0.7826070897257816, -0.41722838559019065, 0.7529028309522091, 0.0855878987440894, -0.04746539521383891, -0.13067765276588933, -0.9777650090184768, 1.697292577742293, -0.5421999567987111, -1.267889191921849, 0.15525697191783477, 0.018787359961782463, -0.85660061792355, 0.4675138082741007], [0.30501754199101083, 0.15325246834600964, -0.24137789496151887, 0.07162824430121627, -0.8409196587739599, 0.09461718377813912, -0.6292504593693474, 2.8347467795792607, -0.3406903278187555, 1.8755737485711224, 0.6488895728291311, 0.44293876072593785, -1.1298788727462468, -0.42309268411826373, -0.31901337509967614, -0.57630222582045, 1.3128594648851983, 0.6076907698729336, 1.384133739426909, 0.15633107887324113, 0.5787140093047954, -0.00826741728164057, -0.267413433884504, -0.7289966821080485, 1.3337740569017347, 0.23006872183384686, 0.04290789126542832, 0.37070777241977965, 0.4776033744225075, -0.21559371867622631, 0.5455671240712759, -0.6855106595873804, 0.10901424308577594, 0.5891025791250941, -1.6012610613547458, -0.9388557299594904, 0.29960619360259527, 1.1407924140989718, -0.19630668512125315, -0.6438442206566194, 1.355462470413964, -0.6205302087991693, 0.8923580066420964, -0.9941818684973893, -1.0763306200474851, 0.5470321379364058, 0.7110419597561253, 0.45919980626860446, -0.012528408527777646, 0.7057955445704995, 0.1703780468287765, 1.1442678342356203, 0.4560278988839254, 0.7869553666751268, 0.4869331104134186, -0.17120627115256304, -0.02476406048964641, 1.0621190124367852, -0.6884265240456366, -0.06859907758319436, 0.12361947358878006, 1.1818655066347958, -0.46843576752304117, -0.2488354286632334]], "b1": [-0.7127567150129188, -0.9743775215354202, -0.46494929791186146, 0.2978465354961755, -0.8139758625753735, -0.16864974438580915, 0.6853490078031077, -0.5224076006871947, -1.1873040068715222, -1.022215306198046, 0.10663468268608356, -0.8996862232132584, -0.13589293460667903, -0.38265496282850286, 0.43320439585585646, 0.544784686075341, -0.12135790446203015, 0.9347302919268071, -0.7225750628197626, 0.33387679122971287, -0.12926783666007013, -1.4718453897960857, 0.009813981700219979, -1.022701225210261, -0.004862696193209781, -0.743620331051306, -0.7707171447060371, 0.6094283133800908, 0.8729823067907116, 0.0022020697092815233, -0.0991370688181838, -1.3434178067577038, 0.3780648991259391, 1.1162954955759496, -0.7562503325782328, 0.17244158231968884, -0.5211818029372522, -0.531734968792473, -0.47945470034472465, -0.39878264919384254, -0.17425062980389544, 0.2033730352733727, -0.6393693562301102, -0.3031641892438377, -0.021626261563307637, -0.3671012745956025, 0.04485770817303006, 0.9822334106459257, 0.6735894796391652, 0.7463098855375794, -0.3081332789035296, -0.7565401995632854, 0.6173324193078714, -0.3320831755117797, 0.4862978197956202, 0.6390678685860325, 0.17442194872756564, -0.08638728060172096, -0.5059474262124277, -0.1073689193223209, 0.5830247820917843, -0.9262435590189428, 0.7978567620288535, 1.987182458923936], "w2": [[0.16038317976233912, -0.10410246412196208, -0.04857939646564344, 0.7631149677849252, 0.24636622320213608, -1.5246758786749366, -0.28868239872159124, 0.996020248197334, 0.6599351296656815, -0.059743752168728154, 0.7658838994836408, 0.6257611270753685, -0.20497486190627906, -1.5026797589416927, -1.6955541088309793, -0.23464232067085916], [-0.5331673312174732, 1.5283500563920305, 0.7890447833174483, 0.3180632122906908, -0.026621801820372465, -0.614883774816803, -0.45061833660208545, 0.352062748929106, 0.7223959755284068, 0.1096159897710253, 0.6167843944256569, 0.2897856602580019, -0.9453461738403104, 0.4392666223533617, 0.7051455347222463, -0.11240852269353627], [0.06994460856612325, 0.30923717717243204, 0.7955481775425872, 0.9934235806347343, 0.006486723206373661, 0.5904791572634386, -0.9205143900203095, 0.33061093028342714, 0.7575618525407505, 0.5264332288397409, 0.3624746081658462, 0.4898590146216827, 0.3092585801749168, -0.7265207263757352, -0.7438098703777623, -0.7738680402750364], [0.5830489832685141, 0.9060817418374012, 1.117160471389589, 0.08501489561461617, -1.311977535295052, -0.46024618068651485, 0.45667200215337206, 0.4204390537691813, 0.11400153737854968, 0.9118256110407896, -0.6389284174654153, 1.151769410301679, 0.8053158907820641, -0.5820522918370384, -0.6585055626546229, -0.010078841348233891], [-0.9767535290600597, 0.14193059431747812, 0.24879529741733675, 0.12198115035792903, -0.6306661819291068, 0.5603041489474719, -0.8679835463816896, -0.2927594675155183, 0.09410049127878234, -0.3141515824655189, -1.4256035944772496, 0.44027115380351517, -0.4326930552732109, -0.7109924130385115, 1.2466007334481022, 0.6590991531393153], [-0.24081591049366938, -1.1266032770702996, -1.3486366050213485, 0.2515831531994297, -1.4081423840837872, 0.6575814515259926, 0.04814990170776656, -0.3560685475460238, -0.8684719675989777, 0.5753041323931237, 0.16145877504935813, 1.15338277765069, -0.40706453619934513, -0.4555418117340375, -0.17702026786160296, -0.4626914169768811], [-0.294204512613077, -0.9340940016642723, 0.7534912311682513, 0.3843616531368384, 0.8561102337328605, -0.8463478206359092, 0.07304123441560527, 1.2368405708072532, 0.8622013017960192, 0.5340524788531421, 1.5945746906645437, 0.13572585017736882, 0.2643453805902729, -0.6639868057534495, -0.3747690337867218, 1.1356718438635147], [0.509910911568758, -1.4290566736105974, -0.48322050952807294, -0.9772250579240334, -0.7101582932515792, 1.3029753566362074, 0.5987603168872921, -0.8089559462850088, 0.6651525961285386, 0.06314376829051405, -0.0898920318835213, 0.7123302927082913, 0.2065269638988823, -0.3729493267483476, -0.35654989181936236, -0.3972313418434879], [1.4213947020999012, -0.7942441320787048, 0.8871609629156361, 0.3730467838610318, 0.5771719435053433, 0.776464560192975, -0.8823640188280962, -0.501346239083804, 0.9855802728667875, -0.7472279421820665, 0.24746983828623326, -0.5844766529311264, -0.7443506082512623, -0.9305429085291206, -0.3095009818480784, 1.6921349876045921], [-0.0522658487532358, -0.15179189471087773, 1.6265579466744153, -0.2750236744058693, -0.3717615171625016, 0.3685973051742885, 1.1499762854962086, -0.05172539433847188, 0.07302797563607571, -1.8354978969548907, 0.8031839931156612, 0.09446641433133371, -1.151352108902305, -0.9626810886155469, 0.6210616764273869, -0.8494036401768181], [0.0633741292470783, -0.03546095999988039, -0.082169731943738, 0.5345972996452981, 0.8349569598807934, 0.2991680861896441, -0.5568260434291954, -0.9239232857232323, -0.9897918333236484, -0.7868206477394117, -1.1673600391716357, -0.9663266877182343, 0.5978582628847735, -0.7526961688689444, 0.4168473981009784, -1.5977978415573488], [-1.8234266497269596, 0.5471823684358625, -0.5826126326429653, 0.24792492406890024, -1.503128974023778, 0.458429291485435, -0.21202135542251088, -0.3274263482430886, -1.1559304038927642, 0.9573474280461889, 0.41361784456627326, 1.8224907663222132, -0.24063201955942184, 0.2640594805788333, -0.4789908485095967, 0.07493402246126402], [-1.3007263742977075, -0.06545763950992933, -0.5040236653525293, 1.256723033706407, 0.7947080795632915, 0.016070728828619457, -0.022550935203711847, -0.21000846239215842, 0.5619773784036932, -0.5068961184968594, -0.17376863572100543, -1.5486305661132944, -1.405233379243551, -1.2922771899179117, 0.20680107638661904, -0.3080859864722477], [-2.1085290436643533, -0.6900597857448207, 0.1684881220075684, 1.6808671615335868, 0.3248077316700896, -0.20115200471330896, 1.2102832932764762, -0.006698130279995884, -0.054197837237142915, -0.26430921217203956, -0.3060035257373485, -0.2535683204747835, 0.06193335935090333, 0.5942811738713748, 0.6718370343211054, 0.095217909829509], [0.12803764624623495, 1.1844877806795782, -0.30745132570099865, -0.22343177385101443, -1.1226974893183865, 0.8162396344745255, 0.11216484872391719, 0.5199988221815548, -1.0122800711375677, -0.37835919346561764, 1.0187910653615262, -0.5439801443046526, -0.08097853243170855, -0.05292564072495082, 0.3259269315034856, -0.7617597023689844], [0.5464813248403804, 0.10811019356933703, -0.0131639783262128, -0.918133549008534, -0.3823401732478303, -0.6036846732134244, -0.11483136207096709, -0.8296974552761073, 0.9902067165850754, 0.4626172424264035, -0.03702930819952824, -0.04669824762325514, 0.5096956637412315, -0.009377024642564335, 0.41217243216363936, -1.230658694312968], [0.363848019275712, -0.2976089172743607, -0.19114729182508494, 0.6750722538888876, 0.10702154039010092, 0.22002948221510849, 1.6587499817017521, -0.6179051379172265, 0.40112349715026585, 0.39265477569162743, 0.45962876284412585, 0.38774034395311047, 0.4452031957653267, -0.24316724231893322, -0.5150215916947379, 0.3937885265519303], [0.5382284088177519, 0.20026016444932498, 0.20116571646908377, -0.679002459380201, 0.37393458835940235, -0.05449609665665667, 0.9653608621330926, 6.613974443470116e-05, -0.5600274130747148, 0.9771536259714202, 0.6892688578039811, 0.9309132121135472, 0.9076203601403623, -0.7021297032867776, 0.4194493812964013, 1.2757341747194881], [0.7253608474324603, -0.8202575651212477, -0.2931206821425177, 0.4650449724452504, 0.19364140378122585, -0.4662147573195253, 0.204881316685799, -0.13837804609780563, 0.24839109896358047, -0.03099232694137273, 0.32936257434881544, 0.3908685072426734, 0.9265526484009858, 0.4556413771330421, 0.16063712101602168, 0.2601481937944426], [0.5436572907262001, -1.0036411500786597, 0.07533836527002112, -0.6528957383594103, 0.7738965092023063, 0.2501418622289859, -0.6091181276574185, -0.3474862671627892, 0.8530294106493308, 1.5456498162000694, -0.5562068755929905, 0.09481647464947762, 1.003645498854117, -1.0164695532077626, 0.9918170843151033, -0.20790273563915998], [-0.8951377576639987, -0.5228947830567947, -1.4640266867811043, -0.1857372999315938, 1.4942852898775039, 0.4642325063100282, -0.17369387154489818, -0.06486687653722198, -0.031997581108818826, -0.46602764741527036, 1.0097939103112799, 0.9448714832542263, 0.28535186239591964, 0.06645000440397845, -0.05265774347846261, -1.0691548744501735], [-0.2061312373170135, 0.4681745857454747, 0.17406893794880154, -0.9041073045162175, 0.48199259709033937, 0.6539162732944278, -0.6658776652956628, 0.5220896025896632, -0.9688247484391458, 0.8314492467086301, -0.1270604870904983, 0.2618693016733671, 0.04394600529921301, 0.11103172739777145, -0.05030410712888399, -0.598296226056209], [0.0651078214896359, -0.10473782910846297, -0.062336407893771706, 0.5081781244360188, 0.6118724452141333, 0.8578307173295076, 0.8013207357605607, -0.34285377462249034, 0.6895404799053897, -0.48862890712680157, 0.15000177753600397, 0.4710529956075537, -0.43584964454019326, -0.3473469331617574, -0.2773847802871917, 0.4622546954410718], [-0.08224129701758595, -0.1449244659596866, 0.5265156102268633, 0.8029341915292391, -0.09654394707180958, -0.7765996422032306, -0.33508516157019913, 0.9453533470580078, -0.4435319895035068, -0.14784313327481752, 0.14609966935538, -0.24828379563184555, -0.01088667804060127, 0.024262397181009716, -0.364874071607787, 0.3286679060485387], [0.3394019759423994, -0.20741041213151468, -0.9183072670270642, 0.10165431439177552, -0.05744557992922104, -0.5332878871596196, 0.8737059900826096, 0.9505678622880096, 0.4024537071230263, -0.6117236884568249, -0.15991573262317782, -0.3110839155054512, 0.5787515139722625, 0.16556729343205084, -0.22738814076074293, 1.1032638929969811], [-0.3933497955149231, 0.09083734809132973, 0.060481023251270805, 0.6566439479825569, 0.24500150371864216, 0.675535479666531, 0.3007540397729556, 0.892631499952155, -0.17900346142527646, 0.3550657159937982, -0.29857044028466495, -0.6259548271744617, -0.6459123465128633, -0.8859340331059187, -0.9919314751696149, 0.6345748828962221], [0.3653823101814299, 0.4000946833245921, -1.0784624401211351, 0.2001952705674552, -0.9068255335035582, 0.1685285066155541, -0.34513262438144643, -0.2503073969919844, 0.33770410331235634, -0.2255625317141082, -0.14044247066900606, 0.9492070057957492, -0.47618858482143384, 0.7293576561983881, 0.07390444426037257, 0.45696135957848455], [0.2817372597561209, -0.24127575418962363, 0.1967885196138003, 0.30571806777964183, -0.5407726243075355, 0.4222485800797797, -0.3741035695780063, -1.1971001512982895, 0.5391046522676755, -0.05569266783896798, -0.7554709638286673, -0.851910619626919, 0.3724154336508101, 0.28807053981437225, -0.09278730265055946, -0.012856514456204594], [-0.4284072459797663, -2.5719149973497113, 0.41326667363046415, 0.3297678162365097, -1.3222228325560672, -0.15976221175679273, 0.5236213191937938, -0.003767311161250897, 0.2818034685064871, 0.4633209742810651, -0.5086654427372886, 0.5454346540933304, 0.46941314848536636, -0.16646479242472695, 0.3023935512251986, 0.6177244751001464], [0.7733174208802216, 0.9694840375674623, 0.961693434148346, -1.2259870193921578, -0.02201942883145197, -0.7589159868107607, 0.015186738850056475, -1.253016965772682, -0.22035641400780495, 0.6355735543377343, -0.08048457518565455, 0.3673059101758517, 0.30166742089616205, -0.6174406920760758, -0.9851948795617209, -0.03688811968607132], [-0.34986081072601055, 0.38800879873712557, 0.5189768024014241, -0.16639174355932784, 0.52438949360643, 0.6917572621334731, -0.7620468111087745, -0.04270334666644204, -0.374082341273577, 0.3746225385447482, -1.0389964756766035, -0.45701093708766544, -0.06697096714189044, -0.5888860886669635, 0.8029963038537334, 0.8971889989480814], [0.6196797286946986, -0.20235146749151145, 0.08472336859589974, -0.278101659108414, 0.5228791146695326, -0.4363388268575796, -0.058739526381395395, 0.7783473623937254, 0.04009171388910682, 0.5752006697754214, -0.9328417569550145, -1.1276066441129637, -0.9817278001877442, 0.23950699471611922, 0.2751191397175703, -0.2808405558091286], [0.4601044087859989, -0.17524309364478813, 0.08643178682092617, -0.5708818546456671, 0.9020008758312179, 0.38404131986553547, 0.25764861834907615, 0.4771662960693325, 0.16552878070015378, 0.5685847129981658, 0.9529410057491229, -0.3391025944697856, -0.4793562515302723, 0.6828661016902018, 0.25283388161435977, -0.055271562303769506], [-0.5605627670619852, 0.2666846700991202, 0.010316856963532905, 0.5853221662067211, 0.5190172152415079, 0.24693676254758246, -1.139491078041908, 0.9460668086299318, -1.0714514826868005, -1.4719844747596817, 1.0209870931775091, -0.10617909227705258, -0.6950399831638298, -0.4503019885873989, 0.4932505348567218, 0.34493645447202714], [-0.5403033054000086, 1.029984964770086, 0.12747583118780806, 1.158461216928517, -0.3272264813431657, 0.6622564645904685, 0.7537789663228913, -0.44406472905626454, -0.04861333758255704, 0.4778374535198119, -1.1014858850602622, 0.3007412742359797, -0.5441683741601588, 0.6676958366141748, 0.5546117877095376, 0.5832909136321694], [0.2802139528677516, -0.5373169800055174, -0.50899439034948, -0.263853727450582, 1.2481414272865001, -0.6597143954767679, 0.16124674877889716, -0.7149950641511887, -0.3637959513324768, -0.04799827813659868, -0.43633334334365714, -0.3989602946787516, 0.1908950569174664, -0.5737906162363965, -1.7462436580898286, -0.7974042221368414], [0.36461799322078975, 0.3655702760775767, 0.3765300569729498, 0.9473272733319847, 1.0144358441406494, -0.574852807768627, 0.00765465648484516, 0.8468888943459059, -0.26153138019371935, 0.05047805206176703, -0.03066091914462246, -0.23276010156399202, 0.06451435669575044, -0.27097988116141397, -0.6090784585879983, 0.8126260084195568], [-1.1606392657945188, -0.39717412814343384, 0.7413750750341401, 0.2465334929915931, -0.5698616009648891, 0.19165148227108447, 0.26986460750868163, -1.1062912438551862, 0.5454683824922549, 0.2705947783129979, -0.4202822929519979, 0.16015525204031925, 0.009345725042955833, -0.38587788752253366, 0.0894910944781483, -0.12420719800325884], [-0.5388729873555456, -0.26930623265846226, -0.28227800826803906, -0.0943678565087262, 0.17775295850783596, -0.5134205569662436, -0.3415499911799876, 0.37772015328880504, 0.9332931330813369, -0.0768899743731167, 1.2767122450758324, 0.8239342712557992, -0.9315588930206502, 0.3860407179179772, -0.8010248258138534, 0.07076465196853354], [2.1139846647530764, -0.02873023970430133, -0.65366413951003, -0.28193851616003196, 0.5393710172559287, -0.004610977949389028, 0.2250484642162143, 0.11327148756644054, -0.5114464629422462, 1.0256995590687157, -0.5020985953056525, -1.0267816385465225, -1.3083857835895247, -0.35314598227550675, 0.02710142304256289, 0.3250330598605709], [-0.710299805934496, 0.4871815753924202, -1.4142716816486378, 0.4645928749200175, -0.07086961250750207, 0.3820936284177964, 0.3322128844741159, -0.5085357087069402, -0.8811427318893228, 0.8990467343716859, -0.7331026249446646, -0.6605070563449753, 0.07308938318947986, -0.8920020337978535, -0.6435987437061744, -0.52072982148709], [-0.22180620892416908, 0.8549946839703289, 0.5994578759406715, 0.15013237243312783, 0.12949868799039155, 0.25903720305579303, -0.5620061272789338, 0.9884481727619137, -0.9813974125402183, -1.5135297279433295, 0.03701539469410081, 0.35766346748052735, -0.7613314796532588, -0.2308368425993246, -1.203529826138044, 0.3055218747780779], [0.6216301121533488, -1.5580105623218221, 0.6288217875851756, -0.08522588196750124, -1.1417589386316258, -1.7176731005346733, 0.3316624960335446, -1.8001231986101403, 1.2748937306173318, 0.564807874580286, -0.47134604844619066, 1.2972866898358457, 0.28615432839058297, -0.9435279886000607, -0.1376945251664296, -0.5983016002410565], [-0.7681921547154823, 0.06706463489727298, -0.6676557607042652, 0.34681116491350683, 0.533847858345479, -0.007823489446096683, -0.038330367125702106, 0.6004133820967674, -0.0316520139072021, 0.5254452946677376, -1.3112827814262196, 0.21365872000491548, -0.04000422287685851, 0.9327013925081411, -0.1606040790714256, -0.20669030344357087], [0.49151647941472926, 1.6743040129083038, 1.8011012433359441, -0.002873074334328665, -0.16824402597074523, -0.7101178779984312, -0.025872109199137627, 0.47219780724468874, 0.2971073718614562, 1.3804189140552525, -0.14929839804878936, -0.7485123651837561, 0.36179165672670105, 0.42302918218910573, 0.6527113323480545, -0.1261783485772292], [-0.06893196515919212, 0.14044787238537404, -0.3981261543869383, 0.08600820906351953, -0.31805819415527065, -1.108086193697187, -0.15105869841208128, 0.08479131346934762, 0.6637970003883812, 0.8016866540075227, -0.7645543921999544, -0.3246944373689802, -0.5622138773175092, -0.036090527041052395, -0.052389186532690146, -0.34566535577955554], [-0.9334417187806754, -1.4284239894066637, -0.2629413005048433, -0.016627208741408786, 0.458711649786149, 0.3129482235782126, -0.9095842795919149, -0.08169040037654998, 0.104449279418171, 0.053781728305106524, -0.19144268005898335, 0.9026727668740822, -0.10166269733461908, 1.1618188915315477, 0.14492239093257592, -0.11444882855312077], [-0.24483861272822544, 0.006963397005031402, 0.27691883876576956, -0.4416583445293565, 0.8728686954667682, -1.3194759343144837, -1.0110063394127649, -0.13621774794171104, 1.0261725882077004, 0.9799090745863066, 0.1996402465140724, 0.7616497056735609, 0.27775486990275067, 0.8377163379750651, 0.17275228321021496, -1.101299517201059], [1.102642959802525, 0.6373854101191305, -0.5853501043612768, 0.3502305543651318, 2.0712342014231746, 0.393716652205109, 1.1102343972216644, -0.09450461048974601, 1.1066822763326238, 0.5757851806825611, -0.2823400478314308, 1.2874243833509862, -0.56838573888756, 0.8527543081249548, -0.490098026411448, -0.6606101970683285], [-0.8491874135502239, -0.2568186475338731, -0.3541046613506946, -0.5418345868884487, -0.4489702416493507, 0.31984642694027055, 1.1080707574896804, -0.7814110112443883, 0.655774679681187, 0.7978419177139424, 0.8326269208786166, 0.5535832456109909, -0.7621130108843819, 0.020039957065299395, -0.5130475594737025, 0.49337629595882737], [-0.6784487433438211, 0.15686702647897213, -0.4941451374989593, 0.17469062880763953, -0.6542702193962238, -0.5623215317457382, -0.5322846312510943, 0.17622845461864417, 1.5288919451424923, -1.7701343068417401, 0.3085522770042268, -0.28417357620952516, 0.2483183946503354, -1.2048950192635677, 1.7374031922510906, 0.026938427223866412], [0.6151572267757242, -1.6647522811400808, 1.9082269502764335, -0.8031801794080329, 0.6517430533827946, 0.13211442486989333, -0.607624580431419, -0.8834400843608367, 1.0254471160641947, -0.7750465129050195, -0.2584916991936268, -0.4776702371752988, -0.8318801756382185, -0.6264817157276547, 0.4208102926630609, 0.30821533863286804], [-0.6147204785235121, -0.6014821704705261, -0.21838352830593177, -0.31731929742886156, 0.6152885731958035, 0.5041915342000094, -0.4365044887013497, -1.0873867804637536, 0.33208684166391433, -0.44996881749889334, 0.13854205586424367, 0.9304586891299125, 0.7416228214440104, 0.5384776812067363, -0.9747130390154733, -0.28355532436886094], [1.5577690050616417, 0.10192776691329791, 0.07299654902229862, 0.5186701415039684, -4.854490878876405e-05, -0.1938689630161641, 0.32062818816224425, 0.1613304197077939, -1.1330149102228222, 1.0868133967747242, -0.8219437730961132, 0.7321739496678707, -0.09328308165354376, 0.8674037123967776, -0.5013098737554077, 0.7241806775692567], [-0.0981299468900711, -0.17625775917087266, -0.8110127632228585, -0.2100827668164012, 0.6253948876436735, 0.41906835814529686, 0.48543540772391075, 0.42227036653856886, 0.8386471743169776, -0.3265528877923305, 0.4765789018145212, 0.7105062359969492, 0.34077366588807406, -0.9094858624930802, 1.0794574623262914, -0.6269985453953816], [0.09864285681029249, 0.5428911108715762, -0.733866815848701, -1.2759609491784842, 0.7339146782673218, 0.10915128073668742, 0.910960449021065, 0.31359282482619405, -1.8833200375168908, -0.3632436703726474, -0.01977400922337902, -0.8270314371427263, 0.01927166449096117, -0.8389963848355517, -1.339835822209725, -0.32055491630810573], [1.3319872636580372, -0.8199867021517595, -0.38730696879231785, 0.23819442132504967, -0.4396228437392839, 0.311021924227579, 0.014834161879088145, 1.1219403129224643, 0.3902875927649524, -0.6108975519379927, 0.3422138201416169, 0.9965564008631387, -0.9140338740205599, 0.08140779305742027, 0.8627953357621164, -0.8258374787151306], [0.4345231125266839, 0.1792029151969675, 0.31857433037024857, 0.9865184684973733, 0.24935198237194833, -0.34584117213347787, -0.4479290649261605, 1.0223403268798843, -0.3611255491112638, 0.3531674065833776, -0.4547977303948409, 2.7477302858791655, 0.8069302236049466, 0.6489386583147652, -1.6416204939764247, 1.022041863356483], [-0.469656473231313, 0.17203974652639414, -0.28262562368039523, -0.381107476562355, 0.30516841871040673, 0.8748772583321436, 0.5209853147257606, -0.22670600612183042, -0.900966067462337, -1.429438250486347, -0.3108170352815841, -0.6549362767432757, 0.9222567468616546, 0.4343515046115888, 0.12556662964555565, 0.3178258046728098], [-0.5499056596060884, -0.4543630107037319, 0.43107184570660245, -0.06036048895661558, -0.7087371406239923, -0.14983419533201467, 0.8152580337674303, -0.47496658763549243, 0.8390186571997416, -0.46262122782191445, 0.6700960547378265, -1.3090147984782865, 0.7844006770364831, 0.6638475249543465, 0.6457484264783796, 0.7658930107767704], [0.9873931313035178, -1.0126651646763063, 0.11736991395105827, -0.9892021283556189, 0.5725974580008963, -1.2978419565108021, -0.20201803887972064, -1.1955099501866002, 0.08041168906817239, -1.0308080744216759, -0.7398077508325428, -0.3033391424641483, 0.3488168311891255, -0.09865549161466902, 0.44032853942796985, -0.3949940067884843], [0.02155575551315836, 1.1063535947095333, -0.8113889483656327, -1.0854942481465963, -0.1521143179099894, -0.45847618539936286, 0.7261937245993221, -1.4115897104778654, -0.7093634216245404, -0.5724320005501011, -0.932751284356595, 1.1377059898778277, 0.45385378449364716, 0.17422613052685848, -1.7408343775013893, 0.25161566838130495], [0.6239559451093024, 0.2645206337903566, -1.8689569272137767, 0.32834016243074804, -0.15899837623316482, -0.006935430868594397, 0.3304647559772784, -0.9960273394878689, 0.10247513651440912, -1.2099254948246096, 0.5134360387867385, -0.7185666550794901, -0.49300099054009017, 0.31778903315777296, 1.2650281894961197, 1.0216216936566562], [-0.9083827332980081, -0.3577388664943205, 0.9500951361184743, -1.09859832130915, -0.18188902426260786, -1.146079225120654, 0.8994534909904891, 0.36900794539516046, 0.5298227403846956, -0.6061435119944347, 0.17242302447788374, 1.188428867943118, 0.668010038179525, 0.24862265620986065, -0.12226281065318616, -0.056409313641072545]], "b2": [0.24582929000762066, 0.7240065315510278, -0.9315411699258802, 0.046218656404419745, -0.26060679391891284, -2.214235692801151, 0.4666158176045426, -0.7448596246494471, 0.469686207209683, -0.5086713679173559, 1.0141366535945155, -0.24540153394719388, 1.5004911787380426, -1.4811587041832373, 0.6115121690678089, 1.4638804727303216], "fitness": 0.6010204081632653, "wins": 589, "games_played": 980}