{"network_id": 36, "w1": [[-0.8957752320011043, 0.34133497408712304, 0.15943078340330158, 0.5659534410569378, 0.32750181185752875, 0.4631839028639631, -0.9597899619376005, 0.8310479802696931, -0.30362118084880374, -0.7019618710384598, 0.34600261105054986, 0.2132659068287115, 0.29516225226876375, 1.3527836705247602, -1.2583999117804328, 0.17184212448269742, -0.051041994915574554, 0.7952818887422237, 0.3021820226391362, -0.521573607702218, 0.04701846314603442, -1.014340390538188, 1.528348179661667, -0.09956439691871048, 0.11474357018627226, 0.6083498623460044, -1.1179468868950087, -0.2494023339568131, 1.0434287613091358, -0.20463771549437804, -0.7526804732251637, -1.1632138410894473, 1.2625752640746895, -0.3254717743283086, 2.388501909535445, -0.3711772595703715, 0.8267723491746481, 0.035514317003394275, -0.23667053254002915, -0.9410461935719975, 0.512403311980947, -0.8855401357034922, -0.41839983425625316, -0.5161219216827893, -1.7398469490093948, 0.662112138308542, -0.02488040536955083, -0.3926582713825173, 0.378712094224626, -0.7143255044985012, -1.4375554754287982, -0.11533844822406496, -0.5316387849488569, 0.3617433453045485, 1.6675016390033401, -1.743229144085543, 1.241957639836369, -0.0765886562223006, -1.0520131714779244, -0.10046408798308337, -0.027171093154328967, -0.5706633226473881, 0.4305452620796642, 0.17175247138261213], [-0.15617519317354048, -0.3969146867470682, -0.6515804374729521, 2.1619625178094943, -0.33027172485405915, 0.8461994381061293, -0.6109264161875141, 1.197012525594991, -0.37703993172350825, 0.589565913485216, 0.2582850194686186, -0.3465394433064063, -0.9214171404653217, 0.8524113209409221, 0.5215168826871277, -1.680556013371468, -0.7906869997465608, -0.16519808705245856, -1.3901228695442864, 0.15920784128269488, 0.19489980165432558, -0.5629515113345621, 0.593675601005436, -0.9518738527592432, -1.5321163831092186, 2.1432003017656625, -0.47408856673538946, 0.7064086668703147, -0.3514212684611823, -0.5240099903620111, -0.5945117986736697, 1.6788954445023516, -0.14985602117145008, -0.22403471625944654, 2.062373252781666, 1.3268330628990677, -0.8340263749661145, 1.3605617634450882, -0.46010426732187126, 0.21617139642130082, -1.426917317005371, -0.6311756070624767, 0.69968846243357, -1.6381841997941542, 0.2569006174149149, -1.1324848612816214, 0.5491003493244632, 1.782387632302394, 0.18807979325273155, -0.27213533668562395, 0.4649132704276365, 0.4512792044654414, -0.32567828069871746, 0.18116860369850124, -0.41605739107202677, 0.8403466390616952, -0.6488486478282028, -0.7052007286522051, 0.3882643951351664, 0.12368212685111288, -1.2405250956232303, -0.3641363738600782, -0.4169746476404343, 1.3502717177279562], [0.5193740873507653, -1.3111179779586792, -0.3070873696216485, 0.5199338914042945, -1.1292770236925815, 0.196245293726386, -0.2640222859842858, 0.038438072341342944, -0.04699943426631456, 0.37508678879853063, 0.5361223635635224, -0.9329475094922527, 0.046115024048465236, 1.4503825971404516, -0.4140861749331951, 0.6358940007232232, -1.7166949120345218, 0.9805501540167136, 0.5302659344077272, 0.6976181055673628, -0.5228320104779891, -0.03854210660443985, -0.49970353412919966, 0.10687493251101113, -0.046318132923444444, -0.6026871270293203, 1.5660835251563099, -0.22034889602879354, 0.18596903193986145, 1.5690620392009194, 0.44283227125368196, -0.49398526797860653, -0.8555756203752121, -0.7104403997012456, 0.17652233489674168, -0.37890672671059583, -0.05895922321834657, 0.6887809516381987, -0.8824827485888027, -0.0629558799838631, 1.291931169522874, 0.2724736329988439, 0.9134526428586904, 0.9317586837833293, -1.322161736905605, 1.3864073412700257, 1.302807473087968, 1.0885809615523045, 0.8711677586845892, 0.045983596825766304, -0.7940109990343818, -0.5402451758970453, 2.3944627204022337, 0.871501043691021, 0.2376658794051419, -0.42179826456958847, -0.6470419826426572, -0.49431527256418795, 0.5624371221150206, 0.16545798312534438, -0.903768095197497, 0.04420425791483232, -0.3461400315211494, -0.2724144388581836], [0.8889227094622741, 1.9516441602170047, -1.0137457065820765, 0.17423879096440092, -0.47635226626525595, -0.9507527933772439, -0.9030047444682342, 1.4589922507519457, -0.8692616623149059, -1.842541850685748, 0.5701464341050324, 0.9595965930241585, 1.5536250173867518, -0.7234588151692807, -0.26743303893064874, -2.401753176441702, 0.08609610379843062, 0.563432582794928, -0.4135559729704073, 0.011026154090042432, -0.7465482340975648, 0.6659303052363165, -0.29330018644280487, 2.880014336430023, 0.5372348266451341, 0.4442735342103259, 1.2490483214837749, 0.19812669247297984, 1.6694654098771868, -0.011897839249319642, -0.34218253798623344, -0.24547612897643428, 0.7946746072846358, 0.1549346365070446, -1.5258313951939044, 0.2655186172453009, -0.17998027277970452, 1.0482722599851644, -0.9111111365711391, 0.6335098354069467, -0.5334212902270317, -1.4231520651411196, 0.9927367359180513, 1.460626959258745, -0.5403322422331337, -0.5182152108086392, 1.361862201342888, 0.33929864747190885, -0.7892096137244161, -0.9381354513752664, -0.7734766601707583, -0.7378330144225805, 0.4093461558953112, -0.718956270570188, 0.026089654562709452, -0.24532243552919614, -0.27558671261627893, -0.39901152362667536, 0.12762980277486205, 0.34011042748708575, 1.1051012918036043, -0.16031090915909588, -0.26661917982872907, -0.21120086625298795], [-0.5152058993936173, 0.4533886388075945, 0.22094058718706072, -1.0977921579062497, -0.09564302040018853, 0.510812134278732, 0.8001926380673045, -1.492786943134822, -1.0849573590359771, -1.641730599174621, -1.0959119096480066, -0.5975943641381376, -0.15936435419834236, -0.018247719957919815, -0.9304460161354383, 0.7055063107479587, -1.2915740106289866, 0.6720904571822414, -0.764192960600098, 1.1273374158308431, 0.04492874720389768, -0.1737349308102682, 0.28248863785551065, 0.1745581871893951, -0.2176024285161352, -0.4174825750348209, -0.14743837387509479, 1.089096401053072, 1.1194274908761384, 0.3564142599923816, 0.15728529256619914, 1.6601944548362573, -0.8729740523508018, 0.03316854517822094, -0.6903748672500807, -0.24149647059248053, 0.6872674007858814, 0.2859353607809867, 0.9732259254251319, -0.1365818329872766, -0.564371692935162, 0.2087162095998186, 0.7855223383700438, -0.2777805242420479, 0.7036390312159512, -0.6197513494457741, 0.10992539078249144, 1.8205228895144063, 1.1276385887709215, -0.2877819812784406, 0.33253503622320807, -0.0792553066005412, 0.7728401800888876, 1.2529353152185758, -1.351439321123649, 0.30096185979720846, -0.167065533304918, 0.6693316369671303, -0.018703733697178204, 0.2644518942392999, 1.5003666081431066, 0.8019135893964917, 0.6830175358176669, 0.20358891122571138], [0.9709270386251945, 0.7642375874962704, -0.12825300820037752, 0.41722955854148036, 0.19630962489773499, -1.3586850323640183, -0.04264937723699418, 0.1695656408713466, -0.07355929343499379, 0.21002525906641342, -0.5324137944964932, -0.3851767736618412, 0.7835729047944271, -0.42289923390225437, 0.2727956192236106, -0.8843519749891797, 0.6567804998145503, -1.117825845754224, -1.0062502654344896, 0.12092354880983872, -0.2220773845832858, -0.8765168869299814, 0.48741139550198026, -0.30276440325568044, -0.855159558701119, 0.21337910973719398, -2.426007598845348, 0.3889354596897607, 0.8462073700366785, 0.3026835832109011, 0.8448590860773222, 0.7612246962140701, -1.1095525630875382, -0.528419981131683, -1.1252527563177517, 0.6398622747683438, -0.8158645564238035, -0.4009233703135843, 0.4076000307755711, -0.36705289099594257, 0.9072509773996136, 0.4266537952432362, 0.29496382137631516, 0.6277329934930855, 0.9607318396720415, 0.6046003783138638, -0.2512389666763669, 0.8041989290091012, 0.15236249516556583, 1.6383274829898329, 0.11620175193102887, -0.5897259991038654, 0.027071824068705536, 0.6007315618947112, 1.219855089247471, -0.6072968416192693, 0.3072769604079024, -0.10631557648561532, -0.1260287613062867, -0.060344488247548206, -0.122553151997186, -0.5326506863473965, 0.4728512371509181, 1.2881253722911126], [-0.8736275365365906, -0.6449552171154379, 0.4004386899486728, 1.1199665047893437, -0.8945352179477022, -0.7586331312169193, -0.6130824133793187, 0.8724380420790787, -0.27570378761901204, -0.1780793466201439, -0.2854380870595724, -1.5173281646502983, 0.8754938931454559, -1.610915814619878, -0.22708825873611854, -0.16533350478923137, 0.8240995420508656, -0.8538623178650362, -0.5868856435926978, 0.9093278859399938, 0.6870439698377554, -0.2744906083940317, -0.46437040485731507, -0.9557794996569382, 0.30759474482672233, -1.1223646236283298, -1.1398874448616982, 0.934390243056201, 1.0342820188312944, -0.6086957967374415, -0.37064060206337807, 0.5288177227830941, 0.7188762457305095, -1.1073067341720497, -0.0683858221358544, 0.5226558262566835, -1.32080192132846, -0.10474627559032271, 0.2537948443022747, -1.3972571640902336, -0.3061081845280301, 0.1130077883267995, 0.48615670221608454, 0.19190073639412464, 0.37536486333118696, -0.010851268964938932, -0.5084748898673173, 1.388568571312172, -0.10259403184930493, 0.16343402881022023, -0.1523784494071081, -0.32534820125816377, 0.9487773568453743, -0.4056820402790711, -0.6752205429607929, -0.4919908194313268, 1.0668641622935848, -0.27749528076766883, 0.9375381557697021, -2.049527777224656, -0.4371087771390025, 0.8265914959819333, -0.5951237466906305, 0.9858296267593144], [-0.9930098608988991, 0.0884815635606262, -0.18249383103304437, -0.09513939807589028, 0.8312868127771448, 1.161815587830033, 0.37626452034921865, -0.05023103090616016, -0.023977955688160607, -0.022061427159511537, -0.052805934678491845, 2.446025484252338, 0.4496374133727133, -0.8853699947233694, -0.37464683146820865, -0.2086187160711192, -0.567072392614153, -0.25500520622691536, 0.5336569229529271, -0.21027056098631858, 0.9494641626542719, 0.03340661096087104, -0.23598463032578587, 0.31770421869217386, 0.12305952433567402, -0.5137241643327723, -0.5887080308554871, -0.400126976707881, 0.3458107323658625, 0.3804038732960091, 1.1231037719348747, -0.7695908489742823, 0.1466595238327032, 0.9194098589953621, 0.8678830041408215, 0.43998517141335325, -1.2140087986868056, 0.1755374013091973, 0.8036939144842867, 0.9772211897817116, -0.4838927486312453, 0.48023893724674716, 0.8265965212405463, -1.314949095068307, -1.077864468217055, 0.8001638131725946, 0.23011017427261263, -0.18946472744417825, 1.422197717129158, -1.5110655018587285, 0.9270083856317624, 0.49752531223665636, 0.9742434394677325, 1.3893499854680433, -1.1709117886102398, -0.06844335274947733, -0.31366623105230845, -1.9541630357714301, 1.833907622797352, 1.4773790474936759, -0.5467648754668674, -0.4618803126944088, -0.8001027612960254, 1.7476435842545897], [-0.5041410574245813, -0.5542872233439728, 0.642230243616165, 0.5621593858326316, -1.0597309421282506, -1.6103454651126823, 0.8112628305697229, 0.33156907759616916, 0.675141601140827, -0.7499788087656647, -0.26871507962841157, 0.08723583028628604, 0.3138634818523305, -0.4640320735468779, 0.6085528332097068, 0.18158484915868467, -0.05130460822934041, -0.9231505101283548, 0.353125175056537, 1.9497701900912667, 1.410221947511619, -0.29159831873720504, -1.3420996377945367, -0.3178458115523344, -0.1107883059121274, 0.023267833852338077, 1.3617335999808169, 0.585918528847738, -0.17186571010133492, -0.28972728720644764, 0.0715058869092465, 1.191607102609662, -0.032691594531616186, -0.3683495869778615, 0.1631913284417032, 0.6851292789779032, -1.0368399385614442, 0.22544983881685698, 0.5182403559778295, 0.4245295322894106, 0.6620909593059711, -0.9895459538356415, 1.3795932541583542, -0.706877705560676, -0.23328735597196962, 0.94879285240812, -0.8808562333256562, 1.2464911131960452, 0.9922870881972422, 0.46549572524937793, 1.0585247319710696, 0.7656164115349813, 1.3698315352327193, 0.6817123063416958, 1.952143270700373, -0.3368086190209802, -0.30724750683950264, 0.37471473393717336, -1.5013662521774218, 1.247118965714959, -1.0014298396886394, 0.3660808160666016, 0.9535666703465489, -0.15466526282310814], [-1.2673209325087118, -0.18514316683644963, 0.33783739045731404, -1.0801788665499497, 0.42587517191290225, 0.11054273596367964, 0.9547425893741617, 0.7376075595103422, -0.3219758368153183, -0.17562327740051267, -0.1859379648943741, -0.5445082740330076, -1.6308119518210225, 0.31855598576151173, 0.5397890708229323, -1.781116211231926, 0.5279774243321269, 0.20756592809529645, -1.3602086861597997, -0.2591898877606907, 0.7412070397764785, 0.13443714316615585, 0.25804056169656897, 0.23655342901856274, -0.027739032375992706, 1.7532219951518533, 0.41653399594926266, -0.3892778420568038, -0.7327659815326762, -0.8123400384028157, -1.8680344755566471, 0.2228689125683071, -0.13551363104100395, 0.5121310229776526, -1.0641871239883967, 0.2436032717661516, -0.62943746644968, 0.11956401934615046, -0.20440411467711317, 1.4177825619517022, 0.3788686386987966, 1.7285827856380613, -0.939371184173978, 0.9131331022406484, 0.19905295713755955, -0.0594081761703322, -0.9239752282219771, -0.127128165471462, -0.6357943597105364, 0.2850849520220206, 0.39914750758134, -0.22668242060723043, 0.501161466754373, 0.27503120333328246, 0.12796179486947004, -0.3681036743296354, 0.4247770375973027, 0.7345912749376398, -0.23853952565207936, -1.6409621106204064, -0.8755664521339859, 0.10730035319457501, -1.2854007707823758, -0.6764669621503847], [0.38794959485241814, -0.36869705043397305, -0.8765884408511166, 0.22951132381709533, -0.22000948734009426, 0.5208401635542894, 0.5407223113690732, 2.148130240898942, -0.9769107069695978, 0.008887803416810947, -0.1738921472152939, 0.4519785018084702, -0.4104333158273077, -0.24111591379640746, 0.01606607838868168, -1.419823101795483, -0.0029482489159378678, 0.18677159996408926, 1.7462332481854896, -0.09023086653614872, 0.9679676040496847, 0.32700588815628084, 0.0656242917125389, -0.8389093362182376, 1.0195718605402009, 0.7678394023758071, 0.3661535659993098, 0.24998569363491024, 0.6941478500540406, -0.6325404362230421, 0.12392510300019038, 0.035345324055878646, -0.029099865262185762, 0.26002193530985535, -1.2477729130416169, -0.0072847242460374485, -0.13433504747710945, 0.5695199207644288, -0.25210233526933684, -1.2327584571656447, 0.9046436008406123, -1.1583890906936194, 0.7539444591631776, -0.2055399452968875, 1.2751045539114778, 0.707146446337312, 0.0804816391154492, 0.026727726945837194, 0.15227265858516617, 0.11588974114768896, -0.6515807707533943, 0.8273159765437187, -0.065119721895671, 0.41404276881716084, 0.457709920671795, -0.4022983025954047, 0.11216907857728714, 0.6436686913247857, -0.9428551682842243, 0.14747096685594058, 0.7924821410656095, 1.3921015356784807, -0.38627523979811085, 0.3380772774179016]], "b1": [-0.15339922424744085, -0.45833437106099895, -0.3263801040250716, 0.2905985330991296, -0.19483804700276908, -0.615316687461202, 1.1492486494713874, 0.5418381549212052, -1.0773937693440945, -0.20726627848677512, -0.039538331366577306, -0.6067900519473252, -0.4554664803652089, -0.6585172918513406, 0.27744262870968484, 0.6231263645667025, -0.0567546416244924, 0.22907645608490612, -0.6560645755969449, 0.03288643805516375, -2.0317349537933795, -1.3813227845912313, -0.27139724873036675, -1.39716616980746, -0.1003930912984378, 0.6635756345841524, 0.5415829315862286, 0.4491995871523172, 0.2673967597203353, -0.4239444219368905, 0.1699816352456896, -0.2772686257251811, 0.34311999184127534, 0.10528243825339867, -0.7008185401309182, 0.08121760699788766, -0.04438824423646831, -0.6193353636126292, -1.2725419620418221, 1.0568021510192396, -0.6187672361764558, 0.3711415424507354, -0.7326364968643897, 0.02591497417309995, -0.27055699544591416, 0.4427674001758336, -0.20814024552941962, 0.8622777313593446, 0.21043935057306767, 1.0087046112910836, 0.20599975750410793, 0.44291958221555505, 1.0573364171866868, -0.3320831755117797, 1.6854362073907199, 0.7399548335363458, 0.29960809362397584, 0.21760272617649662, -0.2033815680345594, 0.2806632025747202, 0.2923840874215595, -0.6433051279277378, 0.6703421911529734, 0.4666220429698602], "w2": [[0.7487780245565492, 0.5435809979311461, -0.4999143256490056, 0.40263949254827686, 0.1341121319200885, -0.7355162515959403, 0.7998617921842754, 0.6487053310568223, 0.7040500701192764, -0.9734553203657467, 1.335391624956748, 0.1932992266437671, 0.28523268376846017, -1.0412762567068778, -1.4317075536311845, 0.031165167624569723], [-0.035436938285512753, 1.4234919738587566, -0.1833062086352145, 0.3421153617057324, -0.626288137301534, -0.6632094930384298, 0.799953305856296, 0.8325089063648564, 0.67961168119741, -0.040830705381166954, -0.5601404652728107, -0.26202281653298376, -0.41104109229300584, 0.6377863678219687, 0.18593760207473187, -0.0037828232760508396], [-0.7701210608116158, 0.22910987512038916, 0.5324381041027823, 0.30734964346948007, -1.0079156748136107, -0.09103382602230903, -1.576400515198733, 0.10625748791387232, 1.3011552023163349, 0.8144887415038549, 0.1815758418958182, -0.9628699029390355, 0.09670502184778701, -0.9771249256077732, -0.4150678513444326, -1.5569783701554238], [0.19112703084753668, -0.06359796792063244, 0.8227224685155192, -0.10933660451393806, -1.400714079377164, -0.8176084113931695, 0.008346035252930095, -0.9820598804105938, 0.6653365364887706, 0.8376108847318757, -0.8310322850040631, 0.6279388636547402, 0.6238889773145887, -0.7514568283087262, -0.20140256581670465, -0.4353874896065586], [-1.123195647081276, 0.8451564192088854, 0.09614929833707953, -0.11314375098832294, -1.5568320789552441, 1.4838480908956586, -1.3418314761978822, -0.11405307366094268, -0.40655695979982215, -0.4605815281383757, -1.1971946571162468, -0.08620930139207031, -0.4326930552732109, -0.7226466941351289, -0.4869587690132041, 0.15301163430716544], [-0.09238171503206319, -0.11936713335830848, 0.14008506830481132, -0.2504156383423028, -1.0014983400062958, 0.23618998440332906, -1.468306926594053, -0.3560685475460238, -1.1756884156466851, 0.06833670747769494, -0.44960684202183987, 0.1826868416231211, 0.7944335972946629, -0.4493016790946306, -0.3471272532326407, -0.25516184301188627], [0.07391840792523541, -0.5956516498733004, 0.43595875545458246, 0.5673728833090719, 1.3118787801079015, 0.04938875012753091, 0.5672474925159341, 0.7465184767452647, 1.1630446800915664, -0.12195298302051796, 0.12040326601912532, -0.41881783792006033, -0.012991762693352615, -0.3278958053851126, -1.0493739216207716, 0.9770669968398042], [0.5906209376079411, -1.4290566736105974, -0.6294662062951146, -1.2934439765572285, -0.6682467656321525, 0.7738431999533987, 0.6804828283154307, -0.20818593391339124, 0.4352461980969535, -0.7511417809938817, 0.5164167949949138, 0.5585234134842371, 0.3983832705207526, -0.3313838677340726, 0.44070108813715103, 0.2782998913932672], [1.3013942374827387, -0.3922552763270057, -0.740265891592146, 0.9538981153583193, 0.21185147056137993, 0.4676277298901813, -0.6980746781552392, -0.7536310719760483, -0.5270486477911435, -0.4218219603524441, 1.4552161130003731, -0.31732444690324857, -0.9413461151723731, -0.7265983961837563, -0.14017658325201476, 0.7001398752753233], [-0.3189383301184394, -0.20606253351182183, 1.710887397230545, 0.5254087408149936, 0.4641281662955334, 0.20813292601212563, 1.9402030234282743, -0.5085587655114306, -1.3034722618013432, -1.3678749611824528, 0.42985477006806483, -0.005880210457319512, -1.0826645940774804, -0.2672252726884183, 0.8018517285996547, -0.26388183225512657], [0.22483616001105705, 0.7622317259113891, -0.6387646225882753, -0.45520419196494505, 0.8296952869971149, -0.9257039478739042, -1.1954660127587664, -0.4933540792419241, -0.3077480545777335, -0.5722842810717416, -0.9681531858379377, -1.4728266113962065, 0.442676007076515, -1.3873436375305102, 0.08044642106547965, -0.280182465307969], [-0.8043781781465812, -0.17082689808219953, -0.4746611271711532, 0.39629519141758196, -0.5778778240033684, -0.29447852382573275, -0.11063109483367506, -0.4053600698523348, -1.6569367979444862, 0.026675683726146822, 0.41361784456627326, 1.0592418663215137, -0.317480392899405, 0.37801246861799886, 0.2658168307569999, 0.09833272653819197], [-0.8207868179796453, -0.03245617542150633, -0.6163436046777558, 1.0141888328437447, 1.5429605837854963, 0.7242896728390374, -1.0894974449470047, -1.501340541778993, 0.002042829871851587, -0.45898544913318506, 0.2773449177101332, -1.1618046981073697, -1.525622859267048, -1.0688596612985988, 1.1950297205997271, -0.7378439303190523], [-1.0480012384707995, -0.9013193682954259, -0.4072919533059518, 1.3640127535802575, 0.10733984672104041, 0.187166629118389, 0.4760136664824567, 0.24041734562741404, -1.3750392333724593, -0.8492974869614257, -0.06756216404016863, -0.11206212801745918, 0.28503442998087497, 1.4274142633779583, 0.439556982514024, 1.4047876331448412], [0.7318461786698115, 0.7987786258985746, 0.934465379477914, 0.3226740584499096, -1.2038082903068386, -0.2157250578193135, 0.6232310782870534, 0.6485794723804823, -0.13817009531529284, 0.09657098270730935, 0.0895079896405784, -0.3227083403481076, -0.8260927675702421, -0.46820883567961336, -0.7807751687257615, -0.3181604300361258], [-0.06646038503117506, 0.61761476107438, -0.07564879318428755, 0.24017963847485263, 0.34813687170074603, -0.023376100313247807, 0.1615801474266338, -0.33117464937593377, -0.42500067048291235, -0.2979315315870098, -0.21233889680490992, 0.1871741135685449, 0.8409991230854852, 1.1727102294097982, 0.2500361784814307, -1.1399838869112324], [0.38636023073876463, -0.31609726990387543, 0.1741616312255927, 0.5384537552321118, 0.10723073377286643, 0.916550162578561, 1.3914847186379078, -0.44814281747524864, 0.19592832379165198, -0.222605990271589, 0.4456439413048118, 0.12012414430768278, 1.2073484295876806, -0.029640379734919897, -1.2830569016006912, -0.5399788423059372], [0.4589884970356559, 0.24202600384332096, -0.26663301435179315, 1.396562507397507, 0.4075908806000032, -0.05449609665665667, 0.058373768659603975, 0.21103850575036803, -1.726208947805267, 1.5837310743627981, 1.8804292170630281, 1.266024804035107, 0.1896251011202179, -0.8257927797222628, 0.14771786344860333, 1.5971427433597585], [0.7048153059397814, -0.6659021135538756, -0.37210023382881907, -0.7951797615054423, 0.0485534205866963, 0.6432353731061305, -0.07867264774964634, 0.6360204534144337, -0.03753911572367799, -0.24197872427938655, 0.42257265249014786, -0.15441223007845606, 0.7423719225754155, 0.003230448830923806, -1.0862616315007605, 0.16426959048433742], [0.8381700390165898, -0.35187902621304834, 0.5630197507301293, -1.0968747119710032, -0.057817770209639394, 0.09685869947009398, 0.2594590213090589, 0.08080965170941079, 0.18036148888175996, 0.8730817361150849, -0.9197709053953352, 0.7830802006651122, 1.0998533017400878, -1.2893846598664958, 0.342082486593424, -0.19297861901389657], [-0.5506694256138572, -0.09971217955811473, -0.18799617217763354, 0.08773501431231137, 0.7816685379144725, 0.1360547200921826, -0.08657209863161573, -0.63430050356946, -0.5188626037929458, 0.07283798251822805, 0.3288575629574817, 0.8140760226109224, 0.0005012799861537909, -0.44373309062941513, -0.5486781952517634, -1.0691548744501735], [-0.9283266035027619, 0.905270642772648, -1.1245594273788595, -0.9495709329310287, 0.4779116818906409, 0.9225750877456382, -0.9784752064434282, -0.1629254141396876, -1.2283328816553896, 0.5288246693783675, -0.30456301594275587, -0.06819262187034275, -0.29314913265751397, -0.11467978740643034, -0.7581161711811208, -0.17872912903501986], [-0.14925812940569153, -0.325599330719532, 0.6076216835546417, -0.03271567720343482, -0.2258579919146014, 0.6731179229621891, 1.3320107876904752, -0.34285377462249034, 1.0163669074315518, -1.1855286790336126, 0.08719681814586533, 1.1805248564041702, -0.7195896567787881, 0.033121313930685056, 0.201290108511133, -0.0453207815405722], [-0.345583819598147, 0.5414974050438796, 0.4775147369373661, 0.7068147075721197, -0.04296099168621326, -1.4801682629629356, -0.06111505439154821, 1.112318657342959, -0.03931010321010961, -0.13276539384426675, -0.5195486677686436, -1.1567166957505677, -0.5115902575918219, -0.5702069250142863, -0.21402966822962133, -0.22626238632736648], [-0.7061784716709768, 0.28021632745162095, -2.289022220222512, 1.0272421503565161, -0.03815114282014129, 1.1939217955631052, 0.44071143979569166, 0.8774117704945197, 0.07799246251464083, -0.08726486577825268, 0.058951342305652604, -0.07576422484901386, 0.5787515139722625, 0.49801601083674546, -0.7673528754805983, 1.3404167256879], [0.7556032786077445, 0.09083734809132973, 0.6722201308511093, 0.956162743976738, 0.21454480305695878, 0.4150392306937203, -0.02313371236007103, 0.5413857234037749, -0.01280407677042339, 0.3550657159937982, 0.0873234236180134, 0.06630035914664384, -0.2446379181295399, -0.6525660971390551, -1.4319968856327885, 0.6345748828962221], [0.562451092088779, 0.3854381332693432, -1.34830584809972, -0.3992448455084444, -0.7315909283176377, 0.7928471962110606, -0.5020345267428798, 0.084578134146084, 0.005725027187718779, -0.4599170781114974, 0.10991671309219182, -0.017277800434614715, 0.09089551393309275, 0.49473114592422307, 0.6425417738102941, -0.47124513127700984], [0.2817372597561209, -0.5698385949304884, 0.2902611315764514, 0.28997318647120723, -0.6219309306678016, -0.29880929303371173, -0.6458161651003415, -1.0520257529558057, -0.010809158329715463, -0.18545757901231263, -0.7554709638286673, 0.23151990151619278, -0.6823642496283653, 0.4429977672460993, -0.1098379973092534, -0.16056456616689346], [-0.09783114169232282, -2.2026602961573554, -0.03311872408053801, 0.3297678162365097, -0.975577282116639, -0.7001633908697869, 0.04338510031811242, -0.2875068992936042, -0.11808071409784082, -0.5732642414740636, -0.36242826768159353, 0.8753413060959876, 0.18013018618253385, -0.4714797101410056, -1.1923697768403538, -0.43283766599349993], [1.0480798806167118, -0.2155038024127796, 0.6040826870709624, -0.5166583630620515, -0.1863231769003112, -0.18885468941832734, 0.06323962298854946, -0.9435111290164122, 0.16197965764447628, -0.4004287925101445, 0.5641498352391819, -0.18791574898564056, 0.05915849121355203, -0.628590309911463, -0.27965500472881055, 0.23832102105101752], [-0.10564153996345338, 0.7203584919615575, 0.17465254421149393, -0.22097220284653446, 1.0550152752170643, 0.6917572621334731, -1.027376794450429, -0.8063103412762094, -0.5846440774658692, 0.8040319131391718, -0.46750143375118536, -0.8934622993526066, 1.179024260958554, -0.43004896576272594, 0.7100372343975374, 1.242010684504415], [-0.2665353202868186, -1.4517984255146077, -0.23597229477763076, 0.23988009788266987, 0.2120722744893921, 0.29698220666850506, 1.0720283851750263, 0.18378799064645057, 0.12601843414520403, 1.39328823274052, -1.0845104012851183, -0.3729506738716475, -0.5208342942367225, 0.09699932001528191, 0.009542136927224075, -1.1581864952493885], [0.04162311211253317, 0.7818212325380831, 0.32143014665284475, -0.3421962168667127, 1.6116878229737863, -0.7308912014019472, 1.0272516138261591, 0.9788240094197458, 0.7155379902850155, -0.1661032364016663, 0.7713819149638302, 0.3816871831236709, -0.9260842540955394, 0.1740728410405256, 0.5188203306135184, -0.09484256690280826], [-0.9047109259740219, 0.23413336445530908, 0.7731162243882589, 0.16879160877885419, 0.33637824052460635, -0.043031563078802404, -1.5457038550730133, 1.3094994563947049, -0.6041138636742088, -1.370205951994466, 0.9026924388305995, 0.7183656449153231, -0.5253377531510076, -0.6035094658277345, -0.019706849798716536, -0.825854942380553], [-1.1772850943418072, 1.7644027153073578, 0.665182169484491, 0.8636030063970164, -0.5397360295467635, 0.33634490442561044, 0.43782407503723964, 0.2171627078862203, -0.22044309056425707, 0.5960652489421775, -1.7035658823283137, -0.3498635072950656, -1.1514995996983688, 0.8167977297839746, 1.3223168952644815, 0.5832909136321694], [-0.5785613917481773, -0.2759609748676063, 0.6230893222905285, -0.9570191906030225, 0.21722493054826025, -0.07527310385216658, -0.8752442884940564, -1.5220450497224038, -0.020751913473224783, -0.4127118537961345, 0.5426710030363759, 0.027211084911419103, 0.2900196619690124, -0.3068950598512604, -1.3774048742460723, -0.5952114746505314], [-0.24812035608140104, 0.3655702760775767, 0.020454948763865693, 1.5903272162801678, 0.35538243893571975, -0.32928342326218063, -0.4780672588896954, -0.26609947326373506, -0.8392109611930832, -0.31230322507010466, 0.4527583703151, 0.06641663888478452, 0.13201219791820112, -0.33551678508796345, -1.092885168378455, 0.35199824320246104], [-0.49550696038831454, -0.39717412814343384, 1.2930690661122375, 0.948972630652912, 0.565500864259531, -0.6620316295869386, 0.18950135444995223, 0.12286431189024297, 0.5293391821404713, -0.25488204254918, -0.3848243548426734, 0.3602263929965018, -0.06831605925643844, -0.3408065823764066, -0.44999232389075344, 0.9099819922135864], [-0.8014339520194956, -0.11268937024003783, -1.1926304555669514, -0.26283357306975036, -1.2523051367078093, 0.6767345541056546, -0.6053086836665752, 2.267343282694292, 1.5666462724130918, -0.26816530520078924, 0.46192567243965565, 0.8652484713116897, -0.055296181768491506, 0.6419717874068775, -0.09705742626445635, -0.26989937513400986], [1.2074073111251566, 0.0946410622204051, -0.46698964341039373, -1.3241432717697066, 0.49233141063459107, 0.13074156615518012, 0.5360358789591047, 0.2606259275535355, -0.724733867156691, 0.8022702723904863, -0.2916949943071515, -1.0278463844614487, -1.2552699061451638, -0.5841939985519282, 0.17775879441971054, -0.2669124801906124], [0.20760047847225166, 0.7246414287989693, -0.5190125695451151, 0.6267683949921032, -0.2758725110552623, 0.5140440207257304, 0.06673335766853308, 0.11395924968523652, -2.025212474361239, 1.0387524556960235, -0.5174347524350471, -0.0418290037325261, 0.3725725767777955, -0.26361458962925166, -0.5024937781438754, -0.21805815277115015], [-0.4111806964982228, 1.2368407586976002, 0.5189309864302183, 0.12401529634439142, -1.6090776790509458, -1.0630213576968783, -0.5602125457246789, 0.7154137374909826, -1.1924006194856709, -1.063531676905564, 0.3270340050528503, 0.5627410308840023, -0.5671180841644734, -0.3991699491823534, -1.646434268006801, -0.05254762496055021], [0.46210463788833556, -1.502708686721714, 1.0598226054298718, 0.13497834831872757, -0.7590344451421802, -0.49385547228467247, -0.7897413258451469, -1.1196728701889642, 2.322366548116281, 0.13869700753279252, -0.47134604844619066, 1.2280614919016049, 0.261265086439881, -0.6679047915530703, -1.1408689084384587, -0.958211276786898], [0.6436841056232955, 0.673575703486882, -0.8263686140193914, 0.5983002936617149, 0.6326034654304404, -0.48447960909960974, -0.8685685624762407, -0.33400541129894545, 0.9617919757988198, 0.34357243812803834, -1.1337965821654201, 0.5785771252370864, 0.6316647979548324, 0.5886819313207412, -0.031326136758035805, -1.0559968415008367], [-0.7132143314023305, 2.041274827832303, 1.6811081133316366, -0.28143151620884505, 0.5199498074970682, -0.4172578455242405, -0.490598681712403, 0.27726013869940574, 0.04229863691420441, -0.06708581078839349, -0.3034026283813522, -0.7462554564424309, 0.35601051613117135, -0.07652445040314466, -0.30387627839420045, -0.1261783485772292], [-0.3202016766504702, 0.15384897685302532, -0.8293362442552908, -0.11692233618920972, 0.10113618563465077, -0.601728746994565, 0.18665792002388282, 0.7523478089119897, 0.9929511512216898, 1.2979791551051159, -0.6430101368156328, -0.358098493154071, -1.423522104085806, 0.38059173181246014, -1.131947448213901, 0.6225479307685785], [-0.5023862770262315, -1.0238546652781277, 0.35605017093029, 0.4975710584068944, 0.029096723464244467, 0.2041146742319644, -0.6210977360523398, -0.228714395370092, -0.16391606538757256, 0.28031115325111666, -0.9201758390264169, 1.108122866881492, -0.3454552193938468, 0.5863007167483405, -0.4271237585471396, 1.4417362959718965], [-1.374199046683779, -0.5221542238792892, 0.5023091121760996, -0.8875954161089477, 0.5610294708108752, -0.7069801968280514, -0.8870102527386475, -0.7299216291268458, 0.5432144423854296, -0.8219556389932678, 0.8522918182584904, -0.3937189154692565, 0.5673440554551705, 0.9942247463993258, -0.0019231150376303324, -0.8237214116934322], [0.2633941380250354, 1.7070550110852931, 0.3669408776371497, -0.32909565066531277, 0.7252063114472661, -0.13943013984558816, -0.02638451359862304, -1.3749045405410505, 0.5160863518939125, 0.5292370200099588, 0.3588541337850696, 1.1851491118079274, 0.3782245096176664, -0.7514571215902861, -0.06730815858805028, -0.5460934419996586], [-0.6361050817428041, -0.9470976924926272, -0.5532737341900642, 0.3075575907078133, 0.4512969534418917, 0.7508660046394344, 0.712169532219109, -0.8234517858457758, 1.486754948448597, 0.7091691475273072, 0.15469112252030304, 0.9096245417356499, -1.6994661111963165, -1.2372024018077032, -0.8448955762256569, 0.4417822467703628], [-0.11976217768047842, 1.0617062614848047, -0.10935812276025539, 0.35457797825806, -0.9488183839335574, 0.5710550725045322, -2.036882077154698, 0.4791800039471591, 0.6259339610432064, -1.3265662314719113, 0.6876029759448872, -0.4840031862193312, -0.21386009593869937, -0.6175435577988779, 1.389612583305577, 0.837117315380666], [0.465201146320312, -1.0182078353036086, 1.697776075898748, -0.5091919784516218, 0.35417711094210647, 0.24410384500371135, -0.652273802874569, -0.5339051414136902, 0.2957319460942519, -0.3608493564360205, -0.24917465589583337, -0.06487766433014565, -0.1525636967095524, -0.6644591652702985, 0.5338540507977719, -0.20066180277290496], [-0.4269090639631361, -0.2634603264624118, -0.3043973872662367, 0.20163207781990586, 0.4597357821342817, 0.2125245737598039, -0.0016962016316296805, -0.7025089519810818, 0.3133999614089115, -0.44996881749889334, 0.628185850329003, 1.6424396281819447, 0.9030069698781984, -0.2861652682928889, -0.8195165100471516, -0.26820093024435726], [0.4842501445048048, 0.7776155697095259, -0.43481637587464933, 0.8981590074026155, 0.32273463277231285, 0.16190435120385446, 0.3880733499524344, 0.47074248339149627, -2.0337983815751874, -0.4926628959751703, -1.807920974738098, 1.442323776208676, -0.09328308165354376, 0.47550328022124944, -0.6497967730688321, 0.3985190647907167], [0.4054174669158222, -0.1598665905940448, -1.0006078417156477, -0.5399741191333355, -0.038098289014702164, 0.7566047189131958, 0.7939935744796431, -0.08496838189033165, 0.5225376825947938, 0.20020441409134956, -0.5054445997327094, 0.982233529287136, -0.561401386275941, -0.5414485549147028, -0.03867600934753671, -0.33263498126703817], [1.4172633252866857, -0.2527912959513243, -1.0075320266898105, -1.0580828846024901, -0.9359967278014072, 0.5485711890793272, 1.6633428521212088, 0.45499575062976627, -1.3370363648460692, 0.2401703459597932, -0.2550422615939935, -0.11812593540250926, -0.5689460453608142, -0.5341944700892625, 0.17444297584440194, -1.0199092235363056], [0.06126885764290213, 0.03790329891897912, -0.7326651288784757, 0.8555862694302532, -0.4891791331413323, 0.147169421206674, 1.0186533489636511, -0.22625464502857495, 0.3073084291547241, -0.4059476125861789, 0.3549329860379591, -0.23803208540390525, -0.7980379476179821, 0.7709932288465761, 0.6482269355291703, 0.4420282130172708], [-0.0836119430858078, 0.4945984448136647, 1.1307796959696863, 1.0080912323187776, -0.28786389424377645, -1.2148612770150633, 0.03873375441944174, 0.7634741222071028, -0.5716196050249241, 0.3993227265548652, -0.23507577164690685, 3.071395246400847, 0.1781367237320471, 0.2990310125101662, -0.5403704594122176, 1.0791512664956204], [-0.1882719831144251, 0.4811415382691555, -0.403624468672677, 0.02525783672034669, 0.11178628854838575, 0.46012931353033326, 0.3825727576059523, -0.3473350984287076, -0.5367057915609346, -0.49518318686758606, -1.032986581780189, -0.6396635471285094, 0.99111271434152, -0.5340835794876581, 0.055969152456529864, 1.345535293077658], [-0.5873100155468995, 0.507822058395796, 0.4907018488718666, -0.7331212308949633, -0.22313232506981084, -0.5230743022472611, 0.5513341157417904, -0.154147105076621, 1.0490661613473546, -0.721277784156958, 0.6895671884405964, -1.5113883790602394, -0.9732479748480274, 0.33506687691110154, 0.2879315540784717, 0.04279357796025024], [0.5535755475440338, 0.09656823983031881, -0.08465484963895109, -0.6181424193578016, 0.6336351147497783, -0.8055053113914141, -0.49204643549345983, -1.3526267671995071, -1.067299993177937, -1.0193192286781556, -0.9123022665072185, -0.30097978626270794, -0.35392717620638087, -0.3151700517044066, 0.1322510301798003, -0.024888452430229836], [-0.14171144878330144, 1.7278708575710073, -0.9743269702278073, -1.078126516341722, -0.47204781953779174, -0.3382465182551895, 0.1843984984066317, -1.1682268000794087, -0.4060492648539839, -0.3554579949243498, -1.17411894899946, 0.6979208053525168, 0.18249344720479288, 0.6792229941789809, -1.6064580049370611, 0.8441407419104849], [0.1427751903329849, 0.06890144150250133, -1.7188661120010829, 0.1725147857135519, -0.02465309409168509, -0.45323292964492484, 0.13602198699347728, 0.02662723574645151, -0.11996486355530125, -0.25386875382448515, 0.45851230912669094, -0.7620890237958844, 0.0036544003722964683, 0.457151700099799, 0.2503984823059831, 0.1407807565493155], [-0.4648141330345161, 0.0609825725403092, -0.4404754547509088, -1.0571850664603926, 0.653435342445705, -1.0771942234915428, 0.16004925356561855, -0.2580065651866747, 0.4503426418457297, 0.4465398894554807, -0.3324639463246101, 0.49710148168077833, 0.5139870137827364, 0.6201129781947841, 0.15562749820616623, -0.284493087778223]], "b2": [-0.13922139683910548, 0.10635644601708738, -0.5925233227888536, -0.802936667452134, -0.47992237189774145, -2.0339835583562227, 0.08362235091083059, -0.1637974043287558, 0.6443919018360676, -0.004418372913710944, -0.6120289945647586, -0.7106459870532823, 0.7026272071723357, -0.29153281059474606, 0.755858133898727, 0.8687586256182798], "fitness": 0.5744897959183674, "wins": 563, "games_played": 980}