{"network_id": 20, "w1": [[-0.6398189983972936, 0.7087435043274644, 0.9018477287777616, 0.12988482778201654, 0.3015795882087986, 0.1988239520996421, 0.30585206907394547, 1.1940901518348586, -0.06727321898598729, -1.0223158822038065, 0.0489010593846535, -0.2920630425061066, 0.3123576246848371, 1.116863379282068, 0.20219820071803504, 0.18817183690834308, 0.38737213907854984, 0.23918572534513746, -0.2358875567175891, 0.10782941435468174, 0.3281789994548203, -0.2032375389408579, 0.43673130953043804, -0.08436549199671636, -0.4836012256044262, 0.5771116596287283, -0.9021372842088402, 0.093203531964412, 0.13042531533855473, -0.12977352905052808, -0.8612879650157025, -0.3165002442164702, -0.06420078930534942, 0.29142055638632963, 0.738623517794624, 0.2011157060651433, 0.8220356473094843, -0.19388502504553504, 0.1779684982810609, -0.06532130286116651, -0.3705480180196853, 0.28738231638504325, -0.2027784674582895, 0.10028387969711086, 0.09936133227999545, 0.4753685277295568, -0.40405320980162734, 0.07529767698159721, 0.27477561812241075, 0.720510126937175, -0.8127360835100295, 0.7524225370762193, -0.7159753367085485, -0.23906454794852983, 0.07731806555624139, -0.481345419538385, 0.07737115760595058, 0.10917220771894562, -0.5941111460630241, -0.6425483675416432, -0.5787244497265626, -0.01096986157067091, -0.2857794261121216, 0.41376776171198437], [-0.2329681316429819, 0.14783285644118022, 0.569047231773752, 0.7259503945254681, 0.1610745978951877, 0.37019498333950557, -0.5030241276187143, 0.16406147347958605, -0.08823633164819866, -0.03274025782120904, 0.10349083183716568, -0.06160690673441458, 0.08262672586120842, 0.13093685490299767, 0.12030358456112869, -0.7512162943650856, -0.6070810308965124, -0.22395680608861404, 0.01570875264443413, 0.8399835526526187, 0.39995511318848587, 0.07930621976349272, 0.17235905546294206, -0.8041611149808198, -0.5921296047324598, 0.1429258759069606, -0.46570634737500205, 0.10887030377083401, -0.21245096118529275, -0.04380140244951002, 0.2735171957959959, 1.1679813928003955, 0.2753915656750785, 0.14463086112492224, 0.16453626445732855, 0.24735379954892894, -0.1421900371603621, 0.8390674415342635, -0.17889802792259485, 1.2459669457663722, -0.34353464913450055, -0.2838350669798474, -0.13149022268892352, -0.22632242116885865, -0.15695223393032093, 0.0189159685588565, 0.15994490307548165, 0.3641207844329625, -0.3934110491581159, 0.16585180393628524, -0.19272377328298473, -0.06694587479338472, -0.1584334030975056, 0.3165357187468061, 0.3713832974654453, 0.4803782320609322, -1.0457812479704496, 0.03977231990362783, 0.019523460796072194, -0.1353243825618813, 0.47820581548379415, -0.35971568568296264, -0.5434998695413731, -0.3162408487684078], [0.006487708338175335, -1.7138305261135012, -0.43194030277802337, -0.21843037860020273, -0.8462858656416336, 0.5585421050735497, -0.3903262352960947, 0.8226029465810273, -0.21768797482767444, 0.11008682507335328, 0.5742062863655175, -0.8557668690218142, -0.2945622101987427, 0.9009492788802562, -0.0885998947400741, -0.02453459705662837, -1.0559469270291726, 0.4081348846860454, -0.14311967151666463, 0.4775367348966545, -0.7574144891763455, 0.19511345548092807, -0.03406299562805598, 0.5923857567338515, -0.3379502692681138, -0.10408456789308138, 0.2914840547447708, -0.255520779843088, 0.31110192282623655, 0.6734248333926554, 0.08860162452333313, -0.5841469349072695, -1.0141950968003752, -0.500738960805359, 0.2401183860431644, -0.6352719181023948, -0.11581654032334238, 0.2911298885444956, 0.016513611243450736, -0.20830341776312314, 0.5179130194485005, 0.06255948774997441, -0.003224049965300138, 0.8008573294777771, -0.8131974124372217, 0.5864948368776791, 0.5081875676307962, -0.056290543749618366, -0.3659084945429281, -0.2612972220959105, 0.029528280346934693, -0.2598417561740625, 0.46298801560119834, 1.045529684613658, 0.04517648648198591, 0.2600065649043086, -0.5125901223654233, -0.04668477598044731, -0.04792296247147316, 0.39736229989541255, -0.29904777122389775, -0.033788751401382155, 0.4041555796519735, -0.32872984278540035], [0.24191095767408355, 0.41238580900800936, 0.5433139688018446, 0.2076542685741951, -0.19227725292672337, -1.0560269253019352, -1.0469509788723808, 0.273036138461076, -0.3944761737531088, -0.6887988286490849, 0.4945093067925257, -0.35153098864873544, 0.5110634346808549, 0.2802806799718772, -0.052847717579984854, -1.2975457777838622, 0.6694064201037683, 0.24152449383994956, 0.2754669358851134, 0.7347619421351554, -0.29220415431575975, 0.23462210511340392, -0.7501262880234447, 0.8896447474695561, -0.001215313437058843, -0.038400493560444476, 0.7343291005177358, 0.1843928977849403, 0.7945912650249691, 0.15689614822541761, 0.4726857743880454, 0.4635929612626529, -0.426699101903138, 0.07522296119689215, -0.5359821662343731, 0.4503131586920762, 0.5934025562939863, 0.018351837179690758, -0.6053976274565913, 0.41687027665355664, 0.2947070639334292, -0.5365439847745505, 0.18526561940551897, 0.3902223961821195, -0.4893468221766778, -0.4717141611940826, 0.2918398408130258, -0.061812335761982994, -0.5211317439901606, -0.5975686282934882, -0.010928515345989959, -0.27940283123803406, 0.8041395669813157, -0.841547387582734, 0.07019512661747035, -0.0799222069585729, -0.49572046210461945, -0.023587278518965214, 0.0787124339717026, 0.01777882154588628, 0.28920802543856244, -0.3619591995504117, -0.0005813532949234673, -0.3415020230388577], [0.11060394351232836, -0.017113768597336702, -0.33210073185289896, 0.7337770650429147, -0.09020274177883715, 1.393957126370137, 0.41205167339469795, -0.21689209676536797, -0.5784391496885959, -0.97766308053196, 0.33045102179823077, -0.9077074204944751, -0.08154174621293966, 0.1992092990098591, -0.6254066089488585, 0.12941566917489047, -0.6922920604143876, 0.8883742890329919, -0.7598769679719155, -0.5459479888335029, 0.19198341887902437, -0.04345089315703546, 0.3639222721449106, 0.010476559392050937, -0.16181540164773678, 0.14364233077541322, 0.18690358810789762, 0.3679216168597335, 0.9689427943350684, -0.1602879237139307, -0.19469397236615937, -0.5472352109955003, -0.8799018972788267, -0.1479392351986532, -0.22092371181608114, -0.19711815053759763, 0.44539743982016256, -0.10795707265532796, 0.7683886318519928, -0.21867299910615828, 0.03192180377278148, 0.3985219458212791, 0.13856844924391773, -0.4259369845560808, 0.626362303797531, 0.1458515056287432, -0.41372145333765986, -0.5714689872182837, 1.4615612935705324, 0.5607980203923992, 0.13216907002686157, 0.20140597252824133, -0.12565274619508335, 0.6195145052929847, 0.38598025966630106, -0.5348495618618491, 0.712935856971225, 0.063722114906129, 0.33311491389413317, -0.3596677400927032, 0.6861031440487761, 0.11139279324467484, 0.32883085966635206, 0.04722249945977136], [0.5322267081901553, 0.353732119374789, 0.05918232780658711, -0.36941679971724567, 0.08158313350513738, -1.0822122375745085, 0.01244749609365503, -0.025710970276679818, -0.9324810201376231, 0.018721312257099353, -0.11812861713574557, -0.23031359208365657, 0.38125193742005753, 0.27369209856679527, -0.00016354215933122505, -1.0173263920633597, 0.022308167319218697, -0.6894972993705144, -1.3517970030646573, 0.20362829121217357, -0.5578816240459663, 0.5910684717920669, 0.855604938612866, -0.4610320785184379, -0.16130220950037746, 0.3804731742521645, -0.9210074592908859, 0.06472466990168559, 0.3337518908397018, 0.09492894633876442, 0.08029560110420988, 0.3954193321480679, -0.6597390161472286, -0.3285284153183139, -0.12497627939874131, 0.09282506108271425, 0.08467648578894414, -0.12052870635247888, 0.4373249527466132, -0.5747314734295869, -0.07595447568375858, 0.04652179054570338, -0.40983299921994937, 0.36425984704947406, -0.2318205764937336, 0.5051216236735636, 0.0070220207713546645, -0.7407265033286528, 0.7873689721803223, 0.28628747300069607, -0.17927662843836734, -0.14763763478210784, 0.6481478026726106, 0.35991566090007854, 1.1533332924111857, -0.3697992813656725, 0.5360860405730151, -0.08854264390282686, 0.0042077153523573385, 0.5033534079500244, -0.06024243041381564, 0.6365611599911515, 0.02852789397890107, 0.08451155304227369], [-0.09785588945558327, -0.08976326506676953, 0.4173260576098545, -0.05517124065369236, -0.8869261203610836, -0.3084992785402133, 0.31869517262066616, 0.2814325797293965, -0.15393472642408193, -0.1702570624940863, 0.04369550864807936, -0.7656292643240488, 0.2548779103862378, -1.015544644211374, -0.13583607283299753, -0.4769953175033223, 0.7453093954988316, -0.5829362660402287, -0.536606242818481, 0.07795211844932629, -0.09503667445828629, 0.43498587785033194, -0.1553415114455391, -0.40227507135444074, 0.23206901075488798, -0.23354158282550722, -0.3339694157583898, 0.1701173843651214, 0.47752451226601833, 0.13941579400027906, -0.6867255996406234, 0.37560418789544553, 1.0008717136869112, -0.017958092191125236, -0.6351679475947283, -0.03844881854928367, 0.004849124641868097, 0.5718503887307631, 0.08664912954741853, -0.5428346740324311, -0.004857410423848546, -0.33216195197150755, -0.35873847033420597, -0.09657633091953177, 0.086670178102973, -0.3388462282941037, -0.7595579155402625, 0.6996420628440061, 0.5005181272003728, -0.5547329847020493, -0.5721261898206558, 0.3580314642484789, 0.8046141732549629, 0.4035837107890835, -0.6538247496276041, 0.5045123703244163, -0.20227561943049877, -0.33919962016993876, -0.03755974324745459, -0.5970259401936163, -0.2499173790473414, 0.27957317116378055, -0.42041627160917294, 0.06917025301627293], [-0.40657491515481775, 0.6584583570495539, 0.038682867920596525, -0.44368238059226417, 1.3495413791035387, 0.6147012254822333, 0.1346446023428572, -0.3977143699821235, 0.14902796124746043, -0.7467413466182531, -0.41949655453432194, 0.8621630207182698, 0.7362678163442191, -0.4869190587817862, -0.392597559303113, 0.006039703972695348, -0.6390745349362031, -0.14433884442534903, 0.30622492156706604, -0.18381444903312294, 0.17529888994199336, 0.17213296135920644, -0.37202347138190817, 0.2511670783511011, 0.3591897981297365, 0.3991436749567485, -0.09683849848939784, -0.8711732802597906, 0.36180860550163385, 0.3880696035058407, 0.8329642624698699, -0.7785327988107736, -0.03330642243519666, 0.600511644918698, 0.4719507260716697, -0.04259139900566922, -1.2786002934334215, -0.3246614045753979, 0.29636592350135643, 0.4863372532058662, 0.28791139095893836, -0.22923637992667684, 0.4193783286595975, -0.3095808814894023, 0.32366017825497084, 0.20972224409713763, 0.19847019341205654, -0.5700201793281665, 0.5220075584363773, -1.3340405908982238, 0.6081539474368487, 0.14187209727746783, 0.7511077191008456, 0.09075666847202471, -0.7668874084811321, -0.03008317288054664, -0.19862197423145703, -0.6479059671924652, -0.019446759853873584, 0.704589034601823, -0.12241715273704425, 0.4001781886618528, -0.17912909147299236, 1.4687116453663005], [-0.4049538339492944, 0.4515159725898517, -0.3167180431277178, 0.0236749229813637, -0.0059064717755362706, -1.0892047209350502, 0.11376753326258099, 0.23309577971936934, 0.4703525217014391, -1.1013173016611124, 0.40171278800026106, 0.11077089646458337, 0.4500809907314507, -0.8833929127827508, 0.6777963436023917, -0.0716287655320902, 0.359245642448372, -0.19984854666360297, -0.07763091719124662, 0.7142326321883463, 0.4335481759549311, -0.1813313404161716, -0.07624213764157933, 0.1375174734169619, 0.05305967295676081, 0.05533291514633109, 0.4718455686415858, 0.38983164352507016, 0.4174383522178647, 0.04270643423711891, -0.39426936670299917, 0.4736874713649565, -0.0589254147211042, 0.26892311617167325, 0.6806658376330503, 0.6351108413934571, -0.6502487124659363, -0.4457231915285218, -0.5315087165960343, 0.3846362772868636, -0.28559158355920056, -0.3299313851551766, 1.0546256093944355, 0.26211499005404076, 0.19855269100789932, 0.21396754762373843, -0.3310955823129984, 0.42944667957881055, -0.5509262076744377, 0.17371533041262197, 0.005221331872853036, 0.5691776092076397, 0.3690224815041393, 0.5165942943232426, 0.6637545866625595, 0.6973324035421428, -0.8542299116301046, 0.8320568075128715, -0.8253695202604591, 0.6585201607283586, -0.31011999076672314, -0.06663941047760255, 1.047854874880653, 0.41835841961669984], [-0.9171685330250792, -0.3853442189951395, 0.5459553046286619, -0.4288579869843583, 0.38603275336125664, 0.24266461611259293, 0.2394903891253378, 0.47859463893175885, -0.08284625031610925, -1.0131535815891215, -0.5994016081910338, 0.2714238776936406, -0.12287982891284492, 0.4415751315351366, 0.06322781700550442, -0.49214999707678275, 1.167650789806781, 0.18510951432036524, -0.2775666806538996, -0.1309312838310118, 0.20178490552678843, 0.005349699972763124, -0.5148242564889977, 0.11316124407388234, 0.38914026965793613, -0.5281687766108337, -0.011757592388346616, 0.08722160706122804, -0.3908598917027495, 0.08103493665447906, -1.2169062676857347, 0.2277652100878957, 0.1787040291425408, 0.0684048079542121, 0.018581924341064295, -0.19100287793015147, -0.5462414649747965, 0.17737829668100255, 0.0009130381894036296, 0.7742659973306374, -0.09478445688139805, 0.25695678635087466, -0.1095909233020459, 0.22578839444813023, 0.5480362322952984, -0.061264036796409946, -0.20784368264505892, -0.2581530055501181, -0.015379860347335197, -0.38628302697805733, 0.18440828253593786, -0.003962122462632223, -0.044512352162439844, 0.5421757145849454, 0.2573780174567709, -0.5392207907650362, -0.5411180456788267, 0.35909238704724344, 0.22135054648884744, -0.31856738593383827, 0.6193292566929511, 0.605894815106836, -0.50127723517413, 0.16991792732144362], [0.054701195175904826, -0.15747090305308367, -0.6944111298450497, 0.23602626126895104, -0.5991086340946181, 0.14481421246223114, -0.30349645873942943, 1.1363404690233903, 0.2298636052177595, 0.5140306972453627, -0.0727717344044737, 0.24654603191490437, -0.35946914383735773, -0.5069241943074039, -0.3924869379993559, -0.3596439910107648, 0.9897432034258511, 0.4241195200337985, 0.5306581515593355, 0.23662327560917953, -0.07281721224156754, 0.04073943844853198, 0.12062459402458531, -0.4166645050279424, 0.2695736098020276, 0.5450429148756814, 0.04086530933031683, 0.3069986308341657, 0.3757340143001669, -0.6365807672795533, 0.4505281775235168, 0.35351406603137175, -0.5515490099098247, -0.6486476624840407, -0.6057776799154793, -0.3659501751569278, 0.008585005205923806, 0.3572113154094781, -0.11458242540784774, -0.3884344436735652, 0.7265310388907602, -0.36381907099272526, 0.8864835016466666, 0.45828843483371173, 0.1446339308064789, 0.39391925457514, 0.092709976604132, 0.4797017828733299, 0.21348512866208338, 0.6494766728246224, -0.7773785535899552, -0.059589102818539, 0.4869297044842351, 0.3574536715123043, 0.4356786234825263, -0.8556883132178694, 0.2281205673261978, 0.4848776856857592, -0.4000993633107002, -0.06859907758319436, 0.21479357025693788, 1.4045748579978672, -0.6517648435669473, -0.12427876984779802]], "b1": [0.0, -0.118350294391566, 0.005405947913721704, -0.008560966900254994, 0.18401311146753657, -0.13486501357246516, 0.002262074782137356, -0.04501459566689958, -0.14417075817806496, 0.09289333468206482, 0.12792993664176153, -0.1950321954456854, 0.0, 0.14090765337173303, 0.13759166015580634, 0.48054858060300776, 0.1443668358581751, -0.07193786249102625, 0.0, -0.10314240412603706, -0.06512731831108842, -0.24738122615177427, -0.300773344257928, -0.5579208798940749, 0.1758947709343085, -0.39144072859417806, 0.07676647088367056, 0.13557405808585019, 0.013825019568193972, -0.1945329812683005, 0.01080597527968559, -0.17307501804310166, -0.4051764572003351, 0.1924319529287558, -0.1497555661752232, 0.20754537017604213, -0.08587935416050231, -0.12028306320201156, 0.01096508297738065, -0.20627770955033398, 0.0, 0.042941803675985775, -0.042182592243317996, -0.2678491375872391, 0.0, -0.007351562676545714, -0.040661726129931686, 0.2590628517701771, -0.17421843483090718, -0.02290661107895758, 0.0, -0.08817509153310894, 0.1675914507252808, -0.11556465376726965, -0.17404493160588724, 0.0, 0.08782425358806518, 0.05266669458041404, -0.09370283992469482, -0.13802242441127488, 0.6192957821345052, -0.0060459268338177025, 0.0, -0.02854378468077385], "w2": [[0.19593121743380978, 0.0002703991259956559, 0.201652118683713, 0.3242676807937889, 0.29418228006640146, -0.3737546556493845, -0.28868239872159124, 0.17392356300942163, 0.7483833589922273, -0.35068219036323833, 0.11999209903951177, 0.016748071604916488, -0.27588555339461657, -0.14703271142337473, 0.11064368852114462, -0.19976518166763382], [0.09218921947327734, 0.40495574793592387, -0.008780681667149973, 0.18156642198123982, -0.39889705414449433, -0.09373252241955689, 0.3920653084525485, 0.19191806390779365, 0.0148357931673204, -0.02242259729859505, 0.02379200595809398, -0.13894982004179063, -0.014256059700545387, -0.16265679452786216, -0.2148428204719368, -0.035104946386673955], [-0.3482475810057386, 0.01707032574288242, 0.3256147562783268, 0.3030718377154531, -0.2513628862167646, 0.12718738289597856, -0.1698558664176985, -0.07742034003226336, -0.13402334413247274, -0.13926321509903658, 0.5281370324788375, 0.11836040107790693, 0.43602198718686824, -0.2779100495329952, -0.08754688504069565, -0.35698733436144003], [-0.010609214426757316, 0.38910913776536216, 0.15513290603609495, -0.044563691788166326, -0.013382549970331462, 0.04480388866885633, -0.03271094309438624, 0.581215549639493, 0.2471530363711546, 0.17378888165673073, -0.20303663563401075, 0.562084482908999, -0.046964702447240436, -0.30671171726115076, -0.08080821283599077, -0.36786168217150483], [-0.5555682684467055, 0.14368607170610986, 0.15570905120791706, -0.09219961683020067, -0.1972886980075083, 0.09153340256224773, -0.15213557405333888, 0.023076989480397256, 0.3407818861157373, 0.02008636439243082, -0.18733133864652016, -0.22702238688209894, -0.2714502561621598, -0.39277430201601277, 0.12986314708602933, 0.20130010864361805], [0.0037854654766730053, -0.24701388363367968, -0.2537161418587646, -0.07499923352299245, -0.0862703675372854, -0.04639080464352416, -0.32555492311755463, 0.003395895396299614, 0.23271585645464024, -0.14898145452288547, 0.15223758585147382, 0.17750602141397037, 0.07248738626629911, -0.24170676044877681, -0.5946196104267919, -0.4590241097198342], [-0.01952702118284685, 0.06050354511041438, -0.07506853066371795, 0.4186099799302535, 0.11116442953246472, -0.22861456201002153, -0.31289605841113705, 0.13466621206504556, 0.10140094779941483, 0.06051486983232196, 0.07744676957555757, 0.17653276865047637, -0.4222806361177144, -0.16120159645844095, -0.1917076495008584, 0.31575392816576386], [0.006647853935380171, -0.7691602107391731, 0.03934166319761273, -0.11214944109345268, -0.13887020375843664, 0.016445936952621948, -0.03848634574504973, -0.3078964954301553, 0.1712705290581498, 0.20773669765712988, 0.5056562883158242, 0.19192417818459193, -0.04653959839826842, 0.16816448819086122, 0.28745292923752386, -0.5741094252803502], [-0.005309172566300813, -0.2009735267533319, 0.3395869813067539, 0.37540794477596706, 0.4547351253982248, 0.01802230507377689, -0.2875710030102276, -0.18384785293507497, -0.03736281778891769, -0.4013530899741832, -0.17750793327419678, -0.06050795744056124, -0.027681230510719176, -0.3648674851725909, 0.11460811766161191, 0.22517648086260098], [0.05059712948442324, -0.15335644359777564, 0.4409004629469852, 0.22518512354632128, -0.03977480531610339, 0.020015492030869428, 0.37544540297860285, 0.2588182126553733, 0.05777053506456007, -0.14579081672954017, -0.00245192285282958, 0.08282098843555594, -0.39828395168788117, -0.15303615064646764, 0.25557855880024516, -0.02577420401429853], [0.25040372473893024, 0.08094598307889003, -0.3320951100563357, -0.18211834101937502, 0.06285174812654691, -0.15272306829542656, 0.0750427979131008, 0.268243847790668, -0.09621753340140762, -0.7649647094831163, -0.26443555748372677, -0.24770039318410475, 0.26784277219671704, 0.42547339971081044, 0.18958017666217447, -0.3464559611560459], [0.1942654780319798, -0.2654945166787908, 0.2293128191299814, -0.16935315656911445, -0.2684534254549926, 0.1756012838313086, 0.4611914798114731, -0.2106801922113114, -1.035165002173652, -0.1032795745719737, -0.24029449963392494, 0.4439704787221622, 0.11977001461485584, -0.19210878522745647, 0.32165594964421895, 0.37789254830142], [-0.0919257629377262, -0.17225086832901815, -0.012253620956843542, 0.12958112201978278, -0.055518837696773196, -0.1746743179705444, -0.2674133759712941, -0.5592337928809678, 0.061214060452130854, 0.2766466706553127, -0.14916992311569985, -0.2625127313153019, -0.5361780584678351, -0.21210604557568624, 0.1718760806888281, -0.05085290902382973], [0.0778195715170997, 0.1802828124091505, 0.13018734898306575, 0.541743045947346, 0.2341697098780908, 0.0389442588149055, 0.42920001403611424, 0.0004272482401413963, -0.0513583947266706, 0.09950179868372097, -0.1630464939265811, 0.43826094226225554, 0.40325038875858404, 0.2714828673387011, -0.12095476836593412, -0.0013518982417682623], [0.08309452482447212, -0.1380702086370188, -0.31874947817410126, 0.2333040308022011, -0.13385849578906633, -0.08483816888927989, -0.3529387328049633, -0.05632168631667092, -0.013781022620611287, -0.16742289489154755, -0.18957782781242313, 0.039421481126053065, -0.08414459661174084, 0.019100013193051213, 0.23697765862046202, 0.015858612408766598], [0.027015159054337698, -0.10128311098820023, -0.10800880582319261, -0.46320413290916435, -0.17888090178959176, -0.11957999921797047, -0.34888045376218646, -0.018678773622370456, -0.09549066496113509, -0.2209824133587762, -0.038893953604006534, 0.3107804112750081, -0.06830809665350475, 0.11447873535485562, 0.3054206150626213, -0.08550624675992846], [0.26230450649487624, -0.11184526188525605, -0.31180598369014584, -0.46058192893326394, -0.030338999309921746, -0.25490505678393305, 0.0214760906857156, -0.25313876261341733, -0.13627488885250744, -0.401427437047865, 0.6691803036191324, 0.09397112844829555, 0.07169644189416735, -0.15502942152005156, -0.054931339233195264, -0.5001164654957749], [0.036505997453857, 0.08679303740573965, 0.40701588046088716, -0.3130513431359821, 0.17595540834609694, -0.0692187178050662, 0.1969306130576527, -0.05950449968298656, -0.48009773803111555, 0.1925377330204776, -0.14733663300728975, -0.20049669889967417, 0.7972354147020422, 0.23346830717901618, -0.012566742932788633, -0.2689708562453653], [0.21043844805629358, 0.11427654372176706, 0.10682334516366546, 0.13084736117551443, -0.009847577048216115, 0.08392055913981408, 0.10924999736419376, -0.44375203205509367, 0.10030287135190812, -0.20866361928206587, -0.022976956435754686, 0.5290519381181102, 0.23997599241013562, 0.3091372071072731, 0.05447259474987812, 0.3600664368613089], [-0.03441470982329142, -0.1863466836065151, 0.39936221895546603, -0.6583510836279849, -0.05600638113423528, -0.09895630130847832, 0.06507222783393171, -0.15622742626693392, 0.9844283805673196, 0.044118456258915494, -0.1929775959388198, 0.005101983867993598, 0.09195882397555219, -0.08716340600739418, 0.47377661706594487, 0.2546651630740308], [-0.028714113646889226, -0.0199625635755293, -0.7228792080521097, 0.08036226586268419, 0.6142863789916485, -0.03619723484309982, -0.1956186127840627, 0.17753496855205197, 0.07376766296298133, 0.2781877438552894, -0.007672108858414892, 0.14424470701364586, 0.24130697977640164, -0.09902230761081725, 0.10728117000220508, -0.15623550852444612], [-0.002799331270343923, 0.4588743393296329, 0.0006325245080455733, -0.1567161126511454, 0.28270819806100145, 0.07852241458208899, -0.2825096369861608, -0.484327040168208, -0.03643954833005885, 0.044398059474167514, -0.07652672474470407, -0.06731738142549581, -0.09995963412158759, 0.07563166522421215, 0.21439079365699584, 0.20854884530868312], [0.27912406586473926, 0.15787276258195312, -0.09307149316711942, -0.12384376047793916, -0.280372959003245, 0.46180701597285345, -0.017081887840002752, -0.2697770441854519, -0.1947628478141829, -0.26236769343361743, -0.13235012694454149, 0.3268469481089943, 0.27926654148195085, -0.04975352456872434, 0.3556522103663412, 0.12344907953542625], [0.09590670933955796, -0.13706059606896118, 0.1825084188463443, 0.4421989430041391, -0.1839289527433361, 0.24821630716828635, 0.12144686047846942, -0.17886754099949861, -0.0016778037334565475, 0.16980129260665144, 0.11410979615203311, -0.05754238886263063, -0.07813531074177019, 0.05366715138957556, 0.039362831046681625, 0.13933662920885723], [-0.02729516569168025, 0.13420113647376097, 0.06952193862400366, 0.2134901845155606, 0.06456167995543574, -0.2359789327051005, -0.07700805138193292, 0.1002081603597145, -0.16674146319851646, -0.03198844436858678, -0.05199692196590572, 0.6088402594311086, -0.15472245823015743, 0.04134245681354963, -0.36444689092855287, 0.5286710473458667], [0.34444759892037713, 0.020817726317204854, 0.18804158550074274, 0.06716931873509402, 0.4855713396969914, 0.09065481919250676, 0.1362425341639671, -0.3984102534762453, -0.0671994558054817, -0.012555537691231324, 0.09514241446734162, 0.10286100809310653, -0.25536647279710556, -0.042431411249019176, -0.30246516656530753, -0.058588155541171014], [-0.001986960151019698, 0.2604963632143092, -0.24538868097835545, 0.6557964416835816, -0.17472568834201138, -0.4032643014443157, 0.2418780058302627, 0.1504184585319455, 0.25964775855881894, -0.10748218768877973, -0.11314453507132083, 0.5349573318343698, -0.001132956845170341, -0.3948223379404029, 0.17642211766755278, -0.04424006146247139], [0.24048977820933234, 0.18575774327808853, 0.028512807028877166, 0.06083034038454341, -0.06829604281533705, 0.20501150329653506, -0.18673059168019523, -0.5439889166912919, -0.012141581458642886, -0.27895399153909217, 0.3804529624559234, 0.016885033650168954, 0.007514665621189437, -0.1470909313349968, 0.08054994511909794, 0.07178582345394224], [-0.2521941089488583, -0.04740959758845856, -0.10246756955036532, 0.06711111390076505, -0.702545343638412, -0.24744012564423085, -0.18602951474403726, 0.29676577924475783, 0.12203879072546157, -0.09081559044519132, -0.24408995710258247, 0.0626906065969528, 0.6183924257284679, -0.1081082862863799, 0.00045817405673467815, -0.01865011377440412], [-0.5327860378443516, -0.11434647382714992, 0.0811787904387717, 0.09603256875014582, -0.10953905618128304, -0.19818594626778893, 0.06323962298854946, -0.382027454262449, -0.34825942857771636, 0.04562817080565049, -0.1602594060678139, -0.21185842923177822, 0.3012417090532481, -0.17868546795946355, 0.03832194223009133, -0.3278553426217152], [-0.3690396235553413, -0.20334020776857348, -0.29308691096252837, 0.1787607096385933, 0.17534394941790776, 0.26641836110521827, 0.43239880452847, -0.317465192039492, -0.15176757600445995, 0.22120000299066128, 0.12359333509296178, 0.4877339949819248, 0.1814670945212855, -0.5814821928933251, 0.011650163345127211, -0.29843078251382205], [0.2065789981055263, 0.13694671157316335, -0.04518083822869029, 0.2514660820963886, 0.5228791146695326, -0.18122676890794634, 0.08562417421996946, -0.1150058662815443, 0.36787603514085887, 0.23574842934110005, 0.21034810266043047, -0.32821468895761324, -0.4339505059914098, 0.17713535592311427, 0.2828566524587307, -0.02200948596932189], [-0.4020863069418162, -0.03747085270925929, 0.05633263976463282, -0.2508493828036421, 0.23113555960131318, -0.18149932069488484, -0.019160040150923374, 0.20672547095879298, 0.19159494285658416, 0.3757661162707504, 0.04545517465309526, 0.08275367158794444, -0.29680900152668005, -0.00027927792859439027, 0.11216749593808951, 0.026136152449491967], [-0.14192822050465137, 0.22933784394206652, -0.008074665092046698, 0.17008901232633353, 0.15937647903902077, -0.199297651792151, -0.22244197097024965, 0.4785095602019509, -0.45984143334251887, -0.3965445170431887, -0.10228927421818361, -0.10371628377118465, -0.35747709194545224, -0.20783763785738305, -0.06830410933284588, 0.13123052734198537], [0.08807229290866178, 0.13114202088198446, 0.1311454186720428, 0.5485095772439035, -0.27324193133794894, 0.19538143936314425, -0.08781995814407031, -0.4604826869341866, 0.1251628848370796, -0.026451660743324168, -0.5793092648194403, 0.008312999065099975, -0.08834009421519318, 0.14503907322366563, -0.03050935630014737, -0.05808979739851787], [-0.15477557294708302, -0.07633643149901859, -0.3143405455177083, -0.039678899004033014, 0.5863034925824449, -0.39790278803014245, 0.09072810639544558, -0.3247302180579734, 0.09997560631967012, -0.013508789221203545, -0.2262140741701142, -0.0791977591065896, -0.005214192701793241, -0.17202928540099258, -1.1058451142275458, -0.06910217506784921], [0.5529994735808273, 0.260470892481747, 0.3025398237253911, 0.09849744650688197, 0.14207406865496877, -0.10836232055058606, -0.14637659824701527, 0.19894552166462762, 0.3612701625522911, -0.0750795040808804, 0.25256045812537686, 0.05091613252247434, -0.1232664456397252, -0.09318585181571759, -0.23435968198759574, -0.03624037040113407], [-0.32477094634343767, -0.35827400926833974, 0.1492633624108205, 0.1182160441192991, -0.09127534946779968, -0.27084334840634994, 0.8607931848923482, 0.3840368596346166, 0.06310752477853163, -0.16675855818222546, 0.1933322593522499, 0.216203400439203, 0.20733971487365527, -0.32780159989605556, -0.12322441832526275, -0.3265074401684985], [-0.9223725176116151, 0.3695617300733186, -0.3059112678054885, -0.18478588102251287, -0.1864202197332162, -0.097540325464112, 0.006406414209473833, 0.25700280531685016, -0.10271895154395112, 0.03704767047795197, -0.07854728900480198, 0.3611812682547292, -0.3113184902444773, 0.10804127007444743, -0.396008433790498, -0.18672590584309828], [0.2589323560596701, -0.1533680639384163, -0.11400571782352309, -0.13631597598782635, -0.344981383490347, -0.006668690036160441, 0.43288977505739124, 0.08225087747194335, -0.21459720717350658, 0.1460485426069798, -0.2606588433221589, -0.1809159818347113, -0.1383306791391207, -0.38055175713628075, -0.13285712883981934, 0.16687350694390723], [0.23025732246634567, 0.19025292310225522, -0.10921035098212778, -0.027316458718246867, 0.0540766854366892, 0.10923965696379458, -0.062341270385061154, -0.23783100281836686, -0.11373344353010124, 0.045107322528797955, -0.26445297754451874, -0.0377911501705666, 0.029790250739097246, -0.5050174929267518, -0.12216218691165576, -0.5484156372865281], [0.425852294017008, 0.022989901295715154, 0.18438895254538945, 0.14651386417356493, -0.32382034845699614, -0.22174063113483952, -0.12142296799501555, -0.06540016829943918, -0.12226295542034757, -0.07436615035766109, 0.09705760460505335, 0.047327098665145444, 0.04329127265827541, -0.24507529705641423, -0.5819629335824463, 0.3432480830893958], [0.06233860477290741, -0.8207115241655185, 0.3666802263956732, -0.23658064168374937, -0.10773969752155432, -0.46169315130203487, 0.31965711291613846, -0.09511555158829427, 0.06723149353627353, 0.6496863078540042, -0.09026941542771698, 0.6487145801616261, 0.368403416500203, -0.03792000038016082, 0.029079900537549244, -0.020873886555188726], [0.1657402845333794, 0.42289018523480026, 0.3031430422573308, 0.1595955993688656, -0.5430136436331457, -0.08078776592251488, 0.20816182436543357, 0.05270876685557641, 0.03982020410572769, 0.1710563962779625, -0.189690484720424, -0.15798556884243098, 0.09311360998714542, -0.11527420890051321, 0.2046416236767653, 0.014044503877906761], [-0.07203318340919052, 0.09564187729031319, 0.15219965976370256, 0.05944021652082515, 0.35231968211542697, 0.07286613514515178, -0.10358440763427698, 0.03844827397489179, 0.009989786575854566, -0.2670859500677274, -0.24398290635491915, -0.06584033038163555, 0.4006505931328517, 0.08137734315649599, -0.22798740007778784, 0.26841335169718883], [-0.35675057921540587, -0.003191093684005079, -0.4848739644372597, -0.3241459906974545, 0.3553689521824876, -0.567042966551997, -0.03800138821906035, -0.12316519211979224, 0.1040976736246036, -0.296971916952955, 0.07839291191136265, 0.21717288699110399, 0.10435830869488141, 0.032136368439893995, 0.5527309156634829, 0.1012924330115126], [0.19271541826686886, -0.1306532255957115, 0.17064425266903616, -0.1305078615919871, -0.35904160974277466, -0.3217257841309119, -0.21547037876587938, 0.17239875477496663, -0.35839408028789266, -0.010763384773540052, -0.24866218449747013, -0.03441283078895281, -0.02701240664968155, 0.06269092788737424, 0.1666415063855789, 0.13024114943947276], [-0.22660633840366984, 0.007131590595072276, -0.2119662086470085, -0.3767729576494145, 0.24880881696173476, -0.1356606280852607, -0.16717555391515568, 0.2867370600024255, 0.23236765388478842, 0.06331215233390422, 0.04990117880197597, -0.1747471713916598, 0.07761554549142224, 0.0650023551817036, 0.18377735175777665, -0.13844418884856752], [-0.06378131238018867, 0.09546050477708944, -0.1856807227448069, 0.26932604758427686, 0.49990134050587004, -0.006853355298644323, 0.31000715669425566, -0.15789333319052853, 0.0569983626520449, 0.15758088645582813, 0.2050032807192937, 0.4486993388741902, -0.13856914811210091, 0.05088440328539856, 0.10513927295371849, -0.061815893221629836], [-0.2651473571771732, -0.5153830684147916, -0.08455617139427604, -0.22097906797305264, -0.07477132564447642, -0.20715517451132953, 0.025393223895832553, 0.5825789291435283, 0.24416458290570173, -0.03556311844984799, 0.17766090820187772, -0.0019391301813411472, 0.36536447432615654, -0.49880477444509985, -0.14042542900380411, -0.17094962853613596], [-0.2592205579286719, -0.4807727427159846, -0.16752907652065022, 0.7097168197855881, -0.20743352058509282, -0.25145829226625743, -0.3786723392873333, 0.0320617330753805, 0.0679317429324857, -0.3797492972106849, 0.34221015164253205, -0.4109438275360149, 0.03594117077978727, -0.009333217123452975, 0.0006635122266939603, 0.07396401769461668], [0.27490715393967274, 0.041718515424949164, -0.11939605679821998, 0.19016707051180923, -0.09644316247046927, 0.0347315374304502, -0.11644417076881476, 0.04340043409831072, 0.21397278728714847, -0.07390721313168672, -0.39052601739904685, 0.14091555732093142, 0.022801058290322473, -0.029642971893952746, 0.24220779432869366, -0.6690612777573436], [0.18653620575961288, -0.20221834964232283, -0.13335777251162184, -0.15720495691290198, -0.09083896218399212, 0.27606540876194663, 0.0880397032670612, -0.016218726288110635, 0.23815103624286413, 0.25134545735820124, 0.0656974655617581, 0.33665348802267964, -0.09037602466213958, 0.024076450406812028, -0.2378834637497628, -0.20443105764015956], [-0.21480201895603313, 0.14230998000965517, 0.21186984447830298, -0.19743478903307266, 0.1756383231426101, -0.07475207815681298, -0.12338919652730976, -0.11268509739030959, -0.06040232243784818, -0.4030277791903395, 0.01258721111289094, 0.5381278955183455, -0.27871200518694933, 0.3690609948713085, -0.10998398642289389, 0.15732024083376228], [0.3533720419624524, -0.25682517904597363, -0.37693304040668524, 0.022502045222351393, -0.1847927284861201, 0.11145334660672208, 0.2676226363894433, -0.4227577198657364, 0.2310047574831079, -0.044759401873644106, 0.05409524579387267, 0.3958840024229556, 0.294531804042085, -0.13632062426500563, -0.09200407409528027, -0.23102832533922094], [0.06662967977821517, 0.1422447722656797, -0.17921946614195794, -0.23556239874105595, -0.161309300982283, -0.07327142656729951, -0.04919335171731508, -0.029314947708153224, -0.4707909761640407, 0.3141941769259041, -0.03745889932585361, 0.2803442259049813, -0.48187811644735584, -0.39496752489386605, 0.13253199412838493, -0.2981414568730162], [0.3522473577769446, -0.4213895723588131, -0.023633942458067436, 0.35773574027413824, 0.21610347023687815, -0.013331572897685705, -0.08184698288783678, -0.012230610565127503, 0.08688972435805081, -0.14896437200143495, 0.055369015227772767, -0.016522499127662387, 0.022266851075991384, 0.10620171820818605, 0.17002293585073133, 0.15061051196978525], [0.07048447748863308, 0.01802956156196417, -0.19016200832920163, 0.38556133586240554, -0.040078246770890245, -0.19749637983647153, 0.1414533933974328, -0.08581422897056817, -0.12142741987629922, 0.2134536655156284, -0.275238925161421, 0.6751879604825374, 0.103663932961676, 0.3473840274531105, 0.21920267074455826, 0.3249245114894298], [0.01772258529641538, -0.15658540687195627, -0.003501947127757088, -0.039255784756861124, -0.05618286389878055, 0.2336023956444245, -0.18430029411714918, -0.1916799743110728, -0.193835539153825, 0.13603558223139084, -0.7911774556854868, -0.0004551384606618081, 0.14763498323265423, 0.08280378700601845, 0.11804849604453123, -0.014292229408349288], [-0.34125039958266257, -0.8257281915773287, -0.1875237397807948, -0.17122106823363792, -0.01902728073221449, -0.013587065449464874, -0.26287269076034797, 0.008146182979201944, -0.12133502268208193, -0.24237369261913805, 0.007579296606442069, -0.21357624639769646, -0.10817871495885584, 0.20038322130391253, -0.11307747231858264, 0.43528916048809396], [0.03142949124730568, 0.13670936797614086, 0.11736991395105827, -0.35731078489371393, -0.13740040585273453, -0.21322417539146105, 0.07292974169620797, -0.2956426379871352, -0.3254571855197945, -0.15985693274901316, 0.07983043578535297, -0.23347619403382133, 0.07690206380288885, -0.29796226638393053, -0.04659095541557362, -0.09007051752298553], [-0.43009668654991967, -0.43630568226480315, -0.36418746104811583, -0.2012687553197901, -0.12399336325792792, -0.4540025018388085, -0.05169925544251292, -0.142316954901379, 0.368384419747896, -0.04852493119325475, 0.021270144036275734, 0.025233208995342732, -0.08657284104270817, 0.23054663126817113, -0.39008591143923466, 0.3614919573954718], [-0.10906671410029052, -0.30006255749628646, -0.017989897245092187, -0.5529416525451196, 0.032383888986624754, -0.26288228034097405, -0.3781407806970152, -0.16375286383436438, 0.015493936661078815, -0.3813434660483237, -0.061753567819988864, 0.217322107063075, 0.08327146187139425, 0.27360800556472165, 0.1642335725103432, 0.33964583265862575], [-0.3435030729764067, -0.13228101533410141, 0.059580174124709714, -0.3326575335956318, -0.16230381080749734, 0.25385516135175407, 0.17976040098118704, -0.10856115493321, -0.09627108693086299, -0.2915101708709062, -0.4390141660943883, -0.013427477135437307, 0.25816987407071257, 0.3398264278656593, 0.21989473088222905, -0.16574698352632153]], "b2": [0.06467855911619053, -0.3526321455531242, 0.0, -0.01954822839796077, -0.2770339242657679, -0.05779151754549233, 0.09942139095796834, -0.12039798843253408, -0.034828925138655084, 0.0, 0.08142414891755764, -0.03653804680252126, -0.10835649057852377, -0.18921457241664874, 0.0, 0.05020019387066121], "fitness": 0.6214285714285714, "wins": 609, "games_played": 980}