{"network_id": 45, "w1": [[-0.554208554314418, 0.5482123898219609, -0.06370013048047085, 0.8604451942546307, 0.32750181185752875, 0.3074788447839382, -0.9069752874055953, 0.8310479802696931, 0.004192374623768258, -1.481949254815931, 0.32695918867585666, 0.08623509648236108, 0.29516225226876375, 1.3318970275445916, -0.1544104949996263, -0.11068995889866318, -0.051041994915574554, 0.6574870437209499, 0.8690207519351056, -0.16737683899796785, -0.15117886464149743, -0.4824118907064058, 0.8683347221063595, -0.1254983799697395, 0.18124955236687376, 0.9302109074040374, -0.812670334332214, -0.8473576128206459, 0.9091972731243068, -0.18896573533757027, -0.25400830962148024, -1.1632138410894473, 1.2625752640746895, 0.13556617055056375, 1.7488613409045897, -0.3711772595703715, 0.8267723491746481, 0.005253762148459712, -0.3176691545262574, -0.8438838145032482, 0.7778176995194745, -0.564702102528833, -0.2673426795560976, -0.12818138308769084, -1.2939469217444706, 0.662112138308542, -0.15730056915379467, -1.0118929858185852, 0.21635080780905325, 0.303988695417439, -1.1631669258678468, -1.0054662067487494, -0.5071961751042711, 0.28269109223301114, 1.6675016390033401, -0.34457211665435983, 1.241957639836369, 0.11477997234759718, -1.0520131714779244, 0.34397926871872864, 0.15164801346344844, -1.3333196327827541, -0.10413107875817512, 0.17175247138261213], [-0.7787642796092078, -0.9693332437289379, -0.4233687459480682, 0.7181455728744841, 0.20117506807323804, 0.794965953560884, -0.7916298221955609, 1.197012525594991, -0.0999443770697998, 0.0701090949636411, 0.3653837500928594, -0.23265903104523172, -0.9214171404653217, 0.0726678258918047, 0.7732613802341837, -1.5363780287061573, -0.7906869997465608, 0.09300749526529861, -0.5153616463106562, 0.299525426864286, -0.48068957829222203, -0.003950819793049565, 0.593675601005436, -0.9518738527592432, -0.7153690710458647, 1.7096117624080973, -0.6095279801575872, 0.7343377739105952, -0.3490691835817774, -0.5678194933882663, -0.7242144232271507, 0.9093870812970315, -0.21967208514309639, -0.5283100117827046, 2.0532006395121742, 0.8325826619542005, -0.2071197424398451, 1.336573129721387, -0.33081022378900654, 0.12333021039718767, -1.628829548997189, -0.6090058294769479, 0.393654150989068, -1.1721923982716507, -0.06111934472007535, -0.9402032931727347, 0.49963282193244807, 1.2637043958510263, 0.18807979325273155, -0.8006253038038782, 0.5575856203945939, 0.28242575343259124, 0.004456528254202022, -0.5784490456925198, -0.7230058574418106, 0.8421202846595557, -0.43363117658411093, -1.2122221021598107, 0.3882643951351664, 0.021080512578624762, -0.567712782738356, 0.2026103326048178, -0.41165094828464366, 1.407909094996729], [1.0933627904373062, -1.2202375358395205, -0.2531583686422888, 0.6318490496778164, -1.1292770236925815, 0.5710366823650649, 0.38675737228317647, 0.02091652743907646, -0.11505745106906254, 0.37508678879853063, 1.1766936148734983, -0.5174154698430324, 0.5437689302435188, 1.4893887977563238, -0.9825629301994747, 0.024156690437371175, -1.6092779408916489, 1.123158970018799, 0.4616597572304231, 0.9745751485449672, -0.237404683729593, -0.03499986986525862, -0.19815126033046493, -0.22346231866861013, -0.6153034090913001, -0.8596634753943395, 0.9974020403298488, 0.3221262098611988, -0.3119425514772431, 1.3790886409028813, 0.7117986665234681, -0.1776878954351243, -0.8055326660423703, -0.4552692109244605, 0.3715506344050801, -0.558951016495089, 0.007970180782136238, 0.18495890720483632, -0.8067380172427286, 0.24405641735631195, 0.7618237216185751, 0.35111732421267977, 0.7286120324923304, 0.8804847427212156, -0.6999961458238502, 1.1653462035545843, 1.3794216954111884, 1.2880534445320797, 0.8711677586845892, 0.045983596825766304, -1.5843838079880144, -0.5402451758970453, 2.3789029811838116, 1.222781066477424, 0.16733269240694548, -0.08450322937030885, -0.7426839904719025, -0.6793478003668463, -0.22753981833296694, 0.6496334195067606, -0.903768095197497, 0.4859848143850187, -0.5852935397840665, -0.6489676054675239], [1.0698261133817872, 2.0638015664506866, -0.9171325864875242, 0.776898249746073, -0.6388768608044834, -0.5048646544234083, -0.9030047444682342, 1.3325623673709375, -1.0439803997044466, -2.0391575689032035, 0.5361900442136218, 1.136421311299785, 0.7512849201511782, -0.5009943127006917, -0.26743303893064874, -1.6285579672111525, 0.08609610379843062, 0.563432582794928, -0.09522011778813766, -0.26023871785120023, -0.30798986150670293, 0.6380295741013269, -0.258609092147748, 2.515662534629878, -0.22729649967778948, 0.18595751265306118, 1.5782414277581327, 0.011513131477723444, 1.6694654098771868, -0.8257294150964876, -0.13611785304107307, 0.22582861232538343, 0.70412183981697, 0.18909880496297826, -1.8393831751798149, 0.36827380111541685, -0.009210911112006712, 0.8602674024835402, -1.088910183034331, 0.6335098354069467, -0.22778924345194757, -0.5653641184460138, 0.58485152798643, 0.43996825465320927, -0.41698026409935124, -0.704595182610338, 0.7570006550304489, 0.2702369217698807, -0.5315431381759009, -0.9381354513752664, -0.30371046284180053, -0.6484157290282807, 0.24601868799502435, -1.1961285210341324, -0.16298801033959492, -0.6278630676990393, -0.25712184000919297, -0.17948567969180734, 0.3686619182366965, 0.5443518231798908, 0.9097808606492424, -0.25522556281133923, -0.4672160441019069, 0.027871010730653067], [0.570640938840219, -0.38443038747511654, 0.3368556875608125, -1.1952401046525298, -0.19110181237205157, 0.5714517754115934, 0.7095514517895448, -1.4683503839117595, -0.8043222973406254, -1.6278957795275932, -1.1893108230061777, -0.9965706272052235, -0.58951818243385, -0.7391682677580755, -1.143292246789593, 1.1739516146070428, -1.2915740106289866, 0.9104604126760363, -0.764192960600098, 1.0180525881090274, 0.23312070616748437, -0.009350381917687, 1.2405098332023439, 0.646334437590534, -0.2176024285161352, 0.18015288660096096, 0.04307212768509436, 0.6305892806892491, 1.1865739082071256, 0.8357049561098475, 0.4894634857839347, 0.7547731568005296, -1.5558718824007673, -0.1057380274514428, -0.9356098697944337, 0.30912368871471213, 0.6081586205134408, 1.22967910060838, 1.5256854025691062, 0.10073166721309473, -0.564371692935162, 0.3969035794224718, 0.17025154197331238, -0.8330504124769069, 0.6309239701012133, -0.8869220257433271, 0.12793541243635176, 2.30046486146151, 1.1276385887709215, 0.2174471335692427, 0.33253503622320807, -0.005180301873319141, 1.4399764575754808, 1.2996540446336, -1.351439321123649, -0.2209046229753214, -0.167065533304918, -0.034756615809045543, 0.3127425446431493, 0.2644518942392999, 2.0126852034141005, 1.47748241590209, 0.7769915614027207, 0.5786800226604438], [0.391738344171375, 1.0845163247690595, 0.14114488281578577, 0.5218730383268895, 0.05211774158135776, -1.4158815775836717, 0.07881563770072988, 0.1695656408713466, -0.21015037583697888, -0.23207502658608598, -0.5324137944964932, -0.06020213090141327, 0.2636945532551337, -0.42289923390225437, 0.8087271607440156, -0.6785707964476384, 0.9251222232005439, -0.8094440336280077, -1.0973130801936257, 0.14654503660740517, -0.19809270368188817, -0.7106212814184758, 0.818923260256458, -0.8441354106900333, -0.20795025654571697, 0.5089782043805392, -2.12060189979106, 1.0445403063796868, 0.5769667980152633, 0.020492897809429922, 0.3413536759558966, 0.42295203976266293, -2.029429504711198, -0.9468959387376672, -1.4833004607326343, 0.5600329203311212, -1.0063763267696202, 0.6865824653778962, 0.18639925000352667, -0.4524038353611568, 0.9072509773996136, 0.23237895711748743, 0.02183137638908028, 0.8131547303304533, 0.9946784913580073, 0.31584810441193323, -0.3729327539687535, 0.40696234755839755, -0.1211575140031046, 0.6595985548895728, -0.0005276984170107246, -0.682204196917858, 0.7406018826673127, 0.746690504548382, 1.3613392072312345, -0.5579270825261788, 0.5524193152631481, -0.05399186776166645, -0.3070064469474918, 0.18162754281882978, -0.039612337742687714, -0.03362503382049242, 0.2930770675685027, 0.9433970121256334], [-0.6983841364025475, -0.4639701329546871, 0.2620390522344277, 1.1199665047893437, -0.33281322773926186, -1.5571636553967005, -0.15030477950479126, 0.6287037957308327, -0.4773313052368931, -0.8585966617793799, -0.3941339965421266, -1.534938530227942, 0.8754938931454559, -1.6612166083744593, -0.4998586953776074, -0.2516580049263449, 0.40599483689102805, -0.6066407494491384, -0.5202730572344019, 0.5395770947364992, 1.0257675371200488, -0.604640144224255, -0.038378801218660386, -0.20242022192696077, 0.3551029910115518, -1.3894196471686149, -0.6588031688355359, 1.3670058452945308, 0.9182809501779392, -0.40655668713326876, -0.8288416112649777, 0.06640839642891777, 0.6009279659707395, -0.7924773855988176, -1.0332325704864846, 0.14328062578377246, -1.6323952938829003, -0.29575407385103664, -0.2843578858802776, -1.8581026058277712, -0.16832372562735787, 0.965560771045177, 0.20062155328961215, 0.19190073639412464, 0.4024072945606717, -0.3529626685691844, 0.24275865516184394, 1.3585763004710396, -0.10259403184930493, 0.16343402881022023, -0.27443758254126815, 0.02447630712441501, 0.7982801556134574, 0.03175337469605542, -0.6752205429607929, -0.34592518978220077, 1.1518937584434046, -0.3905871883148623, 0.49890496749633095, -2.153039984441374, -0.4371087771390025, 0.7452345563673497, -1.1551495155708364, 0.9858296267593144], [-0.6759840635799439, 0.5205814897895538, -0.4899649584192965, -0.014770901858952468, 1.3682268565077225, 1.161815587830033, 0.37626452034921865, -0.05023103090616016, 0.32230262340171156, -0.022061427159511537, -0.2491477299184537, 2.1929557408419247, 0.625521973581748, -0.9588147178810864, -0.7156482561064714, -0.19108323998630372, -0.7039366257054216, -0.5836979650459797, 0.3404067954180069, -0.3190058848083841, 0.5379884127597205, 0.03340661096087104, 0.07156213265843858, 0.664851571210646, -0.01841911453506548, 1.489555323768181, -0.4497150984920365, -0.8837580592192675, -0.024373347086730557, 0.14983667718573246, 1.5279806653349168, -1.5639057454542162, 0.3631195611809558, 0.9578285378365328, 1.051923748202146, 0.38505852110391164, -0.8774601158134541, 0.6571584712699104, 0.3617843932922101, 0.39258031841535607, -1.0454403321298966, 0.041777667039479216, 1.0445801204913183, -1.314949095068307, -0.7634179043722973, 0.6122258807863651, 0.46900573881992796, -0.43803097772485067, 2.008468255713071, -1.5378534105642179, 1.1593166900798404, -0.0027876748960862924, 1.0101820707238856, 0.9016792792406119, -0.5965898490470226, 0.4263372459079531, -0.6980138528974755, -1.188722232912206, 1.5442310948638847, 1.737479764546329, -0.5467648754668674, -0.4935968877192136, -0.09578542906761123, 2.1481597219940247], [-0.6311060923866142, -0.5542872233439728, 0.182548644038989, 0.5621593858326316, -0.6439945610667142, -1.1011757159297184, 0.16038202804030435, 0.44369117114616663, 0.4544062262430612, -0.5678466402096183, -0.2930893123565469, 0.5078027646247658, 0.26629874820970595, -0.3651027825466506, 0.9976341731799557, 0.14542977409346491, -0.05130460822934041, -0.9231505101283548, 0.353125175056537, 0.8213820004276181, 1.0106547441629825, -1.2415772463017893, -0.5169852138984454, 0.05382315367996837, -0.1107883059121274, 0.18931435037429525, 1.2511584232387287, 0.9017762875449999, -0.6692327292620337, 0.08077633579601656, 0.010930620417698794, 0.9414405745215586, 0.34696304324884897, -0.3683495869778615, 0.053437994488312546, 0.8347344732224452, -0.6509889947044507, -0.314358390171078, 0.15024506612803334, 0.10714469611834837, 0.6147372996162003, -0.6650493102662567, 1.8314584168863641, -0.7749373437859546, 0.2489029975808651, -0.18456278780380983, -0.5524052495391765, 1.1085343043138278, 0.9922870881972422, 1.0451880909348552, 0.9951629741492555, 0.997680250020889, 1.3698315352327193, 0.11173846602919646, 1.7468111082309676, 0.21483679264485353, -0.4592527351027022, 0.7791570390574114, -1.135953244725213, 0.7433763160034594, -0.6441798767395339, 0.3660808160666016, 0.9535666703465489, -0.19665134650909788], [-0.6457099583731047, 0.2131462980669715, 0.5431197069043286, -0.7441559742670432, 0.42587517191290225, 0.3263682422301922, 0.8877411734971619, 0.7963496887177217, 0.6010307232589814, 0.37412992143753765, -0.8898786236951701, -0.18241456957753643, -1.3280252347742718, 0.7660375315441783, 0.11794329078331561, -1.781116211231926, 0.5952405776001429, 0.15067676278071956, -1.396268741546212, -0.7861676669254833, 0.4494191977671429, 0.12121223593453742, 0.5628293728601041, -0.3511272030760859, -0.007976868700416029, 2.1762796857267728, 0.29079853523520494, 0.011874651686035853, -0.7327659815326762, 0.4333672518001521, -1.6038360564346983, 0.157797490306734, 0.1787040291425408, 0.5121310229776526, -0.5623396354987016, 0.7234322934888672, -0.6551333193560537, -0.12213445523225802, -0.20440411467711317, 1.7019425134923307, 0.3788686386987966, 1.6907793827509359, -0.77117373251203, 1.3092290057585356, 0.12461052355001095, -0.05231003807743914, -0.7410503457747405, -0.4183059970560147, -0.6633189505168118, 0.24810583412524775, 0.42135273928787303, -0.36777375926643907, 1.4695754929192786, -0.5088134758061077, -0.5713825099360049, -0.2522333069264409, -0.275601222504525, 0.7528129165925301, -0.6541137910384077, -1.618998780272934, -0.4660946816552865, 0.49338443670773274, -2.2136256682839877, -0.722156603888742], [0.3862697084037784, -0.2506853658516829, -0.5391075528201457, 0.2585244703493823, -0.22000948734009426, -0.2670633921257177, 0.8229760986800044, 2.2604067837702013, -1.2995766911547098, 0.6381387802163572, 0.052889621991198316, 0.6338854710189195, -0.2926807714575977, -0.4021762952256084, 0.10568037282770384, -1.419823101795483, -0.0029482489159378678, 1.3306213177524642, 1.1371702133858124, -0.6065694050253136, 0.7486823859826135, 0.32700588815628084, -0.027486998415899272, -1.2745841675914167, 1.0195718605402009, 0.5412651190445525, 0.09168987069663997, 0.38696853046984403, 0.9726232641539265, -0.42922420357105556, 0.12392510300019038, -0.5939331636248641, 0.03816234100865168, 0.08061781573192028, -1.5471184080361071, 0.11861381603754091, -0.24021458169761523, 0.5695199207644288, 0.3009613113556004, -1.783655547962837, 0.7282913635772892, -1.1583890906936194, 1.362067504849537, -0.2055399452968875, 1.2751045539114778, 1.3297246530119304, -0.9555035278880124, 0.1300821510742151, -0.25427100800837044, 0.46602603201747383, -0.6515807707533943, 0.6430610041292089, -0.3126958593809749, 0.13212838165605073, 0.271442516181929, -0.16539446646696487, 0.09308642957081248, 0.5309188534421981, -0.9535068546323586, -0.42222461874283257, 0.6459795261112129, 0.9210188791034255, 0.1079884818256585, 0.6411077569727771]], "b1": [-0.6139814539837989, -0.34354972695021113, 0.44954240516016053, 0.2905985330991296, 0.24344636828937372, -0.9314853769353038, 0.14789455243336083, 0.5418381549212052, -0.9657680879772643, 0.25688538386372833, -0.501817754073157, -0.47971698237018184, -0.4554664803652089, -0.6585172918513406, 0.27744262870968484, 0.6231263645667025, -0.0567546416244924, 0.5493167613888885, -0.5050735052754656, 0.03288643805516375, -1.4669831487167928, -1.5358527983290786, -0.27139724873036675, -0.7223688682005267, 0.012975348388269931, -0.3891416545301437, 0.09757809023490202, 0.6738485020772618, 0.31727708627101436, -0.48062184135011043, 0.44094379299647424, -0.0329270548184204, 0.27844445628540476, 0.8543005432781661, -0.5902153536651346, 0.044163850375273594, -0.04438824423646831, -0.5789678423096819, -0.7937651290496824, 1.353231023836134, -0.16281699594784388, 0.38581530365259387, -0.24707328748640459, -0.7618578283204562, -0.14168502304593827, 0.4427674001758336, -0.45153927938248306, 1.040644847280368, 0.7377508090659602, 0.7046945339460747, 0.025790443824860704, 0.2250978295707601, 1.5798817570984058, -0.45845887456960766, 1.2522006422641065, 0.6453717700849844, -0.09036698331943503, -0.14875848941744949, -0.2840654550989987, 0.5404468733618868, -0.0415920595098421, -0.6433051279277378, 0.5845885025208356, 2.079970619641588], "w2": [[0.48893751296449856, 0.3897822786377238, -0.7772650112139569, 0.6790498648267929, -0.08196954600136644, -0.7546452692986909, 0.5639097561185332, 0.9960124598524639, 0.7146127037561715, -1.3843139673698257, 1.3208074874927158, -0.06018104801817431, 0.28523268376846017, -0.9144477132682978, -0.9251695925358273, 0.031165167624569723], [-1.1376551955730243, 1.6779594022319766, -0.1833062086352145, 0.6891615490014641, -0.7450363553158821, -0.7829591433744352, 0.3271354139516077, 0.7036464355898389, 0.7589278450722574, 0.07027297275059946, -0.2618219288677342, 0.5055795425311366, -0.8926264276481264, 0.4277247731397909, 0.8822823122742727, -0.0037828232760508396], [-0.9679724054803454, 0.8636798423466339, 1.4879400205859155, 0.43769173335337114, -0.4304588194538019, -0.159211852635678, -0.6967924902866656, 0.43103786615848805, 1.1156134011355467, 0.7125665599466795, 0.3531595780075825, -0.5785117569343659, 0.8515567724275476, -1.0790216048215366, 0.11577894738010211, -1.195005344633677], [0.07793804475145566, -0.17292387800075548, 0.6035546013770445, -0.8699564911665066, -1.0692050730751788, -0.7507860563591383, 0.1628211350718534, -0.14518572663303364, 1.3097795249534223, 1.0233720927039327, -0.6998948039610138, 0.803627449256147, 0.42850649360612125, -0.818492274367526, -0.8894497399378785, -0.761991759750006], [-0.6401606620618587, 0.9297687767259367, 0.6133653970921327, 0.31305436050050883, -0.40815297752757385, 1.3834284646515191, -0.8341388143772371, -0.16789816007654312, -0.2229175172995046, -0.06252823145690523, -0.8312032191596408, 0.49034468765982775, -0.32450079592043746, -0.4660990049405201, -0.2793877744448381, 0.1253511503529212], [-0.9138629265848246, -0.39326475528302757, -0.009459168557807401, -0.720132629013527, -1.3095581074093965, -0.04639080464352416, -1.0227490560874455, -0.8428799668868118, -0.8647316729755439, 0.26076729805062565, -0.44960684202183987, 0.5796977592221738, 0.11588668215755973, -0.2188827939782011, -0.32928483968866396, -1.4304682916652438], [-0.6197425196717053, -0.609404992809722, 0.8620458220901243, 1.281463645022071, 1.7778735623969495, -0.22980595075791352, 0.4156048226069213, 0.6479668592037581, 1.1630446800915664, -0.2510861620915844, 0.49950021784512566, 0.42963555566209144, 0.2684047209473295, -0.45718148190163543, -0.6698532459712421, 1.0857520666315854], [0.509910911568758, -1.4290566736105974, -0.8496393880642135, -1.82485073018834, -0.7101582932515792, 0.9893682337431379, 0.9448149227656031, 0.06916304330297915, 0.6985087772900369, -0.7734329479082886, 0.6639161980366631, 0.9509247824089554, 0.05371749698069474, -0.45698663600927214, 0.12248097527823981, 0.2782998913932672], [1.3013942374827387, -0.8667111827528821, -0.4841634016406196, -0.1098857991568215, 0.5626283962567147, 0.5135823471114387, -0.9147562663983307, -0.6222358548078712, 0.016659530999927563, -0.30206268768015254, 1.4248984082892917, -1.6653380284166341, -0.8864735067535612, -0.7265983961837563, -0.29283662400046573, 0.6191060661459338], [-0.3189383301184394, -0.6983276601558719, 1.710887397230545, -0.054980500779390096, 0.4641281662955334, 0.4581359086866818, 1.8020270287130407, -0.023025397643138372, -1.4173147681266502, -1.61317430746555, -0.017833173458771445, 0.3307985435830935, -1.0826645940774804, -0.8660739476029741, 0.5946244393560335, -0.32842975830248305], [-0.46048337798609995, 0.6777653003982461, -0.822717966199995, -0.5224440455271311, 0.22564657786275993, -1.6941682633844688, -0.17718524549396025, -0.735912848898607, -0.8007320416212304, -1.001903498764085, -0.8537559827065194, -0.9530030638241824, 0.4966780780522896, -0.7026892120213264, 0.05407836253249507, -0.6673871884880418], [-0.9493013629811138, -0.17082689808219953, 0.1800599457878066, -0.2818382594849995, -0.5079489761717572, 0.1123243293851155, -0.6383771244574818, -0.36751753578960983, -1.6569367979444862, 0.026675683726146822, 0.41361784456627326, 1.0592418663215137, -0.5363278908072231, -0.1312743276877144, 0.21690318971397976, 0.5064394186544967], [-0.8077490441770562, -0.2136689646758366, -0.3989140521250182, 1.0141888328437447, 1.5880937792725507, 0.3638200004508057, -0.9669210472530578, -1.4066031841261022, 0.15604159001850645, -0.45898544913318506, 0.2773449177101332, -1.1618046981073697, -1.0207455215626433, -1.7138034735653358, 0.8788109393074235, -0.4510773829567597], [-1.5576656674260445, -0.1692546880824394, -0.7732791973038972, 0.8971733044402247, 0.19546360141624394, -0.5913823628544862, 0.4605940859873988, 0.24041734562741404, -0.686546368776229, -0.11943348727746428, 0.3176412279255758, -0.11206212801745918, 0.7096370687935939, 1.428329094171523, 0.7787800069665538, 0.9082240963363439], [0.15963855834501894, 1.8329649096339624, 0.7903414896051046, 0.2978219914064537, 0.06778461935766444, -0.5706690662990164, -0.07376466726975622, 1.42516208945466, -0.2988782878592933, 0.09657098270730935, 0.0895079896405784, -0.38866239994614743, -0.2238010047026696, -0.46820883567961336, -0.958836184190692, 0.06384900706114735], [0.3433917701751924, 0.1838642134757545, -0.3850614993969569, -0.27073745057966353, 0.4029162407609532, -0.3930353718328302, 0.034635195565289295, -0.42807647404402516, 0.2113685865190924, -0.8214737177172566, 0.02753959082709906, -0.46814735161175913, 0.493953805551497, 0.9327577721259352, -0.13379267294275304, -1.2453456443112563], [0.3876509790864217, -0.645312270546316, -0.3714160330711126, 0.5384537552321118, -0.03382806995645854, 1.2124835577403736, 1.4253752523247223, -0.5140080427539369, 0.05789228692464689, -0.575155547580851, 0.17265717633950917, 0.12012414430768278, 0.014725438244945432, -0.08267480438989294, -1.632739213653862, -0.6526803353352295], [0.21675599684892988, -0.16604665297244176, -0.5837680751849148, 0.9099017002671246, 0.2039666942764225, -0.05449609665665667, 0.1663180952307765, -0.14851607280664575, -0.66062209475171, 1.6505758236730794, 0.10856797929570017, 0.4596031104111777, 0.7193679607192209, -0.6708358697475537, 0.6856894895304623, 1.5971427433597585], [0.8922010989406011, -0.8348584524907832, 0.23563406238555065, -0.24118166784776596, 0.0485534205866963, 0.5624034430772206, -0.4176039935433631, 0.42085348792587457, -0.03753911572367799, 0.1702949149711166, 0.6861262946982216, 0.4039092080274078, 0.5677307079367769, -0.0201124017106058, -0.7167796213942802, -0.46959403918173226], [0.8450237380684751, -0.3844780477757854, 0.5630197507301293, -1.0968747119710032, 0.0030079934397031077, 0.09685869947009398, 0.2594590213090589, 0.08080965170941079, 0.6470286630443314, 1.1463013572760763, -0.5230807288108035, 1.3579698358764665, 1.2522617510297043, -0.9603227199496422, 0.2973816067180337, 0.3292540422178464], [-0.9944817459344987, -0.09971217955811473, -0.11850073371052822, 0.2757927806574704, 1.1201832633982978, 0.1371940970693639, 0.10361543186668452, 0.5752652358334721, -0.7747559791603756, -0.18163466385306115, 0.7719824084075738, 0.859751602671949, -0.2406822651623487, -0.44373309062941513, -0.6892114955668366, -1.1577448785899365], [-0.9624660875178412, 1.4166014112223704, -0.886422642615228, -1.2416403856555536, 0.7402376562613642, 1.0114734135027854, -0.7601823172746435, -0.7233032321217466, -1.2275772588646503, 0.5443638636377166, -0.3389255250808938, 0.07382626865368172, -0.580582010384952, 0.0802676885596986, -0.5696589922492684, -0.27350146036322287], [-0.13295072936105679, -0.057709629377047385, 0.17171956738413213, 0.24114748352401455, -0.8426967044462584, 0.5006702057922197, 1.0452315112609347, -0.12818081659185576, 0.5725649244562068, -0.5683826600040267, -0.001016284628718292, 0.23086177928672713, -0.7195896567787881, 0.033121313930685056, -0.39944501607167165, -0.1770414571471824], [-0.28671223524077233, 0.05105216467518309, 0.4775147369373661, 0.6154177318042668, -0.2189941920370872, -1.3670305509136653, -0.3438457395667523, 0.5626057928836433, -0.03931010321010961, 0.15981511169640814, -0.036597198237009146, -0.2889152978731788, -0.375091100724768, -0.6446331008506662, -0.9761284747290275, -0.1314445625564464], [-0.1493622374850524, -0.300266006600039, -2.0975430282217813, 1.0272421503565161, -0.3896277008976634, -0.04263416923870039, 0.33059846924026043, 0.8468811702395341, 0.4438058408822446, -0.08726486577825268, -0.042414731035236825, 0.014626043349657128, 0.7134681155127804, 0.17000219580021342, -1.1682473835332579, 0.996385123566328], [0.6067883739600892, 0.09083734809132973, 0.6411681490221397, 1.030166688691017, 0.21454480305695878, -0.2806213815212399, 0.08137322255608581, 0.26580428969386205, -0.07992783373211246, 0.3550657159937982, 0.0873234236180134, -0.039977637474098965, -0.6493529040579448, -0.2287859345825758, -1.498885636026308, 1.0382465182359233], [0.562451092088779, 0.3854381332693432, -0.9376156974021141, -0.2779743672671843, -1.3872349179189225, 1.5578058377437989, -0.5020345267428798, 0.8140881591044444, 0.430775457283436, -0.10855195445437221, -0.02365546447244353, -0.02914935996599488, -0.22870493697622063, 0.41400966114256177, 1.0234657800836997, -0.1884457201537358], [0.42260564283228597, -0.5698385949304884, 0.2902611315764514, 0.4611441003531962, -0.5768304201103291, 0.4572361826810342, 0.016993786142065037, -0.9924713131242454, 0.35729686209386, 0.42079567006321505, -0.8435644471216044, -0.3026464333778717, -0.6897267536344043, 0.24913824706735838, -0.37053262972708456, -0.4618368783182566], [-0.38573082908721223, -0.9664807791767402, 0.048576819042017945, 0.17754354626957142, -0.975577282116639, -0.42278088028457, -0.1522294754426102, -0.3190727565701019, -0.37026925014212575, -0.8322272018334091, -0.5322232315875858, -0.01287913407069341, 0.10639423940961844, -0.8401352401454796, -0.8688273145404942, -0.02104149069829958], [1.0271560497083967, 0.17971594050154083, 1.0451814929244319, -0.8041021656511846, -0.1863231769003112, -0.14049968212951758, 0.308957805251438, -1.0474798506235652, -0.049217006509011896, -0.5836272837165849, 0.24612720392660026, 0.16798134829478023, 0.14403354925089495, -0.5811337406432608, -0.6916251206403113, 0.7586279034703213], [-0.08364975355994676, 0.6891973360388355, 0.3701278463028209, 0.06251815329852575, 1.4625022287510316, 1.2129233467866367, -0.9863699619298868, -0.8063103412762094, -0.27724015559140575, -0.04031984963236479, -0.9178558746983716, -0.4656595728631721, 0.5902501364065926, -0.14313102476352457, 0.7100372343975374, 1.3605573854252382], [0.6120987811053746, -1.9995464424925682, -0.23597229477763076, -0.4241240455343345, 0.24750647101591655, 0.5644310589294477, 1.2532452404502308, 0.14226723667437413, 0.12601843414520403, 1.0868025450114867, -1.1167889496846952, -0.7963490829664455, -0.7266821646721091, 0.045221095026167724, 0.29529052011601603, -0.758838586191894], [0.8344333062624095, 0.29757261195342377, 0.26500545607152187, -0.8900390638270617, 0.75488948936606, -0.5375863882303795, 0.20097248574257626, 0.7085970780888584, 0.709402063842333, 0.6991873209372974, 0.9441307777314075, -0.3127891791156995, -1.060841136063238, -0.20930443354348074, 0.934187852593309, -0.6106347182877532], [-1.0704568978411466, 0.2809165271001726, 0.9797664066687289, 0.681380087116626, -0.08047011173437724, 0.059122992638917723, -1.057801298507726, 1.6270814361673964, -0.6041138636742088, -0.8412196841626464, 1.1577784357689043, 0.5667698617991219, -0.26445515085698146, -0.8758850368503808, 0.05935354680073818, -0.825854942380553], [-0.06366325660445893, -0.08298164988971818, 0.2167455544601145, 0.748959375362029, 0.16002701991131324, -0.11477991452309266, 0.3059508276508456, 0.11111614006500845, -0.4013587245830637, 0.2955046964416026, -1.7035658823283137, 0.0020536196850585164, -1.7044444772823029, 0.346920005324345, 1.051942180458307, 0.8129917833790081], [-0.10849990168498735, -0.5611040421106963, 0.6230893222905285, -0.6745407618614042, 0.6934672294550571, -0.4206992431458723, -0.4564359729901144, -1.2275736328061715, 0.1652826327866783, 0.3953238521675751, -0.20938754196471016, 0.027211084911419103, 0.2900196619690124, -0.011247527434341764, -1.1487521533873266, -0.5952114746505314], [0.3896862607500773, -0.17215669062906663, -0.271277075472386, 1.2866202912651303, 0.35538243893571975, 0.44179120332051053, -0.34821421290099003, 0.6384837506693645, -0.21145897517558865, -0.7320345864322461, -0.03066091914462246, 0.06641663888478452, -0.30466749055795045, -1.0620746522242377, -1.3979941031847776, 0.3867442195545888], [0.4470582165260798, -0.7831594973661926, 1.2090031254087765, 1.2732755083297855, 0.4723785029781631, 0.10839987046715956, -0.25041667547952273, -0.07854728089906297, 0.26693206242787904, -0.3714236454873629, -0.3848243548426734, -0.07717276041153642, -0.5506990224994964, -0.3408065823764066, 0.7378612937350523, 0.19083370809014555], [-0.27361421700025557, -0.3090060093051636, -0.9038349517235071, -0.26283357306975036, -0.8092023522029025, 0.9347581964088527, -0.4368957978661815, 1.8745028814837856, 1.7012601760522361, -0.35419924808623277, 0.7722286397008579, 0.03420306907827041, -0.055296181768491506, 0.3180551566522738, -0.20721934274245857, 0.07076465196853354], [1.0646611945839561, 0.3705709065678292, 0.2920920618497111, -0.5690049215774635, 0.3104826171462502, -0.012324055351923026, 0.9741827801791381, 0.2253144494890265, -0.5054985269915296, 0.3256443931369299, 0.18313093918144596, -1.1706039349956283, -1.5807428804548518, -0.589192795682283, 0.16865207652934594, 0.21547426438945944], [-0.7887982495855723, 0.7246414287989693, -0.6086409478027638, 1.1135908836119253, -0.10472668156970855, 0.5579455192749465, 0.06673335766853308, 0.9870530553440032, -1.9118189410962012, 0.882323843500001, -0.21598854434907913, -0.09394842365554265, 0.30547265872366147, -0.26361458962925166, -0.42997569367328786, -0.502120863132927], [0.4808424286113256, 0.5858713453148928, 0.7182571155012414, -0.31296579850509326, -1.8341730969703343, 0.6079943175045839, -0.3762661477309795, -0.2587405470780748, -1.0475718201191178, -1.063531676905564, 0.3270340050528503, 0.26884526116946633, -0.5671180841644734, -0.48754615854397687, -1.7925223819658225, 0.8772235164230135], [0.7972475230547615, -1.3400034535421663, 0.8683377869124114, -0.07284469427282389, 0.001355408621619203, -0.1748010573397089, -0.3340049722157593, -1.4197726653454383, 1.536135070141369, 0.41656590123370707, -0.8358024868892416, 1.2280614919016049, 0.35201720159966166, -0.3809506258970935, -0.8921547985697544, -1.11190112223907], [-0.509132972303374, 0.3335755542175598, -0.5898616726443566, 0.4311341264264572, 0.4290946110364159, -0.4316196773309816, -0.4477305057533053, -0.3405660230976171, -0.0316520139072021, 0.5769042728228067, -1.6607996649391525, 0.180006710067933, 0.517027869931543, 0.5886819313207412, -0.22743173917227968, -0.6584900364478526], [0.07741500389208533, 2.3498827023291473, 1.7818984624475156, -0.6752730706094616, 0.44072066414346034, -0.09842598598357408, -0.80995370156554, 0.9387004639477545, -0.20185090937799316, 0.029349752936510626, -0.27770686007825574, 0.19544594389830508, 0.885624603658377, 0.3791261398044965, -0.30387627839420045, -0.1261783485772292], [-0.5326410555024229, -0.07490677151773728, -1.395012883299186, -0.44483630039070526, -0.4551991681835831, -0.7056926693922445, 0.18665792002388282, 0.7523478089119897, 1.4882878007822755, 1.1188415748037306, -0.7069905716249113, -0.15076347576661914, -0.34338937114282003, 0.38059173181246014, -0.9755900393072978, -0.33372978573817047], [-0.7367373491581919, -0.9908616778379673, 0.22815164426446666, 0.5229041193100021, 1.0049947443044775, -0.04878272244197046, -0.45565262152163505, -0.02009761564116179, 0.053242341275474336, 0.13614335291045182, -1.534100929405921, 1.108122866881492, -0.44131149952487314, 0.6266953935802437, -0.4271237585471396, 0.5720642685418608], [-0.7364111474169965, -0.40923313078613643, 0.47664949751319674, -0.5418426772184142, 0.8081942360147913, -0.7597755661845579, -1.1275992362129392, -0.6032483918787248, 0.4423128895429804, -0.2746204003093854, 0.8522918182584904, 0.43431501142770534, 0.23763525924641848, 0.25268630321287056, -0.4600685516038331, -1.2915029420711615], [0.2633941380250354, 0.9349911107467199, -0.5485365826576568, -0.38992224930899866, 1.6254664317923633, -0.5305098355192, 0.6894154185302419, -1.3193802312725298, 0.5160863518939125, 0.5858960055705581, 0.2459958346410321, 0.402881443248737, 0.18872424596484294, -0.4714420612490213, 0.2976131512515927, -0.5546067205050041], [-0.021313793579546658, -0.4322696113566612, -0.4424118334882861, 0.3075575907078133, 0.3178658442538864, 1.1459242375135301, 1.1413826167368109, -1.097798153049001, 0.7439847385158643, 0.1152562211847817, 0.2702241296632707, 0.5025678610127257, -0.8253559268719308, -0.3036974145941083, -0.7260155851776049, 0.4417822467703628], [-0.9614323608555291, 1.093272348450046, -0.4476060041113395, 0.24821175079706959, -0.328149881781592, -0.39936253840281, -2.2097469902520106, -0.931294789605642, 0.6259339610432064, -1.6310533441957145, 0.4938416678025104, -0.2344155256522787, 0.5340676453739683, -0.8790519753430404, 1.389612583305577, 0.6704583881577612], [0.4888952262736922, -1.2002210967298763, 2.0977482364333233, -0.2102147116339065, 0.30910774294904475, 0.1350945684523096, -0.48854837420825475, -1.9185624451534775, 0.4610064527360674, -0.2589774786344405, 0.4147394815331136, -0.021876262763116036, -0.1525636967095524, -0.6644591652702985, 0.9117821629027014, -0.678348824151994], [-0.6392833689720852, -0.43464713644984804, 0.009669450949589736, 0.6188930748068748, 0.5187794540529835, 0.25493200043901265, 0.3173586049748613, -0.3740463399970165, 0.27602697651551, -0.6150503213115326, 0.5340472545789243, 0.9248150859970484, 0.6619460985312575, 0.2893862294995912, -0.6632438113202564, -0.26820093024435726], [0.8608618373809094, -0.04071342620595142, -0.45266306500414444, 0.16540430997727434, 0.32273463277231285, -0.055142992013653414, 0.46393092723419393, 0.40745174043503063, -0.8226130465685861, -0.4926628959751703, -1.150759180183944, 1.2699624716538171, -0.5180008316679854, 0.4350409722556686, -0.6497967730688321, 0.4930664942706344], [0.21007260486528243, 0.35526841453854835, -0.8524538696651063, -0.5057986958687937, -0.038098289014702164, 0.2434776118057198, 1.2128406800002354, -0.8579700940880928, 0.9465106206490193, 0.22144637562321376, -0.0007089019758559634, 1.134543282085117, -0.43068707405985995, -0.9418521306467981, -0.03867600934753671, -0.6027010877175223], [0.5040878803258053, -0.667180759862398, -0.9359968812087212, -0.6984262471713854, 0.1835812221729967, 0.15227179860532336, 1.2034154758185687, 0.7686427630921167, -1.9412159281183055, 0.5078966205980194, -0.43205010680507516, -0.2487392882049802, 0.1700661442714945, -0.5454587084195088, -0.40937090528225695, -1.0199092235363056], [0.4618019505674804, -0.1148458527485823, -0.5785894161853478, 0.9237251157699902, -0.3804771122102031, -0.28785248096689375, 1.4403307652457067, -0.45348686237501834, 0.4485351759655617, 0.010893299558521363, 0.5340962882290096, 0.06423162142124718, -0.5565667303230083, 0.4360701533170115, 0.6482269355291703, 0.33503882900314347], [-0.0836119430858078, 0.027287986972142967, 1.1034477243797074, 0.6925718310614747, -0.4180134850898827, -0.8862468344788534, 0.4609882147720049, 0.8185677525710008, -0.28940589934558125, 1.06707895675142, -0.6389970378079719, 3.323926204807004, 0.1781367237320471, 0.4632176320488639, 0.24800581067920802, 1.0791512664956204], [-0.30541893020935773, 0.6960282280795156, -0.2309159823053649, -0.24858950636887783, 0.6398539804081101, 0.7879984800656923, 0.797796670973593, -0.568415940053899, -0.5628503374248239, -0.9719433906743512, -1.4529820964555695, -0.33640727185496333, 0.7648692564033246, -0.2599869367188354, 0.26265371226471745, 0.928803470948966], [-0.8250327264458921, 0.29564271266943887, 0.8038793181631201, -0.5924711668748518, -0.6499621172479071, -0.009635844442625358, 0.5513341157417904, 0.31239996037186474, 0.4839168884971781, -0.8215729766267494, 0.4780407982179563, -0.9417400808122603, 0.006063437782357045, 0.7745873999923198, 0.5333044933857164, -0.07820923228305765], [0.967017296756804, -0.14251482247771896, 0.3839863386540933, -0.5262567252012957, 0.5249064835361131, -0.6726607411773553, -0.14137226323145208, -0.9440221768617366, -0.774682321568059, -0.8918837550253358, -0.6521585705324193, -0.08798795025087608, -0.7484741382984743, -0.3151700517044066, 0.03600060791276888, -0.0386817906943554], [0.3974602206942113, 0.5752310751337149, -0.6087292171514307, -1.0373496320542406, -0.7409076330555524, -0.3382465182551895, 0.8239980180861808, -1.495023244528551, -0.05338728434642548, -0.3554579949243498, -1.1441952517996608, 0.6979208053525168, 0.3335521187537759, 0.5643363649802916, -1.803064044745038, 0.6431767535354016], [0.42322309000214364, 0.06890144150250133, -2.293236583360255, 0.13376923766087298, -0.7512225741544798, -0.16371665620958314, 0.13602198699347728, -0.546206977160896, 0.37036245620763797, 0.1028170599536648, 0.930564111120037, -0.7620890237958844, 0.014945282748744015, 0.5418556381786728, 0.26487536154375946, -0.30038120560188963], [-0.8649622229622719, 0.006478772169774355, 0.527692572944497, -1.4456387151734835, 0.37850645118035325, -0.5009154687124271, 0.9532806948867594, 0.5314205260250091, 0.45745547586288104, 0.4465398894554807, 0.12341629655667402, 0.9990717693271624, 0.5139870137827364, 0.6363935820794694, 0.001233681897816974, -0.5008412022581755]], "b2": [0.8231199752890167, 0.7589124064038295, -0.5925233227888536, -0.17984060971080765, -0.050458912658031596, -1.9613545673402188, 0.08362235091083059, 0.22505164112949683, 0.1174151719711897, -0.004418372913710944, -0.42188955896679764, -1.0113618376935205, 0.9601236459517776, -0.47892780439926214, 0.9043804903716881, 1.4550862861151908], "fitness": 0.5816326530612245, "wins": 570, "games_played": 980}