{"network_id": 26, "w1": [[-0.694966232596973, 0.6103206144234798, 0.9331949226842244, -0.12614060134466432, 0.4788200033132097, 0.2525469366662133, 0.004907293615984798, 0.9809157365442955, -0.10843520742792791, -1.0223158822038065, -0.07065778702787455, -0.5286280524891377, 0.37049306893217293, 1.2199955605142867, 0.20219820071803504, 0.16584358082418799, 0.11677790673659535, -0.10209024461380696, -0.49751474710462207, -0.4439913064146948, 0.65425127783221, -0.2032375389408579, 0.6623310630946326, -0.04541161171798571, 0.15029834583469365, 0.8639473153758882, -0.6808056255801751, 0.093203531964412, 0.24171100458524825, -0.12977352905052808, -0.9492279391152875, -0.8700844999354239, 0.8917979941502191, 0.23281788278045465, 1.0320661587801707, -0.6578087646915816, 0.949050799977653, 0.15417707425578794, 0.29539907552874206, -1.0123269785323572, 0.28821816046763826, -0.5223834378441837, -0.05096218284817064, -0.7162734469614387, -0.737936327703296, 0.2652126616770559, -0.432962247976752, 0.07079127656921139, 0.3859133790097247, 0.8676053459357592, -0.8127360835100295, 0.7524225370762193, -0.8556255575477987, -0.07437216945339166, 0.9629022662414255, -0.8026594053140603, 0.6073860864623728, -0.0765886562223006, -0.9306330338126297, -0.2419235177913952, -0.5315760365708341, 0.0037539713983978373, -0.06070510769124998, -0.09048072430902715], [-0.7000410078790285, 0.1021793553565551, 0.9170970193502548, 0.8502566162752256, -0.13567949635669552, 0.5784735625728459, 0.07352286701758876, 0.5090415183817026, -0.025380449326323967, -0.09837405846685192, 0.027853843492702784, -0.5010120078594417, -0.7983800048883167, 0.3749096306412144, 0.4689719102653428, -1.9563262160028025, -0.609841106235606, -0.2745103944731796, -0.1537066225318534, 0.5917441582047652, 0.5438631411123687, 0.09392203800599404, 0.9897808094890738, -0.9518738527592432, -0.9736591652514229, 1.460404394112982, -1.0195882464258152, -0.3981125814243693, -0.46488846438887543, -0.9912727803021238, -0.11504152755722187, 1.3226824106105568, 0.15190254543748782, 0.1688813576499083, 1.1954548756771153, 0.3472923012978214, -0.7082851367226473, 1.194749619525838, -0.5206004287920885, 0.9448318617720767, -0.8579083871752892, -1.2731188703569274, 0.8596122695319435, -0.3036460110451864, -0.1600354943942727, 0.07861505459027371, 0.015474852507673276, 1.8254176347014135, 0.24289918962107276, -0.003993608156650952, 0.6415287071946103, 0.17034451141131907, -0.3611497865180012, 0.2831580436806632, 0.7074497295194462, 0.4681379441060053, -1.4441124980997544, -0.3161065006765567, 0.3032525750500707, -0.24043261810002212, 1.1945965366709297, -0.664235876616439, -1.1622130966870237, 0.9370212049376673], [0.3202335618892995, -1.3153404358452132, -1.2904354207954942, 0.2222326910542859, -1.0583464000971297, 0.9537232388507066, -0.35272693491620205, 0.31051497047048526, -0.115511000000704, 0.43203685697099664, 0.4933496219921039, -0.3855456366240568, -0.14705148900649795, 1.7427855014254856, 0.18920211086174213, -0.6050357344063798, -0.8057843306385736, 0.45390398791337555, 0.3282867802712433, 1.2691047365401826, -0.3104932673024425, 0.10639168791081959, 0.27414196729035606, 0.3680989946450556, -0.6377904284157367, 0.010676464471871011, 0.925823683491704, -0.22034889602879354, -0.009650943431669057, 1.1554083673244817, 0.3115022297260273, -0.4135211157682395, -1.217610450388904, -1.1585484194645574, 0.9220555130379244, -0.1966090638491519, -0.4301247035799896, 0.6765400350112379, -0.9695110110242995, -0.050503044652566956, 1.0465431240140082, -0.4329405055638438, 0.4868713240427719, 0.9317586837833293, -1.0497448714235444, 0.7104037389978151, 0.6138908646719959, 0.6698367359701584, 0.15015069174464662, 0.15627952617222277, 0.04578840279419623, 0.1316963114681792, 0.4558104632077231, 0.5926042716113855, -0.2771723262086853, 0.015318855366465628, -0.2567817163072895, 0.08400770178000472, 0.15931887480397616, 0.44512073907081207, -1.1960759218494645, 0.2187432935953665, -0.06880037544876588, -0.32482278014452565], [0.4716119413789766, 0.646760638258287, 1.102657685913147, 0.17423879096440092, -0.6201660997314302, -0.5368021628073787, -1.011941270826185, 0.023374815272568836, -0.8818557908804872, -1.628326239190587, 0.9758889150941712, 0.5446822496192807, 0.9529439557226788, -0.15458442657176735, -0.29751206527532853, -1.6577852154703128, 0.3705958764598706, 0.39479107063944535, -0.3558237977662504, -0.08789443497001971, -0.8535109356139207, 0.7228910553568464, -0.14057280581057977, 1.958808334181041, 0.09258769080182674, 0.1204506980277768, -0.2833954211346163, 0.4286642410981756, 0.9289183680740374, -0.022856877036477985, -0.13181056406914005, 0.51866237221325, -0.2749202736098396, 0.2562870738019087, -1.3441899373365342, -0.21855513122153042, 0.21519504177192894, -0.10922907877957307, -0.3062745128640227, 0.3041851742063693, 0.5628494892537212, -0.5150521649659446, 0.40106094734165904, -0.9618659109067573, -0.23820042174656286, -0.5338335023139228, 1.2828464382301448, -0.5941609492755002, -0.24759298421274203, -0.5975686282934882, -0.37514141122283207, -0.5563276029335359, 1.0744091513785752, -1.6477554948828828, 0.17594710359004, -0.7655329807506666, -0.49572046210461945, -0.6177583098803985, 0.6191804542277826, 0.714222321541264, 0.24658084578221012, -0.3295299519423822, -0.23815588588575115, -0.9823631558701984], [-0.4021889601062695, -0.5933379145881645, 0.3810606453297238, 0.48163173259605996, 0.01799090035201159, 0.09887270326199987, 0.5561604583544543, -1.0943584011181593, -1.3874143822179477, -0.97766308053196, -0.27945772483876324, -0.631114422398044, -0.2140559525878409, -0.25002313222180816, -1.424029298328597, -0.44949405642001883, -0.7562418880883967, 0.5835622957729069, -0.42913584545955896, 0.23606856482914318, -0.09237688060597571, -0.04345089315703546, 0.6326706540119917, 0.17078836329927466, -0.16181540164773678, 0.3328786554835608, -0.6667933381814037, 0.3667575039881873, 1.340636904608396, -0.04836967118853959, 0.28273497763577216, 0.31412101668425246, -0.8375212656727825, -0.43989889455019543, -0.3507385799102213, -0.15378213068482238, 0.7227114473529348, 0.7339391415812817, 0.5563412737886316, -0.12803106007329712, -0.5893810551628191, 0.020709490140878722, 0.6861131537809781, -0.9668499188116579, 1.049701822967944, -0.7126201770712557, -0.3302570444971942, 1.5620854996294333, 1.568730278000814, 0.5705406148608633, 0.797485277738943, 0.41743497718070255, 0.4129435852365789, 0.7194606495838174, -0.30573493046099415, -0.18990373998585763, -1.0900158535414244, 0.1089077120538926, 0.2537241845315528, 0.4570409398742331, 2.132071901705317, 0.6157706572927528, 0.5958317819747376, 0.48629875105644466], [0.7326647879648258, 1.3428704172483676, -0.6254572328483141, -0.10883100001582087, -0.2802339129334639, -0.9975957338046811, -0.635887381533666, 0.1828323868381258, 0.2580120908628772, -0.47962462706709497, 0.06742378860771507, 0.08244336700930432, 0.5371141239581787, -0.006577610095005293, 0.4344038601887415, -0.4940677055561701, 0.8757396665986835, -1.0748324064820631, -1.7455250220275456, 0.2110186711926807, -0.30424209729220625, 0.7429101663889497, 0.6840871435706171, -0.7056129079071093, -0.07350771965832709, 0.4430934747430374, -1.7766808818503184, 0.6728519564855858, -0.37074842181477136, 0.12858642957141542, 0.49396763464003934, 0.7492758442393341, -0.6942748357320075, -1.121602659459233, -0.39223313888520434, 0.040601792152261215, 0.04641879569623323, -0.05869318277059521, 1.095688812001844, -0.9991706873442113, 0.1349667228561273, 0.28906088127362567, 0.1388312978549224, 0.7295466176825911, -0.12995397050237406, 0.7382264793108895, -0.17432097941377864, -0.20747239080104837, 0.6787992060420422, 0.8762552347806225, 0.37830743404191025, 0.16390721885971815, 0.4130983254143755, 1.0401241603542533, 1.1276416167701686, -0.46672124619896876, 1.172145313423123, 0.11084662743716467, 0.10789381850084817, 1.0001713309621998, 0.46664500080782506, 0.7133462700000204, 0.2930770675685027, 1.2938418031104448], [-0.5870546705066114, -0.30580976029320084, 0.17784193796372558, 0.14458147910817512, -0.5792385143415846, -0.8012133677646078, -0.6300648618820046, 0.052380579209767464, -0.3015315358457878, -0.4038576159990556, 0.04369550864807936, -1.203033572443797, 0.19995946580154134, -1.2265173243379837, -0.829931959691675, -0.4769953175033223, 0.8902228627395455, -0.49866936536634343, -0.6407544743611285, 1.1736960421476688, 0.05943887063694189, 0.31962588762833183, -0.08938440537397141, -0.7720463373907341, 0.7150665397766152, -0.9379165995665328, -0.8740101925204112, 0.41879342241190615, 1.079188369812101, -0.365335204838048, -0.13069223909465277, 0.30046427907725887, 0.6844975875989189, -0.48916267330162827, -0.09368838968842513, -0.005001901705851908, -0.17046418836543462, -0.06398306056443562, -0.1874909064015301, -1.1529081944968274, 0.11269585820931236, -0.2921587181529887, -0.2834100893279164, -0.23398137761261723, 0.672548322168508, -0.5592528871576848, -0.5788539941375338, 0.7051198159026087, -0.03958673509367033, -0.7086663211755039, -0.9934679627200371, 0.09000679537848572, 0.7770090872693356, 0.7839891830777123, -0.29734040139359746, 0.6442395669945445, 0.08442222592779386, -0.18196905004247513, 1.0863341666865718, -0.710886815512985, 0.25256940080083823, 0.38276611705125047, -0.9132686106728329, 1.1724378943732616], [-0.40657491515481775, 0.7940314408172733, -0.4898659588650057, 0.40881262813417013, 1.624136502108881, 0.6792738917077459, 0.2537967811020592, 0.7275177099057089, 0.4489957017563445, -0.9363636626755346, -0.055651272476387736, 1.5855289518294708, 0.7362678163442191, -0.3988188676865465, -0.4271782430989904, 0.32130902391483396, -0.565931390591801, 0.23118662103853774, 0.4408082462349558, 0.08230557404795741, 0.33859624741619304, -0.46243447416060846, -0.45562880434148556, 0.18451649880434584, 0.2704957049787078, -0.12541305428084432, -0.17771192358279805, -0.6184629404177266, 0.653371418238868, 0.43853134759837775, 1.4136546965981862, -0.627305295106513, -0.3031497927812534, 0.5726262556640668, 0.8048746597895706, 0.09197590790948734, -0.8672069051234957, -0.4067659365343103, 0.425645408248289, 0.3021602278523735, -0.6321486877986034, 0.3046658094809044, 0.6855371168487603, -0.25951991818018905, 0.33106500593790517, 0.5444736784579592, -0.06503671187087195, -0.25461339679809136, 1.6093858287632066, -1.3249199328759858, 0.9889351694988023, -0.8329505135048838, 0.8917545460098819, 0.46803944090612826, -2.616542179572891, 0.04955122344061576, -0.17238126788054253, -0.6450523446907876, 0.17113889946728048, 0.2590231923397172, -0.5338887541902257, -0.2177922598680891, -0.14414479833851174, 1.3043680781345879], [-0.8775968857326985, 0.08839757154747097, -0.3626283918960368, 0.0904221206431504, 0.2504537816206486, -1.3567630660623282, 0.5980563601725202, -0.42162502724875167, 1.3052510418098717, -1.4550725880119857, 0.286115512967343, -0.34225228360631166, 0.4235080254693201, -0.4592614949328733, 1.0698242013925539, 0.5631279211230942, 0.359245642448372, -1.3617079281266227, 0.1947695891946924, 1.027993230966264, -0.3173490628481163, -0.5745800084193244, -0.726348378272728, 0.22507646507797752, 0.2814812809445948, 0.29851268690675214, 0.5444693436626165, 0.48071784106473775, 0.43452657991292987, 0.2592015694623063, 0.004658904618478565, 0.9095455406826952, 0.3786578374960619, 0.4293477137726591, 0.39844076357096714, 0.8613013321147662, -0.8152339663195816, -0.08660063265353213, -0.5017124434402628, 0.7936432214443254, 0.9910629107277102, -0.17796361314379372, 0.5042264457510897, -0.03633345538059693, 0.19855269100789932, 0.03887660458224296, -0.5190917814919817, 0.7928059400079763, -0.24899531262776065, 0.213962039571765, 0.5526752783855687, 0.4480354554741996, 1.599445007685556, -1.1024570103879592, 1.5541783646953338, 0.6973324035421428, -0.5620259877738301, 0.5381758140893307, -1.816175339881935, 0.8358186586417498, -0.12312961113592508, -0.406471436117, 1.2087262027532162, -0.02652307836897385], [-1.3119460159808234, -0.3600283874877752, 0.7889752572956696, -0.9488772286586575, 0.006657430216700705, 0.020251137142336922, 1.290565953901166, 0.7963496887177217, -0.05032018427958643, -0.4749817841247505, -0.7697973973254992, 0.22468637262667956, -1.2096346296095604, 0.38068639964747236, 0.43704770009147803, -1.370507140289525, 0.8205617864144995, 0.20756592809529645, -0.9558455141136253, -0.6553045215236825, 0.8150739254821244, 0.20332873614346886, -0.2642213697528655, -0.19139377205008987, -0.17464321808851324, 0.21092335762440884, 0.410092452003843, -0.1501721195467448, -0.8069932472340124, 0.14836208312925123, -1.0800108901964751, 0.5451931428702246, 0.1787040291425408, 0.8697585191209195, -0.9506673821720653, -1.3183881809786349, -0.8748611977948839, -0.19871728229980443, 0.8595220487126709, 1.6337524092393, 0.4763325543763598, 0.2765459183717414, -0.08433235793831922, 1.1001504609230512, -0.11626091740496819, 0.3040867183554085, -0.17671972067526018, -0.10697796561527942, 0.21628519863520113, -0.1368411381009928, 0.24207875101359522, 0.35993164764581104, 0.26933685613878666, 0.13729306129620533, -0.13170647022014145, -0.14442235165284562, -0.6689728071705325, 0.9324360578511359, 0.4746987445833859, -0.789694135325888, 0.23332317839637745, 0.5162460267563157, -0.6419545001781244, 0.21445377169910584], [0.031417662414195954, -1.1759982441328733, -0.5458876169387038, 0.1385927785810208, -0.18722967484937683, 0.17318877041497802, -0.28520078198572707, 2.7559757438073786, -0.6200195156541068, 1.0910759707578317, -0.34552716638858083, 0.24654603191490437, -0.6892955891245365, 0.03721819297459372, -0.2094182070917608, -0.9336623972718869, 0.8234486055098806, 0.6926684240758642, 0.6857233942117936, 0.06826217252013739, 0.8036985110395517, 0.5794340881921067, 0.07032799800121027, -0.06917148013269858, 1.3337740569017347, 1.1216383240750472, 0.22359693265057523, 0.4332916848774343, 0.42473456612130067, -0.6052108056261531, 0.3230670984546984, 0.18873618897353825, 0.04200480887291161, -1.072366156645547, -1.1086218125870615, -0.23170515620880378, 0.5789394703234119, 0.303077641795352, -0.8952359895215157, -1.145371218275514, 1.1372326004280422, -0.5978403217794588, 0.20667574101917918, -0.1533074997348594, 0.18926503526073024, 0.9172175458663718, 0.14152169398641395, 0.5118402109117868, 0.21348512866208338, 0.8791061101977805, -0.6480093850135007, 0.06173561210208757, 0.31034066052818626, 0.9444028491250958, 0.7973845922925276, -0.111892402391364, 0.11216907857728714, 0.28131959632625114, -0.865240351078225, -0.18519894571094392, 0.675691019570013, 1.0961455356887033, 0.03533801661089797, -0.4335570597949978]], "b1": [-0.09880568685323322, -0.08409705719655025, -0.19937391386677383, 0.6954999179979434, 0.28942771767937553, -0.5669195239128778, 0.08159187887013758, -0.43531577905543106, -0.30770167003168614, 0.9063444810201076, -1.1387607889515337, -0.5786199677540802, 0.07642704232031809, 0.6342250815797761, 1.5762324746881267, 0.09628688712860972, 0.1443668358581751, 0.6425126922134343, -0.0446401369888734, 0.4620132852283898, 0.23788253916846291, -0.5552283098563714, 0.26792900943369014, -0.48103343581348496, -0.4429736469390636, -0.4520921361101775, -0.7382575194072697, 0.4662674228911433, -0.11721726898643632, -0.2032119866540487, 0.27290547972202456, -0.2936107562930749, 0.21922582129061227, 0.4045369757846988, -0.6882022044958261, -0.16595207661738226, -0.7221290834924157, -0.6987817994713441, 0.01096508297738065, -0.23489480075738042, -0.13347314380511277, 0.6510014217270417, -0.17499034463027097, -0.5008295329479301, 0.0, -0.007351562676545714, -0.34005108826505925, 0.8272748460118025, 0.9873333746913903, 0.2974074202185601, 0.025790443824860704, -0.9174358487526202, 0.45443871896192317, -0.8434869289503015, 0.9845258816507554, 0.2521832805133536, -0.08907542174912249, -0.5551451043792323, -0.08871414624518917, 0.2902197411115865, 0.6192957821345052, 0.4790133999440076, 0.9903866405818871, 0.9261832802354839], "w2": [[0.5604348936672177, -0.379159213447743, -0.12136682865706785, 0.7034251459718907, 0.6990681717978379, -1.1883862250659354, -0.43928331622471006, -0.22130039492321713, 0.9119213253291529, -0.35068219036323833, -0.1584244505319388, 0.4161813116291179, 0.4306337108632757, -0.2354136771479135, -0.7186349861347786, -0.05681662719855582], [-0.3069409959064149, 0.9376610709978404, 0.20541086317261203, 0.6002372900482075, -0.6271817082303164, -0.450113008963984, 0.4692713898909377, -0.03989252498758661, -1.0201419231504423, 0.384365524596456, -0.053990613434042545, 0.41783322232036446, -0.693950743885127, 0.43634580668734557, 0.5115635387847569, 0.45329402871110913], [-0.3010177339670724, -0.017165586239232172, 0.7955481775425872, 0.08338565082456809, -0.7063846290237009, 0.21237198799672968, -0.1698558664176985, -0.198028409608502, 0.5144601570396219, 0.07864370687751554, 0.39513238419802754, -0.21759066131046356, 0.26625101548513064, 0.012768321874789323, -0.17440333566987892, -0.22882873095984652], [-0.06475174922007325, 0.17276762637158322, 1.030475579342417, -0.046687872388356026, -0.6113021092166179, 0.7264873489199848, 0.418273399919875, 0.4419716702068519, 0.8797901353830206, 1.0532424254404322, -0.35793351378456284, 0.621401108315357, 0.82828246776609, -0.818492274367526, -0.8788999993561444, -1.146545042966622], [0.058168711975153664, 0.7490903048463632, 0.03888727210825585, 0.8916572108597822, 0.6722769195682543, 0.32653006128557316, 0.091702154352365, -0.011416250362744726, 0.06181510096103507, 0.9877894053518085, -0.30983563805171327, 0.23255957873554609, -0.35194688047469486, -0.6816177371771543, 0.5470277614366478, 0.0855831192116517], [-0.10205011087476969, -0.053002808829939185, -0.37944923383375023, -0.5011063221261767, -0.4079755328027408, 0.03695104128145675, -0.32555492311755463, -0.2953347734643088, -0.4088438700169323, -0.30922262312230975, -0.16149001819829611, 0.5784933012669728, 0.033454112380753756, -0.02019758540936803, -0.7087585620469059, -0.9353262652258916], [1.4992251066175002, -0.38393310398618435, 1.0861788214030312, 0.8420508197918036, 0.744009298774563, 0.23169113670837205, -0.10289727440477314, 0.6554616967143811, 0.21803396225669797, 0.04057304263944676, 0.13453411726443137, 0.21769539165487922, -0.5137832339522986, -0.41738975093462766, -0.7606302353992831, 0.7210888751638624], [0.509910911568758, -1.1036519031471799, -0.20405322867177778, -0.6879106513384745, -0.8593525255300849, 0.443122800897116, 0.286501166398457, -0.4676350039001953, 0.009599439763910957, -0.16889225060841528, 0.2877769025085317, 0.7604073125197335, -0.23245371560347008, -0.44488909190604226, 0.3061613324556448, 0.8452216561285721], [0.7474294575424696, -0.620009363375237, 0.835885294260778, -0.5977346031669852, 0.6347012349150493, 0.6507812693316845, -0.16749518720185008, -0.6896454511603195, 0.5753792772297347, -0.4013530899741832, 0.38328728139533913, 0.12992173564106607, -0.3878945862946355, -0.06041920989158922, -0.34281068055594593, 0.7904537275757474], [-0.4743733343351163, -0.622088999528302, 1.2279177187768502, 0.17240987347243658, -0.08410835865698203, -0.060957243199767364, 0.374149448459794, 0.1013444405453301, -0.22527941899043577, -1.3755314504974008, -0.19180464552087617, -0.5532018719988584, -0.7373643467671829, -0.0772295285288158, 0.4194898097644652, -0.5681518322983834], [0.5655427412863123, -0.04297074240421146, -0.928635341166397, -0.5827027642021417, 0.7256022031108789, -1.2185200475881788, 0.46887488502772073, -0.36845361152506306, -1.4790756446047257, -1.041669940191544, -0.18981048249864763, -0.22218099156204013, 0.19807464352767584, -0.6725490391710766, 0.024629273744203095, -0.7094546325743334], [-0.949071607819602, -0.6249653794606058, -0.08647524778510779, 0.012118157655838444, -0.3918877397962488, 0.210073039436612, 0.47990526915043247, 0.09365397956649535, -1.4093103661066724, 0.7757975300553488, -0.2046186652968736, 0.22404156805928968, 0.19918835889315922, 0.1588175628629237, 0.21690318971397976, 0.3224719376932889], [-0.5099291527142659, 0.05403900447617793, -0.06689385778500317, 0.39672566057799963, 1.1377450696552764, 0.29777205966349474, -0.040514439902422594, -0.972906838091284, 0.7427269312848215, -0.4265296359577378, 0.10134778302082843, -0.5314479109806995, -0.8330593538442905, -0.83323469973115, 0.5454505047261452, 0.08752788264318574], [-1.4326589780886356, -0.8886211631017467, 0.08197042601763388, 0.68388678511323, 0.46594810870982084, -0.562834025607985, 0.6962678185127567, 0.37073789288380155, -0.30604712893476094, 0.7521743726436767, 0.2791318840986743, 0.5049764684286336, 0.35193376573317126, -0.07852388483263348, 0.7136050547486004, -0.19975783880048842], [0.10935250127945717, 0.5062622813046008, 0.39737980670801654, -0.013277942533199416, -0.5235928640891185, 0.17565532439645826, -0.0591244303610943, 0.6024120668651735, -0.004577401831451111, -0.3792407289654603, 0.08265618934384591, -0.25967623845562093, -0.445597297702398, 0.2042774461048386, 0.25584892019699024, 0.06384900706114735], [0.6309531385180843, -0.7147976398905965, -0.30162538755846324, -0.5636595030456806, 1.0136886979807476, 0.04353391322541003, -0.5553037994147644, 0.08976581272962755, 0.4979725156016755, -0.6031560186972701, -0.5451406135691108, 0.06433032791250481, -0.03859171252930686, 0.08549421979459741, 0.023937513692389695, -0.4384262318052548], [0.5841952042494408, -0.3679029798537516, -0.09940016915443944, 0.008079284784295648, -0.0014592421361603117, 0.6959746551509352, 0.06639536596883835, -0.6429123271366769, 0.2944789000768655, -0.23519987182990862, 0.43441042158562704, 0.10476051056572742, -0.24981964388774855, -0.0024705449287683867, -0.05941542103121611, -0.9463794432445616], [0.25959920662225344, -0.4817155509944586, -0.056093229819597135, -0.35237439928190106, 0.15085851538581938, -0.06664257575252325, 1.0119017331077849, -0.27421071734769237, -0.7590658274650307, -0.35405328752267357, 0.4561029091681368, 0.6086863239192213, 1.223747536871113, -0.7607582078704628, 0.22914406389453312, 0.9029093859918071], [0.7662554721104378, -0.5830447196189981, -0.9320308607834544, 0.16599860709345016, -0.30828080782495204, 0.046334899825953034, 0.4640616713796971, 0.17873099010517057, -0.5304111550078467, -0.3084479095132199, 0.1733275461015931, -0.13083021609634493, 0.9004616578301763, -0.12787972331788328, 0.05770345348011949, 0.5918763928581676], [-0.39678827356532664, -0.43420006902331043, 0.576335903077403, -0.16708125893071052, -0.04234401450740779, 0.1622029341242842, -0.06912436388901286, 0.2892482912898844, 0.8613847368858378, 0.23693823661683772, -0.22533346277549313, 0.3236308502243723, 0.9411062233125418, -0.3859159570131945, 0.16340106689621445, 0.25066250036592685], [-0.8014305223084522, 0.3802849350918133, -0.7383660081440051, -0.053751803298413496, 1.1500255097319667, -0.15018936909091585, -0.10432150572779325, 0.3963290890389701, 0.07376766296298133, 0.4114109208123611, 0.3601208455653437, 1.3459954288599096, 0.24130697977640164, 0.7108107953078657, -0.058140440734571586, -1.0503848946247554], [-1.447662514502925, 0.41625029295523774, -0.06342148672678014, -0.3767381207636464, 0.3073376791794703, -0.5560374006251755, -0.8110627150665108, 0.13623672387005303, -0.8284676606499555, 1.3679528403612955, -0.3102885462171215, 0.20430283020151482, -0.6603739598246232, -0.13743388476955656, -0.1962257073868345, 0.20854884530868312], [0.5347197364639851, 0.0019000328527995075, 0.5728429196859439, 0.6664967528723135, -0.033670574207758874, 1.1826180306546026, 0.1582825939086262, -0.2855481142795997, -0.04572992942705292, -0.5957552399539503, -0.9869282126078232, 0.33459099597060704, -0.40189472903325185, -0.11490811281028951, 0.07496502330839122, 0.6054822577490186], [-0.023318379667791822, 0.03285092272372919, 0.9985148181029395, 0.1944753706155335, 0.25161271268168867, -0.7754111723119441, -0.4959257766896885, 1.1664656045500972, -0.03931010321010961, -0.1563678240533405, -0.036597198237009146, -1.0530605929715533, 0.25748759633791923, -0.41227680816148127, -0.2995350782312568, -0.2498218940307186], [0.1745248581237195, 0.28021632745162095, -0.3375616944883707, 0.6305053145518065, -0.027438975776872432, -0.6003017612772086, -0.14506470919538572, -0.03525730793517109, 0.07830989683971422, 0.011289536487713914, -0.6086421170175091, 0.5657209877270545, 0.4401888914647394, 0.42632484121296343, 0.9361202541413481, 1.1139957867662407], [0.24663597050910957, 0.46042858055773217, -0.06647792110061546, 0.5027906095887693, -0.21865610065571248, 0.1967185170389053, -0.08540411177855312, 0.2961141949985931, -0.41395137568423546, 0.718237563107421, 0.07606867229854197, -0.6138050006874778, 0.673692339365817, -0.345195640850371, -0.7664909663464665, 0.6345748828962221], [-0.001986960151019698, -0.13910908273985356, -1.2212817504587827, -0.7886225690688162, -0.48158333597723124, -0.2747372539554246, 0.2233080513937203, 0.084578134146084, 0.28110489159687146, -0.011572793368543999, -0.030589703013599312, 1.0455964161472713, -0.24111115662856317, 0.6601901343595712, 0.2992920842182507, 0.25256473606274954], [0.5392393184476728, -0.0951555121778923, 0.43307212268334144, 0.28997318647120723, -0.13283429946737826, 0.4340876236436091, -0.2618564045648718, -0.47997318599398975, 0.17064883500181224, -0.29693488005874064, 0.3804529624559234, -0.8023937563815091, -0.2376733522270105, 0.31627998211592434, 0.2920576924604623, -0.3131601596763903], [-0.5945306593566636, -1.6030466972875972, 0.2399432472916637, 0.17162465338238925, -1.032036221458657, -0.4209737986386758, -0.2140632237066277, -0.20136664614263006, 0.04529168421866739, -0.2306583414383272, -0.2631605403066355, 0.5286673622734333, 0.10038628002084582, -0.5365095839635454, 0.032740779241049345, 0.1393265918007584], [-0.5364712089563027, 0.16994018871612931, 0.8629865679948263, -0.5817647130135529, 0.36657143516497814, -0.7589159868107607, 0.06323962298854946, -1.2381343875702417, -0.3455997531148931, -0.05566522636903353, 0.3020509355021412, 0.06030894314252347, -0.15325518130326357, -0.5131941216899363, 0.03832194223009133, -0.24392502308536684], [0.09168133718659724, 0.03223325281036779, -0.3247911541968898, 0.04949357661094894, 0.6818663851003802, 0.3399591521681776, 0.18446839743271712, -0.49218970322974454, -0.10511779972469242, 0.564467155986732, -0.06211494456282929, -0.03704965047336457, -0.21895500298443143, -0.941091381554601, 0.7144446700626301, -0.25919253901770717], [-0.4595326297859061, 0.1114773125328057, 0.21806691555116098, -0.224581660146826, 0.7535004965133346, 0.011389180487942005, 0.010818025662695185, 0.8907938051567055, 0.5573524544847601, 0.8522197330137175, -0.2582893487240396, -0.7896351670283064, -0.36832958376473324, 0.7362708036770447, 0.3747921287854756, 0.34184217795430905], [0.5294990159529667, 0.4635928305916547, -0.16438335356168166, -0.8628352898811151, 0.5778402002100044, -0.12556520216647843, 0.03122189938087786, 0.347002314143202, 0.0018166051345968048, 0.48830807910757584, 0.8700154881603545, -0.016140253820857948, -0.3679986609366711, 0.15990561140658394, 0.19722857391472653, 0.12855655371986552], [-0.38702705522170544, 0.00350275992778944, 0.5956531677236071, 0.7337622211481438, -0.29772396803430534, -0.1822188816826839, -0.7979365956084894, 0.9460668086299318, -0.3320875458096179, -0.5874683040490617, 0.36811496562783713, -0.19229961613527458, -0.8192714289319927, -0.47849190070056336, 0.40777071263426845, 0.05655024232821175], [-0.21204120839363372, 0.6513483289013701, 0.108202695897099, 0.5772554269682744, -1.0755837399585817, 0.8681445220434256, -0.01077664763259839, -0.6983663428543396, 0.1251628848370796, 0.08316637774913374, -1.5440260486784338, 0.4310312232318436, 0.19578060860905622, 0.5512004611046488, 0.3144330483728602, -0.05808979739851787], [-0.39840258653327987, -0.15690328932011516, -0.418599418418368, -0.2145207263059795, 0.5384385811901291, -0.9975812974689219, 0.09072810639544558, -1.0092440654173542, 0.7894486431681244, 0.1976920479247193, -0.5865633170148957, -0.49360262073146544, 0.5734289483300435, -0.2235384691508695, -1.1058451142275458, 0.09722135661196019], [0.3178439650216171, 0.7865495166241021, 0.8320226988235038, 1.2999373372524645, 0.14503743030535438, -0.2317428495758142, 0.3353858163653774, 0.04919540727394042, 0.7312719947115085, 0.2873156463047809, 0.4049201437522085, 0.19716169099974468, 0.055023034700591986, -0.4382161703669251, -0.5836430569480839, -0.053169389880308254], [-0.6175424069285718, -0.35827400926833974, 0.795164756886714, -0.6627263217129069, 0.4723785029781631, -0.3291750707041075, 0.9859203349049657, 0.38287671173093013, 0.41461854029324685, 0.16818445847862368, -0.22307872738218593, 0.18476847586973796, 0.24311958325498217, -0.3408065823764066, -0.023625857360064437, -0.1906809918494603], [0.37493405149947656, 0.259206605410798, -0.7925404766757549, -0.1818384032609928, -0.8304660546496672, -0.4647153100078365, 0.0549983716152706, 0.8555684200922802, 0.2929115028091386, -0.2082645247854651, 0.23331637771503888, 0.26262426865433636, -1.1713995924777267, 0.276989440234965, -0.26633995999104637, 0.22993067124534722], [0.7253582950412039, 0.4547635854913715, -0.21540407762387623, 0.10046215285240137, -0.3032791045814895, 0.25758182610158165, 0.3295092754205211, 0.08225087747194335, -0.28118929194173997, 0.25699519539214016, -0.8358161152061938, -1.4076460465106044, -0.0905153216533931, -0.17217833584636488, 0.32114626704959753, 0.281630629380126], [-0.2480577152903395, 0.6530820055748898, -1.0754589187382173, 0.24297078483522652, 0.42097270704249334, 0.8232913356553279, -0.009189853703944706, -0.2680482209761229, -0.6105555115094997, 0.03940392483873582, 0.10153222655535848, -0.10314650713006186, -0.2336469962476576, -0.46309642019976893, -0.0328052207648275, -0.7728775994967114], [0.4330735154854212, -0.20932969377221383, -0.40458097325976017, 0.31865612718337377, -0.6527014299768602, 0.047936075478770296, 0.015568987401685136, -0.18134409364433607, -0.8253582757730402, -0.6822215447533628, 0.18955348114844983, -0.06767955490395977, -0.6189734592909217, -0.24507529705641423, -1.8901935102937228, 0.4522665630581081], [0.42336195153113243, -0.8448406308299395, 0.22666869845507018, 0.6156729806929462, -0.08085867514802322, -0.46169315130203487, -0.22767688530781632, -0.49528577411728225, 1.0474369660430278, 0.054939049760435336, -0.6828750278909015, 0.9781488386133973, 0.4961920131119758, -0.20819340695526772, -0.6134694325910777, -1.0259697540669486], [0.4342200681987197, 0.07222836859706525, -0.39984978443067276, 0.5708335767623242, 0.505775818200296, 0.09383013171495436, -0.39105379247591343, -0.7920237898697425, -0.9919382986092035, 0.48559462352507354, -1.0397033656673196, -0.07876907820616427, -0.3279114731008466, 0.8078599971069781, 0.3069276220749642, 0.5999732593296199], [-0.07203318340919052, 0.8922787494540473, 0.24953540910972774, -0.4088388040924782, 0.2893081501658389, -0.2037391478639886, -0.06369044029855891, 0.6633778468037923, -0.4212716756682334, 0.2563821773038366, -0.4469728226353852, -0.08963838858156697, 0.3361751298808885, -0.19246168024026988, -0.37811178763332964, -0.20619777572869208], [-0.35675057921540587, -0.003191093684005079, -0.8281131343289907, -0.6229799999533595, 0.30043473017663314, -0.6122504620060504, -0.11226388519992991, 0.04327228257909779, 1.4597352990090091, 0.2968458891215595, -0.05375889914750717, -0.13036673419235034, -0.20794110942227031, -0.2700545240971173, -0.6968549384398167, -0.3865534397081064], [0.5715978521740174, -0.27095439013828726, -0.269503132192885, 0.14816758320941334, -0.521877057525422, -0.13484119456933014, -0.7250670250130795, 0.24636312042183262, -0.12237229597287447, 0.19055872153198938, -0.4233442635313829, 0.5483622876515191, -0.3074878780690946, 0.5384275025843384, -0.052434620484357514, 0.5061603831134003], [-0.21388170910653007, 0.4220333001131645, -0.030797398443961677, -1.0907201761687337, -0.024913516089531323, -0.3524980727814476, -0.8205855132012826, 0.056805614413212066, 1.2041729266223966, 0.13695421584417541, -0.2876606031545315, -0.2958682505938738, 0.07761554549142224, 0.00488681036885924, 0.21299900974595307, -0.2625210129361586], [0.035009057931330925, -0.3561660463840852, -0.1777520949786507, 1.1776922570755177, 1.1901537596366487, 0.18980910142124197, 0.7810234961270255, -0.9774010288531605, -0.09152282680967909, 0.6815904521488942, 0.12029468507262009, 1.197741712501399, -0.44716915681470926, -0.2542634459148284, -0.41054580231564414, -0.695833833418275], [-0.55869699284366, -0.4932593186952743, -0.5263930360836079, -0.4660127354909204, -0.48982052363764983, 0.1295890549836587, 0.9367487353418277, -0.39367999345290394, 1.0240177007162792, -0.0820861809806423, 0.7261479409179454, 0.6390602919165518, 1.4940281655067207, -0.6040755922470411, -0.4817890726270676, -0.13667886884179206], [0.058186489598356594, 0.13338814135175386, -0.42355828595414946, 0.6859085035721839, 0.3616926893854264, -0.4460462808115433, -0.4486944549733688, 0.27308506712958186, 0.48507770801889377, -0.4803485818270782, 0.18557093996937946, -0.5786862349326902, -0.03249718960585485, -0.4490596182164597, 0.6585800986052721, 1.374997100301817], [0.3039474430881366, -0.9276455784204468, 0.11295208182042854, 0.19016707051180923, 0.21208402676659918, 0.0235770206475912, -0.060334300335859126, -0.1570350092676565, 1.1607676359491323, -0.3708506524284292, -0.569420385012882, -0.11554107555342227, -0.3641170194311316, -0.1579375154773205, 0.21057135214562375, -0.636128667548047], [0.16971924214015205, -0.3094713365371397, -0.27895705404769544, -0.3771732538436228, 0.5207749072296962, 0.31717508749234163, -0.16534275681847915, -0.09077495227392954, -0.18879222419323388, 0.3383263888606696, -0.4523955765604095, 1.2464722781604682, -0.8431509077187895, -0.2857921760054942, -0.21730650375111468, -0.19224541594517747], [-0.11660229793274032, 0.2896655290729751, 0.1272615303058104, -0.00401734217386962, 0.9570094253823609, 0.3620186416847956, 0.8645671233041178, -0.030551791287745128, -0.9755625857638883, -0.40969695614368845, -0.3602971140086405, 0.5495848374203764, -0.29524785820003435, 0.5266468528615087, -1.04035029496936, 0.33191015571793325], [0.20021205721760832, -0.8989092122040955, -0.267579361498804, 0.09997243228033648, -0.10823990524498253, 0.6723815953493725, 0.7756188566598249, -0.4227577198657364, 0.5173589814013843, 0.10318659580469325, 0.11417781028642748, 0.7105062359969492, 0.6046605475046991, -0.5783800960294194, 0.2622264835033403, -1.0383134387295327], [0.15365193773230112, -0.04566274737568196, -0.2225989039890784, -0.6365045680619718, -0.161309300982283, 0.11445237727286228, 0.9948795777041539, -0.28220867571622305, -1.6396742227063603, 0.35369192999229726, 0.027642177945443575, -0.0523161199651076, -0.49360860134376056, 0.37921188086458524, -0.19977946108087155, -1.272175147261304], [0.6035564677013955, -0.32130161433424825, -0.02667292511606409, 0.6687593008853024, -0.678292112101043, -0.25712955118089587, 0.11648686605601263, 0.7976713096334529, 0.385850336629709, 0.7724344503195695, 0.055369015227772767, -0.3769364688779752, -0.17761967183638025, -0.09437805836348133, -0.8541011192147353, 0.2878792482693082], [0.7727583238681114, 0.01802956156196417, -0.33210316374351356, 0.49355352172110756, 0.10999345425673301, -0.21706610348273894, 0.04729459786232755, 0.562412881390176, -0.48385723945568765, 0.6315718364056013, -0.11808025836853053, 2.02509539604726, 0.5578475603830328, 0.6849994216691319, -0.7521923961478874, 0.4848583624509387], [-0.2419891820361779, -0.5871777071777974, -0.12401073107824084, 0.02292697855255732, -0.6792410918954359, -0.010346149910914981, 0.26165915808019813, 0.5003685739582963, -1.2777394435298404, -0.43121523286157537, -0.9733904039904971, 0.05916846771201485, 0.8250043286630294, 0.0998932460326713, -0.2960183070011345, 0.2406825399646999], [-0.34125039958266257, -0.628856836187492, 0.814656978079461, 0.0047327067162539205, 0.049121601727569825, -0.14983419533201467, -0.02504926674586402, 0.16047205102675832, 0.7272128440124777, -0.19989334051045787, 1.1025076402227143, -0.6415412380233692, 0.07841918667313899, 0.16855922879115848, -0.11307747231858264, 0.43528916048809396], [0.10404653017675053, -0.3340590812793675, 0.11736991395105827, -0.9469203690504577, 0.2463729568784186, -1.378361462025773, 0.6293995316333135, -0.7003353623748647, -0.1263508135971479, -0.37188468863180757, 0.1947436885495054, 0.1940723340084218, -0.3758486144202401, -0.3614513631252957, 0.11432222529478464, -0.09007051752298553], [-0.43009668654991967, 0.9990918962969044, -0.8113889483656327, -0.6759723270964613, -0.17121493719717143, -0.9301273306394174, 0.430029703036629, -0.03848735292199229, -0.41952552108677693, -0.9278664109067988, -0.7903660076662136, 0.3638526493279086, 0.7505380054272739, 0.7072899120161962, -0.9962591291352894, 0.1228337491603314], [0.2349849979843388, 0.3481376650005097, -1.0544952421137517, -0.2742312378298905, -0.3983063521989527, -1.2102882419948124, -0.1460562910213145, -0.16375286383436438, 0.42301158807802663, -0.23692975334377506, -0.04515915662416353, -0.7098805014295001, -0.013999486568972597, 0.3927204967164116, 0.5514493299190961, 0.38756287233418846], [-1.4661591451859695, -0.8622109656790891, 0.4904277300118868, -0.8222487547459052, 0.0903089101210941, -1.0158165583122019, -0.007498936445753536, 0.16850923862032835, 0.3633596989900428, -0.4744584043250065, -0.4742306466406754, 0.46164094670156797, 0.4603857112804256, -0.13223265073779716, 0.3469634982535933, -0.2724179329703514]], "b2": [0.49747785481955836, 0.0451550952335828, -0.8510834943336909, -0.5477652388328762, 0.4154037279132783, -1.201498770902095, 0.09942139095796834, -0.31309825459989205, 0.25571122197513396, -0.8944806441328237, 0.8575664296660166, -0.8706344057327595, 0.8574857729789276, -0.21003614040414997, 0.5189006369386114, 0.05020019387066121], "fitness": 0.6806122448979591, "wins": 667, "games_played": 980}