{"network_id": 14, "w1": [[-0.7054811265452624, 0.48249464914902707, 0.10172226804180623, 0.6819788490242551, 0.32750181185752875, 0.8437221175628222, -1.4145012777123265, 0.6662267328633429, -0.2660238127061541, -1.1744837217780772, -0.1544245028665221, -0.07880766006411632, 0.6570215660827327, 0.9608013819606805, 0.586396387822422, -0.6908244389997946, -0.8077318873976086, 0.9282495734890913, 1.1624800085769869, -0.9242248490473729, 0.20631683444832027, 0.257048980611459, 0.9891245294388067, 0.17007686964898694, 0.20165177701210638, 0.7675563795283942, -0.8850399499923387, -1.1245099583464977, 0.571588732285243, 0.12234107994373242, -0.04431894923832183, -0.8862545875744644, 1.2190113062378765, -0.35684739702813817, 1.8070459624921718, -0.5356995679225337, 0.9956959270814004, 0.5236572221650149, -0.3176691545262574, -0.5725737244831215, 0.30897228878554006, -0.564702102528833, 0.47086706216323143, 0.4851047392636644, -1.4175504326373187, 0.12044887757493672, 0.02249699024324675, -2.1509072505703637, 0.276252965091376, 0.6517053364152627, -1.838390496903457, -0.9202622538079873, -0.25410402119559833, 0.004811079840857602, 1.1330865138092672, -0.34457211665435983, 1.241957639836369, -0.3379623185177726, -1.527325577440402, 0.029345685002759414, -0.5858949812698199, -1.3333196327827541, -0.2663609162705875, -0.10468139644066304], [-0.7389769126349466, -0.8255827697080232, -0.3411629477662911, 0.7181455728744841, 0.1392721198182165, -0.04021300669413341, -0.7204248554802658, 1.0645120932869576, -0.6919200716239035, 0.0701090949636411, 0.009455567221094155, -0.5600057981477159, -1.009708417878826, 0.5466860492697809, 0.6785580245578803, -1.6270640441087734, -1.0294751954065995, 0.2419433715870601, -0.962205036846016, 0.9208973022355025, -0.7429315935195651, 0.025569082860154635, -0.022109973160568952, -0.18596934204896137, -1.7984480289862297, 1.7096117624080973, -0.2312307015627461, 0.5475131640723472, -0.37488242732858634, -0.657408083231015, -0.7390990722295452, 1.1543605659772112, -0.33589626692440594, -0.2345766515558499, 3.422101711988911, 0.837636953039335, -0.2941339043234467, 1.0284288579749632, -0.33081022378900654, 0.6481869611868891, -1.4248541256071192, -0.013630935359924157, 0.6471908330115992, -1.1721923982716507, 0.1770319380513407, -0.7083432339226802, 0.47981266015526425, 1.458693000343105, -0.18158784430962993, -0.8006253038038782, 0.32162344590817527, 0.28242575343259124, -0.6038575047645811, -0.3767421428254003, -0.594480812108048, 0.8421202846595557, -0.8031572913815622, -1.5256943773402547, 1.0454227597201544, 0.21409589558889153, -0.07079370212846225, 0.6663954278354314, -0.047069454297528124, 1.5413165591353961], [1.3278557969723672, -1.2202375358395205, -0.28955408680055517, 0.6318490496778164, -0.6542467723251364, 0.12881179395378056, 0.5308281294891405, -0.29904330266567225, 0.5802544775728778, 0.5859275048323048, 1.1766936148734983, -0.4541233332732293, -0.2742023683930413, 1.4893887977563238, -0.5931518157173821, -0.6319488279642544, -0.21500681227131463, 1.0185135458434675, 0.8420516474392077, 1.39346751794845, -0.5729608984066717, -0.7278240077978926, -0.8935542066243418, -0.4368387185540311, -0.23538613210362844, -1.2230916294690926, 0.7670069176454777, 0.3221262098611988, -0.3119425514772431, 1.7885208985373635, 0.7205384370225953, 0.6834234642708545, -0.32353847310240114, -0.6327447198540709, 0.41022931454107736, -0.558951016495089, -0.871654126356521, -0.35368824372256513, -0.6940710453603547, 0.24405641735631195, 0.7420270763542288, 0.35111732421267977, 0.7286120324923304, 0.853939338144536, -0.3332370888442585, 1.515105762714922, 0.9307876459499915, 1.2154739589161467, 0.9959602421119952, -0.37750345040443034, -1.0973146835035688, -0.8036767954548145, 2.3729392763216954, 1.2457514057659886, -0.4187780142428992, -0.618853663044724, -0.7387984658912135, -0.8835377117186423, -0.5788475329490979, 0.14582394494911355, -0.903768095197497, 1.1437416064366248, -0.6372259624177281, -0.9965170409220874], [0.7914978854305976, 1.7337612079320135, -1.189516285739462, 1.0934609649148177, -0.9934629934260022, -0.5048646544234083, -1.2189700378239752, 1.3325623673709375, -1.0439803997044466, -1.8508354228620882, 0.5884668278589977, 0.8593568479353424, 1.6186207351606623, -0.5009943127006917, -0.3928837116749495, -2.2045322224618324, 0.10210447318952609, 0.03477212289849138, 0.22010292526965108, -0.8260298562568555, -0.5505238827755141, 1.6544688343256229, -0.22770769300013488, 2.489446473266458, -0.22729649967778948, -0.41392735808633724, 1.3468629777437329, 0.2616341756989512, 1.6918590209391549, -1.1204260265581287, -0.13611785304107307, 1.0857157247126303, 0.70412183981697, 0.11628072019001418, -1.1422336529606771, 0.6754890947136285, -0.5313760398849408, 0.9753248573032657, -1.7003925333158945, 0.07486134810142364, -0.7847269730886404, -0.6445454529818877, 0.30044772737518755, -0.5395920067433431, -0.6490255895563217, -1.2169002221009686, 0.7742828708024562, 0.087825576882994, -0.1672452100152499, -1.3317759789968875, -0.30371046284180053, -0.6484157290282807, -0.11348773890883279, -1.0608729517087971, 0.7118069799899377, -0.7724209079800939, -0.21371389999746215, 0.7034525421678283, -0.47785183818427857, 0.7129468917564332, 0.6695624091176774, -0.13369187680696065, -0.5529497742239919, 0.3159845271116468], [-0.08196299703836218, -0.4549315772674888, 0.3107129831022688, -1.542498290491087, -0.6492078200066969, 0.2609490718120793, 0.7632974167114902, -1.9905508985459948, -0.8043222973406254, -0.9036140616062037, -1.0273783456571406, -1.0691077130264757, -0.3582255065522866, -1.560725047384652, -1.1184172192761712, 1.1739516146070428, -1.0109739456814713, 0.9104604126760363, -0.7389041071187662, 0.7608190809187124, 0.9947771794115491, -0.009350381917687, 1.3197168400376094, 1.4659272558969583, -0.29221278458053007, 0.14376670912222206, 0.46636168018565827, 0.039190113875519225, 1.274660734206669, 0.6384503833238008, -0.14978022417184478, 0.3666683782767114, -1.5558718824007673, 0.15253134339676827, -0.4067461046890791, 0.561969396326454, 0.7108790444669008, 1.22967910060838, 1.07572541634088, 0.10073166721309473, 0.017218992918172707, 0.09246599887164975, 0.18532915180354645, -0.8868621948868242, 0.6309239701012133, 0.12491497757474729, 1.0166650713154515, 1.9882377525372392, 1.4304754657422303, 0.08321973732958951, 0.5712631373058915, -0.0621517676717323, 1.4399764575754808, 1.2996540446336, -1.351439321123649, -0.39964940135697324, 0.12885701113468592, -0.034756615809045543, 0.08180839012707593, -1.821530111138451, 1.4869977106185788, 1.315882813009582, 1.3324376890185854, 0.6122134892668709], [0.6280467591027116, 1.0586276819877645, 0.5325517285605944, 0.7255251808882553, -1.4593860048764293, -1.2347715631942742, -0.39555698337042067, 0.20817550674318075, -0.9553372294017128, 0.05666917053557197, -0.6704988982775161, -0.22571806255516136, 0.19728674118747397, -0.6266628910821406, 0.41733793296395016, -0.7314462051428813, 0.3345601854557332, -0.3110062439518223, -1.1673615166161835, -0.5668077696485501, 0.2998764599162743, -0.31833446479554395, 1.7965959098533717, -1.227384145223655, -0.048197252335583696, 0.24156516816918228, -1.9457864221467418, 2.1361577869777775, 1.025279615329841, 0.5140363012181628, 0.03473720234886837, 0.7605499521487412, -2.385830887354266, -0.9468959387376672, -1.335537810206868, 0.6434088121892203, -1.2697306700667652, 0.4685197329173928, -0.046308952126041664, -0.4524038353611568, 0.5865940347475027, -0.3324686942658944, -0.6154172528363129, 1.0686978824446611, 1.4944021643280008, 0.10675579836394414, -0.8605206157555869, 0.21929209956589127, -0.34718608195553746, 0.5479162237862519, -0.8499782271848072, -0.7852988938662765, 0.9498698328888693, 0.6437387935236848, 2.4665767479207474, -0.4678929753922389, 1.4236496697348997, -0.05399186776166645, -0.5240548891648973, 0.07399988866856388, 0.8676971998173391, 0.7751888517612806, 0.2716343999594445, 0.7546523881500902], [-0.6761450417437072, -0.6512760093589787, 0.32576011480608613, 0.8632492690996177, -0.5191169002291126, -1.726298212290744, 0.09017915299393661, 0.9494448656594738, -0.13172806831768663, -0.9476527053775461, -0.5561732701936111, -1.534938530227942, 0.5635767820637352, -1.8131448399935004, -0.5441086268508055, -0.2786372175858651, 0.6584936915231575, -1.2271703719450224, -0.8338369553733432, 0.200957790737249, 1.056760648539691, -0.604640144224255, -0.07409441146020662, 0.04671843394774125, -0.21948561487019463, -1.4647764925703255, -0.73277725709055, 1.4539807529612947, 1.4908738537635364, -0.40655668713326876, -1.081601819840139, -0.16177379989524657, 0.4574125274364904, -0.9914665831117764, -1.6235587668758318, -0.33114690053985996, -1.6119668597861774, -0.5052078300730006, -0.4348386891742507, -1.7221490235837598, -0.5548862573960804, 1.1312047149288564, 0.8467807351254509, 0.19190073639412464, 0.4024072945606717, -0.19856548840079433, -0.08715139968522032, 1.1790459439440184, -0.5137101251722521, -0.05610899861292984, -0.3830040075081068, 0.3612118000731099, 0.8554312025820958, -0.12868150303993536, -0.6508300554212333, -1.0662562810143685, 1.3001694699390869, -0.6297577129031388, 0.3265054229847559, -2.0411411834750606, -0.16296293411810497, 1.016245412186705, -1.1954032958544234, 0.6811971597713419], [-0.7168852210426623, 0.02539086451663597, -0.43697708061709134, -0.17576504201392915, 1.6791921861905026, 1.311124429932693, -0.28319704200903517, -0.05023103090616016, 0.1900889585222505, 0.006497553777995192, -0.3922976500147538, 2.480204665406819, -0.01689683601139108, -0.30827739552826927, -1.1642639615971762, -0.7331503962739127, -0.5857572479362634, -0.8901540814888186, 0.3929679332268581, -0.17407175944810074, 0.8634879903634406, -0.1624167512488976, -0.11158377864980595, 1.0658765752046433, -0.01841911453506548, 1.9792838974254254, -0.007301174885270004, -0.5401358099775158, -0.009573925498659638, 0.12105856861999775, 1.5319321807737905, -1.2491331056875405, -0.1199905156275165, 0.9578285378365328, 0.7035104299550863, -0.13389019557806747, -0.9617875832792152, 0.7416314981996686, 0.07687294433277277, 0.4391960372465483, -0.9402635130190523, -0.14655346568525318, 1.0445801204913183, -0.9202260875653322, -0.8481357052709261, 1.2553021859879967, 0.46900573881992796, -0.36880324702797995, 2.096601069027615, -1.7504203410960975, 0.8738631408628343, 0.14377609659865176, 1.005700946503428, 0.6814206218783379, -0.3286457113820167, 0.8810638270317145, -0.8495018418166499, -1.244596725660792, 1.5442310948638847, 1.737479764546329, -0.2997931400459305, -0.2054652481787145, -0.6499687075794274, 2.0162877433189776], [-0.7009575417304628, 0.6642152274866994, 0.25290019803153574, 0.41184744688063235, -0.6439945610667142, -1.5386215922496904, 0.2075655163805597, 1.0425421246670261, 0.4544062262430612, -0.4980603716825424, 0.6053173414796431, 0.32178341808837163, -0.8624458802958327, -0.3651027825466506, 1.158927502040156, 0.7361897299817339, 1.1706699568568486, -0.34508336062916123, 0.07018898896273751, 0.2796700752114409, -0.08958828268784946, -1.679341226443516, -0.14927120324006077, 0.1866153370513887, 0.011097694684083712, 0.549773325620997, 1.1915091582640496, 1.2558813193718765, -0.8047865937967966, -0.09131221687072463, 0.010930620417698794, 1.3192136543291364, 0.39018989075710475, 0.0349413489067566, 0.053437994488312546, 1.3337341053174012, -0.7666772474679785, -0.023835339436345526, 0.15024506612803334, -0.44677057876091564, 0.6147372996162003, 0.23057549669101468, 2.7489330836991557, -0.5772904274497817, 0.36419632148746, -0.2003512935587473, -0.47062306875389115, 1.240734829218771, 0.8555785567006364, 0.46670696160635927, 0.9951629741492555, 1.3390133789808598, 1.8193134134192097, 1.0782975319785253, 2.112684602371023, 0.8425257599471256, -0.4592527351027022, 0.5801110045948448, -0.8932963530353437, 1.299901386187499, -0.2639297592407287, 0.45720519912376434, 0.7860781862673489, -0.20408853845200753], [-0.6457099583731047, 0.4141820572713356, 0.34806014800450696, -0.1096322759671817, 0.2218751329852624, 0.4377558777443523, 0.786225432385776, 0.8430091264103151, 0.848395226757511, -0.2921701168356202, -0.8898786236951701, -0.5539380328978785, -1.647155030241431, 0.953360697203377, 0.48003469555466804, -1.904994378310176, 0.6632612995705893, -0.1044897474059801, -1.3842906712571665, -0.7957249656450363, 0.7508494339503504, 0.0343069382587589, 0.4663026709040592, -0.27160643439416027, -0.5607002739129319, 2.7553312997701545, 0.1407632694658852, -0.09357360109823121, -0.7327659815326762, 0.48950974106801015, -1.57416853906504, 0.5333375385562495, 0.1787040291425408, 0.19386369140574666, -0.4824610738885196, 1.4467442977878073, 0.30290179927576033, 0.17005366202266595, 0.4124247970041224, 1.341589411277871, 0.8129329524459403, 2.8779553194935104, -0.3890611367794675, 1.3092290057585356, -0.07014414362142571, -0.22277916749188206, -1.6755291293508172, -0.543239088858509, -0.12092365793505641, 0.826277227233719, 1.1649644622138977, -0.8936020941758042, 2.1872222296970874, -0.6242190779060637, -0.8233500671593474, -0.3040311689293199, -0.7188239114321358, 1.1591552101088871, -0.3960466035778595, -1.4177598236470816, -0.6478581381495793, -0.31190897250815164, -2.123077120473087, -0.9143089875823591], [0.060044682817925354, -0.10060187659047673, -0.31349098491412286, -0.11216808406068712, -0.1742243548167297, 0.05007301394236252, 0.3815561744237147, 2.1290657470778207, -1.396658992665121, 0.5936450325169271, 0.22877162840169007, 0.6338854710189195, -0.4531576373750239, -0.2736061985984656, -0.7667780197302854, -1.8060578884633947, -0.0029482489159378678, 1.1308449024297746, 1.6293129659949102, -1.4240433224129694, 1.121180307628505, -0.2237493083964482, -0.5473843117911268, 0.22194546076822397, 1.7114513471941106, 0.9740708003682954, 0.5065751402766941, 0.7332697729841617, 1.0256017499295913, 0.25562477165298136, 0.12392510300019038, -0.513927899023677, 0.6003125552516759, 0.17475439242555288, -1.9388737034260202, -0.25286539730498997, 0.4603651443289484, 1.3327617330150354, 0.3009613113556004, -1.6550725641097128, 0.41382362759755964, -1.1583890906936194, 1.7028237780588769, -1.0532106524443932, 1.2064720507998237, 1.5026722659134992, -1.0984152575415511, -0.3178601774356345, -0.4518116378354657, 0.46602603201747383, 0.08478891291131307, 1.1099974194549898, 0.5052276434596781, -0.1161769265088003, -0.32143037774801736, 0.23339988288765418, 0.4685116707134531, 0.876867152812097, -0.8881836151096603, -0.5309395686652246, 0.618971420274966, 1.2458227791853578, 0.1079884818256585, 0.5961277522525077]], "b1": [-0.6139814539837989, -0.6427615420177998, 0.2779094458984892, -0.01116249688853671, 0.3641268137582735, -1.3373123670493035, 1.8372254009460507, 1.0197636009757332, -0.2265648067595868, 0.0683078722216425, -0.24652420734475042, -0.5778968776862573, -0.2583224639989954, 0.2360618288347997, 0.27744262870968484, 0.8712653700421118, -0.010246155499730458, 0.6911336467541049, -0.7379182841387042, 0.1435278009151642, -0.9669523469065587, -0.37811674442939297, -0.5408151580165513, -1.258539005194935, -0.20166206047450771, -0.03964894826578619, 0.5549595212264578, 0.9032605052731733, 0.08804078185371342, -0.7983360159048196, 0.7547478141927407, 0.30284399160521835, 0.27844445628540476, 1.1973250541637572, -0.4742569121093179, -0.09130550823970457, -0.4905938481967508, -0.48038949262964425, -0.6842236307039299, 1.3262900631531345, -0.8689495518809717, 0.5120146753408592, 0.46040992864415065, -0.6962045201036108, -0.46246575188036243, 1.5111792292966566, -0.5614980695984814, 1.4014017635849512, 0.3178501812696265, 0.7098493957140557, -0.8742118234317111, -0.05697759759622403, 1.5798817570984058, -0.5001708224686506, 0.4611328796740862, 0.5391686259678808, 0.07869554930347242, -0.4733931663544815, -0.28264820586894446, 0.47433031892409677, 0.5728829489856111, -0.6064444532904157, 0.19518710430143027, 2.079970619641588], "w2": [[0.0735642066492242, 1.1282509739593127, -0.43383632169247155, 0.15283836289197023, 0.37867054977469156, -0.6355195936204916, 0.08248962266357335, 0.4745484927648649, 1.0884295593382034, -1.2882895830414514, 1.4286000052540138, -0.7606805535897072, -0.14245824626185344, -0.005433897221016226, -0.9251695925358273, -0.5986788620974488], [-1.214212945609923, 3.0360855230157107, 0.03882562775238774, 0.15475815340387444, -0.8333890132359619, -1.1332802144712162, 0.7828940011126634, 0.8741080777009853, 0.7813702942171327, 0.7813490870263426, -0.2858118755376479, -0.16323552108303652, -1.5152928404335675, 0.11726880069777115, -0.19991018759453233, -0.0037828232760508396], [-0.9679724054803454, 0.9186838970593828, 1.5132772169728619, -0.34018506042030866, 0.09655970209151449, -0.5451589658255227, -1.2654272238880995, 0.39336083189582416, 0.9587948343511461, 0.7125665599466795, 0.25937338957491696, -0.7536644557053934, 0.15159044030564217, -1.0790216048215366, -0.3435474866747047, -1.195005344633677], [0.07793804475145566, 0.2313957382666339, 1.704900115223155, -1.3738885959984326, -1.0692050730751788, -0.5021112578332243, 0.5268632050646468, 0.3028308930026681, 1.4247706941325802, 0.8443478980969711, -0.3592338900832958, 0.7870086328394381, 0.06759475974361406, -0.008305169945745816, -0.8970631972298555, -0.950025759552553], [-0.5899087598373024, 1.6276473163140923, 0.6133653970921327, -0.09698700601164145, -0.09169101370699034, 0.8154020622349569, -0.8341388143772371, -0.24996582258515188, 0.10613528128950761, 0.2666135043713091, 0.46428870109188014, 0.49034468765982775, -0.32450079592043746, 0.0970896894093965, -0.2828758016767831, 0.13125899537000385], [-0.12152144440901685, -0.3657300123073621, 0.2284705038265558, -0.720132629013527, -1.887204980670267, -0.38405016021676963, -1.0227490560874455, -1.2744034125960921, -0.8647316729755439, -0.03500597456216971, -0.9301614396312132, 0.5796977592221738, 0.3011377404686696, -0.2188827939782011, -0.6546776750308942, -1.4304682916652438], [-0.7752633890036571, -0.6479097054495334, 0.7839717116771943, 0.4044594829387362, 1.3831047214672574, -0.3328439560903923, 0.29940526449783345, -0.2611439710268607, 1.7440194371228577, -0.40102576701707915, 0.4404895109792235, 0.2494065079575594, 0.2684047209473295, -0.3550034182876332, -1.2125782123661897, 2.375865041592204], [0.509910911568758, -1.0936126747178334, -0.8496393880642135, -1.901813980344113, -0.6865413928997788, 0.9893682337431379, 0.9852574252029435, -0.49585181804645007, 0.38409380906841245, -0.7948446402474945, 0.5213381738506988, 1.5267738005947442, -0.6742035945154419, -0.4935661275475931, -0.4524935233235843, 0.7880159115257742], [1.5414561318594382, -0.5355630550820344, -0.7283282736281922, -0.025051095767857412, 0.9696329399858807, 0.4375783785492703, -1.2096255919566241, -0.7420020975605689, 0.0010063150117454768, 0.2595383216418661, 1.896022179084447, -1.3165868397228753, -0.4811016539414792, -0.8365388552840735, 0.041623546429316094, 0.6485760046178773], [-0.4579268247353817, 0.10020916093346358, 1.6330940808117358, -0.4565706469719313, 0.3964908113515009, 0.2557249871530489, 1.8036731207676582, 0.44465298850540047, -1.8456369962565007, -1.61317430746555, -0.2333454697319419, 1.1350869777793484, -0.6219734283167004, -1.316035433202527, 0.5946244393560335, 0.3643887928890821], [-0.527182218332177, 1.3686463406710856, -1.3428898738043389, -0.651410698443382, 0.7206229408945394, -1.6290654214978584, 0.27302166355760016, -1.0666771164774447, -0.9712367970500725, -0.7977671191284998, -0.7644323038060763, -0.9530030638241824, 0.4966780780522896, -0.7332868736737167, -0.33242553801312846, -0.4168919112252323], [-1.1484289246186354, 0.23694474143592126, 0.1800599457878066, -0.2818382594849995, -0.5772010815038399, -0.1297624332376002, -1.0070564270842841, -0.2185642835322768, -2.2514841727857076, -0.464645036417436, 0.21381272649537245, 1.5578608256016824, -0.5338474209446431, -0.3983816248292424, 0.2652052484598926, 0.8960625001702303], [-0.8077490441770562, -0.04109393928818812, -0.33952033207286286, 0.9337464421833155, 1.90781892403059, 0.757930892227416, -2.0143957122426555, -1.7345198930688446, 0.840923466392584, -0.15140782950997406, 0.05651114737025589, -0.9466660242758059, -0.4380272644256705, -2.0736413787776637, 0.5526898546741233, -0.656758614566401], [-1.7749708713141041, 0.5335045153474177, -0.7552256527710339, 0.6434514273274827, 0.5082290492219055, -0.7407621878499377, 0.4605940859873988, 0.24041734562741404, -0.1632502294738536, -0.11943348727746428, -0.15998684056521287, -0.11667433280546302, 0.321969621639934, 0.6054588631342768, 0.8096391240920716, 0.6520042982514807], [-0.1634613068292565, 2.4084801440858365, 0.48543721438794835, -0.5011481586981212, 0.05406187591062239, -0.5706690662990164, -0.21224163028735224, 1.2887995733627435, -0.190566255419424, 0.39467767215528315, 0.7917901322874864, -0.03878662380880418, -0.22661156187295922, -1.503676425377179, -0.803504688920065, 0.18987980210404745], [0.3475370731349745, 1.146929850009844, 0.47675024787438247, -0.7742813499742263, 0.3952091379563929, -0.3930353718328302, 0.5791334747303245, -0.1259384011550601, 1.2403743324274057, -0.83345187350379, 0.11601387178044137, 0.01008696427851316, 0.8005542578970141, 1.1019104698196185, 0.8307262934056094, -0.6482400043267509], [0.5373550276013017, -0.2800132819822535, -0.5828361622813212, 0.8473960285067146, -0.2139164952652607, 0.8164431491968478, 1.8397092045928691, -0.1885878416780199, 0.09253506128683057, -0.39200375715822416, 0.006353844812535092, -0.3838404239955925, 0.6196570556641645, -0.3064088246390133, -1.587847678759279, -0.28474889232604944], [-0.3278251751192053, -0.60603151287012, -0.057526884652770394, 1.9529572842858387, 0.24631808941208636, -0.05449609665665667, 1.4613947061590724, -0.2732685748329887, -0.9674568993029633, 2.552443794830932, 0.10856797929570017, 0.7929066959674642, 0.7050270550812313, -0.47352189762465025, 0.540597285257365, 1.616617637981708], [0.7203350062616819, -0.6149057540844362, 0.9134930020978755, -0.24118166784776596, 0.6792806677363135, 1.1740725130142093, -0.5398857127534404, 0.6122070952952806, -0.0485634849458932, 0.39979526266495424, 0.6749865256746674, 0.8498344787822196, 0.43604607146092156, 0.34828385393126504, -0.43772657679242816, 0.048576008947147475], [0.5696486753077197, -0.9970750946001851, 1.2654428548863978, -1.3746925461886321, -0.2823037731549108, 0.4707168349358891, -0.37749303498193837, 0.2937011476047871, 0.6732727756171027, 0.5616400720667627, -1.2258721201477254, 1.1068314731641338, 0.5608843689135414, -0.8477790741180664, 0.06254293806991651, 1.013492505149448], [-0.797286903858601, 0.5848370684949371, -0.33837818760468324, 0.5757239922673999, 1.5750595132056429, 0.05650963594817096, 0.39055078076502636, 0.9072784857293834, -1.2041928646505105, -0.0558221622281125, 0.8783267003060068, 0.40585245640724626, -0.5996946001992027, -0.9086886775144087, -1.0044535523009694, -1.0202978274819134], [-1.0811055913429233, 0.42829780110836857, -0.2518787081129362, -1.146442339862498, 1.0708499747707596, 0.9825283522893651, -0.8814065468480884, -1.0323616265253197, -1.3233435993344402, 0.3120589820636514, -1.6681378583741593, -0.24541289687101336, -0.6822829974468261, -0.220519731429042, 0.14563608267358918, 0.18917413640312042], [-0.10653944673589492, 0.000980634693985169, 0.17171956738413213, 0.24114748352401455, -0.9036529236760857, 0.707971291321931, 0.7240525644601086, -0.6497612773842945, 0.6461700705700395, -0.32732686475302236, -0.13735164559546814, 0.18785732258024002, -0.5783452752084648, 0.05317313157749862, -0.14063096635272432, 0.31592367795681364], [-0.47040743083252146, 0.01968440620850785, -0.12883050014710462, 0.4446549566425731, -1.3844427329862243, -1.2994848869742626, -0.706123944757985, 0.6291897063331932, -0.03931010321010961, -0.09844215808327725, 0.08456528943351746, -0.2287856985100128, -0.6442129880525788, -0.7622241046553371, -0.9761284747290275, 0.7424427949840933], [-0.6731798263037339, -0.24143155094869, -1.9566778134320466, 0.9055707400539272, -0.26913151131251906, -0.6591265790978468, 1.0805019144068353, 0.7890562323034742, 0.4907560183324952, -0.34336936932901696, 0.26400877988080174, 0.16823639505542348, 0.7134681155127804, -0.36892243428171845, -1.0393021847804422, 1.7218843386969336], [1.2761405471322993, 0.4571079133352546, 0.3714470477639927, 1.0622784015062017, -0.5043065578559996, -0.2457875296095218, 0.6876411981710758, 0.08083488132139877, -0.37198077622553366, 0.6397753659730689, -0.11715763015435332, -0.47626426423167756, -2.2964027107531564, 0.13059301378053564, -1.0929475077052262, 1.0098527033498248], [0.562451092088779, -0.04645722832282301, -0.9376156974021141, -0.2779743672671843, -1.4174918103192375, 2.0361101378890347, -0.7260228163086504, 0.44087986005477153, 0.21583144420259007, 0.10855226841269716, -0.02365546447244353, -0.2842807505708937, -0.22870493697622063, 0.6830090397152102, 1.6513439924084583, -0.39052447745425967], [0.3495800664640771, -0.6329741717225843, 0.1925474950350364, 0.4858259125318472, -0.5768304201103291, 0.24531707709949155, 0.5327353612260428, -0.9833299383156573, 0.35729686209386, 0.08858029486314029, -0.43467952773095986, -0.3026464333778717, -0.863620250545464, -0.5802453119710356, 0.024999668751867654, -0.4618368783182566], [-0.2408754419080645, -0.8250118173776337, -0.06167596596298947, 0.46637528984548005, -0.9802231420705858, -0.7712872538480643, -1.3154072782448827, -0.4611477189236417, -0.3177041909595709, -1.1412832060683429, -0.5322232315875858, 0.8097223808961594, 0.9791164840240573, -0.9776360573610041, -0.9047462015934509, 0.5139501225891092], [1.0271560497083967, 0.7595650887026033, 1.4646756726525918, -0.16894713049198173, -0.3955028159906489, 0.6057769225629116, 0.3169465088739329, -1.0474798506235652, -0.9129363108952275, -0.6890846616729474, 0.22953382348042164, 0.40847002951273204, -0.18454998818817153, -0.18948648603671958, -0.6916251206403113, 1.2761269716329044], [1.2674025078387494, 0.26686304407734784, -0.24455995052819673, 0.953821667996277, 0.9807024635284468, 2.014614121485204, -1.1054747152752105, -0.45232468515625457, -0.16321072076626364, 0.42554987898390795, -0.12650161989627162, -0.934424423827878, 0.9848349792697653, -0.5623091267140464, 0.49828664006560325, 0.8343119934722735], [0.2876215209337444, -1.9995464424925682, -0.4913316564473975, -0.29568576201279645, -0.2274398678767594, 0.5644310589294477, 1.4615594493249138, -0.14794644609526808, 0.9443825919517549, 0.8945448425741465, -1.1167889496846952, -0.7963490829664455, -1.4329126566618617, 0.44462998361619605, 0.1326571360524298, -1.1710819724739432], [1.7052655026636894, 0.17501944002162056, -0.9489087420148118, -0.808325017964163, 1.6055490691133927, -0.06581518621164673, 0.30090991916243515, 0.305663671064753, 0.6457248337859407, 0.59832985576906, 0.9911904638404379, 0.010516843634196915, -1.086350399837023, -0.3338707682900145, 0.934187852593309, -0.43603593171608135], [-0.9762177638824698, 0.1629109988137558, 1.1568324875739044, 0.18098423580226441, -0.5422781524769746, 0.2041341530853853, -0.6714324099391124, 1.7364637433313872, -0.9951884272424644, -0.6025398946337849, 1.1577784357689043, 0.8584870286929247, -0.6937710030449344, -0.6422795032118386, 0.34557933194424784, -0.825854942380553], [0.06835853982144235, -0.09717116968375956, 0.4122620179122421, 0.6688063026933581, 0.2522984962056657, 0.3852631520069416, 0.46004133978187534, 0.17814897526042486, -0.7911902216832013, -0.1292818113054502, -1.784779657766777, 0.422011241348919, -1.4696309491492086, 0.5129339575501339, 0.678240595748763, 0.8129917833790081], [-0.25302580443748773, -0.0845877086415443, 1.3238393591452005, -0.997840945190984, 0.5336183529701932, 0.2632821709032104, 0.027492691422576737, -1.2275736328061715, 0.24800879598544975, 0.2035860372175045, -1.0237249716865908, -0.1969892808037296, 0.5580031479581238, -0.011247527434341764, -0.4427016714939433, -0.9341201230033336], [-0.9298007417686873, -0.12138871339335638, -0.2861273325091188, 1.2744519033883153, -0.16631842343868897, 0.3046247488709922, -0.8920975474878718, 1.8862428429118834, 0.4185294832530074, -0.92049698858574, 0.3543116842784633, 0.4612403679529956, -0.8523242075993572, -0.8148756867687644, -1.6631885266769102, -0.4446315508366272], [0.27451996127081674, -0.7831594973661926, 1.3628781924057376, 0.5718759661500429, 0.4723785029781631, 0.32025124183433684, -0.987176475548588, -0.5627866503902548, 0.31422359567699276, -0.6499602530540317, -0.6564094763450409, -0.015471764522750453, -0.7416093006418332, 0.12959436220214093, 0.6973137435676908, 0.3163336239547021], [0.31252425419258145, -0.4867133762797554, -1.117856290902641, -0.4784213073815024, -0.6625432967335476, 0.5521348138559086, -0.0469426846045683, 1.8745028814837856, 1.7695797016646961, 0.2737814368546781, 0.12172815745363874, -0.8682059436635099, 0.41141130463860315, -0.06953225747455921, -0.2862422278993227, -0.17301924615440598], [1.5493545270171438, 0.08097523994038464, 0.46128016140522554, -0.39837525721653966, 0.6642383447836024, 0.27076116969175495, 1.0636222492764187, -0.10923804840662277, -1.1047418126491282, 0.37804456051598373, 0.46209377933195106, -1.617859513928115, -1.518527262897212, -0.8167370269495735, 0.20841614797458488, -0.049066140371828104], [-0.311802215589033, 0.5813629686329744, -0.44565183490628923, 0.3910587429679109, -0.6037454369258258, -0.02260982542728407, -0.48383875502565754, 0.7738097925546339, -1.9118189410962012, 1.5379908350498266, -0.1949836057083239, -0.5623613337344562, 0.1619797662973988, 0.2993149741263652, -0.3255841219304051, -0.21752910850505147], [0.1483355789145656, 0.7296876607764082, 0.4314472339958531, -0.027669500203013397, -1.2106390207688937, 1.5650801428780368, -0.5059593373542222, -0.2587405470780748, -0.8489553953530339, -1.063531676905564, 0.0954816481267966, 0.21557872703242842, -0.7060693397429393, -0.3216613415693281, -1.3109854672124606, 0.6707181542601433], [0.45488578996564555, -1.3400034535421663, 0.9350580980792875, -0.07284469427282389, 0.49270634868363705, 0.16986708927754612, -0.5755739618661729, -1.0808742633434565, 1.8408445385597276, -0.18242345046798886, -1.1645376143675348, 1.5083534865929558, 0.934587016431349, -0.6525553431580718, -1.13773498988636, -0.6035361664988963], [-0.8182840361761672, 0.5127950561216705, -0.5801148898598595, 0.5880506963736643, 0.3819864065990044, -0.36586750331642914, -0.32068059291586115, 0.5076825225162567, -0.3970436334583589, 0.9165037363628911, -0.9880209664854388, -0.8516987100631412, 0.5967140610393094, 1.0565259596145196, -0.8203254299064293, -0.6584900364478526], [0.22412931119178017, 2.3498827023291473, 0.8836415641416093, -0.6752730706094616, 1.2874409955922346, -0.09842598598357408, -0.80995370156554, 1.551742670000477, -0.4483357182270885, -0.17250506397496634, -0.04125095997537338, 0.17720320148306196, 0.4141332457799225, 0.15863910845126367, -0.5563795298021903, -0.57082226491622], [-0.0768645682505305, -0.4714231948125924, -2.1756966691697914, -0.7569154371367448, -1.236478308003087, -0.42127190269559067, 0.4499649681180765, 0.8130358107358143, 1.1675179548676469, 0.9848425861311448, -1.0068416864919951, -0.15076347576661914, -0.13730925755634757, -0.44879519719747674, -1.0249413320142284, -0.24577592287389247], [-0.9866782139950409, -0.4489523666544276, -0.07518505304724543, 1.2304947029346294, 1.210812747832552, -0.20606410026572197, -0.9261211453319256, -0.27993259218050504, -0.03051437580947565, 0.43025203093116027, -1.2678326775323163, 1.1833797406294924, 0.5375417470295863, 0.5798697837275408, -0.4178208729741624, 0.6478832013439333], [-1.2604009105905218, -0.4290240636943856, 0.47664949751319674, -1.0480533382583344, 1.570992065972431, -0.7597755661845579, -1.1549962243888952, -0.5191724848792869, 0.7553018168147876, -0.8996405878715866, 0.792916387186576, 0.2965835959781099, 0.1496710454814857, 1.4698624646277496, -0.6003571432998864, -1.734013298337434], [-0.28309806554167294, 1.0626970177144928, -0.5228060768334398, -0.4001959110664516, 1.9260670868451664, -0.7625430952145533, 0.6894154185302419, -1.3193802312725298, 0.6886611275032849, 0.8255421701160439, 0.11449761616012377, 0.722150226355586, 0.545362920428864, -0.46155963864800265, -0.009798515945643904, -0.28380802193232924], [0.33861439021503514, -0.9176505245337886, -0.4424118334882861, 0.14394900063804514, 0.3178658442538864, 1.2691093363364812, 1.1413826167368109, -1.5905332845937088, 0.4558868613610684, 0.1152562211847817, 0.004450747233058123, 0.5916851415866025, -0.5588412806167771, -0.5919685268575021, -0.4972635126185614, 0.2678510765002893], [-0.8525501035441054, 0.6123213831319274, -1.3506118025339096, 1.041727401328796, -0.7239837199544871, 0.2099736685444396, -2.727094559553362, -1.1075124250428392, 0.4192460546089869, -1.6310533441957145, 0.9379324290346389, 0.3176209894321907, 1.0881986889517359, -1.3432769056130258, 1.4787497446497342, 1.0441524493337175], [0.44165135759434954, -1.2479845779218657, 1.252412518452393, -0.061062337137944955, 0.21880017169164215, 0.1350945684523096, -0.3938795156641033, -1.9477905409496075, 0.16994514948724337, -0.2589774786344405, 0.08990617570707954, -0.021876262763116036, 0.9393438863738457, -0.6721011431802519, 0.7446999074983466, -0.6140062327724235], [-0.6392833689720852, -0.19596895883371487, 0.15082260398870262, 0.14020504377858528, 1.181117138251031, -0.21872779975531187, 0.3719253917457716, -0.11986755872683924, -0.969812621567735, -0.2721195654716162, 1.0725971229569733, 0.887819000305703, 0.7565855833039925, 0.6649330432827202, -1.500701116278969, -1.012942940114799], [1.0002201918178844, 0.1996242899425771, -0.7213670550184823, 1.5983591079140085, 0.32273463277231285, -0.6306839944915976, -0.15620855910491982, 0.4753307598796013, -0.024188835229439654, -0.4926628959751703, -1.1818593474881758, 0.8905190943396972, -0.49506642588285094, -0.06978441253683199, -0.6497967730688321, 0.2594401089749434], [0.28197841903425463, -0.1054003091420182, -0.7627838189553049, -0.7758443590288254, -0.041906373481223544, 0.42466168856149056, 1.2128406800002354, -0.8579700940880928, 1.185270972042967, 1.3031941308865518, -0.1376650923805905, 1.099313325003295, -0.5273589559869845, -1.4410675742714345, 0.34149396965934276, -0.34059841144034947], [-0.014286860966983034, -1.2858434663071407, -0.9171015738469614, -0.49763927187979307, 0.1835812221729967, 0.36719431016454845, 1.2034154758185687, 0.7686427630921167, -1.004167003354211, 0.5078966205980194, -0.9338855261871334, -0.45328559874931573, -0.0010850263412154337, -0.15895471669716646, -0.7801592444276473, -0.8604257999744449], [0.34442406051950114, 0.335384444800225, -0.5785894161853478, 1.5401095381096237, -0.8569215392362998, -0.04316099420324082, 0.9096796498411733, -0.6603657786013796, 0.8781710095875813, -0.13190494457135649, 1.0853956547867718, -0.2584531838402138, -0.5565667303230083, 1.167417341744758, 0.27246576453895277, 1.3401239387787114], [-0.5093416833117045, 0.20061555339833334, 2.092496998744268, 0.8498008231278595, -0.21012435468277296, -0.706780226483174, 0.9590885540757339, 0.33797080465377766, -0.23273561872159942, 1.06707895675142, -0.3254927388257767, 2.9674218677053212, 0.10594385656929892, -0.9382765603411821, 0.2754975011245184, 0.9000042194105689], [-0.18066552649655027, 0.6960282280795156, -0.5563616898630559, 0.2677658482794167, 0.19108799602042226, 1.7961905798444655, 0.5875474090565991, -0.568415940053899, -0.6283135362620457, -0.8443155047890866, -1.1463441465443127, -0.7931334141521659, 1.3866348568244249, 0.0328703449733968, 0.41328899004552466, 0.9083040642080801], [-1.2152304009273274, 0.17492585832551072, 0.9978408782145917, -0.384198593032806, -0.6826481814296802, -0.009635844442625358, 0.8805235503931865, 0.47243329525141253, 0.44752361935537055, -1.2511282037959248, 0.7835341479300757, -0.7549695060555413, -0.23792884927840763, 0.3170948210418889, 0.3109105351189808, -0.23662965907535466], [0.8180477458042681, -0.14251482247771896, 0.3839863386540933, -0.5262567252012957, 1.0740223623613843, 0.47179072252618287, 0.09238531373251, -0.5513444148180577, -0.3043288390104338, -1.7827874927858995, -1.048871593686899, 0.05919892680331665, -0.5366244841903581, -0.13608507689305124, 0.03600060791276888, -0.9050471508121912], [-0.011025793427865083, 0.5752310751337149, -1.1786966528103475, -1.1757182438632414, -0.8579101477877717, -0.24737828491602948, 1.0651713874406936, -1.495023244528551, 0.6298628965178275, 0.19259239337856537, -0.19365751280850707, 0.7492897693072593, 0.16414099553084358, 1.1691519220107034, -1.3736052587677323, 1.1775338041135213], [-0.06731931005672175, 1.2170284116047543, -2.293236583360255, 0.7375042401629915, 0.10291345640818439, -0.29247745276750575, 0.33747343805411273, -0.546206977160896, 0.12313653822400589, -0.25231881428485997, 1.064371893602902, -0.7620890237958844, 0.014945282748744015, 0.425094904215587, -0.2853742531914878, -0.5389917035592021], [-0.9902775146284014, -0.1615940652165061, 1.0055704097807643, -1.9656725714360512, -0.11197045835422753, -0.5009154687124271, 0.7543011940375001, 0.23401978865276488, 0.3261327597067219, 0.33261345888131805, 0.8158616338519004, 1.327484935631188, 0.503143811160977, 0.7291607280890562, -0.33682938510210464, -0.5391255298853987]], "b2": [1.3626027709784605, 0.5877559042925071, -0.5925233227888536, -0.5031446167909086, -0.16323157252600498, -1.583551409897013, 0.10316994850522154, -0.09304404139643399, 0.2860637419167531, 0.2361867427529436, -0.41606079900392273, -0.9911983670373943, 0.9970829537542333, -0.0820599400074809, 0.6945192323024627, 1.0177220102612154], "fitness": 0.6224489795918368, "wins": 610, "games_played": 980}