{"network_id": 22, "w1": [[-0.6021166892644559, 0.383607263900904, 0.7691919791923727, 0.771028583109425, 1.213339566156563, 0.10291119193615769, -0.3541738923832846, 1.0087532159154171, -0.10843520742792791, -1.0223158822038065, -0.04988969904445986, -0.3284498886098956, 0.37049306893217293, 1.1589808458034905, 0.20219820071803504, 0.41491186128352275, 0.11677790673659535, 0.02757528377303635, -0.7732168726723876, -0.4439913064146948, 0.5272158561362786, -0.2032375389408579, 0.9405034702726898, -0.4230915949435271, 0.15029834583469365, 0.3523707454665823, -0.6808056255801751, 0.093203531964412, -0.7603680403162126, -0.5926194967810676, -0.9492279391152875, -0.8700844999354239, 1.0150314299077285, 0.23281788278045465, 1.0320661587801707, -0.6578087646915816, 0.7623227133443153, 0.15417707425578794, 0.10182550068940618, -1.0123269785323572, 0.5863346383506952, -0.9348461369882296, -0.05096218284817064, -0.5382292083515182, -0.737936327703296, 0.4724641875887736, -1.0843491567125976, 0.2221563656028638, 0.04162686018146766, 0.8676053459357592, -0.7361055567482446, 1.2895035729465754, -0.44170483620549517, 0.6141487089228098, 1.691453274411407, -0.8026594053140603, 0.6310172639797857, -0.0765886562223006, -1.0411031335408913, -0.2419235177913952, -0.4226691482647479, 0.0037539713983978373, 0.23540090351924703, -0.13012565389329397], [-0.7000410078790285, -0.2797433192337689, 1.4690165395319352, 1.1910275158209978, -0.13567949635669552, 0.5784735625728459, -0.3334145313564752, 0.5090415183817026, -0.025380449326323967, -0.45811899110128584, 0.027853843492702784, -0.36714014441635323, -0.7777328306948479, 0.3749096306412144, 0.4689719102653428, -1.9563262160028025, -0.8532335095962711, -0.2745103944731796, -0.3305093192328238, 0.5917441582047652, -0.03008821370958814, 0.24881519160814647, 0.6989361579641685, -0.9518738527592432, -0.9736591652514229, 1.406549125802439, -0.8430105586914844, -0.3981125814243693, -0.46488846438887543, -1.302578791287186, -0.11504152755722187, 1.3226824106105568, 0.15190254543748782, -0.09042249667497088, 1.1954548756771153, 0.3556191791590266, -0.7082851367226473, 1.194749619525838, -0.10266103448694308, 1.285182664467883, -0.6212664563345922, -1.2731188703569274, 0.7687064177447757, -0.3590706902094827, -0.1600354943942727, 0.07861505459027371, 0.23870283267636572, 1.6964536510299193, 0.24289918962107276, -0.003993608156650952, 0.50184245566336, 0.17034451141131907, -0.3611497865180012, 0.2831580436806632, 0.7074497295194462, 0.7993509577937037, -1.2416657121610395, -0.3161065006765567, 0.5011826568213523, -0.5606832045235022, 1.1847119239840207, -0.664235876616439, -1.1622130966870237, 0.9370212049376673], [0.3202335618892995, -1.3153404358452132, -0.9292245576518738, -0.2035314260134224, -1.0583464000971297, 0.9037549919187894, -0.20000154491507735, 0.20022410530657397, -0.115511000000704, 0.43203685697099664, 0.6180321901170348, -0.31672417399063557, -0.14705148900649795, 1.7427855014254856, 0.18920211086174213, -0.6050357344063798, -0.8057843306385736, 0.5156290205496686, 0.3282867802712433, 1.2691047365401826, 0.2923326602456356, 0.25595368335410146, 0.27414196729035606, 0.3348811285217085, -0.6377904284157367, 0.5745949374039458, 0.4341881853165077, -0.1316257945660177, -0.009650943431669057, 0.9431658044886797, 0.5433002042489433, -0.4135211157682395, -1.217610450388904, -1.1585484194645574, 1.1709670162722485, -0.1966090638491519, -0.4301247035799896, 0.9350852595086137, -0.9695110110242995, -0.5360272164583088, 0.9262151933391979, -0.4329405055638438, 0.038197305146768445, 0.9317586837833293, -1.0497448714235444, 0.7104037389978151, 0.4022401985827121, 0.5184746975148176, 0.15015069174464662, 0.5025516394083046, 0.04578840279419623, 0.1316963114681792, 0.4558104632077231, 0.5926042716113855, -0.4863312144827361, 0.015318855366465628, -0.2567817163072895, 0.08400770178000472, -0.12732892220880226, 0.44512073907081207, -1.1960759218494645, 0.2187432935953665, -0.06880037544876588, -0.8474886113769786], [0.8913670853399246, 0.9490349729661969, 1.102657685913147, 0.6892976697322521, -0.2595749418222381, -0.5368021628073787, -1.741450800235104, 0.023374815272568836, -0.8818557908804872, -1.628326239190587, 0.9758889150941712, 0.5446822496192807, 0.7846405259608719, 0.09491292442059673, -0.29751206527532853, -1.6577852154703128, 0.8366697258937753, 0.39479107063944535, -0.3558237977662504, -0.29678557229125563, -0.8535109356139207, 0.7228910553568464, -0.14057280581057977, 1.9316029966529988, 0.4568967311973411, 0.1204506980277768, 0.19145261701208305, 0.4286642410981756, 0.9289183680740374, -0.022856877036477985, -0.16800522225860065, 0.9652652021664965, -0.07679696157457078, -0.028644986311956527, -1.3441899373365342, -0.21855513122153042, -0.5232902846591656, -0.10922907877957307, -0.06258905905086035, 0.1413650237264735, 0.4019324001096879, -0.5150521649659446, 0.40106094734165904, -1.23187360990713, -0.23820042174656286, -1.131370359921064, 1.2828464382301448, -0.5941609492755002, -0.24759298421274203, -0.5975686282934882, -0.7923168759703441, -0.258548159591355, 1.3006331092087366, -1.6477554948828828, 0.17002871125267885, -0.7655329807506666, -0.49572046210461945, -0.5357216453861006, 0.9182597860426398, 0.714222321541264, -0.021942575126344732, -0.8166692746278216, -0.23815588588575115, -1.2001127692316655], [-0.4021889601062695, -0.5933379145881645, 0.3810606453297238, -0.24887397941054756, 0.01799090035201159, 0.09887270326199987, 0.5561604583544543, -0.8339572964402562, -1.6338817421000074, -0.813311971328362, -0.6859521234596164, -0.20849583532703853, -0.21716657238064024, -0.2424651353259154, -1.424029298328597, -0.4098809221134171, -0.7562418880883967, 0.5372226975744804, -0.42913584545955896, 0.006677821174482124, -0.09237688060597571, -0.04345089315703546, -0.12384341452787417, -0.10431480804279158, -0.16181540164773678, 0.3328786554835608, -0.6667933381814037, 0.26489277009409584, 1.4539694147605413, -0.04836967118853959, 0.28273497763577216, 0.31412101668425246, -0.8375212656727825, -0.43989889455019543, -0.6452925564399601, -0.15378213068482238, 0.7227114473529348, 0.2496795081343729, 0.5563412737886316, -0.12803106007329712, -0.5893810551628191, -0.5943136048740426, 0.6947124543520692, -1.2846422246391471, 1.0806445038906445, -0.7126201770712557, -0.3302570444971942, 1.5620854996294333, 1.5868331139837257, -0.02724848860811091, 0.7328402500853337, 0.5654245474835067, -0.05709013347741432, 1.1081258075867404, -0.30573493046099415, -0.18990373998585763, -0.8053771373846064, 0.10427425816017319, 0.2537241845315528, 0.595662439689361, 2.0962450975363858, 0.3396011954391349, 0.7831969407358856, 0.6083860856116117], [0.8175035803530557, 1.4654605757793582, -0.6254572328483141, -0.10883100001582087, -0.2802339129334639, -0.9975957338046811, -0.6508026573118524, 0.1828323868381258, 0.2580120908628772, -0.47962462706709497, 0.19746692525722434, 0.08244336700930432, 0.5371141239581787, 0.5265360722786392, 0.6051292809258504, -0.4940677055561701, 0.8757396665986835, -1.0748324064820631, -1.962140875066436, -0.08872028613041097, 0.2864454332026935, 0.45425043161065476, 0.6840871435706171, -0.07015673081765006, 0.12491685055314744, 0.4430934747430374, -1.7899964228951624, 0.67214666541137, -0.37074842181477136, 0.12858642957141542, 0.5675926633609203, 1.1095600632142437, -0.96891078179941, -1.118347006900682, 0.09197028386213729, -0.3271150997475653, 0.04641879569623323, -0.05869318277059521, 1.3313275487803782, -0.9991706873442113, 0.17320827435762093, 0.28906088127362567, 0.1388312978549224, 0.7295466176825911, -0.39698634576897307, 1.072660370406592, -0.17432097941377864, -0.050437234432981815, 0.6787992060420422, 0.8762552347806225, 0.6591295818907648, 0.16390721885971815, 0.4130983254143755, 0.6472395613937169, 1.1276416167701686, -0.46672124619896876, 1.172145313423123, 0.11084662743716467, 0.10789381850084817, 1.1938156005677945, -0.006329503441384388, 0.7133462700000204, 0.2930770675685027, 1.2938418031104448], [-0.5755305053848833, -0.30580976029320084, 0.17784193796372558, -0.1051524998054576, -0.1284405786989481, -1.194905727129874, -0.6442784904980234, 0.052380579209767464, -0.4501351241991619, -0.4038576159990556, 0.29834102309655053, -1.203033572443797, 0.19995946580154134, -1.2059227430437616, -0.9255096824740557, -0.609553223866835, 0.8902228627395455, -0.49866936536634343, -0.9029290572533718, 1.5208757055384772, 0.05943887063694189, 0.5035882943742027, -0.08938440537397141, -0.47474211157359386, 1.3419820211890408, -0.9379165995665328, -0.5482157514055569, 0.3756598591106116, 1.079188369812101, -0.7837784439336482, -0.036411248394393345, 0.30046427907725887, 0.6844975875989189, -0.48916267330162827, -0.09368838968842513, -0.005001901705851908, -0.17046418836543462, -0.06398306056443562, -0.789396095641068, -1.1529081944968274, -0.24893844022418124, -0.2921587181529887, -0.2834100893279164, -0.23398137761261723, 0.7665237880462498, -0.5592528871576848, -0.5788539941375338, 1.2640674001672976, -0.03958673509367033, -0.7086663211755039, -0.9268083739109023, 0.09000679537848572, 0.6490661961844677, 0.7839891830777123, -0.4059576546278679, 0.6442395669945445, 0.6766298110530091, -0.47033539143346126, 0.779252698862351, -0.749652681512534, 0.25256940080083823, 0.38276611705125047, -0.7615070484221163, 1.1724378943732616], [-0.702320193974243, 1.132622014577893, -0.4898659588650057, 0.40881262813417013, 1.9536779544006992, 0.994427380852832, 0.2537967811020592, 0.7275177099057089, 0.7187817950451121, -1.2839405560677395, -0.5583736645509072, 2.121000664364118, 0.6952349853955095, -0.47718690781985573, -0.12989895344612135, 0.6736867985480794, -0.6721899243322408, -0.08035224806528021, 0.4408082462349558, -0.09188082520021146, 0.33859624741619304, -0.46243447416060846, -0.7478552732494661, 0.06684769179396359, 0.2704957049787078, -0.12541305428084432, -0.17771192358279805, -0.6184629404177266, 0.5093035168440547, 0.4498719554532999, 1.4284808289965258, -0.7338441038351009, -0.3031497927812534, 0.2625093080232188, 0.9358845674017596, 0.09197590790948734, -0.5777268099083153, -0.4067659365343103, 0.425645408248289, 0.4708185634157678, -0.6321486877986034, 0.3046658094809044, 0.6855371168487603, -0.25951991818018905, 0.33106500593790517, 0.41125051786370415, -0.06503671187087195, -0.09436233797762156, 1.6093858287632066, -1.3249199328759858, 0.9889351694988023, -0.5907785435282997, 0.8917545460098819, 0.7461889193831782, -2.2175704344917415, -0.5978779194442022, 0.10732546691025763, -0.6450523446907876, 0.17113889946728048, 0.2590231923397172, -0.3670033206948344, -0.26344318673200146, -0.14414479833851174, 1.1605580254242318], [-0.8775968857326985, -0.4892720079087717, -0.5078904825243407, 0.6528714011487929, 0.2504537816206486, -1.3567630660623282, 0.5980563601725202, -0.42162502724875167, 1.7254969274752219, -1.6081266373434588, 0.286115512967343, -0.1697446812229045, 0.4235080254693201, -0.16772750765871902, 1.0698242013925539, 0.5631279211230942, 0.09746323527532585, -1.5778543931573543, 0.1947695891946924, 0.7478308593058496, 0.04879691554351728, -0.6962977531936485, -0.726348378272728, -0.6572950199729644, -0.2543015070110457, -0.06399974167335676, 0.5444693436626165, 0.48071784106473775, 0.0858822193304084, 0.3214321928264334, 0.34384583944376584, 0.9095455406826952, 0.3786578374960619, 1.0915827776226577, 0.5042281312891879, 0.9935438937976898, -0.988716178986996, -0.08660063265353213, -0.92585949678609, 0.5802190151012532, 1.1610897137947445, -0.17923712150249646, 0.27749352878595773, -0.35174402384114184, 0.3602507079071089, -0.16042912885423508, -0.5190917814919817, 0.7405567815712967, -0.07761634867388922, 0.213962039571765, 0.5526752783855687, 0.08340389947698107, 1.7940240100218579, -0.8316501348226992, 1.3320162634260888, 0.6047335259023942, -0.47260827635777836, 0.3468946505033036, -1.5949507082531236, 1.151982376248772, 0.460662441453411, -0.49304082864172255, 1.2087262027532162, -0.02652307836897385], [-1.5172626134586074, -0.3600283874877752, 0.7889752572956696, -0.4750564894693946, 0.006657430216700705, 0.020251137142336922, 0.6422622198219999, 0.7963496887177217, 0.26864112388421135, -0.7616944094615978, -0.7697973973254992, 0.22468637262667956, -1.2096346296095604, 0.03840538499355706, 0.9455081198840727, -1.4714333079641113, 0.5153107049355927, 0.5233886301972246, -0.5025692351214217, -0.6553045215236825, 0.8150739254821244, 0.20332873614346886, -0.03684716668136889, -0.19139377205008987, -0.5691357110540531, 0.21092335762440884, 0.410092452003843, 0.24930922227234864, -0.6131649165371811, 0.14836208312925123, -1.094596254444116, 0.041725777413689547, 0.1787040291425408, 1.0050575786071143, -1.5458478225962633, -1.3183881809786349, -0.8748611977948839, -0.062032573522403905, 0.41311532949211544, 1.6337524092393, -0.10525630284308296, -0.26641228295788516, -0.08433235793831922, 1.1001504609230512, -0.11626091740496819, 0.15244394532878594, -0.11988054764562556, -0.20014018267416278, 0.21628519863520113, -0.1368411381009928, 0.24207875101359522, 0.35993164764581104, 0.5269647256521462, 0.13729306129620533, -0.13170647022014145, -0.14442235165284562, -0.6522935594168656, 0.9324360578511359, 0.4746987445833859, -0.7176368150356447, 0.17205637048868017, 0.528881041687142, -0.6419545001781244, 0.21445377169910584], [0.031417662414195954, -1.1759982441328733, -0.2993515004102326, 0.18285624329942968, -0.18722967484937683, 0.17318877041497802, -0.41886636937806776, 2.822140400913603, -0.7279557681952686, 1.0910759707578317, -0.34552716638858083, 0.24856405076153182, -0.43682249552336444, 0.03721819297459372, -0.5515755392240629, -0.9336623972718869, 0.8234486055098806, 1.3633650859895057, -0.148144690444451, 0.32672303928562146, 0.8036985110395517, 0.5794340881921067, 0.4449148131854769, -0.06917148013269858, 1.3822839192296055, 1.1216383240750472, 0.22359693265057523, 0.9312529948268242, 1.0913651643675921, -0.6052108056261531, 0.3230670984546984, 0.18873618897353825, 0.04200480887291161, -1.072366156645547, -1.1086218125870615, -0.5752959005848644, 0.903824084478551, 0.303077641795352, -0.8952359895215157, -0.8502198973742662, 1.1372326004280422, -0.5978403217794588, 0.20667574101917918, -0.1533074997348594, 0.44163351757595615, 0.9172175458663718, 0.14152169398641395, 0.7738411651338695, 0.21929506655268227, 0.9587840414882994, -0.7470834291361251, 0.06173561210208757, 0.4048948817045521, 0.9444028491250958, 0.8876902699961424, 0.02696729385427879, 0.5221107284992703, 0.28131959632625114, -0.9692380697707995, 0.419223743193083, 0.675691019570013, 1.0961455356887033, 0.12119680352702462, -0.4335570597949978]], "b1": [-0.20437622539414368, -0.08409705719655025, 0.3283366106019787, 0.6954999179979434, 0.28942771767937553, -0.5669195239128778, 0.03833790056994855, -0.43531577905543106, -0.30770167003168614, 0.7878825393498442, -1.1387607889515337, -0.5786199677540802, 0.07642704232031809, 0.5085421206037132, 1.6128874551034549, 0.09628688712860972, 0.1443668358581751, 0.19503836607092467, -0.0446401369888734, 0.4620132852283898, 0.7661915190030937, -0.5552283098563714, 0.26792900943369014, -0.48103343581348496, -0.4429736469390636, -0.3131701734667491, -0.8440380755689803, 0.4662674228911433, -0.30824734903855777, -0.5024028852284572, 0.21902482735888262, -0.18491000362982135, -0.08503356331303766, 0.4045369757846988, -0.4733151226215386, -0.8291549068093775, -0.7492500149938107, -0.687647172981089, 0.01096508297738065, -0.17220261227023645, -0.13347314380511277, 0.313683985723333, 0.39152948494887746, -0.164572427921872, 0.0, -0.007351562676545714, -0.5467156243908519, 1.0654869272058338, 1.6167391005415, 0.7355218069136029, 0.025790443824860704, -0.9174358487526202, 0.4532692906911944, -0.8434869289503015, 0.9845258816507554, 0.08430928649163794, -0.08907542174912249, -0.5551451043792323, -0.08871414624518917, 0.2531786566713353, 0.30543726466923354, 0.7338957303135036, 0.844651514660018, 0.9261832802354839], "w2": [[0.34588414508232856, 0.21889792507028066, -0.12136682865706785, 0.7034251459718907, 0.8950306522237257, -1.1883862250659354, -0.43928331622471006, 0.43654615111494305, 0.9119213253291529, -0.8664821959634758, 0.014880025302015154, 0.4564264678879416, 0.5577401051909782, -0.49645647896240164, -0.7186349861347786, -0.05681662719855582], [-0.3069409959064149, 1.0712899490461816, 0.20541086317261203, 0.6002372900482075, -0.7092485450251387, -0.3987253612223639, 0.4692713898909377, -0.1486984908754412, -1.0201419231504423, -0.04092902760949585, 0.16634763213249096, 1.0349091793579663, -0.693950743885127, 0.6297244658440568, 0.35081030074097286, 0.45329402871110913], [-0.7200573990660767, -0.2621794626080233, 0.7955481775425872, -0.2341717418060192, -0.9381999633060578, 0.21237198799672968, -0.1698558664176985, -0.2522670223508479, 0.9573422172164219, 0.07864370687751554, -0.20706930743505927, -0.21759066131046356, 0.26625101548513064, -1.1386001232630467, -0.3443199478658406, -0.7306600107330687], [-0.06475174922007325, 0.17276762637158322, 0.737837843494969, -0.062352114379482765, -0.526798726769569, 0.7264873489199848, 0.418273399919875, 0.976503305699475, 0.8797901353830206, 0.9050466803278088, -0.09582863671499542, 1.071127089455702, 1.18132852216869, -0.818492274367526, -0.8788999993561444, -1.146545042966622], [0.059704994423188204, 0.8328303120112708, 0.606139512882195, 0.7236591376130934, 0.6722769195682543, 0.16600859950635188, 0.091702154352365, -0.29092567337909053, 0.14384748442737086, 1.4486689655066383, -0.514657959824669, 0.23255957873554609, -0.35194688047469486, -0.6816177371771543, 0.5470277614366478, 0.7801250209332714], [-0.6059796913735171, 0.25983025470707893, -0.37944923383375023, -0.5847046718754256, -0.4079755328027408, 0.2634426655697421, -0.5185539545101727, -0.37542525647062974, -0.6337197050730606, -0.30922262312230975, 0.14827728744359922, 0.5784933012669728, 0.033454112380753756, -0.26812791097345023, -0.7725365718761938, -0.742464872641714], [1.0482460061632404, -0.02705843502613897, 0.9113682004039172, 0.8420508197918036, 0.7485782362860477, 0.1855100341481568, -0.10289727440477314, 0.9671025298497135, 0.21803396225669797, -0.10877563889149126, 0.46568357288103734, 0.21769539165487922, -0.5137832339522986, -0.5676499937395744, -0.7606302353992831, 0.7210888751638624], [0.509910911568758, -1.4291500388383018, -0.20405322867177778, -0.8653040535828096, -0.8593525255300849, 0.443122800897116, -0.037011169029825874, -0.31216226710793005, 0.009599439763910957, -0.16889225060841528, 0.2877769025085317, 1.030936035090906, -1.133712894283442, 0.011055060351202906, 0.3061613324556448, 0.8452216561285721], [0.6827955505306068, -1.0113397573059182, 1.0743005675597537, -0.5977346031669852, 0.886414757968965, 0.6507812693316845, -0.16749518720185008, -0.6896454511603195, 0.5753792772297347, -0.4013530899741832, 0.191336289150461, 0.12992173564106607, -0.12163431585589224, 0.284635726413141, -0.34281068055594593, 1.1439117195834676], [-0.4743733343351163, -0.622088999528302, 1.2279177187768502, -0.32997636620126936, -0.08410835865698203, -0.2713245666435715, 0.374149448459794, 0.1013444405453301, -0.22527941899043577, -1.3755314504974008, -0.19180464552087617, -0.41302717732217165, -0.9281518311263892, 0.12513110690789442, 0.8082165615697603, -0.4326102259060548], [0.6305861368058312, -0.04297074240421146, -0.9367681066252898, -0.5827027642021417, 0.7256022031108789, -1.2185200475881788, 0.5019186686476528, -0.36845361152506306, -1.4790756446047257, -1.1927203755172222, -0.5640524878775997, -0.22218099156204013, 0.03533546207668131, -0.6725490391710766, 0.024629273744203095, -0.9628985393884433], [-0.9309343919744463, -0.690053805431938, -0.5424982320953242, 0.012118157655838444, -0.3918877397962488, 0.2220106210713393, -0.11329622401113892, 0.09365397956649535, -1.6555343868979835, 0.7757975300553488, 0.08332766300572889, 0.22404156805928968, 0.2752405941605586, 0.1588175628629237, -0.18450755506020988, 0.2048323477003909], [-0.5099291527142659, 0.24330657287730661, -0.06689385778500317, -0.18780761580366, 1.2120429821427354, 0.29777205966349474, -0.2088116638054056, -0.972906838091284, 0.7427269312848215, -0.42198324655923075, 0.2479116716228008, -0.5314479109806995, -0.7849598005818033, -0.9622520696403836, 0.5454505047261452, 0.08752788264318574], [-1.4326589780886356, -1.0470690003964727, 0.11006827359128392, 0.68388678511323, 0.46594810870982084, -0.562834025607985, 0.6962678185127567, 0.37073789288380155, -0.30604712893476094, 0.7521743726436767, 0.2791318840986743, 0.5049764684286336, 0.35193376573317126, -0.07852388483263348, 0.7136050547486004, -0.19975783880048842], [0.10935250127945717, 0.4980440901219007, 0.39737980670801654, -0.18869850595586796, -0.40701413789144075, 0.17565532439645826, -0.0591244303610943, 0.6024120668651735, -0.004577401831451111, -0.4841705269147113, 0.08265618934384591, -0.19019302591032528, -0.46529818380664767, -0.11336040370016198, 0.2702158011136858, 0.22938107711249486], [1.0902300194926033, -0.6456651167545849, -0.3799567115712255, -0.5636595030456806, 1.0136886979807476, -0.004915011199509253, -0.5553037994147644, 0.08976581272962755, 0.4979725156016755, -1.126448570581974, -0.5451406135691108, 0.06433032791250481, -0.03859171252930686, 0.06412491888558164, 0.5253160616725132, -0.4384262318052548], [0.5841952042494408, -0.6509801764062962, -0.09940016915443944, 0.008079284784295648, 0.010208014265011112, 0.6959746551509352, 0.4802302633272738, -0.6429123271366769, 0.15187432448916616, -0.24061975100145147, 0.43441042158562704, 0.10476051056572742, -0.24981964388774855, 0.3045718399920322, 0.35158610776837146, -0.9264589123123027], [0.408817573950429, -0.4817155509944586, -0.8262020051352297, -0.6912868594204942, 0.15085851538581938, 0.1544632290872722, 1.0119017331077849, 0.052019096911745666, -0.7590658274650307, -0.22062495454094352, 0.4561029091681368, 0.32737112784073796, 1.223747536871113, -0.9862975868468604, 0.22914406389453312, 0.9029093859918071], [0.7662554721104378, -0.5830447196189981, -0.5815649439471358, -0.13366849244968065, -0.8893067181108023, -0.27383858319458915, 0.4640616713796971, 0.17873099010517057, -0.29364568371385363, -0.3084479095132199, 0.00818928130600094, -0.4621424124138886, 0.7072976942478406, -0.12787972331788328, 0.05770345348011949, 0.7319597631004725], [-0.7925746041800089, -0.43420006902331043, 0.576335903077403, -0.16708125893071052, 0.24651520906250265, 0.1622029341242842, 0.027132538282457416, 0.2892482912898844, 0.8613847368858378, 0.23693823661683772, -0.5116128021205611, 0.3236308502243723, 1.4066525429139012, -0.3859159570131945, 0.16340106689621445, 0.7373237630617036], [-0.7975642350804961, 0.3802849350918133, -0.540034467522942, -0.053751803298413496, 0.8372376413130211, -0.3203503597153624, -0.10432150572779325, 0.4728296986633521, 0.05375140305334675, 0.7047588051997654, 0.3970370279827635, 2.1496683967015624, -0.4826117100378646, 0.3602295839783778, -0.058140440734571586, -1.0503848946247554], [-1.447662514502925, 0.423103063729979, 0.05181927602887615, -0.3187833432483298, 0.3073376791794703, -0.49598819234529373, -0.7603735541701071, -0.24641010559675414, -0.3184279094712231, 1.3679528403612955, -0.3102885462171215, 0.20430283020151482, -0.6603739598246232, -0.13743388476955656, -0.48786316525654594, -0.3146841036989608], [0.33334079827346125, -0.08909214229512757, 0.88554150328001, 0.9603553058017222, -0.033670574207758874, 1.1826180306546026, 0.1582825939086262, -0.2855481142795997, 0.23870442979813042, -0.6612225751669792, -1.0168374806064293, 0.07630970947071053, -0.4577230944377957, 0.07242572546395412, 0.12361955785727945, 0.6419153692746479], [-0.023318379667791822, 0.23074401988580032, 0.9985148181029395, 0.1944753706155335, 0.25161271268168867, -0.5456206097424219, -0.4959257766896885, 1.0339560705739486, -0.03931010321010961, -0.376599973345257, 0.2098589041606938, -1.373523163260425, 0.3078558005920809, -0.3557367947488265, -0.5719632952813545, -1.027283766863169], [-0.007832258990446206, 0.20598181689304307, -0.3375616944883707, 0.6305053145518065, -0.08715100120836283, -0.25089397525014123, -0.14506470919538572, -0.3977056411350821, 0.07830989683971422, -0.08454551121316443, -0.6086421170175091, -0.13461661836042027, 0.4401888914647394, 0.7634981426666154, 0.9361202541413481, 1.2557423604206435], [0.24663597050910957, 0.46042858055773217, 0.9149278355087618, 0.5027906095887693, 0.0772234564552445, 0.1967185170389053, -0.08540411177855312, 0.2961141949985931, -0.41395137568423546, 0.718237563107421, 0.07606867229854197, -0.8065553443814861, 0.673692339365817, -0.345195640850371, -0.7664909663464665, 0.49556285792920207], [-0.38892972946695104, -0.13910908273985356, -1.2212817504587827, -0.7886225690688162, -0.17189275490028474, -0.2747372539554246, 0.2233080513937203, -0.11866117413060598, 0.4331929072348132, 0.8931562109052155, -0.030589703013599312, 1.055332142887278, -0.24111115662856317, 0.924635172116762, 0.0969149374953209, 0.5898565795390247], [0.41241864370850606, -0.0951555121778923, 0.43307212268334144, 0.5454545146912211, -0.5274285941285164, 0.826397211587869, -0.2618564045648718, -0.47997318599398975, 0.17064883500181224, -0.29693488005874064, 0.34263330409756815, -1.2449064116762785, -0.2376733522270105, 0.09999751218734623, -0.025468096396516315, -0.3392350665906165], [-1.1077454666335171, -1.6030466972875972, -0.28295453398732273, 0.5469966859795197, -0.805069216895667, -0.6446307566663422, -0.2140632237066277, 0.23839400258882382, -0.3891446806740768, -0.07847594040006103, -0.2631605403066355, -0.008123036157046015, -0.15754426226721074, -0.6770485147348613, 0.032740779241049345, -0.2551188065078508], [-0.5364712089563027, 0.16994018871612931, 0.8629865679948263, -0.5817647130135529, 0.36657143516497814, -0.8901305355482706, 0.06323962298854946, -1.345303300338037, -0.3455997531148931, -0.05716071590145459, 0.3020509355021412, 0.6497471399689285, -0.9643332447415025, -0.5131941216899363, 0.03832194223009133, -0.24392502308536684], [0.09168133718659724, 0.03223325281036779, -0.3247911541968898, 0.24958720953306934, 0.6818663851003802, 0.3399591521681776, 0.752349337224199, -0.49218970322974454, -0.13248591007221666, 0.564467155986732, -0.06211494456282929, -0.23276664528816687, -0.3902222869292514, -0.941091381554601, 0.9732508428159515, -0.25919253901770717], [-1.1750569361656236, 0.9165733920406548, -0.4761322808772799, -0.224581660146826, 0.7535004965133346, 0.011389180487942005, 0.010818025662695185, 0.8907938051567055, 0.2667684574605564, 0.8522197330137175, -0.2582893487240396, -0.7896351670283064, -0.36832958376473324, 0.9039095497501459, 0.4282504642610892, 0.5838560093058253], [-0.007629109488113794, 0.3875267193377487, -0.16438335356168166, -0.8628352898811151, 0.5778402002100044, 0.4212597861546366, -0.21555296851251637, 0.347002314143202, -0.4489090543146603, 0.48830807910757584, 0.8700154881603545, -0.016140253820857948, -0.7348632268068146, 0.15990561140658394, 0.19722857391472653, 0.12855655371986552], [-0.38702705522170544, 0.00350275992778944, 0.5956531677236071, 0.7337622211481438, -0.29772396803430534, 0.28567515903320334, -0.6047088696888977, 1.3211361631598173, -0.3320875458096179, -0.6325589291451892, 0.36811496562783713, -0.19229961613527458, -0.8192714289319927, -0.47849190070056336, 0.40777071263426845, 0.11559496420223139], [-0.07234252848101339, 0.6513483289013701, 0.05447757716619554, 0.5772554269682744, -1.3535225000013344, 0.8681445220434256, 0.24429574243555313, -0.6983663428543396, -0.09358881707055841, 0.7299288831708681, -1.5440260486784338, 0.4310312232318436, -0.07685422290451704, 0.5512004611046488, 0.3144330483728602, 0.024887487803880337], [-0.37055546465178163, -0.15690328932011516, -0.418599418418368, -0.2145207263059795, 0.03940341178681078, -1.0865229700728556, 0.09072810639544558, -1.0092440654173542, 0.7894486431681244, 0.1976920479247193, -0.9342806690811366, 0.40011892693607054, 0.39019110402996265, -0.2235384691508695, -0.76880676289455, 0.09722135661196019], [0.3178439650216171, 0.7865495166241021, 0.8320226988235038, 1.010081486074714, 0.14503743030535438, -0.2317428495758142, 0.31458609695931394, -0.31657089506426495, 0.7312719947115085, 0.6217738766288221, 0.4049201437522085, -0.26842740259337805, 0.055023034700591986, -0.4382161703669251, -0.9712100645559056, 0.15216120081645804], [-0.6175424069285718, -0.4137504560308872, 0.6975320573177092, -0.6627263217129069, 0.37762629412746124, -0.3291750707041075, 1.0344873768872018, 0.38287671173093013, 0.5248170361665644, 0.16818445847862368, -0.22307872738218593, 0.17820795002253995, 0.24311958325498217, -0.3408065823764066, 0.21717120508984927, -0.1906809918494603], [0.37493405149947656, 0.259206605410798, -0.7100818517417087, -0.1818384032609928, -1.1935121465956384, -0.4647153100078365, 0.0549983716152706, 0.8555684200922802, 0.2929115028091386, -1.3531925015759432, 0.23331637771503888, 0.26262426865433636, -1.2666640587363978, 0.276989440234965, -0.0671043103312946, 0.22993067124534722], [0.7253582950412039, 0.21262837827833883, -0.22569228833072813, 0.10652693359390643, -0.3032791045814895, 0.3545095533833858, 0.22577669445201534, -0.08969960319099751, -0.28118929194173997, 0.2283306361406117, -0.6353425658005525, -1.3529511909950138, -0.030358140363947246, -0.17217833584636488, 0.32114626704959753, 0.281630629380126], [-0.172590616359293, 0.6659830789370695, -1.0754589187382173, 0.1566603398832117, 0.1269431658582591, 1.092876285180926, -0.009189853703944706, -0.2680482209761229, -0.6105555115094997, -0.3999878270288941, -0.2002810440804112, -0.10314650713006186, -0.4340729783520557, -0.48877692543925455, -0.5484440584767107, -0.7728775994967114], [-0.03485940214572408, 0.01033896770297682, -0.40458097325976017, 0.7405208867800297, -0.8772840396980331, 0.047936075478770296, 0.32813921663018863, -0.03647618019335708, -0.9556445610916647, -0.6822215447533628, 0.3682694621919196, 0.2939433746278707, -0.6189734592909217, -0.24507529705641423, -1.8901935102937228, 0.4522665630581081], [0.32839426906149877, -0.4792524834000566, 0.22666869845507018, 0.9503190495203555, -0.08085867514802322, -0.2788344517664123, 0.4575714864234269, -0.49528577411728225, 1.0474369660430278, 0.054939049760435336, -0.6828750278909015, 0.9781488386133973, 0.4961920131119758, -0.20819340695526772, -0.2783226576141658, -1.0259697540669486], [0.40378273753607846, 0.07222836859706525, -0.39984978443067276, 0.5708335767623242, 0.6791317922503203, 0.09383013171495436, -0.39105379247591343, -0.7920237898697425, -0.943261693579823, 0.48559462352507354, -1.2077128691784782, 0.1050820732195038, -0.054273555819393506, 0.8078599971069781, 0.40349647898551727, 0.5999732593296199], [-0.07203318340919052, 0.8922787494540473, 0.24953540910972774, -0.02305386719846314, -0.09465855626477371, -0.2037391478639886, -0.1686919888160222, 0.6633778468037923, -0.517919056404017, 0.28592839539820936, -0.4469728226353852, -0.08963838858156697, 0.3361751298808885, -0.19246168024026988, -0.23043171027094878, -0.26190663430723876], [-0.35675057921540587, -0.003191093684005079, -0.8281131343289907, -0.6229799999533595, 0.37265528804551595, -0.5557406790892785, -0.11226388519992991, 0.04327228257909779, 1.5296475984044575, 0.2968458891215595, -0.04753983446336316, -0.19838069400099173, -0.3278299527775153, -0.2700545240971173, -0.6869385977454157, -0.3865534397081064], [0.5715978521740174, -0.4435879031134849, -0.09927499881708293, 0.14816758320941334, -0.521877057525422, -0.06328109899735034, -0.7250670250130795, 0.24636312042183262, -0.12237229597287447, 0.25572446034873497, -0.4233442635313829, 0.5483622876515191, -0.20845294927566518, 0.784053818697001, -0.0455419394880509, 0.5061603831134003], [-0.21388170910653007, 0.4220333001131645, -0.7338783284132829, -1.0907201761687337, 0.25819029347290445, -0.7107280399547007, -0.8205855132012826, -0.024852398623983446, 1.355705314742046, 0.759374714815331, -0.08606651026464276, 0.028482714496825323, 0.04122621669670666, 0.00488681036885924, 0.21299900974595307, -0.2625210129361586], [0.6191656782187367, -0.11403702362960233, -0.1109482226730586, 1.1776922570755177, 1.0669628276345342, 0.4223393147178846, 0.7810234961270255, -0.9574706128478648, -0.4822762300968563, 0.6815904521488942, -0.39572332668847454, 1.7790951201830791, -0.9844583046713045, -0.2542634459148284, -0.41054580231564414, -0.695833833418275], [-0.55869699284366, -0.4932593186952743, -0.5263930360836079, -0.4660127354909204, -0.48982052363764983, -0.0503054016142955, 0.5234160266098451, -0.39367999345290394, 1.0240177007162792, -0.0820861809806423, 0.7261479409179454, 0.6390602919165518, 1.4940281655067207, -0.6040755922470411, -0.4817890726270676, -0.13667886884179206], [0.058186489598356594, 0.13338814135175386, -0.42355828595414946, 0.9702082001271007, 0.2849024515658021, -0.4460462808115433, -0.4486944549733688, 0.27308506712958186, 0.35490702936938145, -0.4803485818270782, 0.18557093996937946, -0.4091120190290769, -0.03249718960585485, -0.4490596182164597, 0.6585800986052721, 1.374997100301817], [0.3039474430881366, -0.9276455784204468, 0.11295208182042854, 0.313638663992006, 0.21208402676659918, -0.23804682022328483, -0.060334300335859126, -0.1570350092676565, 1.1607676359491323, -0.3708506524284292, -0.569420385012882, -0.11554107555342227, -1.0511623965770882, -0.1579375154773205, 0.21057135214562375, -0.37394076785776004], [0.3721890919004509, -0.3094713365371397, -0.32312766481844013, 0.1780573430685642, 0.09156390040819318, -0.13440486978544613, -0.16534275681847915, -0.09077495227392954, -0.18879222419323388, 0.3383263888606696, -0.4523955765604095, 1.2464722781604682, -0.70962136429281, 0.13215146731422, -0.05667506081991519, -0.19224541594517747], [0.27717862270079763, 0.10777989673797767, -0.2582523659868052, -0.00401734217386962, 1.225533777342206, 0.41552034226107565, 1.099720835535783, -0.030551791287745128, -0.9325486779892829, 0.47325093413269864, -0.3602971140086405, 0.5495848374203764, -0.29524785820003435, 0.5266468528615087, -1.04035029496936, 0.33191015571793325], [0.40162533607214457, -0.5837695141356906, -0.6209299396210758, -0.15810571705524312, -0.10823990524498253, 0.6723815953493725, 0.7756188566598249, -0.49322682338817897, 0.48653456351406993, 0.10318659580469325, 0.2597247335653611, 0.7105062359969492, 0.8831321847339958, -0.5783800960294194, 0.2622264835033403, -1.1866408482757247], [-0.6458946943264645, -0.04566274737568196, 0.1712305655357942, -0.6365045680619718, 0.015753129027340607, 0.11445237727286228, 0.9948795777041539, -0.38770571797526976, -1.6396742227063603, 0.35369192999229726, -0.27481579670440404, -0.0523161199651076, -0.49360860134376056, 0.18051009657654798, -0.19977946108087155, -1.272175147261304], [0.3847483608468161, -0.6127060261501689, -0.02667292511606409, 0.5183565942206938, -0.678292112101043, -0.3466073699556857, 0.11648686605601263, 0.3081635415306421, 0.4726494350342521, 1.046229340627386, 0.055369015227772767, -0.32325150343291453, -0.17761967183638025, -0.09437805836348133, -0.8541011192147353, -0.2493902349568181], [1.3569806470221546, 0.1351924114570221, -0.20197248324685607, 0.49355352172110756, 0.23274781218049478, -0.21893939800869858, 0.04729459786232755, 0.562412881390176, -0.38613430723377357, 0.3111949295738982, -0.11808025836853053, 2.02509539604726, 0.5578475603830328, 0.8720511710592064, -0.7521923961478874, 0.4848583624509387], [-0.2419891820361779, -0.5871777071777974, -0.2518338317391927, 0.06282254963933911, -0.9785245906512733, 0.009804518382960412, 0.38632288819734034, 0.6535780363438599, -1.2777394435298404, -0.43121523286157537, -0.9733904039904971, 0.05916846771201485, 0.8250043286630294, 0.44335133409552263, -0.2960183070011345, 0.2406825399646999], [-0.34125039958266257, -0.628856836187492, 0.8996252850647314, -0.34297559706272823, 0.049121601727569825, -0.7064570433290073, -0.02504926674586402, 0.16047205102675832, 0.7272128440124777, -0.19989334051045787, 1.1025076402227143, -0.6415412380233692, 0.07841918667313899, 0.24833562059241593, -0.11307747231858264, 0.5829410306723593], [0.10404653017675053, -0.3340590812793675, 0.11736991395105827, -0.9469203690504577, 0.4862450743659771, -1.497225211091267, 1.0447397724221814, -1.142833511179489, -0.12388303163041295, -0.37188468863180757, 1.0079842228832123, 0.1940723340084218, -0.3758486144202401, -1.0893962010220277, 0.0771615193547643, -0.09007051752298553], [-0.43009668654991967, 1.1250733988802415, -0.8113889483656327, -0.4663856227678315, -0.17121493719717143, -1.3754952868048822, 0.30543455990691437, 0.19813208261060014, -0.6180213985033771, -1.3902778893143706, -0.8922738040107625, 0.36010785911552545, 0.7505380054272739, 0.7014753128144526, -1.6017549602373093, 0.1228337491603314], [0.2349849979843388, 0.0765640624344196, -1.0544952421137517, -0.34741319246002744, -0.3983063521989527, -1.280240533814115, -0.006322398187178779, 0.2590897534968522, 0.610668037805877, -0.23692975334377506, -0.04515915662416353, -0.7098805014295001, -0.013999486568972597, 0.3927204967164116, 0.5514493299190961, 0.38756287233418846], [-1.4661591451859695, -0.8622109656790891, 0.6269249164364745, -1.0032328560352308, 0.44534483446858053, -1.0158165583122019, -0.007498936445753536, 0.16850923862032835, 0.3633596989900428, -0.55343798374983, -0.2071295187265103, 0.46164094670156797, 0.5538693016147943, -0.13223265073779716, 0.3469634982535933, -0.2724179329703514]], "b2": [0.49747785481955836, -0.07754212546400804, -0.6623690407246298, -0.2336013896536434, 0.7464771850226011, -1.201498770902095, -0.025788233408511052, -1.1621987478728126, 0.5711091538392052, -0.8944806441328237, 0.8575664296660166, -0.6612143829512259, 0.8435222403850006, -0.21003614040414997, 0.5189006369386114, 0.1132550917071114], "fitness": 0.6265306122448979, "wins": 614, "games_played": 980}