{"network_id": 39, "w1": [[-0.5676339122122047, 0.5495612901600223, 0.7533922028095841, 0.0246126852390543, 0.8656814673420631, 0.08687014263310243, 0.626179227199778, 1.1962196334718502, -0.20721045508282462, -1.0223158822038065, 0.1078241062079684, -0.30129753563726946, 0.3123576246848371, 1.2675717000942461, 0.20219820071803504, -0.25565620174202275, 0.7927759664317615, -0.03943935739692239, -0.7315903496337332, -0.4439913064146948, 0.16944906123664696, -0.11793869826426757, 0.46858232266295646, -0.04541161171798571, -0.033432555307751924, -0.29380636569175556, -0.2326004262416426, 0.093203531964412, 0.22439218592711818, -0.12977352905052808, -1.5589712903639434, -0.214398434286879, -0.06503829281347444, 0.23281788278045465, 0.8182135436085312, -0.012498549968623068, 1.108117147113888, -0.386774114542979, 0.17824260541439635, -1.2532423237316537, -0.4808259445228612, -0.5223834378441837, -0.2027784674582895, -0.5254961888934147, -0.40135960942903615, 0.9207209334229186, -0.5896070228538453, 0.251591024664765, 0.3110307165942079, 0.720510126937175, -0.1292405575985135, 0.7524225370762193, -0.7159753367085485, -0.11218431818915586, 0.9629022662414255, -1.0814775931483565, 0.1704254370325281, 0.15945247753650613, -0.9306330338126297, -0.2541723687241346, -0.753429553941342, -0.01096986157067091, -0.2857794261121216, 0.17175247138261213], [-0.6880851353826181, 0.8128257161711747, 1.3476602341552735, 1.1440628976720628, -0.18934936085233112, 0.01670900508676454, -0.15416041296899213, -0.16372584980367721, -0.03528201288907232, -0.09837405846685192, 0.00937577993691796, -0.44370020886239486, -0.3271607822885503, 0.18763864441197764, -0.03995276873704989, -0.6236808609692543, -0.4258429512841755, -0.4596846995318578, -0.2718835722451043, 0.23398729062092155, 0.5438631411123687, -0.6056557259231617, 0.9579400951073743, -0.8527022623519064, -0.5181996070160508, 0.6345127942195228, -0.7154814550253891, -0.18667627284562927, -0.5537451233361503, -0.010000508927441282, -0.23174548739935097, 1.3226824106105568, 0.6027845916733594, -0.5213365836093182, 1.455918780846955, 0.08898229251754955, -0.7325773129235226, 1.1608783160054579, -0.3070773959348198, 1.3523752609175996, -0.1607874294567549, -0.5924713886213357, 0.09760696000452271, -0.08731472863250295, 0.029355234687348852, 0.043455983138319526, 0.015474852507673276, 1.8254176347014135, 0.33326794429062934, 0.16585180393628524, -0.029940349845272524, 0.17034451141131907, -0.5990034168564847, -0.007703124206792589, 0.8300047731812628, 0.4803782320609322, -1.144757660239498, -0.3161065006765567, 0.5914359736637175, -0.06505900978868326, 0.6944021871883284, -0.7141998717145099, -0.760816736158638, 0.30193914579987435], [0.32232036333257263, -1.819163033455614, -1.100122564932578, 0.01708567983785747, -1.248583701696354, 0.5585421050735497, -0.35272693491620205, 0.06713529760860876, 0.3571630264988277, 0.018314628157318658, 0.610081012092512, -0.9757402580676773, 0.03577154114329367, 1.2059816006016657, -0.07535338527969243, -0.43328577660037887, -0.8879631510435244, 0.7768218131695971, -0.06546488555624008, 0.6413700447983652, -0.32824774523041567, 0.42735764855599245, 0.6113763741304976, 0.49211460439071164, -0.6315892999465603, -0.05173027988006685, 0.639083780187333, -0.255520779843088, 0.6805923663232047, 1.1893402901717764, 0.09942172008845801, -0.782042962793773, -1.1303393468291199, -0.8567053850654027, 0.40011229553137084, -0.7572639721836985, -0.4502991866365719, 0.5289148635518673, -0.6373559175598015, -0.3517311748894043, 0.5637201745190831, 0.06255948774997441, 0.4868713240427719, 0.6253846065009419, -0.8131974124372217, 1.0640510408855068, 0.5081875676307962, 0.9763415163923554, -0.35567316322301684, 0.052803235953572045, 0.35799854412181986, -0.08943284833108722, 0.8136563441562987, 0.8391003699469968, -0.2771723262086853, 0.24070882713353223, -0.31618244880211854, 0.2502353338668492, 0.18833161533049506, -0.40367774027270953, -0.7235114832514822, 0.18379468455147005, 0.4143748746813154, -0.23851886531747102], [0.5880334857115479, 0.4378284192706763, 0.9194111762382388, 0.8244312115253516, -0.29487319992077676, -1.058876205086301, -1.0469509788723808, 0.44522244576400116, -0.40288972151325486, -0.6887988286490849, 0.4596033670609281, 1.3792782338547434, 0.6847898992398076, -0.057736668361772436, -0.2309805476457776, -1.5128106842412914, 0.8257459845140042, 0.322201113163733, -0.5548841401716964, 0.04253870877471866, -0.036556254903223034, -0.011853640463774351, 0.2600850289571207, 0.5106411838922548, -0.20045437803734256, 0.1204506980277768, 1.1530023631728898, -0.3229695911067658, 0.935852055809319, 0.570118152461638, -0.17896004771418128, 0.5161117183703726, -0.4191949601557708, 0.2562870738019087, -1.6463146913373081, -0.10697407364527878, 0.21519504177192894, 0.018351837179690758, -0.19572417456646368, 0.2357154129680175, 0.050689507031131995, -0.5365439847745505, -0.0563623037513329, 0.2877791362861744, -0.4893468221766778, -0.19886740150530904, 0.5423233955900971, -0.39882055645074643, -0.3872191887792388, -1.0125577056241102, -0.4634978359511127, -0.4008730379934583, 1.3877524821684721, -1.1528031258997915, 0.07019512661747035, -0.5786296441390659, -0.6063133614617763, -0.12083554842171114, 0.6191804542277826, 0.2221620580548326, 0.5423260960106983, -1.0580333978826446, -0.08321957574983765, -0.5931240494169727], [-0.07127138058058041, -0.7871692163341801, -0.33210073185289896, 0.4039392529586358, -0.015857987479928302, 0.9328493606059676, 0.5561604583544543, -1.0943584011181593, -0.7618945808223039, -0.97766308053196, 0.33045102179823077, -0.5364719445490678, -0.05920522203843792, 0.4021634303112256, -0.9149626608676611, 0.592489627397939, -1.167282225404225, 0.7610904464006158, -0.30790668476143784, -0.6728477011314544, 0.07946510083708408, -0.04345089315703546, -0.05453256497816714, 0.17078836329927466, -0.16181540164773678, 0.3400604228431457, -0.06575932525911216, 0.2500011528366164, 1.2378950340037609, -0.23161383114494605, 0.6584317270041873, -0.11646566318405505, -1.262549785659314, -0.17125947083332893, -0.22092371181608114, -0.34699068260990884, 0.7872614137173128, 0.21813845201358942, 0.7683886318519928, 0.2705985267146868, -0.35907954787977314, 0.18740585064857015, 0.25663346348154914, -0.49165874588280967, 0.6570606901637494, -0.29876933915687287, -0.13351722520321585, 0.6597698066106124, 1.690636643713449, 0.37206423980189307, 0.2785440143478032, 0.832595378074672, -0.15358535679728472, 1.1332848127538777, 0.07320132464570052, -0.4484577294456843, -0.5139372459548404, 0.215456741156924, 0.13273242036399338, -0.06377854913430855, 1.5297622846195182, 0.3612730331526782, 0.733625012681067, -0.0998022022698636], [0.7807025924670803, 0.1194573320683393, -0.04114132942156981, -0.13710853217072982, -0.46259448864741004, -1.6548153889856545, -0.11861673335120707, 0.1828323868381258, -0.5765663535840287, -0.6471860404136955, -0.04444725310479142, -0.6490640198690092, 0.5456732531007505, -0.006577610095005293, 0.28349529447639965, -1.0580359711209626, 0.8757396665986835, -0.7550483133264856, -1.0973130801936257, 0.8318627614522965, -0.4063504960754828, -0.032625515978394304, 0.8429640697498942, -0.7056129079071093, -0.32766234155935414, 0.3804731742521645, -1.0794064791328801, 0.6728519564855858, 0.3337518908397018, -0.22794056252454503, 0.11270139222873332, 0.4772142631778509, -0.42952577546252113, -0.689291060421825, -0.2989055449367364, 0.07751550116049905, 0.39079418238843316, 0.044626014048201504, 0.7636373289968013, -0.5648710342539714, 0.1349667228561273, 0.43657191974296605, -0.2287895309823811, 0.1332117334459615, -0.2318205764937336, 0.6137878503590504, 0.03738813808616387, -0.18232436386225492, 0.6787992060420422, 0.29846005338348386, 0.38393482336965523, 0.04187427689077808, 0.0020353972910053253, 0.693111723136185, 0.8217438010519245, -0.5325859104673573, 0.7436005893872994, -0.32396340888421277, 0.2307103103986752, 0.6820945106466653, 0.5608339432150383, 0.7133462700000204, 0.30953817343459394, 0.3826290650720146], [0.28401052923604786, 0.09933975460801187, 0.17784193796372558, -0.20502820225376822, -0.9451638377738371, 0.0730880280207924, -0.15199483259977675, 0.5772570912922197, -0.10286034593474366, -0.4038576159990556, 0.30630201596209056, -0.8946089371169115, 0.19995946580154134, -1.4328979456939885, -0.5871553566523006, -0.5253175500390015, 0.7453093954988316, -0.5566793182614906, -0.2519231973286522, 1.007847296024385, 0.01453285539691982, 0.07376820748270335, -0.08938440537397141, -0.4561879387466057, 0.3859572491406765, -0.2598540555993629, -0.8510562066386248, 0.5182052591026957, 0.6045362195702582, -0.05454728582565582, -0.9744360369878857, 0.6136431472971964, 0.3938320120160037, -0.07835394051878299, -0.09368838968842513, 0.9169710343148467, -0.3499912319413965, 0.1471481668691505, -0.2116207143554896, -0.6063745567655594, -0.053224463097976016, -0.33216195197150755, -0.43089882526803885, -0.1745748613454315, 0.41999602453178525, 0.3933560608151893, -0.5310519770485733, 0.9282870731001398, 1.0797773958544101, -0.616759602985565, -0.578389705620414, 0.3580314642484789, 0.7770090872693356, 0.2454818983918214, -0.34555841751221233, 0.5684821378541821, 0.39010130747483984, -0.33919962016993876, 1.0273038182904457, -1.4273756159484239, 0.2429807202619532, 0.8900576022106528, -0.9106957525266752, 0.9100152962871233], [-0.21640015914037297, 0.8893913583271824, 0.038682867920596525, 0.33085413340314607, 0.9878976849756784, 0.5273964534555069, 0.2537967811020592, -0.4846016183146704, -0.16776055112731403, -0.706568429649432, -0.41949655453432194, 1.1571641656992186, 0.645175496022249, -0.2566425850978004, -1.320968339354347, -0.011079957282438092, -0.7217124637024773, 0.05207800008032379, 0.34947872563655463, -0.18381444903312294, 1.0669084942477993, -0.1990629474024693, -0.24946103582183093, 0.22351474413526307, -0.22703222352968305, 0.055880956283970606, -0.021197387678267954, -0.8711732802597906, 0.10257191300248811, 0.5667351039920602, 0.7926125751052958, -0.5318729810532965, 0.19374737043196355, 0.7653688189333208, 0.5763554789877402, -0.08146000815192235, -0.8672069051234957, -0.3246614045753979, 0.4449386546213756, 0.30545325809068546, -0.4586744295247467, 0.09306731708808572, 0.743168643622697, -0.3095808814894023, 0.48820481305174496, 0.5204916521085003, -0.1520150592530831, 0.6248217501100486, 1.021608005420398, -1.1214602469934443, 0.6371111159552271, -0.13465206923784306, 0.755146472067453, 1.1876627639844894, -1.7602900811457864, -0.11473286529512482, -0.17238126788054253, -0.8890540273702405, 1.0076775622979817, 0.6261081140075808, -0.5338887541902257, 0.38520738937950016, -0.7102888141992274, 1.3131949278334332], [-0.7526483871673901, 0.5304202479691416, 0.34186378640153897, 0.1012658755243076, 0.4431487741167854, -1.387381375372621, 0.701707801374891, -0.2039817996136288, 0.8445876320887876, -1.3080314163194957, 0.17049879183595684, 0.2435298180917787, 0.10989294792807064, -0.605743997090207, 1.19401086005372, 0.11813951129473882, 0.5786067527656279, -0.6499105307237227, 0.30009338509794403, 1.1864937106046625, 0.4259745263706451, -0.30851488785534364, -0.2554231527683408, -0.10620665432989179, -0.18173781519488297, 0.24909996958185832, 0.22031574334073178, 0.026494718130908812, 0.21011826524311478, 0.8390244498007654, 0.03804799353578234, 0.48187710110947984, -0.13463033672929728, 0.4293477137726591, 0.45900179542393005, 1.1727513199664976, -0.8414761234033852, -0.5117475929950274, -0.6243407440130213, 0.18702156519720037, 0.3826292702413518, -0.21709027064422928, 1.1331103591542742, -0.03633345538059693, 0.19855269100789932, 0.03887660458224296, -0.26481137359288676, 0.9190863318806957, -0.24899531262776065, 0.213962039571765, 0.6279898428405581, 0.20675064850710662, 1.126815155367594, -0.388853130292139, 0.9469753073703342, 0.6973324035421428, -0.6415843662239065, 0.6762485245601292, -1.3599862671935428, 0.8466226270464664, -0.7038939052908824, -0.0270519628983618, 1.047854874880653, -0.0497908351210061], [-0.8566168516118582, -0.4806214124317179, 0.5581321038956426, -1.055419769981955, 0.20277960086962227, 0.020251137142336922, 0.4035933149470129, 0.3709162706478619, -0.6775656680802533, -0.48049379463640135, -0.5994016081910338, 0.09533384579823463, -1.1176567666946446, 0.309478113222489, 0.34380362401305414, -0.9579417847797496, 0.5998181354796115, 0.20756592809529645, -1.0401972642269748, -0.49757104727564616, 0.5551555646053759, 0.21110058200128734, -1.0743234981573881, -0.40130893439416776, -0.01956030811621501, 0.19652062686154523, 0.46447585807425024, -0.5332553713349926, -0.5832528607869042, 0.42341459820296057, -1.2963667995260293, 0.33171808133803715, 0.8645904904087095, 0.7833846091059746, -1.1563082224410428, -0.7995767561300648, -0.7275935424917253, 0.5015863920279657, 0.6151451446214855, 1.0456662816599427, -0.6084418930975528, 0.25695678635087466, 0.16771705763099548, 0.17647682844479534, 0.5198996342365294, 0.3040867183554085, -0.4174787316494236, -0.29083514841906843, 0.7996978289285015, -0.1368411381009928, -0.10116444991688517, -0.003962122462632223, -0.42884658410215937, 0.13729306129620533, -0.21350288613234547, -0.3036132393090127, -0.641829096569998, 0.3282370112490107, 0.1761958871314313, -0.7313066804028522, 0.6764419968708417, 0.4970116670538598, -0.5344007315224665, 0.21445377169910584], [0.4415445204111896, -0.5071668643684284, -0.30577881736243695, 0.3220787306186987, -0.5648973796582593, 0.17318877041497802, -0.28520078198572707, 2.1803202149388854, -0.7512964760859804, 1.0910759707578317, -0.40742550357512, 0.24654603191490437, -0.7885079664288835, -0.5069241943074039, -0.3874399992367429, -0.6483555459843183, 0.9897432034258511, 0.5085522924340384, 0.6857233942117936, 0.37731623188041274, 1.0730172336229022, -0.6939918724441362, 0.17801088663031542, 0.2701640693242755, 1.3337740569017347, 0.6000763583430873, 0.23813389704108343, 0.7032619584753119, -0.10316885778846871, 0.014165990763277958, 0.25439202015913864, 0.18873618897353825, -0.21986157914302104, -0.3494181038700769, -0.09184413016686155, -0.23170515620880378, -0.7771103721535704, 0.303077641795352, -0.9816128251300202, -0.9735489498411438, 0.7265310388907602, -0.3904842840011365, 0.6255445756882401, -0.13091681531709137, 0.1446339308064789, 0.5724326211721897, 0.14152169398641395, 0.4797017828733299, 0.21348512866208338, 0.6494766728246224, -0.7302912001644098, -0.16746007976871913, 0.776063549874729, 0.455011510313416, 0.8039736411903537, -0.6120650003047652, 0.2281205673261978, 0.9040757051356905, -0.865240351078225, 0.1920060722528373, 0.3410796902809755, 1.2568191666968296, -0.7524516566847335, -0.4903085002659953]], "b1": [0.0, -0.1995795119058983, -0.3744106427064248, 0.213100140891707, 0.5388539024224892, -0.15366966764011203, -0.09859104097639432, -0.3815180574912839, -0.48139606168294646, 0.195570724436873, -0.7456207468292447, -0.3929254886043232, 0.044375099817496794, 0.5361678099034202, 0.662528881192695, 0.09628688712860972, 0.1443668358581751, -0.05224029478318454, -0.8305287326343012, 0.03566936347441048, 0.1914542648670552, -0.07004318448829702, 0.21004401923218363, -0.9292895447271283, -0.033475160839191054, -0.8887536363535878, -0.10731048597125831, 0.6352775636824816, -0.11721726898643632, -0.2032119866540487, 0.7231425450771573, -0.6395445329214792, 0.7279472071591526, 0.6842575033800805, -0.02414185936209626, -0.16595207661738226, -0.2319316401701252, -0.5219161828212893, 0.01096508297738065, -0.11629717008179336, 0.0, -0.12619507550355685, -0.8661801271313728, -0.1702838830036484, 0.0, -0.007351562676545714, -0.047707231160646964, 0.3178370925189923, 1.0200712831812737, 0.12020164546897094, 0.43546213724559213, -0.3840355187665271, 0.24258165336751145, -0.45599454032418346, 0.5292640641840505, 0.787347207933401, -0.0973471626923715, 0.6585057283956717, -0.3348691400215434, 0.30488829348882984, 0.5503911060644884, 0.358407193356026, 0.5521849372793881, 0.3484282652570419], "w2": [[0.23844538953769487, -0.5163686328517371, -0.12136682865706785, 0.7034251459718907, 0.495499505102989, -0.7073809406422542, 0.25265877520344604, 0.17392356300942163, 0.8958094516228661, -0.5374807963092144, 0.22026556947567832, -0.13835413807221053, 0.24357232549426155, -0.25191292492697237, 0.15623810974069896, -0.23021622625180033], [-0.26994356858383106, 0.4736417666470995, -0.008780681667149973, 0.6549580898199256, -0.7366038022589414, 0.4676865947107849, 0.5034243777904724, 0.25106259157762617, -0.3638937161375436, -0.02242259729859505, 0.5004774236854825, 0.597298617274204, 0.0767996827348172, 0.43634580668734557, 0.6266336012554838, 0.08449104585263989], [-0.6786639576260979, -0.05122143288077602, 0.9296108995827511, 0.045750345547254934, -0.41114626711567087, 0.12718738289597856, -0.08994646678245595, -0.325113141527946, -0.13402334413247274, -0.3109587024258608, 0.0051969374255939615, -0.15537891552608374, 0.515934675170204, -0.4324661622577282, -0.00011320004429310471, -0.17930318748069876], [-0.0032341732418214135, 0.17276762637158322, 0.8541133260274114, 0.21469703270093965, -0.6113021092166179, -0.36758048771993157, -0.1599066932963897, -0.49268495305050497, 0.30320626536489437, 0.8542701910586459, 0.14379890520603694, 0.562084482908999, 1.3182238370349173, -0.3929168346392811, -0.6115695503881888, -0.36786168217150483], [0.048201581204281974, 0.7490903048463632, 0.03888727210825585, 0.7079265500249692, -0.04439592601882556, 0.32653006128557316, -0.2095743181858919, -0.27665262519722555, -0.024509966817231915, -0.09031484739174625, -0.36531299540315626, -0.22702238688209894, -0.04524042142247288, -1.0728151930326386, 0.7252347196033739, 0.17268332590369273], [0.0037854654766730053, -0.6221406229406463, -0.1364576873500712, -0.07499923352299245, -0.21594521152260915, 0.07362105088692683, -0.24218864912945148, -0.7499522527728668, -0.06657807746275213, -0.044956945365745515, 0.03768810543273386, 0.22827850906960334, 0.016593412979803615, -0.1508230499122993, -0.13611161536680816, -0.6336508127800946], [0.8102028506491551, -0.6290264834472283, 1.0861788214030312, 0.8558802599888888, 1.1423480481357307, 0.5507152622004841, 0.13647482845291364, 0.7685297077886579, 0.9378176575925962, -0.1413516904828263, -0.2491830974557371, 0.2424845520652057, -0.1558070899725779, -0.612997122800212, -0.5400193727587679, 0.23805760175842186], [0.3175888522106953, -0.8183973053156166, -0.41582340692330777, -0.3955448807053453, 0.01812558508167572, 0.42316931376730693, 0.5683935538192146, -0.4676350039001953, 0.7255252421788978, -0.656273373176625, 0.4243537845655624, -0.018173003603543486, 0.2503604637317054, 0.16816448819086122, 0.2835064973333915, 0.2084409345866983], [0.9553880595208779, -0.36890361489185775, 0.35933159744349097, 0.24799753628488377, -0.1305475475563909, 0.6507812693316845, -0.5496055125935533, -0.2803808711188761, 0.07677602914003039, -0.7316133886305971, -0.16280138347437967, 0.12992173564106607, -0.7443506082512623, -0.689276677643658, -0.7399034058932425, 0.4302276028867788], [0.09609685327153514, -0.5124952681482143, 0.9540359947042065, 0.22518512354632128, -0.12026135990694484, 0.26090070952287653, 0.37544540297860285, 0.5800119186866886, 0.2904579688238784, -1.5490705400967486, 0.7650329666735471, 0.40397142823246984, -0.39828395168788117, -0.17999569617468544, 0.17849317072575058, 0.14898576595984647], [0.5237027813015656, -0.05950222648112061, -0.5160284713025531, -0.23348966564627627, 0.7064895898984282, -0.8533715688734427, 0.43920268386585354, -0.004458503723714827, -1.107640941919116, -1.124934971452508, -0.18981048249864763, -0.14418753021210293, 0.4651981453817787, 0.15456586577827847, 0.20349450383558826, -0.5162936061438833], [-0.8208083078410053, -0.38852621647090146, -0.09988361809518334, -0.16935315656911445, -0.2684534254549926, 0.5506479011510158, 0.1117626607554244, -0.2838945374718912, -0.611236148645812, 0.3611033378268919, -0.5719706553347559, -0.24283855709156082, 0.19918835889315922, 0.5799490736793886, 0.6598701565065812, 0.3105767396326317], [0.3187356364501979, -0.17225086832901815, 0.26294169969823755, 0.12958112201978278, 0.7212229615806389, 0.16069846718077155, -0.11387189525302382, -0.7974792839230951, 0.061214060452130854, -0.11483782683818206, -0.01839657169581263, -0.2880675801407742, -1.065739572070072, -0.5494819918050489, 0.7471435600567237, 0.08752788264318574], [-0.456304179163892, -0.5215493737596717, 0.08197042601763388, 0.541743045947346, 0.8678896568170382, -0.3654290738488789, 0.6962678185127567, -0.028083725127114066, -0.0513583947266706, 0.15549460307946092, 0.2791318840986743, -0.10385930498254209, 0.7862029613552116, 1.1166550413678227, 0.33706537585198887, -0.0013518982417682623], [0.7118274461311301, 0.24013481087256297, -0.09495407869671738, 0.34911556825694046, -0.9697817209415172, 0.44893551221107686, 0.4515566638023751, -0.07788062964272432, -0.2984900321381724, -0.6565236116161488, 0.0895079896405784, 0.1642850236645909, -0.6245497645320546, 0.389246257154091, 0.23697765862046202, -0.18320308023861726], [0.027015159054337698, -0.10128311098820023, -0.24566390261558324, -0.47637366588252583, 0.5416427778850408, -0.04526624234759674, -0.5553037994147644, -0.002442879364968481, 0.5795320604994223, -0.6031560186972701, -0.5451406135691108, 0.20285109161388132, -0.17696056236351457, -0.015784853384806452, 0.0648217618421541, -0.809942696927052], [0.2127644325043094, -0.3679029798537516, -0.09940016915443944, 0.4249295593955449, -0.030338999309921746, 1.0935295353294472, 0.816779342531258, -0.13447195206116877, -0.13627488885250744, -0.03208854382102716, 1.415153317593252, 0.08254513563246313, -0.04005993950819131, -0.8081685060562004, -0.27817194813398616, -0.2452599166702693], [0.7929991452910412, -0.38308477020355125, 0.40701588046088716, -0.48514700804565264, 0.02118450773839367, -0.4471499053349869, 0.5960496783832494, -0.27421071734769237, -0.6951056049753509, 0.4715448409209516, 0.1508868857739205, 0.25601904024004607, 1.0104925365200934, 0.013976751248362285, 0.26450584821755296, 0.47412247739434354], [1.3885418339803866, -0.048681167236881095, -0.7494920814507735, 0.37678338013327733, -0.09944285170940892, 0.046334899825953034, -0.0067721986507077725, 0.13640300768101474, -0.47916574234250386, -0.16294046769611534, 0.4115370092158919, -0.5791631376955905, 0.8922316586377013, 0.8686998027171127, 0.11065272436901205, 0.651256265589246], [-0.5221742592470306, -0.1059208355090035, 0.8436363048936242, -0.3528800821095464, -0.17271501079258766, -0.4192145224501871, -0.1259154658554879, -0.5348006624306257, 1.3900992057164183, 0.23693823661683772, -0.1972428188106665, 0.24508852392036162, 0.5467782719276444, -0.22907304328887623, 0.22158873218583325, 0.2858927731307386], [0.16163111304499192, 0.1645258824427739, -0.7383660081440051, -0.7737870432628685, 0.38931687787539115, 0.34563524284983616, -0.22725889661313145, 0.5428971108113761, 0.07376766296298133, 0.1731567096374418, 0.3601208455653437, 0.19186905062457607, 0.801396933532448, 0.17486224134158462, 0.12569939385965823, -1.0503848946247554], [-0.24021004050215367, 0.3311875922481868, 0.05591201743962643, -0.446342918088541, -0.019939718849436905, 0.07852241458208899, -1.0909272352458896, -0.39496800021628065, -0.22575396563284192, 0.8460182965484397, -0.31375862929268605, 0.36920072053052844, -0.4961070146729837, -0.28189547849571495, -0.1962257073868345, 0.20854884530868312], [0.0651078214896359, -0.10473782910846297, 0.46368315905956103, 0.7294713595832893, 0.04004172479098789, 1.0284617670284069, -0.3813917925723031, -0.4162940703101512, -0.11450241479359696, -0.26236769343361743, 0.18659358183402222, 0.9911920141165823, -0.08678485764307992, 0.3313092791359652, 0.23398892086407425, 0.3953195474696687], [-0.023318379667791822, 0.44403900126355744, 0.30646576303282647, 0.4421989430041391, -0.14981661584482664, -0.08194898575028367, -0.4959257766896885, 0.11724489488855322, -0.03931010321010961, -0.23468364359080915, -0.036597198237009146, -0.3523686632139523, 0.1762217494029038, -0.4929469180045174, -0.04170244511239906, -0.032524709047499656], [0.10768477335093024, 0.05214788595493558, 0.06952193862400366, 0.2134901845155606, -0.41264994469730565, -0.40025182396465153, -0.07700805138193292, 0.04046112083445358, 0.5923959096632281, -0.40424267737417197, -0.050352788592122805, 0.6088402594311086, 0.18837779542501804, -0.06137013910516323, 0.06556107760600888, 0.9827845548200762], [0.014343812454594623, -0.322048899762275, -0.06647792110061546, 0.7320788130736321, -0.14866505282380788, 0.2902309323204145, 0.2399284532723041, 0.20199601967429243, -0.17152285847148674, 0.3815648320702139, 0.09347538948449084, -0.033247115960040874, -0.642039958781338, -0.345195640850371, -0.6642274726262961, 0.6146943869637023], [-0.001986960151019698, -0.13910908273985356, -1.447039479961106, 0.07647922811931054, -0.3965784371860861, -0.2747372539554246, 0.2193717711645052, 0.11008998232199803, 0.320142583530201, -0.40605291244485797, -0.3229387816480839, 1.0450775940175085, -0.7351161960927226, 0.0027328255728105155, 0.5945241450374612, -0.025864703072768926], [0.30597145935904396, -0.02420466588033321, 0.43307212268334144, 0.28997318647120723, -0.14099062338930488, 0.11801672963016074, -0.24009255157090242, -0.5885968277419082, 0.17064883500181224, -0.36900145240594534, 0.3804529624559234, -0.8023937563815091, -0.1831946018677815, -0.44182926029927105, 0.08054994511909794, -0.3131601596763903], [-0.5945306593566636, -1.07904144184277, -0.10246756955036532, 0.06711111390076505, -0.41528350249782164, -0.5027947381726964, -0.09307034555942276, -0.05634652658089978, 0.32566970131467465, -0.2306583414383272, -0.21523116120680563, 0.35972285362767004, 0.6244436461856194, -0.09717085729975283, 0.3599272630230984, -0.2531613222175983], [-0.5364712089563027, -0.11434647382714992, 0.8559589667127047, -0.41968199087263053, 0.34557727578972885, -0.7589159868107607, 0.14283262693335938, -1.3649810086091032, 0.2776691220387404, 0.7267582420405942, 0.3196538056682627, 0.13097277623628292, 0.226321100726192, 0.02864802409610112, 0.03832194223009133, -0.42525281403039294], [-0.8669833263250943, 0.1252219274737562, -0.6106062466039571, -0.1159540309906345, 0.9695615255801413, 0.3399591521681776, -0.03447606759170996, -0.38136089780713267, -0.10511779972469242, 0.3080646826546668, -0.16530290409914264, 0.21935239046504137, -0.39423536334742565, -0.7370785873081414, 0.3564779575983127, -0.2866926683639578], [0.015944516003955717, 0.1114773125328057, 0.0928339678867273, 0.5300147786034852, 0.5228791146695326, -0.006660225993506047, -0.1279562965727638, 0.13322539363546482, 0.08588488086747748, 0.8458744315216181, 0.34697932052569286, -1.0732687930844624, -0.357295542883368, 0.20325768488778717, -0.15379663116877873, 0.003499776070843501], [0.04261870205195989, -0.03747085270925929, 0.29157343851986545, 0.1673503619220953, 0.4530643233239962, -0.0650612791619775, -0.017502420834511506, 0.347002314143202, 0.4587126234087465, 0.8372616514834437, 0.8919235878067104, -0.0350880332466989, -0.29680900152668005, -1.153551430898115, 0.19722857391472653, 0.500390322088328], [-0.6331021325137876, 0.00350275992778944, -0.008074665092046698, 1.4483710739373141, 0.1669881926184263, 0.24693676254758246, -0.2726052488362661, -0.05402321352299855, -0.6776744948576836, -0.3965445170431887, 0.002118524199416716, -0.23550141869577224, -0.5897437554513423, -0.47849190070056336, -0.22082607323442155, 0.13123052734198537], [-0.2704412283494383, 0.31396274848342687, 0.6004189261732108, -0.24580902411817898, -0.27324193133794894, 0.5590257457294153, -0.18110927090589382, -0.753206986474041, 0.1251628848370796, 0.1593803709914819, -0.7680283603309459, 0.014403587217332453, -0.25314080845119136, 0.14503907322366563, 0.6918627958413088, -0.05808979739851787], [0.22989844986027316, -0.15690328932011516, -0.2857442224910507, 0.42093133718156817, 0.27557014761126725, -0.9728624392454404, 0.45520397190068, -0.746817753690064, -0.22935722761121566, -0.22816499523602038, -0.5433700086971284, -0.6638917858890303, 0.5734289483300435, -0.10577952289587232, -1.2319067189875992, -0.669580591017461], [0.790988835767769, 0.747525948814898, 0.3025398237253911, 0.8377739108283856, 0.30348839730431887, -0.22568764681170178, 0.6869681238694179, 0.555464928044351, 1.696048996161704, 0.2873156463047809, 0.37630370266445967, -0.07162584312960116, -0.1232664456397252, -0.13459315495005664, -0.6508305798480587, -0.053169389880308254], [-0.6175424069285718, -0.30045587103954774, 0.12760689620476856, 0.3309174772823282, 0.4723785029781631, 1.1108672613477029, 0.6783374487287889, -0.16485331598804415, 0.16316754849792653, -0.10849647586424739, -0.5036396744801959, 0.18476847586973796, 0.20733971487365527, -0.3408065823764066, -0.12322441832526275, -0.8702912381711853], [-0.2926100436091176, 0.259206605410798, -0.5791401430280984, -0.08078966542894878, -0.7184659903583268, 0.09399407264538684, -0.2408333571905174, 0.6747087949602616, 0.2929115028091386, -0.15802984630364073, 0.01598715785533668, 0.3611812682547292, -0.2518688254673811, 0.3551006943333351, -0.3338234643676109, 0.20598820671793427], [0.47174920803605896, -0.1533680639384163, -0.20639446199344172, -0.13631597598782635, 0.425195013392466, -0.21942515114876843, 0.4378174746149719, 0.16008931334027018, -0.07508118367528097, 0.5656469240557698, -0.5459560577487441, -1.1091171158980018, -0.4279895405909554, -0.2778699195168245, 0.2205250474560492, 0.2930583379354744], [0.08221462184906456, 1.2364348771607299, 0.28365044430553, 0.16869442053292982, 0.5236070204128007, -0.026857433066698314, -0.062341270385061154, -0.2680482209761229, -0.11373344353010124, 0.04249104671022105, -0.37290008898014837, -0.10314650713006186, -0.8083245170414111, -0.46309642019976893, 0.43232986541562446, -0.7953003891073175], [0.22696747175775644, -0.2427267524543886, -0.13132771771085922, 0.266805274715465, -0.8227853910529693, 0.22813852074447144, -0.13237883544914222, -0.06540016829943918, -0.6298343610440077, -0.2921529016860257, 0.18955348114844983, 0.114013451535176, -0.05096852260012452, -0.24507529705641423, -0.8823828157177791, 0.343671196481958], [0.09400519231958249, -0.7933784489528747, 0.27272116754068515, -0.26246493403804233, -0.2507371476182451, -0.8855292830870882, 0.018892103223102752, -0.5289978521452541, 0.7883304001287026, 0.27925702301886923, -0.47134604844619066, 0.934448616518522, 0.368403416500203, -0.25016543229837135, -0.6267021086988904, -1.5057549058228374], [0.08851786786731589, 0.2768432232060947, -0.39984978443067276, 0.09384768478866683, 0.15820938226088282, 0.09383013171495436, 0.11438756463568506, 0.5434045039115595, 0.5112802222042162, 0.48559462352507354, -0.2407244183345149, -0.04550027721240174, 0.2384704581259678, 0.34242761175732606, 0.39136917979325797, 0.8617218249497496], [-0.07203318340919052, 1.0548414620748598, 0.6014568748493563, -0.5191819646903323, 0.16131731614272446, 0.07286613514515178, -0.7911659438211169, 0.37320700850413646, -0.32525648713312105, -0.5796943688584822, -0.4469728226353852, 0.19279698058835776, 0.11380443462912518, -0.3922500026843568, 0.32106886907328896, -0.20619777572869208], [-0.35675057921540587, -0.003191093684005079, -1.039731757120518, -0.44426511037840044, 0.3553689521824876, -1.0965344386086255, 0.12827662832198117, 0.1793128217491431, 0.6351765932242639, -0.00191050696299426, -0.25099229261695477, -0.038774190511555395, 0.6024475855629445, -0.2700545240971173, 0.7640501316350801, -0.14918413934610114], [0.19271541826686886, 0.06969280198333544, -0.14710584575155922, 0.14816758320941334, -0.5814025158073205, 0.5419245177349655, -0.2739194023105542, 0.24636312042183262, 0.005905963758340349, 0.13614335291045182, -0.34017781025693683, -0.23613591148577398, -0.46265752403356064, 0.701742905122922, 0.08201647086596489, 0.07088074921393778], [-0.21388170910653007, 0.007131590595072276, -0.21291682931917133, -1.328701664574316, 0.20874955001714043, -0.3944471174547065, -0.6076150070391932, -0.04707131392341063, 0.5066282164978761, 0.05875596369217853, 0.28926492238179313, -0.18993688479494594, -0.23007141937619408, -0.6243061670129034, 0.21299900974595307, -0.2625210129361586], [0.23107728791391052, -0.3038085678174565, 0.022077374451265952, 1.2798479035257124, 0.4499255569900342, -0.03567105617348393, 0.6933792136274778, -0.15789333319052853, -0.09152282680967909, 0.38894378185613915, -0.30355611570944707, 1.0783124321558843, -0.7787532067058107, 0.022527200417394727, -0.7011974418396064, -0.6636479769387706], [-0.7986837558397374, -0.5153830684147916, -0.7716969995443721, 0.18164751862157436, -0.4489702416493507, -0.35487127944496155, -0.14197202769107042, 0.03931357171425953, 0.8584025228486888, -0.10652617119528868, 0.13387376187833408, 0.3931556627269099, 0.36536447432615654, -0.4765414918014531, -1.182472557898719, -0.01863932573520624], [0.058186489598356594, 0.44963542956532143, -0.20972979187440463, 0.6560866858759167, -0.20743352058509282, -0.25145829226625743, -0.38103022772426454, 0.3452852437079373, 0.5703843037387402, -0.25293214002679687, -0.3873583649209308, -0.22220902649701188, -0.16182538444706146, -0.2727936552504558, -0.14467727054174684, 0.3816299598338843], [0.3039474430881366, -0.9625374577977598, 0.6598027633429935, 0.19016707051180923, 0.21208402676659918, 0.0347315374304502, -0.5276100384255134, -0.07793980139294708, 0.21397278728714847, -0.35990062611099705, -0.33718982774326506, 0.21195095934174457, -0.3641170194311316, -0.5946101606819074, 0.8812999682116984, -1.40560699508021], [-0.04950610653628865, 0.03676496271907509, -0.14727750417723434, -0.7298360534478894, 0.5873481999791695, 0.31717508749234163, -0.16534275681847915, -0.30229276658106785, 0.23815103624286413, 0.3383263888606696, 0.003131861687764928, 0.2918457358164419, -0.36376248570096553, -0.10611544266291123, -0.3995486527326349, -0.3548815986488032], [-0.06489688731035684, 0.31983800398948814, 0.6677680131921551, -0.45766403920315046, 0.4874730837343541, 0.19515147762348792, 0.006114382683170272, -0.030551791287745128, -0.6901940282264546, -0.5237168540671189, -0.1712261887313796, 0.5495848374203764, -0.034497329703887414, 0.350329517147675, -0.6305430633614555, 0.3781371456994604], [0.5749118172872082, -0.20229235127551132, -0.310745224741879, 0.38410725869524426, -0.22057298856851199, 0.6990884467809285, 0.7065229170066527, -0.17361693251887805, 0.5173589814013843, -0.044759401873644106, 0.35627565388381843, 0.36624303872632474, 0.4486405217477808, -0.3678049560527351, 0.49106666387720244, 0.40337767058332513], [0.15365193773230112, -0.04566274737568196, -0.17921946614195794, -0.6365045680619718, -0.24045903595310375, 0.25776967107497606, 0.9827439406798988, -0.5422531931818317, -0.8037298119495218, 0.35369192999229726, 0.027642177945443575, -0.0523161199651076, -0.34267376534982097, -0.2880464382874941, 0.20991298726921426, -1.219805045375399], [0.45301348059576163, -0.39670317915648695, -0.25193683729209815, 0.46964269896568844, -0.38082343485956216, 0.4716117399691916, 0.2928159135556296, 0.41710292137564514, 0.2844916108210688, 0.07310770208223938, -0.005753380834649317, -0.46736615537430826, -0.09540546198601099, -0.09437805836348133, 0.17002293585073133, 0.2878792482693082], [0.1235086845062858, 0.01802956156196417, -0.18838843519096155, 0.5150725144678419, 0.5186094666967414, -0.03001088377410449, 0.04729459786232755, 0.17456430902290374, -0.7768693326964773, 0.6315718364056013, -0.2020460337290283, 2.1621153099705497, 0.27814846978667385, 0.6849994216691319, -0.4275897009760855, 0.3249245114894298], [-0.2419891820361779, -0.2263784376557363, 0.5231160163118213, -0.2318579363176132, -0.6012214233793439, 0.3126660483866026, -0.1356031621971624, -0.012869496528922997, -1.5588531741332052, -0.30273209296138726, -1.4686856856912127, -0.2425825452189361, 0.6051341669300423, 0.13373683674044928, 0.13892230035533354, 0.860143634321537], [-0.34125039958266257, -0.2859164160630426, 0.4453800488397814, 0.0047327067162539205, -0.11687730538922786, -0.14983419533201467, -0.07019232882296339, 0.11529598977925579, 0.1115116111044912, -0.23304585113094908, 0.8139748557935951, -0.6098851105669885, 0.2919745144429512, 0.13485513703902818, -0.05925053349682094, 0.4817052509379348], [-0.054005183393220024, -0.6630906948525068, 0.5790830640938427, -0.5154055355922051, 0.2463729568784186, -0.8746638829996256, -0.0017345050355397525, -0.5049938552073994, -0.1263508135971479, -0.19539400813851887, 0.09854847978328726, 0.16748823555351045, -0.5187218810197167, -0.7967447190437977, -0.03836484388286396, -0.08379069418397381], [-0.43009668654991967, 0.347825979621678, -0.4630707835160234, -0.7632647834994805, -0.42531942581533544, -1.1634259757205407, 0.5563766681922502, -0.31032436405438224, -0.3270837788889821, -0.4498953601276105, -0.7043929823195523, 0.19056742089451123, -0.08657284104270817, -0.11440829725412133, -1.291966046393023, 0.7612948632309418], [-0.03712991080628447, 0.6633260061380966, -0.4268114120449119, 0.2790761338782764, -0.5791287940996286, -0.8479539594760885, -0.2777519076343098, -0.16375286383436438, 0.42301158807802663, -0.23692975334377506, -0.09361245491132245, 0.029745722043020686, 0.24047699132731265, 0.27360800556472165, 0.8669277877118895, 0.4604201164220483], [-0.5693471124469502, 0.29422243523225894, 0.17462727125801042, -0.6790860461194498, -0.16230381080749734, -0.7261416304690764, 0.1260120494631104, 0.16850923862032835, 0.3633596989900428, -0.7689538049656424, -0.6065809690943084, -0.13678925722776045, 0.01888881367752457, 0.597133701851127, 0.09024413621816615, -0.556618428511069]], "b2": [0.4658617686700054, -0.9676498328402569, -0.1410187090633207, -0.06122864885682955, -0.07086366721650811, -0.7638787857396634, 0.20355830893424046, -0.17521232717429053, 0.2861529775600427, -0.7279994035141256, -0.7722006895659692, -0.3052335593718263, 0.6356476464071819, 0.2343359972061539, 0.0, -0.05783584024154919], "fitness": 0.6693877551020408, "wins": 656, "games_played": 980}