{"network_id": 19, "w1": [[-0.28052142948184755, 0.7087435043274644, 0.7781460161627466, 0.04611643793669271, 0.30837427642694715, -0.13589344075356158, 0.21771494656966203, 0.7892324819936569, -0.003881916694657673, -1.0223158822038065, 0.19675906821331826, -0.09921394463109769, 0.3123576246848371, 1.034087144489339, 0.521324937069817, 0.30655127231266727, 0.38889896911045074, 0.23918572534513746, 0.09801573516509952, 0.5919981596231773, 0.21317476357162932, -0.39127973708420816, 0.633374178838971, -0.044232400187999024, -0.3618930726379551, 0.4626030093635572, -0.7179146687164639, -0.0853948915985999, 0.08353551148791515, -0.1443887183542662, -0.7635208556337745, -0.37791512799392196, -0.06420078930534942, 0.33399962506719605, 0.51797395865987, 0.3513305860852516, 0.8402146412877006, -0.19388502504553504, 0.0988324620228288, -0.018435505203852853, -0.394723640477704, 0.28738231638504325, 0.09565368198947662, 0.10028387969711086, 0.09936133227999545, 0.4686183611391928, -0.2157510297660354, 0.07529767698159721, 0.3344802344234883, 0.29526142237115394, -0.5413506063151755, 0.31228019437294136, -0.7341369311713307, -0.5640380437194188, 0.079967021514885, -0.19756071979442635, -0.1973531486882158, 0.19559704117735985, -0.5674572146823941, -0.8556042020999269, -0.5787244497265626, -0.01096986157067091, -0.5047138933340635, 0.367056800157073], [-0.3666498405245377, -0.054044923459896727, 0.02913163351138954, 0.6715662063331804, 0.11294151205776042, 0.37996189628421295, -0.5030241276187143, 0.16406147347958605, -0.036086868111395526, -0.03274025782120904, -0.024859201394791808, -0.06160690673441458, 0.33491331906169997, 0.17794259462588857, 0.22601992682587219, -0.6258418884139625, -0.6070810308965124, -0.007056925456764052, 0.11885907531280221, 0.8399835526526187, 0.34627657184482896, -0.0675915211932714, 0.16820530649700535, -0.7885904881434818, -0.6435262069825215, 0.024369145870170042, -0.46570634737500205, -0.004738002319199179, -0.5033721538174349, -0.08252940352541124, 0.2735171957959959, 1.1071623782826694, 0.2753915656750785, 0.14463086112492224, 0.012773245733856489, 0.13508156472394964, -0.27618701927488976, 0.8309444576861091, 0.037793937672503254, 1.2204977386040234, -0.44406741522582466, -0.20378271077457671, -0.13149022268892352, -0.14709151223854758, 0.049830428767291754, 0.038820321229593384, 0.2280685158437764, 0.41297094194112, -0.3934110491581159, 0.15973348928069708, -0.19272377328298473, -0.06694587479338472, 0.15970047842230248, 0.08186704606649092, 0.26755505223065756, 0.3997278810959858, -1.0457812479704496, 0.1409163204851388, 0.20210777878955394, 0.1105007464083004, 0.08723551692291234, -0.2480926697702639, -0.323004751747938, -0.42579927858451333], [0.006487708338175335, -1.329352190673554, -0.10494268685429882, -0.06031079622981154, -0.6698216471228616, 0.5775018549153533, -0.3903262352960947, 0.8067208973295027, -0.4298542366725689, -0.045335443447050885, 0.0588776896700738, -0.9024107671026, -0.2945622101987427, 0.831616565957307, -0.0702827701079709, -0.02453459705662837, -0.6109076032971017, 0.4081348846860454, -0.18341270569162066, 0.26059770269234267, -0.606825887273833, 0.23927485966932466, -0.3692883762898981, 0.3717251625102786, -0.37574531536062095, -0.15992423206843434, 0.08270295589412084, -0.255520779843088, 0.31110192282623655, 0.6879918751862676, 0.08860162452333313, -0.30866013391606756, -0.7722277946042215, -0.500738960805359, 0.4196880662623042, -0.6352719181023948, 0.018614443627059, -0.04933337348760953, -0.055117206238848034, -0.2511461239626068, 0.2135444421314336, 0.006329692758589162, -0.04424580025409423, 0.8008573294777771, -0.027902747472720535, 0.573865445010554, 0.3741678229934853, -0.07109761327958697, -0.1484782116961208, -0.3120800758275663, 0.0977651934534908, 0.1028117724831306, 0.5697367066932711, 0.8752557392597077, 0.41035725049452587, 0.2600065649043086, -0.15232252719070427, -0.04668477598044731, -0.22172442612354337, 0.611710785433571, -0.3830101625295064, -0.033788751401382155, 0.24804841975537611, -0.32872984278540035], [0.0037795620378633914, 0.012778864239439027, 0.5926024513246438, 0.189736425611539, -0.19227725292672337, -1.0854038609139305, -1.0795976630737272, -0.012005369745311047, -0.3734966704076524, -0.5199350849038735, 0.12251245436884375, -0.7090596950602804, 0.20635288667511206, 0.149153294431263, 0.2782492815008171, -1.2827416824635542, 0.6694064201037683, 0.207528730680775, 0.24990772175983225, 0.8776838513444567, -0.2375366033226028, 0.0939184133308811, -0.5499128719279303, 0.9549339380597257, -0.09036318989718974, 0.2969549494690065, 0.5135009425433976, 0.13211174120780547, 0.6932995537748751, 0.15689614822541761, 0.5145054492877847, 0.4029561934393525, -0.4418400080728338, -0.061914485271505074, -0.4502414626188449, 0.20190602797591303, 0.6164383004530886, 0.06791906642835044, -0.8225098126840866, 0.599178159176233, 0.10249333487290177, -0.41360502542890665, -0.016515670034299084, 0.2967498355695464, -0.4147202335216833, -0.4087809501639016, 0.10261255008498171, -0.0981588042866961, -0.5211317439901606, -0.07768606953300518, -0.17543702279268705, -0.11401605415438927, 0.8041395669813157, -0.8131168772314425, 0.014590684853994812, 0.4011100495980198, -0.42609006570734026, 0.019235309130429066, -0.03851505504904941, 0.1053588595754516, 0.03655805496371328, -0.3922608883142109, -0.10301627168232914, -0.442277264277687], [0.27244300247621267, 0.036996280358824726, -0.071656292301388, 0.27938783006337675, -0.09020274177883715, 1.1784351205290602, 0.40897208877307056, 0.07817053475004943, -0.5909536436314607, -1.0356266168653852, 0.33045102179823077, -0.6389863724451983, -0.31653236605752655, 0.022521789575495128, 0.034172766700543124, 0.2660453950212821, -0.3051927893187828, 0.8627933339411215, -0.7598769679719155, -0.5459479888335029, 0.1623412554486221, -0.19782299535070091, 0.3639222721449106, 0.010476559392050937, 0.011867179032716233, 0.17842233478139322, 0.18690358810789762, 0.3679216168597335, 0.4487926749695333, -0.16416242137810916, -0.07461741606850396, -0.5328840528491292, -0.5534238989736668, -0.04015735512871749, -0.13454066006717239, -0.1206093440327357, 0.4380903182728386, -0.10795707265532796, 0.5679446315184442, -0.1728121617895512, 0.03192180377278148, 0.45807536223221107, 0.262379251386196, -0.5097576768581653, 0.6767447336399928, 0.051508677572040806, -0.41372145333765986, -0.29999283069456456, 1.0694888842834323, 0.43486952707731585, 0.21839177402876847, 0.5685428599184578, -0.12565274619508335, 0.31104916137831684, -0.00739215554182715, -0.5348495618618491, 0.8829207702075295, -0.08060493364936444, 0.06721704402894726, -0.21374639625687208, 0.8974466508971812, 0.1523506940081471, 0.25295951835077896, -0.22653575277659932], [0.5322267081901553, 0.22280989955761019, -0.003234600799490729, -0.3417795029125962, -0.12342235929013587, -0.9536597788685344, 0.2775867509958975, -0.0016217009726332277, -0.8643006555328522, -0.043094435324974284, -0.05817839500470337, -0.2039385682397052, 0.4988976303592094, 0.27369209856679527, -0.00016354215933122505, -0.7308583421384289, 0.24210105374684723, -0.09321483231856659, -1.0772354297177218, 0.09953353457961689, -0.31477925941955154, 0.4766213132382603, 0.855604938612866, -0.174738647397094, -0.16130220950037746, 0.394780354639633, -0.5815924979548153, -0.02269370184076143, -0.20266583064807808, -0.16740086465371515, 0.2698322734734296, 0.6070594188270064, -0.6597390161472286, -0.3285284153183139, 0.13687270961688452, -0.024438582593613815, 0.08467648578894414, -0.167265279560686, 0.10414948018845097, -0.29920360793688705, -0.16553183425787318, 0.032425708173177255, -0.33894907100348015, 0.3941621266082529, -0.1856357020380682, 0.5564456436520001, 0.2040385254308306, -0.39767901494843727, 0.8267585071455277, 0.13596870644325687, -0.18606329182989081, -0.4697759576187744, 0.4477782299721146, 0.35991566090007854, 1.0818738635317924, -0.3960408700900579, 0.4655607418009954, -0.10955119015008431, 0.09102989646654693, 0.32898056940930964, -0.06024243041381564, 0.4948433106558385, 0.23021502544170883, -0.020204036146245927], [-0.3671065248865674, -0.24493735986917647, 0.30269625551814583, -0.2572967352999405, -0.6788275730313125, -0.4830632730807085, 0.30123711421331434, 0.34443817783800124, -0.15393472642408193, -0.19475166280221637, -0.08230298974841788, -0.6189695871563543, 0.5258263815761498, -0.9587270907697476, -0.2146117554650415, -0.23037443657567197, 0.9500289678873876, -0.38358531123558076, -0.536606242818481, -0.06651801539972985, 0.3391851016325872, 0.22180477219748967, -0.1133963693702595, -0.667363884604507, 0.23206901075488798, -0.24884786127115327, -0.2760765566702357, 0.14288125410314462, 0.28499359544165326, 0.20448454460288334, -0.27627320317812415, 0.37560418789544553, 1.0360700156096438, -0.017958092191125236, -0.6351679475947283, 0.48402196756108945, -0.1295286685001403, 0.17512990488067454, 0.08664912954741853, -0.5428346740324311, 0.19994909608993403, -0.28077379101429445, -0.20053422792747871, 0.20830491421981667, 0.25752253656816204, -0.4506227171122636, -0.4211818034572229, 0.7404282751195695, 0.16128915452961254, -0.47711295586989094, -0.5721261898206558, 0.4065486143924978, 0.8046141732549629, 0.09326902262816991, -0.6538247496276041, 0.5957891968586042, -0.16147684838104898, -0.05669329964128485, -0.22158603396919346, -0.5534503240326133, -0.6052837489315039, -0.0756228327991456, -0.27194318454413163, 0.16182902939060279], [-0.35973865943406147, 0.5419728455148889, -0.036907844938618956, -0.3265927520223691, 1.022923448903159, 0.37597724071174593, 0.1346446023428572, -0.11502270302032794, 0.13016293367036127, -0.4361186999161394, -0.41949655453432194, 0.6366823770918483, 0.7362678163442191, -0.40646512113699385, -0.3786459954714274, -0.11684107519347849, -0.5800002166175088, -0.33273166093087103, 0.2399287169686531, 0.12457399912976388, 0.14401371106046112, 0.33125972468376164, -0.7511201323446086, 0.01659244731337304, 0.33534229217471156, 0.5235151278456326, -0.21085192239530676, -0.6883941942652192, 0.36180860550163385, 0.3880696035058407, 0.46908261081335423, -0.2943853294150908, 0.22824974913525337, 0.24445772083913753, 0.48491643825906733, 0.29794217972906184, -1.2199102186625275, -0.28979792549057987, 0.43083343417902364, 0.6975279637233132, 0.3510351561868514, -0.4445544843546061, 0.4193783286595975, -0.047815286184474594, 0.46479161363034177, 0.2209051320176749, 0.1698703858707808, -0.3778175753152868, 0.6562329331676016, -1.0363758343310125, 0.5685111929755751, 0.11129466049787318, 0.7978806555093408, -0.054676183382772546, -0.7668874084811321, 0.05858485681899898, -0.43723906551467684, -0.6479059671924652, -0.019446759853873584, 0.7210664319188176, -0.05753741139235312, 0.09230330948165243, -0.17912909147299236, 0.8793767426222332], [-0.5223905396288809, 0.4515159725898517, -0.4041288445106987, 0.15220613322874096, 0.314523231823349, -1.0892047209350502, 0.2605428508490242, 0.36171358564608064, -0.0011461742129171837, -1.1013173016611124, 0.13419967614296957, 0.174481783535302, 0.4216104313539062, -0.685622794017656, 0.6777963436023917, -0.06069030452323139, 0.32838910272920374, -0.1521012283534528, -0.17926537049727786, 0.7142326321883463, 0.30522432331465815, -0.2583035032990474, -0.13947989361402408, 0.1375174734169619, -0.09118460239673604, -0.07936572392158317, 0.4608826905542016, 0.6695523187180508, 0.498473752208376, -0.10686082087540631, -0.47088153588088066, 0.5685956933283467, -0.0589254147211042, 0.26892311617167325, 0.7572387477176995, 0.6351108413934571, -0.15839041344670932, -0.5009827644170867, -0.4850403601492528, 0.4340462128640939, -0.014902226879365654, -0.18664076401750332, 0.6425833316648901, 0.26211499005404076, 0.13291293367453952, 0.21509968848331978, -0.1896667391362965, 0.3814302612945654, -0.46922922867850453, 0.07323184279207498, 0.005221331872853036, 0.47105676609314706, 0.17884200667346836, 0.18853494601907478, 0.6609518007584299, 0.47781147491536513, -0.53865977787818, 0.6717307685153256, -0.7452907759483687, 0.7106745324801416, -0.11898714493515421, 0.04014192601513083, 0.9463223592854652, -0.09124246155466073], [-0.6614817663740055, -0.22230200133225406, 0.5459553046286619, -0.613095135475901, 0.06627191138353813, 0.22070017240737114, 0.3655106602884511, 0.4095805273877057, -0.11640583366947219, -1.1076314003101713, -0.5994016081910338, 0.0289641976465102, -0.12287982891284492, 0.35702782721727494, 0.1824702025185638, -0.4028363030489309, 1.106119962019231, 0.18510951432036524, -0.4169433673142902, 0.15001874857037137, 0.37441237703792735, 0.005349699972763124, -0.5148242564889977, 0.16301975989570267, 0.38914026965793613, -0.005894941938229037, -0.1514752288990859, 0.12795779728053214, -0.16804379890151472, 0.2661204276298139, -1.100948836934753, 0.09961928105121362, 0.30153301573459684, 0.13579225452004043, 0.05666633841015513, -0.19062171904036773, -0.7332051573451313, 0.011167797190777515, 0.017162768592791693, 0.6211732269255278, -0.13962794782757199, 0.4208358147342296, 0.04629833289072274, 0.18932113592509167, 0.4194307666737577, -0.18711279711442869, -0.011202809306758668, -0.30500179702833646, -0.0935791891461133, -0.407113366877601, 0.12650243999245572, -0.30631729871403474, -0.044512352162439844, 0.4189656986166875, 0.6563459330476268, -0.4100896197950574, -0.6476256954860511, 0.12644518338617874, 0.22135054648884744, -0.31856738593383827, 0.605727099971881, 0.605894815106836, -0.3564729917139086, 0.16991792732144362], [-0.3069683385225145, -0.02067853530742851, -0.4569350581771021, 0.07439831291801924, -0.2923239792728841, -0.024288012331986547, -0.3733442294507634, 1.1670591963074959, -0.06555602520427317, 0.5140306972453627, -0.14987570958081906, 0.48680029234306826, -0.36962397810689035, -0.5451186227822516, -0.6039224089870602, -0.05088281745584811, 0.6487291202330236, 0.4241195200337985, 0.6243600874692143, 0.23662327560917953, -0.23612193771016823, 0.2447634720694476, 0.192535507864633, -0.4127896900973093, 0.09751286804550871, 0.5117950418472187, 0.04086530933031683, 0.13633091036418005, 0.31949017694123905, -0.6365807672795533, 0.4505281775235168, 0.23387460534829027, -0.7126378236921497, -0.5866615396516832, -0.6057776799154793, -0.26757665241893847, 0.008585005205923806, 0.31850934627868366, -0.058421857856320356, -0.30461066678343157, 0.6335753156678211, -0.19976976823793804, 0.8864835016466666, -0.06848764117417326, 0.1451631483073839, 0.18570561867905155, 0.32755257249650416, 0.5921344507093425, 0.21348512866208338, 0.4512171859351289, -0.6911489133339953, 0.053659146215857705, 0.24956041798438208, -0.027460603307164377, 0.4403970525256853, -0.6536629263041982, 0.17458310096454194, 0.0273504393743871, -0.23845609188287376, -0.13363274691984334, -0.042201964469294764, 1.3748453443513773, -0.6367507465513134, -0.09761472126542729]], "b1": [0.0, 0.0, 0.0, 0.0, 0.0, 0.0, 0.0, 0.0, 0.03607275122174879, 0.0, 0.0, 0.0, 0.0, 0.0, 0.04380050425433742, 0.0, -0.05197919152420938, 0.02503504549994595, 0.0, -0.10314240412603706, -0.07373260540505895, 0.0, -0.08102923184466396, 0.0, 0.061836983124589275, 0.0, 0.1433986445572612, 0.094124711917888, 0.05851391677216558, 0.0, 0.23711344521963734, 0.0, 0.0, 0.0, 0.0, 0.12685189029006338, 0.0, 0.11849918532951471, -0.14003883703421335, -0.07983695713539195, 0.0, 0.0, 0.0, -0.009811493010976743, 0.0, 0.07441661222049116, 0.0, 0.0, 0.26466589856608286, 0.0, 0.0, 0.0, -0.0078673773398694, 0.0, -0.0573826828777171, 0.0, 0.0, 0.0, -0.1088170127553628, 0.0, 0.0, 0.0, 0.0, 0.0], "w2": [[0.07195360652879702, 0.0002703991259956559, 0.201652118683713, 0.12146185175297686, 0.030557851978015308, -0.15148580404279072, -0.33264543327716634, 0.1296047280523625, 0.6036617125097107, -0.13742418011534202, 0.27654991834725795, -0.027349844588903466, -0.27588555339461657, -0.17825355724621408, 0.057710293109061755, -0.15955506793684932], [0.04049226328980356, -0.15999121792030888, 0.10276918249965047, 0.23013130054997885, -0.09074040987282804, -0.015162722354406513, 0.031240950011336397, -0.03698326955933978, 0.0148357931673204, 0.08057955723745304, 0.023251217915917388, -0.21170125365966494, -0.3241300179236924, -0.16265679452786216, -0.2850913325715356, -0.007888143868188029], [-0.08251975834385343, 0.012136539347079254, 0.3256147562783268, 0.24970181911459674, -0.2513628862167646, 0.20699561814151018, -0.2156213016341159, -0.07742034003226336, -0.1198226235202206, -0.013254264537987519, 0.21816818496306395, 0.11836040107790693, -0.11005083963761739, 0.0003948794838139122, -0.08754688504069565, -0.35698733436144003], [-0.01911272074558423, 0.24007489537506327, -0.054742760381377764, -0.09670735660263437, -0.4095694618392502, 0.0352942170457399, -0.03271094309438624, 0.15700703702242352, 0.4233169051673377, 0.06547842988241867, -0.40076608553772686, 0.11217865417609205, -0.10983863645271595, -0.28394221612021897, -0.05352790073978694, 0.31574256858536776], [-0.5471965993046297, 0.026960614726699157, -0.12792224572428973, -0.10026885413118716, -0.2693769770729498, -0.02327647552720516, -0.17087804951947755, 0.06103472297428375, 0.19006525006016955, 0.09826095342421406, -0.003075966859996106, -0.12381793340827835, -0.2902585105657874, -0.28708100233246453, -0.19316371821917666, 0.13581978163893], [0.0037854654766730053, -0.180563505092813, -0.2453150814649217, -0.07499923352299245, -0.28494435769684756, -0.1118396609185397, -0.15659700718565633, -0.038163631219555544, -0.01968767380955127, 0.03751510580954678, 0.15223758585147382, 0.1618222692643993, 0.2010692239809506, -0.17155570239106271, -0.03488799114727703, 0.08362144541441108], [0.018557193125047732, -0.04175022161366793, -0.07506853066371795, 0.07399584957968373, -0.060794779793400915, -0.22861456201002153, -0.048737481571738066, -0.24602080465124662, 0.2305239457632399, 0.06051486983232196, -0.18093921850354394, 0.17653276865047637, -0.10511466442317191, -0.0971245966766826, -0.11107140583954037, 0.31575392816576386], [0.24837490806143347, -0.3080425388832551, -0.3253188114406376, -0.04506528235645533, -0.13887020375843664, 0.2529515660294266, 0.10427989911010442, -0.07019310199653411, 0.1285400569872907, 0.10630177819248146, -0.2101179425370187, -0.23884408952346234, -0.011519661650971656, 0.02880967027356644, 0.4202413536451601, -0.3115265171459941], [0.19340237045134845, -0.06355283467917076, -0.03793330343464073, 0.24503404160458672, 0.0808968748380999, 0.1834052883984989, -0.36982862033943403, -0.08869310624344218, -0.09392423614667378, -0.230789209357689, -0.25264987067378347, -0.10510972202315871, 0.05804518000631291, 0.01038015120618717, 0.2942001866380467, -0.0580656088186167], [0.09599371855812291, 0.19632174253779497, 0.46788185198207516, 0.37579551030389413, -0.176876899524616, 0.07897289702377996, 0.37544540297860285, 0.41446668799321723, 0.05777053506456007, -0.02941081231885756, -0.07030254038993132, -0.030667966744288733, -0.2218167037955153, -0.09435955550225134, -0.07942717818432506, 0.09768843398920865], [0.15699467015443405, 0.27151136733614206, 0.10386804013639239, -0.09974412543497746, 0.006266539672768523, -0.00042659204179878893, 0.011139666914193219, 0.0028786127593104643, -0.11743798087493722, -0.28860469243204145, 0.06522049924962875, 0.4422312859668521, 0.21785316597124485, 0.3547496521449426, 0.09074993307646625, -0.11737717324037833], [0.1942654780319798, -0.2654945166787908, 0.27788308752373436, -0.16935315656911445, -0.2684534254549926, 0.020931754215599452, 0.21441502071132937, -0.12468181342712624, -0.6247433441682254, 0.08788011898800017, -0.30132913480926277, 0.13237002528187972, 0.11977001461485584, -0.19210878522745647, 0.031065556879728565, 0.37789254830142], [-0.17762510834572592, -0.24259674993646135, 0.014182210189412651, 0.12958112201978278, -0.055518837696773196, -0.1746743179705444, -0.2674133759712941, -0.07385121819768956, -0.0839957936168612, 0.15170445031881521, -0.037142082136717276, -0.044683983090253204, -0.5361780584678351, 0.2230612099082618, 0.30794391102967317, -0.05085290902382973], [0.10249274136271902, 0.1802828124091505, 0.13844719216327458, 0.6416442387170649, 0.24721458867852936, -0.048673413259842965, 0.22096463428848945, 0.0004272482401413963, -0.03429858363343477, 0.3242088303805625, 0.01992915501470153, 0.16408010613505775, 0.2206006418157341, 0.16482664899305166, 0.02619619733468532, 0.17680588241295273], [0.04581229376992433, -0.08752130587820293, -0.22894039907560335, 0.2333040308022011, -0.028451471852174105, -0.08483816888927989, 0.031015728560768452, -0.05632168631667092, -0.0814957131107575, -0.15620644284677776, -0.03295227686420338, 0.08479445719006895, 0.17492679852980506, 0.28638236434754244, 0.05439698707150082, 0.025548702260950976], [-0.05574524530867518, 0.00458213737880922, -0.08397223634015041, -0.11227849949619255, -0.17888090178959176, -0.3201102177611025, -0.090703515848895, -0.06928497235202441, -0.05801859762399722, -0.02149274030880179, -0.030526679441089943, 0.33399960460602646, -0.06830809665350475, -0.1023779547728873, 0.16003316446597338, -0.08550624675992846], [0.19425072986104486, -0.13770764679925127, -0.3281636964081037, -0.4386017077071226, 0.08257791600305778, -0.33912622910304424, 0.3501049537602073, -0.06773352361129821, -0.21093583670088717, 0.01996298148962383, 0.03843243941600491, 0.04332447994843458, -0.012087851489985318, -0.12631053107888848, 0.04282919647859968, -0.5001164654957749], [0.036505997453857, 0.3115841757097181, 0.12689819032908317, -0.3130513431359821, -0.10135602879477869, -0.0692187178050662, -0.009711203071185837, -0.12366969058051648, -0.14818362073155858, -0.09320607245724681, -0.046779503909068855, -0.07839963384413927, 0.293022547766986, 0.17491940416179202, -0.012566742932788633, -0.09954135234914513], [0.25690098538714, -0.05230497497908361, 0.1416364820125625, 0.17475740617485455, -0.009847577048216115, -0.0721027267122885, 0.12342204610273172, -0.10355632588074025, 0.10030287135190812, -0.03880165427145638, -0.022976956435754686, 0.020558062373216078, 0.19129473541125308, 0.018130336094418054, 0.05447259474987812, 0.05363084198976766], [0.14336924685679872, -0.16225329658429888, -0.08620482772308923, -0.10573087044717112, -0.05600638113423528, 0.09775241192618385, -0.00524480725772131, -0.03387377718020477, 0.41836407838706346, -0.03734407310835942, 0.09419631188161105, 0.27128322225682294, 0.09195882397555219, -0.08716340600739418, 0.1662883590149823, 0.10546083391479327], [-0.028714113646889226, 0.039564282142458954, -0.6269994958186251, 0.1965295340702956, 0.2973219452287403, 0.10495137567695317, -0.25136792379379946, 0.17753496855205197, -0.08130320312466778, 0.1173887013572587, 0.027719463252147303, 0.27595323101113994, 0.24130697977640164, -0.09902230761081725, 0.15068644567846193, -0.15623550852444612], [0.04583012784844069, 0.4170323740608187, 0.06531127914483077, -0.18749076608543144, 0.07138860628328739, 0.07852241458208899, -0.12334473733484123, -0.484327040168208, -0.03643954833005885, -0.07330971625974174, -0.24995182507011607, 0.3453027780529135, -0.12150131753785132, 0.07563166522421215, 0.21439079365699584, 0.11717891549348333], [-0.04137582745522996, 0.16045680693887235, -0.027479887651235463, -0.12384376047793916, -0.11793306339882313, 0.18487155166914124, -0.45741142271587343, -0.4055749216161021, 0.004297393441201144, -0.16819871090158864, -0.13235012694454149, 0.35546986362260413, 0.31680726861009695, -0.05177101778810958, 0.05186549219788335, 0.11557235637643266], [0.08878126901449848, 0.05896487560678668, 0.3623043721113782, 0.1857376488386555, -0.0716805150747245, 0.15268482030521002, 0.1333581074399207, -0.1741959335941753, -0.013646125524786348, 0.09336218576683833, 0.11410979615203311, -0.1888574837231944, -0.10455265736545759, 0.049703329107573795, -0.036558303177309924, 0.13933662920885723], [-0.15551494707255387, 0.030314497627479817, -0.051515567847347385, 0.2860283720804446, 0.09232652002118025, -0.255065690491497, -0.13314552451950026, -0.07064672310412401, -0.21896300414168612, 0.145447017725088, -0.16077552106229004, 0.08041323046499525, -0.15472245823015743, -0.08240242338596818, -0.3599743512500588, 0.3815078133733284], [0.2360934311407688, 0.020817726317204854, 0.18804158550074274, 0.0102847298664289, 0.4855713396969914, 0.09065481919250676, -0.010690133315555449, -0.08774299214250561, 0.012592860443426012, 0.010853030388796273, -0.03394006682920769, 0.10286100809310653, 0.013703693369883061, -0.042431411249019176, -0.13884187959093994, 0.08699511409798073], [-0.001986960151019698, -0.1338114932090118, -0.24538868097835545, 0.44945780052789036, -0.02230438380727292, -0.2872664315886721, 0.10960240255535443, -0.19832088519816748, 0.2125919326516545, -0.014097582294725325, -0.2737621616540624, 0.23790433167838032, 0.06859402416599254, -0.3269272461313977, 0.1597514611146535, -0.008527732421763608], [0.2311381324610723, 0.08879651583811009, -0.008705812403752518, -0.30566051540925443, -0.1645918778592809, 0.05554055251339983, -0.14248841499930462, -0.46450533084730894, 0.059484171800196745, 0.04820639488775566, 0.07842350989734365, -0.11256810772757524, 0.09312235542988348, -0.1470909313349968, 0.08054994511909794, 0.06776145870219011], [-0.18983043473608155, 0.13388899342486424, -0.1257580787429202, 0.06711111390076505, -0.21653016686369864, -0.24744012564423085, -0.11011802334688066, 0.5270184206808755, 0.0003303550816683883, -0.05724082474208149, 0.06241518615693447, 0.07386862808025493, -0.09565385437427487, -0.1081082862863799, -0.1619225057974294, -0.09776254066204539], [-0.23768511606299922, 0.07829871704162612, 0.07021589440532779, 0.018635366264006237, 0.0006238641748119834, -0.09372566245384359, -0.11402283502446847, -0.11942070365718889, -0.18240958583730307, 0.019232452402106765, -0.34793507425863096, -0.2496763108263468, 0.3881561444576769, 0.08146104091353108, 0.4978049727616978, -0.2732999703730533], [-0.3616608307637866, 0.08920038952622483, -0.27771349576181714, 0.14597215249080717, 0.04302119108793311, -0.005378272987002711, 0.43239880452847, -0.3178040490782547, -0.10805729129270585, 0.010397593918220071, 0.2592359114807634, 0.31549966755095143, 0.22965170605873736, 0.24656466869235785, 0.011650163345127211, -0.16485312482627484], [0.2180102879396184, 0.13694671157316335, 0.09465853893699289, 0.006914350547705715, 0.11723630945408486, -0.06653936216592901, -0.06109622960882261, 0.02320494140857416, 0.20429501316262189, 0.23574842934110005, 0.2138141446901846, -0.3304709795092738, -0.4320380386298437, 0.12115592632709855, 0.2399253118369288, -0.07539626970810359], [-0.21487626553555728, -0.013517041404989888, -0.06305062094302957, -0.14920233443199188, 0.10139890941451465, -0.022065471904259754, 0.05164186441355902, 0.014936006061235102, 0.12286620872549889, 0.1350499217113895, 0.04545517465309526, 0.037221732200408815, -0.060389330104358326, 0.16595129249980486, 0.12006344196571782, -0.07101919918267136], [-0.0850456482012253, 0.13088192008700897, -0.12221468936730538, 0.017825714813855687, 0.07441273034926275, -0.06175147162527444, -0.22244197097024965, 0.4785095602019509, -0.29785979351413405, -0.3965445170431887, -0.1947622132796658, -0.09471158470506275, -0.11361610299371946, -0.200422298841763, -0.06830410933284588, 0.3439624569672327], [0.08807229290866178, 0.09239591257328456, -0.09873824258755684, 0.16870118284373528, -0.19423872393203126, 0.33395616867139205, 0.13347127485756152, -0.28576823048455346, -0.010348316463073177, 0.20044220515849967, -0.2720016683694559, 0.11297126082717845, 0.05407458648816248, 0.14503907322366563, -0.027990588805380575, -0.05808979739851787], [-0.1457732142647123, -0.09740392323451073, -0.3143405455177083, -0.03772638724989058, 0.46836137437091524, -0.2636411983255506, 0.09072810639544558, -0.2479799812233314, 0.14817828919080533, -0.013508789221203545, 0.2192581257389288, 0.026195130735183262, -0.15489094602997208, -0.17202928540099258, -0.22618996719347578, -0.1720905908031234], [0.12373165271827376, 0.35656275648713165, 0.26451796364153163, 0.07682312541846276, 0.14207406865496877, -0.2473163437410656, -0.14637659824701527, 0.19894552166462762, -0.12564554416054657, 0.005462849480835925, 0.22577749571471895, -0.03334364761357477, -0.011148733035187996, -0.08058875257638298, 0.1032156448640216, -0.03624037040113407], [-0.19545225507906783, 0.03897805665048009, 0.09459064327187554, 0.16141644939154468, -0.06948743402096079, -0.27084334840634994, 0.29508619504351435, 0.3840368596346166, -0.038689216826863417, -0.019766075544399075, -0.2427018632364373, 0.12313314278137566, 0.15383521075397538, -0.27641052573352476, -0.086946250034584, 0.0687297804377978], [-0.09937900999687574, 0.4013192672002389, -0.0889529710904597, -0.18257574033268198, -0.16714254826907352, -0.11272675334160871, 0.023493014625647287, -0.11451016565425634, 0.10652443301476915, 0.03704767047795197, -0.02257883809388263, 0.20791061849885017, -0.3113184902444773, 0.1938631031347168, -0.19718267738166273, -0.041216106393989496], [-0.01316093637830475, 0.10755248866268588, 0.3995704490753637, -0.019222281939083083, -0.2536257810078749, -0.04768999621726841, 0.2308243809536305, 0.08225087747194335, -0.23769586268451734, 0.1460485426069798, -0.28826776553049455, -0.08714100789814143, -0.28855828323136923, -0.08931547270330924, -0.13285712883981934, 0.16687350694390723], [0.4472193125485183, 0.05676466082937403, -0.11377935691594883, -0.018234074971592417, 0.08209529397946357, 0.025154475506551335, 0.12551017720562602, -0.23783100281836686, -0.03466288210921087, 0.045107322528797955, -0.21638684389675467, -0.0377911501705666, -0.21435290735380974, -0.5050174929267518, -0.12216218691165576, -0.15244999636407425], [0.29381824269695445, -0.04673650790479701, -0.08431221889979482, -0.09819371791887221, -0.32382034845699614, -0.2736334500908867, 0.22078479247063643, -0.06540016829943918, -0.17840673582597655, -0.1339541371386405, 0.09705760460505335, 0.047327098665145444, -0.012661715087579744, -0.025717075630150278, -0.3270385659298035, 0.08665754951085469], [-0.08237227171998875, -0.1279344077581651, 0.06550153379179849, -0.17307660867279062, -0.14627330541672665, -0.3100985611403117, 0.31965711291613846, 0.00382309998985358, 0.06636682813845644, 0.17380283602157598, -0.09691729476614908, 0.12201717143517567, 0.09919057192820203, -0.061590928331364016, 0.018711440000508263, -0.012400984970555988], [0.06894092734965573, 0.08026471542346034, 0.2000325789697405, 0.1595955993688656, 0.04497492506251822, -0.08969310460630292, 0.15348005851478747, -0.08403062777015095, -0.09586977298782706, -0.008924829828446534, -0.12073082933806387, -0.11848516245747061, 0.0037395392695675333, -0.03581879983190248, 0.18315852729022125, 0.28103536434466575], [-0.029629492332391177, 0.09564187729031319, 0.03233012986959817, -0.010355224415824678, 0.44396924296089263, -0.066397941497576, 0.035993177359765205, 0.03844827397489179, 0.07066323525906952, -0.008663890333221718, -0.24398290635491915, -0.06584033038163555, -0.0825482223256972, 0.08137734315649599, 0.064680738721787, 0.18433340950914165], [-0.3502670578394887, -0.003191093684005079, -0.3440905469238493, -0.2601347970720067, 0.216235302997592, -0.3459698918959352, -0.1964247189757678, 0.018088500150454215, 0.14875523836654492, -0.256574218253508, 0.1577196394441137, 0.04045137082618456, 0.1710967774397283, -0.03578365916622836, -0.060236549192236755, 0.06980085169443417], [-0.0673985491257643, -0.07128117377154451, 0.03348542634798564, -0.1305078615919871, -0.33213411248425617, -0.2583113515575311, -0.13075139591748638, 0.09591903906483853, -0.29256609998295685, 0.09013208979663953, -0.2120907959807345, -0.001356125009651116, -0.015674783329854582, 0.02042706983525283, -0.21508100620370718, -0.07786112455820786], [-0.4257711276704185, -0.14189131644449132, -0.15050100876977554, -0.4805569809943233, -0.14793790120607556, -0.11125657891426893, -0.16717555391515568, -0.07770240383133117, 0.14564613630635234, 0.06331215233390422, 0.03937963468957102, -0.14163703522143678, 0.07761554549142224, 0.0650023551817036, 0.17240528239880193, -0.3140204984288103], [0.1408766690431962, -0.09854940923604909, -0.1856807227448069, 0.27359385283580717, 0.24777891988053102, 0.12084734171042323, 0.04230391934420787, 0.057237988029684626, 0.14614617699657023, 0.11256878753635312, 0.04884387645157764, 0.1753624123402382, -0.13856914811210091, 0.01087242349521556, 0.10513927295371849, 0.025295728029237845], [-0.15817658121948594, -0.3348384299402837, 0.05536072032853961, -0.22097906797305264, -0.12418900567967538, 0.05003441412603343, 0.09125595201132436, 0.09507787520968759, 0.20243238629364257, -0.03556311844984799, 0.17766090820187772, 0.035500842147693785, 0.0509179076495962, 0.03392156429955175, -0.10076045394335006, -0.07182023897322089], [-0.26786707691499706, -0.37252549707866855, -0.044164412049530276, 0.2660531510472965, -0.14910609597064278, -0.25145829226625743, -0.2645055431952629, 0.08170653573034832, 4.300230939305235e-06, -0.15105004995333932, 0.3289687169955646, -0.14951331248958652, 0.03594117077978727, 0.13607909271955393, 0.3875701556525357, -0.00899822480840209], [-0.22360317578137218, 0.041718515424949164, 0.09556252106131465, 0.2120020473175582, -0.09644316247046927, 0.0347315374304502, -0.05735831722383338, 0.04340043409831072, 0.5312668804459939, -0.09018759619976592, -0.062278208514641574, 0.051499460278852174, 0.14611703817202185, -0.029642971893952746, 0.20392859674519068, -0.4674742225893509], [-0.060029859502034835, 0.03727460600466487, -0.13335777251162184, -0.07027466698164275, -0.09083896218399212, 0.27606540876194663, 0.0880397032670612, 0.12251595554612127, 0.23815103624286413, 0.017708376420391473, 0.24915855353526328, 0.33665348802267964, -0.09037602466213958, -0.30101337381285853, -0.18178847279012728, -0.10398758843046363], [0.12212182318487085, 0.050447950970929654, 0.21186984447830298, 0.0675454247062565, 0.1756383231426101, 0.009148061857069824, -0.24664135708572893, 0.06346797902134153, -0.030995014274394744, -0.2230443979000364, 0.01258721111289094, 0.12888864046494303, -0.33731065699906493, 0.4074418168868231, -0.10998398642289389, -0.08247594680710162], [0.20991824510176502, -0.40032687980736104, -0.19678564940691026, 0.022502045222351393, -0.04860402989086209, 0.11145334660672208, 0.11698378887891071, 0.07299286669464021, 0.2310047574831079, -0.049338000612157186, -0.17073699771946924, 0.13520586353799244, 0.4903670924953128, -0.13632062426500563, -0.12780556856478706, -0.010021953459350514], [0.06662967977821517, 0.1422447722656797, -0.17921946614195794, -0.23556239874105595, -0.161309300982283, -0.23809217617320813, 0.09248594542257708, -0.029314947708153224, -0.3712064854866383, 0.1773188428797719, -0.09843299929442038, 0.2803442259049813, -0.20254175085354048, -0.282679535654017, 0.007788261690754491, -0.11686244448301368], [-0.006246837205572534, -0.2987775895305683, -0.18041657045737908, 0.33679770152269195, 0.024198232703479802, -0.013331572897685705, -0.03806694608940915, -0.132833537142096, 0.08659150305054641, -0.3581245661830678, 0.03855201113771256, -0.08863813199629375, 0.022266851075991384, -0.042265504771761116, 0.17002293585073133, 0.11349395034384087], [0.06634051202507583, 0.2061408508997215, -0.10772979376663286, 0.08415655306881925, 0.02033969631942622, -0.22961986815090318, 0.030875684562494496, -0.08581422897056817, -0.03421227573408794, 0.2103293906728417, -0.12291128815253849, 0.09429082046419969, 0.08206163548971926, -0.21998054255955174, 0.21920267074455826, 0.09369273477476778], [0.01772258529641538, -0.37898611906198754, 0.2323657393132854, -0.07186714192845961, 0.15238504696640331, 0.2212484805790086, -0.29135096418799833, -0.2572572708174735, 0.1108090018480069, 0.13603558223139084, -0.2436340546860721, -0.2599272436724027, 0.21304836142870606, -0.07832630536006727, -0.10113816199223631, 0.11492731061631009], [-0.4447943258268906, -0.5184256359422618, 0.0705304024617737, -0.20035600746800658, -0.18902598544716806, -0.013587065449464874, -0.32922648877290656, -0.13620142579515243, -0.21108079039370323, -0.1392991939739357, -0.08532895448328708, -0.004218755156068074, 0.25787017598913564, 0.20038322130391253, 0.19461430346205472, 0.14488571925809968], [0.09093463452235608, 0.027520713909425853, 0.01960099767361593, 0.12232491078861393, -0.2844340495857543, 0.1291628093476268, 0.2042720480745568, 0.08507783780775204, 0.03454165932106669, -0.15985693274901316, 0.07295420992576934, -0.14460757651497608, 0.13831073354315043, 0.08234077785208475, -0.08111882907275554, 0.02749474386727294], [-0.0035105223221671422, -0.23804384143315457, -0.10268794154201773, -0.284930939108642, -0.14917373763906072, -0.09857449512506766, -0.011686343521063966, -0.142316954901379, 0.368384419747896, -0.34334733544612606, 0.021270144036275734, 0.26209794393958924, -0.08657284104270817, 0.25435973993237226, -0.16821356896284678, 0.3085461121768554], [-0.056579481592085215, -0.14775121970731211, -0.09931817342612925, -0.25916688570693114, -0.0017145521561126253, -0.3236545349913963, -0.13263041840979212, -0.23257617267225908, 0.2295492765363369, -0.3813434660483237, -0.027608696713928356, 0.217322107063075, 0.10697749286718321, 0.4011602181044939, 0.1642335725103432, 0.3503291096102461], [-0.22054886338546348, -0.22691675670372352, 0.14338148183773336, -0.3326575335956318, -0.21821124468821135, 0.03168297299300376, 0.10807056850837783, -0.21575504796502235, -0.2034627047693717, -0.03278626962702554, -0.47835479803086794, 0.10561684780375602, 0.25816987407071257, 0.05906649078032145, 0.13233195679952678, -0.16574698352632153]], "b2": [-0.15827601019768606, 0.0, -0.07478933312733124, -0.07699552144929317, 0.0, -0.05779151754549233, 0.09942139095796834, 0.0, 0.0, 0.0, 0.0, -0.0041600604461538015, 0.0, 0.0, 0.0, 0.0], "fitness": 0.5561224489795918, "wins": 545, "games_played": 980}