{"network_id": 28, "w1": [[-0.6398189983972936, 0.7087435043274644, 0.9018477287777616, 0.12988482778201654, 0.3015795882087986, 0.1988239520996421, 0.26549308133232735, 1.4274781823567124, -0.06727321898598729, -0.8009336170516188, 0.0489010593846535, -0.2920630425061066, 0.7212129056023213, 1.116863379282068, 0.360054766969677, 0.1932748321162525, 0.38737213907854984, 0.24145387285979927, -0.5232440076050477, 0.10782941435468174, 0.3281789994548203, -0.2032375389408579, 0.4807436951463523, -0.08436549199671636, -0.4836012256044262, 0.40446972728676134, -0.9021372842088402, 0.093203531964412, 0.13042531533855473, -0.12977352905052808, -0.8612879650157025, -0.0860729473350425, -0.05776036301390404, 0.29142055638632963, 0.738623517794624, 0.2011157060651433, 0.8220356473094843, -0.19388502504553504, 0.3774107260011191, -0.11986697649715491, 0.11709899047629213, 0.28738231638504325, -0.3666744950137918, 0.10028387969711086, 0.13809186471496165, 0.5849337062836553, -0.40405320980162734, 0.07529767698159721, 0.27477561812241075, 0.720510126937175, -0.7553175944635983, 0.51826999103174, -0.5315826882426055, -0.43903629049709253, 0.2586682129288354, -0.481345419538385, 0.07737115760595058, 0.14466042941987478, -0.5941111460630241, -0.6425483675416432, -0.5787244497265626, -0.01096986157067091, -0.2857794261121216, 0.6739814753471375], [-0.2329681316429819, 0.4246608174353359, 0.569047231773752, 0.7259503945254681, 0.1610745978951877, 0.7009565934297355, -0.42893489683593566, 0.16406147347958605, 0.23688338775923257, 0.3106543568116169, 0.10349083183716568, 0.026198820594254456, -0.37398999404653654, 0.37783017578315153, 0.007600486833809872, -0.7512162943650856, -0.6070810308965124, -0.22395680608861404, 0.20045242492777787, 0.8399835526526187, 0.10766540409635322, 0.07930621976349272, 0.0688630528734902, -0.8041611149808198, -0.5921296047324598, 0.1429258759069606, -0.21582694897616553, 0.37735659660755094, 0.01849604804822197, -0.04380140244951002, 0.2735171957959959, 1.1679813928003955, 0.2753915656750785, 0.14463086112492224, 0.16453626445732855, 0.24735379954892894, -0.14259122439877278, 0.8390674415342635, 0.2757899102114743, 1.0929192556258542, -0.2559557775034119, -0.5951654357977005, -0.23568144642050115, -0.22632242116885865, 0.04446068008155141, 0.0189159685588565, 0.15994490307548165, 0.3548471483950356, -0.3934110491581159, 0.5405352879742471, 0.4368430183813433, -0.056670826619403675, -0.1584334030975056, 0.3165357187468061, 0.41245725923573995, 0.21621589124974913, -1.0457812479704496, 0.007216521756944733, 0.019523460796072194, -0.5418964695416714, 0.47820581548379415, -0.35971568568296264, -0.5434998695413731, -0.3162408487684078], [0.006487708338175335, -1.7138305261135012, -0.43194030277802337, -0.21843037860020273, -0.8462858656416336, 0.5585421050735497, -0.3903262352960947, 1.2002801729510013, -0.21768797482767444, 0.0891774607196536, 0.43995494352925274, -0.573103913804303, -0.20826220492817882, 0.9009492788802562, -0.0885998947400741, -0.02453459705662837, -1.0286351376370753, 0.4155740299491729, 0.032712141691904534, 0.1828084042216347, -0.7574144891763455, 0.19511345548092807, 0.37315452966719576, 0.5923857567338515, 0.20390394857920724, -0.0021207032173163054, 0.34053995878408116, -0.255520779843088, 0.29635133539008823, 0.6734248333926554, 0.08860162452333313, -0.813480169685171, -1.0141950968003752, -0.48753301932984433, 0.5104006724781243, -0.7172089869310072, -0.32099308323929, 0.12336655678211259, 0.016513611243450736, 0.08260461504527303, 0.5086480423765679, 0.06255948774997441, -0.0035867641691510184, 0.8760995009635741, -0.6742677602113198, 0.4820564814540197, 0.40288765663663195, -0.056290543749618366, -0.3659084945429281, -0.2612972220959105, 0.029528280346934693, -0.516195592459196, 0.46298801560119834, 1.045529684613658, 0.04517648648198591, 0.2600065649043086, -0.5125901223654233, -0.04668477598044731, 0.4414173350671027, 0.39736229989541255, -0.29904777122389775, 0.01877275732130023, -0.2013413703275102, -0.32872984278540035], [0.24191095767408355, 0.41238580900800936, 0.5433139688018446, 0.13198584158622495, -0.19227725292672337, -1.0560269253019352, -1.0469509788723808, 0.12452412644590258, -0.27237532862901226, -0.3738287597100147, 0.45018850267801236, -0.35153098864873544, 0.7811575462484271, -0.03565481277750854, -0.052847717579984854, -1.210362144928055, 0.6694064201037683, 0.9077457430223081, 0.43396895169358746, 0.7153909213323725, -0.29220415431575975, 0.23462210511340392, -1.152616924746849, 0.8896447474695561, -0.001215313437058843, -0.038400493560444476, 0.7343291005177358, 0.42801112629573607, 0.7945912650249691, 0.15689614822541761, 0.4726857743880454, 0.528476537192466, -0.7623239218378275, 0.07522296119689215, -1.5805812593939934, 0.23930691063848405, 0.5934025562939863, 0.018351837179690758, -0.7792519410574804, 0.29494759394355213, 0.2947070639334292, -0.42610513043392984, 0.057904141221685884, 0.3902223961821195, -0.5929244626770354, -0.9045107229017052, 0.2918398408130258, -0.061812335761982994, -0.8718007114681938, -0.3447934645481958, 0.032330317761294136, 0.1785573956705101, 0.8041395669813157, -0.841547387582734, 0.03142036635719715, -0.24284842094064696, -0.7408365279050447, -0.023587278518965214, 0.0787124339717026, 0.01777882154588628, 0.3631687284853917, 0.36391963362675817, -0.0005813532949234673, -0.3415020230388577], [0.3828703437441676, 0.19072944717237386, -0.33210073185289896, 0.7337770650429147, -0.09020274177883715, 1.393957126370137, 0.41205167339469795, -0.21689209676536797, -0.5904302410617612, -1.0080747684218243, 0.33045102179823077, -0.6629759897450411, -0.08154174621293966, 0.34581485994121797, -0.6254066089488585, 0.12941566917489047, -0.6922920604143876, 0.9473073763195969, -0.7598769679719155, -0.6732416284956759, 0.19198341887902437, 0.04104416274271973, 0.05556070946402203, 0.010476559392050937, -0.16181540164773678, -0.09979461794979799, 0.18690358810789762, 0.3679216168597335, 0.9689427943350684, -0.1602879237139307, -0.5132869788062292, -0.5472352109955003, -0.8799018972788267, -0.1479392351986532, -0.29817008266595013, -0.5227159461689335, 0.44539743982016256, -0.07961648070540663, 0.9541077675861309, -0.21867299910615828, -0.2348036887984899, 0.3985219458212791, -0.12303563824178951, -0.2345423652203876, 0.626362303797531, 0.1458515056287432, -0.41372145333765986, -0.5714689872182837, 1.4615612935705324, 0.5607980203923992, 0.6249740338903047, 0.20140597252824133, -0.12565274619508335, 0.7450850643930558, 0.6107078342317573, -0.62711499853078, 0.712935856971225, 0.09461003920412464, 0.33311491389413317, -0.3596677400927032, 0.6861031440487761, 0.11139279324467484, 0.23150399205961153, 0.04722249945977136], [0.7070959636423881, 0.013130164691591728, 0.05918232780658711, -0.36941679971724567, 0.0718486535504573, -1.0885073498814124, 0.21146845329065547, -0.025710970276679818, -0.9324810201376231, 0.018721312257099353, -0.699522133781923, 0.011851865293278557, 0.38125193742005753, 0.27369209856679527, -0.00016354215933122505, -1.0173263920633597, -0.020403186863716637, -0.6894972993705144, -1.3517970030646573, 0.20362829121217357, -0.5578816240459663, 0.5910684717920669, 0.855604938612866, -0.5602952095424671, 0.07591723992463356, 0.3804731742521645, -0.9210074592908859, 0.5266697713484647, 0.6209057054695737, 0.09492894633876442, 0.29805785408086966, 0.16644046992935826, -0.380085338678308, -0.33668917546558663, 0.1878847574420929, 0.0991421064982382, 0.27032202428990026, -0.12052870635247888, 0.4373249527466132, -0.608432129201879, 0.26144585965144146, -0.21603141803455433, -0.40983299921994937, 0.36425984704947406, -0.2318205764937336, 0.2386292805645468, -0.24478540326966186, -0.7407265033286528, 0.7873689721803223, 0.28628747300069607, -0.17927662843836734, -0.4497912866345116, 0.6481478026726106, 0.35991566090007854, 1.4964899973197976, -0.3167334007005899, 0.5360860405730151, -0.08854264390282686, 0.15234361900839208, 0.6972793666618391, 0.15786537967701528, 0.6365611599911515, 0.02852789397890107, 0.08451155304227369], [-0.09785588945558327, 0.15521397988965613, 0.0767779771948216, -0.05517124065369236, -0.8869261203610836, -0.3084992785402133, 0.30597051201799125, 0.13671447795823527, -0.15393472642408193, -0.1702570624940863, 0.04369550864807936, -0.6212885970663037, 0.2548779103862378, -1.3711308882382844, -0.13583607283299753, -0.394288760332227, 0.7453093954988316, -0.5829362660402287, -0.536606242818481, 0.09501647648535128, 0.5388876820828241, 0.19063635308802448, -0.14299860625234206, -0.40227507135444074, 0.23206901075488798, -0.19928812444487767, -0.13659198556961785, -0.026519221033421886, 0.47752451226601833, 0.13941579400027906, -0.6867255996406234, 0.37560418789544553, 0.7608033043715193, 0.1536409928798289, -0.6351679475947283, -0.03844881854928367, -0.3914542603505827, 0.5718503887307631, -0.038505222567506533, -0.5428346740324311, -0.004857410423848546, -0.33216195197150755, -0.35873847033420597, -0.09657633091953177, -0.1467871096472937, -0.3388462282941037, -0.816888673354843, 0.3973886791764788, 0.27913889169263734, -0.5975609208025284, -0.7052248133818978, 0.3580314642484789, 0.912538647221076, 0.4035837107890835, -0.4983059864467405, 0.5045123703244163, 0.019866295805910456, -0.33919962016993876, -0.03755974324745459, -0.5970259401936163, -0.2499173790473414, 0.27957317116378055, -0.42041627160917294, 0.7190260764902678], [-0.5438019340571925, 0.7652345264207062, -0.08212298147885644, -0.3861554365807343, 0.9824314767963966, 0.6886233901665495, 0.17919770026323883, -0.3977143699821235, 0.14902796124746043, -0.7467413466182531, -0.27405339482029445, 0.715883936516255, 0.7362678163442191, -0.4869190587817862, -0.392597559303113, 0.006039703972695348, -0.8717503351649444, -0.14433884442534903, 0.2584174926617953, -0.10250434526790521, 0.34787264343167823, -0.2949014807043848, -0.37202347138190817, 0.2511670783511011, 0.3591897981297365, 0.3991436749567485, -0.09683849848939784, -0.8711732802597906, 0.2912435334614737, 0.2300567595567778, 0.960707759028655, -0.7785327988107736, 0.02487254427783816, 0.23859687969359444, -0.05571498292385807, -0.04259139900566922, -1.7184478520731887, -0.3246614045753979, 0.2679167590526046, 0.6419862924525972, 0.38530351993368045, -0.22923637992667684, 0.38618017197516696, -0.3095808814894023, 0.2307151259036151, 0.03189725603119925, 0.10607964535704, -0.4597366114044985, 0.43255839906570254, -1.3340405908982238, 0.6081539474368487, 0.14187209727746783, 0.7511077191008456, 0.2941947157842211, -0.7668874084811321, -0.03008317288054664, -0.19862197423145703, -0.6479059671924652, -0.019446759853873584, 0.704589034601823, -0.12241715273704425, 0.4001781886618528, -0.3726302886096566, 1.4687116453663005], [-0.4049538339492944, 0.36747701157518026, -0.5730722319228507, 0.0236749229813637, 0.18721920790156818, -0.696022548765437, 0.30036375585145897, 0.23309577971936934, 0.4703525217014391, -1.374045830309741, 0.40171278800026106, 0.11077089646458337, 0.4500809907314507, -0.8833929127827508, 0.6777963436023917, 0.02248229505902896, 0.359245642448372, -0.32299981744471384, -0.07763091719124662, 0.6530510004976058, 0.4335481759549311, -0.3484070312359431, 0.049981312063963446, 0.1375174734169619, 0.05305967295676081, -0.3528139741841676, 0.4718455686415858, 0.38983164352507016, 0.5782458947199002, 0.04270643423711891, -0.39426936670299917, 0.4736874713649565, -0.0589254147211042, 0.26892311617167325, 0.6806658376330503, 0.6351108413934571, -0.6502487124659363, -0.2677477224340622, -0.5315087165960343, 0.3846362772868636, -0.6120853811134919, -0.3299313851551766, 1.279511224625391, 0.26211499005404076, 0.19855269100789932, 0.21396754762373843, -0.220037893379155, 0.42944667957881055, -0.34716628632530394, 0.12281497167108797, -0.37456444953036927, 0.5691776092076397, 0.3690224815041393, 0.6735669412558413, 1.1704625849934467, 0.6973324035421428, -0.8146270362033159, 0.8320568075128715, -0.8253695202604591, 0.6585201607283586, -0.31011999076672314, -0.06663941047760255, 1.047854874880653, 0.4569961071799676], [-0.9171685330250792, -0.3853442189951395, 0.8128278481650024, -0.569544072057473, 0.38603275336125664, 0.5634773500849644, 0.2394903891253378, 0.4409787237214849, -0.19829373614300377, -1.0768106731257439, -0.5994016081910338, 0.13471832851495205, -0.12287982891284492, 0.4415751315351366, -0.30684216327405034, -1.058353008527365, 1.2744591726497443, 0.45603833852251574, -0.4930045234119327, -0.1309312838310118, 0.20178490552678843, 0.005349699972763124, -0.5148242564889977, 0.11316124407388234, 0.38914026965793613, -0.6703947567506483, 0.22261448398457764, 0.08722160706122804, -0.6968855766524793, -0.1545112399627248, -1.1894198943252177, 0.2895163219806953, 0.1787040291425408, -0.3258017984786862, 0.018581924341064295, -0.19100287793015147, -0.5462414649747965, 0.26391948267555104, 0.0009130381894036296, 0.7742659973306374, -0.0021103228739436375, 0.25695678635087466, -4.2769255482008606e-05, 0.022670535914917633, 0.21561062427915417, -0.061264036796409946, -0.18087182027191465, -0.2581530055501181, -0.4104664673569599, -0.38628302697805733, 0.18440828253593786, -0.003962122462632223, -0.6912335724220364, 0.43275713037423946, 0.2573780174567709, -0.7610453504232451, -0.5411180456788267, 0.35909238704724344, 0.22135054648884744, -0.31856738593383827, 0.6193292566929511, 0.6751117431013712, -0.50127723517413, 0.16991792732144362], [0.054701195175904826, -0.5732698242816842, -0.6944111298450497, 0.23602626126895104, -0.5991086340946181, 0.14481421246223114, -0.2889493564454761, 0.6764381760650795, 0.2298636052177595, 0.5140306972453627, -0.0727717344044737, 0.24654603191490437, -0.35946914383735773, -0.5069241943074039, -0.49895812048186566, -0.3596439910107648, 0.9897432034258511, 0.4241195200337985, 0.5306581515593355, 0.23662327560917953, -0.07281721224156754, 0.3679424851602697, 0.12062459402458531, -0.4166645050279424, 0.4188903409630464, 0.9001911525267428, 0.04086530933031683, 0.02191307201123488, 0.22556628350449076, -0.6365807672795533, 0.06676479527574805, 0.10622777048395465, -0.7105120601796655, -0.6486476624840407, -0.6057776799154793, -0.5580454419314587, -0.16851448420485346, 0.3572113154094781, -0.35415348717460227, -0.1828984375635157, 0.9041791801850968, -0.7144774457238154, 0.8864835016466666, 0.4897701992794851, 0.2891499431621065, 0.39391925457514, -0.2347377780631575, 0.1285709472413764, 0.20777702352206612, 0.6699903220224015, -0.8966900006302717, -0.059589102818539, 0.46737245784735526, 0.3574536715123043, 0.4356786234825263, -0.9703432018450038, 0.41329686218445927, 0.4848776856857592, -0.4000993633107002, -0.14035885891774413, 0.23791289899509172, 1.4045748579978672, -0.6517648435669473, -0.12427876984779802]], "b1": [0.0, -0.18020626922576224, 0.005405947913721704, -0.008560966900254994, -0.22588239449999137, -0.3961164910554159, 0.002262074782137356, -0.034396898734798044, -0.007904671069191987, 0.13051444529201017, 0.12792993664176153, -0.4900136348964322, 0.5832599399845472, 0.14090765337173303, 0.13759166015580634, 0.7726698920792165, 0.16412616994266205, 0.4643612334410368, 0.01996633148261192, -0.07054203396070251, -0.06512731831108842, -0.20450540566645287, -0.300773344257928, -0.5579208798940749, -0.12593943343344677, -0.39144072859417806, 0.07676647088367056, 0.023363305263849235, 0.013825019568193972, -0.1945329812683005, -0.14423499728003064, -0.17307501804310166, 0.2532029941626608, 0.44339035948123007, -0.12292017853384296, 0.19532865852352851, -0.4929928477206519, -0.17607623510833165, -0.07099526226767959, -0.20627770955033398, 0.0, 0.07135653208272529, -0.3653673442380089, -0.2678491375872391, -0.08503984599888008, -0.007351562676545714, -0.040661726129931686, 0.2590628517701771, 0.08099329176137127, 0.12434342282328023, -0.17161605696905932, 0.16289785978129628, 0.1604242928751102, -0.11556465376726965, 0.36698982932334984, 0.3399568055873833, 0.08782425358806518, -0.3782476404358599, -0.09370283992469482, -0.13802242441127488, 0.8124293139524594, -0.0060459268338177025, 0.0, -0.02854378468077385], "w2": [[0.19593121743380978, 0.3031173136867268, 0.201652118683713, 0.8463975248293587, 0.29418228006640146, -0.6394452567045259, -0.28868239872159124, 0.00038810474294384556, 0.7702268465828469, -0.6081713843320655, 0.11999209903951177, -0.13631030800628885, -0.2648014264052159, -0.14703271142337473, 0.6213038939923863, -0.5508543851682978], [0.09218921947327734, 0.40495574793592387, 0.2720121582262523, 0.18156642198123982, -0.3060186014527871, -0.09373252241955689, 0.5815827301896319, 0.43121622162657014, 0.059221900941977955, 0.3493555471075828, 0.02379200595809398, -0.13894982004179063, -0.07964191372507463, -0.279360581026175, -0.2148428204719368, -0.035104946386673955], [-0.3482475810057386, 0.01707032574288242, -0.034141564683233094, 0.3030718377154531, -0.2513628862167646, 0.3384077287139733, -0.18326644513550747, -0.16679957714801452, -0.04548924201053049, -0.13926321509903658, 0.8572306063854784, 0.11836040107790693, 0.5022205678824396, -0.36253148032530164, 0.07394321795289298, -0.35698733436144003], [-0.010609214426757316, 0.01612651414609706, 0.15513290603609495, 0.2940649729835998, 0.1585535105253667, 0.04480388866885633, -0.03271094309438624, 0.581215549639493, 0.2471530363711546, -0.0395802317193244, -0.20303663563401075, 0.07366823332410365, 0.01935546209611763, 0.15389713211367778, -0.3923170067584811, -0.36786168217150483], [-0.5555682684467055, 0.14368607170610986, 0.15570905120791706, -0.2482518623665165, -0.36271883664004445, 0.09153340256224773, -0.15213557405333888, 0.053935985368816025, 0.3407818861157373, 0.11704811972068653, -0.18733133864652016, -0.22702238688209894, -0.2714502561621598, -0.39277430201601277, -0.15795141881206062, 0.20130010864361805], [0.0037854654766730053, -0.24701388363367968, -0.41125952288383394, -0.07499923352299245, -0.0862703675372854, -0.19410936958378155, -0.32555492311755463, 0.08989062001175953, 0.23271585645464024, -0.14898145452288547, 0.4003532682067593, 0.2289854592300241, 0.05468219346179913, -0.26790437551314944, -0.5946196104267919, -0.7691637081895752], [-0.32065884067200273, 0.06050354511041438, -0.07506853066371795, 0.4186099799302535, 0.11116442953246472, -0.35033312515244863, -0.31289605841113705, 0.13466621206504556, -0.11083424630630052, 0.09739976955049338, 0.07744676957555757, 0.3890966939442103, -0.8179595476333514, -0.49587386647634224, -0.1917076495008584, 0.31575392816576386], [0.006647853935380171, -0.9876146341144398, 0.12194343471288582, -0.23608640723429491, -0.004006847680880943, 0.12911544240529227, -0.03848634574504973, -0.3078964954301553, 0.4080623801233334, 0.15651834787663688, 0.4957854274019227, 0.19192417818459193, -0.04653959839826842, 0.16816448819086122, 0.28745292923752386, -0.39005440513646683], [-0.005309172566300813, 0.30911939151114753, 0.3395869813067539, 0.37540794477596706, 0.4547351253982248, -0.27359507513115944, -0.2875710030102276, -0.15078446854715677, -0.41844524171658704, -0.4013530899741832, -0.08941226341800351, 0.0242292703770859, 0.5343301300233678, -0.3648674851725909, 0.11460811766161191, 0.22517648086260098], [-0.27859975007792703, -0.15335644359777564, 0.4409004629469852, 0.22518512354632128, -0.5067197512383941, 0.32920888635880385, 0.5704001981204484, 0.2588182126553733, 0.12557670251972242, -0.11983473673454054, 0.23701267787248329, 0.08282098843555594, -0.39828395168788117, -0.4344646276783666, 0.5272480420669208, -0.02577420401429853], [0.25040372473893024, 0.3114610152030358, -0.3320951100563357, -0.18211834101937502, 0.06285174812654691, -0.40604506362475257, 0.0750427979131008, 0.27976535666337266, -0.09621753340140762, -0.7649647094831163, -0.0444642278654547, 0.003934217406517004, 0.26784277219671704, 0.42547339971081044, 0.04449837044324756, -0.1553638326708297], [0.13926709139762616, -0.16092738686609848, 0.2877267544074866, -0.25572502181130785, -0.1599599545492198, 0.1756012838313086, 0.4611914798114731, -0.2106801922113114, -1.035165002173652, -0.26383190983504845, -0.38265550180253316, 0.21263248508998253, 0.22774530882154345, -0.19210878522745647, 0.07456706189394688, 0.37789254830142], [-0.4067551575948306, -0.17225086832901815, -0.012253620956843542, 0.05816286627206088, -0.22043615881031425, -0.1746743179705444, -0.2674133759712941, -0.5592337928809678, 0.061214060452130854, 0.2766466706553127, -0.3513951980577136, -0.2625127313153019, -0.3471459834709588, -0.4869833047573833, 0.11266772482791221, -0.05085290902382973], [-0.0025725998478640794, 0.1802828124091505, -0.0630401743714413, 0.6220989804309422, 0.19876119309440668, -0.2876603499295137, 0.42920001403611424, -0.10671236225708217, -0.0513583947266706, 0.32510363598397163, -0.44322970806969714, 0.5252065473982142, 0.4400061421213889, 0.2714828673387011, -0.2310995834070501, 0.6766544699577136], [0.3640444065053293, -0.40694891730559973, -0.3190037762019997, -0.18224346710747522, 0.19675741937174313, 0.018407932417661255, -0.3529387328049633, 0.1540896213407902, -0.013781022620611287, -0.16742289489154755, -0.18957782781242313, 0.36218863668348866, -0.08414459661174084, -0.11933531501618516, 0.23697765862046202, -0.1570317090715177], [0.027015159054337698, -0.10128311098820023, 0.06325154657086335, -0.46320413290916435, -0.17888090178959176, -0.11957999921797047, -0.34888045376218646, -0.3283731125559136, -0.09549066496113509, -0.07805952456341478, -0.038893953604006534, 0.3107804112750081, -0.06830809665350475, 0.11447873535485562, 0.3054206150626213, -0.08550624675992846], [0.2206328453997009, -0.11184526188525605, -0.35907231287206953, -0.6521868354418615, -0.12907576166936668, -0.522719174599392, 0.0214760906857156, -0.26833758002473884, -0.13627488885250744, -0.04266926228796264, 0.3271282585467904, 0.3669281074081395, 0.07169644189416735, -0.2148400042911356, 0.503643210207189, -0.7117444840817471], [-0.1586746144666078, 0.08679303740573965, 0.40701588046088716, -0.3130513431359821, 0.17595540834609694, -0.10032836051661098, 0.47446561327909026, 0.33319142839163857, -0.7432295061833691, 0.1925377330204776, -0.14733663300728975, -0.38272987812720305, 0.9702161805075502, 0.36733698796134207, -0.012566742932788633, 0.014605248183074182], [0.21043844805629358, 0.11427654372176706, 0.021506607091702823, 0.13084736117551443, 0.07866885855803313, 0.08392055913981408, 0.7491593956204999, -0.7122321399679277, 0.10030287135190812, -0.555595210804257, 0.09563890590235478, 0.22794889208281688, 0.23595562052982944, 0.38783006348409615, 0.4454270102319494, 0.42077540452429024], [0.06104670074439987, -0.1863466836065151, 0.39936221895546603, -0.6583510836279849, -0.05600638113423528, -0.09895630130847832, 0.06507222783393171, -0.2808661513211232, 0.9844283805673196, 0.044118456258915494, -0.1929775959388198, 0.049002563285046534, 0.09195882397555219, 0.033574429121481716, 0.5204828691933232, 0.2546651630740308], [-0.028714113646889226, -0.0199625635755293, -0.9477432697117519, 0.1986672168944967, 0.9409871175247164, -0.03619723484309982, -0.1956186127840627, 0.17753496855205197, -0.12298895214357043, 0.2781877438552894, -0.007672108858414892, 0.14424470701364586, 0.24130697977640164, -0.09902230761081725, -0.36677264566087675, -0.20076521017695348], [-0.002799331270343923, 0.7281772704745461, 0.0006325245080455733, -0.22483462148668162, 0.2801559638880449, 0.15384195329749628, -0.2825096369861608, -0.7974878362105796, -0.14342140477408982, 0.044398059474167514, -0.07652672474470407, -0.06731738142549581, -0.09995963412158759, 0.06471247564816635, 0.27878392041564415, 0.20854884530868312], [0.48899754378775406, 0.15787276258195312, -0.09307149316711942, -0.12384376047793916, 0.12318760352377206, 0.341044433998417, -0.017081887840002752, -0.2697770441854519, 0.003062231414539346, -0.26236769343361743, -0.13235012694454149, 0.00032308536981334735, 0.5084850605730904, -0.04975352456872434, 0.3556522103663412, 0.03396891078431534], [-0.031633074109563106, -0.13706059606896118, 0.16129038741253304, 0.4421989430041391, -0.16659589864833346, 0.051642031926091514, 0.12144686047846942, -0.17886754099949861, -0.0016778037334565475, 0.16980129260665144, 0.11410979615203311, -0.36705225176923323, -0.07813531074177019, -0.20442219525097188, 0.09904378493067485, 0.22128542309730095], [-0.28380923660278523, 0.4671760388310901, 0.11340466557197618, 0.2134901845155606, 0.05989747668612141, -0.2359789327051005, -0.07700805138193292, 0.12391588145364353, -0.4280564598551932, -0.03198844436858678, -0.05199692196590572, 0.6791993018382431, -0.15472245823015743, -0.17378244686505934, -0.36444689092855287, 0.5286710473458667], [0.5766256238004777, 0.020817726317204854, 0.18804158550074274, 0.06716931873509402, 0.21203040092062714, -0.272745944633745, 0.1362425341639671, -0.3984102534762453, -0.0671994558054817, -0.012555537691231324, 0.09514241446734162, -0.4576300722065233, -0.39751766325270477, -0.042431411249019176, -0.30246516656530753, -0.058588155541171014], [0.19300899590495946, 0.2604963632143092, -0.07415336709267231, 0.6557964416835816, -0.1496046308536182, -0.5814118014866695, 0.11238561696418772, 0.1504184585319455, 0.25964775855881894, -0.10748218768877973, -0.29273813104008584, 0.3940404496302148, 0.09882973917616639, -0.6169215249453082, 0.053633994267834134, -0.04424006146247139], [0.3581156055431365, -0.01665560232708771, 0.028512807028877166, 0.06083034038454341, -0.06829604281533705, 0.6069907601376802, -0.18673059168019523, -0.5512748147859087, -0.012141581458642886, -0.22162436698517188, 0.3804529624559234, 0.016885033650168954, 0.007514665621189437, 0.009619203241528151, 0.08054994511909794, 0.07178582345394224], [-0.2521941089488583, -0.04740959758845856, -0.10246756955036532, -0.272507026050957, -0.8314811761051157, -0.7916676065115227, -0.18602951474403726, -0.04546257669443654, -0.24233496673646415, -0.09081559044519132, -0.006143970897197912, -0.088533186036208, 0.6183924257284679, -0.1081082862863799, 0.00045817405673467815, -0.01865011377440412], [-0.3678589619348408, -0.11434647382714992, 0.0811787904387717, 0.09603256875014582, 0.11778625252206282, 0.25245455838882125, 0.06323962298854946, -0.7617015716951353, -0.09824876997645385, -0.019690091242052336, -0.1602594060678139, -0.21185842923177822, 0.3012417090532481, -0.5750575820567851, 0.03832194223009133, -0.2676429606090595], [-0.46923096905380884, -0.20334020776857348, -0.29308691096252837, -0.005135032408086632, 0.17534394941790776, 0.26641836110521827, 0.5325370879652501, -0.35467982798661474, -0.15176757600445995, 0.22120000299066128, 0.12359333509296178, 0.13498158224156237, 0.1814670945212855, -0.5814821928933251, 0.08351937167842037, -0.26806767460904185], [-0.19294782546587316, 0.02284650841208126, 0.24699966970009873, -0.20604635782467873, 0.5850625018120476, -0.1641419037081502, 0.08562417421996946, -0.016762710779114398, 0.36787603514085887, 0.23574842934110005, 0.21034810266043047, -0.32821468895761324, -0.3782181352486228, 0.17713535592311427, 0.2828566524587307, -0.02200948596932189], [-0.7849269831307586, -0.03747085270925929, 0.2940813209904513, 0.1297948854672759, 0.12837465457813013, -0.18149932069488484, -0.019160040150923374, 0.20672547095879298, 0.19159494285658416, 0.3757661162707504, 0.04545517465309526, -0.13070063990481504, -0.29680900152668005, -0.00027927792859439027, 0.11216749593808951, -0.07777831399467813], [-0.29102384598482217, 0.22933784394206652, -0.008074665092046698, 0.2710755673206139, 0.15937647903902077, -0.22315689105418082, -0.22244197097024965, 0.4785095602019509, -0.5387083395270907, -0.8344489457388492, -0.3398375918282457, -0.10371628377118465, -0.4989795647423614, -0.46587314840187916, -0.10179423142354335, 0.13123052734198537], [0.18953685147390442, 0.13114202088198446, -0.3006109050595953, 0.5485095772439035, -0.12833448580739149, -0.008070735011467378, -0.08781995814407031, -0.4604826869341866, 0.1251628848370796, -0.09395196362479358, -0.5648798145060623, 0.09973697450164079, -0.10821194554538931, 0.14503907322366563, -0.03050935630014737, -0.10386951875895034], [-0.15477557294708302, -0.021515195824142887, -0.4697307890400284, -0.039678899004033014, 0.8736862293994667, -0.39790278803014245, 0.06832827934607709, -0.34433640187588865, 0.053724373490116425, -0.013508789221203545, -0.2262140741701142, -0.0791977591065896, 0.0673274238523731, -0.1612487972143572, -1.0543867045982045, -0.06910217506784921], [0.5529994735808273, 0.260470892481747, 0.3025398237253911, 0.09849744650688197, 0.1932273227306748, -0.10836232055058606, -0.29608293811023956, 0.19894552166462762, 0.40040443451216684, -0.0750795040808804, 0.25256045812537686, 0.05091613252247434, -0.1232664456397252, 0.286866645918169, -0.23435968198759574, 0.13100287817518164], [0.04762344043366429, -0.35827400926833974, 0.22031320392180465, 0.1182160441192991, 0.19483410414663183, -0.27084334840634994, 0.8607931848923482, 0.3007025371640856, 0.12804479825310788, -0.3903555968823274, 0.1933322593522499, 0.216203400439203, 0.20733971487365527, -0.32780159989605556, -0.12322441832526275, -0.3265074401684985], [-0.9223725176116151, 0.3695617300733186, -0.5530157807973679, -0.18478588102251287, -0.6297719641932169, -0.097540325464112, 0.006406414209473833, 0.034398384378900096, -0.10271895154395112, 0.199067332516625, -0.24699135739399825, 0.1579247527796077, -0.3113184902444773, 0.19664785199137702, 0.31890626893654345, 0.25134232281771896], [0.4905017192849179, -0.07725377910950952, 0.07678083184844778, -0.13631597598782635, -0.4190458025479294, 0.15839146216115205, 0.09508930650031944, 0.08225087747194335, -0.21459720717350658, 0.1460485426069798, -0.7267876264509749, -0.1809159818347113, -0.1383306791391207, -0.5118961974214737, -0.13285712883981934, 0.11519508122032165], [0.5656928851368377, 0.27214062689291063, 0.19737201837770657, -0.027316458718246867, -0.04723936074521673, 0.30423677547404904, 0.005508784014552862, -0.23783100281836686, -0.23705950251101401, 0.045107322528797955, -0.26445297754451874, -0.0377911501705666, 0.35044622936512687, -0.6507152943884085, -0.12216218691165576, -0.7175377636928943], [0.425852294017008, 0.022989901295715154, 0.7965489698157463, -0.055403535962248035, -0.32382034845699614, -0.22174063113483952, -0.041862367717026505, 0.0820135844241448, 0.20891481106385607, -0.4607450316555923, 0.09705760460505335, 0.047327098665145444, 0.16169258478806653, -0.6017493617119656, -0.7502372646682666, 0.3432480830893958], [0.06233860477290741, -0.6755820679936115, 0.3666802263956732, -0.23658064168374937, -0.19872419389948442, -0.708284631113745, 0.943157520355564, -0.09511555158829427, 0.28514613033322433, 0.6496863078540042, -0.09026941542771698, 0.6487145801616261, 0.440761723979418, -0.03792000038016082, 0.20071300198893718, 0.2119785532013949], [0.6668361561876354, 0.42289018523480026, 0.3031430422573308, 0.1595955993688656, -0.5430136436331457, -0.08078776592251488, 0.20816182436543357, 0.05205418373131483, 0.2920052020793234, 0.1710563962779625, 0.23665078793554856, -0.1912021473224102, 0.30508839997489484, -0.11527420890051321, 0.2046416236767653, 0.014044503877906761], [-0.4422390046517297, 0.09564187729031319, 0.2810421401959187, 0.05944021652082515, 0.11754949464969372, 0.07286613514515178, -0.3760085434643353, 0.13180704949407285, 0.009989786575854566, -0.5147070568775324, -0.31379169085104497, 0.0628431671847008, 0.45173308653737254, 0.08137734315649599, -0.22798740007778784, 0.10929191095245766], [-0.3731318231521259, -0.003191093684005079, -0.15181910856492598, -0.3241459906974545, 0.3553689521824876, -0.7709586935477745, -0.12355828153077514, -0.12316519211979224, -0.27330410168973657, -0.4152109787912096, 0.3028653951664371, -0.07469789251159764, -0.4323043064167542, 0.032136368439893995, 0.5527309156634829, 0.1012924330115126], [0.19271541826686886, 0.11027693446348194, 0.3731047913885185, -0.6556424036963386, -0.35904160974277466, -0.3174511407316462, -0.42173193778331663, 0.17239875477496663, -1.174195158810221, 0.07828133465568456, -0.21965230000481167, -0.2992649986991051, -0.02701240664968155, 0.06269092788737424, 0.1666415063855789, 0.13024114943947276], [0.08637078442727991, 0.007131590595072276, -0.015610708508134535, -0.3767729576494145, 0.1768247384351589, -0.24457782269063139, -0.16717555391515568, 0.29157990377002685, 0.23236765388478842, 0.1615075917459648, 0.07249425175443738, -0.1747471713916598, 0.07761554549142224, 0.0650023551817036, -0.087196198674306, -0.29423846631055667], [-0.33107421989820596, 0.09546050477708944, -0.012787193830411214, 0.26932604758427686, 0.21379012022681654, 0.09196416762056327, 0.3735352601032576, -0.15789333319052853, -0.0010399760823361914, 0.2559566683933165, -0.6110738774541664, 1.0846719720187343, -0.40695658588327577, 0.05088440328539856, -0.25269810307068946, -0.061815893221629836], [-0.2651473571771732, -0.5153830684147916, -0.2947829196896194, -0.22097906797305264, 0.10391519063507268, -0.6351469801767069, 0.025393223895832553, 0.5825789291435283, 0.4269469763905648, -0.03556311844984799, 0.20101891652029055, 0.1872403249986487, 0.36536447432615654, -0.49880477444509985, -0.14042542900380411, -0.19398359963486705], [-0.2592205579286719, -0.4807727427159846, -0.11430591803062509, 0.7097168197855881, -0.20743352058509282, 0.15971773780905724, -0.3786723392873333, -0.1767083332895707, 0.0679317429324857, -0.3797492972106849, 0.13937211698623156, -0.6548953805448614, 0.03594117077978727, -0.009333217123452975, -0.04036497740118968, -0.18787921333669394], [0.27490715393967274, 0.041718515424949164, -0.21883829564780566, 0.060628732394593765, -0.07448073791086124, -0.125742683963843, -0.1374884229566501, 0.04340043409831072, 0.21397278728714847, -0.07390721313168672, -0.39052601739904685, 0.14091555732093142, 0.022801058290322473, -0.029642971893952746, 0.47720483588914564, -0.6690612777573436], [-0.4642442463407263, -0.20221834964232283, -0.13335777251162184, -0.2883429250884708, -0.07547893946477094, 0.2953485730585661, 0.0880397032670612, 0.05736791248969508, 0.23815103624286413, 0.28145568437020724, -0.47997929052303456, 0.33665348802267964, -0.09037602466213958, 0.024076450406812028, -0.262428137693601, -0.3157360715285276], [-0.21480201895603313, 0.14230998000965517, 0.21186984447830298, -0.47085591459663495, 0.1756383231426101, -0.07475207815681298, -0.12338919652730976, -0.11268509739030959, -0.06040232243784818, 0.2658386169979486, 0.01258721111289094, 0.5381278955183455, -0.7371945023901932, 0.3690609948713085, -0.09566945664561241, 0.15732024083376228], [0.5980904152514452, -0.40706682793282667, -0.24335136400416182, 0.022502045222351393, -0.2274308116008799, -0.09809279178376347, 0.2676226363894433, -0.4227577198657364, 0.400810498953027, -0.044759401873644106, 0.05409524579387267, 0.3958840024229556, 0.294531804042085, -0.13632062426500563, -0.2148373510368825, -0.23102832533922094], [0.3578350560383378, -0.07932526760857556, -0.17921946614195794, -0.23556239874105595, -0.6954091982657842, -0.07327142656729951, -0.04919335171731508, -0.029314947708153224, -0.22751324755868552, 0.07890404330692169, -0.36459795076803286, 0.2803442259049813, -0.48187811644735584, -0.3285576200022632, 0.025747687870237956, -0.2981414568730162], [0.4010488686397397, -0.3951181871160386, -0.1824995370989948, 0.35773574027413824, 0.21610347023687815, 0.26287236039768896, 0.1550061707273786, -0.012230610565127503, 0.2611706578637999, -0.6951314549430212, 0.013395044644555258, -0.016522499127662387, 0.022266851075991384, 0.10620171820818605, 0.17002293585073133, 0.1998024301763909], [0.26429085520979745, -0.3121413919874058, -0.19016200832920163, 0.38556133586240554, 0.18253199820937674, -0.5063592331391322, 0.1414533933974328, -0.13371300943227485, -0.12142741987629922, 0.2134536655156284, -0.275238925161421, 0.6751879604825374, -0.0786843992261565, 0.3473840274531105, -0.011825134063827347, 0.262025602533648], [0.15751626413647946, -0.005872388098206088, -0.003501947127757088, -0.039255784756861124, -0.05673833119895122, 0.2336023956444245, -0.07214290086249676, -0.1916799743110728, -0.5753842898865552, 0.41194097466824153, -0.7911774556854868, -0.0004551384606618081, 0.14763498323265423, 0.1381795813902253, 0.022850783443793654, -0.014292229408349288], [-0.5758814187869937, -1.0281290534113197, -0.1875237397807948, -0.13941268942613913, 0.16809948181779247, -0.013587065449464874, -0.26287269076034797, -0.12467031138286963, -0.012933747906826623, -0.24237369261913805, 0.007579296606442069, 0.08962835549738951, 0.19821435393153392, 0.20038322130391253, -0.11307747231858264, 0.43528916048809396], [0.03142949124730568, 0.18451361832940197, 0.11736991395105827, -0.6803570574612458, -0.13740040585273453, -0.21322417539146105, 0.07292974169620797, -0.1533965468311467, -0.05339779697162955, -0.8832754676866535, 0.07983043578535297, 0.029667224866598424, 0.23330804827253138, -0.29796226638393053, 0.19161556281125275, -0.21087108408318608], [-0.45525398278041923, -0.43630568226480315, -0.36418746104811583, -0.2012687553197901, -0.12399336325792792, -0.1900488866386999, 0.21031041636070508, 0.0030794326909554803, 0.368384419747896, -0.04852493119325475, 0.021270144036275734, 0.025233208995342732, -0.08657284104270817, 0.23054663126817113, -0.5035551790707805, 0.3614919573954718], [-0.0462448615976325, -0.08757503793606489, -0.06959938402884203, -0.9241201875235331, 0.1953347735759367, -0.15429025244784325, -0.2663408298201794, -0.16375286383436438, -0.2845126106838645, -0.3813434660483237, -0.061753567819988864, -0.11189840995161723, 0.08327146187139425, 0.27360800556472165, 0.36266709422059634, 0.819454150765671], [-0.5318032258408298, -0.06046543714285621, 0.49222595973981825, -0.9490251712674092, 0.3980681915449925, 0.25385516135175407, 0.3209664184235983, -0.23791276773921255, -0.09627108693086299, -0.2915101708709062, -0.4390141660943883, -0.013427477135437307, 0.25816987407071257, 0.4654414463981911, 0.02058088698330089, -0.19232953408148887]], "b2": [-0.07682109661674699, -0.4055749076488475, 0.04549268239607717, -0.01954822839796077, 0.4862913115719113, -0.5641908105967833, 0.09942139095796834, -0.12039798843253408, -0.23731605786552, 0.07665513246700972, -0.15477708649277408, 0.754326043152441, 0.026365834339970765, 0.055191989407571085, 0.0, 0.05020019387066121], "fitness": 0.6724489795918367, "wins": 659, "games_played": 980}