{"network_id": 28, "w1": [[-0.43611520458341296, 0.12702199524378516, 0.048124977898137924, 0.8604451942546307, 0.26026231071645256, 0.3074788447839382, -0.7734837517184158, 0.6945563993135984, 0.01774322341497469, -1.5615366850106256, -0.1544245028665221, -0.1708514786615395, 0.5689057347403033, 1.0449208401722223, 0.2811465424609167, -0.6396393300508388, -0.6981629495118747, 0.9930139283236699, 0.19809163245187061, -0.691889178420754, -0.15117886464149743, -0.3679916768404773, 0.9500454322853156, 0.17007686964898694, 0.18124955236687376, 0.5720990396111737, -1.3716704777723612, -0.7055578570044232, 1.0058891037443745, -0.5800319280865858, 0.3176252068069082, -0.8728644649213371, 1.2625752640746895, 0.13556617055056375, 1.833290014752432, -0.5335512184425192, 0.655128287575639, 0.5236572221650149, 0.23430500151985809, -0.8438838145032482, 0.5095118975250224, -0.6980588598622177, -0.586029992025221, 0.4195040005240957, -1.190859638100448, 0.662112138308542, -0.13736356349012116, -1.7354421956606303, 0.5303740159881907, 0.22575680032369688, -1.5694631555160614, -1.1144549237567896, -0.4339131880815364, 0.5959360918580789, 2.2789742375438165, 0.08161172921220944, 1.7195646199256998, -0.6394882591242413, -1.434155094717642, 0.029345685002759414, -0.4719621633198362, -1.5811563288160293, -0.10413107875817512, 0.17175247138261213], [-1.2506470052337442, -0.780392435576895, -0.4233687459480682, 0.7181455728744841, 0.1392721198182165, 0.794965953560884, -0.44846603705893173, 1.197012525594991, 0.800690363422586, -0.006562335994565696, -0.09067395778731391, -0.23265903104523172, -1.0837869701921425, -0.09351484579888694, 0.6199583425244486, -1.2445181786613804, -0.8719200117089165, 0.6295400005776197, -0.38467943547499467, 0.01241596587613919, -0.12620584503052606, -0.4795624063165277, -0.0924857092857656, -0.9518738527592432, -1.342993992223532, 1.4465012903444647, 0.2973707704093833, 1.339587684928611, 0.17978684815885052, -0.7255218075858515, -0.7242144232271507, 0.9093870812970315, -0.4126471623235134, -0.4170767298747833, 2.2182272301714026, 1.2787450564334155, -0.7634056648602874, 1.5782051213980832, -0.33081022378900654, 0.6843893272402197, -1.628829548997189, -0.9672036588091599, 0.393654150989068, -1.1721923982716507, 0.13848830452904112, -0.9402032931727347, 0.49731913186170806, 1.6258998480028486, -0.38017150851923504, -0.6440535214498694, 0.14746552264429647, 0.01981105254595142, -0.21146579929968334, -0.9667573827819307, -1.262519827962458, 1.024095640785255, -0.7144448581458365, -1.9352477392325946, 0.7580661455969412, 0.06312064842876686, -0.567712782738356, 0.33898241160834386, -0.047069454297528124, 1.9274585849420918], [1.4415477210645173, -1.2202375358395205, -0.28955408680055517, 0.6046609353275944, -1.0198407227831812, 0.1992501211263943, 0.38675737228317647, -0.4381644869500459, 0.7040868332814245, 0.8014359732957156, 0.971824627600504, -0.30592239007239597, 0.5770327909627055, 1.8843136436122112, -0.9825629301994747, -0.6034841803753509, -0.130431556225406, 0.9783763719355754, 0.8420516474392077, 0.9745751485449672, -0.34802741882247346, 0.2346572219411166, -0.2638230030941351, -0.4375935249192402, -0.37682814300820977, -0.6962535756653453, 0.34565477874506173, 0.7957043396232263, 0.13611334552715815, 1.995819649111283, 0.7117986665234681, -0.047205604429071485, -0.9760275131950783, -0.585368718354339, 0.7149154998727225, -0.558951016495089, -0.21291116131448667, -0.02017798316461542, -0.549804942694095, 1.0640543719905633, 1.0380279120703384, 0.35111732421267977, 0.5093813549306663, 1.4544093850815374, -0.7482137041041582, 0.9040867675481119, 0.7987907343085245, 1.102955669372537, 0.8711677586845892, -0.19577071801018664, -1.7561944468505337, -1.1378038499795284, 2.9006877503891717, 1.5280923637621702, 0.5135558653398085, -0.6296512374913966, -0.7387984658912135, -0.6276021708192078, -0.6244147095698994, 0.3591248527720359, -0.903768095197497, 0.8126233348872514, -0.8042448866779746, -1.1516826541966643], [1.256173709198305, 2.0638015664506866, -0.17180831441489244, 1.8141131832275585, -0.36347892121373976, -0.5048646544234083, -0.9030047444682342, 1.5376762843445544, -1.6483928458576114, -1.9851678750921773, 0.6662987781408205, 1.1673073667906875, 1.0431868371762982, -0.5009943127006917, -0.26743303893064874, -2.115131196345456, 0.08609610379843062, 0.24207816977956942, 0.03662790535928678, -0.6325304692090836, -0.14013568852606884, -0.045808648062197144, -0.18093472190644444, 2.942420291168642, 0.7969512318259957, 0.291245360185718, 1.6439080737786271, 0.4031279240239698, 1.417614066345583, -0.8257294150964876, -0.13611785304107307, 0.22582861232538343, 0.45109049800256296, 0.3619671946402373, -2.350449766978021, 0.6755872211030741, -0.34007588531946387, 0.5397775755524868, -1.393294295622681, 0.5996701844731774, -0.3510307072445252, -0.4626486198237111, 0.26449115593323974, -0.659860251187877, -0.41698026409935124, -1.0471258678627067, 0.7742828708024562, -0.0833625932689906, -0.5315431381759009, -0.18900710519941633, 0.16195753763020615, -0.3629506281417584, -0.26079269788632264, -1.118857672780224, -0.16298801033959492, -1.2652403261882674, -0.25712184000919297, -0.4495149223723596, -0.1439362118876882, 0.5038579762175076, 1.039222470914822, -0.13369187680696065, -0.7311787654772853, 0.9061973936195437], [0.518110089773915, -0.3477534576933326, 0.4577700071332888, -1.1952401046525298, -0.10292163458143426, 0.5714517754115934, 0.8908863653288024, -1.742188777025886, -0.8043222973406254, -1.6996214462249504, -0.973003255176731, -0.9965706272052235, -0.5701884365826535, -1.680657851010868, -1.1406406614038107, 1.60446233654397, -1.2915740106289866, 0.11764467228532949, -1.1841396400260413, 1.0993282603484926, 0.29678218719453, -0.7363879838771166, 1.5756237365423902, 1.0515888557712763, -0.17394420871676924, -0.18014431696727395, 0.16979367701762568, 0.058317522922903736, 1.5364754569597188, 0.4174421137648696, 1.1007720990996874, 0.3666683782767114, -1.5558718824007673, 0.07023057520206179, -0.5779071939046434, 0.4280334105505049, 0.11832301371993137, 1.22967910060838, 0.9691452341800524, -0.20895769509390288, -0.26860769526344824, 0.45242393206795944, 0.09727531753208236, -0.723325242811062, 0.7158517448932007, -0.8869220257433271, 0.7770637759151487, 2.210366027608066, 0.8772867605138772, 0.20775165805606896, 0.5712631373058915, -0.16953103971255867, 1.4399764575754808, 1.2996540446336, -1.3493167840552194, -0.2828189749135237, -0.22687619021429697, 0.2530390669512433, 0.09462741401413813, -0.9215743755786487, 1.571116075523294, 1.47748241590209, 1.0301423801057374, 0.657115122453226], [0.6280467591027116, 1.92658682823774, 0.12732929108225244, 0.5218730383268895, -0.6041289881522381, -1.368440193794958, -1.3333781240546823, 0.38198310085936765, -0.9916370619122681, -0.12788029810520646, -0.22821270603317373, -0.13015248582038141, -0.6406393628231712, -0.5941863839115527, 0.4763529456729412, -0.23989059342428032, 0.26880311571210724, -0.8567081274605587, -1.1673615166161835, -0.4137538511382232, -0.19809270368188817, -0.9623559172631346, 0.8169208412269113, -0.6756954369379654, -0.21974656434442208, 0.5089782043805392, -1.6544661332253447, 0.5510408122550958, 0.3191533716421704, -0.05473803999792254, 0.9988680421688396, 0.5972505904015813, -2.6134337163494474, -0.5352159774318741, -1.1129493705620837, 1.0083597758545233, -1.0063763267696202, 0.3432958691485502, 0.20210697436258931, -0.4524038353611568, 0.9072509773996136, -0.3324686942658944, -0.5827243430681024, 0.5919795680224232, 0.9946784913580073, 0.126102379621955, -0.45704450036950073, 0.361767189222191, -0.15508279266583408, 0.446210287448086, -0.2737965445389511, -0.982630291499947, 1.4694699345881337, 0.47745960387295383, 1.4015570345352677, -0.4262238048882502, 0.3822341921273402, 0.5035642567982037, 0.06636834328712596, 0.5635006094249845, -0.8752847261677035, 0.41083469141230067, 0.2930770675685027, 0.15381556136793906], [-0.6613142657733434, -0.4639701329546871, 0.4073536076529348, 1.2761522119017437, -0.5601273485159753, -1.6489389752986234, -0.10567673976470213, 0.3799221177023194, -0.4773313052368931, -1.373318402468482, -0.3236455921575722, -1.1623375852543452, 0.6635271571091997, -1.6612166083744593, -0.16296582020610467, -0.4993452806952998, 0.40599483689102805, -0.8121160887189205, -0.7951724641690802, 1.0162115490588985, 0.32310343298574534, -0.604640144224255, -0.49177669736832363, -0.20242022192696077, -0.06936901140157437, -1.3894196471686149, -0.9914126067258928, 1.290463173389568, 1.0977722201908873, -0.6325419737731861, -1.4828784282809913, -0.24103477445476998, 0.5174770038272164, -1.0677658157301553, -1.372607473157946, -0.1425432040649833, -2.5040872587633096, -0.762307246282774, -0.3617643488039226, -1.7959594654074218, -0.3979884227289758, 0.9272969298457682, 0.24043789129687998, 0.13439194176602745, 0.4024072945606717, -0.7515785442790897, 0.24275865516184394, 1.9634283752883408, -0.3384129258713032, -0.027150862571651602, -0.1826067875576982, -0.3033674089111014, 1.0784771593465226, 0.03175337469605542, -0.6752205429607929, -0.6392520418753727, 1.2729860061613916, -0.6297577129031388, 0.48827215546156405, -2.153039984441374, -0.1298401414646415, 0.8764142037398137, 0.07143070318658606, 0.8525433918845692], [-0.6688504350048962, 0.5205814897895538, -0.5240480036795251, -0.19276739106574203, 0.6928016041430286, 1.161815587830033, 0.5810162224863704, -0.1907819840642223, 0.11353198106357536, 0.36073344393230833, -0.3820363681784179, 2.549883739731064, -0.07222702258958441, -0.9580632889484247, -0.7966193349860322, -0.4901297813249759, -0.6178093734414747, -0.6323850726703366, 0.5489423182792397, -0.32756603686830305, 1.0241761781006944, -0.3214272312075135, 0.07156213265843858, 0.9142481609218469, -0.5551523184946002, 2.339751181808919, -0.4497150984920365, -0.9011182951944205, -0.4020946675096866, 0.06860639464462655, 1.6087600893330043, -0.9661175527127521, 0.02121330319638426, 0.8156184244835172, 1.0916264820280572, 0.10323666084326116, -0.8351103288672069, 0.613040548740142, -0.0050832957854126115, 0.9861098597501237, -1.2057163021648267, -0.5793932196940621, 0.780445911221118, -1.0811329406619847, -0.7634179043722973, 0.42314964308819164, 0.7742469639347295, -0.39670233064335425, 2.2077349835857047, -1.5378534105642179, 1.136173245783568, -0.0027876748960862924, 1.1630060994962081, 0.7613770044129176, -0.5965898490470226, -0.49627313115191696, -0.6213876593899597, -1.0865418417580242, 1.0967161329060646, 2.6834570039104273, -0.4596268123425796, -0.40585897835834694, -0.09578542906761123, 1.7807098796452039], [-0.7009575417304628, -0.08577733803611931, -0.22477980046903812, 0.4894376488395666, -0.9733762358785474, -0.6551118953215903, -0.28432119076397444, 1.004920770596453, 0.44958002206843356, -0.8365839341915335, 0.1325437805434896, 1.13202522930508, -0.1706288332262256, -0.9392555209220597, 0.8485983072170847, 0.38577317546604084, 0.4360954396867811, -1.1639155134973052, 0.5774551233717876, 0.8213820004276181, 1.8991309990101901, -1.4258308217901992, -0.5169852138984454, -0.2899470569757889, -0.1802713119918934, -0.3674444392295362, 0.9847484292843289, 0.4135773634956089, -0.6865807636229462, 0.08077633579601656, 0.6915894538641109, 0.7745877495995179, 0.34696304324884897, -0.13083851969316315, -0.06372582093614274, 1.3337341053174012, -0.4540268005479972, -0.29020519001967926, 0.008603708971673535, -0.029687322151781242, 1.1138331456502144, -0.6650493102662567, 1.8565904018611004, -0.8668222854612457, 0.4396712583041116, -0.18456278780380983, -0.2679757912540245, 0.8721869662370664, 0.9318759076156728, 0.9874880646683454, 1.2386965795154414, 1.5449306730823937, 1.2262227343457348, -0.10994124890546425, 2.2381119834596497, 0.3466634937373769, -0.4374762377449795, 0.7791570390574114, -1.135953244725213, 0.4709267575354744, -0.44589852320300005, -0.0855593089072973, 1.0789390843437272, -0.5549428116717472], [-0.6457099583731047, 0.301142163161779, 1.3184146931641056, -0.045250555875672296, 0.9855842215934805, 0.17295703357991304, 0.8006885806783361, 0.094880311957867, 0.5565770168447417, -0.40943633882055697, -0.8898786236951701, -0.6479764954248719, -1.2730368879548597, 1.147438816262249, 0.7985466172762958, -2.2986427791922446, 0.5365417126327711, 0.25541539263949165, -1.4879428817566835, -0.9074074907372076, 0.9273567667751559, -0.021792452808109125, 0.5628293728601041, -0.8910116025926719, -0.05595480454592856, 2.8042247512774243, 0.17613248399974635, -0.005233966419704278, -0.7327659815326762, 0.1656752434540344, -1.5126853509660487, 0.157797490306734, 0.2635522557922151, 0.7939566657924114, -1.015520458457431, 0.9078381325781213, -0.0482169380741522, -0.33573331838297193, -0.397865999334831, 1.341589411277871, 0.6898713264985306, 3.173747677059003, -1.487957398696298, 1.3092290057585356, 0.02158546300164105, -0.10859395628148105, -2.0711906981913244, 0.04208606306793558, 0.40050377380534563, 0.6479861589293546, 0.42135273928787303, -0.8936020941758042, 1.5579842219092055, -0.7989303239422426, -0.5713825099360049, -0.4719816207028176, -0.13250321042096952, 0.7364929279762801, -0.9444408397152106, -1.2022370515533027, -0.5475039810696604, 0.11124420823384279, -2.0783618609029038, -0.4043011774034445], [0.6505374654035243, -0.6780027305213996, -0.31349098491412286, 1.5987619150324814, -0.048470098289421, -0.030952091327154825, 0.5891734743489584, 1.8926046953607976, -1.3311507519629895, 0.9846071500651052, -0.009235831248484549, 0.6338854710189195, -0.2601091277175679, 0.7454899699694093, 0.3699321835667713, -1.9850507475846841, -0.0029482489159378678, 0.6234887141228697, 1.779630216897682, -0.7038252352998283, 0.3413515842673757, 0.42849328777558315, -0.21547113830018244, -0.5872670209767605, 1.1567761428834387, 0.8391632822105949, 0.7825522687980047, 0.7332697729841617, 0.9726232641539265, -0.4566644582112336, 0.12392510300019038, -0.7081080713837076, 0.32673561231471987, 0.13040129979846338, -1.1110126510024962, 0.11861381603754091, 0.2575713046581711, 1.208800321785374, 0.8506588652517553, -1.286471053644395, 0.7356449390707567, -1.1583890906936194, 1.5758250812668408, -0.2055399452968875, 1.2882549777917087, 1.3297246530119304, -0.9949201867694152, 0.016650050377094883, -0.1481069868922516, 0.9347621762283644, -0.6416722348420787, 1.2487120048104017, -0.06924507807371749, 0.13212838165605073, -0.30059223781102995, -0.18471716391655196, 0.5452995884549545, 0.6594845738478311, -0.9048309762219915, -0.5204937518132238, 0.6720257874277465, 1.7467819119427603, -0.07256601903890529, -0.49974121966798096]], "b1": [-0.8294443456559218, -0.14502489089850348, 0.5068597496750774, -0.01116249688853671, 0.3641268137582735, -0.8406076035328812, 0.33792822516132986, 0.5728543495750733, -1.031459176928486, 0.33328437560858515, -0.8694635523779088, -0.581524993073059, -0.47682190097148336, -0.6585172918513406, -0.14987994190585224, 0.4842465412368073, -0.0567546416244924, 0.2653245907885637, -0.5050735052754656, -0.1798178140996631, -1.4669831487167928, -1.6295390663440203, -0.39270023595676595, -1.5280986313866003, 0.2557822500347657, -0.3891416545301437, -0.06089487309880098, 1.0303086141511788, 0.7667845637763937, 0.22269084414827986, 0.07313125804098514, -0.07988535228196608, 0.38069091039109454, 0.8543005432781661, -0.41813291437207023, -0.213374899757244, -0.3227661612759162, -0.8209556841491431, -0.7304878152089872, 1.353231023836134, -0.44893806360192356, 0.5837776642195105, 0.35320226757776213, -0.8950230318092324, -0.14168502304593827, 1.0393466879172042, -1.3391033097130185, 1.1743693374283304, 1.042111846389022, 0.6895631587348104, -0.47605849097362435, 0.2250978295707601, 1.5798817570984058, -0.4192960585167944, 0.9822214761493986, 0.8999045629076604, -0.01328143089334552, -0.5952864990242379, -0.02047900419798271, 0.25934252166434835, 0.1403506172220896, -0.7062053272648277, 0.5845885025208356, 2.079970619641588], "w2": [[0.7623839831620316, 0.5032837172527843, -0.8158304440425393, 0.009833048786197646, 0.3694324623777606, -0.09940058291901283, 0.08248962266357335, 0.9960124598524639, 0.9726803627448196, -1.274901507899044, 1.3208074874927158, -0.4876114255439315, 0.017795621673341144, -0.7808751745856397, -0.3675906339854764, 0.43174749556438285], [-0.5750260496458404, 1.672017533090607, -0.43138834622437255, -0.20260036659810526, -0.7545821486460284, -1.032723210858123, 0.7828940011126634, 0.633936134168093, 0.7589278450722574, 0.36184311559530047, -0.9441873859299876, 0.5164325441598123, -1.2528018751439534, 0.38589322590460534, 0.4742311528340198, 0.21157975416441793], [-0.9799622516149461, 0.7496326069465435, 0.934030254452253, 0.3767239704635017, -0.4676592922211958, -0.159211852635678, -1.1143831816766572, 1.0481427894922075, 1.1693835215272053, 0.7125665599466795, 0.26451909534343293, -0.7908418546663135, 0.13379471840707913, -1.3893813374206194, -0.476344345081015, -1.0916934058096093], [0.07793804475145566, 0.05885870178421068, 1.111618536781441, -1.2480737534921071, -1.383727099142296, -0.7507860563591383, -0.18382461906166117, -0.05023563702358626, 1.3097795249534223, 1.0233720927039327, -0.5805827693205822, 0.8512861210019289, 0.42850649360612125, -0.8107652442512966, -1.3460565535699038, -0.7414856817884499], [-0.5801940235355003, 1.6276473163140923, 0.0007250062914330169, 0.09006031756138635, -0.40815297752757385, 1.0149762588894387, -0.8341388143772371, -0.06772608948754645, 0.1946539381620367, -0.757078508877884, -0.5493316507604689, 0.49034468765982775, -0.5709622147726896, -0.5323420863294516, -0.22074382687455496, 0.36300988946711144], [-0.7426420812552665, -0.5891910958335338, 0.559269296777904, -0.8579742387677126, -0.7483844825771688, -0.3281563113851519, -1.8397761229485976, -1.2807110475823527, -0.8647316729755439, 1.0178668143268637, -0.3892230077721097, 0.8407029681275496, 0.0737434434007567, -0.079214949300657, -0.7220782188733443, -1.7379487353729597], [-0.7414648897213254, -0.609404992809722, 0.6199737137416191, 1.6777099270228215, 1.4616729937940827, -0.9994804479989322, 0.09269134908895288, 0.6210470193040628, 1.2571676083634165, -0.3370594783959685, 0.6855850859489235, 0.039410878278170386, 0.2684047209473295, -0.7771016322134051, -0.6698532459712421, 1.4428831914722897], [0.45692541730643316, -1.3561350568768706, -0.8496393880642135, -1.6813600763367675, -1.4645839718952782, 0.9893682337431379, 0.5177172335186127, -0.49585181804645007, 0.4601838626524292, -0.7948446402474945, 0.4550678782933855, 1.1465729637919173, 0.05371749698069474, -0.06448825685685278, 1.391824603787119, 0.09641568212376005], [1.417862352755629, -0.690428305381799, -0.5514200738108734, 0.16444498638592248, 0.6347118358289539, 0.5168234080852331, -0.7859129032934453, -0.46310581648306803, 0.06479561705251974, 0.5496419343290221, 1.5764512216661097, -2.0849221275534844, -0.701659596007675, -0.5004943146499023, 0.04744207585117563, 0.45493309990406394], [0.22604651559709898, -0.2944428587121701, 1.3315730323618122, -0.4565706469719313, 1.4624221277443343, 0.24382864156353828, 1.7559927884127577, -0.4940697673747621, -2.352560552975564, -2.1581520304859376, -0.0324190981774682, -0.08834208926173182, -1.2220970733491134, -0.9438367024662416, 0.5946244393560335, -0.5267377191755934], [-0.46048337798609995, 0.6067680211382455, -0.7263930298385165, -1.0601663037574551, 1.336216483888046, -1.6941682633844688, 0.008707441729020576, -0.7926631037812597, -0.9918554734855602, -0.823526129504089, -0.49323996923497954, -0.9726591820133841, 0.4966780780522896, 0.10712293179110477, 0.10578074645500724, -0.7485898098882803], [-0.9679770727621123, 0.21503932947595053, -0.08064233348546562, -0.05088318871086284, -0.1169480645963607, 0.13263922973556996, -0.9275661861143853, -0.4466256553392886, -2.1095755728946566, -0.5937382660159889, 0.17478109991944568, 0.7661775606359271, -0.9092892566248272, -0.673635534786134, -0.44305583053153247, 0.81112462946599], [-0.9939383363607647, 0.4617078444750634, 0.24745956694053667, 0.802121954520975, 1.5880937792725507, 0.05757842816606107, -0.9669210472530578, -1.9095188512509482, 1.5658409822796553, 0.3247257545907251, 0.014352256782734468, -0.7551805970622221, -0.8773608860500351, -1.6283810132562546, 0.8788109393074235, -0.31024411669284], [-2.0087342650517215, -0.3399323890868065, -0.7732791973038972, 1.1631620190466154, 0.19546360141624394, -0.2702641168604973, 0.4605940859873988, 0.21696896619885908, 0.4515332011337776, -0.38696157989201035, 0.2872316951044379, -0.11206212801745918, 0.3035253080764565, 1.0467867901521783, 0.7787800069665538, 1.224042166736303], [0.15963855834501894, 2.583333920738732, 0.48543721438794835, 0.017770533513843015, 0.03347874221031659, -1.1761597421484407, 0.17364978974814602, 1.2112264802616077, -0.2988782878592933, 0.6291181483605712, 0.5263945301483489, -0.3980649449997011, -0.5065808979282687, -0.46820883567961336, -0.8346037731747359, 0.30374775171586854], [0.6174821946322484, 0.5737656285673121, 0.13626508226772227, 0.1650429362724124, 0.404590388704099, -0.3235948998632146, 0.37273153880153026, -0.42807647404402516, 1.003697073815328, -0.8563854125688497, 0.30367340346779326, 0.20523600838806585, 0.493953805551497, 0.9327577721259352, -0.6849205759684849, -0.4521137199377255], [0.6761064779600918, -0.8369669781937348, -0.7774266421686191, 0.672123714043287, -0.03382806995645854, 1.2124835577403736, 2.048330139185901, -0.18453791796055116, -0.17755695860303933, -0.575155547580851, 0.2575395221428578, -0.32744683573516997, 0.48942582760919817, -0.08267480438989294, -1.4672544777605647, -0.6526803353352295], [-0.4842483165199705, -0.06479952863339702, 0.634703104118878, 0.723744502516542, 0.2039666942764225, 0.17764009883612433, 0.5292671084214214, -0.14851607280664575, -0.3827418961349015, 1.7219387423735588, 0.10856797929570017, 0.4596031104111777, 0.6930625078763042, -0.45828343317928605, 0.2456207440896584, 1.5971427433597585], [1.5314705305111962, -0.30060788447931475, 1.262321228542648, 0.22596771917501415, 0.4805693596875566, 0.5624034430772206, -0.12803646554484288, 0.8239578807257132, 0.366259255950509, 0.3982102905736785, 0.48770544019531137, 0.4039092080274078, 0.8794164459653231, 0.4885225787105199, -0.5538464606191892, -0.4469699175106134], [0.8450237380684751, -0.48685153310852547, 0.7423254252314947, -1.5879892011403398, 0.17400180075950414, 0.2048375683378375, 0.08451173935745263, 0.23978549659114773, 0.7666044188114439, 1.0458279023903851, -0.3844274749025828, 1.3579698358764665, 1.2471903389237065, -1.1797815993019651, -0.43926183493197124, 1.0420919388349708], [-1.384737889154956, -0.7091397314305059, -0.23114240151100807, 0.38336554250628885, -0.0034208114841939308, 0.16730121794766328, -0.26916493887234, 0.9072784857293834, -1.5673649060773773, -0.18163466385306115, 0.3450171794485184, 0.21452547636784744, -0.4149755738223573, -0.2404839695600856, -1.1278141217874924, -0.9873119788614108], [-1.2530574178476477, 1.132253400918361, -0.5029166244208401, -1.1791944906848622, 1.0613240455439505, 1.139552908800509, -0.781224436960592, -0.9699536592712695, -0.9296653577302163, 0.8166889542198057, -0.3389255250808938, -0.10021464026081402, -0.49821869763921184, -0.1727191034291151, -0.35581855421412945, -0.44088405435284056], [-0.6089495171798083, -0.19001796303694068, 0.1360948410243543, -0.31112923660061065, -1.227149989577906, 0.5006702057922197, 1.0452315112609347, -0.40382375279569016, 0.7344764130865727, -0.5249179315387054, -0.2194694944551503, 0.28528472041791847, -1.4259871114369798, 0.4391287522607609, -0.39944501607167165, 0.0995115253019912], [-0.28671223524077233, 0.13264716836689885, 1.2761345148529761, 0.05432134040039796, -0.9523794247092137, -1.1178849681719405, -0.4074906120873274, 0.6291897063331932, -0.02217581836192538, 0.1804385431031622, 0.5509004213222131, -0.621254080253309, -0.375091100724768, -0.2876846243318113, -0.9761284747290275, 0.3218730604560647], [-0.6446122635244643, -0.3347615892318162, -1.891936858281253, 1.1288371932660208, -0.3800598626635887, -0.6667418028637531, 0.33059846924026043, 0.59947595991125, 0.6600629662539313, 0.29530377905346716, 0.13660537530149353, 0.09796698922499389, 0.624127687101899, 1.304708556893034, -1.390044766893411, 1.1975959729745238], [1.1132983447136515, -0.7035242072603823, 0.7601034836986739, 1.054487132928561, -0.058374425260006836, -0.25653889639852756, 0.6876411981710758, 0.1211381558332481, 0.06368613048778851, 0.6397753659730689, 0.07710247524829214, 0.303536441759405, -0.5299843083101505, -0.22061977527317497, -1.3211537919870233, 0.535141444373579], [1.0925671381072934, 0.22667696492561124, -0.8275936217615724, -0.40993939944891566, -1.2159446565675258, 1.4928605740524126, -0.8872369571142812, 0.4777932301610778, 0.9241941641476562, 0.08768563142349256, -0.02365546447244353, -0.02914935996599488, -0.22870493697622063, 0.41400966114256177, 0.9530754193459354, -0.1884457201537358], [0.24713993903387974, -0.5698385949304884, -0.008303555396503966, 0.3335945182982547, -0.6469104069440742, 0.24531707709949155, 0.3359268201909653, -1.1768171196822348, 0.6513305767053852, 0.42079567006321505, -0.36835610553060116, -0.3026464333778717, -0.16593790722867235, 0.11034950118379638, -0.4782515845924169, -0.43011926559873687], [-0.5824380878586394, -0.7411677174448257, 0.048576819042017945, 0.17754354626957142, -0.7962160316762524, -0.4290141643848369, -1.2459268478177674, -0.1684511333634148, -0.37026925014212575, -0.28827599491566824, -0.5322232315875858, -0.01287913407069341, -0.20747578709848746, -0.819773213774652, -0.8889299530867649, -0.571532454341381], [0.9884504227758221, 0.5446030558856949, 1.4646756726525918, -0.5293936977060115, -0.6574219825198198, -0.14049968212951758, 0.308957805251438, -1.0473216989909833, -0.18758797949150785, -0.857099645520594, 0.03222570444491926, 0.06151528517806193, -0.18454998818817153, -0.011759191190807344, -0.6337966734084929, 0.647782055654113], [-0.21046612325881084, 0.4861051170067656, 0.1923207888323631, 0.03524183829933403, 1.5095952151769603, 0.8965533039327651, -1.0432110395316656, -1.2489393450870825, -0.5672983237759035, -0.282787838809439, -0.7931853045786837, -0.2516666831735726, 0.9302555916798552, -0.03531147058867991, 0.5568890456889849, 1.3530039894689538], [0.9483870514801868, -1.9995464424925682, -0.23597229477763076, -0.29568576201279645, 0.26696782650403283, -0.3545984401613078, 1.805867555500835, -0.6986809222146853, 0.9370712710057805, 0.7210319563940839, -1.1167889496846952, -0.986533468223629, -1.417046305167526, -0.32943025825699684, 0.29529052011601603, -1.2511486181600884], [1.3238952845089118, 0.1965033289189257, -0.11221574778295818, -0.6485727117880796, 1.3174746052424064, -0.31682793523533087, 0.20646628849777268, 1.019768437869, 0.9112877957360752, 0.7936908201154559, 1.1207848074776334, -0.19335790081811569, -1.086350399837023, -0.20930443354348074, 1.285989752195486, 0.02615663469619467], [-1.081992804450065, -0.33701369816552257, 1.3686662843474107, 0.6740684248156638, -0.08047011173437724, -0.17543152082278635, -0.8603758351459622, 1.6059816404506715, -1.1302119584620627, -0.8412196841626464, 0.530647509260711, 0.5580113638439644, -0.8357646609353903, -0.7919216138424715, 0.27986184272052556, -0.7961543126719152], [-0.1796583650470832, 0.10286332875748341, 0.2167455544601145, 1.0468072109585633, 0.28850200628602485, 0.31512726473260566, 0.5887999787159175, 0.505065924404898, -1.0411413754362056, -0.1292818113054502, -1.7035658823283137, 0.0020536196850585164, -1.5839619019771312, 0.2982441388325571, 0.678240595748763, 0.8743428641434421], [0.2633029603544779, -0.5703515050350036, 1.2845122020987354, -0.93065399504442, 0.644249828465557, -0.3732487292746881, 0.18323395298707845, -1.2275736328061715, 0.21931061029123355, -0.1326192348317355, -0.6678095762078862, -0.023925268401914154, -0.055759139454916395, -0.011247527434341764, -1.1738508222655448, -0.7155343376953212], [-0.0528253522337033, -0.17298455846773608, 0.1587938360860452, 1.9435707818634838, 0.4063620112836016, 0.5498043793276715, -0.999049029911699, 1.058335688841995, 0.009294351245507204, -0.92049698858574, -0.2324822242702245, 0.5935128790502675, -0.5416490198640582, -1.0620746522242377, -1.6631885266769102, -0.4446315508366272], [0.8582393045724114, -0.47840511900199706, 1.3628781924057376, 0.9307268509046063, 0.3450760294842151, 0.19835860894888863, -1.0184037802180914, 0.34755616743255213, -0.019387411257417553, -0.4118994516694758, -0.3848243548426734, -0.32546270945829747, -0.6766673513117563, -0.4212203330658857, 1.855048600431795, 0.006488144078629854], [0.31252425419258145, -0.4867133762797554, -1.2809377443233958, -0.39738218455211816, -1.2124627769149334, 1.2958733358314758, -0.0469426846045683, 2.286126130856186, 1.3235438574948832, -0.21120147267582323, 0.8674148561631913, -0.20105280878332765, 0.08088662357385513, 0.5452533693009379, -0.4025707609224979, -0.44814068888942177], [0.5749853265093826, 0.7478287380187578, 0.8357367095341639, -0.5690049215774635, 0.775084749556072, -0.003808994802286315, 1.582484283851805, 0.48075386914107193, -1.1047418126491282, 0.3256443931369299, 0.18313093918144596, -1.5718152535619454, -1.3933855729693476, -0.8107983921949787, 0.6818690160453595, -0.44484958708586925], [-1.1277105681696353, 0.7614460474927213, -0.6086409478027638, 0.8345646939109359, 0.2417224110407128, 0.03770244347975349, 0.2110195421128624, 1.3306406335681424, -1.9118189410962012, 0.7688475061654176, -0.5226862943810351, -0.21398661558421347, -0.0681380350419627, 0.2993149741263652, -0.4370643558287858, 0.03639809235263253], [0.7100712189588678, 0.7575048523790013, 0.5798481613069684, -0.15048500145209304, -1.3647245954784064, 1.1462646298641395, -0.5059593373542222, -0.20685354586384586, -1.3214572706229735, -1.2060266246681137, 0.3280117805416146, 0.1534634795897158, -0.5671180841644734, -0.48537447916307325, -1.789622289838447, 1.1924981737372777], [0.8195861974134676, -1.3400034535421663, 0.8683377869124114, -0.07284469427282389, 0.34952874734229705, -0.22952554969863925, -0.12833696289636898, -0.5321971858593013, 1.536135070141369, -0.17085202066952326, -0.8748806066480346, 1.2280614919016049, 0.46001218621329193, -0.3809506258970935, -1.2263500055080765, -0.6035361664988963], [-0.6083938879827537, 0.3335755542175598, -0.5898616726443566, 0.2768834502040969, -0.2194937651783852, -0.36586750331642914, 0.4768690133298682, -0.4457669748509711, -0.3970436334583589, 0.18109072345862637, -1.6607996649391525, -0.1415239854722024, 0.5335441245323151, 0.5886819313207412, -0.22743173917227968, 0.2668390751975256], [0.07741500389208533, 2.1622364227309836, 1.7818984624475156, -0.9467720290320324, 0.8216259612411843, -0.09842598598357408, -0.80995370156554, 0.6164706761697211, 0.3516964016146778, -0.22417871264578776, -0.27770686007825574, 0.6750797143462101, 0.9907761693036496, -0.1121475722585561, -0.44011329999136256, -0.3951941277692783], [-0.021958044235062313, 0.12430480287871566, -1.5936095342516308, -1.0315891136188253, -0.15399808682039617, -0.7056926693922445, 0.5676020250603855, 0.8130358107358143, 1.286045844923168, 1.432529374598811, -0.696302428457258, -0.3401334046692512, -0.3456902352052675, 0.773575820635602, -0.757816889878165, -0.2778779158276609], [-0.899816834146205, -0.17061506645800523, -0.03733339716832677, 1.1268077466165112, 1.0435371276781682, 0.13805802700354272, -0.8101885428874371, 0.4668461278062652, -0.03051437580947565, 0.08760480875401028, -1.0758173342744153, 1.1992109430996196, -0.00044027961452534903, 1.2374006155350417, -0.49825719675825736, 0.21385003894620375], [-0.4877646941965083, -0.537232472785671, 0.5099852962502339, -1.1134269476470828, 1.3710300446597745, -0.7597755661845579, -1.1275992362129392, -0.3762254780407909, 0.4423128895429804, 0.05141169438740317, 0.6549281398070097, 0.2965835959781099, -0.18032739394667985, 0.5352062980759624, -0.15869606638605793, -1.2825083664525583], [-0.14547730117761376, 0.9349911107467199, -0.4507646504662656, -0.38992224930899866, 2.2477381686274898, -0.579911692329678, 0.8329152438604528, -1.537691637866964, 0.5160863518939125, 0.8454754449372159, 0.24800601967766917, 0.5257223365815149, 0.7295530953393401, -0.6363626607383952, 0.35269334026272925, -0.5546067205050041], [0.02447859657708497, -0.36691971908585697, -0.4424118334882861, 0.1360935241746694, 1.0027240350070032, 1.1459242375135301, 1.1413826167368109, -1.1124269359912264, 0.7439847385158643, 0.597839771642117, 0.07723773841663581, 0.9736264494335652, -0.8253559268719308, -0.3036974145941083, -0.7260155851776049, -0.3591890935204596], [-1.3218878225591455, 0.6123213831319274, -1.4010533119652364, 0.960110060427331, -0.773423384144055, -0.13216867626761442, -2.2097469902520106, -0.5694333453130067, 0.9952567706252166, -1.6310533441957145, 0.4485568708974843, -0.145515271049364, 0.41087825056420146, -1.2372742612483238, 1.389612583305577, 0.93090520227474], [0.5154703007441319, -0.7161653717249822, 1.8708135312947403, -0.11884806781866884, 0.4320936001165087, 0.3810090871043226, -0.48854837420825475, -1.9185624451534775, -0.37699337554413614, -0.2746373704524512, 0.3716592788451904, -0.021876262763116036, 0.4880726772475557, -0.7931090636179727, 0.8805595179013548, -1.1884391966489831], [-0.3202768127265097, 0.05682070067074773, 0.15082260398870262, 0.6188930748068748, 0.6117504803246658, -0.24613389785572748, 0.3173586049748613, -0.3559336247325892, -0.27168541949002023, -0.6150503213115326, 1.680673161652852, 1.1081432669422835, 0.7565855833039925, 0.2893862294995912, -1.210362190698793, -0.8763345382777386], [0.9119668379741289, 0.3154624626635553, -0.26910252841846866, 0.16227238491313856, 0.09580579672854955, -0.27725715702075693, 0.46393092723419393, 0.40745174043503063, -0.8226130465685861, -0.5348223031144794, -1.110724874772981, 0.992429817694569, 0.1331254445919039, 0.9047351310100834, -1.1983893202838005, 0.36280284102387517], [0.6220297692669645, 0.35526841453854835, -0.8524538696651063, -1.1818540032144549, 0.12342848938165835, -0.6480899888991924, 1.2128406800002354, -0.8579700940880928, 1.0723451556366388, 0.17344931914702177, -0.0007089019758559634, 1.7086487802753074, -0.30838269345271624, -0.9418521306467981, -0.03360734577288774, -0.29037748376427014], [1.0266522031257521, -0.9579925755459315, -0.9171015738469614, -0.36840761857599696, 0.1835812221729967, -0.01400576185991212, 1.2034154758185687, 0.7686427630921167, -1.86724576331486, 0.5078966205980194, -0.028995387761466873, -0.2487392882049802, 0.5177884392645573, 0.09750192824008347, -0.313802418398167, -1.0199092235363056], [0.030282145165556107, -0.47917539467928083, -0.5785894161853478, 1.4378244705541334, -0.8569215392362998, -0.24537630706906124, 1.3904214863270878, -1.1603671614751048, 0.009078300086475366, 0.010893299558521363, 1.2162381182786919, 0.1840687297378577, -1.2558826803714995, 0.6728188827159015, 0.7065499596415838, 0.48644335275082334], [-0.0836119430858078, -0.1678971017368964, 1.639509710879525, 1.0729437238278838, -0.9384726063026065, -0.6516533124835381, 0.40985386564996074, 0.035666285813356624, -0.34451659499972426, 0.07246120914672993, -0.6389970378079719, 2.6022117116353876, 0.1781367237320471, 0.4632176320488639, 0.24800581067920802, 0.719413063395623], [-0.37342357022718453, 0.6960282280795156, -0.5803567552942038, -0.3975692827416954, 0.6711869222286029, 1.7961905798444655, 0.44396708189969664, -0.568415940053899, -0.20525811137568545, -0.9939884115054854, -2.0185957792866267, -0.6723677586885118, 0.9528101862099483, -0.2647688624446188, 0.7054448664728642, 0.928803470948966], [-0.7695015288681926, 0.7598365889363593, 0.6584523160917723, -0.2008354460817981, -0.8572986460751404, 0.16545712179981337, 0.5169118940864478, 0.5336782741630617, 0.4125414405898913, -0.34646059563675224, 0.2888227192791351, -0.7706770942829242, -0.032086960905524216, 0.7745873999923198, -0.47902708620743745, -0.020841450769753044], [0.967017296756804, 0.19794860808491999, -0.13254797071337318, -0.5479174422675495, 0.34223524757837726, 0.4171964711545097, 0.02833057230010458, -1.5083924269129936, -1.7059508612575929, -0.8100208871271584, -1.7933240082055983, -0.28677451087170147, -0.917370454889137, -0.13608507689305124, 0.053001038540444786, -0.0386817906943554], [0.310289939997048, 0.5752310751337149, -0.9442247029664115, -1.46112606229789, -0.8579101477877717, -0.023678378091810337, 0.8239980180861808, -1.5973601227573329, 0.7220235004972595, -0.3554579949243498, -1.7973031388442704, 0.6713376043126994, 0.17281228273751562, 1.2980245453762742, -1.803064044745038, 0.9633489680587767], [0.2862630231066132, 0.39534354551562856, -2.293236583360255, 0.6767059970568507, -0.29207087513741004, -0.8302753362397701, 0.3684805634457138, -0.3163375769246182, 0.274104801757316, -0.07679168329213684, 1.064371893602902, -1.1134551723358888, 0.2403864297300819, 0.5002136360352245, 0.06226978566069069, -0.30038120560188963], [-1.1167492204154033, 0.36566957593572824, 0.35482302578891656, -1.6633979772470238, 0.27470485916615495, -0.10536361200530324, 1.4482417048990983, 0.49763833653943085, 0.2059909915717162, 0.5371057422311603, 0.5677100113413205, 1.4100701710667587, 0.7946287814063981, 0.6028266071696247, -0.1692512790288148, -0.43409419689408707]], "b2": [1.176160148716205, 0.7589124064038295, -0.49736122049182285, -0.2328423269953564, 0.061040185329681126, -1.6226099014500515, 0.10316994850522154, 0.06742428655208121, 0.258777961562577, -0.054227869848163884, -0.7649924213489776, -1.0113618376935205, 0.7226368818381007, -0.47892780439926214, 0.34019897606684607, 0.923844151299956], "fitness": 0.5744897959183674, "wins": 563, "games_played": 980}