{"network_id": 4, "w1": [[-0.45427201100012926, 0.34133497408712304, -0.33744906738887853, 0.09091055624291762, 0.2855458883260764, -0.20500263779755995, -0.9069752874055953, 0.612693297333694, -0.022614551917981562, -1.7003394488923125, 0.5570891762998114, 0.08623509648236108, 0.29516225226876375, 1.3527836705247602, -0.3292107043285692, -0.06418226700359347, -0.051041994915574554, 0.7952818887422237, 0.6911063288205376, -0.44680313023209567, -0.5724351267285859, -0.785333869269618, 1.0648493871737157, 0.14829680139047324, 0.12446932354435919, 1.1554204917154687, -0.6777866417156155, -0.24328213862604742, 0.5558996543031127, -0.18896573533757027, -0.7324881586271714, -1.1632138410894473, 1.2625752640746895, -0.6531654363191456, 1.0483100829871217, -0.011372873804897377, 0.9411966694945169, -0.0713123974621281, 0.10750824826248366, -0.8354660389370838, 0.512403311980947, -1.0126369829979578, 0.13867004871876887, -0.1651704888092021, -1.2939469217444706, 0.662112138308542, -0.5896070228538453, -0.3926582713825173, -0.04152049547555203, -0.24711091937132035, -1.1734572311551164, -0.03560070189909592, -0.5219629870648728, 0.3617433453045485, 1.6675016390033401, -0.8134784604987371, 1.241957639836369, -0.0765886562223006, -1.0520131714779244, 0.35286677004721123, -0.08005689458504989, -0.8972992151799926, 0.2579259665586811, -0.07894416766037393], [-0.83611506825548, -0.07472152729439857, -0.7650361253685485, 0.7181455728744841, -0.8429203231859035, 0.5683875907482566, -0.7058800610743516, 0.46826698121152616, -0.42896148997249495, 0.5729580823088946, 0.3653837500928594, -0.3333547571084957, -0.9214171404653217, 0.44215075126948167, 0.7732613802341837, -2.0354828735148347, -0.9881962996658695, 0.2499998626622189, -0.2960989449176906, 0.15920784128269488, 0.1762850293622204, -0.10408723730829138, 0.593675601005436, -0.9518738527592432, -1.3813166198311524, 1.877347965174596, -0.6840809694228509, 0.47719527330645506, -0.414121918406222, -0.45408188640176483, -0.3799983807334041, 1.7164617626481353, 0.3872900249053082, -0.6495162815595625, 2.0147357441524907, 1.3356531915334848, -0.79577477701546, 0.8877209200946101, -0.46010426732187126, 0.12333021039718767, -1.3972503562529575, -1.194096843058292, 0.393654150989068, -1.1721923982716507, 0.2932185180678946, -0.7095925947901158, 1.316122840443003, 2.0431863342040084, 0.18807979325273155, -0.27213533668562395, 0.8331552868205183, 0.5436676581942963, 0.004456528254202022, 0.16711371148634124, 0.028188006387657727, 0.8403466390616952, -0.18955722742852243, -0.6119686901091832, 0.32275003340452363, 0.021080512578624762, -0.6184209111357151, -0.3641363738600782, -0.3326418099472152, 1.4471225541352497], [0.5193740873507653, -1.460168973080711, -0.3070873696216485, 0.5653488385714257, -0.9570013970309964, 0.5710366823650649, -0.4274571701217009, 0.3124981999441365, -0.11505745106906254, 0.15427229526792866, 1.0662795692113045, -0.9329475094922527, -0.26299801279443125, 1.6600187272715834, -0.4140861749331951, 0.38130540985196704, -1.2602663758392432, 1.0266104454756215, -0.09680093939950543, 0.824265891982863, -0.32824774523041567, 0.6290122277835215, -0.49970353412919966, 0.40162395962186215, -0.974182995287242, -0.2836748156442987, 0.9765220966699555, -0.22034889602879354, -0.2301417541034583, 1.1554083673244817, 0.44283227125368196, 0.1148221238123941, -0.8555756203752121, -0.7104403997012456, 0.5057427779845557, -0.24137645461349294, -0.261863781054826, 0.6887809516381987, -0.5017150619389392, -0.0629558799838631, 0.8891202686317631, -0.13748659449245815, 0.6133627738763757, 0.6386115876583967, -0.6999961458238502, 1.1030833292690538, 1.3794216954111884, 1.0885809615523045, 0.7891596342837309, 0.06079425778639567, -0.7318103188266908, -0.5402451758970453, 2.6531643333901482, 0.7530710562714933, 0.048368512264180125, -0.09440397764312095, -0.7674714383259258, -0.32594356434948446, -0.07770955385893266, 0.11074635489506482, -1.0821868267140098, -0.18364064686275094, -0.3461400315211494, -0.19822314166141397], [1.0263350034958827, 1.9601759673219208, -0.6613619625242303, 0.17423879096440092, -0.47635226626525595, -0.7142382777679426, -0.2013885883940647, 0.7059470742068985, -0.6328991743881052, -1.7407382117543806, 0.8413076056522737, 0.9986103705074876, 1.0256797616761049, -0.44028074401632195, -0.26743303893064874, -2.2014221128832223, 0.08609610379843062, 0.1931262624327069, -0.9166908171651602, 0.011026154090042432, -0.7465482340975648, 0.6380295741013269, -0.1536910910252957, 2.823179432167518, -0.028097123507424993, 0.24444374306898667, 1.2490483214837749, 0.03650468229743211, 1.90681108387736, -0.2662974373190854, -0.34218253798623344, 0.33653101610421177, 0.70412183981697, 0.2562870738019087, -1.5258313951939044, 0.22303201144252352, -0.1282849728712921, -0.04627507783449321, -0.9111111365711391, 0.6866689306649382, 0.11424865634556708, -0.5698065665283317, 0.7122276676236502, 0.6112490448410879, -0.43255649205346847, -0.15068195609674584, 0.8505817087295791, -0.08472714086620758, -0.7167642397173657, -0.26165255750981203, -0.4634978359511127, -0.6774185188828588, -0.2735072518731225, -0.8910392375244918, -0.2990249839687513, 0.02278654108848782, -0.6746800790032992, -0.2972854106306082, 0.4837021330731031, 0.443574636275422, 0.7414532789268693, -0.3619591995504117, -0.5211317572077275, -0.09071149700636404], [-0.47916305980201257, -0.38443038747511654, 0.18617940351491535, -0.9039351983541495, 0.014339960359875337, 0.051982878165593105, 0.3993175406062389, -1.4683503839117595, -1.161127498499204, -1.4159560814842105, -1.0148094668721015, -0.9965706272052235, -0.15936435419834236, 0.01718012794294696, -1.310859431869858, 0.9603209644194339, -1.2915740106289866, 0.7175882322811962, -0.8021797934063376, 1.1273374158308431, 0.04492874720389768, 0.437899352693208, 0.9503603582764648, 0.340467929046659, -0.46566984556069263, -0.2091946095218229, 0.1206713186948114, 0.7957090784262046, 1.3389834268217005, 0.3564142599923816, 0.49428518022274315, 1.0290738527812557, -0.7317936772483814, 0.08351629027775183, -0.6872460412378499, -0.659125035850832, 0.4362034747897233, 0.5444862098015004, 1.5131738945040067, 0.10073166721309473, -0.564371692935162, 0.3969035794224718, 0.599201000569265, -0.9065029097104678, 0.8773423259188133, -1.0854311634771674, 0.04022633767788459, 2.4324735768368, 1.1276385887709215, 0.51552399018219, 0.33253503622320807, -0.0792553066005412, 0.9222863239863694, 1.2529353152185758, -1.351439321123649, 0.25768813468216634, -0.167065533304918, -0.034756615809045543, 0.38680965941657863, 0.2351434550928703, 1.0623954496399293, 0.8933571497225268, 0.7769915614027207, 0.21688427963634627], [0.5870439289218377, -0.08023536365808093, 0.0247785841305673, 0.1532882675774604, 0.05211774158135776, -1.9173136897830205, 0.17214259250814282, -0.05244581592463421, -0.1015707309818975, -0.23207502658608598, -0.5324137944964932, -0.28854488865935235, 0.46348714579712114, -0.42289923390225437, 0.2727956192236106, -0.38216837918728297, 0.24878970991629734, -1.117825845754224, -1.0973130801936257, 0.12092354880983872, 0.22384843568619225, -0.8432539191581562, 0.818923260256458, -0.5182277760456016, -0.3670512864462844, -0.005598824580704431, -1.6016735937179731, 0.3889354596897607, 0.5769667980152633, 0.020492897809429922, 0.6595218881357932, 0.08514800141009976, -0.6942748357320075, -0.6281328078437272, -1.296946446482862, 0.6398622747683438, -0.7265105898960594, 0.16427827691846345, 0.5104392255105459, -0.36705289099594257, 1.5925395941172162, 0.3224829587144627, 0.29496382137631516, 0.6277329934930855, 0.28445070264760147, 0.4023026743483693, -0.2114536127317311, 0.6757865743371383, 0.041990453197512156, 0.8310709028840885, 0.11620175193102887, -0.27994043813132785, 0.23677156879914707, 0.6325072854509648, 1.219855089247471, -0.24785396929680442, 0.9677262676007081, -0.34214049217957004, -0.09021985468109164, 0.33883080745845184, -0.122553151997186, 0.5630097665308251, 0.2930770675685027, 1.1550075917597624], [-0.9571225241974171, -0.5139060738962027, 0.06759963695854923, 1.1199665047893437, -0.6959047015430679, -0.48621027415968593, -0.5235867820346007, 0.6287037957308327, -0.5767349587301431, -0.7538670714560249, 0.10661498566669153, -1.534938530227942, 0.5460894666088693, -1.3860211548900878, -0.4998586953776074, 0.12552557434541745, 1.0580911946846574, -0.6066407494491384, -0.6733053162555812, 0.9093278859399938, -0.07157640602690576, 0.0319835036771911, -0.2696695535048085, -0.6858495352377627, 0.30759474482672233, -1.315987205055347, -0.4448722319381311, 1.05195957877781, 0.9182809501779392, -0.6086957967374415, -0.37064060206337807, 0.24147768582681228, 1.1160244414522869, -1.2371873595335883, -0.24285855654613916, 0.1790651989306936, -1.32080192132846, -0.19897215767206905, 0.2747930850157125, -1.780265508001194, -0.3061081845280301, -0.5088974210743185, 0.0565989650648524, 0.19190073639412464, 1.0861466511723008, -0.23660672275443345, 1.0066015016905854, 1.8503058678495408, -0.10259403184930493, 0.16343402881022023, -0.4597964129918446, -0.2878674129287593, 1.0958784582028733, -0.7396699077568446, -0.7263305802099443, -0.09581622619436825, 1.1518937584434046, 0.049538609575855264, 0.9375381557697021, -1.3588648493202382, -0.4554021960095923, 0.4686635882987879, -1.2728546638870126, 0.8762138837957933], [-0.8527053533254537, 0.5864551833066884, -0.7494492955364825, 0.3349382144510702, 1.3688366648218666, 1.161815587830033, 0.29834621769887915, -0.05023103090616016, -0.14005636213222306, -0.022061427159511537, -0.052805934678491845, 2.07514707879455, 0.40192903588137796, -0.8853699947233694, -0.42292482161206346, -0.590390153632394, -0.9175967472092806, -0.48320730987578603, 0.1321112477544531, -0.21027056098631858, 0.9494641626542719, 0.916088494379992, -0.36864442613837684, 0.4367304671123171, 0.39518224246708494, 0.3407160657386344, -0.13909719037807527, -0.8837580592192675, 0.653371418238868, 0.396771544685412, 1.5279806653349168, -0.9023818996392869, 0.1466595238327032, 0.9476349111510831, 1.051923748202146, 0.25646447120218385, -1.0749080000790527, 0.11551605408938989, 0.3617843932922101, 0.8241160914133329, -0.4658019249445705, -0.313090047984274, 1.0905771404162585, -1.314949095068307, -0.18769601229520544, 0.5868364209978127, 0.2545983668740083, -0.6027828230285817, 1.1116722208646816, -1.5110655018587285, 0.37071089711739447, -0.48148407069177834, 0.918558346872758, 1.09203376147575, -1.3583350677246573, -0.06844335274947733, -0.17238126788054253, -1.1037988976067763, 1.3961832426309042, 2.1443649720000586, -0.5575523233660754, -0.6955885713663024, -0.41312507210951976, 1.6846985109377226], [-0.5041410574245813, -0.5542872233439728, 0.4318548021731522, 0.5621593858326316, -0.6439945610667142, -1.931080497374585, 1.0188128051732679, 0.44369117114616663, 1.040321282887252, -0.6068389318493844, -0.2930893123565469, -0.11478481011962145, 0.5768569417228915, -0.3651027825466506, 0.9976341731799557, 0.14542977409346491, -0.05130460822934041, -0.9231505101283548, -0.0694257603078674, 1.5763656912693216, 1.0106547441629825, -0.6165813814650454, -0.5715250114757707, -0.17566364839584098, -0.05947521497462557, 0.20954485580111165, 1.3617335999808169, 0.4736828684842951, -0.41214561475514244, 0.08077633579601656, -0.14238279979027268, 1.191607102609662, 0.4296821841117677, -0.3910455873781135, 0.24636667144050334, 0.8347344732224452, -1.0948590620152918, 0.19018567790273774, 0.26328624248688237, 0.10714469611834837, 0.6147372996162003, -0.6203862391833529, 1.7565192498791853, -0.706877705560676, 0.2489029975808651, -0.11767254155344653, -0.45408029214540924, 0.960417939138019, 1.01251457860826, 0.36807652456325574, 0.7804368925363885, 0.6328121746059376, 1.3698315352327193, 0.6285880039421005, 1.952143270700373, -0.24071900705729243, -0.12395612739224038, 0.5478914703350537, -1.135953244725213, 0.7296590110478224, -1.0014298396886394, 0.3660808160666016, 0.9535666703465489, -0.26337817366465494], [-0.7796144808332035, -0.4535404020024621, 0.33783739045731404, -0.5249053197418172, 1.0295594529929244, 0.24036518506379193, 0.45276948626184244, 1.1428285069791404, 0.6700330238825392, -0.381599517509865, -0.10747524784246859, -0.5445082740330076, -0.8578070011394313, 0.595118481469198, 0.15679778659354077, -2.0168560223708702, 0.2761497629578247, -0.16181579544244035, -0.9558455141136253, -0.7602074135444272, 0.1325635845072266, 0.12121223593453742, 0.26831299912216944, -0.02582524860577043, -0.18984803607831618, 1.7602273619438966, 0.4962699891814862, -0.159273567591032, -0.7327659815326762, -0.03785717091778473, -1.3903494485215173, 0.6106212809087472, 0.1787040291425408, 0.5951115374797408, -1.0641871239883967, -0.31716334108570327, -0.908945660477512, 0.02334661932171761, 0.3443247188490117, 1.73757034805909, 0.3685106066621186, 1.3126366442740618, -0.8116452817382618, 0.9746569113000387, 0.12461052355001095, 0.2361584612838045, -0.7410503457747405, -0.04994375715053198, -0.5277624032077669, 0.2916007566006396, 0.5585813149646854, -0.49151452526013045, 0.41280254871467836, 0.13729306129620533, 0.008582809961108731, 0.04785605709000018, -0.6689728071705325, 0.7146170844951556, -0.5421999567987111, -1.6409621106204064, 0.03343781006390095, -0.0069063326360307015, -1.630875915601449, 0.16709596149201206], [0.24784397234752642, -0.053927667272097995, -0.4365872270549087, 0.7687432979248343, -0.22000948734009426, 0.22010746597545294, -0.017949498842980846, 2.2604067837702013, -0.5361232670080813, 0.8969155809035927, -0.04556452597138688, 0.16621585659371796, -0.3421390621044096, -0.5917624065898353, 0.01606607838868168, -0.9103055321406612, 0.5715411392606626, 0.5389081495943181, 1.1818140701067827, 0.6988219983014882, 0.150398413588395, 0.03315050304959982, 0.0656242917125389, -0.5611070431475107, 1.4833395984622721, 0.28642213128342736, 0.3661535659993098, 0.1115084145266837, 0.2264424632778287, -0.43956606787594404, 0.12392510300019038, -0.4729717154490477, 0.04200480887291161, 0.5797851266721412, -1.0095550948063357, -0.0072847242460374485, -0.0697132773277927, 0.5695199207644288, -0.1076600310515144, -0.875595152356609, 1.6357421809379917, -1.1583890906936194, 0.9670951896340879, -0.18826141505225943, 0.6161293762214518, 0.707146446337312, -0.1008099130126647, -0.20980234100055356, -0.08105838382602978, 0.46602603201747383, -0.29205341504531673, 0.9318683452380213, -0.1009786981176685, 0.7869553666751268, 0.13214498390623794, -0.4022983025954047, -0.16301284303695096, 0.22440103802751404, -0.9535068546323586, 0.23929060019029, 1.1223656151046517, 1.3184872915996353, 0.451393211961969, -0.3456525955096277]], "b1": [-0.5822955671872394, -0.2285952877174545, 0.44954240516016053, 0.2905985330991296, 0.24344636828937372, -1.0754996784438549, 0.817065326115219, 0.5418381549212052, -1.4221965232227791, -0.813466255340781, -0.501817754073157, -0.5909621238133849, -0.8404308648550383, -0.6585172918513406, 0.19489484129668094, 0.6231263645667025, 0.392612326474014, 0.22907645608490612, -0.6560645755969449, 0.13715913955205059, -1.4669831487167928, -1.5358527983290786, -0.27139724873036675, -0.8855924069119819, 0.012975348388269931, -0.4763750844340546, -0.007144517834133571, 0.3076214361459262, 0.12115981924564667, -0.2032119866540487, -0.09758030912406522, -0.30243723313705395, 0.39416172728346965, 0.4045369757846988, -0.5946695234143712, -0.016412277324823185, -0.004860020298301758, -0.6193353636126292, -0.7405446823807416, 0.7891109879348411, -0.6187672361764558, 0.5987392301436117, -0.34237337442529525, 0.02591497417309995, -0.05401333718074365, 0.4427674001758336, -0.04259696407951288, 0.6556154702684027, 0.21043935057306767, 0.7046945339460747, 0.025790443824860704, -0.07220378177940945, 0.9860945492954647, -0.3320831755117797, 1.0011430453750971, 0.6833685482083409, 0.3640419687633267, -1.060410229708245, -0.2033815680345594, 0.1600618590419752, 0.11531642504312252, -0.6433051279277378, 0.35741738576714716, 1.2704378659338302], "w2": [[0.3099171807774354, 0.21485190581849872, -0.04857939646564344, 0.39258105488682055, 0.19784532759314388, -0.9683008847965966, 0.14805289260827662, 0.9960124598524639, 1.366040224310602, -0.9734553203657467, 0.9768592384861858, -0.43597875107047396, 0.28523268376846017, -0.8183761814535051, -1.4951843486207796, 0.33179605876545637], [-0.035436938285512753, 1.4706669060111628, -0.17769739434120646, 0.2003339711745542, -0.7987536659215132, -0.23400863128377275, 0.799953305856296, 0.7036464355898389, 0.67961168119741, -0.35678038646739285, -0.6733104493859106, 0.08096995880253935, -0.8926264276481264, 1.0097571540672228, 0.7051455347222463, -0.0037828232760508396], [-0.5186544627990816, 0.0375930090290319, 0.9997093867513754, 0.29305990271851107, -0.5193805973179147, -0.18107705062721247, -1.0303247193334175, 0.10625748791387232, 1.3011552023163349, 0.5587302481225096, 0.3531595780075825, -0.4546469962758974, 0.23467997637125823, -0.6648410800838465, -0.07525501586003192, -1.195005344633677], [-0.349209981400152, 0.0503652486267297, 1.166317411550688, -0.4839151346451547, -1.400714079377164, -0.5222546186647457, 0.29069769263443085, -0.6045669282358235, 0.32676336783959237, 0.8959776043191425, -0.8398395058639236, 0.803627449256147, 0.834518221235053, -0.818492274367526, -0.5692626978938655, -0.8821292844269981], [-0.5781683949914133, 1.326632825044499, 1.0109410248214699, 0.11004501039494086, -0.40815297752757385, 1.0079261887167452, -0.46261146339979375, -0.11405307366094268, -0.5217178805306307, -0.06252823145690523, -0.7176229439131991, 0.26859096755980016, -0.35887010422851107, -0.7109924130385115, -0.004886497678329105, 0.15301163430716544], [-0.09238171503206319, -0.48644730518808654, -0.21519398199577355, 0.11463803346835022, -1.01017092397293, -0.04639080464352416, -1.2742634966642221, -0.5261434654457944, -0.45219377906655434, 0.30832790367525165, -0.695057753819509, 0.1826868416231211, 0.0002657130881298375, -0.4493016790946306, -0.3017683312915901, -0.884506917060687], [-0.020555719849131862, -0.47741802014394474, 0.8620458220901243, 0.5673728833090719, 1.304070481432031, -0.48538417827300306, 0.4156048226069213, 0.5286125102639273, 1.298437597425147, 0.4598583458157548, 0.49950021784512566, 0.4884220685383358, 0.1516253558141678, -0.5249877577571394, -0.6205036297081672, 1.0857520666315854], [0.509910911568758, -1.4290566736105974, -0.7888425015807851, -1.2934439765572285, -0.7101582932515792, 0.9225160013306217, 0.6804828283154307, -0.13186442151960565, 0.26119093090574774, -0.7734329479082886, 0.6639161980366631, 0.9027244558056935, 0.05371749698069474, -0.5558727095663852, -0.131712955213925, 0.2782998913932672], [1.3013942374827387, -1.159255597427078, -0.4841634016406196, 0.6472160688517825, 0.5602064782603993, 0.7746743120256079, -0.9447881271970472, -0.6222358548078712, 0.042696239263755764, -0.4013530899741832, 1.4355508021370462, -0.4015371235748364, -0.6093340774409328, -0.8700892001197502, -0.14017658325201476, 0.9342958089061375], [-0.40009979712114446, -0.1791225729043915, 1.8343860370063432, -0.1536536291779857, 0.4641281662955334, 1.1454887856023181, 1.8916543178397132, -0.834542132886839, -1.0609453241004903, -0.8913851101176551, -0.12653632743161047, 0.3307985435830935, -1.0826645940774804, -0.9584528235815305, 0.5946244393560335, -0.5930211491711436], [0.22483616001105705, 0.6777653003982461, -0.6387646225882753, -0.5224440455271311, 0.22564657786275993, -0.9537417792610813, -0.6732659809996902, -0.735912848898607, -0.8007320416212304, -0.8359091479261731, -0.7290068746988002, -0.4781545522413158, 0.5978582628847735, -0.5831187722688848, -0.015245779680270063, -0.6584028364358313], [-0.8633964842280342, -0.17082689808219953, -0.8560626967670755, -0.31815547990736615, -0.8411942777089261, 0.24982201506186014, -0.11280939580355287, -0.28327493144314153, -1.2517482037666352, 0.016059541270052397, 0.41361784456627326, 1.0592418663215137, -0.482640551457617, 0.2640594805788333, 0.21690318971397976, 0.3376814713319199], [-0.8207868179796453, -0.2524065147029213, 0.10243240848084348, 1.0141888328437447, 1.5064171347525048, 0.3638200004508057, -0.22591290896834668, -1.0164494598313916, 0.27857844251704916, 0.045993575771558604, 0.2773449177101332, -1.4054050407906984, -0.6258560133834845, -1.0688596612985988, 0.7376938820767762, -0.2089023037154759], [-1.5292910591436675, -0.9013193682954259, -0.4848651918285488, 1.58255247786526, 0.2023314074861637, -0.37706907079918633, 0.560766335969431, 0.4063960590076009, -0.686546368776229, -0.32648161803949016, 0.3176412279255758, -0.11206212801745918, 0.35193376573317126, 1.5265816781023358, 0.5226943223388469, 0.14046856350929413], [0.22576998674840487, -0.10804093245958168, -0.12004639457742783, 0.08445618352551232, -1.0126035734945904, 0.7330925041426205, 0.6003681865892109, 1.0091430819536917, 0.5919515957782855, 0.6051096213848041, 0.0895079896405784, -0.38866239994614743, -0.24696311886759312, -0.46820883567961336, -0.16227843789971558, 0.06384900706114735], [-0.06646038503117506, 0.21689997370115724, -0.3163088420939082, -0.6763386941895028, 0.34813687170074603, -0.4328873652602395, -0.23373445344139276, 0.18363107173202084, 0.12120270874381242, 0.058944732679110656, -0.21233889680490992, 0.01492468260125962, 0.002593262769140625, 0.9327577721259352, 1.3275171272403141, -0.8711061485715053], [-0.2592651366958207, -0.3475679886929311, -0.14119903736595746, 0.7286473782248869, 0.10723073377286643, 1.0319295801713977, 1.2044783259079899, -0.6545387317285228, 0.16978615943696418, -0.33357458713473687, 0.7878380054907629, 0.3212618063961542, 0.3751875539217493, 0.36287819715233904, -1.3387242940014314, -0.33339307976691157], [0.21675599684892988, 0.1402580504652542, -0.3210846995903871, -0.06066010472261146, 0.474287847439412, -0.05449609665665667, 0.3083839631062785, -0.03430800433626682, -1.2090171484836627, 1.2724505109261504, 0.7766716565390613, 0.16994814811331682, 1.254426093198343, -1.2679780250285781, 0.14771786344860333, 1.1921303649631665], [0.644922508586974, -0.6086214633964934, 0.23914619851961483, -0.778462974108434, -0.06159171495569321, 0.52502019970877, -0.21293267457921333, 0.522673084909507, 0.08998067927567385, -0.3084479095132199, 0.5774926889865315, -0.275787734097784, 0.5970003777648094, -0.0201124017106058, -0.2194836331254359, 0.16426959048433742], [0.007172979652951494, -0.2978548356116862, 0.3088243167250164, -1.7907880345808724, -0.04234401450740779, 0.030318926190555567, 0.15571041108614092, 0.5332264830576691, 0.18036148888175996, 1.2038367563698913, -0.5028977143978937, 0.6042402261009772, 0.9012049310435053, -0.4758814534472016, 0.342082486593424, -0.03717379462790546], [-1.4903083594445021, -0.32655388132373453, -0.09790616981251782, 0.2757927806574704, 1.4533136144782355, 0.05602271604478104, -0.10432150572779325, 0.167778284032607, -0.7747559791603756, 0.057104680558925855, 0.5604944090582082, 0.8160910004274259, 0.28535186239591964, -0.170078557085162, -0.5486781952517634, -1.0691548744501735], [-0.7001103440815506, 0.8390163567333659, -0.886422642615228, -0.6472983894263414, 0.4779116818906409, 0.9225750877456382, -0.7319957181402668, 0.03093760505994833, -0.981871382382279, 0.9624207907222366, -0.10947049999582714, -0.06819262187034275, -0.7846627699198359, 0.0802676885596986, -0.3470841578842341, -0.27350146036322287], [0.2041799405543549, -0.057709629377047385, 0.17171956738413213, 0.39320531886315513, 0.07924441029677542, 0.6090869987887968, 1.1876874634183827, 0.05880866399669249, 0.5957140915526399, -0.9752966916409391, 0.08719681814586533, 0.558736934447095, -0.7195896567787881, 0.033121313930685056, -0.3474907216935937, -0.1770414571471824], [-0.345583819598147, 0.2831395917259838, 0.39815613341186423, 0.7028270238907603, -0.07868127664041824, -1.0522151283360133, 0.11450282892073405, 1.1208401409808808, -0.03931010321010961, 0.2705490475693446, -0.036597198237009146, -0.2889152978731788, -0.06733220374113436, -0.3564750240715121, -0.598752814308248, -0.22626238632736648], [-0.1493622374850524, 0.28021632745162095, -1.8061941580816019, 1.0272421503565161, 0.10853435710740367, -0.34464197913612754, 0.05215545982652303, 0.8774117704945197, 0.16738774673233503, 0.022933817101461293, -0.23825828777478789, -0.027333150049208388, 0.4267316380044164, 0.4033656127114158, -0.7673528754805983, 1.1032638929969811], [0.7556032786077445, 0.09083734809132973, 0.11915412824786123, 0.8378184862140547, 0.6634597519169338, 0.1726988385166009, 0.18362638652337454, 0.5413857234037749, -0.01280407677042339, 0.5211571210285266, 0.0873234236180134, -0.42729771994854704, -0.4723785477988409, -0.8365455329856533, -1.498885636026308, 0.6345748828962221], [0.562451092088779, 1.0366706805650705, -0.9123808558883797, -0.19671067810396692, -0.7512894272180636, 0.2837642050490883, -0.42644972691868466, 0.084578134146084, 0.3062594885281983, -0.08418973257099924, -0.42722456739146814, 0.4217717759435328, 0.09089551393309275, 0.7925178552004793, 0.7444581000038326, -0.5365930423307016], [0.3014583044863354, -0.5698385949304884, 0.2902611315764514, 0.28997318647120723, -0.5768304201103291, 0.4464142653910418, -0.6593676322640846, -0.17674997007265264, 0.41014787595855207, -0.05569266783896798, -0.2812995030785432, -0.03994725476191496, -0.6823642496283653, 0.24913824706735838, -0.1327105937951572, -0.31010718513859736], [-0.31893785292880633, -1.73356755202169, -0.03311872408053801, 0.3297678162365097, -1.256156798993572, -0.5027947381726964, 0.4789690106895249, -0.6799726287794219, -0.5182926567282126, -0.28819695129948886, -0.3206667305121449, 0.623472157212362, 0.18013018618253385, -0.7773070457798384, -0.3439799208302638, -0.02104149069829958], [0.5792780592998293, 0.2080512337389585, 1.0451814929244319, -0.40323146191021286, -0.1863231769003112, -0.08015807412292653, 0.06323962298854946, -0.9435111290164122, 0.26018870053069765, -0.38480290691306496, 0.22310259922737047, -0.3326385420536162, 0.4135080931051934, -0.48095030000876304, 0.09380563874714813, 0.28956187463748495], [-0.10564153996345338, 0.38800879873712557, -0.06297608603865762, -0.22700307915003712, 0.904085426869103, 0.6917572621334731, -1.027376794450429, -0.8063103412762094, -0.607734391256768, 0.3576630243356559, -0.40188971586225075, -0.46239567139806903, 0.5902501364065926, -0.43004896576272594, 0.7100372343975374, 1.2486333049529936], [-0.38809128939564164, -0.6979543697958482, -0.017697932645392545, 0.04728459221756959, 0.34157989838591385, 0.29698220666850506, 0.6672835623448794, 0.6444108116046907, 0.12601843414520403, 1.2057768868706007, -1.1167889496846952, -0.38515980158837815, -0.8449504861847938, 0.045221095026167724, -0.05515377875787447, -0.0033433982511391624], [0.5292752301805833, -0.03747085270925929, 0.32143014665284475, 0.09032270254521368, 1.3241624642205072, -0.7308912014019472, 0.20097248574257626, 0.7085970780888584, 0.5148634846924803, 0.2516116314389103, 0.6323073199748033, 0.2603049771542265, -0.9260842540955394, 0.1740728410405256, 0.2937254572080758, -0.18714274179580712], [-1.0704568978411466, 0.23413336445530908, 0.6914567597446111, 0.4252551156516007, 0.5911316996048793, 0.24693676254758246, -0.9312610285248257, 0.9447575576006144, -0.6041138636742088, -0.64902075031256, 0.40742681020934635, 0.7183656449153231, -0.26445515085698146, -0.7516243651807526, 0.013110351322721217, -0.2011349303949124], [-0.9569009370573758, 0.39443860128282854, 0.766047396412819, 0.748959375362029, -0.4722408277716852, 0.10904888270412089, 0.5295549765988231, 0.05357206437311912, -0.17374027132278552, 0.2955046964416026, -1.1098747271504583, 0.8870147870508829, -0.9500966695818617, 0.3674384231655714, 1.051942180458307, 0.5832909136321694], [0.03630080646286121, -0.18218707592206476, 0.6230893222905285, -0.7925482079354317, 0.5959266920186986, -0.004609492063207196, -0.4564359729901144, -1.4494171130503557, -0.3474406026852601, -0.052878539633814226, 0.06958992546378523, 0.027211084911419103, 0.2900196619690124, -0.43586802929101587, -1.7462436580898286, 0.15213294968837152], [0.657407498892115, 0.15216815336520031, 0.020454948763865693, 1.2866202912651303, 0.5145464324504792, -0.2825552637317497, 0.11635331981089869, 0.3442253956515984, -0.355586338109002, -0.02343637658002977, -0.03066091914462246, 0.06641663888478452, 0.06451435669575044, -0.33551678508796345, -1.0816721995091223, 0.35199824320246104], [-0.8218223127239851, -0.39717412814343384, 1.395584261407164, 1.879472352248477, 0.4723785029781631, -0.11797311314232002, -0.3049418536680891, -0.12594823837323232, 0.9030047983642482, -0.04313273697913789, -0.3848243548426734, 0.5987254112865579, -0.2965276755729242, -0.3408065823764066, -0.11732182504655574, -0.3639165403381895], [-0.6950808585239053, -0.31366435286431676, -0.9038349517235071, -0.4164942206391103, -1.323143375934642, 0.6767345541056546, -0.33034909298303955, 1.8629419646576157, 1.5101504835662376, -0.4100135563375595, 0.35827259908270853, 0.4958834710563285, 0.12572090172461886, 0.3180551566522738, -0.09705742626445635, 0.865700858951318], [1.2074073111251566, 0.0946410622204051, -0.010011232431290776, -0.8251199609145511, 0.3104826171462502, 0.2608275237032391, 0.5243183454083046, 0.13994244945879114, -0.6912616726662334, 0.9412693601141942, -0.32168019885152077, -1.139946958377991, -1.3844308328766137, -0.5841939985519282, 0.17775879441971054, -0.33903747281555147], [-0.6495551294450732, 0.9035918259369675, -0.5190125695451151, 0.16604612467267627, -0.2528529917004012, 0.1634111249264915, 0.3243772018899208, 0.6797411154092134, -1.3654113947028859, 0.4097271777109184, -0.40105822403803043, 0.6217820414111838, -0.09259141062919268, -0.26361458962925166, -0.6611303102443924, -0.08818212106638101], [0.010207999445793078, 1.378807377232421, 0.35651743260387003, 0.6143252788289872, -1.6090776790509458, 0.07898442579381129, -0.5473902386539446, 0.41556639525525385, -1.0287802237455195, -1.388815492325034, 0.14092450387608726, 0.7373288529856189, -0.6259260504746459, -0.48754615854397687, -1.646434268006801, 0.18419644376278005], [0.3083949398538267, -1.877117592321684, 0.5999732964787863, 0.13497834831872757, -0.24823463150510333, -0.8038996101708638, -0.3017323525922122, -1.1724167258695957, 1.536135070141369, 0.07856759438454441, -0.47134604844619066, 1.2280614919016049, 0.3095461040167871, -0.7681582496456376, -1.1408689084384587, -0.7575511609905157], [0.07626926891253535, 0.3335755542175598, -0.37747105722826796, 0.37159123647841796, 0.3167880992141604, -0.10339246579306041, -0.6240472223186222, -0.33400541129894545, -0.14202670138688483, 0.04148731965340868, -1.2331693700695592, 0.08633304451136589, 0.4335780304096107, 0.937045779057583, -0.41615528303100363, -0.7788281383751222], [0.3874394436005013, 1.9591826551605416, 1.2148912007609556, -0.981782045676076, 0.3665401528684761, -0.09842598598357408, -1.0159957678354092, 0.49497214473718876, 0.30377384658735995, 0.029349752936510626, -0.3245254616366504, -0.27351667961325044, 0.4200659260494652, 0.30856118817426437, -0.30387627839420045, -0.5289698991935252], [-0.39627330068738464, 0.7443465505620397, -0.9008724038138967, -0.37458479468217987, 0.09053978902402864, -0.8620032690768153, -0.007647876273337038, 0.5460085327212683, 0.9929511512216898, 1.1188415748037306, -0.7069905716249113, -0.15076347576661914, -0.37871877714282426, 0.38059173181246014, -0.626155443084213, -0.17198025006104511], [-0.6669400688294562, -0.7777097822285508, 0.17130640705898806, 0.271665281432536, 0.2467079181599817, -0.6716292815843015, -0.9283047041615503, -0.024362804627607176, 0.053242341275474336, 0.05147749330714606, -2.3246758794087317, 1.108122866881492, -0.48078704691507557, 1.0991326500503407, -0.19802762644670666, 0.589199998586504], [-0.6408089035011236, -0.40923313078613643, 0.1479786853692491, -1.2535309799787466, 0.43318073884744207, -0.7597755661845579, -0.8870102527386475, -0.23176487748551056, 0.7322500566060544, -0.36256624145888416, 0.8522918182584904, -0.4364020919150464, -0.10852051112348204, 0.9942247463993258, -0.08458737265517652, -0.8237214116934322], [0.2633941380250354, 0.9349911107467199, -0.8428584472185807, -0.32909565066531277, 1.3445416247961253, -0.5305145664059734, 0.679863141114659, -0.9837478439577009, 0.607426291001756, 0.8455365945771036, 0.2459958346410321, 0.9150130101930212, -0.11546012809722635, -0.1564766074615449, -0.36749943145438146, -0.5460934419996586], [-0.7664772938163174, -0.16027258508381415, -0.5532737341900642, 0.030696498047772303, 0.2558665777556506, 0.2447458638154234, 1.09898135302699, -0.7814110112443883, 0.7936237485184346, 0.2324674125257424, 1.0006940614547606, 0.4960154014697399, -0.7018999654637779, -0.09897560173352393, -0.29969833922052935, 0.4417822467703628], [-0.542575892388063, 0.3614399131500422, -0.5364326836071615, -0.07402927008474222, -0.483775882632306, -0.25145829226625743, -0.9971508056597855, -0.4205241391675633, 0.6259339610432064, -1.0009479564050585, 0.5825858983302477, -0.2344155256522787, -0.3311717581473434, -1.3622162090920666, 1.227077258551909, 0.8093981796024913], [0.3321650167059183, -1.0148192410144823, 2.0977482364333233, 0.0621862663116807, 0.18593799717376563, 0.21396979813140543, -0.6894392896720543, -1.693650422267352, 0.43291461710630497, -0.23388171963697935, 0.27164247216759047, -0.10348632750399461, -0.28844156970211093, -0.5732194539670348, 0.5408965078107782, -0.15757192017479194], [-0.5449004417457816, -0.6014821704705261, 0.1678085067328975, 0.2698873966607686, 0.4597357821342817, 0.2125245737598039, -0.08022710646702452, -0.3649146923474479, 0.028438111847183256, -0.44996881749889334, 0.5625705956505374, 1.104418586883062, 0.5324902030624815, 0.08331678828951744, -0.7990656240439354, -0.26820093024435726], [0.584350443816932, -0.26338801669104694, -0.43481637587464933, 0.16540430997727434, 0.32273463277231285, 0.08632938037870291, 0.5089480831579214, 0.6490632224891413, -0.9755625857638883, -0.6133930800074963, -1.0886479923170773, 1.152268243673074, -0.24875882841570124, 0.963426805018144, -0.6497967730688321, 0.7499481805300882], [0.21007260486528243, 0.35526841453854835, -1.1109077871791682, -0.06574993530856407, -0.038098289014702164, 0.7566047189131958, 0.8989954694347525, -0.828122360090894, 0.8822231770730201, 0.22144637562321376, -0.0007089019758559634, 1.0964604485620264, -0.6192458526367899, -0.87006321076508, -0.07220173187206147, -0.33263498126703817], [0.19063806267508593, -0.052822131209894346, -1.0075320266898105, -0.8631290642747251, 0.3722999952853565, -0.10223886374015911, 1.0214095769243297, 0.1624451417375113, -1.2977537054103665, 0.2401703459597932, -0.188164027294327, -0.39492844259357807, -0.13863833783584242, -0.5341944700892625, -0.005730575052146913, -1.4937408294769536], [0.39207322372608716, -0.19372001953316215, -0.4910304183263681, 0.26922274603362717, -0.6261868357401886, -0.28785248096689375, 0.47674344989772927, -0.3140248955213977, 1.065054682606341, 0.010893299558521363, 0.3549329860379591, -0.0032082894359941327, -0.7980379476179821, 0.45189118645134424, 0.0417389739210432, 0.2878792482693082], [-0.0836119430858078, 0.11438406552585316, 0.31857433037024857, 0.9897020223749533, 0.056440440152160126, -0.8862468344788534, 0.06834073108663058, 0.7634741222071028, -0.40840470072251955, 0.970045654607214, -0.8436271716692116, 2.6251245624132076, -0.10085702483071296, 0.8932304240142812, -0.001258213479928466, 1.0791512664956204], [-0.7493308354336004, 0.4811415382691555, -1.2598043069827978, -0.1529458304938497, -0.40219250126931344, 0.7034187782259683, 0.6820799205270407, -0.3473350984287076, -0.900966067462337, -1.061533292561197, -0.9404474862790032, -0.7815076203052385, 0.6736243350169443, -0.2599869367188354, 0.26265371226471745, 0.7470179991302526], [-0.17413560863692557, -0.011985382782553622, 0.39763350355624594, -0.4063994197868796, -0.6499621172479071, -0.14983419533201467, 0.5513341157417904, 0.2252467702674939, 0.8390186571997416, -0.775854788067745, 0.6895671884405964, -0.7285181101543557, -0.061069437353231115, -0.11233601117244812, 0.3219561424616918, 0.6002695747311881], [0.6146862049116224, 0.013892685515894954, 0.6533698474979334, -0.9919826017963027, 0.4809016953102384, -0.9451400111023364, -0.7207050836899265, -1.0931131651673014, -0.6827774084570208, -0.5294573410842522, -0.8323476149353075, -0.30097978626270794, -0.6345895722920577, -0.3151700517044066, -0.12839600793302428, -0.0386817906943554], [0.17490945849707726, 1.4372314381085594, -0.9743269702278073, -1.0854942481465963, -1.085444164547724, -0.3382465182551895, 1.2528954273717954, -1.2281756006330902, -0.5343872539393237, -0.3554579949243498, -1.17411894899946, 0.6979208053525168, 0.4910919352237637, 0.5643363649802916, -1.8640126312241483, 0.12131912065776893], [0.16206476467254394, 0.38659747526323346, -1.7188661120010829, 0.1725147857135519, -0.3983063521989527, -0.1367428226173962, -0.033126363352161514, -0.546206977160896, 0.37036245620763797, -0.5053431007126908, 0.5459411073418368, -0.2888208153181581, 0.3251653630425377, 0.48118358499281794, 0.5514493299190961, -0.034173328555905644], [-0.7813330566065375, -0.3706556638028952, 0.4904277300118868, -1.3606833672223666, 0.37850645118035325, -0.6624991478382536, 0.16004925356561855, 0.01605560293189201, 0.17779555783981227, -0.12076289557455272, -0.04260777640409162, 0.7152420862233068, 0.5666628592156602, 0.23968620078543984, 0.19479648093877455, -0.5022240424020251]], "b2": [0.24178617764879215, 0.7457277177736074, -0.5925233227888536, -0.42874834852171195, -0.050458912658031596, -1.9613545673402188, 0.6812574655909431, -0.05248406841573634, -0.2682321647574435, -0.21445632093757355, -0.11554965737533268, -0.8706344057327595, 1.4764128634102358, -0.010283878636142274, 0.21008303778838747, 0.9345757262878914], "fitness": 0.6061224489795919, "wins": 594, "games_played": 980}