{"network_id": 12, "w1": [[-0.4384643695570214, 0.34133497408712304, 0.11131291212266314, 0.09091055624291762, -0.29465762458002265, 0.670976887229732, -0.3751210953635412, 0.6853135563585286, -0.022614551917981562, -1.481949254815931, 0.11711299698452862, -0.05347676720157324, 0.29516225226876375, 1.2199955605142867, -0.2624253801701717, -0.3472098278214672, -0.46481484687560737, 0.4366014730938407, 0.4490114023740346, -0.8832509710349927, -0.4561187707248602, -0.23591396356487604, 1.0648493871737157, -0.1254983799697395, 0.8003081513672927, 1.261224792705478, -0.5536342035410469, -0.18946360731019227, 0.5558996543031127, -0.09428173477039686, -1.1713884741052343, -0.8700844999354239, 0.7415459434039507, -0.28588093319462227, 1.0320661587801707, -0.45058519667254376, 0.9062204618660684, -0.38571790015144525, 0.403396974564383, -1.2532423237316537, 0.8667105126091452, -1.0126369829979578, -0.18124044653001947, -1.0434846563929794, -1.2939469217444706, 0.662112138308542, -0.5896070228538453, 0.07473551489457461, 0.4641203932175191, -0.09724079728512194, -0.3464200406433655, 0.1950168475023688, -0.7730024364053327, 0.3617433453045485, 1.4053687566380362, -0.8134784604987371, 0.9116926210159186, 0.20761955946834093, -1.0520131714779244, -0.17025580006349955, -0.5108657815041616, -0.6412919834682647, -0.21192072362562664, 0.17175247138261213], [-0.7000410078790285, 0.0554618312437312, -0.7650361253685485, 0.7181455728744841, -0.470675714578783, 0.7964368487902183, -0.27458983545984206, 0.24971650625444525, -0.19355453018486296, 1.1269854614766737, -0.039515843284236934, -0.5010120078594417, -0.9214171404653217, 0.0646077223505438, 0.8062619823161652, -1.3305961588673765, -0.7906869997465608, 0.2291440360621564, -0.49750241220518066, 0.4421131748363272, -0.12564201792660984, -0.31103430689196754, 0.9896067530822279, -0.9518738527592432, -0.9205290584428262, 2.0204146902430606, -0.6383971514642753, 0.35093795130900235, -0.4564946276708805, -0.02142448311763237, -0.23174548739935097, 1.219611131540419, 0.00010605508883582138, -0.21952174180244777, 2.0532006395121742, 0.9662024289780473, -0.654180603519648, 1.194749619525838, -0.26228764620180506, 0.6157853101835764, -0.7381860086728794, -0.6516776029947778, 0.5360844360555809, -0.5732417872026986, 0.2932185180678946, -0.2740354984789764, 0.8334202942772878, 2.029423343264538, 0.02091122164397552, -0.27213533668562395, 0.7811900640740461, 0.18928998767717065, 0.07725440090960456, 0.5385294454107397, 0.541643282805586, 0.23611129863410685, -1.1432144739479695, -0.6019612922981769, 0.32275003340452363, -0.16413832863726763, 0.1661909836124637, -0.42164527408713887, -0.8736386676258594, 1.2026812467576038], [0.5193740873507653, -1.4079194783548425, -1.2527596348898866, 0.5588009494929456, -1.0952825957723826, 0.5059854537941112, -0.3642210797640585, 0.3124981999441365, -0.42814320639819897, 0.2796255963107775, 1.0662795692113045, -0.9355544170308029, -0.3330611443443108, 1.9700542135789152, -0.0885998947400741, 0.05639594455612612, -1.466777110716639, 0.3654984658363152, 0.11322761733489417, 0.824265891982863, -0.2869714842911263, 0.10735680110297037, -0.12554357501759114, -0.22879343430387764, -0.7853650219025585, -0.2836748156442987, 1.29152483108868, -0.4097241008641512, -0.43578787233758304, 1.1554083673244817, 0.6153094219844522, -0.3867607885500227, -0.8555756203752121, -0.7104403997012456, 0.5057427779845557, -0.1966090638491519, -0.261863781054826, 0.2716132023556838, -0.6913026275552843, 0.23699032319113156, 0.7986535436554426, -0.08567217731484714, 0.6151257221594053, 0.9317586837833293, -0.6999961458238502, 1.1030833292690538, 1.3794216954111884, 1.0301235703197185, 0.7891596342837309, 0.045983596825766304, -0.6353277441499273, -0.03791802186196169, 1.4696211453935764, 0.7530710562714933, 0.08288671717140092, 0.2815241431110533, -0.6470419826426572, 0.4264440619894587, -0.22753981833296694, 0.11074635489506482, -1.0821868267140098, -0.17907020874548638, -0.21161995160279667, -0.443743868652024], [0.6353144397279078, 2.017127853574088, -0.6613619625242303, 0.17423879096440092, -0.47635226626525595, -0.7142382777679426, -1.011941270826185, 0.005361382611010046, -1.4335070583382739, -1.2498629446574003, 0.6335931976969515, 0.6134463687807495, 1.3616570554967748, -0.4858083801182655, -0.35931021398990726, -2.18737494539146, 0.08609610379843062, 0.1931262624327069, -0.262616061706805, 0.03308394974572482, -0.7465482340975648, 1.1086875731570496, -0.40092592166912555, 2.2070031154234893, -0.6857143726514603, 0.24444374306898667, 0.5418021235703951, 0.03650468229743211, 1.185179480637101, -0.6127715996676102, -0.2668878241148593, 0.33653101610421177, 0.2623287206797818, 0.2562870738019087, -1.5258313951939044, 0.36827380111541685, -0.1282849728712921, -0.05376669919978245, -0.22393953452752696, 0.6960244580017174, 0.11424865634556708, -0.8594670595309716, 1.0018917099274949, 0.6112490448410879, -0.5403322422331337, -0.704595182610338, 1.0410187822892034, 0.0871045817274161, -0.46232843066735985, 0.17154245935648738, -0.4634978359511127, -0.6774185188828588, 0.961275897932366, -1.1108119488830115, -0.11219714511987638, -0.6723772874397415, -0.45143052981668286, -0.2648241288938533, 0.7594097157990838, 0.5549963636897787, 0.6853867574063734, -0.3619591995504117, -0.4074160015157926, 0.30993504633249425], [-0.23927545981421688, -0.4786966662760504, 0.10896670285071319, 0.5837098906897271, -0.09466923680059518, 0.24807452625118465, 0.5769393309604967, -0.7513921463824351, -0.9274153855033804, -1.064937204472724, -0.9034451280982019, -0.9965706272052235, -0.3213514602933621, -0.5491988657248993, -1.131541226719921, -0.051280089121648574, -1.2915740106289866, 0.30059182287664754, -0.7950478951765602, 1.0168230959031643, 0.04492874720389768, 0.4028069501648215, 0.9435147647638081, 0.7918830638758767, -0.16181540164773678, -0.4174825750348209, -0.38717234308883147, 0.23038209880672753, 1.4857859418906354, 0.2557076738005295, 0.4934406504873561, 0.8287238241658189, -1.210219051724391, -0.06550738831386095, -0.6872460412378499, -0.5525759729394789, 0.5678227102807948, 0.7663150425166234, 0.5507767802833963, 0.16321430203150206, -0.564371692935162, 0.22010591844617186, 0.9024337999474457, -0.9317364171247953, 1.5259173726854423, -0.8179364975518865, 0.06302603011233282, 1.9148558594570635, 1.0256655591222013, 0.47060243881693065, 0.6122811011806367, -0.6922842468241748, 0.6717315896573189, 1.2529353152185758, -1.1805129063677802, -0.0645342151090455, -0.4072243678151989, -0.008504376607639447, 0.2537241845315528, 0.2644518942392999, 1.595656188412714, 0.4078007902197443, 0.7465713586322619, 0.5536074836103242], [0.6864994749148886, 0.9564591717101477, 0.14226258669828942, -0.4193839894995621, -0.3961750273991568, -1.9173136897830205, 0.01244749609365503, -0.4825894175759847, 0.051720339574676116, -0.23207502658608598, 0.06742378860771507, -0.006679115917340106, 0.33635500941259033, -0.5621339117897682, 0.2727956192236106, -0.38208796819974744, 0.35894794291217974, -1.1689931228327597, -1.146791938405572, 0.10902730291006127, 0.19163781893102796, 0.25580615272153356, 0.4121714637915416, -0.5182277760456016, 0.22754095190372442, 0.4254564612741702, -1.860898355194373, 0.6505360495083217, -0.3899265587739035, -0.3839713640413683, 0.49396763464003934, 0.28208529399973964, -0.6942748357320075, -1.0803158978961693, -0.5946038322921101, 0.13809363612822026, -0.7265105898960594, 0.33385278134079194, 0.5104392255105459, -0.36705289099594257, 0.174921454871731, 0.32300846749824974, 0.29496382137631516, 0.7295466176825911, 0.36545515756944635, 0.6046003783138638, -0.26254960121484594, -0.20747239080104837, 0.03460932897162, 0.8310709028840885, 0.6822724398231728, 0.1606380324393447, 1.1315049518303677, 0.8532802483772648, 1.698402078221462, -0.5579270825261788, 0.9677262676007081, 0.021070951022809314, -0.09021985468109164, 0.3851702685200127, 0.35584467981097045, 0.7133462700000204, 0.2930770675685027, 1.274018457514534], [-0.4731236357500489, -0.06843514910756576, 0.035763387446965576, 0.7167862013457532, -0.6416431499258379, -0.535397612266348, -0.31272569904558767, 0.6980936436264803, -0.26611531855660897, -0.7538670714560249, 0.20235337537281706, -1.203033572443797, 0.5410274754808105, -1.8771375978720561, -0.4994956335533436, -0.16533350478923137, 0.7453093954988316, -0.6438869711329783, -0.7515372461306337, 0.9093278859399938, -0.07157640602690576, 0.09285750079586598, -0.1283694401996404, -0.9557794996569382, 0.26425311941636115, -1.2368279603811774, -0.6423056250773537, 1.1292431702082872, 0.9182809501779392, -0.6086957967374415, -0.06101447196115484, 1.2864522583258866, 0.9169426766666472, -0.6514418632947858, -0.09368838968842513, 0.1790651989306936, -0.8089808325149537, -0.2907081867415696, 0.44782946872067014, -2.0359690162691475, -0.7471972200075709, -0.015077605135402461, 0.30060157689761424, -0.3956557781239912, 0.5672678486521149, -0.10371266420354726, 0.24275865516184394, 1.6741336114916394, -0.7221917163656857, -0.23589975958276993, -0.8039662313475333, 0.09000679537848572, 1.2337140167036078, -0.34271989640792133, -1.1107043504563614, 0.6187956513198114, 0.10468963157124389, -0.27538254066202694, 0.9375381557697021, -1.355229472415461, 0.3723113040677182, 0.5858754615993645, -0.827052086149695, 0.8952964641900029], [-0.8387124472210137, 0.45357592529119267, -0.19783585740041573, -0.014770901858952468, 1.3688366648218666, 1.1635263382785865, 0.3112360519810849, -0.20100959432431142, 0.4489957017563445, -0.07853608515809893, 0.22103880146435229, 2.07514707879455, -0.08557041218058231, -0.316992722820995, -0.42292482161206346, -0.590390153632394, -0.3980644472157625, 0.01668342523717628, 0.7882019212917712, -0.21027056098631858, -0.030477501650902683, 0.03340661096087104, -0.24946103582183093, 0.4367304671123171, 0.15973856741914483, 0.2937951555246491, -0.27647202392195813, -0.5918616508187757, 0.653371418238868, 0.396771544685412, 1.462501415747769, -0.6496310444827386, 0.29208766325795205, 1.2174414031912857, 1.34311055354346, 0.09197590790948734, -1.0749080000790527, -0.06587110095027499, -0.11409705114213248, 0.7589896747845906, -0.6099932483613011, 0.041777667039479216, 1.3451682917709147, -1.0062005987371778, -0.5708968088385813, 0.5707696166511682, 0.26839557528732394, -0.18037038705707112, 0.8256303744577, -1.57210008503754, 0.5932678678274985, -0.2697812254954278, 0.6171361097235128, 0.685258412785991, -1.6529642957313408, -0.005858997713918651, -0.17238126788054253, -1.3674322483092136, 0.8185726395441045, 1.4563651518264151, -0.5117406693058022, -1.192126870007856, -0.11928991464415634, 1.8298967549567868], [-0.8845583612148252, -0.5542872233439728, -0.3215807624507291, 0.417781131720405, 0.4168682105155832, -2.418069462486295, 1.0188128051732679, 0.5114398980457744, 1.4415094143432072, -1.2931491726355302, -0.7012619913083931, -0.4701718498759316, 0.4500809907314507, -0.642177303756401, 0.9976341731799557, 0.034626126103497246, -0.1720463927845446, -0.9231505101283548, 0.04693005057594211, 1.4050400688458997, 0.6845074705788782, -0.869688893599524, -0.5854339841888754, 0.5423454341768489, -0.4572070335293487, 0.40533535794768566, 0.6903170614706577, 0.4736828684842951, -0.375644934218906, -0.26551633132863, -0.14238279979027268, 0.9642597283363156, -0.42710301752262914, -0.3910455873781135, 0.24636667144050334, 0.5855373109492139, -0.913145831753726, 0.19018567790273774, 0.09818621151329782, 0.10714469611834837, 0.6147372996162003, -0.6203862391833529, 1.7565192498791853, -0.681327959418086, 0.08180192640876496, -0.6543051597900624, -0.35959333729109005, 0.9967432219493844, 0.9901615397591378, 0.4427978566533682, 0.5077502928272313, 0.5193476667705154, 0.6368332618424237, 0.35268365367180743, 1.5382692748343396, 0.4900598733090501, -0.49627815764316685, 0.5478914703350537, -1.3599862671935428, 0.8100643924347686, -0.6468395897976927, -0.44291070928426757, 1.1770705139536688, -0.6437707665024567], [-1.3119460159808234, -0.454178621618597, 0.2087500211502123, -0.21906777023006627, 0.720478945967446, 0.24036518506379193, 0.8045802148693456, 0.6362948382946414, 0.6949275850713326, -0.3902816039029707, 0.024834691109829, -0.17216520658973833, -0.7870789761901023, 0.2361147846079433, 0.0972189817469134, -1.3939963172553118, 0.2761497629578247, 0.20756592809529645, -1.4948600849477067, 0.34449372894797403, 0.6776361896854055, 0.4033441668855344, 0.09432745551899999, -0.11043906200492978, -0.33708506143999456, 1.2022094218686563, 0.5336308089167047, -0.553882327867854, -0.6328330472196366, 0.14836208312925123, -0.8364670365716288, 0.23762835986820785, 0.1787040291425408, 0.6248268720100499, -0.5584492679152512, 0.024281178696028083, -0.9538665274457556, -0.19201708174231272, 0.6097229698145685, 2.020429061169062, 0.3788686386987966, 0.6073246913131843, -0.8547801774173391, 0.9746569113000387, 0.12461052355001095, 0.2361584612838045, -0.4075978619140373, -0.27953370837945135, -0.2124134572367315, 0.2916007566006396, 0.6647468357874293, -0.33574285309880514, 0.42257306931478505, 0.13729306129620533, 0.008582809961108731, -0.3346236323001209, -0.6689728071705325, 0.7359478838781328, -0.5421999567987111, -1.4223754203197085, 0.05839625881502425, -0.06226455048348023, -0.8835479493115812, 0.24670451902803048], [0.7294236002462989, -0.08840013593595353, -0.5067433449132555, 0.07162824430121627, -0.22000948734009426, 0.17318877041497802, -0.09359221414410032, 2.321604425891318, -0.5361232670080813, 1.447645871973811, -0.04556452597138688, 0.5004391683044563, -0.6892955891245365, -0.6632548291672764, 0.01606607838868168, -0.7275295202432964, 0.3279646969338499, 0.6926684240758642, 1.1176234486689414, 0.29459735801272746, 0.3759436955824256, 0.2703301925528096, 0.0656242917125389, -0.2682827096802851, 1.3337740569017347, 0.5658269681165712, -0.36567284566058655, 0.4332916848774343, 0.4908654593645888, -0.1585821525007423, 0.35443150644193916, -0.24194976418757316, 0.04200480887291161, 0.08061781573192028, -1.2496983468229714, -0.23170515620880378, -0.3433412113906947, 0.5252090748826485, -0.42432998103613045, -1.0151320863904159, 1.1372326004280422, -0.6671497770964395, 0.7539444591631776, -0.2078148957931012, 0.18926503526073024, 0.42721095424899147, -0.09491016752482373, 0.2703926436888747, 0.3361730340530583, 0.948205806005334, -0.2538620900467392, 0.9281332279389855, -0.03576814375076426, 0.7869553666751268, 0.660766276006326, -0.4022983025954047, 0.11216907857728714, 0.4674615730347423, -1.0158819543845101, -0.06859907758319436, -0.07670513745411695, 1.3184872915996353, -0.41746124998898876, -0.4335570597949978]], "b1": [-0.8162941569110254, -0.23707755135950803, -0.3448876453372618, 0.2905985330991296, 0.05747290097279523, -0.8224769180938467, 0.5453093258862917, -0.5183680830625371, -0.9657680879772643, -0.3795350602002169, -0.1969312522851498, -0.6593740730532905, 0.06420086802581274, -0.22574228538984797, 0.43320439585585646, 0.27893550654384375, -0.20554329182487927, 0.7115657736276019, -0.11619287927188815, 0.6230838835478275, -0.7258082563599383, -1.5358527983290786, -0.06714294356780406, -0.8750769058275283, -0.4084897209873751, -0.623158269424143, -0.007144517834133571, 0.7939612590922526, 0.6949824020159944, -0.2032119866540487, -0.23753733997382545, -0.7849783447277788, 0.559095309961199, 0.4045369757846988, -0.7008185401309182, 0.04255232385809962, -0.3478782769943697, -1.086196721519108, -0.1875324714938238, -0.11629717008179336, -0.15654426428045343, 0.3898665356732619, -0.18997242632234382, 0.02591497417309995, -0.4839417766329034, -0.007351562676545714, -0.23120354217163175, 0.9822334106459257, 0.9083352791061452, 0.5770926477992955, -0.45544067079945283, -0.4692254712072862, 1.1620818148380516, -0.3320831755117797, 1.0011430453750971, 0.3297439512431232, -0.49497299672165057, -0.32701705338871967, -0.2033815680345594, 0.2902197411115865, 0.5558668798832156, -0.5635351274454037, 0.5909020670321868, 1.2704378659338302], "w2": [[0.13085420811717152, -0.08087927699509406, -0.04857939646564344, 0.7631149677849252, 0.32017524533207414, -0.9605028856904388, -0.28868239872159124, 0.7380475200851443, 1.1210646754865472, -1.0007190253805005, 0.14159523511617086, 0.07818502864759988, 0.2906609630083882, -0.530442423618305, -1.4317075536311845, 0.025813393253526606], [-0.014391369586270464, 1.4706669060111628, -0.008780681667149973, 0.6031762132838431, -0.15786034219872042, -0.316950482551874, 0.48026312499123436, 0.352062748929106, 0.2144226567002132, 0.03255044904176263, -0.16644368323884973, 0.09252320741459455, -0.693950743885127, 0.660912578120672, 0.7051455347222463, 0.316085063814446], [-0.3956846395936481, 0.12696359542820357, 0.7955481775425872, -0.1148485525252621, -0.9277895602169781, 0.21237198799672968, -0.3074577324285314, -0.09227839769157017, 0.7237158199645208, 0.26553557501099556, 0.3624746081658462, -0.18332805938059638, 0.45986397455854455, -0.3790746275513083, -0.24433036817790238, -0.9977207901602156], [0.14169052832251525, 0.19233250607386548, 1.166317411550688, -0.08218567665477228, -1.400714079377164, -0.13532816091173938, 0.45667200215337206, 0.746341702427654, 0.6994445144879186, 0.8542701910586459, -0.6915183579656119, 0.768102163951224, 0.8053158907820641, -0.818492274367526, -0.5379595951026409, -0.3229534974640189], [-0.7337778114622437, 1.0949371399468937, 0.06443067655972079, 0.11004501039494086, -0.5516896066610636, 0.8831911889103403, -0.4888591981430531, -0.24530337303374722, -0.24545909946386565, 0.031206889668335125, -0.9667031158918048, -0.4213034750103928, -0.4326930552732109, -0.525632831440097, 0.2188276409360855, 0.2853769111024863], [-0.24081591049366938, -0.3634745614258115, -0.4048791315626793, -0.39690889573068744, -0.8472685192668594, -0.544354467589479, -0.9392122588403751, -0.3560685475460238, -0.9721160572526402, 0.5768691167753426, -0.11681604339845493, 0.7541750097916902, 0.24750642896066927, -0.5502460230033066, -0.6133051392291636, -0.6696538725660524], [-0.08430714665196248, -0.2684951540220127, 0.9661941825650354, 0.7676469936921362, 1.1877296498253964, 0.23169113670837205, 0.37320383804546964, 0.6475552962964818, 0.9610768465315849, -0.06600334924160314, 0.4540069890447783, -0.43989967218723935, 0.1532762097142046, -0.5249877577571394, -0.6205036297081672, 1.1356718438635147], [0.38222258677539145, -1.4290566736105974, -0.5701411585544824, -0.6879106513384745, -0.7101582932515792, 1.0995634090390654, 0.6804828283154307, -0.5500236569900433, 0.4491034244229593, 0.06314376829051405, 0.2877769025085317, 0.8673653243236217, 0.13699441156035042, -0.7814144803839577, 0.46562517880261967, 0.2782998913932672], [0.8886705108172557, -0.620009363375237, 0.16018615742522113, 0.3235544378430299, 0.4903412731607811, 0.26024350402854957, -0.8823640188280962, -0.6222358548078712, 0.6389719886387335, -0.4013530899741832, 0.6921513434867614, -0.7271294010214934, -0.7443506082512623, -0.4999629961816658, -0.500603763519452, 0.9110227851357072], [-0.08474187296661079, -0.15179189471087773, 1.4448480085293887, -0.2868073496162157, 0.322756764483729, -0.13000684293881373, 0.9858547768185367, -0.29207995673912585, -0.436534508299673, -1.4831794014021678, 0.8031839931156612, 0.3307985435830935, -1.0826645940774804, -0.8478668476673649, 0.39889997575583996, -0.7591491060778268], [0.4943921065667876, 1.0643040089088318, -0.6387646225882753, -0.706320614221315, 0.46829912738108087, -0.7486835117248476, -0.13966029503678945, -0.735912848898607, -0.1578350760327777, -0.7868206477394117, -0.7290068746988002, -0.7303999290502997, 0.5978582628847735, -0.7526961688689444, -0.015245779680270063, -0.46625148587194465], [-0.8821028809405094, 0.1526389227604581, -0.7456452233887947, -0.02702985185342935, -0.8411942777089261, 0.0005261150402718628, -0.21202135542251088, -0.28327493144314153, -0.7896098105563012, 0.3611033378268919, 0.41361784456627326, 0.7659256703285324, -0.18297282365149034, 0.7905281966520008, 0.21690318971397976, 0.7818364002695403], [-0.7465802201223973, -0.06545763950992933, 0.10243240848084348, 1.2458593005817984, 0.8909395319630913, 0.2944473528182079, -0.3828695037175325, -0.9688586819687777, 0.16070887493622904, -0.4031595418667329, 0.44985541506132154, -0.9363830603611201, -1.0207455215626433, -1.440347003310051, 0.15560882033701195, 0.015775291447613776], [-1.711187637627487, -0.6752701954284915, -0.2230010352419653, 1.2710846302997938, 0.819558670321149, -0.4963089790819131, 0.858457843418746, 0.2271410745253332, 0.115078420872819, 0.16076236871987704, 0.6001004177083151, 0.2776533784970098, 0.35193376573317126, 0.768718059815459, 0.5544887935566063, -0.47938287810019653], [0.22576998674840487, 0.5781013571326673, 0.13167339977667286, -0.26983478305818837, -1.1226974893183865, 0.15722107750045367, 1.1161705931532477, 0.6997624394618716, -0.004577401831451111, -0.37835919346561764, 0.0895079896405784, -0.6671235966651334, -0.24696311886759312, -0.7189289521959322, 0.1324356669690932, 0.06384900706114735], [-0.27837435888118955, 0.21689997370115724, -0.18604545389932667, -0.6763386941895028, 1.0341592981878245, -0.4854346635709171, 0.4261350213196638, -0.14323773351674904, 0.8107824162577891, 0.3983223468860184, -0.21233889680490992, 0.3239876190295288, 0.23006653274304406, -0.022208680040609934, 0.4671810599242554, -0.8711061485715053], [0.41578302258444466, -0.39365182614777294, -0.14119903736595746, 0.5940285008457014, -0.13847304044839776, 0.670877170181111, 0.9147605134434291, -0.6980280107630923, -0.8173418466909708, -0.23370475720544892, 0.6683924244461308, 0.33576800987063754, -0.1677154714731129, 0.006157505492742521, -1.230371586733301, -0.11489956907427107], [0.13017449720999894, 0.1402580504652542, -0.1512532826548056, -0.679002459380201, -0.04332546094092121, -0.05449609665665667, 0.7091735254625126, -0.17951079369396342, -0.36323662193814527, 1.059481205301078, 0.10508512483618074, 0.3389187712569256, 1.056962121384821, -0.9373066827679876, 0.14771786344860333, 1.1403074879037811], [0.7421500147477913, -0.9078462273882812, -0.3182939157462472, -0.041527740432660054, 0.29051970055308235, 0.046334899825953034, -0.25943855323286374, 0.8020957698425593, -0.15817654991128532, -0.3693068884186259, 0.6922214024944771, -0.3067627425132392, 0.8576533469817215, -0.06369590760389857, -0.16300407100330994, 0.14131471474938279], [0.39913888772928063, -0.2978548356116862, 0.3088243167250164, -0.6528957383594103, -0.04234401450740779, -0.4061714589975977, -0.5019447746220262, 0.07755508053983212, 0.7060921228465697, 0.8730817361150849, -0.5028977143978937, 0.3236308502243723, 0.6236574048835042, -0.4758814534472016, 0.9505940894067377, -0.4034846590014489], [-0.6639103113349014, -0.32655388132373453, -0.18799617217763354, 0.31885237606001593, 1.4533136144782355, 0.3477794958870538, -0.10432150572779325, 0.08248105775773254, -0.15507487483571292, -0.5123280405684215, 0.5333517195920304, 0.6340683465438968, 0.28535186239591964, -0.21035895584254227, -0.4211454895493623, -1.4800882495181302], [-0.8778665411281787, 0.45049969156555114, -0.03339193448884366, -0.6472983894263414, 0.6385423729819125, 0.2517367078778868, -1.3762743121573973, 0.03093760505994833, -0.8641567167270319, 0.24756420154527675, 0.34005883974576656, 0.20223362905036232, -0.6603739598246232, 0.10178635759195881, -0.31835797096444485, -0.43460179667628007], [-0.28641785616983084, -0.10473782910846297, 0.17171956738413213, 0.39320531886315513, 0.43991357735389536, 0.7469071574525681, 1.0452315112609347, -0.34285377462249034, -0.058679176393962584, -0.25705260307294775, 0.08719681814586533, 0.3757030578520766, -0.4573495504277336, -0.030685502427167624, 0.1290164702692495, 0.07055323138030523], [-0.20098100185446993, 0.2545789643686256, 0.5265156102268633, 0.25755324143341823, -0.24757702933718084, -0.7765996422032306, 0.11450282892073405, 0.9453533470580078, -0.03931010321010961, -0.3819959538609615, -0.036597198237009146, -0.3523686632139523, 0.022748219697228067, -0.05855725856593069, -0.598752814308248, -0.1545850445164173], [0.04755299349237902, 0.28021632745162095, -0.8332737579117251, 0.4503959444426354, -0.08914127133951005, -0.12340958510644487, 0.2313314860578382, 1.033617572414569, 0.06669884103629137, -0.19193774004442354, -0.12084694891601205, 0.3303886007234503, 0.5787515139722625, 0.0040777001639442645, -0.19995759966015197, 1.1032638929969811], [0.06473344665449049, -0.45770479265168584, 0.17850175910827565, 0.49247356662869873, 0.2420539376286763, -0.003257493429075442, 0.3306761979158199, 0.5413857234037749, -0.34788134228919565, -0.28135745627317965, 0.19561484140378638, -0.42729771994854704, -0.4723785477988409, -0.345195640850371, -1.1960176493258312, 0.6345748828962221], [0.5056784429776358, 0.6341980999901202, -1.1233530666166924, -0.19671067810396692, -0.9068255335035582, 0.3526815767759298, -0.27666267856100824, 0.084578134146084, 0.320142583530201, -0.06360209695628857, 0.10991671309219182, 0.9492070057957492, -0.21578053314615897, 0.49473114592422307, 0.19914667253475984, -0.027715276645830844], [0.2817372597561209, -0.5698385949304884, 0.17028791715424196, 0.28997318647120723, -0.5768304201103291, 0.17556683776494753, -0.7216525132712032, -0.945842265422664, 0.5342771616276814, -0.05569266783896798, -0.7554709638286673, -0.23677057126718234, -0.3800463366479928, 0.05909884913086064, -0.44160980401344746, -0.10692320855236487], [-0.5945306593566636, -1.4732137978028277, -0.11035255584326627, 0.3297678162365097, -0.5986537316150056, -0.5027947381726964, 0.4123563273514208, -0.294397505385671, 0.2818034685064871, 0.05351127900842173, -0.24823179642204357, 0.7342696569379632, 0.18013018618253385, -0.43140117197371497, 0.018245099926178683, -0.02104149069829958], [0.7170336177916279, 0.9217249002115162, 1.0451814929244319, -1.1340076020952878, 0.15701679467129398, -0.7589159868107607, 0.13048968705186598, -1.228928895629524, -0.3751483620192416, 0.12793513827702854, 0.48708122076949373, 0.13629547065108838, -0.3464882801349147, -0.6174406920760758, 0.09380563874714813, 0.45217347398450425], [-0.10564153996345338, 0.38800879873712557, 0.1705653192393345, -0.16639174355932784, 0.7593997039269326, 0.6917572621334731, -1.0664710398576067, -0.3791752884807419, -0.5471409366107198, 0.3746225385447482, -0.4108534338928748, -0.9303806191714961, 0.5548409357660793, -0.5729267645656938, 0.7100372343975374, 0.43631986636021736], [0.05253127992421633, -0.22546204335895476, -0.8995571765673407, 0.04728459221756959, 0.5228791146695326, -0.09561967009436959, 0.3438925050129297, 0.6169596063401062, 0.5761662760418131, 1.0580011110973653, -0.7296858193446627, -0.9169285629212852, -0.7266821646721091, 0.045221095026167724, 0.38353983582184875, -0.47710969011006976], [0.4601044087859989, -0.30588896675591226, -0.09176881428468014, -1.0241772487288987, 0.991277918624905, -0.43275616989736543, 0.20097248574257626, 0.7085970780888584, -0.2134368709353265, 0.007925469086884185, 0.7023668782776489, -0.023771012708091732, -0.3971643427369063, 0.1823754628699278, -0.09854026368857699, -0.04212588834147535], [-0.5605627670619852, 0.6516839584148609, 0.9498946369124817, 0.48768804649574404, 0.1669881926184263, 0.24693676254758246, -1.1036131543148309, 0.9460668086299318, -0.6041138636742088, -1.0180058484213947, 0.40742681020934635, -0.30401960305158904, -0.7183346680860297, -0.37372989724497296, -0.164806863138944, -0.2011349303949124], [-0.8588502079649853, 0.39443860128282854, 0.36878395669510955, 0.8228938794826248, -0.21120780094481606, 0.716194015733148, 0.41436753118681086, -0.5997827323053819, -0.17374027132278552, 0.3938681444208759, -0.45253226473570496, 0.6032051910080455, -0.9500966695818617, 0.5895860736470456, 1.051942180458307, 0.5832909136321694], [0.11342933713046416, -0.15690328932011516, -0.5705025446611851, -0.5541436737933522, 0.5959266920186986, -0.023898321701597558, -0.13579691487621076, -0.9701373437982556, -0.9138874445165854, -0.47446947632542624, -0.6709239551103563, -0.6262705141599195, 0.4728215199230814, -0.20731476666078336, -1.7462436580898286, -0.03231678294391546], [0.7513053663382703, 0.3655702760775767, 0.26683012697219466, 1.2866202912651303, 0.8365007235018076, -0.32715260129840273, 0.00765465648484516, 0.19227434991085968, -0.09433612725726293, -0.10204413549719582, -0.03066091914462246, 0.22467105119931227, 0.06451435669575044, -0.33551678508796345, -1.0927424849680618, -0.053169389880308254], [-0.8218223127239851, -0.39717412814343384, 1.0736591754053173, 1.2428418719620344, 0.4723785029781631, 0.13939650321425032, 0.2869731691689885, -0.3360952113137797, 0.5454683824922549, 0.2705947783129979, -0.565267403405179, 0.3129705123733184, -0.48969798429881, -0.3408065823764066, 0.5159658664425013, -0.18312603760364976], [-0.5503346061098353, -0.13572844905312575, -0.9038349517235071, 0.11445112640156081, -0.8251732050636374, 0.13212446740296152, -0.3415499911799876, 1.0457593338368636, 0.6875165397075453, -0.2082645247854651, 0.5658350412263854, 0.44149437522927515, -0.05233639738024465, 0.1818659963869605, -0.09705742626445635, 0.07076465196853354], [1.4394013392695648, 0.17589506337050953, -0.17768746207208994, -0.05950450881120264, 0.2944878555827984, 0.7089076445585327, 0.5360358789591047, -0.03672768894668382, 0.04592296761851782, 0.27774983114808743, -0.8103262952612758, -1.4076460465106044, -0.9852393539850688, -0.5841939985519282, 0.2205250474560492, 0.33686321088614407], [-0.12074955347003968, 0.7677782895044464, -0.6278799411593459, 0.8214698034179684, -0.12757294790798623, 0.5828406638668623, 0.06673335766853308, -0.05815509975259861, -0.8538887637361903, 1.1088310018334508, -0.6470537481411626, -0.10314650713006186, -0.2239938930162813, -0.6600815470181421, -0.337769907566376, -0.52072982148709], [0.10781283424475469, 0.7789792212058693, 0.2587870185991291, 0.2703056271745315, -1.197067518825512, 0.07898442579381129, -0.005004167472288323, 0.35076748481285946, -0.8531766845349257, -1.0217029315198893, 0.18955348114844983, 0.3888195994114486, -0.782378555553189, -0.48754615854397687, -1.611213491120754, 0.18419644376278005], [0.5828926640480453, -1.502708686721714, 0.2591715694869495, 0.13497834831872757, -0.18752445817137747, -1.0126191201575243, -0.07488692286206836, -1.242341078905481, 1.161292316001184, 0.18728306337211054, -0.47134604844619066, 1.0323594882356817, 0.4128034865899993, -0.8395491407530207, -1.1408689084384587, -0.5983016002410565], [0.07626926891253535, 0.13997490645232574, -0.6933085486126267, 0.37159123647841796, 0.47591689977630247, 0.13486103676933608, -0.476901328602985, -0.33400541129894545, 0.4122740765409897, 0.7456852606154074, -1.050255710752056, 0.21365872000491548, 0.40652999004380796, 0.7907748182040024, -0.43116278833954524, 0.4645789894257697], [0.046584001717776276, 1.943218263241481, 1.6791340353273903, -0.21319114044289805, 0.15228351592548123, -0.09842598598357408, -0.7604098681829023, 0.7192364781377802, 0.17806818299028598, -0.14357890994217598, -0.25217922353528566, -0.08963838858156697, 0.40523270642060577, 0.394100536193839, 0.010757097061253489, 0.07622843997258663], [-0.2141135058720533, 0.3748013531428599, -0.5674133807300579, -0.5018542629548425, 0.6287185296146256, -0.9770067414359239, -0.060081651211039644, -0.12676319719240273, 0.9174058854114143, 1.1188415748037306, -0.7069905716249113, 0.41623598471454654, -0.3214888024670299, -0.15621229003215115, -0.3337708830833223, -0.17198025006104511], [-0.6669400688294562, -0.5605170389607054, -0.2629413005048433, -0.3496151472229848, 0.26516012096649555, -0.5031400446046554, -0.9792557849714436, 0.07857511557312513, -0.27307211444951945, 0.2380849164415309, -0.8904650109795256, 0.9077595997011351, -0.2638890607812655, 1.39474279805611, -0.3544759715517256, 0.8588961572348448], [-0.3182787802958629, 0.6013784360200087, 0.08907361001166637, -0.6551158951114424, 0.2599068376493769, -0.923499664584862, -0.8870102527386475, -0.00013972368540271507, 0.7322500566060544, -0.39692557194223455, 0.06938790650379598, 0.12617347627477263, -0.3503908853193351, 0.5782645722537496, 0.17275228321021496, -0.8237214116934322], [0.40719018977555477, 0.7178399206280518, 0.2712151846616973, -0.2532867190952331, 1.3999332332960819, -0.2312117391449189, 0.6134426750399058, -0.8495763434618835, 0.28469638300295885, 0.8455365945771036, -0.0504562280802133, 1.2874243833509862, -0.027451855429523275, 0.33877552677984213, -0.2389796657487553, -0.5144735570165712], [-0.7664772938163174, -0.2568186475338731, -0.5532737341900642, 0.3064827761339208, -0.4489702416493507, 0.6083997883005995, 0.9294070058752918, -0.9253115215642167, 1.0645585867998353, 0.25138296767281937, 1.0216575213322896, 0.14354658050946253, -0.5664770538040166, -0.3064907540016926, -0.5689574743009822, 0.4417822467703628], [-0.5294523916518813, 0.3219780340178485, -0.4036698151592812, 0.17469062880763953, -0.483775882632306, -0.0313750606248647, -0.6730317831956495, 0.17622845461864417, 0.7752598030226326, -1.0272648046215906, 0.5825858983302477, -0.19695192209556525, -0.3311717581473434, -1.0582994310224683, 1.1471531526909942, 0.9440829607981409], [-0.33604998124560104, -0.9762039698858642, 1.8313192743934177, -0.3943716309469044, 0.8999358191425928, -0.2617941374473822, -0.3214557529195506, -0.7540003934870594, 1.0254471160641947, -0.20392755048818823, -0.561707080618242, -0.10348632750399461, -0.4097657678116027, -0.3529489814652103, 0.3697579177418139, -0.20066180277290496], [-0.5449004417457816, -0.22961716964813939, -0.14727750417723434, -0.4867037422731765, 0.37006262723569183, 0.10707356114568845, -0.05419481779546986, -0.3649146923474479, 0.2851115858996446, -0.2736174269634942, 0.13854205586424367, 0.9304586891299125, 0.5986880331817861, -0.05098512413208564, -0.7990656240439354, -0.2072890115254843], [0.7818205020435662, 0.7419652992531434, 0.1272615303058104, 0.3852772528148209, 0.10169779177594501, -0.055142992013653414, 0.8608746181059515, 0.2091203852344344, -0.9755625857638883, 0.49906336774228455, -1.0886479923170773, 1.152268243673074, -0.09328308165354376, 0.48990149236127684, -1.046109174859766, 0.5164046930282123], [-0.366610785057003, -0.3344928471415098, -1.107366284343366, 0.0157472855799696, -0.038098289014702164, 0.7566047189131958, 0.6765578991993506, -0.285852128319199, 0.8016659312697665, -0.05808925206981494, 0.08679940778090908, 0.7105062359969492, 0.18061737451059717, -0.558182737583844, 0.8255750295063125, -0.5332791942044635], [0.09864285681029249, 0.45933863249463525, 0.20119773821959197, -0.2517432049173354, 0.4118082538895655, 0.10915128073668742, 0.910960449021065, 0.1624451417375113, -1.5852319333654141, 0.499456505519482, -0.18212014803748133, -0.438982402460357, 0.2251186946814856, -0.5341944700892625, -0.05887292201133526, -1.0241951304863874], [0.39207322372608716, -0.46176203320350373, -0.27743776648629437, 0.4480780730107144, -0.6261868357401886, 0.563027151355376, 0.8040353552630588, 0.07401440180879551, 0.3902875927649524, -0.3677475733641234, 0.3549329860379591, 0.1607508883422761, -0.9307958533295545, -0.0820950099086692, 0.3554797167042256, 0.2878792482693082], [-0.0836119430858078, 0.01802956156196417, 0.31857433037024857, 0.9897020223749533, -0.14748577244696184, -0.21706610348273894, -0.16191790094078062, 1.0223403268798843, -0.5531745160532655, 0.6784875816353084, -0.6389970378079719, 1.9184737340785913, -0.0018453042804298936, 0.2990310125101662, -0.8885318835102423, 1.8716820728604033], [-0.6621289943096037, 0.370835989902526, -0.32529657278355995, -0.1529458304938497, 0.07652664542110116, 1.0357031707018662, 0.22677512459570906, 0.033247260415807445, -0.900966067462337, -0.9719433906743512, -0.8358558227581467, 0.042411424659260996, 1.1415911006522212, -0.2599869367188354, 1.0375928860129138, 0.20572384005079108], [-0.515562839789677, -0.26215076861554176, 0.13127385172246536, 0.014217321117850528, -0.6499621172479071, 0.26124659476069556, 0.2770737789697235, -0.1478384765474713, 0.8131569179888188, -0.2611933260381555, 0.45211256943903344, -0.7285181101543557, 0.4760332154098994, 0.33506687691110154, 0.3219561424616918, 0.6002695747311881], [0.631414068786803, -0.6697797151660241, 0.11736991395105827, -0.900213591946557, 0.8511178551121938, -1.3891239869961278, -0.9406803691586102, -1.5062044047036407, -0.6032538401682492, -0.1365907374850352, -0.6310066553368311, -0.20498523233972188, 0.12185286292253669, -0.45233799926386997, -0.12839600793302428, 0.398481262820673], [0.46832087459203525, 1.4372314381085594, -0.8113889483656327, -1.0854942481465963, -0.5074913399552867, -0.3229691955341791, 0.21793400356182846, -0.8922226013791944, -0.43674612454641104, -0.3554579949243498, -0.9770575766442112, 0.6979208053525168, 0.4910919352237637, 0.9356091009908599, -1.3560163250974417, 0.12131912065776893], [0.3588026776322518, 0.38659747526323346, -2.0873407739758343, 0.46967796112940263, -0.3983063521989527, -0.5578166018475992, -0.033126363352161514, -0.5776645595258825, 0.9683294718023261, -0.19148858339637342, 0.29122630470742017, -0.7098805014295001, 0.24047699132731265, 0.4440174478146902, 0.5514493299190961, 0.5457991323618279], [-1.1699536741016918, -0.3706556638028952, 0.4904277300118868, -1.1813845372633676, 0.17127472998016605, -0.6624991478382536, 0.4779221055133662, 0.16850923862032835, 0.42489411940687305, -0.4744584043250065, -0.04761549633236406, 0.7152420862233068, 0.42461251386033844, 0.1196926928223566, -0.31720665518128, -0.3439369765954747]], "b2": [0.08078779548844411, 0.3830254376500799, -0.6705877254414543, -0.33424025063580987, -0.26060679391891284, -1.9613545673402188, 0.43953268124094336, -0.1768102701620916, 0.3037272742921776, -0.2915541144869206, 0.8457575414901081, -0.9563977731632477, 0.9988192039448361, -0.7239562587671641, 0.30853146375652285, 0.595015441830656], "fitness": 0.6255102040816326, "wins": 613, "games_played": 980}